-0.0139203, -0.00744531, -0.589806, -0.000360391, 0.00139733, 0.000819097, 0.0316228, 0.0316228, 0.0316228, 0.0316228, 0.0316228, 0.0316228
-0.0139203, -0.00744531, -0.589806, -0.000360391, 0.00139733, 0.000819097, 0.0316235, 0.0316235, 0.0316235, 0.0316228, 0.0316228, 0.0316228
-0.0139225, -0.00727748, -0.589843, -8.27457e-05, 0.0013843, 0.000850796, 0.0316007, 0.0316005, 0.0315968, 0.0315521, 0.0315525, 0.0316188
-0.0139461, -0.00723946, -0.589931, -5.46458e-06, 0.00143392, 0.00082824, 0.0315823, 0.0315808, 0.0315677, 0.0314753, 0.0314802, 0.031615
-0.0139694, -0.00716972, -0.590048, 0.000158917, 0.00151166, 0.000838812, 0.0315676, 0.031564, 0.0315365, 0.0313886, 0.0314027, 0.0316112
-0.0139828, -0.00723146, -0.590203, -3.23775e-06, 0.00155636, 0.00081118, 0.0315538, 0.0315498, 0.0314977, 0.0312901, 0.0313062, 0.0316071
-0.0139611, -0.00732063, -0.590203, -0.000278716, 0.00146504, 0.000794657, 0.0315411, 0.0315382, 0.0314486, 0.0311778, 0.0311871, 0.031603
-0.0139532, -0.00731016, -0.590339, -0.000248934, 0.00145148, 0.000820451, 0.0315305, 0.0315287, 0.0313872, 0.031047, 0.0310489, 0.031599
-0.0139426, -0.00722135, -0.590399, 0.000126452, 0.0014085, 0.000849028, 0.031522, 0.0315209, 0.0313103, 0.0308968, 0.0308962, 0.031595
-0.0139426, -0.00722135, -0.590399, 0.000126452, 0.0014085, 0.000849028, 0.0315221, 0.031521, 0.0313104, 0.0308968, 0.0308962, 0.031595
-0.013897, -0.00724609, -0.589935, -3.48582e-05, 0.00114337, 0.000781196, 0.031514, 0.0315134, 0.0311811, 0.0306157, 0.0306145, 0.0315793
-0.013897, -0.00724609, -0.589935, -3.48582e-05, 0.00114337, 0.000781196, 0.0315141, 0.0315135, 0.0311811, 0.0306157, 0.0306145, 0.0315793
-0.0138814, -0.00717006, -0.590059, 0.000610153, 0.00113783, 0.000874356, 0.0315081, 0.0315083, 0.0310005, 0.0302394, 0.0302392, 0.0315635
-0.0138573, -0.00720439, -0.589627, 0.000223563, 0.000972245, 0.000837852, 0.0315049, 0.0315056, 0.0308223, 0.0299328, 0.0299394, 0.0315591
-0.0138573, -0.00720439, -0.589627, 0.000223563, 0.000972245, 0.000837852, 0.0315049, 0.0315056, 0.0308224, 0.0299328, 0.0299394, 0.0315591
-0.0138573, -0.00720439, -0.589627, 0.000223563, 0.000972245, 0.000837852, 0.031505, 0.0315057, 0.0308224, 0.0299328, 0.0299394, 0.0315591
-0.0138573, -0.00720439, -0.589627, 0.000223563, 0.000972245, 0.000837852, 0.0315051, 0.0315058, 0.0308225, 0.0299328, 0.0299394, 0.0315591
-0.0138058, -0.00723561, -0.588443, -0.000668568, 0.000515118, 0.000801533, 0.0315025, 0.0315038, 0.0304643, 0.0289548, 0.0290111, 0.0314955
-0.0137911, -0.00722371, -0.587994, -0.000419124, 0.000500144, 0.000836544, 0.0315014, 0.0315031, 0.0301273, 0.0283712, 0.0284546, 0.0314915
-0.0137674, -0.00722495, -0.587323, -0.000633296, 0.000353695, 0.000822216, 0.0315008, 0.0315029, 0.029803, 0.0278965, 0.0279965, 0.0314875
-0.013759, -0.00722049, -0.587017, -0.00050253, 0.000343363, 0.000842259, 0.0315005, 0.0315028, 0.0294853, 0.0274458, 0.027547, 0.0314835
-0.0137501, -0.00722002, -0.58672, -0.000702989, 0.000329415, 0.000827782, 0.0315003, 0.0315028, 0.0291734, 0.0269781, 0.0270682, 0.0314795
-0.0137529, -0.00722215, -0.586863, -0.00105983, 0.000436235, 0.000820495, 0.0315002, 0.0315029, 0.028886, 0.0264514, 0.0265432, 0.0314753
-0.0137407, -0.00721934, -0.586331, -0.00172088, 0.00019909, 0.000820162, 0.0315001, 0.0315029, 0.028621, 0.0258389, 0.0259482, 0.0314713
-0.0137336, -0.00721869, -0.586122, -0.00176697, 0.000199331, 0.00084255, 0.0315, 0.031503, 0.0283638, 0.0251488, 0.025265, 0.0314673
-0.0137362, -0.00721813, -0.586268, -0.00203397, 0.000252605, 0.000830723, 0.0315, 0.0315031, 0.0281186, 0.0243957, 0.0245094, 0.0314636
-0.0137345, -0.00721643, -0.586181, -0.00234785, 0.000309531, 0.000826911, 0.0315, 0.0315032, 0.0278855, 0.0235964, 0.0237063, 0.0314596
-0.0137367, -0.00721652, -0.586362, -0.00225137, 0.000403933, 0.000841796, 0.0314999, 0.0315032, 0.0276378, 0.0227737, 0.0228608, 0.0314556
-0.013739, -0.00721491, -0.586528, -0.00259562, 0.000392118, 0.00083121, 0.0314999, 0.0315033, 0.0273701, 0.0219425, 0.0219932, 0.0314513
-0.013739, -0.00721335, -0.586596, -0.00279059, 0.000484613, 0.000836672, 0.0314999, 0.0315033, 0.0270955, 0.0211368, 0.0211533, 0.031447
-0.0137374, -0.00721738, -0.586555, -0.00230896, 0.00055788, 0.000851669, 0.0314998, 0.0315034, 0.0268163, 0.0203813, 0.02035, 0.0314427
-0.0137366, -0.00722207, -0.586242, -0.00203716, 0.000445119, 0.000835979, 0.0314997, 0.0315034, 0.026562, 0.0196954, 0.0195949, 0.0314385
-0.0137359, -0.00721985, -0.586127, -0.00221102, 0.000451677, 0.000825304, 0.0314996, 0.0315033, 0.0263425, 0.0190779, 0.018877, 0.031434
-0.0137319, -0.0072365, -0.585871, -0.001648, 0.000453088, 0.000835185, 0.0314993, 0.0315032, 0.0261734, 0.0185346, 0.0182015, 0.0314296
-0.0137332, -0.0072517, -0.585722, -0.00126952, 0.000414912, 0.000810183, 0.0314989, 0.0315029, 0.0260698, 0.0180684, 0.0175306, 0.0314236
-0.0137288, -0.00728115, -0.585454, -0.000821059, 0.000549685, 0.000797154, 0.0314983, 0.0315026, 0.0260251, 0.0176912, 0.0168546, 0.0314161
-0.0137309, -0.00730147, -0.585471, -0.000512813, 0.00053811, 0.000764843, 0.0314973, 0.031502, 0.0260139, 0.0174002, 0.0161391, 0.0313986
-0.0137327, -0.00730754, -0.585484, -0.000431228, 0.000535118, 0.000752027, 0.0314962, 0.0315014, 0.0260058, 0.0171867, 0.0154213, 0.0313845
-0.013735, -0.00731513, -0.585531, -0.00036241, 0.000532372, 0.000748118, 0.0314949, 0.0315009, 0.0259863, 0.0170269, 0.0147211, 0.0313751
-0.0137405, -0.00732888, -0.585652, -0.000252364, 0.00051506, 0.000746156, 0.0314937, 0.0315003, 0.0259542, 0.0168992, 0.014037, 0.0313674
-0.0137385, -0.00732301, -0.585588, -0.000298706, 0.000513582, 0.000741704, 0.0314923, 0.0314997, 0.0259124, 0.0167834, 0.0133631, 0.0313597
-0.0137412, -0.00732577, -0.585635, -0.000288893, 0.000502645, 0.000743417, 0.031491, 0.0314991, 0.0258604, 0.0166658, 0.0127251, 0.0313554
-0.0137259, -0.0073145, -0.585417, -0.000314192, 0.000525973, 0.00077144, 0.0314897, 0.0314983, 0.0258022, 0.0165379, 0.0121091, 0.0313516
-0.0137418, -0.00731243, -0.585478, -0.000357156, 0.000417078, 0.000736497, 0.0314885, 0.0314974, 0.0257396, 0.0163874, 0.0115587, 0.0313482
-0.0137464, -0.00732616, -0.585559, -0.000262064, 0.000381546, 0.000761019, 0.0314873, 0.0314964, 0.0256719, 0.0162076, 0.0110259, 0.0313455
-0.0137502, -0.00733426, -0.585603, -0.000229691, 0.000380267, 0.000752792, 0.0314861, 0.0314951, 0.0256068, 0.0160016, 0.010525, 0.0313421
-0.0137379, -0.00730441, -0.58546, -0.000451112, 0.000430338, 0.000749714, 0.0314851, 0.0314935, 0.025551, 0.0157736, 0.0100488, 0.0313381
-0.0137328, -0.00730551, -0.585517, -0.000375415, 0.000469236, 0.000788355, 0.0314841, 0.0314916, 0.0255079, 0.0155032, 0.00961263, 0.0313344
-0.0137177, -0.00723814, -0.585399, -0.000756044, 0.000493613, 0.000790526, 0.0314833, 0.0314891, 0.0254784, 0.0151725, 0.0092148, 0.0313292
-0.0137135, -0.00723287, -0.585403, -0.000786648, 0.000541736, 0.000788851, 0.0314825, 0.0314859, 0.0254609, 0.0147402, 0.00886541, 0.0313225
-0.0137146, -0.0072335, -0.58539, -0.000817637, 0.000534012, 0.000780282, 0.0314819, 0.0314818, 0.0254507, 0.0142022, 0.00854556, 0.0313135
-0.0137155, -0.00735188, -0.585505, 0.000512966, 0.000571074, 0.000982578, 0.0314813, 0.0314768, 0.0254419, 0.0135578, 0.00825195, 0.0313
-0.0137364, -0.00742979, -0.585325, 0.000422467, 0.000506718, 0.000862016, 0.0314809, 0.0314716, 0.0254298, 0.012898, 0.00798631, 0.0312735
-0.0137482, -0.00756639, -0.585107, 0.00078057, 0.000530068, 0.000877041, 0.0314804, 0.0314653, 0.0254099, 0.0121685, 0.0077287, 0.0312327
-0.0137321, -0.007499, -0.585268, 0.00102076, 0.000593073, 0.000994126, 0.0314801, 0.0314582, 0.025379, 0.0114158, 0.007483, 0.0311684
-0.0137296, -0.0074527, -0.585358, 0.000740132, 0.000600752, 0.000980645, 0.0314797, 0.0314496, 0.0253343, 0.0106485, 0.00726727, 0.0310922
-0.0137246, -0.00727377, -0.585769, -0.0005639, 0.000585406, 0.000833859, 0.0314793, 0.0314384, 0.0252729, 0.00986614, 0.00706889, 0.0310027
-0.0137246, -0.00727377, -0.585769, -0.0005639, 0.000585406, 0.000833859, 0.0314794, 0.0314384, 0.025273, 0.00986615, 0.0070689, 0.0310027
-0.0136894, -0.00683455, -0.58679, -0.00193307, 0.000609734, 0.000821998, 0.0314785, 0.0314117, 0.025128, 0.00874208, 0.00682412, 0.0308385
-0.0136993, -0.00704095, -0.586261, -0.00104336, 0.000628225, 0.000922665, 0.0314775, 0.0313775, 0.0249656, 0.00784333, 0.00662835, 0.0306875
-0.0136579, -0.00667639, -0.586935, -0.00125517, 0.00065366, 0.00104636, 0.0314766, 0.0313409, 0.0247988, 0.00718918, 0.00646329, 0.0305014
-0.0136323, -0.00638111, -0.587509, -0.00151929, 0.00062289, 0.000973284, 0.0314757, 0.0312973, 0.0246145, 0.00667613, 0.00632803, 0.030289
-0.0136338, -0.00630902, -0.587765, -0.00188832, 0.000595011, 0.000820961, 0.0314747, 0.0312451, 0.0244007, 0.0062639, 0.00621588, 0.0300445
-0.0135699, -0.00573918, -0.588718, -0.00198293, 0.000625095, 0.00104733, 0.0314736, 0.0311833, 0.0241481, 0.00591655, 0.00611984, 0.0297699
-0.0135795, -0.00588527, -0.588219, -0.00155951, 0.000613898, 0.000971539, 0.0314726, 0.0311118, 0.0238303, 0.00566027, 0.00604622, 0.0294322
-0.0135999, -0.00605797, -0.58786, -0.00149896, 0.000588451, 0.000734642, 0.0314714, 0.0310269, 0.0234117, 0.00546166, 0.00598495, 0.0290311
-0.0135818, -0.00588804, -0.588146, -0.00145488, 0.000588567, 0.000797569, 0.0314702, 0.0309288, 0.0228799, 0.00530178, 0.00593134, 0.0285806
-0.0135818, -0.00588804, -0.588146, -0.00145488, 0.000588567, 0.000797569, 0.0314703, 0.0309288, 0.02288, 0.00530179, 0.00593135, 0.0285806
-0.0135015, -0.0050908, -0.58958, -0.00126953, 0.000570934, 0.00108193, 0.0314686, 0.0307863, 0.0219042, 0.00516265, 0.0058377, 0.0277723
-0.0135015, -0.0050908, -0.58958, -0.00126953, 0.000570934, 0.00108193, 0.0314687, 0.0307863, 0.0219043, 0.00516266, 0.00583771, 0.0277723
-0.0133979, -0.00419015, -0.591808, -0.00122835, 0.00070259, 0.00110278, 0.0314666, 0.0306158, 0.0203682, 0.0050883, 0.00569197, 0.0265429
-0.013378, -0.00408357, -0.592038, -0.00120084, 0.000766373, 0.0010726, 0.0314651, 0.0304843, 0.0189537, 0.00506865, 0.00564122, 0.025438
-0.0133628, -0.00398801, -0.592348, -0.00120389, 0.000815342, 0.00101885, 0.031464, 0.0303832, 0.0176868, 0.00505804, 0.00558711, 0.0244453
-0.0133378, -0.00375591, -0.592999, -0.00119434, 0.000829243, 0.00102428, 0.0314633, 0.0303098, 0.0165967, 0.00505323, 0.00553137, 0.02353
-0.0133474, -0.00397634, -0.592479, -0.00118805, 0.000932116, 0.000877394, 0.0314628, 0.0302597, 0.0156839, 0.00505102, 0.00547396, 0.0226517
-0.0133505, -0.00403319, -0.592333, -0.0011836, 0.000951173, 0.000861635, 0.0314625, 0.0302274, 0.0149507, 0.00504797, 0.0054184, 0.0218449
-0.0133559, -0.00415561, -0.591898, -0.00116244, 0.000982326, 0.000908933, 0.0314623, 0.030208, 0.0143734, 0.00504474, 0.00536464, 0.0210798
-0.0133479, -0.00410349, -0.592191, -0.00117735, 0.00103138, 0.000857137, 0.0314623, 0.0301966, 0.0139231, 0.00504114, 0.00531278, 0.0203549
-0.0133481, -0.00419477, -0.591864, -0.00116856, 0.00109349, 0.000842219, 0.0314622, 0.0301897, 0.0135767, 0.00503778, 0.00526265, 0.0196497
-0.0133486, -0.00423588, -0.59171, -0.00117133, 0.00111608, 0.000936749, 0.0314622, 0.0301845, 0.0133099, 0.00503043, 0.00521624, 0.0189841
-0.0133433, -0.00422895, -0.591807, -0.0012098, 0.00118274, 0.000982132, 0.0314622, 0.0301807, 0.0131026, 0.00501936, 0.00517233, 0.0183478
-0.0133419, -0.00424407, -0.591763, -0.00123579, 0.00123037, 0.000932038, 0.0314622, 0.0301778, 0.0129423, 0.00500397, 0.00513117, 0.0177356
-0.0133387, -0.00423433, -0.59184, -0.00121855, 0.00124618, 0.000827379, 0.0314622, 0.0301758, 0.0128169, 0.00498027, 0.0050947, 0.0171545
-0.0133378, -0.00427407, -0.591736, -0.0011553, 0.00125608, 0.000687732, 0.0314622, 0.0301742, 0.0127158, 0.00494543, 0.00506192, 0.0165975
-0.0133305, -0.00427257, -0.591824, -0.00110491, 0.00130268, 0.000489909, 0.0314622, 0.0301727, 0.0126317, 0.00489141, 0.00503353, 0.0160703
-0.0133238, -0.00426224, -0.591977, -0.00102944, 0.00132841, 0.000364504, 0.0314623, 0.0301715, 0.0125605, 0.00481902, 0.00500802, 0.015568
-0.0133157, -0.00424777, -0.592163, -0.000932996, 0.00134895, 0.000280161, 0.0314623, 0.03017, 0.0124996, 0.0047278, 0.00498432, 0.015092
-0.0133104, -0.00423312, -0.5922, -0.000963904, 0.00139489, 0.000174597, 0.0314623, 0.030168, 0.012448, 0.00461641, 0.00496125, 0.0146419
-0.0133055, -0.00420839, -0.592235, -0.00101309, 0.00143159, 7.96239e-05, 0.0314623, 0.030166, 0.0124036, 0.00448595, 0.00493902, 0.0142251
-0.0133026, -0.00420601, -0.592266, -0.000985955, 0.0014543, -8.99491e-05, 0.0314623, 0.0301644, 0.012365, 0.00434076, 0.00491711, 0.0138402
-0.0132964, -0.00424047, -0.592344, -0.00075363, 0.00145109, -0.00029222, 0.0314622, 0.0301629, 0.0123313, 0.00418435, 0.00489638, 0.0134878
-0.0132883, -0.00428843, -0.592389, -0.000518001, 0.00148245, -0.000551198, 0.0314622, 0.0301616, 0.0123018, 0.0040209, 0.00487727, 0.0131654
-0.0132808, -0.00433354, -0.592402, -0.000340692, 0.00153004, -0.000792303, 0.0314621, 0.0301604, 0.0122752, 0.00385456, 0.0048581, 0.01287
-0.0132777, -0.00434758, -0.592388, -0.000344755, 0.00159475, -0.000963064, 0.031462, 0.0301593, 0.012251, 0.0036909, 0.00483867, 0.0126017
-0.0132736, -0.00437789, -0.592395, -0.000234121, 0.00161664, -0.00112208, 0.0314619, 0.0301581, 0.0122286, 0.00353324, 0.00481948, 0.0123611
-0.0132647, -0.00440622, -0.59243, -0.000149562, 0.00166124, -0.0013021, 0.0314618, 0.0301567, 0.0122071, 0.00338154, 0.00480242, 0.0121474
-0.013265, -0.00440321, -0.592442, -0.000168284, 0.00169345, -0.00144266, 0.0314617, 0.0301552, 0.0121851, 0.00323423, 0.00478926, 0.0119607
-0.0132503, -0.004467, -0.592554, -3.24723e-05, 0.0016951, -0.00156543, 0.0314616, 0.0301529, 0.0121613, 0.00308708, 0.00478119, 0.0118046
-0.0132409, -0.00451201, -0.592647, 4.95472e-05, 0.00169647, -0.00170589, 0.0314615, 0.0301508, 0.0121356, 0.00294284, 0.00477664, 0.0116737
-0.0132354, -0.00452396, -0.592652, 0.000200436, 0.00168113, -0.0018007, 0.0314612, 0.0301488, 0.012108, 0.00280236, 0.00477395, 0.0115675
-0.0132324, -0.00452425, -0.592649, 0.000323131, 0.00167284, -0.00190624, 0.0314609, 0.0301468, 0.0120782, 0.00266277, 0.00477162, 0.0114844
-0.013248, -0.004486, -0.592569, 0.000403773, 0.00166071, -0.00203138, 0.0314604, 0.0301446, 0.0120461, 0.0025256, 0.00476834, 0.0114203
-0.0132619, -0.00447693, -0.592566, 0.000338723, 0.0016652, -0.00216636, 0.0314599, 0.0301418, 0.0120113, 0.00239246, 0.00476358, 0.0113743
-0.0132772, -0.00443242, -0.592502, 0.000417306, 0.00163286, -0.00221788, 0.0314592, 0.0301376, 0.0119734, 0.0022656, 0.00475685, 0.0113436
-0.0132849, -0.00440839, -0.592483, 0.000488984, 0.00160018, -0.00225962, 0.0314584, 0.0301317, 0.011931, 0.00214339, 0.00474804, 0.0113245
-0.0133137, -0.00432209, -0.592377, 0.000534651, 0.00156149, -0.00227996, 0.0314574, 0.0301244, 0.0118833, 0.00202814, 0.00473616, 0.0113137
-0.0133031, -0.00432592, -0.592438, 0.000628856, 0.00150263, -0.00225148, 0.0314561, 0.0301155, 0.0118288, 0.00191855, 0.00471887, 0.011308
-0.0133157, -0.00427723, -0.592426, 0.000685999, 0.00143837, -0.00221779, 0.0314544, 0.0301052, 0.0117654, 0.00181352, 0.00469464, 0.0112999
-0.0133221, -0.00432535, -0.592494, 0.000619365, 0.00139908, -0.00223499, 0.0314521, 0.0300934, 0.0116914, 0.00171297, 0.00466174, 0.0112858
-0.0132773, -0.00442678, -0.592709, 0.000632006, 0.00135455, -0.00221455, 0.0314492, 0.0300794, 0.0116055, 0.00161615, 0.00461918, 0.0112637
-0.013364, -0.00431337, -0.592516, 0.000598222, 0.00128541, -0.00216571, 0.0314455, 0.0300643, 0.011506, 0.00152627, 0.00456609, 0.0112275
-0.0134073, -0.00433585, -0.592494, 0.000527273, 0.00121459, -0.00209978, 0.0314407, 0.0300486, 0.0113924, 0.00144278, 0.00450163, 0.0111752
-0.0133881, -0.00436813, -0.592639, 0.000527888, 0.00112646, -0.00198561, 0.0314353, 0.0300321, 0.0112648, 0.00136527, 0.00442707, 0.0111058
-0.0134895, -0.00428362, -0.592456, 0.000493073, 0.00100789, -0.00180983, 0.031429, 0.0300155, 0.0111241, 0.00129528, 0.00434431, 0.0110185
-0.0134624, -0.00434134, -0.592632, 0.00047255, 0.000900839, -0.0016383, 0.0314218, 0.0300006, 0.0109734, 0.00123336, 0.00425268, 0.0109113
-0.0135451, -0.0042883, -0.592518, 0.000444899, 0.000760471, -0.00139393, 0.0314142, 0.0299866, 0.0108144, 0.00117795, 0.00415549, 0.0107876
-0.0136071, -0.00424394, -0.592454, 0.000428693, 0.000622789, -0.00113615, 0.0314063, 0.0299734, 0.0106501, 0.00112914, 0.00405254, 0.0106463
-0.0137252, -0.00418682, -0.592249, 0.000380357, 0.000492395, -0.000886432, 0.0313983, 0.0299606, 0.0104828, 0.00108656, 0.00394457, 0.0104877
-0.0137679, -0.00420958, -0.592243, 0.000338142, 0.000378076, -0.000660458, 0.0313905, 0.0299458, 0.0103122, 0.00104903, 0.0038321, 0.0103124
-0.0138985, -0.00412696, -0.591991, 0.000282037, 0.000272691, -0.000443728, 0.031383, 0.0299291, 0.0101407, 0.00101622, 0.00371627, 0.0101221
-0.014002, -0.00400046, -0.591777, 0.000274605, 0.000157909, -0.000187555, 0.0313758, 0.02991, 0.00997039, 0.000987096, 0.00359745, 0.00991741
-0.0140812, -0.00391025, -0.591623, 0.000258711, 5.82592e-05, 3.74918e-05, 0.0313689, 0.0298896, 0.00980511, 0.00096138, 0.0034775, 0.00970179
-0.0141534, -0.0038077, -0.591479, 0.000254082, -4.83257e-05, 0.000286772, 0.0313624, 0.0298675, 0.00964599, 0.000938446, 0.00335714, 0.009477
-0.0142376, -0.00373336, -0.591342, 0.000206961, -0.000125247, 0.000459184, 0.0313564, 0.0298407, 0.00949302, 0.000917931, 0.00323732, 0.00924517
-0.0142832, -0.00372278, -0.591302, 0.000175874, -0.000196826, 0.000626552, 0.0313511, 0.0298077, 0.00934574, 0.000899311, 0.00311807, 0.00900714
-0.0143955, -0.0034882, -0.59104, 0.000152405, -0.000278625, 0.000829292, 0.0313463, 0.0297679, 0.00920535, 0.000882388, 0.00299964, 0.00876362
-0.0143753, -0.00368212, -0.591201, 0.00012832, -0.000323364, 0.000932187, 0.0313421, 0.0297207, 0.00907325, 0.000866747, 0.00288278, 0.00851695
-0.0144294, -0.00358648, -0.591107, 0.00010827, -0.000364782, 0.00103518, 0.0313383, 0.0296678, 0.00894985, 0.000852436, 0.00276748, 0.0082673
-0.0144364, -0.00357479, -0.591097, 0.000107257, -0.000427648, 0.00119992, 0.0313347, 0.0296095, 0.00883433, 0.000838857, 0.00265418, 0.00801659
-0.0145118, -0.00340488, -0.590971, 8.1349e-05, -0.000448835, 0.00124979, 0.0313315, 0.0295407, 0.0087271, 0.000826051, 0.00254356, 0.0077668
-0.0145238, -0.00333595, -0.590928, 8.0254e-05, -0.000478478, 0.00133083, 0.0313286, 0.0294594, 0.00862617, 0.00081367, 0.00243526, 0.00751797
-0.0145663, -0.00313494, -0.590816, 7.31674e-05, -0.000500148, 0.00138976, 0.0313259, 0.0293661, 0.00853132, 0.000801675, 0.00232974, 0.00727156
-0.0145861, -0.00305499, -0.590775, 6.83454e-05, -0.000505558, 0.0014039, 0.0313234, 0.0292598, 0.00844125, 0.000789919, 0.00222681, 0.00702764
-0.0145965, -0.00310879, -0.590796, 6.04922e-05, -0.000511708, 0.00141788, 0.0313209, 0.0291434, 0.00835515, 0.00077848, 0.00212678, 0.00678733
-0.0146932, -0.00266012, -0.590587, 4.43568e-05, -0.000504163, 0.0013936, 0.0313184, 0.0290208, 0.00827194, 0.000767335, 0.00202987, 0.00655147
-0.0146761, -0.00308926, -0.590763, 3.202e-05, -0.000497008, 0.00136563, 0.0313158, 0.0288948, 0.00819174, 0.000756328, 0.00193622, 0.00632083
-0.0146929, -0.0031017, -0.590763, 2.66771e-05, -0.000484617, 0.00132767, 0.0313131, 0.0287722, 0.00811416, 0.00074571, 0.00184598, 0.00609568
-0.0147458, -0.00284038, -0.590645, 2.1531e-05, -0.000478902, 0.00131059, 0.0313103, 0.0286585, 0.00803863, 0.000735327, 0.00175978, 0.005878
-0.014802, -0.00274839, -0.590596, 8.84693e-06, -0.00046128, 0.00125292, 0.0313074, 0.0285564, 0.00796569, 0.000725128, 0.00167804, 0.005669
-0.0148327, -0.00268012, -0.590561, 3.99507e-06, -0.000453462, 0.00122761, 0.0313045, 0.0284674, 0.00789573, 0.000715224, 0.00160076, 0.005469
-0.0148987, -0.00246683, -0.590453, -4.26536e-06, -0.000446746, 0.0012048, 0.0313016, 0.028393, 0.00782784, 0.000705566, 0.00152793, 0.00527802
-0.0149259, -0.00247271, -0.590459, -1.28733e-05, -0.000436857, 0.0011696, 0.0312986, 0.0283315, 0.00776171, 0.00069611, 0.0014597, 0.00509695
-0.0149902, -0.00216904, -0.590279, -7.59463e-06, -0.000432712, 0.00116123, 0.0312956, 0.0282804, 0.00769727, 0.000686792, 0.00139556, 0.00492474
-0.015016, -0.00214844, -0.590285, -1.69871e-05, -0.000428854, 0.00114346, 0.0312927, 0.0282376, 0.00763493, 0.000677601, 0.0013358, 0.00476245
-0.0151054, -0.00191146, -0.590192, -3.55472e-05, -0.000412979, 0.00108655, 0.0312899, 0.0282002, 0.00757482, 0.000668583, 0.00127974, 0.00460867
-0.0152341, -0.00148393, -0.589909, -3.30698e-05, -0.000411367, 0.00108522, 0.031287, 0.0281667, 0.00751547, 0.000659657, 0.00122712, 0.00446317
-0.0152747, -0.00136264, -0.589807, -2.68763e-05, -0.000409933, 0.0010822, 0.0312842, 0.0281366, 0.0074584, 0.000651011, 0.00117797, 0.00432607
-0.0152611, -0.00142549, -0.589891, -3.61735e-05, -0.000400943, 0.00104699, 0.0312815, 0.0281097, 0.00740427, 0.000642766, 0.00113196, 0.00419653
-0.0152471, -0.00141111, -0.589707, 4.82319e-06, -0.000407374, 0.00108581, 0.0312787, 0.0280856, 0.00735268, 0.000634916, 0.00108862, 0.00407354
-0.0153053, -0.00124579, -0.589534, 1.68574e-05, -0.000406284, 0.00108607, 0.0312759, 0.0280648, 0.00730383, 0.000627576, 0.00104855, 0.00395843
-0.0153053, -0.00124579, -0.589534, 1.68574e-05, -0.000406284, 0.00108607, 0.031276, 0.0280649, 0.00730418, 0.000627675, 0.00104861, 0.00395845
-0.0153874, -0.0010773, -0.589452, 8.76917e-06, -0.000389899, 0.00102372, 0.0312726, 0.0280453, 0.00725371, 0.000619567, 0.00100359, 0.0038271
-0.0154409, -0.000950598, -0.589353, 1.15926e-05, -0.000376839, 0.000980782, 0.0312692, 0.0280278, 0.00720575, 0.000611916, 0.000963558, 0.00370978
-0.0154409, -0.000950598, -0.589353, 1.15926e-05, -0.000376839, 0.000980782, 0.0312693, 0.0280279, 0.00720611, 0.000612019, 0.000963623, 0.00370979
-0.0155439, -0.000739193, -0.589214, 6.57879e-06, -0.000361337, 0.000925693, 0.0312657, 0.0280102, 0.00715549, 0.000603099, 0.000920984, 0.00358465
-0.0157486, -0.000337948, -0.588929, -3.55848e-06, -0.000345303, 0.000867327, 0.0312623, 0.0279934, 0.00710704, 0.000594572, 0.000883644, 0.00347602
-0.015759, -0.0002981, -0.588911, -5.23862e-08, -0.000322092, 0.00078968, 0.0312589, 0.0279767, 0.00705948, 0.000586233, 0.00085028, 0.00338014
-0.0158063, -0.000231207, -0.588869, -4.8931e-06, -0.000309708, 0.000745015, 0.0312557, 0.0279596, 0.00701244, 0.000578007, 0.00082023, 0.00329505
-0.0158033, -0.00025122, -0.588893, -5.76556e-06, -0.000293943, 0.000690771, 0.0312526, 0.0279403, 0.00696553, 0.000569798, 0.00079273, 0.00321877
-0.0158661, -0.00015138, -0.588818, -9.1721e-06, -0.000281142, 0.000644715, 0.0312497, 0.0279159, 0.006919, 0.000561566, 0.00076729, 0.00314998
-0.0157898, -0.000427306, -0.588994, -1.24474e-05, -0.00026112, 0.000576986, 0.031247, 0.0278835, 0.00687161, 0.000553199, 0.000743546, 0.00308773
-0.0157172, -0.000462668, -0.589044, 2.60899e-06, -0.000251799, 0.000550504, 0.0312446, 0.0278406, 0.00682403, 0.0005448, 0.000721333, 0.00303141
-0.0156544, -0.000771971, -0.589199, 1.32578e-06, -0.000237994, 0.000503461, 0.0312423, 0.0277886, 0.00677513, 0.000536427, 0.000700744, 0.00298079
-0.0155666, -0.00111914, -0.589372, 5.45778e-06, -0.000225717, 0.000463532, 0.0312403, 0.0277257, 0.0067261, 0.000528137, 0.000681495, 0.00293509
-0.0155407, -0.00133924, -0.589464, 4.21066e-06, -0.000212871, 0.000418916, 0.0312384, 0.0276533, 0.00667641, 0.000520004, 0.000663564, 0.00289408
-0.0155813, -0.00153579, -0.58951, -8.69355e-06, -0.000196368, 0.000356937, 0.0312366, 0.0275681, 0.00662626, 0.000511999, 0.00064682, 0.00285737
-0.0156121, -0.00136124, -0.58944, -7.15904e-06, -0.000184236, 0.000319232, 0.0312348, 0.0274703, 0.00657267, 0.000504064, 0.000631148, 0.00282478
-0.0155967, -0.00135993, -0.589446, -2.00485e-06, -0.000172495, 0.000285981, 0.0312328, 0.0273615, 0.00651454, 0.000496319, 0.000616621, 0.0027961
-0.0155423, -0.0016463, -0.589556, 8.16238e-07, -0.000161242, 0.000253103, 0.0312306, 0.0272419, 0.0064528, 0.000488864, 0.000603194, 0.00277097
-0.0155531, -0.00128706, -0.589451, 1.4561e-05, -0.000152702, 0.00023377, 0.0312279, 0.0271171, 0.00638718, 0.000481793, 0.000590838, 0.00274911
-0.0155103, -0.00154495, -0.589542, 1.65002e-05, -0.000140512, 0.000199027, 0.0312253, 0.0269853, 0.00632164, 0.00047515, 0.000579526, 0.00273005
-0.0155581, -0.00124104, -0.589438, 1.97572e-05, -0.000131192, 0.000172814, 0.0312225, 0.0268517, 0.00625561, 0.000468937, 0.00056913, 0.00271355
-0.0155572, -0.00112743, -0.589407, 2.5711e-05, -0.000120952, 0.000148442, 0.0312195, 0.0267196, 0.0061903, 0.000463168, 0.000559603, 0.00269924
-0.0155463, -0.00109143, -0.589403, 3.088e-05, -0.000111717, 0.000126369, 0.0312167, 0.0265911, 0.00612789, 0.000457844, 0.000550868, 0.00268681
-0.0154592, -0.00127057, -0.589491, 4.41436e-05, -0.000103723, 0.000114349, 0.0312142, 0.0264655, 0.00607046, 0.000452923, 0.000542838, 0.002676
-0.0154763, -0.000975701, -0.58941, 5.18594e-05, -9.76091e-05, 0.000102444, 0.031212, 0.0263453, 0.00601814, 0.000448361, 0.000535425, 0.00266659
-0.0154878, -0.000886515, -0.589383, 5.34684e-05, -8.88411e-05, 8.13399e-05, 0.0312102, 0.0262313, 0.00597011, 0.000444134, 0.00052856, 0.00265836
-0.0154392, -0.00113439, -0.58947, 5.68158e-05, -8.10876e-05, 6.4823e-05, 0.0312084, 0.026124, 0.00592557, 0.000440176, 0.000522179, 0.0026512
-0.0154462, -0.00102317, -0.589443, 5.93544e-05, -7.46072e-05, 5.05472e-05, 0.0312067, 0.0260222, 0.00588429, 0.000436458, 0.000516212, 0.00264498
-0.0154554, -0.000719879, -0.589365, 6.57664e-05, -7.04918e-05, 4.53201e-05, 0.0312053, 0.0259241, 0.00584639, 0.000432977, 0.00051062, 0.00263956
-0.0154187, -0.000781311, -0.589398, 7.27239e-05, -6.58688e-05, 3.95379e-05, 0.031204, 0.0258309, 0.00581133, 0.000429745, 0.000505356, 0.00263483
-0.0154388, -0.000531237, -0.589331, 7.5416e-05, -6.01923e-05, 2.81506e-05, 0.0312029, 0.0257428, 0.00577881, 0.000426755, 0.000500381, 0.00263072
-0.0154429, -0.000472095, -0.589317, 7.65238e-05, -5.53361e-05, 1.88211e-05, 0.0312021, 0.0256591, 0.00574856, 0.000424, 0.000495665, 0.0026271
-0.0154582, -0.000320439, -0.589276, 7.69141e-05, -5.09477e-05, 1.02246e-05, 0.0312013, 0.0255809, 0.00572006, 0.00042144, 0.00049118, 0.00262393
-0.0154895, -0.000190769, -0.58924, 7.2125e-05, -4.49158e-05, -4.30136e-06, 0.0312005, 0.0255076, 0.00569329, 0.000419065, 0.000486899, 0.00262112
-0.0154872, 0.000212421, -0.589124, 8.43577e-05, -4.49136e-05, 4.29433e-06, 0.0312, 0.0254374, 0.00566844, 0.0004169, 0.000482807, 0.00261863
-0.0154869, 0.000231528, -0.589116, 8.82916e-05, -4.24689e-05, 6.06519e-07, 0.0311996, 0.0253721, 0.00564524, 0.0004149, 0.000478869, 0.00261639
-0.0155024, 0.0003929, -0.589078, 8.67321e-05, -3.90103e-05, -6.67101e-06, 0.0311993, 0.0253098, 0.00562374, 0.000413064, 0.000475081, 0.00261443
-0.0154933, 0.000229742, -0.58911, 9.05165e-05, -3.69747e-05, -8.47292e-06, 0.0311991, 0.0252499, 0.00560372, 0.000411375, 0.000471441, 0.00261271
-0.0155064, 0.00044917, -0.589052, 9.07996e-05, -3.58536e-05, -1.00063e-05, 0.031199, 0.0251918, 0.00558524, 0.000409791, 0.000467937, 0.00261121
-0.0155113, 0.000467988, -0.589036, 9.34735e-05, -3.29331e-05, -1.32423e-05, 0.0311989, 0.0251359, 0.00556814, 0.000408284, 0.000464561, 0.00260991
-0.0155407, 0.00091985, -0.588875, 0.000101902, -3.49361e-05, -5.13115e-06, 0.0311989, 0.025081, 0.0055525, 0.000406825, 0.0004613, 0.00260877
-0.0155546, 0.000938657, -0.588844, 0.000106834, -3.43637e-05, -4.75766e-06, 0.0311989, 0.0250269, 0.00553826, 0.000405409, 0.000458136, 0.00260775
-0.0155562, 0.00105106, -0.588816, 0.000107372, -3.23178e-05, -7.02866e-06, 0.0311988, 0.0249746, 0.00552471, 0.000404014, 0.00045507, 0.00260685
-0.0155582, 0.000922912, -0.588841, 0.000109282, -2.99135e-05, -1.02601e-05, 0.0311989, 0.0249259, 0.00551124, 0.000402624, 0.000452097, 0.00260607
-0.0155699, 0.00108382, -0.588767, 0.000115974, -3.09956e-05, -5.84088e-06, 0.0311989, 0.0248811, 0.00549745, 0.000401215, 0.000449213, 0.00260539
-0.0155785, 0.00135858, -0.588673, 0.000120594, -3.1747e-05, -2.25039e-06, 0.031199, 0.0248408, 0.00548302, 0.000399771, 0.000446397, 0.00260478
-0.0155875, 0.00161525, -0.588581, 0.000126311, -3.23845e-05, 9.8823e-07, 0.031199, 0.0248038, 0.0054679, 0.000398291, 0.000443643, 0.00260422
-0.0155947, 0.00185669, -0.588498, 0.00012974, -3.34584e-05, 4.08609e-06, 0.031199, 0.0247697, 0.00545172, 0.000396752, 0.000440938, 0.00260369
-0.0155947, 0.00188036, -0.58849, 0.000127357, -3.28944e-05, 2.71826e-06, 0.031199, 0.0247379, 0.00543421, 0.000395152, 0.000438276, 0.00260317
-0.0156077, 0.00214996, -0.588398, 0.000134477, -3.32138e-05, 5.37368e-06, 0.0311989, 0.0247075, 0.00541516, 0.000393467, 0.000435654, 0.00260266
-0.015598, 0.00220098, -0.588397, 0.000138538, -3.35235e-05, 6.79648e-06, 0.0311987, 0.0246783, 0.00539417, 0.000391699, 0.000433055, 0.00260212
-0.0155907, 0.00217819, -0.588416, 0.000139781, -3.24525e-05, 5.8279e-06, 0.0311985, 0.0246487, 0.00537229, 0.00038986, 0.000430478, 0.00260155
-0.0155866, 0.00211428, -0.588444, 0.000138901, -3.13219e-05, 3.97912e-06, 0.0311982, 0.024619, 0.00534889, 0.000387923, 0.000427918, 0.00260092
-0.0155871, 0.00201525, -0.588476, 0.000136485, -3.07526e-05, 2.39304e-06, 0.0311978, 0.0245881, 0.00532493, 0.000385917, 0.000425371, 0.0026002
-0.0155973, 0.00203995, -0.588448, 0.000135675, -3.06896e-05, 2.06257e-06, 0.0311974, 0.024556, 0.00530103, 0.00038386, 0.000422831, 0.00259935
-0.0156079, 0.00189304, -0.588484, 0.000130864, -3.02767e-05, -8.52355e-07, 0.0311969, 0.0245237, 0.00527656, 0.000381771, 0.000420295, 0.00259834
-0.0155977, 0.00197287, -0.588485, 0.000134697, -3.14708e-05, 1.77911e-06, 0.0311964, 0.0244904, 0.00525314, 0.000379667, 0.000417764, 0.00259714
-0.0156029, 0.00191761, -0.588502, 0.000133072, -3.20466e-05, 2.04669e-06, 0.0311959, 0.024457, 0.00523045, 0.000377546, 0.000415231, 0.00259571
-0.0156272, 0.00188991, -0.588447, 0.000128599, -3.36557e-05, 4.90086e-06, 0.0311953, 0.0244235, 0.00520874, 0.000375427, 0.000412704, 0.002594
-0.0156435, 0.00188899, -0.588415, 0.000126397, -3.50474e-05, 6.75903e-06, 0.0311946, 0.024391, 0.00518748, 0.000373352, 0.000410183, 0.00259199
-0.0156578, 0.00178151, -0.588465, 0.000124054, -3.61255e-05, 7.08375e-06, 0.0311938, 0.0243615, 0.00516576, 0.000371352, 0.00040767, 0.00258966
-0.0156696, 0.00180324, -0.588424, 0.000122778, -3.80827e-05, 1.25788e-05, 0.0311929, 0.0243352, 0.00514319, 0.000369432, 0.000405167, 0.00258699
-0.0156929, 0.00184352, -0.58835, 0.000119392, -3.95848e-05, 1.60573e-05, 0.0311921, 0.0243089, 0.00512169, 0.000367623, 0.000402677, 0.00258397
-0.0157031, 0.00183308, -0.588341, 0.000117857, -4.15981e-05, 2.12764e-05, 0.0311912, 0.0242801, 0.00510113, 0.000365932, 0.000400207, 0.00258062
-0.0157036, 0.00189581, -0.588312, 0.000117363, -4.37248e-05, 2.79569e-05, 0.0311903, 0.0242464, 0.00508138, 0.000364338, 0.000397754, 0.00257692
-0.0157486, 0.00177007, -0.588307, 0.000110981, -4.46166e-05, 2.80528e-05, 0.0311894, 0.0242071, 0.00506159, 0.000362828, 0.000395315, 0.00257285
-0.0157478, 0.00186869, -0.588271, 0.000110281, -4.65411e-05, 3.48958e-05, 0.0311883, 0.0241607, 0.00504163, 0.000361406, 0.000392891, 0.00256841
-0.0157418, 0.00197135, -0.588241, 0.000110199, -4.88451e-05, 4.35016e-05, 0.031187, 0.0241073, 0.00502127, 0.00036005, 0.000390474, 0.00256351
-0.0157715, 0.00204333, -0.588187, 0.000106482, -5.01301e-05, 4.73157e-05, 0.0311852, 0.0240467, 0.0050006, 0.00035877, 0.000388062, 0.00255809
-0.0157799, 0.00219425, -0.588128, 0.000104604, -5.27086e-05, 5.75236e-05, 0.0311826, 0.0239779, 0.00497971, 0.000357614, 0.00038566, 0.00255209
-0.0157577, 0.00217576, -0.588152, 0.000105693, -5.4954e-05, 6.72751e-05, 0.031179, 0.0239016, 0.0049582, 0.000356614, 0.000383267, 0.00254547
-0.0158226, 0.00229379, -0.588055, 0.000101349, -5.76967e-05, 7.88491e-05, 0.0311744, 0.0238195, 0.00493549, 0.000355774, 0.000380881, 0.00253817
-0.0158492, 0.00247968, -0.58797, 9.92313e-05, -6.09637e-05, 9.37301e-05, 0.0311692, 0.0237329, 0.00491103, 0.000355153, 0.000378518, 0.00253025
-0.0159229, 0.00248934, -0.587899, 9.64764e-05, -6.33267e-05, 0.000104327, 0.0311636, 0.0236405, 0.0048858, 0.000354717, 0.000376183, 0.00252172
-0.0159734, 0.00265234, -0.587805, 9.45296e-05, -6.65856e-05, 0.000120115, 0.031158, 0.0235422, 0.00486037, 0.000354442, 0.000373886, 0.00251265
-0.0160784, 0.00299186, -0.587627, 9.27581e-05, -6.74862e-05, 0.000123473, 0.0311526, 0.0234388, 0.00483532, 0.00035427, 0.000371634, 0.00250307
-0.0161016, 0.00314063, -0.587561, 9.20888e-05, -7.0008e-05, 0.000136367, 0.0311476, 0.0233301, 0.00481145, 0.000354184, 0.000369441, 0.00249314
-0.0160636, 0.00320247, -0.587559, 9.16192e-05, -7.34618e-05, 0.000155642, 0.0311428, 0.023218, 0.00478867, 0.000354137, 0.000367305, 0.00248276
-0.01609, 0.00310118, -0.587563, 9.10687e-05, -7.48527e-05, 0.000163599, 0.0311382, 0.0231046, 0.00476692, 0.000354103, 0.000365225, 0.00247186
-0.0160518, 0.00288728, -0.587629, 9.02454e-05, -7.73007e-05, 0.000177775, 0.0311336, 0.0229906, 0.00474599, 0.000354082, 0.000363209, 0.00246054
-0.0160577, 0.00247474, -0.587724, 8.91423e-05, -7.83827e-05, 0.000184257, 0.0311288, 0.0228766, 0.00472587, 0.000354056, 0.000361255, 0.00244869
-0.016062, 0.00204667, -0.587822, 8.76032e-05, -7.96617e-05, 0.000192088, 0.0311238, 0.0227626, 0.00470638, 0.000354014, 0.00035936, 0.00243637
-0.0160674, 0.00169253, -0.587901, 8.61548e-05, -8.06887e-05, 0.00019846, 0.0311183, 0.0226484, 0.00468762, 0.00035395, 0.000357523, 0.00242362
-0.0160619, 0.00163246, -0.587912, 8.5734e-05, -8.16204e-05, 0.000204422, 0.031112, 0.0225333, 0.00466982, 0.000353876, 0.000355742, 0.00241051
-0.0159535, 0.00148208, -0.587954, 8.55724e-05, -8.43306e-05, 0.000218909, 0.0311048, 0.0224173, 0.00465288, 0.000353791, 0.00035401, 0.00239712
-0.0159128, 0.00167432, -0.587916, 8.61296e-05, -8.55836e-05, 0.000226069, 0.0310963, 0.0223013, 0.00463669, 0.000353654, 0.000352309, 0.00238325
-0.015899, 0.00171174, -0.587908, 8.62249e-05, -8.61084e-05, 0.000229303, 0.0310861, 0.0221846, 0.00462121, 0.000353465, 0.000350633, 0.00236906
-0.0157717, 0.0015681, -0.587937, 8.74294e-05, -8.77848e-05, 0.000238142, 0.0310738, 0.0220678, 0.00460628, 0.000353193, 0.000348973, 0.00235449
-0.0156839, 0.00151957, -0.587947, 8.85777e-05, -8.84294e-05, 0.000240566, 0.0310587, 0.0219518, 0.00459188, 0.000352808, 0.000347326, 0.00233947
-0.0155386, 0.00170643, -0.587913, 9.03261e-05, -9.02556e-05, 0.000250693, 0.0310405, 0.0218373, 0.00457788, 0.0003523, 0.000345696, 0.00232405
-0.0153846, 0.00183312, -0.58789, 9.24465e-05, -9.14425e-05, 0.000256378, 0.0310185, 0.0217252, 0.00456418, 0.000351652, 0.00034409, 0.00230824
-0.0151645, 0.00204786, -0.587848, 9.54412e-05, -9.32052e-05, 0.000265609, 0.0309922, 0.0216155, 0.0045507, 0.000350839, 0.000342505, 0.00229205
-0.0151294, 0.00195157, -0.587865, 9.63313e-05, -9.24829e-05, 0.0002595, 0.0309609, 0.0215084, 0.00453735, 0.000349832, 0.000340936, 0.00227548
-0.0151977, 0.00196104, -0.587867, 9.55322e-05, -9.16637e-05, 0.000253875, 0.0309239, 0.0214035, 0.00452405, 0.000348612, 0.000339379, 0.00225853
-0.0149734, 0.00205044, -0.587846, 9.94401e-05, -9.13291e-05, 0.000248329, 0.0308808, 0.0213006, 0.00451069, 0.000347163, 0.000337833, 0.00224124
-0.0147077, 0.00211878, -0.587827, 0.000104309, -9.04495e-05, 0.000238141, 0.0308311, 0.0212001, 0.00449733, 0.000345456, 0.000336293, 0.00222359
-0.0144188, 0.00198207, -0.587839, 0.00010973, -8.91618e-05, 0.000225396, 0.0307745, 0.021102, 0.00448389, 0.00034343, 0.000334745, 0.00220551
-0.014024, 0.00194669, -0.587829, 0.000117272, -8.76279e-05, 0.000209797, 0.0307108, 0.0210067, 0.00447029, 0.000340993, 0.00033317, 0.00218691
-0.0137564, 0.0017868, -0.587845, 0.000123098, -8.5278e-05, 0.000189346, 0.030641, 0.0209142, 0.00445656, 0.000338123, 0.000331564, 0.0021679
-0.0135579, 0.00169102, -0.587852, 0.000127714, -8.33646e-05, 0.000172848, 0.0305668, 0.0208239, 0.00444273, 0.000334837, 0.000329932, 0.00214859
-0.0133788, 0.00174104, -0.587835, 0.000132186, -8.1389e-05, 0.000155829, 0.0304907, 0.0207352, 0.00442884, 0.000331229, 0.000328292, 0.00212924
-0.0130873, 0.00210979, -0.587756, 0.00013811, -8.08233e-05, 0.00015018, 0.0304159, 0.0206478, 0.00441494, 0.000327454, 0.000326673, 0.00211014
-0.0131647, 0.0023689, -0.587716, 0.00013709, -8.0072e-05, 0.000143627, 0.0303454, 0.0205622, 0.00440116, 0.00032372, 0.00032511, 0.00209161
-0.0128775, 0.00259885, -0.587658, 0.000143376, -7.90988e-05, 0.000136417, 0.0302815, 0.0204774, 0.0043875, 0.000320145, 0.000323618, 0.00207374
-0.012744, 0.00290601, -0.587596, 0.000146685, -7.84022e-05, 0.000131005, 0.0302253, 0.020394, 0.00437424, 0.000316884, 0.000322214, 0.00205677
-0.0125746, 0.00304574, -0.587558, 0.000150993, -7.7079e-05, 0.000121348, 0.0301775, 0.0203115, 0.00436137, 0.000313994, 0.0003209, 0.00204066
-0.0125056, 0.00330747, -0.587505, 0.000153328, -7.60632e-05, 0.00011342, 0.0301375, 0.0202304, 0.00434902, 0.000311513, 0.000319678, 0.00202541
-0.0123398, 0.0039886, -0.587373, 0.000157719, -7.56444e-05, 0.000112107, 0.0301044, 0.0201507, 0.00433712, 0.000309425, 0.000318545, 0.00201091
-0.0120356, 0.0041475, -0.587317, 0.000165175, -7.41209e-05, 0.00010362, 0.0300771, 0.0200732, 0.00432566, 0.000307701, 0.000317495, 0.00199705
-0.0117517, 0.00399146, -0.587318, 0.000171849, -7.30547e-05, 9.83137e-05, 0.0300545, 0.0199982, 0.0043147, 0.000306283, 0.000316518, 0.00198375
-0.0115755, 0.00395396, -0.587308, 0.000176295, -7.21994e-05, 9.36194e-05, 0.0300359, 0.0199258, 0.00430422, 0.000305111, 0.000315603, 0.00197089
-0.0115167, 0.0038227, -0.587322, 0.000178316, -7.0909e-05, 8.33772e-05, 0.0300209, 0.0198559, 0.00429413, 0.000304135, 0.000314745, 0.00195842
-0.0113798, 0.00362533, -0.587341, 0.000182124, -6.97678e-05, 7.55819e-05, 0.0300088, 0.0197884, 0.00428437, 0.000303312, 0.000313936, 0.00194631
-0.0112517, 0.00359595, -0.587333, 0.000185218, -6.97632e-05, 7.78347e-05, 0.0299989, 0.0197242, 0.00427499, 0.000302615, 0.000313174, 0.00193452
-0.011203, 0.00325979, -0.587386, 0.000186953, -6.83421e-05, 6.54537e-05, 0.0299908, 0.0196633, 0.00426596, 0.000302016, 0.000312457, 0.00192305
-0.011094, 0.00309099, -0.587404, 0.000189783, -6.82422e-05, 6.57891e-05, 0.0299843, 0.0196054, 0.00425722, 0.000301488, 0.000311779, 0.00191188
-0.0111228, 0.00310148, -0.587404, 0.000189452, -6.74318e-05, 5.79269e-05, 0.0299791, 0.0195509, 0.00424876, 0.000301018, 0.000311139, 0.00190097
-0.0110662, 0.00299205, -0.587418, 0.00019075, -6.81097e-05, 6.45283e-05, 0.029975, 0.019499, 0.00424043, 0.000300591, 0.000310534, 0.00189036
-0.0110754, 0.00296471, -0.587424, 0.000190661, -6.76161e-05, 5.97635e-05, 0.0299719, 0.0194498, 0.00423236, 0.000300198, 0.000309961, 0.00188002
-0.0111005, 0.00296995, -0.587427, 0.000189755, -6.74205e-05, 5.78028e-05, 0.0299695, 0.0194025, 0.00422447, 0.00029983, 0.00030942, 0.00186996
-0.0111161, 0.00286714, -0.587451, 0.000189046, -6.71029e-05, 5.45115e-05, 0.0299677, 0.0193565, 0.00421676, 0.000299479, 0.000308905, 0.00186021
-0.0111427, 0.00294425, -0.587443, 0.000187567, -6.70205e-05, 5.41898e-05, 0.029966, 0.019312, 0.00420923, 0.000299138, 0.000308417, 0.00185074
-0.0111499, 0.00291389, -0.587451, 0.000187098, -6.75207e-05, 5.87271e-05, 0.0299645, 0.0192694, 0.00420187, 0.0002988, 0.000307953, 0.00184156
-0.0111659, 0.00305021, -0.587428, 0.000185958, -6.78198e-05, 6.25889e-05, 0.029963, 0.0192294, 0.00419471, 0.00029846, 0.000307514, 0.00183265
-0.0111727, 0.00307127, -0.587428, 0.000184834, -6.77939e-05, 6.34096e-05, 0.0299613, 0.0191919, 0.00418768, 0.000298115, 0.000307096, 0.00182399
-0.011175, 0.00303346, -0.587438, 0.000184281, -6.78625e-05, 6.43647e-05, 0.0299595, 0.0191568, 0.00418069, 0.000297755, 0.000306698, 0.00181556
-0.0111728, 0.00305397, -0.587438, 0.000182771, -6.75736e-05, 6.41204e-05, 0.0299577, 0.0191241, 0.00417373, 0.000297376, 0.000306315, 0.00180732
-0.0111609, 0.00312029, -0.587429, 0.00018009, -6.70222e-05, 6.42109e-05, 0.0299557, 0.0190936, 0.00416677, 0.000296973, 0.000305947, 0.00179926
-0.0111635, 0.00319908, -0.587413, 0.00017923, -6.7352e-05, 6.88191e-05, 0.0299537, 0.0190648, 0.00415979, 0.000296543, 0.000305589, 0.00179138
-0.0111746, 0.00319049, -0.587416, 0.000179623, -6.77233e-05, 7.08234e-05, 0.0299515, 0.0190377, 0.00415279, 0.000296084, 0.000305244, 0.00178363
-0.0111824, 0.00316915, -0.58742, 0.0001803, -6.77867e-05, 6.98068e-05, 0.0299491, 0.0190123, 0.00414581, 0.000295587, 0.000304903, 0.00177603
-0.0112097, 0.00313573, -0.587431, 0.000181326, -6.83415e-05, 7.15719e-05, 0.0299464, 0.0189883, 0.00413887, 0.000295057, 0.000304571, 0.00176858
-0.0112438, 0.00323979, -0.587404, 0.0001832, -6.90498e-05, 7.34418e-05, 0.0299433, 0.0189653, 0.00413194, 0.000294487, 0.000304242, 0.00176127
-0.0112992, 0.0031742, -0.587428, 0.000185055, -6.97476e-05, 7.39089e-05, 0.0299397, 0.0189432, 0.00412504, 0.000293876, 0.000303916, 0.00175409
-0.0113923, 0.00313042, -0.58745, 0.0001883, -7.08447e-05, 7.40927e-05, 0.0299356, 0.0189217, 0.00411815, 0.000293219, 0.000303589, 0.00174705
-0.0113975, 0.00312935, -0.587448, 0.000189073, -7.05741e-05, 7.0322e-05, 0.029931, 0.018901, 0.00411128, 0.000292513, 0.00030326, 0.00174014
-0.0113563, 0.00302301, -0.587474, 0.000187801, -6.96565e-05, 6.63613e-05, 0.0299257, 0.0188808, 0.00410439, 0.000291757, 0.000302927, 0.00173339
-0.0113823, 0.0030428, -0.587469, 0.000189191, -6.95954e-05, 6.28835e-05, 0.0299196, 0.0188609, 0.00409745, 0.00029095, 0.000302587, 0.00172684
-0.0113761, 0.00300048, -0.587481, 0.00018909, -6.93388e-05, 6.1198e-05, 0.0299125, 0.0188412, 0.00409048, 0.000290093, 0.00030224, 0.00172049
-0.0115311, 0.00310112, -0.587477, 0.000193738, -7.10335e-05, 6.17211e-05, 0.0299046, 0.0188214, 0.00408341, 0.000289181, 0.000301883, 0.00171434
-0.0115388, 0.00303024, -0.587502, 0.000193972, -7.08768e-05, 5.97272e-05, 0.0298959, 0.0188015, 0.00407623, 0.000288206, 0.000301512, 0.00170838
-0.0114479, 0.0029638, -0.587501, 0.000191443, -6.95277e-05, 5.70315e-05, 0.0298871, 0.0187811, 0.00406888, 0.000287161, 0.000301125, 0.00170263
-0.0113781, 0.00295513, -0.58748, 0.000189431, -6.8476e-05, 5.55241e-05, 0.0298782, 0.01876, 0.00406134, 0.000286046, 0.00030072, 0.0016971
-0.0115293, 0.00309574, -0.587473, 0.000194895, -6.9907e-05, 5.17838e-05, 0.0298695, 0.0187382, 0.00405357, 0.000284859, 0.000300297, 0.00169178
-0.0115379, 0.003078, -0.587476, 0.000195526, -6.93156e-05, 4.67327e-05, 0.0298611, 0.0187158, 0.00404562, 0.000283603, 0.000299858, 0.00168666
-0.0116211, 0.0031812, -0.58746, 0.000198991, -6.96834e-05, 4.10498e-05, 0.0298528, 0.018693, 0.0040375, 0.000282292, 0.000299408, 0.00168177
-0.0117451, 0.00325616, -0.587477, 0.000204207, -7.0326e-05, 3.28138e-05, 0.0298448, 0.0186699, 0.00402925, 0.00028094, 0.00029895, 0.00167711
-0.0118507, 0.00332213, -0.587487, 0.000208847, -7.03532e-05, 2.25446e-05, 0.0298373, 0.0186469, 0.00402082, 0.000279556, 0.000298488, 0.00167267
-0.0119253, 0.00338535, -0.587487, 0.00021229, -7.01766e-05, 1.39537e-05, 0.0298305, 0.0186242, 0.00401228, 0.000278159, 0.000298027, 0.00166845
-0.0119574, 0.00329597, -0.587528, 0.000213678, -6.86884e-05, 3.24119e-06, 0.0298246, 0.0186022, 0.00400368, 0.000276766, 0.000297572, 0.00166444
-0.0120156, 0.00329251, -0.58755, 0.000216431, -6.76442e-05, -7.66652e-06, 0.0298196, 0.0185812, 0.00399509, 0.000275397, 0.000297125, 0.00166065
-0.0120968, 0.00340345, -0.587545, 0.00022106, -6.7683e-05, -1.75151e-05, 0.0298157, 0.0185616, 0.00398656, 0.000274072, 0.000296694, 0.00165707
-0.0121476, 0.0033823, -0.587594, 0.000224774, -6.69343e-05, -2.91536e-05, 0.0298127, 0.0185437, 0.00397816, 0.000272811, 0.00029628, 0.00165368
-0.0121894, 0.0033867, -0.587624, 0.00022771, -6.62521e-05, -3.83692e-05, 0.0298103, 0.0185276, 0.00396989, 0.000271627, 0.000295885, 0.00165049
-0.0122383, 0.00343418, -0.587643, 0.000231436, -6.60712e-05, -4.69849e-05, 0.0298085, 0.0185132, 0.00396173, 0.000270532, 0.000295511, 0.00164749
-0.0122297, 0.00338454, -0.58765, 0.000230564, -6.47049e-05, -5.10132e-05, 0.0298069, 0.0185005, 0.00395367, 0.000269531, 0.000295159, 0.00164467
-0.0122517, 0.00340054, -0.587661, 0.000232332, -6.45092e-05, -5.52923e-05, 0.0298055, 0.0184892, 0.00394573, 0.000268623, 0.000294824, 0.00164203
-0.0122201, 0.00331257, -0.587679, 0.000230295, -6.29615e-05, -5.74624e-05, 0.0298041, 0.0184793, 0.00393799, 0.000267805, 0.000294507, 0.00163955
-0.012198, 0.00331903, -0.58765, 0.000228635, -6.23704e-05, -5.65276e-05, 0.0298027, 0.0184709, 0.00393042, 0.000267073, 0.000294207, 0.00163724
-0.012138, 0.00323137, -0.587657, 0.000225224, -6.1041e-05, -5.53395e-05, 0.0298011, 0.0184637, 0.00392301, 0.00026642, 0.000293922, 0.00163506
-0.0120801, 0.00317773, -0.58765, 0.000222107, -5.97732e-05, -5.4415e-05, 0.0297992, 0.0184578, 0.00391576, 0.00026584, 0.000293651, 0.00163303
-0.0121088, 0.00316426, -0.587691, 0.000224706, -5.97406e-05, -5.85722e-05, 0.0297968, 0.018453, 0.00390869, 0.000265323, 0.00029339, 0.00163112
-0.0120898, 0.00310678, -0.587741, 0.000225443, -5.87445e-05, -6.28668e-05, 0.0297939, 0.0184491, 0.00390175, 0.000264857, 0.00029314, 0.0016293
-0.0121003, 0.00308279, -0.587776, 0.00022696, -5.82229e-05, -6.66822e-05, 0.0297902, 0.0184457, 0.00389493, 0.000264433, 0.000292895, 0.00162759
-0.0120737, 0.00303233, -0.587819, 0.000227397, -5.72282e-05, -7.03107e-05, 0.0297856, 0.0184426, 0.00388826, 0.000264045, 0.000292658, 0.00162595
-0.012111, 0.00299143, -0.587881, 0.000230148, -5.66662e-05, -7.53704e-05, 0.0297801, 0.0184398, 0.00388172, 0.000263684, 0.000292422, 0.00162441
-0.0121132, 0.0029676, -0.587907, 0.000230937, -5.61193e-05, -7.79164e-05, 0.0297736, 0.0184371, 0.00387527, 0.000263344, 0.00029219, 0.00162294
-0.0121205, 0.00293068, -0.58795, 0.000231999, -5.55105e-05, -8.06967e-05, 0.0297662, 0.0184344, 0.00386886, 0.000263024, 0.000291961, 0.00162155
-0.0121065, 0.00291696, -0.587956, 0.000232098, -5.48914e-05, -8.27912e-05, 0.0297582, 0.0184318, 0.00386248, 0.000262719, 0.000291732, 0.00162024
-0.0121002, 0.00291097, -0.587954, 0.00023231, -5.44045e-05, -8.48046e-05, 0.0297493, 0.0184292, 0.00385615, 0.000262431, 0.00029151, 0.00161901
-0.0120715, 0.00290726, -0.587944, 0.000231904, -5.39446e-05, -8.61037e-05, 0.0297398, 0.0184266, 0.00384989, 0.000262137, 0.000291272, 0.00161786
-0.0120459, 0.00289976, -0.587945, 0.000231501, -5.36649e-05, -8.65482e-05, 0.0297297, 0.0184238, 0.00384371, 0.000261859, 0.000291042, 0.00161679
-0.0119293, 0.0028975, -0.587926, 0.000229001, -5.33364e-05, -8.54367e-05, 0.0297191, 0.0184211, 0.00383758, 0.000261583, 0.000290808, 0.0016158
-0.0118461, 0.00291777, -0.58788, 0.000226977, -5.34315e-05, -8.40878e-05, 0.0297082, 0.0184183, 0.00383149, 0.00026131, 0.00029057, 0.00161489
-0.0116891, 0.00292393, -0.587841, 0.00022359, -5.31921e-05, -8.26711e-05, 0.0296972, 0.0184155, 0.00382546, 0.00026104, 0.000290328, 0.00161405
-0.0115541, 0.00294271, -0.587784, 0.000220499, -5.31212e-05, -8.14616e-05, 0.0296862, 0.0184128, 0.00381948, 0.000260771, 0.00029008, 0.00161329
-0.011368, 0.00296208, -0.587727, 0.000216182, -5.31966e-05, -7.92244e-05, 0.0296755, 0.0184102, 0.00381355, 0.000260502, 0.000289825, 0.00161261
-0.0111638, 0.00300236, -0.587616, 0.00021107, -5.32504e-05, -7.75854e-05, 0.0296651, 0.0184076, 0.00380769, 0.000260234, 0.000289564, 0.00161199
-0.0111638, 0.00300236, -0.587616, 0.00021107, -5.32504e-05, -7.75854e-05, 0.0296652, 0.0184078, 0.00380836, 0.000260474, 0.00028978, 0.00161203
-0.0111638, 0.00300236, -0.587616, 0.00021107, -5.32504e-05, -7.75854e-05, 0.0296653, 0.0184079, 0.00380904, 0.000260715, 0.000289996, 0.00161207
-0.0111157, 0.00305146, -0.587533, 0.000208513, -5.43219e-05, -7.4711e-05, 0.0296538, 0.018405, 0.00380196, 0.000260273, 0.000289551, 0.00161144
-0.0110268, 0.00306647, -0.587503, 0.000205804, -5.46727e-05, -7.3262e-05, 0.029643, 0.0184023, 0.00379509, 0.000259847, 0.000289117, 0.00161089
-0.0108756, 0.0030572, -0.587485, 0.00020209, -5.40874e-05, -7.36279e-05, 0.0296326, 0.0183996, 0.00378839, 0.000259428, 0.000288689, 0.00161041
-0.010787, 0.00302021, -0.587535, 0.000200993, -5.29271e-05, -7.49939e-05, 0.0296222, 0.0183967, 0.00378179, 0.00025901, 0.000288263, 0.00160999
-0.0107541, 0.00299361, -0.58759, 0.000201292, -5.23166e-05, -7.58322e-05, 0.0296115, 0.0183937, 0.0037753, 0.000258584, 0.000287833, 0.00160962
-0.0107133, 0.00295953, -0.587677, 0.000202131, -5.15541e-05, -7.68084e-05, 0.0296001, 0.0183904, 0.00376892, 0.000258152, 0.000287401, 0.0016093
-0.0106128, 0.00292242, -0.587756, 0.00020152, -5.08416e-05, -7.80396e-05, 0.0295878, 0.0183868, 0.00376258, 0.00025771, 0.000286964, 0.00160902
-0.0106686, 0.00292049, -0.587824, 0.000204305, -5.07825e-05, -7.7982e-05, 0.0295738, 0.0183828, 0.00375638, 0.000257257, 0.000286521, 0.00160877
-0.0105355, 0.0028966, -0.587839, 0.000202019, -5.06335e-05, -7.90303e-05, 0.0295581, 0.0183784, 0.00375025, 0.000256795, 0.000286072, 0.00160856
-0.0103167, 0.00286697, -0.58787, 0.00019852, -5.05159e-05, -7.98608e-05, 0.0295404, 0.0183735, 0.0037442, 0.000256329, 0.000285618, 0.00160837
-0.010221, 0.00285487, -0.587859, 0.000196509, -5.07011e-05, -8.04156e-05, 0.0295212, 0.0183682, 0.00373813, 0.000255862, 0.00028516, 0.00160821
-0.0102151, 0.00286722, -0.587873, 0.000196759, -5.10751e-05, -7.97092e-05, 0.0295007, 0.0183625, 0.0037321, 0.000255401, 0.000284701, 0.00160808
-0.0102997, 0.00287994, -0.587863, 0.000198076, -5.12852e-05, -7.89853e-05, 0.0294793, 0.0183566, 0.0037261, 0.00025495, 0.000284241, 0.00160796
-0.0102346, 0.00287362, -0.587846, 0.000196473, -5.14425e-05, -7.93809e-05, 0.0294577, 0.0183505, 0.0037201, 0.000254516, 0.000283782, 0.00160786
-0.0101491, 0.00286348, -0.587849, 0.000194994, -5.13277e-05, -8.02101e-05, 0.0294364, 0.0183445, 0.00371414, 0.000254099, 0.000283322, 0.00160778
-0.0102012, 0.00288153, -0.587867, 0.000196425, -5.16684e-05, -7.92054e-05, 0.029416, 0.0183386, 0.00370822, 0.000253708, 0.000282864, 0.00160772
-0.0101676, 0.00287961, -0.58787, 0.000195938, -5.17097e-05, -7.96757e-05, 0.0293969, 0.0183329, 0.00370239, 0.000253343, 0.00028241, 0.00160766
-0.0102124, 0.00288952, -0.587901, 0.000197653, -5.17708e-05, -7.87964e-05, 0.0293802, 0.0183279, 0.00369664, 0.000253008, 0.000281961, 0.00160761
-0.0101477, 0.00288502, -0.587942, 0.000197646, -5.1594e-05, -7.98603e-05, 0.0293662, 0.0183236, 0.00369104, 0.000252704, 0.000281517, 0.00160757
-0.0100852, 0.00288107, -0.587975, 0.00019747, -5.15e-05, -8.08806e-05, 0.0293549, 0.0183202, 0.00368561, 0.000252431, 0.000281081, 0.00160753
-0.00999372, 0.00288136, -0.588016, 0.000196949, -5.16262e-05, -8.23216e-05, 0.0293464, 0.0183177, 0.00368033, 0.000252185, 0.000280653, 0.00160749
-0.0100267, 0.00289036, -0.588023, 0.000198586, -5.21548e-05, -8.08324e-05, 0.0293399, 0.018316, 0.00367519, 0.000251966, 0.000280234, 0.00160745
-0.00990747, 0.00288928, -0.588079, 0.000197649, -5.19097e-05, -8.30325e-05, 0.029335, 0.0183149, 0.00367017, 0.000251768, 0.000279822, 0.00160742
-0.00982497, 0.00289374, -0.588123, 0.000197709, -5.22158e-05, -8.3928e-05, 0.0293313, 0.0183144, 0.00366526, 0.00025159, 0.000279417, 0.00160739
-0.009792, 0.00289206, -0.588134, 0.000195276, -5.18475e-05, -8.66983e-05, 0.0293284, 0.0183142, 0.00366042, 0.000251429, 0.000279016, 0.00160735
-0.00971257, 0.00289558, -0.588179, 0.000194426, -5.17281e-05, -8.84456e-05, 0.0293258, 0.0183142, 0.00365564, 0.000251285, 0.000278622, 0.00160731
-0.0096365, 0.00289942, -0.588216, 0.000194772, -5.21095e-05, -8.89035e-05, 0.029323, 0.0183143, 0.00365093, 0.000251154, 0.000278232, 0.00160727
-0.0095594, 0.00290488, -0.588266, 0.000193783, -5.22539e-05, -9.10515e-05, 0.02932, 0.0183144, 0.00364626, 0.000251036, 0.000277847, 0.00160723
-0.00951632, 0.00290748, -0.588294, 0.000193391, -5.25115e-05, -9.21048e-05, 0.0293164, 0.0183144, 0.00364161, 0.000250926, 0.000277465, 0.00160718
-0.00949887, 0.00291187, -0.588322, 0.000192374, -5.23998e-05, -9.38362e-05, 0.0293123, 0.0183144, 0.00363695, 0.000250829, 0.000277087, 0.00160712
-0.00951081, 0.00291109, -0.588336, 0.000191304, -5.27895e-05, -9.55905e-05, 0.0293079, 0.0183141, 0.00363219, 0.000250742, 0.000276712, 0.00160706
-0.00951592, 0.00291646, -0.588376, 0.000190009, -5.27856e-05, -9.83467e-05, 0.0293032, 0.0183137, 0.0036273, 0.000250664, 0.000276341, 0.00160698
-0.00958477, 0.00291961, -0.588399, 0.000187987, -5.26203e-05, -0.000101709, 0.0292981, 0.0183131, 0.00362227, 0.000250595, 0.000275973, 0.00160688
-0.00962026, 0.0029157, -0.588413, 0.000186951, -5.30716e-05, -0.000103866, 0.0292923, 0.0183123, 0.00361712, 0.000250534, 0.000275608, 0.00160678
-0.00969724, 0.00291135, -0.588427, 0.000185218, -5.3397e-05, -0.000107021, 0.0292857, 0.0183113, 0.00361186, 0.000250481, 0.000275247, 0.00160666
-0.00972581, 0.00290812, -0.588446, 0.000184628, -5.38557e-05, -0.000108973, 0.029278, 0.01831, 0.00360644, 0.000250435, 0.000274889, 0.00160653
-0.00974122, 0.00290152, -0.588471, 0.000184348, -5.47727e-05, -0.000111082, 0.0292693, 0.0183085, 0.00360085, 0.00025039, 0.000274532, 0.00160638
-0.0097214, 0.00288738, -0.588473, 0.000184463, -5.58809e-05, -0.000111612, 0.0292596, 0.0183068, 0.00359508, 0.000250346, 0.000274176, 0.00160623
-0.00991896, 0.0028904, -0.588523, 0.00018203, -5.5956e-05, -0.000118031, 0.0292487, 0.0183049, 0.00358909, 0.000250302, 0.00027382, 0.00160607
-0.0100763, 0.00288149, -0.588559, 0.000180231, -5.65705e-05, -0.000123397, 0.0292364, 0.0183029, 0.00358287, 0.000250256, 0.000273464, 0.00160588
-0.0101419, 0.00286401, -0.588569, 0.000179213, -5.75357e-05, -0.000126264, 0.0292226, 0.0183009, 0.00357642, 0.000250209, 0.000273107, 0.00160567
-0.0103176, 0.00285238, -0.58863, 0.000178908, -5.90119e-05, -0.000132499, 0.0292073, 0.018299, 0.00356979, 0.000250162, 0.00027275, 0.00160544
-0.0103397, 0.00282918, -0.588654, 0.000179719, -6.11327e-05, -0.000135009, 0.0291904, 0.018297, 0.00356306, 0.000250113, 0.000272394, 0.0016052
-0.0104057, 0.00280855, -0.588679, 0.000179754, -6.28568e-05, -0.000138397, 0.029173, 0.0182951, 0.00355631, 0.000250064, 0.000272038, 0.00160496
-0.0105308, 0.00279286, -0.588729, 0.000180583, -6.48547e-05, -0.00014304, 0.0291554, 0.0182932, 0.00354959, 0.000250013, 0.000271681, 0.00160472
-0.0106416, 0.00277524, -0.588761, 0.000180334, -6.64495e-05, -0.000147355, 0.0291377, 0.0182915, 0.00354288, 0.000249959, 0.000271324, 0.00160449
-0.010733, 0.00275966, -0.588798, 0.000181087, -6.85596e-05, -0.000151228, 0.02912, 0.0182899, 0.00353618, 0.000249906, 0.000270968, 0.00160426
-0.0106397, 0.00273021, -0.58878, 0.000181063, -7.07275e-05, -0.00015197, 0.029102, 0.0182885, 0.00352946, 0.00024985, 0.000270611, 0.00160404
-0.0103618, 0.00269569, -0.588731, 0.000182469, -7.37787e-05, -0.000149448, 0.0290836, 0.0182873, 0.00352269, 0.000249792, 0.000270253, 0.00160382
-0.0103372, 0.00268425, -0.588739, 0.000183695, -7.60094e-05, -0.000150865, 0.0290648, 0.0182863, 0.00351591, 0.000249731, 0.000269894, 0.0016036
-0.0100315, 0.00266269, -0.588688, 0.000185824, -7.86834e-05, -0.000147533, 0.0290455, 0.0182853, 0.00350908, 0.000249666, 0.000269532, 0.0016034
-0.00983854, 0.00263751, -0.588648, 0.000185781, -8.0483e-05, -0.000146913, 0.0290261, 0.0182845, 0.00350224, 0.000249597, 0.00026917, 0.0016032
-0.0100341, 0.00263671, -0.588691, 0.000185006, -8.15631e-05, -0.000151763, 0.0290062, 0.0182838, 0.00349534, 0.000249519, 0.000268803, 0.00160301
-0.0101593, 0.00263193, -0.588719, 0.000184157, -8.27171e-05, -0.000155583, 0.0289858, 0.0182831, 0.00348839, 0.000249438, 0.000268434, 0.00160283
-0.010259, 0.00262284, -0.58874, 0.000182767, -8.37372e-05, -0.000159148, 0.0289653, 0.0182825, 0.00348139, 0.000249349, 0.00026806, 0.00160266
-0.0102759, 0.00261735, -0.588748, 0.00018249, -8.51689e-05, -0.000161423, 0.028944, 0.0182819, 0.00347431, 0.000249252, 0.000267682, 0.00160249
-0.0101879, 0.00259004, -0.588727, 0.000180223, -8.59585e-05, -0.000162889, 0.0289225, 0.0182815, 0.00346716, 0.000249144, 0.000267297, 0.00160233
-0.0101176, 0.00256053, -0.588712, 0.000177279, -8.64497e-05, -0.000164304, 0.0289, 0.018281, 0.0034599, 0.000249027, 0.000266908, 0.00160217
-0.0102174, 0.00254906, -0.588734, 0.000174641, -8.67615e-05, -0.000166624, 0.028877, 0.0182805, 0.00345254, 0.000248895, 0.00026651, 0.00160202
-0.0101799, 0.00253394, -0.58873, 0.000172714, -8.77189e-05, -0.000168187, 0.0288533, 0.01828, 0.00344507, 0.000248752, 0.000266106, 0.00160187
-0.0101509, 0.00253263, -0.588729, 0.000172306, -8.88394e-05, -0.000169561, 0.0288288, 0.0182795, 0.00343747, 0.000248594, 0.000265696, 0.00160171
-0.0100276, 0.00251448, -0.588708, 0.000170845, -8.96243e-05, -0.000170106, 0.0288044, 0.0182788, 0.00342981, 0.000248421, 0.000265278, 0.00160155
-0.00997319, 0.00249337, -0.588704, 0.000168105, -8.97592e-05, -0.000169862, 0.0287801, 0.018278, 0.00342206, 0.000248231, 0.000264852, 0.00160139
-0.00990728, 0.00248787, -0.588695, 0.000167195, -9.04779e-05, -0.000170248, 0.0287563, 0.0182771, 0.00341424, 0.000248024, 0.000264419, 0.00160121
-0.00997171, 0.00248158, -0.58872, 0.00016446, -8.99294e-05, -0.00016837, 0.0287334, 0.0182759, 0.00340639, 0.000247798, 0.000263977, 0.00160102
-0.00995538, 0.00246604, -0.588729, 0.000161394, -8.93691e-05, -0.000165538, 0.0287114, 0.0182745, 0.00339852, 0.000247555, 0.000263527, 0.00160079
-0.00994235, 0.00245574, -0.58874, 0.000158731, -8.88511e-05, -0.0001624, 0.0286901, 0.0182729, 0.00339065, 0.000247294, 0.000263069, 0.00160053
-0.00981984, 0.00240486, -0.588729, 0.000153764, -8.70752e-05, -0.000155521, 0.02867, 0.0182712, 0.00338285, 0.000247017, 0.000262605, 0.00160022
-0.00971006, 0.00237047, -0.588717, 0.000150305, -8.58849e-05, -0.000149958, 0.0286512, 0.0182692, 0.00337511, 0.000246725, 0.000262134, 0.00159985
-0.00966395, 0.00234081, -0.588731, 0.000145874, -8.39049e-05, -0.000140758, 0.0286338, 0.018267, 0.00336748, 0.00024642, 0.00026166, 0.00159941
-0.00945671, 0.00228012, -0.588691, 0.000141836, -8.27252e-05, -0.00013466, 0.0286173, 0.0182646, 0.00335992, 0.000246104, 0.000261182, 0.00159889
-0.00922022, 0.00220727, -0.588646, 0.000137379, -8.1341e-05, -0.000127537, 0.0286009, 0.0182619, 0.00335239, 0.00024578, 0.000260705, 0.0015983
-0.00901087, 0.0021403, -0.588605, 0.000133642, -7.99844e-05, -0.000120862, 0.028584, 0.0182589, 0.00334482, 0.000245453, 0.00026023, 0.00159766
-0.00875221, 0.00205082, -0.588562, 0.000128346, -7.76158e-05, -0.000109461, 0.0285665, 0.0182555, 0.00333723, 0.000245122, 0.000259757, 0.00159695
-0.00860869, 0.00201297, -0.588526, 0.000127167, -7.75345e-05, -0.000108521, 0.0285481, 0.0182517, 0.00332966, 0.000244791, 0.000259289, 0.00159617
-0.00849633, 0.00197507, -0.588488, 0.000127095, -7.77102e-05, -0.000110596, 0.0285286, 0.0182477, 0.00332213, 0.000244458, 0.000258825, 0.00159532
-0.00837055, 0.00194436, -0.588458, 0.000126243, -7.78604e-05, -0.000110582, 0.0285079, 0.0182433, 0.00331464, 0.000244124, 0.000258364, 0.00159441
-0.00840009, 0.00196982, -0.588487, 0.000124867, -7.74736e-05, -0.00010516, 0.0284861, 0.0182388, 0.00330722, 0.00024379, 0.000257907, 0.00159343
-0.00830936, 0.00194956, -0.588485, 0.000122605, -7.63819e-05, -9.78366e-05, 0.0284635, 0.0182341, 0.00329989, 0.00024345, 0.000257452, 0.00159237
-0.00797234, 0.0018859, -0.588455, 0.000116691, -7.43777e-05, -8.0862e-05, 0.0284401, 0.0182292, 0.00329266, 0.00024311, 0.000257, 0.00159122
-0.00785291, 0.00186295, -0.588421, 0.000116731, -7.50405e-05, -8.36812e-05, 0.0284158, 0.0182241, 0.00328549, 0.000242765, 0.000256551, 0.00158999
-0.00798001, 0.00190574, -0.588454, 0.000117351, -7.54253e-05, -8.43585e-05, 0.0283904, 0.0182189, 0.00327839, 0.000242423, 0.000256108, 0.0015887
-0.00777042, 0.00188153, -0.588443, 0.000113641, -7.43783e-05, -7.25146e-05, 0.0283637, 0.0182136, 0.00327135, 0.000242075, 0.000255665, 0.00158734
-0.0077206, 0.00188827, -0.58845, 0.00011213, -7.40099e-05, -6.69038e-05, 0.0283354, 0.018208, 0.00326434, 0.000241726, 0.000255228, 0.00158591
-0.00751475, 0.00185374, -0.588422, 0.000109914, -7.34881e-05, -6.05537e-05, 0.028306, 0.0182023, 0.0032574, 0.000241372, 0.000254793, 0.00158441
-0.00739024, 0.00184786, -0.588417, 0.000107857, -7.30609e-05, -5.35539e-05, 0.0282757, 0.0181963, 0.00325052, 0.000241018, 0.000254361, 0.00158286
-0.00750097, 0.00188961, -0.588435, 0.000109132, -7.42412e-05, -5.88872e-05, 0.0282443, 0.0181903, 0.00324373, 0.000240659, 0.000253931, 0.00158124
-0.00742428, 0.00189222, -0.588427, 0.000108476, -7.46796e-05, -5.80086e-05, 0.0282123, 0.0181841, 0.00323705, 0.000240297, 0.000253504, 0.00157956
-0.00726174, 0.00187831, -0.588407, 0.000106918, -7.47091e-05, -5.3755e-05, 0.0281794, 0.0181778, 0.00323043, 0.000239933, 0.000253078, 0.00157783
-0.00735745, 0.00191057, -0.588421, 0.000108038, -7.56683e-05, -5.86933e-05, 0.028146, 0.0181715, 0.00322392, 0.000239567, 0.000252654, 0.00157605
-0.00722363, 0.00189953, -0.588402, 0.000107056, -7.59213e-05, -5.6645e-05, 0.0281119, 0.0181651, 0.00321749, 0.000239197, 0.000252231, 0.00157422
-0.00699735, 0.00188216, -0.588387, 0.000103917, -7.50349e-05, -4.46607e-05, 0.0280762, 0.0181586, 0.00321105, 0.000238826, 0.00025181, 0.00157238
-0.00679558, 0.00186477, -0.588368, 0.000101671, -7.46074e-05, -3.66751e-05, 0.0280392, 0.018152, 0.0032046, 0.000238452, 0.00025139, 0.00157052
-0.00677254, 0.0018662, -0.588365, 0.000101538, -7.47634e-05, -3.65579e-05, 0.0280011, 0.0181453, 0.00319817, 0.000238076, 0.000250973, 0.00156865
-0.00669206, 0.00186877, -0.588359, 0.000100592, -7.48236e-05, -3.34992e-05, 0.0279619, 0.0181384, 0.00319177, 0.000237696, 0.000250556, 0.00156677
-0.0065128, 0.00186048, -0.588363, 9.68968e-05, -7.31672e-05, -1.72489e-05, 0.0279219, 0.0181315, 0.00318539, 0.000237313, 0.00025014, 0.00156488
-0.00637107, 0.00185769, -0.588364, 9.41479e-05, -7.21002e-05, -5.42647e-06, 0.027881, 0.0181246, 0.00317903, 0.000236927, 0.000249726, 0.00156298
-0.00647678, 0.00187683, -0.58838, 9.49525e-05, -7.24013e-05, -8.40015e-06, 0.0278393, 0.0181175, 0.00317268, 0.000236535, 0.000249311, 0.00156109
-0.00623797, 0.00184808, -0.588357, 9.21989e-05, -7.13596e-05, 2.76243e-06, 0.0277963, 0.0181105, 0.00316631, 0.00023614, 0.000248896, 0.0015592
-0.00607767, 0.00182783, -0.588333, 9.13019e-05, -7.13731e-05, 5.48505e-06, 0.0277512, 0.0181034, 0.00315981, 0.000235742, 0.000248483, 0.00155735
-0.00593841, 0.00180551, -0.58831, 9.06842e-05, -7.12997e-05, 7.4751e-06, 0.0277032, 0.0180962, 0.00315313, 0.000235341, 0.00024807, 0.00155554
-0.00576692, 0.00177913, -0.588292, 8.88883e-05, -7.04277e-05, 1.5047e-05, 0.0276513, 0.0180891, 0.00314618, 0.000234937, 0.000247657, 0.00155379
-0.00573323, 0.00176696, -0.588288, 8.84249e-05, -6.99808e-05, 1.73974e-05, 0.0275965, 0.0180819, 0.00313907, 0.000234529, 0.000247245, 0.00155207
-0.00531228, 0.00171475, -0.588239, 8.51004e-05, -6.88078e-05, 3.0634e-05, 0.0275377, 0.0180747, 0.00313168, 0.000234116, 0.000246833, 0.0015504
-0.00521207, 0.00169567, -0.588237, 8.29503e-05, -6.7507e-05, 3.99137e-05, 0.027475, 0.0180675, 0.00312404, 0.0002337, 0.000246423, 0.00154878
-0.0050559, 0.00165855, -0.588211, 8.24212e-05, -6.69195e-05, 4.29365e-05, 0.0274095, 0.0180603, 0.00311622, 0.00023328, 0.000246015, 0.00154719
-0.00463514, 0.00161787, -0.588163, 7.95435e-05, -6.61919e-05, 5.40554e-05, 0.0273421, 0.0180532, 0.00310832, 0.000232862, 0.000245609, 0.00154565
-0.00454268, 0.00159919, -0.588162, 7.73927e-05, -6.48806e-05, 6.30149e-05, 0.0272739, 0.0180462, 0.00310041, 0.00023245, 0.000245211, 0.00154414
-0.00430328, 0.00157755, -0.588138, 7.5427e-05, -6.42895e-05, 7.06179e-05, 0.0272039, 0.0180393, 0.00309241, 0.000232038, 0.000244815, 0.00154267
-0.00434589, 0.00157299, -0.588157, 7.35769e-05, -6.29677e-05, 7.79379e-05, 0.0271341, 0.0180325, 0.00308447, 0.000231633, 0.000244425, 0.00154124
-0.00413101, 0.00154356, -0.58813, 7.22762e-05, -6.23206e-05, 8.36782e-05, 0.0270642, 0.0180258, 0.00307655, 0.000231234, 0.00024404, 0.00153985
-0.00407737, 0.00153019, -0.588125, 7.15829e-05, -6.17666e-05, 8.67932e-05, 0.0269931, 0.0180194, 0.00306861, 0.000230845, 0.000243662, 0.0015385
-0.00411971, 0.00153831, -0.588131, 7.17528e-05, -6.19557e-05, 8.57784e-05, 0.0269206, 0.0180131, 0.00306065, 0.000230461, 0.000243291, 0.0015372
-0.00407554, 0.00154409, -0.588144, 6.90343e-05, -6.10093e-05, 9.45455e-05, 0.0268466, 0.018007, 0.00305268, 0.000230084, 0.000242925, 0.00153593
-0.00434023, 0.00157446, -0.588177, 7.02464e-05, -6.1729e-05, 8.85363e-05, 0.0267705, 0.0180012, 0.00304473, 0.000229711, 0.000242564, 0.00153467
-0.00443893, 0.00160163, -0.588188, 7.12433e-05, -6.281e-05, 8.35411e-05, 0.0266943, 0.0179956, 0.0030369, 0.000229344, 0.000242209, 0.00153344
-0.00460177, 0.00162632, -0.588206, 7.23727e-05, -6.36874e-05, 7.81706e-05, 0.0266184, 0.0179904, 0.00302923, 0.000228983, 0.000241858, 0.00153221
-0.00486222, 0.00165979, -0.588241, 7.31337e-05, -6.44861e-05, 7.30919e-05, 0.026544, 0.0179855, 0.00302176, 0.000228631, 0.000241512, 0.00153101
-0.00506263, 0.00169056, -0.588261, 7.47792e-05, -6.57849e-05, 6.55015e-05, 0.0264716, 0.0179808, 0.0030145, 0.000228287, 0.000241172, 0.00152982
-0.0049444, 0.0017086, -0.588262, 7.23904e-05, -6.5816e-05, 7.16859e-05, 0.0264012, 0.0179764, 0.00300745, 0.000227955, 0.000240838, 0.00152866
-0.00494472, 0.00172854, -0.588268, 7.18479e-05, -6.64097e-05, 7.17614e-05, 0.0263327, 0.0179722, 0.00300058, 0.000227634, 0.000240511, 0.00152752
-0.00481431, 0.00174546, -0.588262, 7.03081e-05, -6.68548e-05, 7.52812e-05, 0.0262658, 0.0179681, 0.00299387, 0.000227326, 0.000240191, 0.0015264
-0.00492073, 0.00176462, -0.588266, 7.23365e-05, -6.82399e-05, 6.74713e-05, 0.0262012, 0.0179642, 0.00298736, 0.000227029, 0.000239877, 0.00152532
-0.00476401, 0.001779, -0.588243, 7.30882e-05, -6.97822e-05, 6.40568e-05, 0.0261398, 0.0179604, 0.00298107, 0.000226747, 0.000239569, 0.00152426
-0.00490094, 0.00179651, -0.588259, 7.38605e-05, -7.03628e-05, 6.03203e-05, 0.0260821, 0.0179568, 0.00297501, 0.000226475, 0.000239263, 0.00152324
-0.0048325, 0.00180722, -0.588247, 7.45389e-05, -7.14775e-05, 5.72255e-05, 0.0260285, 0.0179532, 0.00296916, 0.000226213, 0.00023896, 0.00152226
-0.00459205, 0.00181026, -0.588218, 7.39252e-05, -7.24545e-05, 5.82179e-05, 0.0259785, 0.0179498, 0.0029635, 0.000225964, 0.000238663, 0.00152131
-0.00463499, 0.00181896, -0.588216, 7.54156e-05, -7.34283e-05, 5.3007e-05, 0.0259321, 0.0179464, 0.00295801, 0.000225725, 0.000238368, 0.00152039
-0.00449779, 0.00182661, -0.588208, 7.36388e-05, -7.35658e-05, 5.71755e-05, 0.0258888, 0.017943, 0.00295267, 0.000225492, 0.000238073, 0.00151951
-0.00450919, 0.0018304, -0.588201, 7.51223e-05, -7.45284e-05, 5.22756e-05, 0.025848, 0.0179398, 0.00294744, 0.000225266, 0.00023778, 0.00151865
-0.00437874, 0.00184042, -0.58819, 7.40377e-05, -7.52013e-05, 5.38342e-05, 0.0258094, 0.0179366, 0.00294231, 0.000225045, 0.000237485, 0.0015178
-0.00417754, 0.00183576, -0.588159, 7.40743e-05, -7.64218e-05, 5.23891e-05, 0.0257728, 0.0179335, 0.00293726, 0.000224828, 0.000237192, 0.00151697
-0.00407258, 0.00183729, -0.588144, 7.3976e-05, -7.72345e-05, 5.14577e-05, 0.0257382, 0.0179304, 0.00293225, 0.000224613, 0.000236896, 0.00151615
-0.0041842, 0.00186063, -0.588161, 7.46162e-05, -7.78698e-05, 4.84884e-05, 0.0257053, 0.0179274, 0.0029273, 0.000224401, 0.000236599, 0.00151534
-0.0042522, 0.00188504, -0.588179, 7.38982e-05, -7.79696e-05, 4.96375e-05, 0.0256739, 0.0179244, 0.00292238, 0.000224192, 0.000236302, 0.00151453
-0.00433468, 0.00189085, -0.588178, 7.65824e-05, -7.94079e-05, 4.084e-05, 0.0256446, 0.0179215, 0.00291752, 0.000223984, 0.000236002, 0.0015137
-0.00435253, 0.0019038, -0.588181, 7.69503e-05, -8.01932e-05, 3.83114e-05, 0.0256177, 0.0179186, 0.00291271, 0.000223774, 0.000235695, 0.00151287
-0.00437101, 0.00191337, -0.588182, 7.7665e-05, -8.10266e-05, 3.50452e-05, 0.0255931, 0.0179158, 0.00290797, 0.000223565, 0.000235387, 0.00151202
-0.00447171, 0.00194853, -0.588214, 7.63017e-05, -8.04491e-05, 3.96102e-05, 0.0255705, 0.0179129, 0.00290326, 0.000223355, 0.000235076, 0.00151115
-0.00444124, 0.0019556, -0.588213, 7.58792e-05, -8.07784e-05, 4.0135e-05, 0.02555, 0.0179101, 0.00289859, 0.000223144, 0.000234763, 0.00151025
-0.00455437, 0.00198478, -0.588242, 7.56453e-05, -8.03496e-05, 4.21218e-05, 0.0255317, 0.0179072, 0.00289396, 0.000222931, 0.000234447, 0.00150933
-0.00459597, 0.00201532, -0.588269, 7.37842e-05, -7.93603e-05, 4.94712e-05, 0.0255154, 0.0179044, 0.0028894, 0.00022272, 0.00023413, 0.00150837
-0.00446626, 0.00199147, -0.58824, 7.29521e-05, -7.95044e-05, 5.07919e-05, 0.0255011, 0.0179017, 0.00288491, 0.000222507, 0.000233812, 0.00150737
-0.00432797, 0.00197403, -0.588217, 7.10026e-05, -7.91307e-05, 5.60604e-05, 0.0254889, 0.017899, 0.00288055, 0.000222296, 0.000233494, 0.00150633
-0.00417766, 0.0019695, -0.588201, 6.77693e-05, -7.82358e-05, 6.62836e-05, 0.0254786, 0.0178964, 0.0028763, 0.000222086, 0.000233178, 0.00150525
-0.00412633, 0.0019428, -0.588178, 6.75828e-05, -7.78728e-05, 6.68185e-05, 0.0254699, 0.0178939, 0.00287218, 0.000221879, 0.000232864, 0.00150413
-0.00408665, 0.00193341, -0.588165, 6.71361e-05, -7.79344e-05, 6.74044e-05, 0.0254628, 0.0178915, 0.00286822, 0.000221676, 0.000232554, 0.00150296
-0.00408774, 0.00191145, -0.588143, 6.82209e-05, -7.86363e-05, 6.16835e-05, 0.025457, 0.0178893, 0.00286442, 0.000221479, 0.000232248, 0.00150173
-0.00402094, 0.00193873, -0.588157, 6.55848e-05, -7.78987e-05, 7.20878e-05, 0.0254523, 0.0178872, 0.00286077, 0.000221286, 0.000231948, 0.00150046
-0.00404327, 0.00195843, -0.588174, 6.59258e-05, -7.80382e-05, 7.20204e-05, 0.0254484, 0.0178852, 0.00285724, 0.000221099, 0.000231656, 0.00149914
-0.00398538, 0.00198428, -0.588183, 6.36929e-05, -7.76415e-05, 8.07314e-05, 0.025445, 0.0178832, 0.00285379, 0.000220915, 0.000231371, 0.00149779
-0.00395564, 0.00201404, -0.588197, 6.23248e-05, -7.75677e-05, 8.652e-05, 0.0254419, 0.0178812, 0.0028504, 0.000220736, 0.000231096, 0.00149642
-0.00392416, 0.00204914, -0.588211, 6.08637e-05, -7.78055e-05, 9.21702e-05, 0.0254391, 0.0178793, 0.00284709, 0.00022056, 0.000230827, 0.00149501
-0.00395398, 0.00206365, -0.588223, 6.17921e-05, -7.84648e-05, 8.85177e-05, 0.0254365, 0.0178773, 0.00284389, 0.000220386, 0.000230567, 0.00149358
-0.00391389, 0.00205462, -0.588209, 6.05122e-05, -7.82953e-05, 9.24996e-05, 0.025434, 0.0178755, 0.00284075, 0.000220216, 0.000230313, 0.00149213
-0.00392439, 0.00209916, -0.588239, 6.00966e-05, -7.83803e-05, 9.57752e-05, 0.0254316, 0.0178737, 0.00283767, 0.000220052, 0.000230068, 0.0014907
-0.00388683, 0.00216579, -0.588276, 5.727e-05, -7.72524e-05, 0.000110461, 0.0254293, 0.017872, 0.00283464, 0.000219888, 0.000229829, 0.00148926
-0.00389956, 0.0022024, -0.588302, 5.68072e-05, -7.68629e-05, 0.000114467, 0.025427, 0.0178704, 0.00283164, 0.000219725, 0.000229596, 0.00148782
-0.00386734, 0.0022435, -0.588321, 5.45157e-05, -7.61072e-05, 0.000125406, 0.0254247, 0.0178688, 0.00282867, 0.000219561, 0.000229366, 0.0014864
-0.0038857, 0.00228293, -0.588349, 5.37723e-05, -7.55174e-05, 0.000130694, 0.0254223, 0.0178673, 0.0028257, 0.000219399, 0.000229143, 0.001485
-0.00391705, 0.00230745, -0.588371, 5.38574e-05, -7.53597e-05, 0.000131661, 0.0254198, 0.0178658, 0.00282275, 0.000219235, 0.000228921, 0.00148362
-0.00392372, 0.00232751, -0.588384, 5.3225e-05, -7.50555e-05, 0.000135104, 0.0254173, 0.0178645, 0.00281982, 0.000219072, 0.000228703, 0.00148226
-0.00395043, 0.00233704, -0.588396, 5.35726e-05, -7.50317e-05, 0.000134324, 0.0254146, 0.0178632, 0.00281688, 0.000218905, 0.000228485, 0.00148094
-0.00394832, 0.00235597, -0.588406, 5.2526e-05, -7.46224e-05, 0.00013918, 0.0254118, 0.0178621, 0.00281394, 0.000218737, 0.00022827, 0.00147965
-0.00395587, 0.00234128, -0.5884, 5.35571e-05, -7.49962e-05, 0.000134661, 0.0254089, 0.017861, 0.00281099, 0.000218566, 0.000228054, 0.0014784
-0.00398655, 0.00233981, -0.588407, 5.44099e-05, -7.50402e-05, 0.000131699, 0.0254057, 0.01786, 0.00280802, 0.000218394, 0.00022784, 0.00147719
-0.00402381, 0.0023442, -0.588419, 5.50265e-05, -7.49936e-05, 0.000129842, 0.0254025, 0.017859, 0.00280504, 0.000218216, 0.000227623, 0.00147602
-0.00403048, 0.00235085, -0.588425, 5.46322e-05, -7.45558e-05, 0.000131955, 0.0253991, 0.0178581, 0.00280205, 0.000218038, 0.000227409, 0.00147489
-0.00401067, 0.00236224, -0.588425, 5.32703e-05, -7.39445e-05, 0.000137519, 0.0253955, 0.0178573, 0.00279902, 0.000217854, 0.000227191, 0.0014738
-0.00404154, 0.00236842, -0.588437, 5.33369e-05, -7.35546e-05, 0.000137986, 0.0253918, 0.0178565, 0.00279598, 0.000217674, 0.000226979, 0.00147276
-0.00404779, 0.00237324, -0.588441, 5.2992e-05, -7.32026e-05, 0.000139636, 0.0253876, 0.0178558, 0.00279284, 0.000217482, 0.000226758, 0.00147178
-0.00400762, 0.0023507, -0.588421, 5.39754e-05, -7.32746e-05, 0.000136364, 0.0253829, 0.0178551, 0.00278965, 0.000217294, 0.000226542, 0.00147084
-0.00399266, 0.0023544, -0.588419, 5.3133e-05, -7.23229e-05, 0.000140255, 0.0253773, 0.0178545, 0.00278635, 0.000217105, 0.000226326, 0.00146997
-0.00392132, 0.00233084, -0.588393, 5.39227e-05, -7.19773e-05, 0.000138564, 0.0253711, 0.017854, 0.00278298, 0.000216915, 0.000226112, 0.00146915
-0.00390259, 0.00232315, -0.588386, 5.41936e-05, -7.12777e-05, 0.000138806, 0.0253633, 0.0178535, 0.00277947, 0.000216726, 0.000225898, 0.00146839
-0.00386942, 0.00231576, -0.588376, 5.43418e-05, -7.05086e-05, 0.000139573, 0.0253541, 0.017853, 0.00277585, 0.000216536, 0.000225685, 0.00146769
-0.0038075, 0.00232657, -0.588364, 5.24357e-05, -6.92847e-05, 0.000146593, 0.0253436, 0.0178527, 0.00277213, 0.000216346, 0.000225472, 0.00146703
-0.00380525, 0.00233562, -0.588365, 5.11545e-05, -6.80492e-05, 0.0001514, 0.0253327, 0.0178523, 0.00276841, 0.000216159, 0.000225264, 0.00146641
-0.00383087, 0.00233303, -0.588369, 5.14662e-05, -6.74474e-05, 0.000151141, 0.0253217, 0.017852, 0.0027647, 0.000215974, 0.000225059, 0.00146582
-0.00376625, 0.00233878, -0.588356, 5.03729e-05, -6.66563e-05, 0.000155315, 0.0253111, 0.0178518, 0.00276104, 0.000215794, 0.000224857, 0.00146526
-0.00372522, 0.00233697, -0.588346, 5.02782e-05, -6.60291e-05, 0.000156647, 0.0253003, 0.0178515, 0.00275737, 0.000215618, 0.000224658, 0.00146474
-0.00374047, 0.00234578, -0.58835, 4.93329e-05, -6.53144e-05, 0.000159481, 0.0252902, 0.0178513, 0.00275378, 0.000215449, 0.000224466, 0.00146425
-0.00371143, 0.00234403, -0.588343, 4.9343e-05, -6.49264e-05, 0.000160228, 0.0252814, 0.017851, 0.00275028, 0.000215286, 0.000224278, 0.0014638
-0.00370885, 0.00234282, -0.588341, 4.94924e-05, -6.45821e-05, 0.000160336, 0.0252748, 0.0178508, 0.00274696, 0.000215128, 0.000224093, 0.00146336
-0.00371509, 0.00235972, -0.588346, 4.75818e-05, -6.37736e-05, 0.000165149, 0.0252701, 0.0178506, 0.00274382, 0.000214977, 0.000223913, 0.00146295
-0.00369433, 0.00236649, -0.588339, 4.65718e-05, -6.34648e-05, 0.000167982, 0.025267, 0.0178503, 0.00274083, 0.000214832, 0.000223737, 0.00146256
-0.00371457, 0.00238595, -0.588351, 4.46527e-05, -6.28866e-05, 0.000172078, 0.025265, 0.01785, 0.00273796, 0.000214694, 0.000223565, 0.0014622
-0.00371081, 0.00239535, -0.58835, 4.35428e-05, -6.23773e-05, 0.000174933, 0.0252638, 0.0178498, 0.00273521, 0.000214562, 0.000223398, 0.00146187
-0.00354586, 0.00237903, -0.588233, 3.96598e-05, -6.2768e-05, 0.000186621, 0.0252632, 0.0178495, 0.00273255, 0.000214434, 0.000223232, 0.00146158
-0.00356587, 0.00238818, -0.588253, 3.96297e-05, -6.23042e-05, 0.000186488, 0.0252628, 0.0178492, 0.00272998, 0.000214319, 0.000223078, 0.00146131
-0.00356233, 0.00238344, -0.588242, 3.98937e-05, -6.19211e-05, 0.000186804, 0.0252627, 0.0178489, 0.00272749, 0.0002142, 0.000222918, 0.00146108
-0.00356422, 0.00239404, -0.588249, 3.89648e-05, -6.14209e-05, 0.0001885, 0.0252627, 0.0178487, 0.00272509, 0.00021409, 0.000222765, 0.00146087
-0.00356262, 0.00241027, -0.588262, 3.74871e-05, -6.09346e-05, 0.000190755, 0.0252627, 0.0178485, 0.00272278, 0.000213985, 0.000222615, 0.00146069
-0.00356244, 0.00241019, -0.588262, 3.7489e-05, -6.095e-05, 0.000190629, 0.0252628, 0.0178486, 0.00272371, 0.000214276, 0.000222895, 0.00146073
-0.00357357, 0.00239423, -0.588236, 3.83722e-05, -6.11742e-05, 0.000190355, 0.0252627, 0.0178483, 0.00272116, 0.00021412, 0.000222687, 0.00146057
-0.00357385, 0.00239942, -0.588237, 3.7793e-05, -6.08556e-05, 0.000191297, 0.0252626, 0.0178481, 0.0027187, 0.000213975, 0.000222489, 0.00146044
-0.00357019, 0.0024086, -0.588243, 3.70684e-05, -6.02246e-05, 0.000192491, 0.0252623, 0.0178478, 0.00271631, 0.000213838, 0.000222299, 0.00146032
-0.00355576, 0.00241762, -0.588256, 3.66684e-05, -5.98773e-05, 0.000192803, 0.0252618, 0.0178476, 0.00271399, 0.000213711, 0.000222118, 0.00146022
-0.00370261, 0.00239905, -0.588148, 3.28453e-05, -6.06407e-05, 0.000199612, 0.0252611, 0.0178473, 0.00271174, 0.000213589, 0.000221942, 0.00146013
-0.00380815, 0.00238342, -0.588081, 3.09994e-05, -6.11355e-05, 0.000203308, 0.0252603, 0.0178471, 0.00270953, 0.000213475, 0.000221771, 0.00146005
-0.00386907, 0.00239083, -0.588052, 2.81781e-05, -6.1016e-05, 0.000206941, 0.0252593, 0.0178468, 0.00270738, 0.000213367, 0.000221605, 0.00145997
-0.00383368, 0.00239836, -0.588071, 2.85872e-05, -6.05557e-05, 0.000206427, 0.0252581, 0.0178464, 0.00270525, 0.000213263, 0.000221441, 0.00145988
-0.00396849, 0.00238976, -0.588015, 2.54338e-05, -6.11946e-05, 0.000210415, 0.0252566, 0.017846, 0.00270316, 0.000213161, 0.000221278, 0.00145979
-0.00392593, 0.00240363, -0.588037, 2.53687e-05, -6.07255e-05, 0.00021025, 0.0252548, 0.0178455, 0.0027011, 0.000213062, 0.00022112, 0.00145969
-0.00393734, 0.00239973, -0.58803, 2.57158e-05, -6.05521e-05, 0.000210403, 0.0252527, 0.0178448, 0.00269906, 0.000212964, 0.000220962, 0.00145958
-0.00416812, 0.00234418, -0.587937, 2.40905e-05, -6.19809e-05, 0.00021304, 0.0252503, 0.017844, 0.00269704, 0.000212866, 0.000220806, 0.00145945
-0.00409578, 0.00233351, -0.587951, 2.63728e-05, -6.22943e-05, 0.000209652, 0.0252477, 0.017843, 0.00269504, 0.000212768, 0.000220655, 0.00145932
-0.00405482, 0.00233074, -0.587958, 2.75815e-05, -6.22609e-05, 0.000208012, 0.0252448, 0.017842, 0.00269308, 0.000212671, 0.000220506, 0.00145917
-0.00403285, 0.00235519, -0.587976, 2.63961e-05, -6.1811e-05, 0.00020978, 0.0252416, 0.0178409, 0.00269117, 0.000212573, 0.00022036, 0.001459
-0.00403285, 0.00235519, -0.587976, 2.63961e-05, -6.1811e-05, 0.00020978, 0.0252417, 0.0178411, 0.00269212, 0.000212866, 0.000220643, 0.00145904
-0.00389706, 0.00239363, -0.588024, 2.67525e-05, -6.12053e-05, 0.000209699, 0.025238, 0.0178398, 0.00268996, 0.000212704, 0.00022044, 0.00145876
-0.00391184, 0.00242359, -0.588036, 2.42408e-05, -6.09107e-05, 0.000214865, 0.0252343, 0.0178385, 0.00268786, 0.000212548, 0.000220245, 0.00145843
-0.00391184, 0.00242359, -0.588036, 2.42408e-05, -6.09107e-05, 0.000214865, 0.0252344, 0.0178387, 0.00268881, 0.000212841, 0.000220528, 0.00145847
-0.0038766, 0.00245802, -0.588057, 2.29127e-05, -6.03681e-05, 0.000218831, 0.0252313, 0.0178374, 0.00268645, 0.000212628, 0.000220279, 0.00145797
-0.00382234, 0.00249269, -0.588082, 2.20254e-05, -6.00667e-05, 0.000221725, 0.0252284, 0.0178362, 0.00268417, 0.000212435, 0.000220049, 0.00145741
-0.0037862, 0.00251409, -0.588098, 2.15584e-05, -6.01182e-05, 0.000223179, 0.0252261, 0.0178349, 0.00268197, 0.000212264, 0.000219835, 0.00145679
-0.00372784, 0.00254083, -0.588122, 2.17367e-05, -6.01682e-05, 0.000223011, 0.0252241, 0.0178336, 0.00267983, 0.000212112, 0.000219632, 0.00145612
-0.00368903, 0.00257961, -0.588143, 2.07071e-05, -5.98872e-05, 0.000226969, 0.0252224, 0.0178322, 0.00267776, 0.000211982, 0.000219442, 0.00145538
-0.00369022, 0.00257015, -0.588141, 2.12651e-05, -6.00514e-05, 0.00022481, 0.0252213, 0.0178308, 0.00267576, 0.000211875, 0.000219264, 0.0014546
-0.00369763, 0.00258042, -0.588139, 2.00247e-05, -5.99565e-05, 0.000229257, 0.0252204, 0.0178293, 0.00267384, 0.000211785, 0.00021909, 0.00145379
-0.00368636, 0.0026007, -0.588148, 1.9281e-05, -5.99173e-05, 0.000232252, 0.0252197, 0.0178278, 0.00267201, 0.000211718, 0.000218928, 0.00145296
-0.00364171, 0.00265142, -0.588181, 1.93965e-05, -5.97285e-05, 0.000232888, 0.0252191, 0.0178263, 0.00267027, 0.000211672, 0.000218774, 0.00145212
-0.0036491, 0.002645, -0.588174, 1.88703e-05, -5.99777e-05, 0.000234325, 0.0252185, 0.0178246, 0.00266863, 0.000211642, 0.000218626, 0.0014513
-0.00361482, 0.00266904, -0.588202, 2.10098e-05, -6.02012e-05, 0.000226738, 0.0252179, 0.0178229, 0.00266708, 0.000211631, 0.000218487, 0.00145052
-0.0035959, 0.00269911, -0.588215, 2.02041e-05, -6.01543e-05, 0.000230221, 0.0252173, 0.0178213, 0.00266565, 0.000211633, 0.000218352, 0.00144976
-0.00355725, 0.00273761, -0.588242, 2.06744e-05, -5.9932e-05, 0.000229796, 0.0252167, 0.0178199, 0.00266434, 0.00021165, 0.000218224, 0.00144905
-0.00353368, 0.00276647, -0.588258, 2.0261e-05, -5.98614e-05, 0.000232138, 0.0252161, 0.0178187, 0.00266313, 0.000211677, 0.0002181, 0.00144838
-0.0034961, 0.00281724, -0.588285, 1.93008e-05, -5.9398e-05, 0.000237587, 0.0252155, 0.0178175, 0.00266201, 0.000211715, 0.000217981, 0.00144775
-0.00347659, 0.00283594, -0.588297, 1.93373e-05, -5.94168e-05, 0.000238189, 0.0252149, 0.0178163, 0.00266096, 0.000211764, 0.000217869, 0.00144716
-0.00346862, 0.00281116, -0.588293, 2.10419e-05, -6.01089e-05, 0.000231227, 0.0252144, 0.0178151, 0.00265997, 0.000211819, 0.000217759, 0.00144662
-0.00346362, 0.00283631, -0.588302, 2.00728e-05, -5.98507e-05, 0.000235433, 0.0252138, 0.0178138, 0.00265904, 0.000211883, 0.000217655, 0.00144611
-0.00344772, 0.00288786, -0.588324, 1.87032e-05, -5.96159e-05, 0.000242003, 0.0252133, 0.0178124, 0.00265814, 0.000211949, 0.000217552, 0.00144566
-0.00344234, 0.00291471, -0.588335, 1.79388e-05, -5.9532e-05, 0.000245531, 0.0252127, 0.0178111, 0.00265727, 0.00021202, 0.000217457, 0.00144526
-0.00343017, 0.00292202, -0.58834, 1.81887e-05, -5.97753e-05, 0.000245393, 0.0252122, 0.0178097, 0.00265643, 0.00021209, 0.000217365, 0.00144492
-0.00340357, 0.00299249, -0.588376, 1.73793e-05, -5.95681e-05, 0.000251046, 0.0252116, 0.0178084, 0.00265562, 0.00021216, 0.000217277, 0.00144465
-0.00338287, 0.00300856, -0.588387, 1.78266e-05, -5.98444e-05, 0.000251439, 0.025211, 0.0178072, 0.00265482, 0.000212224, 0.000217193, 0.00144444
-0.00339341, 0.00301467, -0.588387, 1.69214e-05, -5.98285e-05, 0.000252922, 0.0252105, 0.017806, 0.00265398, 0.00021228, 0.000217111, 0.00144432
-0.00337776, 0.00299433, -0.588382, 1.84072e-05, -6.02422e-05, 0.000250949, 0.0252101, 0.0178049, 0.00265309, 0.000212325, 0.000217034, 0.00144426
-0.00336325, 0.00302967, -0.588403, 1.84718e-05, -6.0609e-05, 0.00025305, 0.0252096, 0.0178036, 0.00265211, 0.000212352, 0.000216956, 0.00144425
-0.00331963, 0.00303147, -0.588412, 2.16255e-05, -6.09884e-05, 0.000254637, 0.0252091, 0.0178022, 0.00265099, 0.000212356, 0.000216878, 0.00144426
-0.00326543, 0.00296644, -0.588394, 2.60256e-05, -6.20744e-05, 0.000256804, 0.0252084, 0.0178004, 0.00264972, 0.000212336, 0.0002168, 0.00144425
-0.00323485, 0.00296553, -0.588397, 2.79273e-05, -6.24044e-05, 0.000259951, 0.0252077, 0.0177983, 0.00264829, 0.000212287, 0.000216719, 0.00144416
-0.00322479, 0.00296027, -0.588396, 2.86561e-05, -6.24879e-05, 0.000261416, 0.0252067, 0.017796, 0.00264665, 0.000212206, 0.000216634, 0.00144392
-0.00318868, 0.00300504, -0.588416, 2.98777e-05, -6.20649e-05, 0.000265971, 0.0252056, 0.0177935, 0.0026448, 0.000212093, 0.000216542, 0.00144346
-0.003171, 0.00302272, -0.588425, 3.02754e-05, -6.21239e-05, 0.000267552, 0.0252042, 0.0177909, 0.00264272, 0.000211949, 0.000216443, 0.00144273
-0.0032138, 0.00298895, -0.588408, 2.88582e-05, -6.23019e-05, 0.000261805, 0.0252026, 0.0177882, 0.00264039, 0.00021178, 0.000216337, 0.00144165
-0.00324355, 0.00299705, -0.588411, 2.65182e-05, -6.24829e-05, 0.000251347, 0.025201, 0.0177855, 0.00263775, 0.000211589, 0.000216221, 0.00144018
-0.00324243, 0.00302178, -0.588425, 2.51782e-05, -6.29312e-05, 0.000244161, 0.0251995, 0.0177827, 0.00263479, 0.000211387, 0.000216097, 0.00143834
-0.00322589, 0.00304324, -0.588436, 2.54305e-05, -6.29656e-05, 0.000245138, 0.025198, 0.0177797, 0.00263153, 0.000211184, 0.000215965, 0.00143615
-0.00326047, 0.00300266, -0.588418, 2.39116e-05, -6.34727e-05, 0.000236626, 0.0251967, 0.0177764, 0.00262797, 0.000210993, 0.00021583, 0.00143367
-0.00322931, 0.00302523, -0.588429, 2.53549e-05, -6.34475e-05, 0.000244521, 0.0251954, 0.0177728, 0.00262421, 0.00021082, 0.00021569, 0.00143099
-0.0032194, 0.00301476, -0.588426, 2.6308e-05, -6.37769e-05, 0.00024968, 0.025194, 0.0177688, 0.00262028, 0.000210672, 0.000215546, 0.0014282
-0.00320917, 0.00299315, -0.588418, 2.76949e-05, -6.42498e-05, 0.000257662, 0.0251928, 0.0177646, 0.00261623, 0.000210552, 0.000215398, 0.00142538
-0.00316621, 0.00302325, -0.588431, 3.05217e-05, -6.4157e-05, 0.000274911, 0.0251916, 0.01776, 0.00261212, 0.000210465, 0.000215252, 0.00142258
-0.00311675, 0.00309545, -0.588462, 3.20804e-05, -6.4403e-05, 0.000282423, 0.0251906, 0.0177551, 0.00260796, 0.000210407, 0.000215102, 0.00141985
-0.00311472, 0.00304811, -0.588444, 3.39134e-05, -6.46948e-05, 0.000294812, 0.0251899, 0.0177502, 0.0026038, 0.000210379, 0.000214952, 0.00141719
-0.00309642, 0.00306068, -0.588451, 3.48201e-05, -6.52962e-05, 0.000298762, 0.0251893, 0.0177453, 0.00259968, 0.000210378, 0.000214801, 0.00141464
-0.00309316, 0.00300573, -0.588431, 3.6397e-05, -6.58727e-05, 0.000309554, 0.0251888, 0.0177407, 0.00259566, 0.000210403, 0.000214652, 0.00141221
-0.0030849, 0.0029695, -0.588417, 3.7813e-05, -6.63247e-05, 0.00031887, 0.0251884, 0.0177363, 0.00259173, 0.000210449, 0.000214502, 0.00140988
-0.0030746, 0.00296765, -0.588419, 3.81822e-05, -6.7124e-05, 0.000318937, 0.0251881, 0.0177322, 0.00258797, 0.000210517, 0.000214353, 0.00140769
-0.00306742, 0.00291751, -0.588401, 3.87719e-05, -6.80971e-05, 0.000321965, 0.0251878, 0.0177284, 0.00258435, 0.000210603, 0.000214205, 0.00140561
-0.00306742, 0.00291751, -0.588401, 3.87719e-05, -6.80971e-05, 0.000321965, 0.0251879, 0.0177285, 0.00258534, 0.000210899, 0.000214497, 0.00140566
-0.00306622, 0.00288696, -0.588391, 3.81124e-05, -6.9096e-05, 0.000315498, 0.0251877, 0.0177247, 0.00258144, 0.00021097, 0.000214282, 0.00140342
-0.00305544, 0.00294041, -0.588417, 3.88022e-05, -6.96043e-05, 0.000316163, 0.0251874, 0.017721, 0.00257779, 0.000211064, 0.00021408, 0.0014014
-0.00303413, 0.00295944, -0.588429, 4.03016e-05, -7.04208e-05, 0.00032245, 0.0251872, 0.0177174, 0.00257438, 0.000211171, 0.000213883, 0.00139955
-0.00302671, 0.00296138, -0.588434, 4.03243e-05, -7.14167e-05, 0.000319255, 0.0251869, 0.0177138, 0.00257121, 0.000211293, 0.000213694, 0.00139784
-0.00300354, 0.00293402, -0.588427, 4.14622e-05, -7.2437e-05, 0.00032372, 0.0251865, 0.01771, 0.00256823, 0.000211423, 0.00021351, 0.00139628
-0.00298834, 0.00292098, -0.588427, 4.2003e-05, -7.34985e-05, 0.000323775, 0.0251861, 0.0177059, 0.00256541, 0.000211563, 0.000213333, 0.00139483
-0.00300554, 0.00293525, -0.588437, 4.08137e-05, -7.47153e-05, 0.000313012, 0.0251857, 0.0177014, 0.00256274, 0.000211707, 0.000213161, 0.00139351
-0.0030012, 0.00295381, -0.588447, 4.09047e-05, -7.5735e-05, 0.0003097, 0.0251852, 0.0176966, 0.00256024, 0.000211855, 0.000212996, 0.00139232
-0.00298194, 0.002932, -0.588445, 4.16017e-05, -7.68675e-05, 0.000309975, 0.0251847, 0.0176919, 0.0025579, 0.000212002, 0.000212835, 0.00139123
-0.00297601, 0.00291816, -0.588443, 4.16823e-05, -7.76608e-05, 0.000308033, 0.0251844, 0.0176877, 0.00255574, 0.000212148, 0.000212679, 0.0013902
-0.00297433, 0.00291377, -0.588445, 4.14733e-05, -7.86415e-05, 0.00030414, 0.025184, 0.0176839, 0.00255372, 0.000212288, 0.000212524, 0.00138927
-0.00298587, 0.00297149, -0.58847, 4.11036e-05, -7.97202e-05, 0.000297537, 0.0251836, 0.0176803, 0.0025518, 0.000212419, 0.000212373, 0.00138842
-0.0029494, 0.00293753, -0.588464, 4.28651e-05, -8.08505e-05, 0.000299923, 0.0251832, 0.0176766, 0.00254996, 0.000212542, 0.000212228, 0.00138766
-0.00294722, 0.00296088, -0.588477, 4.30552e-05, -8.21733e-05, 0.000295442, 0.0251827, 0.0176729, 0.00254815, 0.000212649, 0.000212081, 0.00138695
-0.00295971, 0.00298042, -0.588487, 4.23456e-05, -8.30413e-05, 0.000290885, 0.0251822, 0.0176691, 0.00254637, 0.000212741, 0.000211939, 0.0013863
-0.00295909, 0.00301955, -0.588504, 4.32065e-05, -8.37325e-05, 0.000289192, 0.0251817, 0.0176654, 0.00254459, 0.000212816, 0.000211801, 0.00138571
-0.00296821, 0.00304283, -0.588516, 4.2798e-05, -8.49913e-05, 0.000284432, 0.0251811, 0.0176617, 0.0025428, 0.00021287, 0.000211664, 0.00138516
-0.002974, 0.00304441, -0.588519, 4.21806e-05, -8.58339e-05, 0.000281486, 0.0251804, 0.017658, 0.00254095, 0.0002129, 0.000211529, 0.00138464
-0.00296137, 0.0030144, -0.588511, 4.20323e-05, -8.67753e-05, 0.000279072, 0.0251795, 0.017654, 0.00253904, 0.000212907, 0.000211399, 0.00138416
-0.00294808, 0.0030383, -0.588525, 4.43233e-05, -8.77895e-05, 0.000275846, 0.0251785, 0.0176497, 0.00253705, 0.000212884, 0.00021127, 0.00138369
-0.00294596, 0.00304478, -0.58853, 4.48139e-05, -8.87071e-05, 0.000272913, 0.0251773, 0.0176449, 0.00253498, 0.00021283, 0.000211142, 0.00138321
-0.00291671, 0.00298723, -0.588516, 4.53786e-05, -8.96307e-05, 0.000270068, 0.0251761, 0.0176396, 0.00253282, 0.000212744, 0.000211014, 0.00138269
-0.00290367, 0.00301811, -0.588529, 4.71151e-05, -9.05461e-05, 0.000265877, 0.0251747, 0.0176337, 0.00253056, 0.000212625, 0.000210887, 0.00138215
-0.00290371, 0.00299641, -0.588525, 4.66488e-05, -9.13554e-05, 0.000264077, 0.0251732, 0.0176273, 0.00252816, 0.000212475, 0.000210762, 0.00138155
-0.00289108, 0.00294473, -0.588511, 4.64122e-05, -9.17393e-05, 0.000263362, 0.0251716, 0.0176203, 0.00252567, 0.000212293, 0.000210637, 0.00138089
-0.00293722, 0.00300273, -0.588528, 4.46979e-05, -9.22937e-05, 0.000264641, 0.0251698, 0.0176131, 0.00252307, 0.000212082, 0.000210514, 0.00138016
-0.00294441, 0.00296676, -0.588517, 4.34347e-05, -9.23428e-05, 0.000266709, 0.0251681, 0.0176056, 0.00252037, 0.000211844, 0.000210391, 0.00137936
-0.00294069, 0.00292217, -0.588505, 4.27787e-05, -9.2722e-05, 0.000266645, 0.0251665, 0.0175975, 0.00251758, 0.000211584, 0.00021027, 0.00137848
-0.00293736, 0.00289213, -0.588498, 4.23461e-05, -9.33823e-05, 0.000265625, 0.0251648, 0.0175886, 0.00251463, 0.000211307, 0.000210149, 0.00137753
-0.00293174, 0.00284756, -0.588487, 4.14499e-05, -9.38127e-05, 0.00026607, 0.0251625, 0.017579, 0.00251151, 0.000211019, 0.000210029, 0.0013765
-0.00289222, 0.00280053, -0.588478, 4.30201e-05, -9.46004e-05, 0.00026014, 0.0251601, 0.0175693, 0.00250837, 0.000210724, 0.000209909, 0.0013754
-0.00294347, 0.00293279, -0.588513, 4.26189e-05, -9.4634e-05, 0.000261753, 0.0251579, 0.0175601, 0.00250527, 0.000210426, 0.000209787, 0.0013742
-0.00291826, 0.00287806, -0.588498, 4.30322e-05, -9.46495e-05, 0.000260996, 0.0251555, 0.0175514, 0.00250222, 0.00021013, 0.000209665, 0.00137292
-0.00291583, 0.00285145, -0.588492, 4.28849e-05, -9.5093e-05, 0.000259879, 0.025153, 0.0175432, 0.00249922, 0.000209839, 0.000209543, 0.00137158
-0.00284164, 0.00278702, -0.588478, 4.57629e-05, -9.57696e-05, 0.000249761, 0.0251504, 0.0175351, 0.00249623, 0.000209556, 0.00020942, 0.0013702
-0.00287306, 0.0027351, -0.588462, 4.3535e-05, -9.59471e-05, 0.000254627, 0.0251477, 0.0175272, 0.00249325, 0.000209287, 0.000209297, 0.00136878
-0.00291488, 0.00281087, -0.588483, 4.25514e-05, -9.59605e-05, 0.000258178, 0.0251453, 0.0175192, 0.0024903, 0.000209033, 0.000209176, 0.00136736
-0.00294854, 0.00287674, -0.588502, 4.19264e-05, -9.59321e-05, 0.000260861, 0.0251429, 0.0175114, 0.00248737, 0.000208794, 0.000209055, 0.00136595
-0.00296583, 0.00285291, -0.588494, 4.05773e-05, -9.60855e-05, 0.000263795, 0.0251408, 0.0175035, 0.00248448, 0.000208573, 0.000208936, 0.00136453
-0.00295504, 0.00294082, -0.588522, 4.30631e-05, -9.63133e-05, 0.000257767, 0.0251388, 0.0174953, 0.00248161, 0.00020837, 0.000208817, 0.00136315
-0.00290629, 0.00289633, -0.588512, 4.51907e-05, -9.64685e-05, 0.000250414, 0.0251369, 0.0174867, 0.00247877, 0.000208184, 0.000208698, 0.00136176
-0.00293321, 0.00287344, -0.588504, 4.28455e-05, -9.63002e-05, 0.000256935, 0.0251347, 0.0174778, 0.00247595, 0.000208017, 0.000208582, 0.00136037
-0.00292211, 0.0028521, -0.588498, 4.291e-05, -9.61193e-05, 0.00025705, 0.0251324, 0.0174686, 0.00247313, 0.000207866, 0.000208465, 0.00135904
-0.00300599, 0.00300041, -0.588533, 4.19292e-05, -9.56905e-05, 0.000263614, 0.0251298, 0.0174592, 0.00247034, 0.000207731, 0.000208349, 0.00135773
-0.00308109, 0.00312425, -0.588562, 4.08397e-05, -9.51594e-05, 0.000270063, 0.0251272, 0.0174496, 0.0024676, 0.000207611, 0.000208236, 0.00135646
-0.00309117, 0.00306705, -0.588543, 3.79286e-05, -9.42383e-05, 0.000279144, 0.0251248, 0.0174401, 0.00246495, 0.000207506, 0.000208126, 0.00135524
-0.00320988, 0.00321754, -0.588574, 3.43845e-05, -9.29124e-05, 0.000294693, 0.0251223, 0.0174307, 0.00246234, 0.000207413, 0.000208016, 0.00135409
-0.00326342, 0.00328014, -0.588586, 3.25069e-05, -9.20329e-05, 0.000302898, 0.0251198, 0.0174214, 0.0024598, 0.000207334, 0.000207911, 0.001353
-0.00330405, 0.00334588, -0.588599, 3.17423e-05, -9.12551e-05, 0.000308036, 0.0251175, 0.0174123, 0.00245731, 0.000207263, 0.000207806, 0.00135196
-0.00342575, 0.00354029, -0.588642, 2.98506e-05, -9.0005e-05, 0.000319287, 0.0251151, 0.0174033, 0.00245488, 0.000207201, 0.000207703, 0.00135098
-0.00349188, 0.00359715, -0.58865, 2.60658e-05, -8.88081e-05, 0.000332034, 0.0251129, 0.0173945, 0.00245252, 0.000207147, 0.000207601, 0.00135006
-0.00359628, 0.00380141, -0.588697, 2.56935e-05, -8.77012e-05, 0.000339322, 0.0251109, 0.0173859, 0.00245023, 0.0002071, 0.000207503, 0.0013492
-0.00366218, 0.0039082, -0.588719, 2.41034e-05, -8.67269e-05, 0.000346863, 0.0251091, 0.0173774, 0.00244799, 0.000207056, 0.000207405, 0.00134839
-0.00371736, 0.00400693, -0.58874, 2.29983e-05, -8.58408e-05, 0.000352938, 0.0251074, 0.0173691, 0.00244581, 0.000207018, 0.000207309, 0.00134763
-0.00377216, 0.00417978, -0.588782, 2.46219e-05, -8.50337e-05, 0.000354765, 0.025106, 0.0173611, 0.0024437, 0.000206982, 0.000207214, 0.00134691
-0.0038111, 0.00432472, -0.588816, 2.5972e-05, -8.41217e-05, 0.000357114, 0.0251046, 0.0173534, 0.00244164, 0.000206948, 0.000207119, 0.0013462
-0.00381721, 0.00434673, -0.588819, 2.58466e-05, -8.33674e-05, 0.000359736, 0.0251033, 0.017346, 0.00243961, 0.000206913, 0.000207024, 0.00134552
-0.00384753, 0.00435557, -0.588819, 2.39566e-05, -8.28986e-05, 0.000363603, 0.0251019, 0.0173388, 0.00243762, 0.000206878, 0.00020693, 0.00134486
-0.00386594, 0.00435576, -0.588818, 2.27752e-05, -8.24853e-05, 0.000366132, 0.0251005, 0.0173318, 0.00243565, 0.000206841, 0.000206836, 0.00134425
-0.00386238, 0.00442296, -0.588834, 2.38694e-05, -8.21269e-05, 0.000366888, 0.0250991, 0.0173248, 0.0024337, 0.000206804, 0.000206745, 0.00134366
-0.00388635, 0.004524, -0.588861, 2.36323e-05, -8.19033e-05, 0.000368566, 0.0250979, 0.0173181, 0.00243178, 0.000206762, 0.000206653, 0.00134308
-0.00395505, 0.0045795, -0.588872, 2.0336e-05, -8.11493e-05, 0.000373035, 0.0250968, 0.0173118, 0.00242992, 0.000206718, 0.000206562, 0.00134251
-0.00389288, 0.00460712, -0.58888, 2.34458e-05, -8.10568e-05, 0.000372901, 0.0250957, 0.0173058, 0.00242806, 0.000206671, 0.000206473, 0.00134198
-0.00391759, 0.00460266, -0.588878, 2.22413e-05, -8.08469e-05, 0.000373492, 0.0250945, 0.0172999, 0.00242619, 0.000206621, 0.000206382, 0.00134143
-0.00395371, 0.00456711, -0.588867, 2.05996e-05, -8.07406e-05, 0.000373487, 0.0250932, 0.017294, 0.00242431, 0.000206568, 0.000206293, 0.00134088
-0.00393401, 0.00449716, -0.588848, 2.17455e-05, -8.1067e-05, 0.000372886, 0.025092, 0.0172882, 0.00242241, 0.000206514, 0.000206205, 0.00134034
-0.00392584, 0.00444782, -0.588834, 2.22902e-05, -8.11623e-05, 0.000372886, 0.0250907, 0.0172823, 0.00242048, 0.000206459, 0.000206117, 0.00133978
-0.00393052, 0.00449601, -0.588847, 2.17484e-05, -8.08959e-05, 0.000373292, 0.0250895, 0.0172764, 0.00241856, 0.000206404, 0.000206031, 0.00133921
-0.00395003, 0.00447944, -0.588841, 2.09565e-05, -8.04595e-05, 0.000373844, 0.0250882, 0.0172701, 0.00241663, 0.000206349, 0.000205944, 0.00133863
-0.00393317, 0.00451533, -0.588851, 2.13553e-05, -8.05572e-05, 0.000373959, 0.0250867, 0.0172636, 0.00241471, 0.000206298, 0.00020586, 0.00133804
-0.00391979, 0.0044519, -0.588835, 2.27764e-05, -8.08029e-05, 0.000375034, 0.0250852, 0.0172571, 0.00241282, 0.000206249, 0.000205776, 0.00133743
-0.00394116, 0.00441664, -0.588824, 2.22966e-05, -8.05175e-05, 0.000375425, 0.0250836, 0.0172506, 0.00241094, 0.000206205, 0.000205693, 0.00133679
-0.00398742, 0.00438192, -0.588814, 2.07125e-05, -8.03253e-05, 0.000373917, 0.025082, 0.0172445, 0.00240911, 0.000206169, 0.000205612, 0.00133613
-0.00399107, 0.00430929, -0.588794, 2.19662e-05, -8.05513e-05, 0.000376366, 0.0250806, 0.0172391, 0.00240734, 0.000206138, 0.000205533, 0.00133545
-0.00401278, 0.00421844, -0.588768, 2.32471e-05, -8.10331e-05, 0.000378412, 0.0250791, 0.0172345, 0.00240568, 0.000206115, 0.000205453, 0.00133473
-0.00398195, 0.00425249, -0.588779, 2.36645e-05, -8.12495e-05, 0.000377171, 0.0250773, 0.0172303, 0.00240412, 0.0002061, 0.000205375, 0.00133398
-0.00395195, 0.00427056, -0.588786, 2.45572e-05, -8.14335e-05, 0.000378148, 0.0250755, 0.0172264, 0.00240262, 0.000206094, 0.000205298, 0.00133322
-0.00397323, 0.00425697, -0.588782, 2.38705e-05, -8.15161e-05, 0.000376646, 0.0250738, 0.0172226, 0.00240117, 0.000206096, 0.000205222, 0.00133244
-0.00394597, 0.00432187, -0.588804, 2.31334e-05, -8.16868e-05, 0.000373392, 0.025072, 0.0172187, 0.00239975, 0.000206104, 0.000205148, 0.00133166
-0.00395464, 0.00430632, -0.5888, 2.30828e-05, -8.19965e-05, 0.00037224, 0.0250702, 0.0172146, 0.00239836, 0.000206119, 0.000205074, 0.0013309
-0.00394527, 0.00432251, -0.588806, 2.30176e-05, -8.21378e-05, 0.000371454, 0.0250685, 0.0172103, 0.00239703, 0.000206139, 0.000205003, 0.00133015
-0.00395156, 0.00435663, -0.588816, 2.15123e-05, -8.22166e-05, 0.00036756, 0.0250665, 0.017206, 0.00239577, 0.000206163, 0.000204933, 0.00132943
-0.003988, 0.00435952, -0.588819, 1.94789e-05, -8.24649e-05, 0.000362663, 0.0250644, 0.0172017, 0.00239458, 0.00020619, 0.000204865, 0.00132875
-0.00395421, 0.00436031, -0.588821, 2.08631e-05, -8.32471e-05, 0.000362721, 0.0250621, 0.0171976, 0.00239346, 0.00020622, 0.0002048, 0.00132811
-0.00393582, 0.0043696, -0.588827, 2.11426e-05, -8.39654e-05, 0.000360571, 0.0250598, 0.0171937, 0.00239239, 0.00020625, 0.000204734, 0.00132749
-0.00393749, 0.00436859, -0.588828, 2.08821e-05, -8.45097e-05, 0.00035841, 0.0250578, 0.0171902, 0.00239134, 0.000206279, 0.00020467, 0.00132689
-0.0039517, 0.00435651, -0.588826, 2.04427e-05, -8.50357e-05, 0.000356311, 0.025056, 0.0171871, 0.00239032, 0.000206304, 0.000204606, 0.00132633
-0.00392434, 0.00435269, -0.588828, 2.21784e-05, -8.59875e-05, 0.000355539, 0.0250542, 0.017184, 0.0023893, 0.000206324, 0.000204543, 0.0013258
-0.0038914, 0.00438254, -0.588839, 2.22522e-05, -8.65714e-05, 0.000353422, 0.0250522, 0.0171809, 0.00238832, 0.00020634, 0.000204482, 0.00132528
-0.00382155, 0.00442414, -0.588855, 2.3945e-05, -8.74221e-05, 0.000351829, 0.0250501, 0.0171777, 0.00238735, 0.000206349, 0.000204421, 0.00132479
-0.00383426, 0.0044018, -0.588851, 2.43315e-05, -8.81771e-05, 0.000349665, 0.0250475, 0.0171743, 0.00238638, 0.000206349, 0.000204361, 0.0013243
-0.00388595, 0.0043595, -0.588839, 2.36229e-05, -8.86432e-05, 0.000348136, 0.0250448, 0.0171707, 0.00238541, 0.000206341, 0.000204302, 0.00132383
-0.00388706, 0.00433336, -0.588834, 2.5249e-05, -8.9352e-05, 0.000346331, 0.0250416, 0.017167, 0.00238444, 0.000206322, 0.000204243, 0.00132337
-0.00381445, 0.00438635, -0.588852, 2.56802e-05, -9.03783e-05, 0.000343121, 0.0250383, 0.0171633, 0.00238346, 0.000206294, 0.000204186, 0.00132292
-0.00383363, 0.00435871, -0.588845, 2.62008e-05, -9.10545e-05, 0.000341071, 0.0250352, 0.0171596, 0.00238243, 0.000206254, 0.000204128, 0.00132246
-0.00381238, 0.00434895, -0.588846, 2.8097e-05, -9.18564e-05, 0.000337858, 0.0250318, 0.017156, 0.0023814, 0.000206205, 0.000204072, 0.001322
-0.00372143, 0.004409, -0.588866, 2.92176e-05, -9.27703e-05, 0.000334821, 0.0250284, 0.0171522, 0.00238034, 0.000206149, 0.000204017, 0.00132152
-0.00383108, 0.00434648, -0.588846, 2.5988e-05, -9.28692e-05, 0.000335979, 0.0250251, 0.0171482, 0.00237926, 0.000206084, 0.000203962, 0.00132102
