-0.0125776, -0.00319111, -0.586226, -0.000302253, 0.000459276, -0.000461652, 0.0316228, 0.0316228, 0.0316228, 0.0316228, 0.0316228, 0.0316228
-0.0125776, -0.00319111, -0.586226, -0.000302253, 0.000459276, -0.000461652, 0.0316228, 0.0316228, 0.0316228, 0.0316228, 0.0316228, 0.0316228
-0.0126136, -0.00327203, -0.585767, -0.000535681, -0.00159684, -0.000850741, 0.0316056, 0.0315672, 0.0315374, 0.0311729, 0.0298642, 0.0304182
-0.0126552, -0.0032888, -0.585615, -0.000557876, -0.00200772, -0.000902379, 0.0315895, 0.0315548, 0.031508, 0.0308551, 0.0296419, 0.0303357
-0.0126882, -0.00332188, -0.585449, -0.000604495, -0.00238533, -0.000966755, 0.031574, 0.0315424, 0.0314717, 0.0305343, 0.0294438, 0.0302852
-0.0127132, -0.00335062, -0.585466, -0.000579012, -0.00232886, -0.00101626, 0.0315591, 0.0315307, 0.0314252, 0.0302153, 0.0292217, 0.0302453
-0.0127381, -0.00337229, -0.585509, -0.000560472, -0.00222559, -0.00103617, 0.0315449, 0.0315172, 0.031365, 0.0298991, 0.0290008, 0.0302145
-0.0127711, -0.00338469, -0.58549, -0.000536593, -0.00222502, -0.00104995, 0.0315315, 0.0315039, 0.0312978, 0.0295841, 0.0288014, 0.0301879
-0.0127975, -0.0033948, -0.585409, -0.000478027, -0.00232204, -0.00106779, 0.0315189, 0.0314931, 0.0312311, 0.0292645, 0.0286349, 0.0301621
-0.0128159, -0.00339014, -0.585456, -0.000365158, -0.00224569, -0.00109513, 0.0315074, 0.0314844, 0.0311574, 0.0289326, 0.0284672, 0.0301363
-0.0128304, -0.00338016, -0.585514, -0.000212694, -0.00216008, -0.00112474, 0.0314968, 0.0314743, 0.0310549, 0.0285853, 0.0282561, 0.0301101
-0.0128468, -0.00336674, -0.585511, -8.25294e-05, -0.00214218, -0.00115969, 0.0314871, 0.0314641, 0.0309203, 0.0282241, 0.0280028, 0.0300825
-0.0128638, -0.00334849, -0.585645, 5.92303e-05, -0.00196279, -0.00118899, 0.0314782, 0.0314537, 0.0307484, 0.0278477, 0.0276934, 0.030054
-0.0128849, -0.00332134, -0.585872, 0.000211467, -0.00167636, -0.00123134, 0.0314697, 0.0314408, 0.0305269, 0.0274558, 0.0273191, 0.0300235
-0.0129094, -0.00330363, -0.586026, 0.000337178, -0.00146337, -0.00125951, 0.0314615, 0.0314257, 0.0302634, 0.0270538, 0.0268912, 0.0299921
-0.0129224, -0.0032952, -0.585987, 0.000386877, -0.00146107, -0.00126418, 0.0314537, 0.0314116, 0.0299855, 0.0266468, 0.0264543, 0.0299601
-0.0129325, -0.00329363, -0.58586, 0.000446409, -0.00153104, -0.00126057, 0.0314466, 0.0314007, 0.0297223, 0.0262357, 0.0260578, 0.0299253
-0.0129409, -0.00329159, -0.585782, 0.000478358, -0.00155372, -0.00125921, 0.0314402, 0.0313919, 0.0294844, 0.0258197, 0.0257032, 0.0298889
-0.0129461, -0.0032971, -0.585695, 0.000567186, -0.00159001, -0.00125884, 0.0314343, 0.0313837, 0.0292807, 0.0254038, 0.0253899, 0.0298527
-0.012949, -0.00330951, -0.585479, 0.000664463, -0.00170358, -0.00125136, 0.0314291, 0.0313769, 0.0291312, 0.0249866, 0.0251369, 0.029816
-0.0129561, -0.00331563, -0.585416, 0.000747874, -0.00170132, -0.00124701, 0.0314247, 0.0313715, 0.0290338, 0.0245618, 0.0249203, 0.0297816
-0.0129615, -0.00331087, -0.585528, 0.000770839, -0.00160434, -0.00125201, 0.0314203, 0.0313644, 0.0289584, 0.0241515, 0.0247119, 0.0297476
-0.0129704, -0.00329554, -0.585673, 0.000770562, -0.00149011, -0.00126678, 0.0314158, 0.0313488, 0.0288762, 0.0237661, 0.0244989, 0.029708
-0.0129811, -0.00327092, -0.585847, 0.000805707, -0.00136767, -0.00129434, 0.0314112, 0.0313206, 0.0287668, 0.0233921, 0.0242688, 0.0296636
-0.0129994, -0.00326527, -0.586079, 0.000847844, -0.0011936, -0.00132083, 0.0314066, 0.0312802, 0.0286147, 0.0230304, 0.0240169, 0.0296178
-0.0130222, -0.00328605, -0.586345, 0.000875006, -0.000962467, -0.00134078, 0.0314021, 0.0312355, 0.0284292, 0.0226868, 0.0237483, 0.0295739
-0.0130453, -0.00332286, -0.586584, 0.000900033, -0.000718595, -0.00135996, 0.0313976, 0.0311946, 0.0282331, 0.0223623, 0.0234665, 0.0295302
-0.0130703, -0.00335861, -0.586818, 0.000900433, -0.000419786, -0.00138005, 0.0313929, 0.0311609, 0.0280419, 0.0220451, 0.0231746, 0.0294823
-0.0130908, -0.00338127, -0.587038, 0.00087726, -0.000104113, -0.00140462, 0.0313881, 0.0311346, 0.0278735, 0.0217207, 0.0228744, 0.0294262
-0.0131113, -0.00337601, -0.587199, 0.000854172, 0.000208103, -0.0014097, 0.0313833, 0.0311135, 0.0277166, 0.0213783, 0.0225625, 0.0293614
-0.0131416, -0.0033586, -0.587156, 0.000855758, 0.000410706, -0.00140568, 0.0313788, 0.0310959, 0.0275492, 0.0210232, 0.0222551, 0.0292959
-0.0131711, -0.00334481, -0.586947, 0.000853534, 0.000498246, -0.00141917, 0.0313747, 0.0310805, 0.027343, 0.0206485, 0.0219866, 0.0292406
-0.0131956, -0.00333278, -0.586843, 0.000846016, 0.000643347, -0.00143487, 0.0313709, 0.0310659, 0.0270875, 0.0202162, 0.0217493, 0.029168
-0.0132137, -0.00332708, -0.586669, 0.000828063, 0.00076791, -0.00144751, 0.0313673, 0.0310519, 0.026797, 0.0197302, 0.0215224, 0.0290721
-0.0132233, -0.00333192, -0.586446, 0.000758423, 0.000892587, -0.00142574, 0.0313641, 0.0310379, 0.0264425, 0.0191495, 0.0212981, 0.028939
-0.0132316, -0.00334085, -0.586509, 0.000622961, 0.0010214, -0.00137487, 0.0313612, 0.0310237, 0.0260087, 0.0184806, 0.0210649, 0.0287634
-0.0132446, -0.00335458, -0.586696, 0.000489472, 0.00114878, -0.00130318, 0.0313583, 0.0310101, 0.0255226, 0.0177844, 0.0208205, 0.0285763
-0.0132492, -0.00336849, -0.586691, 0.000390234, 0.00126238, -0.00124131, 0.0313558, 0.0309976, 0.0250343, 0.0170794, 0.0205653, 0.0283988
-0.0132473, -0.00338298, -0.586489, 0.000354299, 0.00139357, -0.00118573, 0.0313542, 0.0309854, 0.0245169, 0.0162896, 0.0202822, 0.0282181
-0.0132487, -0.00340096, -0.586271, 0.000364501, 0.00153353, -0.00113999, 0.0313532, 0.0309729, 0.0240106, 0.0154194, 0.0199584, 0.0280365
-0.0132557, -0.00342064, -0.585808, 0.00047015, 0.00181521, -0.00112074, 0.0313525, 0.0309601, 0.0236349, 0.0145261, 0.0195895, 0.0278653
-0.0132934, -0.0034556, -0.585297, 0.000572624, 0.00228094, -0.00109553, 0.0313508, 0.0309474, 0.0234753, 0.0137302, 0.0192028, 0.0277152
-0.0133522, -0.00351477, -0.585168, 0.000604966, 0.00264118, -0.000992629, 0.0313478, 0.0309362, 0.0234584, 0.0132333, 0.0188541, 0.0275841
-0.0134036, -0.00357456, -0.585319, 0.000599417, 0.00284264, -0.000876779, 0.0313449, 0.0309276, 0.0234345, 0.0130046, 0.0185385, 0.0274471
-0.0134249, -0.00361512, -0.585509, 0.000608186, 0.00293653, -0.000778423, 0.0313428, 0.0309213, 0.0233628, 0.0128961, 0.0182304, 0.0273016
-0.013432, -0.00364603, -0.585707, 0.000595934, 0.00300448, -0.000712246, 0.0313416, 0.0309162, 0.0232497, 0.0128244, 0.0179284, 0.0271564
-0.0134287, -0.00367058, -0.585937, 0.000553417, 0.00308428, -0.00067877, 0.0313406, 0.0309116, 0.023115, 0.0127583, 0.0176333, 0.0270146
-0.0134218, -0.00368735, -0.586135, 0.000513911, 0.00314158, -0.000680605, 0.0313397, 0.030907, 0.0229875, 0.0126954, 0.0173359, 0.0268767
-0.0134146, -0.00369649, -0.586288, 0.000488925, 0.00317333, -0.000707814, 0.0313386, 0.0309023, 0.0228709, 0.0126432, 0.0170355, 0.0267403
-0.0134042, -0.00369966, -0.586435, 0.000467061, 0.00321627, -0.000761767, 0.0313373, 0.0308979, 0.0227735, 0.0126006, 0.0167311, 0.0266037
-0.0133984, -0.00369958, -0.58653, 0.000465994, 0.00321563, -0.000828681, 0.0313358, 0.0308938, 0.0226955, 0.0125658, 0.0164129, 0.0264663
-0.0133945, -0.00369993, -0.58661, 0.000480305, 0.00320143, -0.000898662, 0.0313341, 0.0308901, 0.0226247, 0.0125309, 0.0160827, 0.0263241
-0.0133957, -0.00369877, -0.586681, 0.000502382, 0.00315149, -0.00096581, 0.0313322, 0.0308869, 0.022559, 0.0124868, 0.0157375, 0.0261768
-0.0134001, -0.00369997, -0.586742, 0.000536347, 0.003081, -0.00101221, 0.0313301, 0.0308842, 0.0224952, 0.0124227, 0.0153772, 0.0260217
-0.0134063, -0.00369578, -0.586799, 0.000573849, 0.00300584, -0.00106051, 0.0313276, 0.0308818, 0.022432, 0.0123277, 0.0150032, 0.0258554
-0.0134163, -0.00369326, -0.586847, 0.000599298, 0.00290656, -0.00107724, 0.0313249, 0.0308796, 0.0223673, 0.012186, 0.0146141, 0.0256773
-0.0134287, -0.00369049, -0.586891, 0.000610135, 0.00279725, -0.00107124, 0.0313219, 0.0308774, 0.0222987, 0.0119919, 0.0142135, 0.025485
-0.0134399, -0.00368467, -0.586935, 0.000628381, 0.00270487, -0.00108604, 0.0313186, 0.0308749, 0.0222263, 0.011739, 0.0138056, 0.0252772
-0.0134519, -0.00368155, -0.586977, 0.000627413, 0.00260491, -0.00107669, 0.0313151, 0.0308718, 0.0221481, 0.0114127, 0.0133887, 0.0250575
-0.0134671, -0.00368159, -0.587006, 0.000545107, 0.00250275, -0.000979565, 0.0313114, 0.030868, 0.0220633, 0.0110073, 0.0129635, 0.0248309
-0.013486, -0.00367834, -0.587052, 0.000456131, 0.00238175, -0.00087023, 0.0313074, 0.0308631, 0.0219736, 0.0105405, 0.0125349, 0.0245953
-0.013503, -0.00367364, -0.587105, 0.000389149, 0.00227513, -0.000792746, 0.031303, 0.0308565, 0.0218776, 0.0100146, 0.0120979, 0.024349
-0.0135202, -0.00367113, -0.587162, 0.000266067, 0.00218062, -0.000680335, 0.0312982, 0.0308477, 0.0217708, 0.00941373, 0.0116495, 0.0241004
-0.0135509, -0.00365285, -0.587265, 2.73887e-05, 0.00203559, -0.000430856, 0.031293, 0.0308368, 0.0216586, 0.00877718, 0.0111969, 0.0238557
-0.0135775, -0.00363717, -0.587346, -0.000138522, 0.00191054, -0.000249293, 0.0312874, 0.0308247, 0.0215488, 0.00818103, 0.0107566, 0.0236032
-0.0135995, -0.00361993, -0.587415, -0.00021789, 0.00181554, -0.000132624, 0.0312815, 0.0308107, 0.0214343, 0.0076359, 0.0103297, 0.0233436
-0.013622, -0.00360218, -0.587492, -0.000331966, 0.00171653, -3.57928e-06, 0.0312756, 0.030794, 0.0213137, 0.00712333, 0.00991433, 0.0230917
-0.0136282, -0.00360669, -0.587514, -0.000377868, 0.00167517, 6.60152e-06, 0.0312693, 0.0307749, 0.0211783, 0.00664915, 0.0095122, 0.0228282
-0.0136366, -0.00360623, -0.587546, -0.000364269, 0.00161436, -1.71872e-05, 0.0312627, 0.030751, 0.0210143, 0.00620749, 0.00911461, 0.0225681
-0.0136396, -0.00362047, -0.587574, -0.000416806, 0.00157764, -2.95646e-05, 0.0312559, 0.0307213, 0.0208118, 0.00578145, 0.0087215, 0.0223174
-0.0136445, -0.00363338, -0.587623, -0.000482837, 0.00153546, -2.80501e-05, 0.0312488, 0.0306864, 0.02057, 0.00538662, 0.00834158, 0.0220733
-0.0136511, -0.00364425, -0.587674, -0.000519364, 0.00148487, -4.15767e-05, 0.0312415, 0.0306449, 0.0202848, 0.00503357, 0.00797334, 0.0218391
-0.0136649, -0.0036363, -0.587783, -0.000579131, 0.00142148, -1.0106e-05, 0.0312341, 0.0305968, 0.0199656, 0.00471945, 0.00762126, 0.0216176
-0.0136763, -0.00363357, -0.58786, -0.000597865, 0.0013593, -5.13465e-06, 0.0312265, 0.0305428, 0.0196198, 0.00444927, 0.00728696, 0.0214084
-0.0136983, -0.00360213, -0.587996, -0.000607536, 0.00127608, 2.79776e-05, 0.031219, 0.0304814, 0.0192507, 0.0042144, 0.00696937, 0.0212136
-0.0137182, -0.00357476, -0.588155, -0.000649839, 0.00120045, 4.98254e-05, 0.0312116, 0.0304141, 0.01887, 0.00400861, 0.00667392, 0.0210336
-0.0137421, -0.00353348, -0.588343, -0.000696858, 0.00112066, 8.13404e-05, 0.0312041, 0.0303417, 0.0184956, 0.00383254, 0.00639906, 0.0208653
-0.0137683, -0.00348303, -0.588516, -0.000717537, 0.0010414, 0.000107547, 0.0311968, 0.0302652, 0.0181305, 0.00368198, 0.00614471, 0.0207082
-0.0137967, -0.0034218, -0.588713, -0.000749289, 0.000961713, 0.000129892, 0.0311896, 0.0301831, 0.0177795, 0.00355053, 0.00591099, 0.0205599
-0.0138273, -0.00334783, -0.588922, -0.000787766, 0.000881298, 0.000142705, 0.0311823, 0.0300953, 0.0174509, 0.00343603, 0.00569448, 0.0204174
-0.0138458, -0.00331422, -0.589038, -0.000806944, 0.000825545, 0.000134827, 0.0311752, 0.0300075, 0.0171457, 0.00333604, 0.00550169, 0.0202791
-0.0138712, -0.00325582, -0.589172, -0.000813206, 0.000763111, 0.00013751, 0.0311682, 0.0299136, 0.016853, 0.00324653, 0.00532479, 0.0201447
-0.0138939, -0.0032048, -0.589296, -0.000823278, 0.000703775, 0.000123297, 0.0311611, 0.0298125, 0.0165736, 0.00316409, 0.00515968, 0.0200095
-0.0139194, -0.0031374, -0.589435, -0.00083666, 0.000648417, 0.000110201, 0.0311539, 0.0297046, 0.0163069, 0.00308788, 0.00500681, 0.0198715
-0.0139476, -0.00305287, -0.589589, -0.000857971, 0.000594771, 8.99657e-05, 0.0311464, 0.0295882, 0.0160609, 0.00301818, 0.00486384, 0.0197292
-0.0139667, -0.00300523, -0.589666, -0.000860993, 0.000555387, 7.95218e-05, 0.0311388, 0.0294682, 0.0158303, 0.00295352, 0.00473319, 0.0195831
-0.013988, -0.00294936, -0.589756, -0.00086804, 0.00051432, 5.73984e-05, 0.0311312, 0.0293428, 0.0156053, 0.00289306, 0.00461486, 0.0194345
-0.0140083, -0.00290168, -0.589824, -0.000870746, 0.000471133, 2.73264e-05, 0.0311236, 0.029212, 0.0153913, 0.00283639, 0.00450758, 0.0192827
-0.0140278, -0.00285499, -0.58984, -0.000857494, 0.000429337, 2.05051e-05, 0.0311161, 0.0290781, 0.0151827, 0.00278147, 0.00441069, 0.0191267
-0.0140533, -0.00278217, -0.589887, -0.00085132, 0.000385191, 4.18167e-06, 0.0311087, 0.0289374, 0.0149757, 0.00272812, 0.00432193, 0.0189649
-0.0140801, -0.00269784, -0.589942, -0.000846988, 0.000347619, -6.6237e-06, 0.0311013, 0.0287905, 0.014776, 0.0026769, 0.00424081, 0.0187974
-0.014099, -0.00264447, -0.589924, -0.000833244, 0.000316858, 8.20465e-06, 0.0310939, 0.0286427, 0.0145809, 0.00262701, 0.00416694, 0.0186236
-0.0141146, -0.00260249, -0.589875, -0.000817896, 0.000287313, 3.20702e-05, 0.0310869, 0.0284956, 0.0143814, 0.00257815, 0.00409982, 0.0184429
-0.0141298, -0.00255894, -0.589842, -0.000807927, 0.000260146, 4.41338e-05, 0.0310804, 0.0283509, 0.0141787, 0.00253118, 0.00403954, 0.0182574
-0.0141458, -0.00250762, -0.589763, -0.000790666, 0.000230668, 9.01387e-05, 0.0310744, 0.028211, 0.0139759, 0.0024858, 0.00398438, 0.0180666
-0.0141619, -0.00245542, -0.589632, -0.000769775, 0.000191803, 0.000156218, 0.0310691, 0.0280767, 0.0137692, 0.0024415, 0.0039318, 0.0178669
-0.0141804, -0.00238658, -0.589518, -0.000752223, 0.00015533, 0.000222317, 0.0310644, 0.0279487, 0.013558, 0.0023991, 0.00388182, 0.017661
-0.0142038, -0.00229124, -0.589367, -0.00073164, 0.000108979, 0.000316682, 0.0310605, 0.0278282, 0.0133505, 0.00235861, 0.00383259, 0.0174483
-0.0142256, -0.00219522, -0.589275, -0.000721414, 6.9953e-05, 0.000366324, 0.0310572, 0.0277175, 0.0131424, 0.00232066, 0.00378602, 0.0172329
-0.0142432, -0.00211042, -0.589195, -0.000711397, 4.21175e-05, 0.000426119, 0.0310547, 0.0276206, 0.0129421, 0.00228534, 0.00374379, 0.01702
-0.0142628, -0.00200647, -0.589098, -0.00069979, 9.10046e-06, 0.000504657, 0.0310528, 0.0275334, 0.0127606, 0.00225184, 0.00370359, 0.0168049
-0.014273, -0.00194139, -0.589071, -0.000700655, -1.19153e-05, 0.000502547, 0.0310514, 0.0274596, 0.0125843, 0.00222025, 0.00366783, 0.0165901
-0.0142792, -0.00188952, -0.589066, -0.000703839, -2.68741e-05, 0.000484989, 0.0310505, 0.0274002, 0.0124155, 0.00219071, 0.00363927, 0.0163852
-0.0142904, -0.00179184, -0.588966, -0.000693509, -5.92228e-05, 0.000568997, 0.0310499, 0.0273462, 0.0122748, 0.00216142, 0.00361133, 0.0161733
-0.0142977, -0.00170691, -0.588934, -0.000692455, -8.14724e-05, 0.000590278, 0.0310495, 0.027296, 0.0121425, 0.00213309, 0.00358466, 0.0159537
-0.0143039, -0.00160964, -0.589007, -0.000702756, -8.48561e-05, 0.000522636, 0.0310491, 0.0272464, 0.0120032, 0.00210666, 0.00356515, 0.0157466
-0.0143055, -0.00155537, -0.588995, -0.000703577, -0.00010002, 0.000526245, 0.0310487, 0.0272008, 0.0118789, 0.00207953, 0.00354746, 0.0155309
-0.0143041, -0.00150593, -0.588958, -0.000700122, -0.000119961, 0.000562829, 0.0310481, 0.027155, 0.0117642, 0.00205174, 0.00352996, 0.0153
-0.014299, -0.00148061, -0.588915, -0.000694226, -0.000137309, 0.000618154, 0.0310474, 0.0271076, 0.0116568, 0.0020237, 0.0035129, 0.0150549
-0.0142923, -0.00147156, -0.58888, -0.000688827, -0.000149849, 0.000664427, 0.0310465, 0.027057, 0.0115572, 0.00199537, 0.00349588, 0.0147937
-0.0142828, -0.00147215, -0.588854, -0.000684129, -0.000159964, 0.000699665, 0.0310453, 0.0270013, 0.0114659, 0.00196684, 0.00347795, 0.0145142
-0.0142768, -0.00144737, -0.588862, -0.000683685, -0.000160501, 0.000688115, 0.0310435, 0.0269326, 0.0113806, 0.00193909, 0.00346073, 0.0142277
-0.0142591, -0.00147737, -0.588837, -0.000677065, -0.00016907, 0.000722965, 0.0310412, 0.0268566, 0.0113022, 0.00191037, 0.00344135, 0.013919
-0.0142424, -0.00148861, -0.588834, -0.000671123, -0.000170201, 0.00073847, 0.0310384, 0.026773, 0.0112304, 0.00188157, 0.0034189, 0.0135887
-0.0142327, -0.00147534, -0.588855, -0.000670201, -0.000162315, 0.000701442, 0.0310348, 0.0266718, 0.011164, 0.0018546, 0.00339771, 0.0132637
-0.0142004, -0.00155543, -0.588837, -0.000658987, -0.000165998, 0.000745053, 0.0310306, 0.0265693, 0.0111031, 0.00182656, 0.00337178, 0.0129124
-0.0141647, -0.00164123, -0.588822, -0.000646374, -0.000168924, 0.000793364, 0.0310262, 0.0264663, 0.0110473, 0.00179859, 0.00334035, 0.0125373
-0.014139, -0.00168737, -0.588835, -0.000639342, -0.000159356, 0.000780254, 0.0310213, 0.0263563, 0.0109959, 0.00177292, 0.00330674, 0.0121619
-0.0141221, -0.00169105, -0.588874, -0.000637394, -0.000136858, 0.000697347, 0.0310158, 0.0262388, 0.0109477, 0.00175003, 0.00327408, 0.0118053
-0.0140946, -0.00172937, -0.588916, -0.000632066, -0.000112483, 0.000617791, 0.0310097, 0.0261198, 0.0109023, 0.00172865, 0.00324213, 0.0114649
-0.0140558, -0.00182494, -0.588939, -0.000622617, -9.63322e-05, 0.000587228, 0.0310034, 0.0260058, 0.0108598, 0.00170774, 0.00320616, 0.011118
-0.0140311, -0.00186, -0.589001, -0.000617921, -6.16724e-05, 0.000463411, 0.0309969, 0.0258928, 0.0108193, 0.00168923, 0.00317118, 0.0107926
-0.0139904, -0.00196054, -0.589056, -0.000607039, -3.21427e-05, 0.000375112, 0.0309904, 0.0257824, 0.0107814, 0.00167111, 0.00313743, 0.0104835
-0.0139394, -0.00209391, -0.5891, -0.000592651, -7.5451e-06, 0.000321846, 0.030984, 0.0256796, 0.0107465, 0.00165247, 0.00309732, 0.0101563
-0.0138897, -0.00221987, -0.589154, -0.00057811, 2.16847e-05, 0.000245373, 0.0309777, 0.0255806, 0.0107135, 0.00163405, 0.0030543, 0.00982779
-0.0138339, -0.00236138, -0.589202, -0.000560535, 4.81184e-05, 0.000194221, 0.0309714, 0.0254865, 0.0106826, 0.00161514, 0.00300529, 0.0094857
-0.0137934, -0.00243814, -0.589272, -0.000546624, 9.11489e-05, 6.79129e-05, 0.0309649, 0.0253919, 0.0106528, 0.00159703, 0.00295731, 0.0091602
-0.0137416, -0.00255214, -0.58933, -0.000530171, 0.000128755, -2.80545e-05, 0.0309583, 0.0253006, 0.0106257, 0.00157848, 0.0029069, 0.00883568
-0.0136922, -0.0026658, -0.589388, -0.000512973, 0.000167252, -0.000126868, 0.0309513, 0.0252124, 0.010601, 0.00155917, 0.00285252, 0.0085038
-0.0136371, -0.00275412, -0.589467, -0.000491118, 0.000222115, -0.000277494, 0.0309442, 0.025124, 0.0105775, 0.00153917, 0.00280324, 0.00819664
-0.0135823, -0.00284405, -0.589542, -0.000466673, 0.000274737, -0.000415596, 0.030937, 0.0250379, 0.0105567, 0.00151779, 0.0027564, 0.00790197
-0.0135281, -0.00291367, -0.589632, -0.000437996, 0.000336039, -0.000589926, 0.0309299, 0.0249536, 0.0105379, 0.00149525, 0.00271508, 0.00763122
-0.0134936, -0.00291688, -0.589736, -0.000410454, 0.000404416, -0.00082913, 0.0309231, 0.0248723, 0.0105206, 0.00147133, 0.00268214, 0.00739683
-0.0134409, -0.00297158, -0.589815, -0.000378244, 0.000454668, -0.000971001, 0.0309166, 0.0247962, 0.0105052, 0.00144623, 0.00265365, 0.00718637
-0.0134078, -0.00297185, -0.589893, -0.000350233, 0.000501646, -0.0011164, 0.0309104, 0.024724, 0.0104909, 0.00142144, 0.00263146, 0.00700692
-0.0133715, -0.00301919, -0.589953, -0.000324522, 0.00053602, -0.00121616, 0.0309046, 0.0246586, 0.0104785, 0.0013973, 0.00261174, 0.00684103
-0.0133333, -0.00306476, -0.590007, -0.000298858, 0.000566541, -0.00130535, 0.0308989, 0.0245997, 0.0104668, 0.00137251, 0.00259527, 0.00669003
-0.0132992, -0.00308374, -0.590073, -0.000270499, 0.000594492, -0.00140033, 0.0308936, 0.0245467, 0.0104551, 0.00134665, 0.00258421, 0.00656284
-0.0132671, -0.00311907, -0.590122, -0.000246292, 0.000611882, -0.00145705, 0.0308887, 0.0245001, 0.0104446, 0.00132113, 0.00257502, 0.0064447
-0.0132333, -0.00315466, -0.590171, -0.00022053, 0.000625778, -0.00150739, 0.030884, 0.0244594, 0.0104346, 0.00129501, 0.00256767, 0.00633521
-0.0132013, -0.00318286, -0.590213, -0.000196574, 0.000633955, -0.0015442, 0.0308796, 0.0244244, 0.0104249, 0.00126828, 0.00256159, 0.00623242
-0.0131637, -0.00321695, -0.590254, -0.0001695, 0.000636126, -0.00156042, 0.0308754, 0.0243943, 0.0104153, 0.00124049, 0.0025563, 0.00613484
-0.0131221, -0.00323967, -0.590298, -0.00013908, 0.000631254, -0.00156134, 0.0308714, 0.0243688, 0.0104051, 0.00121113, 0.00255135, 0.00604217
-0.0130797, -0.00327407, -0.590327, -0.00011148, 0.000621533, -0.00154426, 0.0308676, 0.024347, 0.0103949, 0.00118151, 0.00254534, 0.00594788
-0.013034, -0.00330863, -0.590348, -8.50195e-05, 0.000608888, -0.00152462, 0.0308637, 0.0243281, 0.0103839, 0.00115168, 0.00253815, 0.0058518
-0.0129854, -0.00334515, -0.59037, -5.76363e-05, 0.000591173, -0.00148668, 0.0308598, 0.0243113, 0.0103717, 0.0011211, 0.00252906, 0.00575209
-0.012949, -0.00337909, -0.590369, -3.86997e-05, 0.000575131, -0.00145592, 0.0308556, 0.0242957, 0.0103589, 0.00109189, 0.00251845, 0.00564989
-0.0129133, -0.00340904, -0.590366, -2.11747e-05, 0.000561375, -0.00142168, 0.0308513, 0.0242806, 0.010344, 0.00106422, 0.0025078, 0.005551
-0.012891, -0.00341644, -0.590351, -1.09237e-05, 0.000552385, -0.00140633, 0.0308467, 0.0242649, 0.0103269, 0.00103872, 0.00249767, 0.00545815
-0.0128711, -0.0034244, -0.590333, -7.61591e-07, 0.000542405, -0.00138627, 0.030842, 0.0242477, 0.0103067, 0.00101395, 0.00248784, 0.00537069
-0.0128481, -0.0034261, -0.590312, 1.02375e-05, 0.000532134, -0.00136987, 0.0308371, 0.0242276, 0.0102821, 0.000989163, 0.00247839, 0.00528857
-0.0128268, -0.0034034, -0.590274, 2.16374e-05, 0.000519466, -0.00134552, 0.0308318, 0.0242034, 0.0102532, 0.000963985, 0.00246832, 0.00520824
-0.0127912, -0.00336066, -0.590223, 3.83375e-05, 0.000505084, -0.00130922, 0.0308261, 0.0241736, 0.0102182, 0.000937756, 0.00245731, 0.00512777
-0.0127509, -0.00331366, -0.590176, 5.56144e-05, 0.000491795, -0.00128299, 0.0308201, 0.0241371, 0.0101754, 0.000910265, 0.00244592, 0.00504896
-0.0127054, -0.00323656, -0.590108, 7.5077e-05, 0.000475135, -0.0012434, 0.0308137, 0.0240926, 0.0101256, 0.000882426, 0.00243282, 0.00496758
-0.0126541, -0.00314569, -0.590037, 9.55478e-05, 0.000460116, -0.00120497, 0.0308069, 0.0240387, 0.0100647, 0.000853993, 0.00241937, 0.00488788
-0.0125974, -0.00303708, -0.589956, 0.000117311, 0.000444369, -0.00116447, 0.0308001, 0.0239743, 0.00999427, 0.000825938, 0.00240527, 0.00480957
-0.0125401, -0.00291036, -0.589864, 0.000139557, 0.000426372, -0.00111763, 0.0307933, 0.0238987, 0.00991375, 0.000797961, 0.00239001, 0.00473056
-0.0124872, -0.00278092, -0.589773, 0.000159116, 0.000411182, -0.00107892, 0.0307867, 0.0238098, 0.0098189, 0.000771706, 0.00237493, 0.00465548
-0.0124461, -0.0026309, -0.589667, 0.000175928, 0.000394193, -0.00103798, 0.0307806, 0.023708, 0.00971412, 0.000747261, 0.00235952, 0.00458313
-0.0124059, -0.0024905, -0.589571, 0.000192052, 0.00037909, -0.00100528, 0.0307751, 0.0235925, 0.00959552, 0.000724178, 0.00234429, 0.0045142
-0.0123657, -0.00241041, -0.589525, 0.000207333, 0.000370445, -0.000992874, 0.0307704, 0.0234634, 0.00946161, 0.000702919, 0.00233095, 0.00445551
-0.0123431, -0.00231195, -0.58946, 0.000218013, 0.000359844, -0.000977991, 0.0307666, 0.0233233, 0.00932343, 0.00068439, 0.00231797, 0.00440262
-0.0123215, -0.00224822, -0.589424, 0.000227986, 0.000350496, -0.000973112, 0.0307636, 0.0231736, 0.00917825, 0.000667869, 0.0023059, 0.00435721
-0.012306, -0.00220249, -0.5894, 0.000236371, 0.000342807, -0.000969222, 0.0307611, 0.0230161, 0.00902817, 0.000653632, 0.00229486, 0.00432064
-0.0122999, -0.00215948, -0.589368, 0.000242443, 0.000332238, -0.000957839, 0.0307592, 0.0228536, 0.00887995, 0.000641411, 0.00228374, 0.00428795
-0.0122963, -0.00214371, -0.589356, 0.000247493, 0.000323086, -0.000952456, 0.0307577, 0.0226894, 0.00873021, 0.000630816, 0.00227293, 0.00426124
-0.0122964, -0.00215172, -0.589355, 0.000251438, 0.000312029, -0.000945339, 0.0307565, 0.022526, 0.00858317, 0.000621683, 0.00226207, 0.00423911
-0.0123002, -0.00218885, -0.589362, 0.0002541, 0.000298414, -0.000933718, 0.0307556, 0.0223672, 0.00844104, 0.000614016, 0.00225082, 0.00421979
-0.0123034, -0.00221697, -0.589366, 0.000256907, 0.000285141, -0.000921801, 0.030755, 0.022216, 0.00830591, 0.000607087, 0.00223913, 0.00420292
-0.0123059, -0.00226622, -0.58939, 0.000260384, 0.00027037, -0.000910611, 0.0307544, 0.022075, 0.0081784, 0.000600549, 0.00222692, 0.00418893
-0.0123083, -0.00232577, -0.589416, 0.000263764, 0.000253369, -0.000895718, 0.0307539, 0.0219419, 0.00805859, 0.000594161, 0.00221379, 0.00417683
-0.0123098, -0.00233704, -0.589405, 0.000266814, 0.000238618, -0.000877712, 0.0307534, 0.0218127, 0.0079474, 0.000587997, 0.00220031, 0.00416463
-0.0123131, -0.00240949, -0.589432, 0.000269207, 0.000222604, -0.000861027, 0.0307529, 0.021694, 0.00784139, 0.000581911, 0.00218564, 0.00415219
-0.0123162, -0.00253024, -0.589484, 0.000270814, 0.000205821, -0.000842317, 0.0307524, 0.0215829, 0.00773941, 0.000575684, 0.00216854, 0.00413774
-0.012317, -0.00261457, -0.589507, 0.000271175, 0.000192214, -0.000826883, 0.0307519, 0.0214718, 0.00764203, 0.000569706, 0.00215012, 0.00412181
-0.0123166, -0.00266325, -0.589507, 0.000270185, 0.000183803, -0.000817, 0.0307513, 0.0213661, 0.00754996, 0.000564287, 0.00213136, 0.00410575
-0.0123166, -0.00276572, -0.589536, 0.000269049, 0.000172564, -0.000803075, 0.0307507, 0.0212744, 0.00746447, 0.000558876, 0.00211089, 0.00408735
-0.0123159, -0.00285567, -0.589557, 0.000267781, 0.000163132, -0.000790308, 0.03075, 0.0211887, 0.0073841, 0.000553268, 0.00208833, 0.00406578
-0.0123111, -0.00289615, -0.589549, 0.000265537, 0.000158839, -0.000785263, 0.0307491, 0.0211039, 0.00730752, 0.000547742, 0.00206473, 0.00404284
-0.0123014, -0.00287153, -0.589508, 0.000262615, 0.000161032, -0.00078831, 0.0307481, 0.0210235, 0.00723586, 0.000542476, 0.00204158, 0.00402061
-0.0122881, -0.00282837, -0.589457, 0.00026066, 0.000161566, -0.000788837, 0.030747, 0.0209553, 0.00717141, 0.000537142, 0.00201896, 0.00399847
-0.0122734, -0.00279642, -0.589415, 0.000258582, 0.000161491, -0.000789036, 0.0307455, 0.0209013, 0.00711452, 0.000531733, 0.00199626, 0.00397528
-0.0122593, -0.00277286, -0.589379, 0.000256492, 0.000160563, -0.000789386, 0.0307439, 0.0208569, 0.00706354, 0.000526139, 0.00197257, 0.00394978
-0.0122343, -0.00269112, -0.589316, 0.000253608, 0.000165933, -0.000798893, 0.0307419, 0.0208102, 0.00701472, 0.000520547, 0.00194859, 0.0039234
-0.0122099, -0.0026062, -0.589257, 0.000250466, 0.000171266, -0.00081008, 0.0307395, 0.0207669, 0.00696997, 0.000514955, 0.00192456, 0.0038959
-0.0121907, -0.00252047, -0.589206, 0.000246695, 0.000177065, -0.000824356, 0.0307368, 0.0207258, 0.00692861, 0.000509314, 0.00189921, 0.00386585
-0.0121635, -0.00239921, -0.589137, 0.000242328, 0.000187246, -0.000845987, 0.0307337, 0.0206789, 0.0068871, 0.00050346, 0.00187236, 0.00383293
-0.0121346, -0.00225596, -0.589062, 0.000237646, 0.000200084, -0.000872442, 0.0307302, 0.0206253, 0.0068452, 0.000497329, 0.00184416, 0.00379679
-0.0121153, -0.00211091, -0.588992, 0.000232638, 0.000212947, -0.00090107, 0.0307264, 0.0205657, 0.006803, 0.000490794, 0.00181381, 0.00375592
-0.0120918, -0.00193664, -0.588911, 0.000226931, 0.000229237, -0.000937147, 0.0307221, 0.0204961, 0.00675866, 0.000483784, 0.00178094, 0.00370975
-0.0120746, -0.00176356, -0.588834, 0.000221301, 0.000245042, -0.000973524, 0.0307174, 0.0204185, 0.00671302, 0.000476231, 0.00174577, 0.003658
-0.0120712, -0.00157554, -0.588758, 0.000215005, 0.000261901, -0.0010137, 0.0307124, 0.0203334, 0.00666632, 0.000468058, 0.00170739, 0.00359919
-0.0120608, -0.00134226, -0.588665, 0.000207393, 0.000285166, -0.00106614, 0.0307067, 0.0202377, 0.00661725, 0.000459514, 0.00166632, 0.00353505
-0.012047, -0.00111081, -0.588572, 0.000200172, 0.00030758, -0.00111759, 0.0307003, 0.0201348, 0.00656703, 0.000450753, 0.00162396, 0.00346758
-0.0120391, -0.000845051, -0.588471, 0.000192264, 0.000332319, -0.00117457, 0.0306934, 0.0200237, 0.0065161, 0.000441977, 0.00158062, 0.00339762
-0.0120248, -0.000548406, -0.588359, 0.000183807, 0.000359763, -0.00123761, 0.0306857, 0.0199073, 0.00646491, 0.000433263, 0.00153661, 0.00332605
-0.0119987, -0.000239708, -0.588241, 0.000175623, 0.000387861, -0.00130156, 0.0306772, 0.019784, 0.00641289, 0.00042481, 0.00149306, 0.00325506
-0.0119705, 7.81058e-05, -0.588123, 0.000167636, 0.000416305, -0.00136589, 0.030668, 0.0196545, 0.00636081, 0.000416826, 0.00145119, 0.00318663
-0.0119295, 0.000385296, -0.588009, 0.000160878, 0.000441736, -0.00142352, 0.0306579, 0.0195192, 0.00630863, 0.000409281, 0.00141138, 0.00312106
-0.0119211, 0.000688835, -0.587901, 0.000154624, 0.000460647, -0.00147295, 0.0306471, 0.0193787, 0.00625703, 0.000402165, 0.00137337, 0.00305772
-0.0119091, 0.000989933, -0.587794, 0.000148922, 0.000478061, -0.00151903, 0.0306357, 0.019239, 0.0062068, 0.000395301, 0.00133638, 0.00299567
-0.0118882, 0.0012933, -0.587686, 0.00014337, 0.00049517, -0.00156509, 0.0306232, 0.0190941, 0.00615615, 0.000388785, 0.00130082, 0.00293575
-0.0118702, 0.00158568, -0.587584, 0.000138453, 0.000509487, -0.00160608, 0.0306101, 0.0189453, 0.00610568, 0.000382612, 0.00126681, 0.00287789
-0.0118458, 0.00187835, -0.587481, 0.000133934, 0.000522805, -0.00164492, 0.0305962, 0.0187951, 0.00605556, 0.000376684, 0.00123404, 0.00282165
-0.0118331, 0.00217902, -0.587378, 0.000129407, 0.000534779, -0.00168273, 0.0305817, 0.0186391, 0.00600489, 0.000371093, 0.00120268, 0.00276752
-0.0118424, 0.0025036, -0.587269, 0.000124842, 0.00054426, -0.00171859, 0.0305666, 0.0184808, 0.00595469, 0.000365878, 0.00117266, 0.00271595
-0.0118312, 0.0027764, -0.587175, 0.000121527, 0.000549391, -0.00174457, 0.0305509, 0.0183324, 0.00590736, 0.000360816, 0.00114382, 0.00266624
-0.0118222, 0.00299993, -0.587096, 0.000118711, 0.000552498, -0.00176548, 0.0305346, 0.0181948, 0.00586291, 0.000355668, 0.00111574, 0.00261669
-0.0118364, 0.00327321, -0.587004, 0.000114586, 0.000558065, -0.00179453, 0.0305179, 0.0180547, 0.00581838, 0.000350569, 0.00108762, 0.00256682
-0.0118599, 0.00354596, -0.586913, 0.000110035, 0.000564096, -0.00182506, 0.0305009, 0.017924, 0.00577642, 0.000345427, 0.0010594, 0.00251685
-0.0118798, 0.00377523, -0.586834, 0.000106019, 0.000566726, -0.00184889, 0.0304837, 0.0178061, 0.00573773, 0.000340075, 0.00103086, 0.00246588
-0.0119134, 0.00404113, -0.586744, 0.000100831, 0.000571379, -0.00187896, 0.0304665, 0.0176927, 0.0057005, 0.000334685, 0.00100182, 0.00241435
-0.011945, 0.00432686, -0.586647, 9.46823e-05, 0.000578821, -0.00191503, 0.0304493, 0.017587, 0.00566557, 0.000329321, 0.000972687, 0.00236336
-0.0119794, 0.0045967, -0.586556, 8.84752e-05, 0.000585104, -0.00194865, 0.0304322, 0.0174919, 0.00563373, 0.000324036, 0.000944098, 0.00231394
-0.0120054, 0.00483392, -0.586474, 8.26686e-05, 0.000588425, -0.00197642, 0.030415, 0.0174116, 0.00560597, 0.00031865, 0.000915986, 0.0022653
-0.0120335, 0.00510067, -0.586384, 7.56638e-05, 0.000595163, -0.0020116, 0.0303978, 0.0173329, 0.00557928, 0.000313511, 0.000888712, 0.00221905
-0.0120473, 0.00533044, -0.586305, 6.93199e-05, 0.000599327, -0.00204061, 0.0303807, 0.0172656, 0.00555601, 0.000308454, 0.000862552, 0.00217515
-0.0120461, 0.00553993, -0.586233, 6.29808e-05, 0.000603243, -0.00206906, 0.0303636, 0.0172056, 0.00553517, 0.000303447, 0.000837528, 0.00213341
-0.0120552, 0.00577738, -0.586153, 5.56246e-05, 0.000608391, -0.0021013, 0.0303464, 0.0171479, 0.00551561, 0.000298742, 0.000813692, 0.0020945
-0.0120479, 0.00599848, -0.58608, 4.84017e-05, 0.000612996, -0.00213187, 0.0303292, 0.0170988, 0.00549876, 0.000294106, 0.000790782, 0.00205764
-0.0120177, 0.00617216, -0.58602, 4.18514e-05, 0.000616791, -0.00215935, 0.0303118, 0.0170566, 0.00548418, 0.000289409, 0.000768883, 0.00202257
-0.0119757, 0.00636714, -0.585955, 3.46242e-05, 0.000621449, -0.00218995, 0.0302943, 0.0170148, 0.00547036, 0.00028497, 0.000748272, 0.00199026
-0.0119252, 0.00659036, -0.585883, 2.69278e-05, 0.000626179, -0.00222104, 0.0302765, 0.0169758, 0.00545781, 0.0002809, 0.000728867, 0.00196115
-0.0118597, 0.00673326, -0.585835, 2.07996e-05, 0.00062734, -0.00224256, 0.0302584, 0.016948, 0.00544842, 0.000276594, 0.000710161, 0.00193298
-0.0117883, 0.00688254, -0.585787, 1.39041e-05, 0.000628859, -0.00226605, 0.0302397, 0.0169229, 0.00544011, 0.000272373, 0.000692218, 0.00190642
-0.0117164, 0.00701141, -0.585745, 7.29286e-06, 0.0006281, -0.00228466, 0.0302204, 0.0169033, 0.0054335, 0.000268114, 0.000674756, 0.00188097
-0.0116406, 0.00709488, -0.585717, 8.59468e-07, 0.00062732, -0.00230206, 0.0302002, 0.0168881, 0.00542831, 0.000263535, 0.000657468, 0.00185555
-0.0115417, 0.00716656, -0.585692, -5.94524e-06, 0.000626976, -0.00232084, 0.0301792, 0.0168743, 0.00542378, 0.000258774, 0.000640419, 0.00183059
-0.0114393, 0.00720373, -0.585678, -1.24204e-05, 0.000625515, -0.0023366, 0.0301574, 0.0168606, 0.00541964, 0.00025368, 0.000623431, 0.0018056
-0.0113277, 0.00721041, -0.585673, -1.93051e-05, 0.000624837, -0.0023538, 0.0301348, 0.0168448, 0.00541531, 0.000248283, 0.000606519, 0.00178069
-0.0111985, 0.00719927, -0.585673, -2.79219e-05, 0.000627605, -0.00237856, 0.0301116, 0.0168278, 0.00541085, 0.000242891, 0.000590062, 0.00175727
-0.0110523, 0.00716994, -0.585679, -3.50714e-05, 0.000628809, -0.00239774, 0.0300877, 0.0168049, 0.00540532, 0.000237369, 0.000574283, 0.00173535
-0.0109156, 0.00711592, -0.585692, -4.16529e-05, 0.000628181, -0.00241264, 0.0300625, 0.0167765, 0.00539889, 0.000231685, 0.000559078, 0.00171432
-0.0107687, 0.00704309, -0.585713, -5.00037e-05, 0.000628165, -0.00243042, 0.0300363, 0.0167515, 0.00539316, 0.000226172, 0.000544607, 0.00169523
-0.0106162, 0.00695925, -0.585737, -5.69589e-05, 0.000626833, -0.0024433, 0.030009, 0.016717, 0.00538546, 0.000220584, 0.00053076, 0.00167752
-0.0104605, 0.00684803, -0.585769, -6.46369e-05, 0.000626054, -0.00245741, 0.0299804, 0.0166793, 0.00537708, 0.000215072, 0.000517659, 0.00166138
-0.0102963, 0.00670579, -0.585814, -7.40008e-05, 0.000625821, -0.00247204, 0.0299511, 0.0166439, 0.00536903, 0.00020975, 0.000505107, 0.00164689
-0.0101138, 0.00653939, -0.585864, -8.2042e-05, 0.000625046, -0.00248325, 0.0299213, 0.0165891, 0.00535654, 0.000204326, 0.000492912, 0.00163328
-0.00991624, 0.00638407, -0.585911, -8.89697e-05, 0.000624469, -0.00249365, 0.0298911, 0.0165188, 0.00534044, 0.00019895, 0.000481364, 0.00162086
-0.00969757, 0.00618175, -0.585972, -9.74228e-05, 0.000625577, -0.00250669, 0.0298604, 0.0164515, 0.00532453, 0.00019393, 0.000470792, 0.00161031
-0.00947572, 0.00600027, -0.586028, -0.00010464, 0.00062572, -0.00251616, 0.0298293, 0.0163762, 0.00530646, 0.000189221, 0.000461157, 0.00160146
-0.00925, 0.00586135, -0.586073, -0.000110223, 0.000623817, -0.00252148, 0.0297971, 0.0162905, 0.00528596, 0.000184769, 0.000452397, 0.00159396
-0.00903213, 0.00567972, -0.586131, -0.000116491, 0.000621656, -0.00252505, 0.029764, 0.0162111, 0.00526654, 0.000180656, 0.000444377, 0.00158751
-0.00881013, 0.00548971, -0.586194, -0.000122698, 0.000618339, -0.00252527, 0.0297304, 0.0161315, 0.00524668, 0.000176787, 0.000436787, 0.00158148
-0.00858223, 0.00537178, -0.586236, -0.000127108, 0.000614763, -0.00252578, 0.0296961, 0.0160333, 0.00522254, 0.000173017, 0.000429647, 0.00157593
-0.00834409, 0.00519411, -0.586295, -0.000132785, 0.000611812, -0.00252616, 0.0296614, 0.0159442, 0.00520008, 0.000169531, 0.000423007, 0.00157075
-0.0081098, 0.0050285, -0.586353, -0.000137921, 0.000607325, -0.0025229, 0.0296264, 0.0158541, 0.00517699, 0.000166235, 0.000416606, 0.00156537
-0.00787058, 0.00490731, -0.586397, -0.000142284, 0.000603651, -0.00252216, 0.0295913, 0.0157508, 0.00515076, 0.000163046, 0.00041054, 0.00156012
-0.00764029, 0.00476484, -0.586449, -0.000146765, 0.000598734, -0.00251789, 0.0295559, 0.015655, 0.00512595, 0.000160073, 0.000404752, 0.00155464
-0.00742747, 0.00467519, -0.586484, -0.000150204, 0.000594321, -0.00251523, 0.0295206, 0.0155483, 0.00509863, 0.000157176, 0.000399121, 0.0015488
-0.00720266, 0.00463812, -0.586504, -0.00015332, 0.000591199, -0.00251676, 0.0294854, 0.0154376, 0.00507059, 0.000154431, 0.000393998, 0.00154355
-0.00698212, 0.00455514, -0.586539, -0.000156944, 0.000587008, -0.00251464, 0.0294501, 0.0153431, 0.00504602, 0.000151918, 0.000389133, 0.00153801
-0.00675562, 0.00454371, -0.586551, -0.000160001, 0.000584647, -0.00251797, 0.029415, 0.0152441, 0.00502065, 0.000149551, 0.000384788, 0.00153325
-0.00653992, 0.00452663, -0.586565, -0.000162878, 0.000581694, -0.00251955, 0.0293795, 0.0151573, 0.00499819, 0.000147392, 0.000380873, 0.00152906
-0.00633934, 0.00448617, -0.586588, -0.000165743, 0.000577782, -0.00251819, 0.0293432, 0.0150849, 0.00497904, 0.000145389, 0.000377063, 0.00152456
-0.00612155, 0.00451427, -0.586589, -0.000168228, 0.000575662, -0.00252232, 0.0293071, 0.0150116, 0.00495999, 0.000143488, 0.000373689, 0.00152079
-0.00590564, 0.00457445, -0.586581, -0.00017033, 0.000574143, -0.0025278, 0.0292707, 0.0149444, 0.00494274, 0.000141736, 0.000370801, 0.00151798
-0.00567976, 0.00464064, -0.586572, -0.000172461, 0.00057299, -0.00253342, 0.0292339, 0.014888, 0.00492824, 0.000140143, 0.000368299, 0.00151583
-0.00546542, 0.00468489, -0.586569, -0.000174551, 0.000571387, -0.00253713, 0.029196, 0.0148444, 0.00491677, 0.000138696, 0.000365997, 0.00151384
-0.00525685, 0.00472344, -0.586569, -0.000176571, 0.000569738, -0.00254028, 0.0291569, 0.0148089, 0.00490726, 0.000137353, 0.000363846, 0.0015119
-0.00503684, 0.00477825, -0.586564, -0.000178425, 0.000568688, -0.00254383, 0.0291175, 0.0147773, 0.00489885, 0.000136112, 0.000361983, 0.00151028
-0.00483088, 0.00482375, -0.586561, -0.000180158, 0.000567507, -0.00254675, 0.0290767, 0.0147521, 0.00489199, 0.000134956, 0.000360222, 0.00150863
-0.00462402, 0.00487408, -0.586557, -0.000181732, 0.000566355, -0.00254992, 0.0290348, 0.0147306, 0.00488612, 0.000133866, 0.000358574, 0.00150692
-0.00440053, 0.00494913, -0.586547, -0.000182945, 0.000566045, -0.00255397, 0.0289927, 0.01471, 0.00488068, 0.000132835, 0.000357189, 0.00150544
-0.0041584, 0.0050428, -0.586531, -0.000183848, 0.000565966, -0.00255682, 0.0289504, 0.0146908, 0.00487589, 0.000131872, 0.000356071, 0.00150404
-0.00393068, 0.00511759, -0.586522, -0.000184678, 0.000565509, -0.0025583, 0.0289067, 0.0146755, 0.00487211, 0.000130984, 0.000355071, 0.00150241
-0.0037139, 0.00518833, -0.586511, -0.000185296, 0.000564787, -0.00256076, 0.0288611, 0.0146627, 0.00486899, 0.000130148, 0.000354155, 0.00150061
-0.00349061, 0.00525644, -0.586503, -0.00018575, 0.000564349, -0.00256158, 0.0288146, 0.014651, 0.00486642, 0.000129364, 0.000353332, 0.00149849
-0.00329514, 0.00530058, -0.5865, -0.000186287, 0.000563884, -0.00256207, 0.0287658, 0.0146409, 0.00486434, 0.000128637, 0.000352511, 0.0014961
-0.00308661, 0.00534412, -0.586499, -0.000186778, 0.000563462, -0.00256168, 0.0287162, 0.0146306, 0.00486257, 0.000127962, 0.000351718, 0.00149332
-0.00289624, 0.00538077, -0.586497, -0.000187091, 0.000563216, -0.00256253, 0.0286644, 0.0146203, 0.00486081, 0.000127312, 0.000350981, 0.0014904
-0.00269939, 0.00540951, -0.586499, -0.000187428, 0.000562927, -0.0025628, 0.0286105, 0.0146098, 0.00485909, 0.00012669, 0.000350278, 0.00148727
-0.00253396, 0.00542468, -0.586501, -0.000187648, 0.000562598, -0.00256332, 0.0285546, 0.0145988, 0.00485726, 0.000126106, 0.000349588, 0.00148373
-0.00244259, 0.00542356, -0.586503, -0.000187696, 0.000562644, -0.0025662, 0.0284932, 0.0145873, 0.00485465, 0.000125517, 0.000348955, 0.00148053
-0.00239894, 0.00541894, -0.586504, -0.000187715, 0.000562622, -0.00256926, 0.0284281, 0.0145744, 0.00485157, 0.000124925, 0.000348358, 0.00147753
-0.0023771, 0.00541535, -0.586504, -0.000187757, 0.000562465, -0.00257219, 0.028361, 0.0145601, 0.00484825, 0.000124337, 0.000347789, 0.00147456
-0.00232675, 0.00541204, -0.586505, -0.000187941, 0.000562176, -0.00257414, 0.0282928, 0.0145451, 0.00484479, 0.000123767, 0.000347241, 0.00147138
-0.0023185, 0.00540467, -0.586506, -0.000187945, 0.000562045, -0.00257619, 0.0282224, 0.0145296, 0.00484072, 0.000123198, 0.000346735, 0.00146816
-0.0023815, 0.00540319, -0.586499, -0.000187713, 0.000561764, -0.00257926, 0.028149, 0.0145133, 0.00483581, 0.000122594, 0.000346281, 0.00146524
-0.00240026, 0.00539324, -0.586498, -0.000187572, 0.00056167, -0.00258144, 0.0280756, 0.0144973, 0.00483118, 0.000122001, 0.000345892, 0.00146226
-0.00244699, 0.00538543, -0.586494, -0.000187356, 0.000561576, -0.00258362, 0.0280013, 0.0144806, 0.00482626, 0.000121414, 0.000345538, 0.00145926
-0.00251693, 0.00537936, -0.586489, -0.000187023, 0.000561451, -0.00258595, 0.0279265, 0.0144637, 0.00482123, 0.000120802, 0.000345216, 0.00145647
-0.0024718, 0.00536754, -0.586493, -0.000187065, 0.000561471, -0.00258664, 0.0278536, 0.0144471, 0.00481726, 0.000120244, 0.000344932, 0.00145347
-0.00242803, 0.00534266, -0.5865, -0.000186899, 0.000561692, -0.00258783, 0.027782, 0.0144306, 0.00481345, 0.000119733, 0.000344659, 0.00145016
-0.00245348, 0.00530795, -0.586502, -0.000186388, 0.000562103, -0.002591, 0.0277098, 0.0144148, 0.00480922, 0.00011921, 0.000344432, 0.00144696
-0.00246634, 0.00527064, -0.586506, -0.000185875, 0.00056248, -0.00259353, 0.0276381, 0.0143986, 0.00480501, 0.000118701, 0.000344228, 0.00144372
-0.00246192, 0.00523151, -0.586512, -0.000185443, 0.000562715, -0.00259543, 0.0275674, 0.0143818, 0.00480085, 0.000118225, 0.000344009, 0.0014402
-0.00244372, 0.00518732, -0.586521, -0.000184976, 0.000562996, -0.0025962, 0.0274976, 0.0143647, 0.00479651, 0.000117788, 0.000343745, 0.00143623
-0.00239554, 0.00514316, -0.586532, -0.00018451, 0.000563117, -0.00259571, 0.0274289, 0.0143479, 0.00479204, 0.000117386, 0.000343395, 0.00143157
-0.00239559, 0.00508987, -0.58654, -0.000183897, 0.000563597, -0.00259723, 0.02736, 0.0143316, 0.00478698, 0.000117008, 0.000342958, 0.00142617
-0.00235557, 0.00503599, -0.586551, -0.000183305, 0.000563793, -0.00259662, 0.0272918, 0.0143154, 0.00478151, 0.000116653, 0.000342394, 0.00141985
-0.00232759, 0.00497708, -0.586563, -0.000182618, 0.000564083, -0.00259528, 0.0272241, 0.0142995, 0.00477557, 0.000116315, 0.000341633, 0.00141222
-0.00234523, 0.00491099, -0.586572, -0.000181837, 0.000564977, -0.00259595, 0.0271552, 0.0142832, 0.0047687, 0.000115986, 0.000340783, 0.00140381
-0.00229798, 0.00484394, -0.586587, -0.000181112, 0.00056502, -0.00259191, 0.0270883, 0.014267, 0.00476169, 0.000115671, 0.000339674, 0.00139389
-0.00227149, 0.00477828, -0.586601, -0.000180467, 0.000565376, -0.00258885, 0.0270217, 0.0142505, 0.00475383, 0.00011537, 0.000338293, 0.00138225
-0.002334, 0.00472682, -0.586602, -0.000179935, 0.000566951, -0.00259264, 0.0269524, 0.0142326, 0.00474397, 0.000115081, 0.000336867, 0.00136986
-0.00241999, 0.00468942, -0.586597, -0.00017943, 0.000568772, -0.00259785, 0.026882, 0.0142128, 0.00473224, 0.0001148, 0.000335394, 0.00135681
-0.00252132, 0.00466609, -0.586587, -0.000178946, 0.000570756, -0.00260434, 0.0268125, 0.014191, 0.00471874, 0.000114514, 0.000333751, 0.00134242
-0.00265847, 0.00466712, -0.586568, -0.00017851, 0.000572933, -0.00261292, 0.0267408, 0.0141625, 0.00470165, 0.00011423, 0.000332013, 0.00132689
-0.00281528, 0.00468728, -0.586542, -0.000178059, 0.000575345, -0.00262273, 0.0266681, 0.0141261, 0.00468088, 0.000113941, 0.000330188, 0.0013103
-0.0029118, 0.00468182, -0.58653, -0.000177529, 0.000576553, -0.00262515, 0.0265961, 0.0140829, 0.00465712, 0.000113636, 0.000328108, 0.00129177
-0.00308189, 0.00473066, -0.586496, -0.000177127, 0.000578839, -0.0026352, 0.0265205, 0.0140244, 0.00462755, 0.000113339, 0.000326013, 0.00127247
-0.00325403, 0.0047904, -0.58646, -0.000176702, 0.000580969, -0.00264486, 0.0264435, 0.0139546, 0.00459398, 0.000113039, 0.000323974, 0.00125314
-0.00341333, 0.00485116, -0.586425, -0.000176313, 0.000582826, -0.00265352, 0.0263677, 0.0138779, 0.00455824, 0.000112733, 0.000321888, 0.00123343
-0.00359053, 0.00494399, -0.586382, -0.000175974, 0.000584698, -0.00266391, 0.0262901, 0.013788, 0.00451838, 0.000112439, 0.000319929, 0.00121446
-0.00379004, 0.00508423, -0.586326, -0.000175702, 0.000586456, -0.00267698, 0.0262124, 0.0136878, 0.00447584, 0.000112161, 0.000318117, 0.00119678
-0.00395093, 0.00521267, -0.586279, -0.00017542, 0.000587307, -0.00268603, 0.026136, 0.0135815, 0.00443204, 0.000111894, 0.000316401, 0.00118028
-0.00406936, 0.00532195, -0.586241, -0.000175168, 0.000587416, -0.00269175, 0.0260607, 0.0134701, 0.00438719, 0.000111626, 0.000314725, 0.00116446
-0.00419899, 0.0054857, -0.586191, -0.000174898, 0.000587065, -0.00269843, 0.0259841, 0.0133457, 0.00433913, 0.000111377, 0.000313164, 0.00115034
-0.00431346, 0.00565055, -0.586144, -0.000174565, 0.000586243, -0.00270307, 0.025908, 0.0132166, 0.0042903, 0.000111126, 0.000311773, 0.00113837
-0.00441505, 0.00581563, -0.586099, -0.00017421, 0.00058508, -0.00270639, 0.0258335, 0.0130889, 0.00424252, 0.000110865, 0.000310529, 0.00112833
-0.00450018, 0.00594876, -0.586063, -0.000173821, 0.000583893, -0.00270741, 0.0257615, 0.0129675, 0.00419713, 0.000110585, 0.000309444, 0.00112021
-0.00459454, 0.00608038, -0.586025, -0.00017344, 0.000582971, -0.00270943, 0.0256922, 0.0128565, 0.00415508, 0.000110279, 0.00030852, 0.00111355
-0.00468089, 0.00620291, -0.585992, -0.000173039, 0.000581941, -0.00271023, 0.0256263, 0.012755, 0.0041164, 0.000109951, 0.000307713, 0.00110843
-0.0047374, 0.0062774, -0.585972, -0.00017276, 0.000581071, -0.00270982, 0.0255653, 0.0126688, 0.00408271, 0.000109615, 0.000307013, 0.00110407
-0.00478769, 0.00633679, -0.585956, -0.000172528, 0.00058045, -0.00270968, 0.0255089, 0.0125952, 0.00405318, 0.000109288, 0.000306363, 0.00110013
-0.00481997, 0.00637268, -0.585949, -0.000172306, 0.000579644, -0.0027073, 0.025457, 0.0125306, 0.00402688, 0.000108979, 0.000305718, 0.00109668
-0.00480429, 0.00637247, -0.585958, -0.000172239, 0.000578314, -0.00270199, 0.0254109, 0.0124755, 0.00400426, 0.000108708, 0.000305023, 0.00109343
-0.00476674, 0.00634141, -0.585975, -0.000172235, 0.000576939, -0.00269542, 0.0253703, 0.0124289, 0.00398467, 0.000108462, 0.000304289, 0.00109019
-0.00473582, 0.00630591, -0.585992, -0.00017222, 0.000575883, -0.00268972, 0.0253332, 0.0123877, 0.0039668, 0.000108226, 0.000303543, 0.00108709
-0.00470065, 0.00625887, -0.58601, -0.000172217, 0.00057488, -0.00268369, 0.0252999, 0.0123524, 0.0039508, 0.000108005, 0.000302802, 0.00108399
-0.00467958, 0.00621432, -0.586025, -0.000172125, 0.000574378, -0.00267823, 0.0252699, 0.0123213, 0.00393625, 0.000107804, 0.000302038, 0.0010808
-0.00465496, 0.00617184, -0.586039, -0.000172061, 0.000573926, -0.00267312, 0.0252432, 0.0122931, 0.00392285, 0.00010762, 0.00030124, 0.00107751
-0.00462557, 0.0061287, -0.586051, -0.000171929, 0.000573602, -0.00266687, 0.0252198, 0.0122678, 0.00391061, 0.000107457, 0.000300374, 0.00107372
-0.00459767, 0.00609916, -0.586058, -0.000171698, 0.000573307, -0.00265983, 0.0251991, 0.0122432, 0.00389868, 0.000107303, 0.00029941, 0.00106922
-0.00457206, 0.00608513, -0.58606, -0.000171379, 0.000572869, -0.0026519, 0.0251802, 0.0122189, 0.00388689, 0.000107149, 0.00029827, 0.00106371
-0.00454451, 0.00606885, -0.586063, -0.000171047, 0.000572015, -0.00264256, 0.0251633, 0.0121954, 0.00387552, 0.000106993, 0.000296855, 0.00105698
-0.00452115, 0.00606278, -0.586062, -0.000170747, 0.000571122, -0.00263382, 0.025148, 0.0121712, 0.00386418, 0.000106825, 0.000295195, 0.00104927
-0.00451211, 0.00608942, -0.586049, -0.000170413, 0.000570801, -0.00262648, 0.0251335, 0.0121448, 0.00385226, 0.00010664, 0.00029337, 0.00104083
-0.00450386, 0.00612628, -0.586034, -0.00017017, 0.000570511, -0.0026206, 0.0251199, 0.0121181, 0.00384037, 0.000106429, 0.000291322, 0.00103156
-0.00451167, 0.00619867, -0.586004, -0.000169902, 0.000570795, -0.00261602, 0.0251065, 0.0120893, 0.00382795, 0.000106194, 0.000289152, 0.00102182
-0.00454731, 0.00632479, -0.585956, -0.000169513, 0.000571847, -0.00261279, 0.0250928, 0.0120583, 0.00381468, 0.000105918, 0.000286868, 0.00101149
-0.00459385, 0.00648788, -0.585895, -0.000169193, 0.000573388, -0.0026125, 0.0250786, 0.0120255, 0.0038007, 0.000105605, 0.000284486, 0.00100079
-0.00465875, 0.00669265, -0.58582, -0.000168902, 0.000575714, -0.00261482, 0.0250639, 0.0119908, 0.00378609, 0.000105273, 0.000282077, 0.00099018
-0.00472779, 0.00691668, -0.585739, -0.000168787, 0.000578723, -0.00262118, 0.0250486, 0.0119543, 0.00377091, 0.000104925, 0.00027967, 0.000979834
-0.00476708, 0.00710343, -0.585673, -0.000168971, 0.000581318, -0.0026286, 0.0250336, 0.0119197, 0.00375667, 0.000104576, 0.000277176, 0.000969745
-0.00480161, 0.00729806, -0.585605, -0.000169303, 0.000584176, -0.0026383, 0.0250182, 0.011884, 0.00374232, 0.000104238, 0.000274799, 0.000960493
-0.00482781, 0.00748643, -0.58554, -0.000169757, 0.000587121, -0.00264928, 0.0250026, 0.0118483, 0.00372827, 0.000103907, 0.000272509, 0.000951933
-0.00484274, 0.00766604, -0.585479, -0.000170214, 0.000589369, -0.00265866, 0.0249863, 0.0118135, 0.00371467, 0.00010355, 0.000270204, 0.000943517
-0.00486421, 0.00784951, -0.585417, -0.000170699, 0.000591949, -0.00266915, 0.024969, 0.0117791, 0.00370116, 0.000103178, 0.000267955, 0.000935496
-0.00486905, 0.00802616, -0.585357, -0.000171408, 0.000594666, -0.00268205, 0.0249515, 0.0117459, 0.0036881, 0.000102843, 0.000265879, 0.000928497
-0.00484063, 0.00816893, -0.585312, -0.000172372, 0.000597507, -0.0026967, 0.0249344, 0.0117153, 0.00367621, 0.000102561, 0.000263973, 0.00092251
-0.00479118, 0.00830266, -0.585272, -0.000173456, 0.000600453, -0.00271259, 0.0249176, 0.0116862, 0.00366511, 0.000102334, 0.000262297, 0.000917628
-0.00468987, 0.00839539, -0.585249, -0.000174623, 0.00060241, -0.00272691, 0.0249017, 0.01166, 0.00365554, 0.000102162, 0.00026081, 0.000913644
-0.00454814, 0.00847281, -0.585237, -0.00017563, 0.00060348, -0.00273852, 0.0248864, 0.0116354, 0.00364734, 0.000102034, 0.000259514, 0.000910462
-0.00438334, 0.00856604, -0.585226, -0.000176321, 0.000603457, -0.00274638, 0.0248709, 0.0116082, 0.00363937, 0.000101939, 0.000258435, 0.000908071
-0.00419697, 0.00866611, -0.585217, -0.000176696, 0.000602477, -0.00275062, 0.0248548, 0.0115783, 0.00363164, 0.000101854, 0.00025748, 0.000906073
-0.00398575, 0.00878415, -0.585207, -0.000176787, 0.000600674, -0.00275169, 0.0248374, 0.0115429, 0.00362353, 0.000101778, 0.000256639, 0.000904462
-0.00374332, 0.00893924, -0.585193, -0.000176663, 0.000598237, -0.00275079, 0.0248182, 0.0114981, 0.0036138, 0.000101715, 0.00025593, 0.000903354
-0.00347716, 0.00909127, -0.585184, -0.000176301, 0.000595127, -0.00274719, 0.0247972, 0.0114476, 0.00360349, 0.00010165, 0.000255255, 0.000902357
-0.00316455, 0.00925253, -0.58518, -0.000175658, 0.000590977, -0.00274024, 0.0247738, 0.0113897, 0.00359247, 0.000101574, 0.000254575, 0.000901378
-0.00281957, 0.00944066, -0.585175, -0.00017466, 0.000585948, -0.00273006, 0.0247483, 0.0113204, 0.00357978, 0.00010148, 0.000253879, 0.000900419
-0.00242001, 0.00964041, -0.585175, -0.000173308, 0.000579845, -0.00271629, 0.0247201, 0.0112398, 0.00356543, 0.000101364, 0.00025314, 0.000899392
-0.00198023, 0.00984696, -0.58518, -0.00017174, 0.000573064, -0.00270034, 0.0246885, 0.0111481, 0.00354943, 0.000101225, 0.000252342, 0.000898248
-0.00149901, 0.0100705, -0.585189, -0.000169711, 0.000565238, -0.00268041, 0.0246546, 0.0110413, 0.00353072, 0.000101041, 0.000251447, 0.000896874
-0.000962294, 0.0103039, -0.585204, -0.000167219, 0.00055607, -0.00265608, 0.024619, 0.010922, 0.00351045, 0.000100811, 0.000250423, 0.00089515
-0.000390483, 0.010547, -0.585223, -0.000164169, 0.000545449, -0.0026266, 0.0245826, 0.0107847, 0.0034876, 0.000100506, 0.00024921, 0.00089287
0.000207549, 0.0107793, -0.585251, -0.000160615, 0.000533603, -0.00259272, 0.024547, 0.010625, 0.0034602, 0.000100102, 0.000247798, 0.000889972
0.000830258, 0.0109624, -0.585297, -0.000156612, 0.000520715, -0.00255476, 0.0245114, 0.0104508, 0.0034317, 9.96378e-05, 0.00024622, 0.000886567
0.00146078, 0.0111239, -0.585351, -0.000152288, 0.000507071, -0.00251405, 0.0244763, 0.0102542, 0.00339914, 9.90794e-05, 0.000244433, 0.000882477
0.00211014, 0.0112353, -0.585423, -0.000147694, 0.000493002, -0.00247138, 0.0244419, 0.010041, 0.00336362, 9.84535e-05, 0.000242508, 0.000877905
0.00273028, 0.0112709, -0.58551, -0.000143102, 0.000479095, -0.00242876, 0.0244077, 0.00981794, 0.00332828, 9.77904e-05, 0.000240482, 0.000872987
0.00334852, 0.0112489, -0.585613, -0.000138583, 0.000465588, -0.00238706, 0.0243738, 0.00958341, 0.00329027, 9.70724e-05, 0.000238344, 0.000867607
0.003957, 0.0111981, -0.585721, -0.000134196, 0.000452793, -0.00234721, 0.0243416, 0.00934454, 0.00325008, 9.63089e-05, 0.000236147, 0.000861845
0.00454872, 0.0110706, -0.585848, -0.000129985, 0.000440911, -0.00230935, 0.0243091, 0.00911056, 0.00321204, 9.55609e-05, 0.000233979, 0.000856122
0.00514323, 0.0109192, -0.58598, -0.000126015, 0.000429867, -0.00227383, 0.024275, 0.00888475, 0.00317538, 9.48341e-05, 0.000231851, 0.000850438
0.00574153, 0.0107414, -0.586119, -0.000122292, 0.000419674, -0.00224063, 0.024242, 0.0086723, 0.0031388, 9.41107e-05, 0.000229771, 0.000844681
0.00629112, 0.0105521, -0.586255, -0.000118643, 0.000410202, -0.00220839, 0.0242112, 0.00847618, 0.00310649, 9.3426e-05, 0.000227786, 0.000839129
0.00680213, 0.0103413, -0.58639, -0.000115204, 0.000401615, -0.00217801, 0.0241807, 0.00829619, 0.0030781, 9.27927e-05, 0.000225896, 0.000833843
0.00731496, 0.0101538, -0.586518, -0.00011204, 0.000393929, -0.00215009, 0.0241517, 0.008136, 0.00304924, 9.21688e-05, 0.000224077, 0.000828525
0.00779524, 0.00997023, -0.58664, -0.000109138, 0.00038707, -0.0021245, 0.0241239, 0.00799435, 0.00302397, 9.16021e-05, 0.000222388, 0.000823618
0.00823126, 0.00980255, -0.586752, -0.00010641, 0.00038075, -0.00210022, 0.0240979, 0.00786851, 0.00300217, 9.10906e-05, 0.000220811, 0.000819083
0.00865597, 0.00964447, -0.586858, -0.000103763, 0.000374687, -0.00207634, 0.024073, 0.00775751, 0.00298298, 9.06331e-05, 0.000219342, 0.000814925
0.00903207, 0.00949229, -0.586955, -0.000101412, 0.000369375, -0.00205482, 0.0240501, 0.00765944, 0.00296598, 9.02208e-05, 0.000217961, 0.000811073
0.0093774, 0.00935167, -0.587045, -9.92621e-05, 0.000364584, -0.00203486, 0.0240288, 0.00757372, 0.0029506, 8.98466e-05, 0.000216665, 0.000807497
0.0096884, 0.00922257, -0.587126, -9.722e-05, 0.000360236, -0.00201573, 0.0240094, 0.00749764, 0.00293716, 8.95162e-05, 0.000215451, 0.000804264
0.00996623, 0.0091007, -0.587201, -9.53193e-05, 0.000356115, -0.00199759, 0.0239921, 0.00742954, 0.00292551, 8.92225e-05, 0.000214309, 0.000801323
0.0102281, 0.00897795, -0.587272, -9.36176e-05, 0.000352416, -0.00198109, 0.0239756, 0.00736849, 0.0029151, 8.89662e-05, 0.000213234, 0.000798698
0.0104445, 0.00886826, -0.587334, -9.19896e-05, 0.000348853, -0.00196506, 0.0239621, 0.00731354, 0.00290599, 8.87297e-05, 0.000212203, 0.000796238
0.0106226, 0.00875047, -0.587392, -9.05094e-05, 0.000345637, -0.0019503, 0.0239508, 0.00726363, 0.00289802, 8.85132e-05, 0.000211211, 0.000793951
0.0107747, 0.00863827, -0.587444, -8.91873e-05, 0.000342809, -0.00193698, 0.0239405, 0.00721798, 0.00289088, 8.83203e-05, 0.000210264, 0.000791885
0.0109146, 0.00853501, -0.587493, -8.7876e-05, 0.000339936, -0.0019237, 0.0239323, 0.00717773, 0.0028842, 8.81304e-05, 0.000209335, 0.000789871
0.0110203, 0.00843633, -0.587535, -8.66161e-05, 0.000337192, -0.00191092, 0.0239257, 0.00714053, 0.00287846, 8.79556e-05, 0.000208439, 0.000788017
0.0111049, 0.00834117, -0.587574, -8.54667e-05, 0.000334736, -0.00189927, 0.02392, 0.00710599, 0.00287335, 8.77969e-05, 0.000207574, 0.000786337
0.0111768, 0.00824771, -0.58761, -8.44371e-05, 0.000332462, -0.00188869, 0.023915, 0.00707425, 0.00286865, 8.76493e-05, 0.000206733, 0.000784798
0.0112392, 0.00815959, -0.587643, -8.34888e-05, 0.000330284, -0.00187887, 0.0239107, 0.00704473, 0.0028643, 8.75117e-05, 0.000205914, 0.000783393
0.0112939, 0.00808904, -0.58767, -8.25592e-05, 0.000328088, -0.00186946, 0.0239066, 0.00701801, 0.00286005, 8.73736e-05, 0.000205105, 0.000782052
0.0113393, 0.00802505, -0.587694, -8.17425e-05, 0.000326192, -0.00186131, 0.0239023, 0.00699376, 0.00285591, 8.72403e-05, 0.000204315, 0.000780831
0.0113816, 0.00796624, -0.587716, -8.10236e-05, 0.000324337, -0.00185391, 0.0238984, 0.00697039, 0.00285207, 8.71227e-05, 0.000203551, 0.000779776
0.0114088, 0.00791124, -0.587736, -8.02588e-05, 0.000322458, -0.00184639, 0.0238943, 0.0069483, 0.00284821, 8.69982e-05, 0.000202783, 0.000778722
0.0114383, 0.00785972, -0.587754, -7.9622e-05, 0.000320703, -0.00183981, 0.0238902, 0.0069266, 0.00284437, 8.6884e-05, 0.000202029, 0.000777765
0.0114704, 0.00781863, -0.58777, -7.90234e-05, 0.000319015, -0.00183378, 0.0238838, 0.00690636, 0.00283992, 8.67636e-05, 0.00020128, 0.000776857
0.0115015, 0.00777938, -0.587786, -7.84438e-05, 0.00031734, -0.00182792, 0.0238766, 0.0068862, 0.00283511, 8.66458e-05, 0.000200533, 0.000775979
0.0115346, 0.00774917, -0.587799, -7.78765e-05, 0.000315616, -0.00182224, 0.0238664, 0.00686646, 0.00282946, 8.65218e-05, 0.000199784, 0.000775113
0.0115696, 0.00772293, -0.587812, -7.73748e-05, 0.000314052, -0.00181717, 0.023853, 0.0068468, 0.00282279, 8.63958e-05, 0.000199034, 0.000774263
0.0116263, 0.00769876, -0.587826, -7.70452e-05, 0.000312673, -0.00181295, 0.0238353, 0.00682678, 0.00281475, 8.62786e-05, 0.000198295, 0.000773461
0.0116963, 0.00768135, -0.58784, -7.68065e-05, 0.000311367, -0.00180924, 0.0238102, 0.0068062, 0.00280458, 8.61622e-05, 0.000197559, 0.00077267
0.0118067, 0.00764989, -0.587862, -7.66744e-05, 0.000309771, -0.00180453, 0.023783, 0.00678268, 0.00279278, 8.6061e-05, 0.000196785, 0.000771703
0.0119309, 0.00761034, -0.587889, -7.65929e-05, 0.000308167, -0.00179944, 0.0237503, 0.00675662, 0.00277867, 8.59594e-05, 0.000195965, 0.000770541
0.0120692, 0.00757786, -0.587915, -7.65077e-05, 0.00030631, -0.00179388, 0.0237061, 0.00672897, 0.00276108, 8.58465e-05, 0.00019511, 0.000769268
0.0122412, 0.00753318, -0.587948, -7.64742e-05, 0.000304208, -0.0017873, 0.023656, 0.00669813, 0.00274073, 8.57345e-05, 0.000194174, 0.000767678
0.0124517, 0.0074737, -0.587991, -7.64055e-05, 0.000301615, -0.00177879, 0.0236022, 0.00666401, 0.00271793, 8.56175e-05, 0.000193127, 0.000765656
0.0126943, 0.00739786, -0.588042, -7.62954e-05, 0.00029849, -0.00176816, 0.0235487, 0.00662594, 0.00269356, 8.5511e-05, 0.000191948, 0.000763093
0.0129432, 0.00733167, -0.588091, -7.61169e-05, 0.000295242, -0.00175738, 0.0234854, 0.00658637, 0.00266591, 8.53883e-05, 0.000190698, 0.000760343
0.0132094, 0.00726782, -0.588142, -7.58499e-05, 0.000291544, -0.00174527, 0.0234164, 0.00654555, 0.00263592, 8.52439e-05, 0.000189338, 0.000757242
0.0134845, 0.00719728, -0.588197, -7.54805e-05, 0.00028741, -0.00173148, 0.0233503, 0.00650277, 0.00260546, 8.50907e-05, 0.000187825, 0.000753579
0.0137492, 0.00713931, -0.588247, -7.4964e-05, 0.000282939, -0.00171687, 0.0232786, 0.00646038, 0.00257321, 8.48971e-05, 0.000186211, 0.000749664
0.013988, 0.00710063, -0.588289, -7.4143e-05, 0.000277822, -0.00170054, 0.0232074, 0.00641846, 0.00254076, 8.46722e-05, 0.000184471, 0.000745361
0.0141894, 0.00707837, -0.588322, -7.3345e-05, 0.000273121, -0.00168582, 0.0231255, 0.00637862, 0.00250622, 8.44174e-05, 0.0001827, 0.000741127
0.0143475, 0.00707002, -0.588348, -7.19939e-05, 0.000267386, -0.0016676, 0.0230457, 0.00634054, 0.00247228, 8.40832e-05, 0.000180728, 0.000736231
0.014511, 0.00704431, -0.58838, -7.02991e-05, 0.000260413, -0.00164464, 0.0229828, 0.00630308, 0.00244236, 8.36923e-05, 0.000178504, 0.000730353
0.0145889, 0.00704748, -0.588393, -6.83854e-05, 0.000253628, -0.00162274, 0.0229092, 0.00626901, 0.00241112, 8.32589e-05, 0.000176293, 0.000724731
0.0146095, 0.00706292, -0.588397, -6.62255e-05, 0.000246331, -0.00159932, 0.0228295, 0.00623836, 0.00237984, 8.27598e-05, 0.000174001, 0.000718912
0.0145755, 0.00708077, -0.588393, -6.3789e-05, 0.00023862, -0.00157424, 0.0227543, 0.00621014, 0.00235074, 8.22068e-05, 0.000171573, 0.000712592
0.0144397, 0.00711134, -0.588373, -6.09609e-05, 0.000230684, -0.00154818, 0.0226705, 0.00618521, 0.00232133, 8.15974e-05, 0.00016912, 0.000706254
0.0142366, 0.0071409, -0.588346, -5.78257e-05, 0.000222341, -0.00152037, 0.0225828, 0.00616298, 0.00229274, 8.09255e-05, 0.0001666, 0.000699651
0.0139875, 0.00717138, -0.588313, -5.46586e-05, 0.000214098, -0.00149284, 0.0224954, 0.00614287, 0.00226562, 8.02296e-05, 0.000164062, 0.000692939
0.0136682, 0.00720266, -0.58827, -5.13417e-05, 0.000206001, -0.00146548, 0.0224006, 0.00612513, 0.00223853, 7.95056e-05, 0.000161563, 0.000686353
0.0132945, 0.0072344, -0.58822, -4.7997e-05, 0.000198184, -0.00143888, 0.0222971, 0.00610969, 0.00221131, 7.87592e-05, 0.000159119, 0.000679927
0.0129044, 0.00725305, -0.588172, -4.46069e-05, 0.000190487, -0.00141206, 0.0221966, 0.00609553, 0.00218604, 7.80033e-05, 0.000156674, 0.000673371
0.0124827, 0.00726608, -0.588121, -4.11916e-05, 0.000182887, -0.00138531, 0.0220917, 0.00608258, 0.00216145, 7.72165e-05, 0.000154266, 0.000666827
0.0120366, 0.00727519, -0.588067, -3.78905e-05, 0.000175841, -0.00136021, 0.0219795, 0.00607096, 0.00213688, 7.64203e-05, 0.000151956, 0.000660543
0.0115827, 0.00728247, -0.588013, -3.47549e-05, 0.000169284, -0.00133677, 0.0218659, 0.00606032, 0.00211313, 7.5648e-05, 0.000149764, 0.00065459
0.0111156, 0.00728791, -0.587957, -3.17474e-05, 0.000163205, -0.00131487, 0.0217452, 0.00605091, 0.00208918, 7.48974e-05, 0.000147706, 0.000649069
0.0106575, 0.00728743, -0.587903, -2.89078e-05, 0.000157642, -0.00129454, 0.0216237, 0.00604217, 0.00206613, 7.41621e-05, 0.000145735, 0.000643739
0.0102272, 0.00728741, -0.587852, -2.63357e-05, 0.000152552, -0.00127607, 0.0215036, 0.00603396, 0.00204405, 7.34603e-05, 0.000143869, 0.0006387
0.00978219, 0.00728264, -0.587801, -2.37612e-05, 0.000147605, -0.00125783, 0.0213792, 0.00602621, 0.00202223, 7.27566e-05, 0.000142081, 0.000633827
0.00934847, 0.00727445, -0.587751, -2.1356e-05, 0.000143181, -0.00124119, 0.0212516, 0.00601888, 0.00200073, 7.20666e-05, 0.000140391, 0.000629208
0.0089549, 0.00726498, -0.587707, -1.91943e-05, 0.000139189, -0.00122613, 0.0211276, 0.00601177, 0.00198036, 7.14085e-05, 0.000138789, 0.000624811
0.00857777, 0.00725763, -0.587664, -1.72182e-05, 0.000135551, -0.00121253, 0.0210033, 0.00600497, 0.00196044, 7.07769e-05, 0.000137283, 0.000620704
0.00821423, 0.00725083, -0.587622, -1.53899e-05, 0.000132249, -0.00120017, 0.020878, 0.00599852, 0.00194082, 7.01732e-05, 0.000135869, 0.000616887
0.00788804, 0.00724246, -0.587585, -1.37472e-05, 0.000129305, -0.00118903, 0.0207547, 0.00599228, 0.00192187, 6.95948e-05, 0.000134524, 0.000613255
0.00756101, 0.00723209, -0.587548, -1.22023e-05, 0.000126796, -0.00117927, 0.0206317, 0.00598617, 0.00190337, 6.90314e-05, 0.00013324, 0.000609781
0.00727126, 0.00722546, -0.587514, -1.0836e-05, 0.000124406, -0.00117025, 0.0205089, 0.00598027, 0.00188518, 6.84887e-05, 0.000132023, 0.000606505
0.00699045, 0.00721752, -0.587482, -9.58726e-06, 0.000122421, -0.00116255, 0.0203874, 0.00597452, 0.00186745, 6.79667e-05, 0.00013086, 0.000603381
0.00673994, 0.00720755, -0.587454, -8.44805e-06, 0.000120653, -0.0011555, 0.0202661, 0.00596886, 0.00185001, 6.74554e-05, 0.000129742, 0.000600362
0.0064946, 0.00719698, -0.587428, -7.34605e-06, 0.000118987, -0.00114879, 0.0201446, 0.00596329, 0.0018328, 6.6957e-05, 0.000128669, 0.000597464
0.00629231, 0.00718939, -0.587405, -6.41321e-06, 0.000117435, -0.00114271, 0.020024, 0.00595778, 0.00181593, 6.64716e-05, 0.000127632, 0.000594655
0.00608365, 0.00717959, -0.587382, -5.49244e-06, 0.00011605, -0.00113709, 0.0199014, 0.00595225, 0.00179908, 6.59871e-05, 0.00012663, 0.00059191
0.00588908, 0.00716831, -0.587361, -4.64763e-06, 0.000114898, -0.00113216, 0.0197743, 0.00594666, 0.0017819, 6.55085e-05, 0.000125671, 0.000589294
0.00571704, 0.00715589, -0.587344, -3.91467e-06, 0.000114004, -0.0011281, 0.0196477, 0.00594098, 0.00176509, 6.50433e-05, 0.000124736, 0.000586717
0.00558559, 0.00714855, -0.58733, -3.33117e-06, 0.000113111, -0.00112442, 0.0195204, 0.00593516, 0.00174838, 6.45921e-05, 0.000123836, 0.000584248
0.00546633, 0.00713968, -0.587317, -2.79856e-06, 0.00011237, -0.00112119, 0.0193897, 0.0059291, 0.00173154, 6.41533e-05, 0.00012297, 0.000581903
0.00539462, 0.00713217, -0.587311, -2.40943e-06, 0.00011179, -0.00111852, 0.0192594, 0.00592279, 0.001715, 6.37325e-05, 0.000122127, 0.000579627
0.00533546, 0.00712645, -0.587305, -2.11488e-06, 0.000111363, -0.00111657, 0.0191289, 0.0059162, 0.00169862, 6.3324e-05, 0.000121311, 0.000577445
0.00529268, 0.00712438, -0.5873, -1.91039e-06, 0.000110966, -0.00111497, 0.0189952, 0.00590926, 0.00168208, 6.29273e-05, 0.000120531, 0.00057543
0.00526429, 0.00712201, -0.587297, -1.79038e-06, 0.000110787, -0.00111417, 0.0188588, 0.00590189, 0.00166548, 6.25416e-05, 0.00011977, 0.000573503
0.00526485, 0.00712181, -0.587297, -1.74833e-06, 0.000110639, -0.00111351, 0.0187217, 0.00589412, 0.00164903, 6.2166e-05, 0.000119021, 0.000571618
0.00528353, 0.00712351, -0.587299, -1.81129e-06, 0.000110673, -0.00111364, 0.0185833, 0.00588595, 0.00163266, 6.17966e-05, 0.000118285, 0.000569789
0.00531698, 0.00712751, -0.587302, -1.9127e-06, 0.000110673, -0.00111373, 0.0184421, 0.00587723, 0.00161626, 6.14317e-05, 0.000117561, 0.00056802
0.00534358, 0.00713038, -0.587305, -1.98335e-06, 0.000110656, -0.00111366, 0.018299, 0.00586798, 0.00159991, 6.10718e-05, 0.000116845, 0.000566294
0.00536857, 0.00713327, -0.587307, -2.12623e-06, 0.000110846, -0.00111444, 0.0181548, 0.00585828, 0.00158369, 6.07158e-05, 0.000116136, 0.0005646
0.00539006, 0.00713443, -0.587309, -2.30568e-06, 0.000111232, -0.00111585, 0.0180092, 0.0058481, 0.00156756, 6.03621e-05, 0.000115436, 0.000562953
0.00541276, 0.00713512, -0.587311, -2.4711e-06, 0.000111597, -0.00111708, 0.0178619, 0.00583742, 0.00155148, 6.00103e-05, 0.000114739, 0.000561326
0.00545479, 0.00713835, -0.587315, -2.68457e-06, 0.000111955, -0.00111836, 0.0177143, 0.00582635, 0.00153557, 5.96606e-05, 0.000114047, 0.000559711
0.00546275, 0.00713659, -0.587316, -2.85246e-06, 0.000112461, -0.00112004, 0.0175667, 0.00581493, 0.00151987, 5.93124e-05, 0.000113363, 0.000558127
0.00546038, 0.00713282, -0.587316, -2.99484e-06, 0.000112998, -0.00112174, 0.0174172, 0.00580297, 0.00150422, 5.89635e-05, 0.000112685, 0.000556562
0.00549915, 0.00713363, -0.58732, -3.1969e-06, 0.000113445, -0.00112312, 0.0172656, 0.00579045, 0.0014886, 5.86128e-05, 0.00011201, 0.000554996
0.0055158, 0.0071309, -0.587323, -3.33247e-06, 0.000113899, -0.00112442, 0.0171141, 0.00577756, 0.00147319, 5.82613e-05, 0.000111343, 0.000553442
0.00551228, 0.00712498, -0.587323, -3.45363e-06, 0.000114474, -0.00112603, 0.016962, 0.00576423, 0.00145797, 5.79075e-05, 0.000110688, 0.000551923
0.00551825, 0.00711935, -0.587325, -3.54309e-06, 0.000114944, -0.00112719, 0.0168082, 0.00575036, 0.00144282, 5.75506e-05, 0.00011004, 0.00055041
0.00550783, 0.00711041, -0.587326, -3.58499e-06, 0.000115443, -0.00112831, 0.0166548, 0.00573616, 0.00142793, 5.71914e-05, 0.000109399, 0.000548911
0.00546285, 0.00709604, -0.587324, -3.58251e-06, 0.000116082, -0.00112985, 0.0165028, 0.00572175, 0.00141334, 5.68322e-05, 0.00010877, 0.000547447
0.00540761, 0.00707979, -0.587321, -3.52351e-06, 0.000116639, -0.00113095, 0.0163481, 0.00570679, 0.00139874, 5.64695e-05, 0.000108141, 0.000545974
0.00536772, 0.00706459, -0.58732, -3.45795e-06, 0.00011712, -0.00113169, 0.016192, 0.00569136, 0.00138423, 5.61035e-05, 0.000107514, 0.000544483
0.00531037, 0.007048, -0.587317, -3.36578e-06, 0.000117584, -0.00113238, 0.0160361, 0.00567555, 0.00136997, 5.5735e-05, 0.000106891, 0.000542999
0.00522793, 0.00702727, -0.587311, -3.25788e-06, 0.00011819, -0.0011335, 0.0158793, 0.00565929, 0.00135588, 5.53641e-05, 0.000106269, 0.000541518
0.00514765, 0.00700458, -0.587307, -3.08078e-06, 0.000118664, -0.00113395, 0.0157225, 0.00564266, 0.001342, 5.49935e-05, 0.000105648, 0.000540029
0.00505965, 0.00698265, -0.587301, -2.89622e-06, 0.000119073, -0.00113425, 0.0155665, 0.0056258, 0.00132843, 5.46245e-05, 0.000105029, 0.000538544
0.00495484, 0.00695556, -0.587295, -2.64706e-06, 0.000119501, -0.00113439, 0.0154112, 0.0056087, 0.00131509, 5.42583e-05, 0.00010441, 0.000537056
0.00488042, 0.00693342, -0.587291, -2.48107e-06, 0.000119952, -0.00113474, 0.0152589, 0.00559166, 0.00130216, 5.38989e-05, 0.000103791, 0.000535566
0.00479491, 0.00691071, -0.587287, -2.31687e-06, 0.000120425, -0.00113524, 0.0151107, 0.00557486, 0.0012897, 5.35484e-05, 0.000103175, 0.000534082
0.00469322, 0.00688471, -0.58728, -2.1065e-06, 0.000120883, -0.00113553, 0.0149664, 0.00555831, 0.00127768, 5.32076e-05, 0.000102562, 0.000532618
0.0046259, 0.00686345, -0.587277, -2.00753e-06, 0.000121471, -0.00113643, 0.0148252, 0.00554195, 0.00126599, 5.28763e-05, 0.000101951, 0.000531167
0.0045532, 0.00684288, -0.587273, -1.89457e-06, 0.00012198, -0.00113714, 0.0146898, 0.00552617, 0.00125479, 5.25587e-05, 0.000101345, 0.000529738
0.00451013, 0.00682897, -0.587272, -1.86034e-06, 0.000122445, -0.00113792, 0.0145602, 0.00551102, 0.00124408, 5.22556e-05, 0.000100744, 0.000528335
0.00448033, 0.00681724, -0.587271, -1.85791e-06, 0.000122915, -0.0011388, 0.0144369, 0.00549661, 0.00123384, 5.19674e-05, 0.000100148, 0.000526946
0.00445978, 0.00680825, -0.587271, -1.88064e-06, 0.000123345, -0.00113965, 0.0143199, 0.00548294, 0.00122408, 5.16929e-05, 9.95589e-05, 0.000525573
0.00443148, 0.00680006, -0.587269, -1.90892e-06, 0.000123744, -0.00114054, 0.0142074, 0.00546981, 0.00121467, 5.14296e-05, 9.89767e-05, 0.000524222
0.00441025, 0.00679271, -0.587268, -1.96194e-06, 0.000124179, -0.0011416, 0.014099, 0.00545715, 0.00120558, 5.11764e-05, 9.83988e-05, 0.000522879
0.00439297, 0.00678557, -0.587268, -2.02704e-06, 0.000124634, -0.00114272, 0.0139934, 0.00544483, 0.00119672, 5.09306e-05, 9.78271e-05, 0.000521551
0.00439045, 0.00678111, -0.587269, -2.13433e-06, 0.000125107, -0.00114397, 0.0138898, 0.00543275, 0.001188, 5.0692e-05, 9.72604e-05, 0.00052024
0.00438079, 0.00677754, -0.587268, -2.22881e-06, 0.000125489, -0.00114503, 0.0137879, 0.00542088, 0.00117941, 5.04602e-05, 9.67e-05, 0.00051895
0.00438237, 0.00677565, -0.587269, -2.36574e-06, 0.000125918, -0.00114632, 0.013688, 0.00540929, 0.00117093, 5.02369e-05, 9.6144e-05, 0.000517677
0.00439397, 0.006777, -0.58727, -2.55613e-06, 0.000126353, -0.00114783, 0.01359, 0.00539798, 0.00116254, 5.00212e-05, 9.5595e-05, 0.00051643
0.00440836, 0.00678049, -0.58727, -2.78254e-06, 0.000126773, -0.00114944, 0.0134931, 0.00538688, 0.00115416, 4.98127e-05, 9.50514e-05, 0.000515201
0.00444091, 0.00678614, -0.587272, -3.0886e-06, 0.00012731, -0.00115158, 0.0133988, 0.00537615, 0.00114586, 4.96144e-05, 9.45087e-05, 0.000513977
0.0044504, 0.00678888, -0.587272, -3.3751e-06, 0.000127829, -0.00115368, 0.0133049, 0.00536561, 0.00113749, 4.94233e-05, 9.39744e-05, 0.00051279
0.0044746, 0.00679493, -0.587273, -3.70535e-06, 0.000128306, -0.00115577, 0.0132134, 0.00535546, 0.00112913, 4.92423e-05, 9.34364e-05, 0.000511587
0.00448865, 0.00679968, -0.587272, -4.03857e-06, 0.000128782, -0.00115796, 0.0131224, 0.00534556, 0.00112067, 4.90649e-05, 9.28973e-05, 0.000510374
0.00449818, 0.00680232, -0.587272, -4.37435e-06, 0.000129316, -0.00116034, 0.0130308, 0.00533579, 0.001112, 4.88899e-05, 9.23556e-05, 0.000509148
0.0044773, 0.00680061, -0.587268, -4.64327e-06, 0.000129772, -0.00116245, 0.0129385, 0.00532619, 0.00110313, 4.87161e-05, 9.1807e-05, 0.000507891
0.00448398, 0.00680446, -0.587267, -4.99675e-06, 0.00013023, -0.00116473, 0.0128453, 0.00531667, 0.00109404, 4.85378e-05, 9.12437e-05, 0.000506561
0.00451646, 0.00681393, -0.587267, -5.34085e-06, 0.000130512, -0.00116642, 0.0127557, 0.00530766, 0.00108509, 4.83614e-05, 9.06568e-05, 0.000505121
0.00450433, 0.00681561, -0.587264, -5.6122e-06, 0.00013083, -0.00116819, 0.0126642, 0.00529861, 0.00107594, 4.81806e-05, 9.00682e-05, 0.000503678
0.00449476, 0.00681884, -0.587261, -5.86777e-06, 0.000131053, -0.00116967, 0.0125699, 0.00528935, 0.00106656, 4.79919e-05, 8.94676e-05, 0.000502183
0.00449511, 0.00682296, -0.587258, -6.13852e-06, 0.00013131, -0.00117129, 0.0124764, 0.00528019, 0.00105721, 4.77988e-05, 8.88459e-05, 0.000500593
0.00447732, 0.00682497, -0.587254, -6.3515e-06, 0.000131492, -0.00117266, 0.0123798, 0.00527076, 0.00104769, 4.75928e-05, 8.82136e-05, 0.00049894
0.00443356, 0.006824, -0.587248, -6.49233e-06, 0.000131565, -0.0011736, 0.0122794, 0.00526091, 0.001038, 4.7374e-05, 8.75737e-05, 0.000497234
0.00439338, 0.00682406, -0.587242, -6.55118e-06, 0.000131463, -0.0011737, 0.0121794, 0.00525105, 0.00102841, 4.71455e-05, 8.69149e-05, 0.000495412
0.00436135, 0.00682554, -0.587237, -6.5734e-06, 0.000131277, -0.0011734, 0.0120808, 0.00524129, 0.00101903, 4.69082e-05, 8.62474e-05, 0.000493503
0.00432434, 0.00682676, -0.587231, -6.54526e-06, 0.000130988, -0.00117264, 0.011982, 0.00523146, 0.00100978, 4.66664e-05, 8.55886e-05, 0.000491592
0.00427449, 0.00682393, -0.587225, -6.46425e-06, 0.000130723, -0.00117176, 0.0118835, 0.00522153, 0.00100067, 4.64253e-05, 8.49418e-05, 0.000489707
0.00423447, 0.00682323, -0.58722, -6.3282e-06, 0.000130289, -0.0011701, 0.0117871, 0.00521166, 0.000991869, 4.61855e-05, 8.43033e-05, 0.000487819
0.00419592, 0.00682336, -0.587216, -6.18206e-06, 0.000129802, -0.00116825, 0.0116921, 0.00520177, 0.000983303, 4.59482e-05, 8.36806e-05, 0.000485969
0.00417106, 0.00682498, -0.587212, -6.00548e-06, 0.00012923, -0.00116591, 0.0115999, 0.00519199, 0.000975072, 4.5714e-05, 8.30703e-05, 0.000484136
0.00413396, 0.00682345, -0.587209, -5.74356e-06, 0.000128548, -0.00116291, 0.0115102, 0.00518228, 0.000967152, 4.54827e-05, 8.2476e-05, 0.000482338
0.00410295, 0.00682241, -0.587206, -5.47191e-06, 0.000127835, -0.00115972, 0.0114234, 0.00517266, 0.00095957, 4.52556e-05, 8.18986e-05, 0.000480581
0.00407409, 0.00682137, -0.587203, -5.23718e-06, 0.000127211, -0.00115695, 0.0113381, 0.00516301, 0.000952231, 4.50325e-05, 8.13415e-05, 0.000478891
0.00404243, 0.00681829, -0.587201, -4.94792e-06, 0.000126523, -0.00115375, 0.0112549, 0.00515333, 0.000945153, 4.48143e-05, 8.08015e-05, 0.000477256
0.00402398, 0.00681884, -0.587199, -4.69131e-06, 0.000125788, -0.0011505, 0.0111755, 0.00514382, 0.000938427, 4.46037e-05, 8.02772e-05, 0.000475675
0.0040115, 0.00681973, -0.587198, -4.46467e-06, 0.000125124, -0.00114756, 0.0110974, 0.00513429, 0.00093186, 4.43996e-05, 7.97723e-05, 0.000474179
0.00400627, 0.00682075, -0.587198, -4.24701e-06, 0.000124493, -0.00114467, 0.011022, 0.00512483, 0.000925544, 4.42013e-05, 7.92786e-05, 0.000472724
0.00400692, 0.00682161, -0.587199, -4.0286e-06, 0.000123871, -0.00114176, 0.0109495, 0.00511547, 0.000919479, 4.4007e-05, 7.87947e-05, 0.000471301
0.00400798, 0.00682152, -0.587201, -3.79436e-06, 0.000123234, -0.00113871, 0.0108794, 0.00510611, 0.000913653, 4.38146e-05, 7.83189e-05, 0.000469895
0.00401763, 0.0068227, -0.587203, -3.54661e-06, 0.000122512, -0.00113527, 0.0108124, 0.00509681, 0.000908118, 4.36262e-05, 7.78522e-05, 0.000468518
0.00402619, 0.00682269, -0.587205, -3.32447e-06, 0.000121892, -0.00113226, 0.0107476, 0.00508749, 0.00090279, 4.3442e-05, 7.73965e-05, 0.000467182
0.00403761, 0.00682279, -0.587208, -3.10044e-06, 0.000121256, -0.00112914, 0.0106863, 0.00507823, 0.00089776, 4.3263e-05, 7.69496e-05, 0.00046588
0.0040596, 0.00682488, -0.587212, -2.89857e-06, 0.000120607, -0.00112601, 0.0106287, 0.00506906, 0.000893029, 4.30899e-05, 7.6512e-05, 0.000464617
0.00407033, 0.00682559, -0.587214, -2.6968e-06, 0.000119979, -0.00112307, 0.0105713, 0.00505982, 0.00088827, 4.29215e-05, 7.60861e-05, 0.000463421
0.00407803, 0.00682615, -0.587217, -2.49106e-06, 0.000119339, -0.00112012, 0.0105146, 0.00505058, 0.000883558, 4.27577e-05, 7.56681e-05, 0.000462263
0.00410361, 0.00682831, -0.587221, -2.3149e-06, 0.00011874, -0.00111726, 0.0104609, 0.00504144, 0.00087914, 4.25975e-05, 7.52537e-05, 0.00046111
0.00412418, 0.00682911, -0.587225, -2.12628e-06, 0.000118135, -0.00111436, 0.0104087, 0.00503231, 0.000874822, 4.24415e-05, 7.48465e-05, 0.00045999
0.00413845, 0.00682932, -0.587228, -1.92602e-06, 0.000117503, -0.00111138, 0.0103586, 0.00502331, 0.000870656, 4.22907e-05, 7.44454e-05, 0.000458899
0.00415457, 0.00682939, -0.587232, -1.72587e-06, 0.000116864, -0.00110836, 0.0103106, 0.00501438, 0.000866681, 4.21432e-05, 7.40487e-05, 0.000457822
0.00417132, 0.00682952, -0.587235, -1.52932e-06, 0.000116223, -0.00110535, 0.0102646, 0.00500556, 0.00086283, 4.20004e-05, 7.36577e-05, 0.000456773
0.00418147, 0.00682749, -0.587239, -1.3249e-06, 0.00011562, -0.00110245, 0.0102207, 0.00499684, 0.000859146, 4.18613e-05, 7.32707e-05, 0.00045574
0.00418797, 0.00682668, -0.587241, -1.11075e-06, 0.000114938, -0.00109932, 0.010178, 0.0049882, 0.000855553, 4.17248e-05, 7.28877e-05, 0.000454723
0.00419466, 0.00682387, -0.587245, -8.98048e-07, 0.000114315, -0.00109633, 0.0101368, 0.00497964, 0.000852101, 4.15913e-05, 7.25088e-05, 0.000453719
0.00420393, 0.00682257, -0.587248, -6.98828e-07, 0.000113672, -0.00109335, 0.0100971, 0.00497116, 0.000848773, 4.14606e-05, 7.21338e-05, 0.00045273
0.00420762, 0.00682034, -0.58725, -4.86007e-07, 0.000113016, -0.00109031, 0.0100582, 0.00496277, 0.000845505, 4.13326e-05, 7.17631e-05, 0.000451756
0.0042098, 0.0068175, -0.587253, -2.64035e-07, 0.000112344, -0.00108718, 0.0100205, 0.00495452, 0.000842361, 4.12074e-05, 7.13963e-05, 0.000450795
0.00421434, 0.00681457, -0.587256, -5.03481e-08, 0.000111691, -0.00108413, 0.00998447, 0.00494638, 0.000839386, 4.1085e-05, 7.1033e-05, 0.000449843
0.00421344, 0.00681165, -0.587258, 1.73259e-07, 0.000111006, -0.00108097, 0.00994957, 0.00493837, 0.00083651, 4.09647e-05, 7.06729e-05, 0.000448902
0.00421529, 0.00680918, -0.587261, 3.98345e-07, 0.000110294, -0.00107771, 0.00991591, 0.00493049, 0.000833767, 4.08465e-05, 7.03165e-05, 0.00044797
0.00421472, 0.00680649, -0.587263, 6.24482e-07, 0.000109584, -0.00107446, 0.00988355, 0.00492272, 0.000831152, 4.07306e-05, 6.99638e-05, 0.000447051
0.00421515, 0.00680457, -0.587266, 8.39075e-07, 0.000108881, -0.00107129, 0.00985223, 0.00491508, 0.000828628, 4.06169e-05, 6.96155e-05, 0.000446146
0.00421345, 0.00680217, -0.587268, 1.0587e-06, 0.000108172, -0.00106808, 0.00982205, 0.00490754, 0.000826223, 4.05049e-05, 6.92713e-05, 0.000445251
0.00421045, 0.0067997, -0.58727, 1.28384e-06, 0.000107432, -0.00106477, 0.00979309, 0.00490007, 0.000823936, 4.03949e-05, 6.89316e-05, 0.00044437
0.00420315, 0.00679768, -0.587272, 1.51918e-06, 0.000106647, -0.00106133, 0.00976492, 0.00489267, 0.000821722, 4.02864e-05, 6.85966e-05, 0.000443503
0.00419075, 0.00679198, -0.587274, 1.77187e-06, 0.000105904, -0.00105791, 0.00973766, 0.00488533, 0.000819615, 4.01794e-05, 6.82665e-05, 0.000442648
0.00417864, 0.00678666, -0.587276, 2.02264e-06, 0.000105135, -0.0010544, 0.00971155, 0.00487804, 0.000817639, 4.00745e-05, 6.79409e-05, 0.000441809
0.0041629, 0.00678053, -0.587277, 2.2757e-06, 0.000104381, -0.00105097, 0.0096862, 0.00487083, 0.000815737, 3.99713e-05, 6.762e-05, 0.000440985
0.00414439, 0.00677334, -0.587279, 2.53264e-06, 0.000103637, -0.00104756, 0.0096615, 0.00486371, 0.000813905, 3.98694e-05, 6.73039e-05, 0.000440175
0.0041255, 0.0067668, -0.587281, 2.78756e-06, 0.000102875, -0.00104411, 0.0096373, 0.00485667, 0.000812145, 3.97686e-05, 6.69925e-05, 0.000439377
0.00410453, 0.00676043, -0.587282, 3.04461e-06, 0.000102112, -0.00104069, 0.00961338, 0.00484978, 0.000810402, 3.96688e-05, 6.66862e-05, 0.000438593
0.00407897, 0.00675268, -0.587283, 3.31617e-06, 0.000101352, -0.00103724, 0.00958953, 0.00484304, 0.000808668, 3.95694e-05, 6.63848e-05, 0.00043782
0.00405115, 0.0067459, -0.587283, 3.59399e-06, 0.000100573, -0.00103373, 0.00956571, 0.00483645, 0.00080693, 3.94705e-05, 6.60881e-05, 0.000437058
0.00402496, 0.00673957, -0.587284, 3.86045e-06, 9.98253e-05, -0.0010304, 0.00954152, 0.00483007, 0.000805128, 3.93711e-05, 6.57959e-05, 0.000436304
0.00398831, 0.00673282, -0.587283, 4.18115e-06, 9.89811e-05, -0.00102658, 0.00951656, 0.00482387, 0.00080324, 3.92706e-05, 6.55077e-05, 0.000435554
0.00395158, 0.00672513, -0.587282, 4.49369e-06, 9.82023e-05, -0.001023, 0.00949083, 0.00481783, 0.000801273, 3.91692e-05, 6.52226e-05, 0.000434808
0.0039143, 0.00671768, -0.587282, 4.81254e-06, 9.74158e-05, -0.00101937, 0.00946434, 0.00481195, 0.000799229, 3.90675e-05, 6.49402e-05, 0.000434068
0.00386947, 0.0067086, -0.58728, 5.16536e-06, 9.66061e-05, -0.00101557, 0.00943698, 0.00480619, 0.0007971, 3.89654e-05, 6.46597e-05, 0.000433332
0.0038205, 0.00669822, -0.587279, 5.53683e-06, 9.57992e-05, -0.00101169, 0.0094088, 0.00480051, 0.000794897, 3.88633e-05, 6.438e-05, 0.0004326
0.00377351, 0.00669019, -0.587278, 5.91035e-06, 9.4935e-05, -0.00100763, 0.00938023, 0.00479494, 0.000792644, 3.87624e-05, 6.41009e-05, 0.000431877
0.00372936, 0.0066818, -0.587277, 6.26619e-06, 9.41409e-05, -0.00100387, 0.00935137, 0.00478945, 0.000790349, 3.86632e-05, 6.38222e-05, 0.000431165
0.00367746, 0.00667272, -0.587275, 6.65478e-06, 9.33058e-05, -0.000999864, 0.0093222, 0.00478404, 0.000788013, 3.85656e-05, 6.35426e-05, 0.000430462
0.00362712, 0.00666518, -0.587273, 7.0365e-06, 9.24651e-05, -0.000995903, 0.00929298, 0.00477869, 0.000785653, 3.84704e-05, 6.32613e-05, 0.000429769
0.00357946, 0.00665768, -0.587272, 7.41339e-06, 9.16386e-05, -0.000991979, 0.00926394, 0.0047734, 0.000783282, 3.83779e-05, 6.29774e-05, 0.000429084
0.00353591, 0.0066537, -0.58727, 7.77679e-06, 9.07642e-05, -0.000987976, 0.00923543, 0.00476816, 0.000780917, 3.82886e-05, 6.269e-05, 0.000428408
0.00349999, 0.00665121, -0.587269, 8.12536e-06, 8.98758e-05, -0.000983975, 0.00920789, 0.004763, 0.00077858, 3.82029e-05, 6.23984e-05, 0.000427737
0.0034662, 0.00665063, -0.587267, 8.48497e-06, 8.88968e-05, -0.000979655, 0.00918174, 0.00475794, 0.000776297, 3.81207e-05, 6.21026e-05, 0.000427067
0.00343184, 0.00664925, -0.587267, 8.84114e-06, 8.79492e-05, -0.000975438, 0.00915723, 0.004753, 0.000774094, 3.80422e-05, 6.18048e-05, 0.000426404
0.00340687, 0.00664888, -0.587267, 9.16914e-06, 8.70153e-05, -0.000971339, 0.00913445, 0.00474818, 0.000771987, 3.79676e-05, 6.15069e-05, 0.000425752
0.00338479, 0.00665119, -0.587267, 9.4867e-06, 8.60273e-05, -0.000967112, 0.00911344, 0.0047435, 0.000769982, 3.78969e-05, 6.12106e-05, 0.000425115
0.00336718, 0.00665587, -0.587267, 9.77885e-06, 8.50268e-05, -0.000962965, 0.00909414, 0.00473896, 0.000768084, 3.78299e-05, 6.09163e-05, 0.000424493
0.00335609, 0.00666241, -0.587267, 1.00407e-05, 8.40369e-05, -0.000958964, 0.00907635, 0.00473455, 0.000766294, 3.77666e-05, 6.06263e-05, 0.000423893
0.00334547, 0.00666797, -0.587268, 1.02986e-05, 8.30761e-05, -0.000955063, 0.00905991, 0.00473024, 0.000764594, 3.77067e-05, 6.03384e-05, 0.000423308
0.00333663, 0.0066737, -0.587268, 1.05429e-05, 8.21363e-05, -0.000951268, 0.0090447, 0.00472604, 0.000762977, 3.76497e-05, 6.0052e-05, 0.000422734
0.00332905, 0.00668, -0.587269, 1.07744e-05, 8.12057e-05, -0.000947554, 0.00903069, 0.00472193, 0.00076144, 3.75957e-05, 5.9768e-05, 0.000422172
0.00332095, 0.00668586, -0.58727, 1.10075e-05, 8.0273e-05, -0.000943813, 0.00901777, 0.00471791, 0.000759983, 3.75444e-05, 5.94876e-05, 0.000421625
0.00331783, 0.00669284, -0.587272, 1.12252e-05, 7.93081e-05, -0.000940002, 0.00900593, 0.00471399, 0.000758589, 3.74958e-05, 5.92095e-05, 0.000421087
0.00331504, 0.00670009, -0.587273, 1.14241e-05, 7.8388e-05, -0.000936373, 0.00899516, 0.00471017, 0.000757259, 3.74497e-05, 5.8935e-05, 0.000420558
0.00331429, 0.00670718, -0.587275, 1.16071e-05, 7.74919e-05, -0.000932854, 0.00898541, 0.00470645, 0.000755996, 3.7406e-05, 5.86657e-05, 0.000420042
0.00331119, 0.00671307, -0.587276, 1.17872e-05, 7.66419e-05, -0.000929499, 0.0089765, 0.00470281, 0.0007548, 3.73642e-05, 5.84024e-05, 0.000419544
0.00331228, 0.00672033, -0.587278, 1.1951e-05, 7.57541e-05, -0.000926041, 0.00896842, 0.00469924, 0.000753644, 3.73244e-05, 5.81417e-05, 0.000419046
0.00331028, 0.00672433, -0.58728, 1.21118e-05, 7.49487e-05, -0.000922823, 0.00896114, 0.00469575, 0.000752544, 3.7286e-05, 5.78872e-05, 0.000418559
0.00330946, 0.00672863, -0.587283, 1.22783e-05, 7.40478e-05, -0.000919271, 0.00895451, 0.0046923, 0.000751494, 3.72493e-05, 5.76394e-05, 0.000418084
0.00331042, 0.00673146, -0.587286, 1.24241e-05, 7.31964e-05, -0.000915838, 0.00894853, 0.0046889, 0.000750482, 3.72138e-05, 5.7397e-05, 0.000417612
0.00330846, 0.00673306, -0.587288, 1.25686e-05, 7.23798e-05, -0.000912534, 0.00894312, 0.00468552, 0.000749525, 3.71797e-05, 5.71636e-05, 0.000417157
0.00330743, 0.00673408, -0.587291, 1.26897e-05, 7.16273e-05, -0.000909552, 0.00893817, 0.00468217, 0.000748614, 3.7147e-05, 5.69386e-05, 0.000416722
0.00330647, 0.00673427, -0.587294, 1.281e-05, 7.08726e-05, -0.000906462, 0.00893364, 0.00467881, 0.000747732, 3.71153e-05, 5.67188e-05, 0.00041629
0.00330268, 0.00673054, -0.587297, 1.29235e-05, 7.01996e-05, -0.000903641, 0.00892949, 0.00467544, 0.000746885, 3.70843e-05, 5.65051e-05, 0.000415865
0.00329991, 0.00672759, -0.587301, 1.30271e-05, 6.95138e-05, -0.000900787, 0.00892566, 0.00467204, 0.000746076, 3.70543e-05, 5.62989e-05, 0.000415454
0.0032974, 0.00672341, -0.587304, 1.31184e-05, 6.88697e-05, -0.000898037, 0.0089221, 0.00466862, 0.000745296, 3.7025e-05, 5.60982e-05, 0.00041505
0.00329065, 0.00671641, -0.587308, 1.32377e-05, 6.81119e-05, -0.00089469, 0.00891873, 0.00466507, 0.000744538, 3.69956e-05, 5.5901e-05, 0.000414637
0.00327348, 0.00670081, -0.587313, 1.33791e-05, 6.73835e-05, -0.000891246, 0.00891538, 0.00466133, 0.000743826, 3.69661e-05, 5.57107e-05, 0.000414222
0.00325568, 0.00668626, -0.587317, 1.34997e-05, 6.67431e-05, -0.000888245, 0.008912, 0.00465742, 0.000743176, 3.69371e-05, 5.55307e-05, 0.000413832
0.00323349, 0.00666832, -0.587321, 1.36106e-05, 6.61748e-05, -0.000885459, 0.00890845, 0.00465331, 0.000742574, 3.69083e-05, 5.53572e-05, 0.00041345
0.00320189, 0.00664475, -0.587326, 1.37366e-05, 6.56172e-05, -0.000882496, 0.00890443, 0.00464884, 0.000742032, 3.68789e-05, 5.51895e-05, 0.000413066
0.00316414, 0.00661866, -0.58733, 1.38453e-05, 6.50793e-05, -0.000879681, 0.00889974, 0.00464394, 0.000741561, 3.68498e-05, 5.50307e-05, 0.000412709
0.00312404, 0.00659067, -0.587334, 1.39178e-05, 6.46774e-05, -0.000877548, 0.00889459, 0.00463869, 0.000741133, 3.68215e-05, 5.48784e-05, 0.00041238
0.00308123, 0.00656137, -0.587337, 1.398e-05, 6.43018e-05, -0.000875521, 0.00888897, 0.00463311, 0.000740732, 3.67932e-05, 5.47289e-05, 0.000412057
0.00303152, 0.00652896, -0.587341, 1.40494e-05, 6.39078e-05, -0.000873347, 0.00888262, 0.00462711, 0.000740364, 3.67647e-05, 5.45815e-05, 0.000411736
0.00297567, 0.00649329, -0.587345, 1.41085e-05, 6.35548e-05, -0.000871318, 0.00887549, 0.00462066, 0.000740028, 3.67365e-05, 5.44365e-05, 0.000411422
0.00291902, 0.00645791, -0.587348, 1.41557e-05, 6.32438e-05, -0.0008695, 0.00886762, 0.0046138, 0.000739717, 3.67082e-05, 5.42927e-05, 0.000411113
0.00285241, 0.00641746, -0.587352, 1.42023e-05, 6.29495e-05, -0.00086767, 0.00885883, 0.0046065, 0.000739435, 3.66797e-05, 5.41493e-05, 0.000410802
0.00278104, 0.00637577, -0.587355, 1.42312e-05, 6.26659e-05, -0.000865823, 0.0088488, 0.00459868, 0.000739187, 3.66508e-05, 5.40061e-05, 0.000410491
0.00270628, 0.00633359, -0.587358, 1.42523e-05, 6.242e-05, -0.000864152, 0.0088373, 0.00459028, 0.000738972, 3.66216e-05, 5.38626e-05, 0.000410181
0.00261946, 0.00628648, -0.587361, 1.42623e-05, 6.21777e-05, -0.000862452, 0.00882428, 0.00458133, 0.000738788, 3.65922e-05, 5.37181e-05, 0.00040987
0.00252843, 0.00623883, -0.587363, 1.42609e-05, 6.19487e-05, -0.000860803, 0.00880964, 0.00457186, 0.000738631, 3.65626e-05, 5.35723e-05, 0.000409558
0.00243169, 0.00618976, -0.587365, 1.42449e-05, 6.17264e-05, -0.000859193, 0.00879339, 0.00456189, 0.000738498, 3.65328e-05, 5.34247e-05, 0.000409243
0.00231907, 0.00613436, -0.587367, 1.42306e-05, 6.15208e-05, -0.000857571, 0.00877546, 0.00455153, 0.000738392, 3.65027e-05, 5.32752e-05, 0.000408924
0.00220134, 0.0060791, -0.587368, 1.41984e-05, 6.12951e-05, -0.000855856, 0.00875524, 0.0045406, 0.000738313, 3.64723e-05, 5.3123e-05, 0.000408599
0.00208483, 0.006026, -0.587369, 1.41531e-05, 6.10845e-05, -0.000854296, 0.00873279, 0.00452904, 0.00073825, 3.64419e-05, 5.29681e-05, 0.00040827
0.00196906, 0.00597439, -0.58737, 1.41031e-05, 6.08671e-05, -0.000852756, 0.00870882, 0.0045171, 0.000738199, 3.64116e-05, 5.28112e-05, 0.000407936
0.00185068, 0.00592257, -0.58737, 1.40457e-05, 6.06707e-05, -0.000851325, 0.00868392, 0.00450506, 0.000738159, 3.63815e-05, 5.26532e-05, 0.000407597
0.00173479, 0.00587316, -0.587371, 1.39846e-05, 6.04524e-05, -0.000849817, 0.0086577, 0.00449279, 0.000738127, 3.63516e-05, 5.24934e-05, 0.000407253
0.00162217, 0.00582566, -0.587371, 1.39241e-05, 6.02215e-05, -0.000848329, 0.00863083, 0.00448035, 0.000738098, 3.63219e-05, 5.23328e-05, 0.000406905
0.00151279, 0.00578005, -0.58737, 1.38689e-05, 5.99648e-05, -0.000846745, 0.00860424, 0.00446815, 0.000738071, 3.62926e-05, 5.21726e-05, 0.000406555
0.00140436, 0.00573507, -0.58737, 1.38186e-05, 5.96944e-05, -0.000845122, 0.00857773, 0.00445609, 0.000738047, 3.62636e-05, 5.20126e-05, 0.000406203
0.00130249, 0.00569353, -0.58737, 1.37705e-05, 5.9403e-05, -0.000843444, 0.00855145, 0.00444422, 0.000738024, 3.6235e-05, 5.1853e-05, 0.000405849
0.00120142, 0.00565266, -0.587369, 1.37322e-05, 5.90841e-05, -0.000841656, 0.0085255, 0.00443261, 0.000738002, 3.62067e-05, 5.16942e-05, 0.000405494
0.00110249, 0.00561273, -0.587369, 1.36987e-05, 5.87595e-05, -0.00083986, 0.00849986, 0.00442123, 0.000737982, 3.61788e-05, 5.15362e-05, 0.000405138
0.00100736, 0.00557476, -0.587368, 1.36756e-05, 5.84013e-05, -0.000837936, 0.00847468, 0.00441013, 0.000737962, 3.61514e-05, 5.13792e-05, 0.000404781
0.000910353, 0.00553621, -0.587368, 1.36584e-05, 5.80336e-05, -0.000835964, 0.00844969, 0.00439928, 0.000737944, 3.61242e-05, 5.12231e-05, 0.000404424
0.000815997, 0.0054991, -0.587367, 1.36467e-05, 5.7656e-05, -0.000833972, 0.00842467, 0.00438858, 0.000737928, 3.60975e-05, 5.10675e-05, 0.000404065
0.000723439, 0.00546298, -0.587366, 1.36382e-05, 5.72734e-05, -0.000831966, 0.00839971, 0.00437807, 0.000737912, 3.60711e-05, 5.09127e-05, 0.000403705
0.00062835, 0.00542581, -0.587365, 1.36407e-05, 5.68769e-05, -0.000829924, 0.00837486, 0.00436771, 0.000737897, 3.60451e-05, 5.07587e-05, 0.000403343
0.000538063, 0.0053912, -0.587365, 1.36401e-05, 5.64696e-05, -0.000827822, 0.00835013, 0.00435755, 0.000737882, 3.60196e-05, 5.06057e-05, 0.000402982
0.000448299, 0.00535725, -0.587363, 1.36418e-05, 5.60383e-05, -0.000825627, 0.00832535, 0.00434751, 0.000737867, 3.59945e-05, 5.04534e-05, 0.000402619
0.000361091, 0.0053241, -0.587362, 1.36525e-05, 5.56013e-05, -0.000823425, 0.00830072, 0.00433757, 0.000737852, 3.59698e-05, 5.03021e-05, 0.000402255
0.000275668, 0.00529151, -0.587361, 1.36693e-05, 5.51705e-05, -0.000821283, 0.0082764, 0.0043278, 0.000737838, 3.59456e-05, 5.01522e-05, 0.000401892
0.000196199, 0.00526132, -0.58736, 1.36953e-05, 5.47226e-05, -0.000819118, 0.00825242, 0.00431815, 0.000737823, 3.59219e-05, 5.00037e-05, 0.000401528
0.000126159, 0.005235, -0.58736, 1.37256e-05, 5.4246e-05, -0.000816882, 0.00822958, 0.00430869, 0.000737808, 3.58989e-05, 4.98574e-05, 0.000401166
6.15076e-05, 0.00520999, -0.587359, 1.37649e-05, 5.3776e-05, -0.000814695, 0.00820853, 0.00429965, 0.000737791, 3.58765e-05, 4.97143e-05, 0.00040081
-1.81083e-06, 0.0051847, -0.587358, 1.38149e-05, 5.32986e-05, -0.000812508, 0.00818924, 0.00429105, 0.000737773, 3.58548e-05, 4.95744e-05, 0.000400458
-5.68786e-05, 0.00516258, -0.587358, 1.38687e-05, 5.2816e-05, -0.000810302, 0.00817166, 0.00428287, 0.00073775, 3.58338e-05, 4.94373e-05, 0.000400112
-0.000110859, 0.00513995, -0.587358, 1.39207e-05, 5.23627e-05, -0.000808219, 0.00815572, 0.00427509, 0.000737721, 3.58134e-05, 4.93029e-05, 0.00039977
-0.000163059, 0.00511774, -0.587358, 1.39858e-05, 5.1871e-05, -0.000805965, 0.00814109, 0.00426767, 0.000737685, 3.57935e-05, 4.91706e-05, 0.000399432
-0.000209072, 0.00509794, -0.587358, 1.40544e-05, 5.13885e-05, -0.000803778, 0.00812766, 0.00426054, 0.000737642, 3.5774e-05, 4.90401e-05, 0.000399096
-0.000253918, 0.00507798, -0.587358, 1.41255e-05, 5.0901e-05, -0.000801602, 0.00811555, 0.00425373, 0.000737589, 3.57551e-05, 4.8911e-05, 0.000398763
-0.000298785, 0.00505742, -0.587358, 1.42061e-05, 5.04008e-05, -0.000799359, 0.00810428, 0.00424714, 0.000737528, 3.57366e-05, 4.87829e-05, 0.00039843
-0.000342518, 0.00503696, -0.587358, 1.42845e-05, 4.99112e-05, -0.00079713, 0.00809367, 0.00424072, 0.000737461, 3.57186e-05, 4.86553e-05, 0.000398096
-0.000380943, 0.0050189, -0.587359, 1.43641e-05, 4.94216e-05, -0.00079492, 0.00808384, 0.0042345, 0.000737385, 3.5701e-05, 4.8528e-05, 0.00039776
-0.000413633, 0.00500371, -0.587359, 1.44423e-05, 4.89335e-05, -0.000792722, 0.0080749, 0.00422855, 0.000737298, 3.56839e-05, 4.84006e-05, 0.000397422
-0.000446882, 0.0049876, -0.58736, 1.45215e-05, 4.84495e-05, -0.000790545, 0.00806679, 0.00422286, 0.000737201, 3.56672e-05, 4.82727e-05, 0.000397082
-0.000474315, 0.00497467, -0.58736, 1.46056e-05, 4.795e-05, -0.000788317, 0.00805936, 0.00421739, 0.000737093, 3.5651e-05, 4.81438e-05, 0.000396736
-0.000504305, 0.00495985, -0.587361, 1.46933e-05, 4.74363e-05, -0.000786013, 0.00805256, 0.00421213, 0.000736977, 3.56352e-05, 4.80135e-05, 0.000396384
-0.000529449, 0.00494813, -0.587361, 1.47882e-05, 4.68914e-05, -0.000783598, 0.00804624, 0.00420705, 0.000736852, 3.56198e-05, 4.78812e-05, 0.000396024
-0.000559872, 0.00493339, -0.587362, 1.48869e-05, 4.63147e-05, -0.000781044, 0.00804021, 0.0042021, 0.000736721, 3.56047e-05, 4.77464e-05, 0.000395654
-0.000590096, 0.00491832, -0.587362, 1.50001e-05, 4.57312e-05, -0.000778432, 0.00803431, 0.00419724, 0.00073659, 3.55899e-05, 4.76087e-05, 0.000395272
-0.000624964, 0.00490112, -0.587363, 1.51115e-05, 4.51309e-05, -0.000775736, 0.00802842, 0.00419248, 0.000736463, 3.55754e-05, 4.74681e-05, 0.000394877
-0.000656659, 0.004886, -0.587364, 1.52193e-05, 4.45541e-05, -0.000773109, 0.00802268, 0.0041879, 0.000736342, 3.55613e-05, 4.73251e-05, 0.000394472
-0.000690806, 0.00487001, -0.587364, 1.53473e-05, 4.39222e-05, -0.000770289, 0.00801693, 0.00418344, 0.000736227, 3.55475e-05, 4.71791e-05, 0.000394053
-0.00073192, 0.00485109, -0.587365, 1.54756e-05, 4.3248e-05, -0.000767175, 0.00801102, 0.00417904, 0.000736122, 3.5534e-05, 4.70305e-05, 0.00039362
-0.0007737, 0.00483237, -0.587366, 1.56009e-05, 4.25799e-05, -0.000764086, 0.00800505, 0.00417473, 0.000736025, 3.55209e-05, 4.68803e-05, 0.000393176
-0.00081554, 0.00481461, -0.587366, 1.57294e-05, 4.18782e-05, -0.000760754, 0.00799898, 0.0041705, 0.000735936, 3.55083e-05, 4.67284e-05, 0.000392719
-0.000857009, 0.00479791, -0.587366, 1.58586e-05, 4.11594e-05, -0.00075733, 0.00799285, 0.00416634, 0.000735854, 3.54961e-05, 4.65751e-05, 0.000392252
-0.00090385, 0.00477901, -0.587367, 1.59887e-05, 4.04173e-05, -0.000753789, 0.00798658, 0.00416221, 0.000735777, 3.54841e-05, 4.64203e-05, 0.000391772
-0.000954972, 0.00475828, -0.587367, 1.61269e-05, 3.96588e-05, -0.000750083, 0.00797997, 0.00415803, 0.000735707, 3.54724e-05, 4.62643e-05, 0.000391279
-0.00100382, 0.00473904, -0.587367, 1.62586e-05, 3.89318e-05, -0.000746532, 0.00797327, 0.0041539, 0.000735643, 3.54611e-05, 4.61086e-05, 0.000390777
-0.00105471, 0.00471894, -0.587367, 1.63903e-05, 3.82134e-05, -0.000742974, 0.00796641, 0.00414979, 0.000735585, 3.54501e-05, 4.59525e-05, 0.000390264
-0.00111042, 0.00469684, -0.587367, 1.65217e-05, 3.74893e-05, -0.000739292, 0.00795921, 0.00414561, 0.000735531, 3.54392e-05, 4.57964e-05, 0.000389738
-0.00116463, 0.00467633, -0.587367, 1.66553e-05, 3.67413e-05, -0.00073548, 0.00795187, 0.00414143, 0.000735483, 3.54287e-05, 4.56419e-05, 0.000389207
-0.00121439, 0.00465774, -0.587367, 1.67772e-05, 3.60513e-05, -0.000731882, 0.00794451, 0.00413728, 0.000735438, 3.54185e-05, 4.54885e-05, 0.000388669
-0.00126746, 0.00463802, -0.587367, 1.69072e-05, 3.53298e-05, -0.000728071, 0.00793684, 0.00413305, 0.000735395, 3.54084e-05, 4.53354e-05, 0.000388119
-0.00132685, 0.0046148, -0.587367, 1.70413e-05, 3.4622e-05, -0.000724265, 0.00792889, 0.00412873, 0.000735357, 3.53984e-05, 4.5184e-05, 0.000387561
-0.00138984, 0.00458977, -0.587367, 1.7171e-05, 3.39257e-05, -0.000720346, 0.00792064, 0.00412431, 0.000735322, 3.53884e-05, 4.50349e-05, 0.000386997
-0.00145001, 0.00456603, -0.587366, 1.7306e-05, 3.32306e-05, -0.000716362, 0.00791216, 0.00411981, 0.000735292, 3.53787e-05, 4.48889e-05, 0.000386431
-0.00150704, 0.00454374, -0.587366, 1.74323e-05, 3.25597e-05, -0.000712448, 0.00790365, 0.00411529, 0.000735266, 3.53691e-05, 4.47461e-05, 0.000385865
-0.00156947, 0.00451818, -0.587366, 1.7562e-05, 3.19099e-05, -0.000708562, 0.00789488, 0.00411066, 0.000735242, 3.53596e-05, 4.46056e-05, 0.000385293
-0.00162823, 0.00449378, -0.587365, 1.76769e-05, 3.13175e-05, -0.000704863, 0.00788613, 0.00410602, 0.000735221, 3.53503e-05, 4.44686e-05, 0.000384724
-0.00168808, 0.00446907, -0.587365, 1.77967e-05, 3.06881e-05, -0.000700808, 0.00787735, 0.00410133, 0.000735203, 3.5341e-05, 4.43341e-05, 0.000384152
-0.00174481, 0.00444514, -0.587365, 1.79144e-05, 3.00971e-05, -0.000696939, 0.00786858, 0.00409662, 0.000735187, 3.53319e-05, 4.4202e-05, 0.000383579
-0.00180464, 0.00441945, -0.587364, 1.8031e-05, 2.95053e-05, -0.000692953, 0.00785981, 0.00409188, 0.000735173, 3.53227e-05, 4.40721e-05, 0.000383004
-0.001861, 0.00439487, -0.587364, 1.81438e-05, 2.89433e-05, -0.00068908, 0.00785112, 0.00408712, 0.00073516, 3.53136e-05, 4.39445e-05, 0.000382428
-0.00191839, 0.00436957, -0.587364, 1.8253e-05, 2.83815e-05, -0.000685042, 0.00784249, 0.00408235, 0.000735148, 3.53045e-05, 4.38187e-05, 0.000381849
-0.00198242, 0.00434047, -0.587364, 1.83711e-05, 2.78128e-05, -0.000680818, 0.00783375, 0.0040775, 0.000735137, 3.52952e-05, 4.36945e-05, 0.000381266
-0.00204519, 0.00431151, -0.587364, 1.84846e-05, 2.72733e-05, -0.000676672, 0.00782489, 0.00407256, 0.000735129, 3.52858e-05, 4.35729e-05, 0.000380685
-0.00210238, 0.00428459, -0.587364, 1.85881e-05, 2.67833e-05, -0.000672866, 0.00781619, 0.00406763, 0.000735121, 3.52766e-05, 4.34539e-05, 0.000380109
-0.00216608, 0.0042544, -0.587364, 1.87019e-05, 2.62451e-05, -0.000668635, 0.00780746, 0.00406265, 0.000735113, 3.52671e-05, 4.33362e-05, 0.00037953
-0.00223103, 0.00422277, -0.587364, 1.88169e-05, 2.57468e-05, -0.000664603, 0.00779852, 0.00405758, 0.000735108, 3.52575e-05, 4.32205e-05, 0.000378951
-0.00228688, 0.00419544, -0.587364, 1.89096e-05, 2.53162e-05, -0.000660895, 0.0077897, 0.0040525, 0.000735102, 3.52481e-05, 4.31071e-05, 0.000378379
-0.00234137, 0.00416865, -0.587364, 1.90076e-05, 2.48562e-05, -0.00065697, 0.00778093, 0.00404739, 0.000735095, 3.52385e-05, 4.29946e-05, 0.000377807
-0.00240765, 0.00413535, -0.587364, 1.91199e-05, 2.43801e-05, -0.000652791, 0.0077719, 0.00404218, 0.000735089, 3.52286e-05, 4.2883e-05, 0.00037723
-0.00247181, 0.00410317, -0.587364, 1.92204e-05, 2.39496e-05, -0.000648847, 0.00776253, 0.00403683, 0.000735084, 3.52185e-05, 4.27732e-05, 0.000376656
-0.00252909, 0.00407492, -0.587364, 1.93004e-05, 2.35566e-05, -0.000645035, 0.00775302, 0.0040314, 0.000735078, 3.52086e-05, 4.26651e-05, 0.00037609
-0.00258995, 0.00404444, -0.587363, 1.93835e-05, 2.31628e-05, -0.000641175, 0.0077434, 0.00402588, 0.000735072, 3.51986e-05, 4.25579e-05, 0.000375525
-0.00265666, 0.00401115, -0.587363, 1.94677e-05, 2.27826e-05, -0.000637292, 0.00773343, 0.00402027, 0.000735065, 3.51883e-05, 4.24512e-05, 0.000374958
-0.00272273, 0.00397845, -0.587363, 1.95534e-05, 2.23931e-05, -0.000633353, 0.00772291, 0.00401451, 0.00073506, 3.51779e-05, 4.23455e-05, 0.000374395
-0.00278401, 0.0039485, -0.587363, 1.96211e-05, 2.20407e-05, -0.000629638, 0.00771216, 0.00400861, 0.000735052, 3.51677e-05, 4.22407e-05, 0.000373839
-0.0028506, 0.00391596, -0.587362, 1.96925e-05, 2.16825e-05, -0.000625804, 0.00770115, 0.00400266, 0.000735044, 3.51571e-05, 4.21359e-05, 0.000373282
-0.00291542, 0.00388536, -0.587362, 1.97446e-05, 2.1371e-05, -0.000622151, 0.00768955, 0.00399656, 0.000735035, 3.51464e-05, 4.20315e-05, 0.000372727
-0.0029786, 0.00385551, -0.587361, 1.9799e-05, 2.10447e-05, -0.000618464, 0.00767742, 0.00399023, 0.000735025, 3.51358e-05, 4.19272e-05, 0.000372177
-0.00303974, 0.00382708, -0.587361, 1.98392e-05, 2.07535e-05, -0.00061499, 0.00766506, 0.00398378, 0.000735013, 3.5125e-05, 4.18228e-05, 0.000371629
