0.0398576, 0.00572328, -0.561003, -0.0020371, -0.00236149, 0.00138179, 0.0316228, 0.0316228, 0.0316228, 0.0316228, 0.0316228, 0.0316228
0.0398576, 0.00572328, -0.561003, -0.0020371, -0.00236149, 0.00138179, 0.0316228, 0.0316228, 0.0316228, 0.0316228, 0.0316228, 0.0316228
0.0398533, 0.00570524, -0.560984, -0.00206449, -0.00232659, 0.00139036, 0.0316014, 0.0316014, 0.0315965, 0.0315572, 0.031557, 0.0316186
0.0398536, 0.00567911, -0.561088, -0.00212886, -0.00231585, 0.00139299, 0.0315848, 0.0315848, 0.0315655, 0.031491, 0.0314906, 0.0316144
0.0398728, 0.00565758, -0.561503, -0.00220591, -0.00234071, 0.00139336, 0.0315719, 0.0315721, 0.0315285, 0.0314216, 0.0314207, 0.0316103
0.0399112, 0.00563413, -0.562195, -0.00233047, -0.00234719, 0.00138935, 0.0315622, 0.0315626, 0.0314846, 0.0313475, 0.0313458, 0.0316062
0.0399693, 0.00560383, -0.563167, -0.00256781, -0.0023604, 0.00138933, 0.0315551, 0.0315559, 0.0314337, 0.0312682, 0.0312648, 0.031602
0.0400541, 0.00558472, -0.564564, -0.00301047, -0.002445, 0.00138578, 0.0315502, 0.0315514, 0.0313763, 0.031183, 0.0311765, 0.0315968
0.0401549, 0.00561363, -0.566324, -0.0037803, -0.00260255, 0.00137296, 0.0315469, 0.0315483, 0.0313132, 0.0310885, 0.0310802, 0.0315875
0.0402737, 0.00574123, -0.568626, -0.00507139, -0.00291748, 0.00133522, 0.0315448, 0.0315461, 0.0312437, 0.0309788, 0.0309773, 0.0315687
0.0403768, 0.00599046, -0.571378, -0.00697063, -0.00345621, 0.00128735, 0.0315437, 0.0315441, 0.0311645, 0.0308474, 0.0308682, 0.0315351
0.0404625, 0.00638274, -0.574793, -0.00950798, -0.00427364, 0.0012274, 0.0315432, 0.031542, 0.0310729, 0.0306973, 0.0307559, 0.0314917
0.0405086, 0.00690485, -0.578932, -0.0124747, -0.00540423, 0.00117905, 0.0315429, 0.0315397, 0.0309679, 0.0305367, 0.0306396, 0.0314473
0.0404942, 0.00751488, -0.583827, -0.0156504, -0.0068848, 0.00116519, 0.0315428, 0.0315376, 0.0308514, 0.0303731, 0.0305139, 0.0314096
0.0404163, 0.0082271, -0.589775, -0.0189622, -0.00879597, 0.00114973, 0.0315428, 0.0315358, 0.0307273, 0.0302106, 0.0303792, 0.0313809
0.0400694, 0.00891896, -0.596328, -0.0217582, -0.0120211, 0.00123882, 0.0315425, 0.0315344, 0.0306103, 0.0300616, 0.0302225, 0.0313379
0.0391793, 0.00931666, -0.601684, -0.0229242, -0.0175815, 0.00141687, 0.0315403, 0.031534, 0.0305303, 0.0299501, 0.0300114, 0.0311452
0.0380162, 0.00938815, -0.604528, -0.0226244, -0.023927, 0.00103004, 0.0315349, 0.0315339, 0.0304967, 0.0298897, 0.0297354, 0.0306551
0.0370536, 0.00934753, -0.605752, -0.0221647, -0.0290061, 7.61462e-05, 0.031529, 0.0315338, 0.0304865, 0.0298603, 0.0294656, 0.0301217
0.0363923, 0.00931966, -0.606297, -0.022037, -0.0325569, -0.000992342, 0.0315249, 0.0315337, 0.0304834, 0.0298412, 0.0292573, 0.0297516
0.0358818, 0.00933741, -0.606846, -0.022278, -0.0352042, -0.00200862, 0.0315221, 0.0315337, 0.03048, 0.029816, 0.0290789, 0.0295256
0.0355131, 0.00940061, -0.607425, -0.0226496, -0.0369984, -0.00290953, 0.0315206, 0.0315336, 0.0304762, 0.0297775, 0.0289417, 0.0293984
0.0351921, 0.00950374, -0.608333, -0.0230032, -0.038091, -0.00367067, 0.0315195, 0.0315335, 0.0304678, 0.0297118, 0.0288022, 0.0293289
0.0348658, 0.0096408, -0.609904, -0.0231935, -0.0385636, -0.00420734, 0.0315186, 0.0315333, 0.0304481, 0.0295988, 0.0286239, 0.0292957
0.0345928, 0.0097673, -0.612042, -0.0228801, -0.0382905, -0.00440478, 0.031518, 0.031533, 0.0304155, 0.0294275, 0.0284078, 0.0292836
0.034395, 0.0098531, -0.614711, -0.0219659, -0.0375057, -0.00425159, 0.0315177, 0.0315324, 0.0303661, 0.0291929, 0.028151, 0.029278
0.0342655, 0.0098879, -0.617826, -0.0205903, -0.0365965, -0.00379756, 0.0315175, 0.0315315, 0.030295, 0.0289024, 0.0278623, 0.0292709
0.0341999, 0.00988243, -0.621018, -0.0189709, -0.0358296, -0.00303216, 0.0315172, 0.0315304, 0.0302056, 0.028582, 0.0275796, 0.0292568
0.0341758, 0.00985389, -0.623936, -0.0171333, -0.0350595, -0.0018727, 0.0315169, 0.0315294, 0.0301046, 0.028268, 0.0273294, 0.0292301
0.0341542, 0.00983927, -0.626671, -0.0153468, -0.0344312, -0.000392205, 0.0315166, 0.0315286, 0.0299889, 0.0279753, 0.0271144, 0.0291872
0.0341445, 0.00982813, -0.628561, -0.0136539, -0.0334328, 0.0014073, 0.0315165, 0.0315281, 0.0298822, 0.0277357, 0.0269429, 0.0291268
0.0341004, 0.00982146, -0.629777, -0.0120864, -0.0319614, 0.00342911, 0.0315164, 0.0315278, 0.0297773, 0.0275472, 0.0267967, 0.0290595
0.0340236, 0.0098356, -0.630795, -0.0108537, -0.0303437, 0.00550596, 0.0315163, 0.0315274, 0.029657, 0.0273869, 0.0266638, 0.0289933
0.0339009, 0.00984752, -0.631518, -0.00975956, -0.0283944, 0.00772566, 0.0315161, 0.031527, 0.0295334, 0.0272497, 0.026544, 0.028928
0.0337487, 0.00987566, -0.632218, -0.00885758, -0.0262297, 0.00999319, 0.0315159, 0.0315266, 0.0294018, 0.02712, 0.0264321, 0.0288661
0.033576, 0.00993095, -0.633024, -0.00814352, -0.023716, 0.0121053, 0.0315156, 0.0315262, 0.0292672, 0.0269918, 0.0263218, 0.0288135
0.0333942, 0.0100292, -0.634148, -0.0075785, -0.0207178, 0.0136678, 0.0315152, 0.0315258, 0.0291291, 0.0268681, 0.0262092, 0.0287784
0.0332455, 0.0101964, -0.636158, -0.00746997, -0.0174735, 0.0138904, 0.0315148, 0.0315256, 0.0289606, 0.0267436, 0.0260894, 0.0287646
0.0331328, 0.0104155, -0.639484, -0.00793552, -0.0141111, 0.0121169, 0.0315144, 0.0315253, 0.0287224, 0.026614, 0.0259598, 0.0287415
0.0330529, 0.0106241, -0.643792, -0.00874712, -0.0110741, 0.00838167, 0.0315139, 0.0315249, 0.0283719, 0.0264756, 0.0258249, 0.0286364
0.0329906, 0.0107662, -0.647746, -0.00959556, -0.0087764, 0.00400372, 0.0315135, 0.0315243, 0.0279345, 0.026337, 0.0257012, 0.0284101
0.0329301, 0.0108525, -0.650395, -0.0103141, -0.00716359, 0.000351536, 0.0315131, 0.0315234, 0.0275037, 0.0262124, 0.025599, 0.0281434
0.0328535, 0.0109395, -0.651851, -0.0110211, -0.00571994, -0.00252271, 0.0315127, 0.0315225, 0.0271354, 0.0261119, 0.0255125, 0.0279208
0.0327619, 0.0110291, -0.652589, -0.0117731, -0.00432995, -0.00482685, 0.0315123, 0.0315215, 0.0268288, 0.0260278, 0.025436, 0.0277481
0.0326585, 0.0111141, -0.653033, -0.0124804, -0.00297111, -0.00678092, 0.0315117, 0.0315205, 0.026565, 0.0259525, 0.0253637, 0.027614
0.0325205, 0.0112109, -0.653366, -0.013237, -0.00135731, -0.00874363, 0.0315111, 0.0315194, 0.0263267, 0.0258859, 0.0252872, 0.0275003
0.0323814, 0.0112957, -0.653716, -0.0138677, 0.000238663, -0.0106036, 0.0315103, 0.0315184, 0.0261021, 0.0258217, 0.0252105, 0.0274018
0.0322374, 0.0113816, -0.654162, -0.0142404, 0.00181458, -0.0123869, 0.0315095, 0.0315174, 0.0258747, 0.0257573, 0.0251324, 0.0273158
0.0320774, 0.0114862, -0.654689, -0.0143358, 0.00351522, -0.0142027, 0.0315085, 0.0315165, 0.0256325, 0.0256925, 0.0250505, 0.0272392
0.0319282, 0.0115993, -0.655257, -0.0140785, 0.00515267, -0.0158535, 0.0315076, 0.0315156, 0.0253708, 0.0256221, 0.0249682, 0.027175
0.0318146, 0.0117139, -0.655844, -0.0133258, 0.00649799, -0.0170543, 0.0315067, 0.0315151, 0.025081, 0.0255383, 0.0248889, 0.0271324
0.0317017, 0.0118592, -0.656561, -0.0119916, 0.00793814, -0.0179971, 0.0315059, 0.0315146, 0.0247334, 0.0254425, 0.0248017, 0.0271099
0.0316075, 0.0120166, -0.657245, -0.0101732, 0.00941904, -0.0186729, 0.0315052, 0.0315142, 0.0243317, 0.0253344, 0.0247018, 0.0270972
0.0315374, 0.0121801, -0.657655, -0.0079778, 0.0109093, -0.0191047, 0.0315046, 0.0315138, 0.0238827, 0.0252167, 0.0245867, 0.0270888
0.0314932, 0.0123405, -0.657483, -0.00548978, 0.0123149, -0.0193625, 0.0315041, 0.0315134, 0.0234048, 0.0250922, 0.0244566, 0.02708
0.0314928, 0.0124333, -0.656389, -0.00281945, 0.0129188, -0.0193994, 0.0315039, 0.0315133, 0.0229499, 0.0249531, 0.0243191, 0.0270651
0.031511, 0.0124756, -0.654487, -0.000184873, 0.0128469, -0.0193579, 0.0315038, 0.0315132, 0.0225389, 0.0248097, 0.0241795, 0.0270475
0.0315395, 0.0125036, -0.652128, 0.00229762, 0.0125223, -0.0192864, 0.0315037, 0.0315131, 0.0221641, 0.0246724, 0.0240423, 0.0270332
0.0315731, 0.0125384, -0.649603, 0.00443097, 0.0121888, -0.0192049, 0.0315036, 0.0315129, 0.0218166, 0.024546, 0.0239116, 0.027025
0.0315977, 0.0125821, -0.647087, 0.00616112, 0.011888, -0.0191208, 0.0315036, 0.0315127, 0.0214962, 0.0244296, 0.0237904, 0.0270202
0.0316058, 0.0126225, -0.644678, 0.00746763, 0.011506, -0.0190448, 0.0315035, 0.0315124, 0.0212098, 0.0243198, 0.0236802, 0.0270164
0.0315975, 0.0126642, -0.642461, 0.00839787, 0.0111182, -0.0190047, 0.0315034, 0.0315121, 0.0209488, 0.0242159, 0.0235804, 0.0270125
0.0315797, 0.0127153, -0.640496, 0.00901405, 0.0108855, -0.019035, 0.0315034, 0.0315118, 0.0206935, 0.0241197, 0.02349, 0.0270081
0.0315554, 0.0127767, -0.638712, 0.00942442, 0.0108631, -0.0191537, 0.0315033, 0.0315114, 0.020435, 0.0240314, 0.0234073, 0.0270026
0.0315279, 0.0128393, -0.637056, 0.00969919, 0.010961, -0.0193354, 0.0315033, 0.0315111, 0.0201769, 0.023949, 0.0233304, 0.0269964
0.0314976, 0.0129113, -0.635425, 0.00985349, 0.0112738, -0.0195701, 0.0315032, 0.0315107, 0.0199117, 0.0238738, 0.0232564, 0.0269888
0.0314664, 0.0129818, -0.633803, 0.00993519, 0.0116198, -0.0198251, 0.0315032, 0.0315104, 0.0196594, 0.0238004, 0.0231829, 0.0269809
0.0314339, 0.013052, -0.632221, 0.00990445, 0.0119187, -0.0200781, 0.0315031, 0.0315101, 0.0194251, 0.0237263, 0.0231071, 0.0269732
0.031394, 0.0131187, -0.630745, 0.00973009, 0.0120074, -0.0203507, 0.031503, 0.0315097, 0.0192165, 0.023648, 0.0230282, 0.0269658
0.0313401, 0.0131876, -0.62939, 0.00933678, 0.011878, -0.0206277, 0.0315029, 0.0315092, 0.0190255, 0.0235671, 0.0229471, 0.0269591
0.0312742, 0.0132648, -0.628064, 0.00882131, 0.0116599, -0.0209082, 0.0315027, 0.0315087, 0.0188416, 0.0234871, 0.022866, 0.0269519
0.0311793, 0.0133482, -0.626874, 0.00816949, 0.0111413, -0.0212463, 0.0315024, 0.0315081, 0.0186738, 0.0234028, 0.022785, 0.0269429
0.0310568, 0.0134386, -0.625794, 0.00745732, 0.0103443, -0.0216719, 0.031502, 0.0315075, 0.0185159, 0.0233162, 0.0227046, 0.0269305
0.030891, 0.0135399, -0.624807, 0.00669929, 0.00916747, -0.0222845, 0.0315015, 0.0315069, 0.0183708, 0.0232251, 0.0226232, 0.0269139
0.0307262, 0.0136421, -0.623831, 0.00592989, 0.00789671, -0.0230971, 0.0315011, 0.0315063, 0.0182236, 0.0231382, 0.0225428, 0.0268918
0.0305973, 0.0137418, -0.622604, 0.00530712, 0.00688825, -0.0240953, 0.0315008, 0.0315059, 0.0180641, 0.0230611, 0.0224657, 0.0268606
0.0304498, 0.0138516, -0.621335, 0.00469255, 0.00569871, -0.0254711, 0.0315006, 0.0315055, 0.0179136, 0.0229797, 0.0223902, 0.0268192
0.0303333, 0.013957, -0.619872, 0.00415781, 0.0046831, -0.0270027, 0.0315004, 0.0315053, 0.0177584, 0.0229042, 0.0223195, 0.0267692
0.0301971, 0.0140841, -0.618399, 0.00351609, 0.00353491, -0.0286694, 0.0315002, 0.031505, 0.0176145, 0.0228243, 0.0222507, 0.0267178
0.0300296, 0.014238, -0.617019, 0.00269637, 0.00208749, -0.030544, 0.0314999, 0.0315046, 0.0174852, 0.022737, 0.0221824, 0.0266645
0.0298965, 0.0143827, -0.615637, 0.00179137, 0.000723054, -0.032385, 0.0314997, 0.0315043, 0.0173569, 0.0226548, 0.0221177, 0.0266118
0.02981, 0.0145063, -0.614112, 0.00085371, -0.000270572, -0.0338599, 0.0314996, 0.0315041, 0.0172251, 0.0225827, 0.022058, 0.0265643
0.0297135, 0.0146393, -0.612628, -0.000224697, -0.00130197, -0.0354146, 0.0314995, 0.0315039, 0.0171032, 0.022506, 0.0219992, 0.0265163
0.0296087, 0.0147783, -0.611256, -0.00139939, -0.00248902, -0.0371817, 0.0314993, 0.0315037, 0.0169902, 0.0224223, 0.0219405, 0.0264645
0.0295469, 0.0148834, -0.609874, -0.00241287, -0.00353845, -0.0390377, 0.0314993, 0.0315036, 0.016876, 0.0223422, 0.0218858, 0.0264067
0.029502, 0.0149785, -0.608523, -0.00329592, -0.00454856, -0.0409013, 0.0314992, 0.0315035, 0.0167652, 0.0222615, 0.0218336, 0.0263488
0.0294787, 0.0150625, -0.60718, -0.00401114, -0.00546913, -0.0426195, 0.0314992, 0.0315034, 0.0166553, 0.0221828, 0.0217839, 0.0262959
0.0294597, 0.0151494, -0.605865, -0.00463748, -0.00630097, -0.0439474, 0.0314992, 0.0315033, 0.0165478, 0.0221066, 0.0217351, 0.0262592
0.0294176, 0.0152551, -0.604721, -0.00533808, -0.00722352, -0.0448985, 0.0314991, 0.0315031, 0.0164462, 0.0220283, 0.0216837, 0.0262381
0.0293798, 0.0153522, -0.603687, -0.00601649, -0.00804184, -0.0454798, 0.031499, 0.0315029, 0.0163428, 0.0219544, 0.0216317, 0.026227
0.0293641, 0.0154311, -0.602636, -0.00651462, -0.00851002, -0.0457368, 0.031499, 0.0315027, 0.016231, 0.0218902, 0.021581, 0.0262212
0.02935, 0.0155066, -0.601664, -0.00686865, -0.0087529, -0.0458239, 0.0314989, 0.0315023, 0.016113, 0.0218283, 0.0215276, 0.0262183
0.0293342, 0.015576, -0.600882, -0.00716397, -0.00880886, -0.0457845, 0.0314988, 0.0315018, 0.0159903, 0.0217673, 0.0214701, 0.0262157
0.0293284, 0.0156372, -0.600227, -0.00735234, -0.00849524, -0.0457341, 0.0314987, 0.0315011, 0.0158615, 0.0217118, 0.0214104, 0.0262078
0.029342, 0.0156877, -0.599758, -0.00745822, -0.00788129, -0.0458238, 0.0314985, 0.0315002, 0.0157296, 0.0216567, 0.0213469, 0.0261889
0.0293844, 0.0157229, -0.599489, -0.00749544, -0.00708728, -0.0460994, 0.0314982, 0.0314991, 0.0156008, 0.0215999, 0.021281, 0.0261556
0.0294567, 0.0157425, -0.599393, -0.00750734, -0.00620189, -0.046541, 0.0314977, 0.0314976, 0.0154796, 0.0215388, 0.0212125, 0.0261036
0.0295593, 0.0157547, -0.599386, -0.00753156, -0.00515966, -0.0471978, 0.0314969, 0.0314959, 0.0153681, 0.0214772, 0.0211438, 0.0260245
0.0296898, 0.015768, -0.599423, -0.00768505, -0.00395315, -0.0481221, 0.0314961, 0.031494, 0.0152715, 0.021417, 0.021076, 0.0258977
0.0298294, 0.0157848, -0.59948, -0.00804008, -0.00270658, -0.0492415, 0.031495, 0.031492, 0.0151923, 0.0213566, 0.0210093, 0.0257096
0.0299804, 0.0158189, -0.599466, -0.00846581, -0.00135696, -0.0505926, 0.0314941, 0.0314901, 0.0151271, 0.0213, 0.0209471, 0.0254694
0.0301354, 0.0158719, -0.599374, -0.00878602, -0.000101201, -0.0518928, 0.0314932, 0.0314883, 0.0150736, 0.0212421, 0.0208896, 0.0252221
0.030289, 0.015939, -0.599276, -0.00876212, 0.000969125, -0.0529599, 0.0314924, 0.0314867, 0.0150234, 0.0211808, 0.0208359, 0.0250344
0.030449, 0.016016, -0.599234, -0.00829257, 0.00194662, -0.0538365, 0.0314917, 0.0314851, 0.0149698, 0.0211197, 0.0207847, 0.0249216
0.030631, 0.0161033, -0.599254, -0.00746709, 0.00299192, -0.0545553, 0.0314911, 0.0314836, 0.0149105, 0.0210612, 0.0207331, 0.0248577
0.0308077, 0.0161783, -0.599386, -0.00644896, 0.00386088, -0.0549026, 0.0314904, 0.0314822, 0.0148485, 0.0209992, 0.020678, 0.0248304
0.0309626, 0.0162421, -0.599507, -0.0053808, 0.00448666, -0.0549382, 0.0314895, 0.0314807, 0.0147815, 0.020933, 0.0206176, 0.0248245
0.0310879, 0.0163044, -0.599487, -0.00433681, 0.00483536, -0.0548425, 0.0314886, 0.0314792, 0.0147059, 0.0208628, 0.0205524, 0.0248197
0.0311947, 0.0163757, -0.599256, -0.00339953, 0.00496354, -0.0547655, 0.0314876, 0.0314778, 0.0146209, 0.0207902, 0.0204836, 0.0247988
0.0313357, 0.0164782, -0.598924, -0.00272033, 0.0052359, -0.0547202, 0.0314865, 0.0314765, 0.0145278, 0.0207222, 0.0204135, 0.0247762
0.0314584, 0.0165974, -0.5984, -0.00240581, 0.00530881, -0.0549553, 0.0314852, 0.0314752, 0.0144336, 0.0206538, 0.0203431, 0.0247488
0.0315415, 0.016721, -0.597635, -0.00237316, 0.00499585, -0.0554028, 0.0314836, 0.0314739, 0.014343, 0.0205829, 0.0202757, 0.0247083
0.0316164, 0.0168447, -0.596744, -0.00251157, 0.00447801, -0.0558553, 0.0314817, 0.0314726, 0.0142536, 0.0205128, 0.020213, 0.024662
0.031717, 0.0169704, -0.595819, -0.00273963, 0.00395069, -0.0562452, 0.0314795, 0.0314712, 0.0141593, 0.0204467, 0.0201548, 0.0246181
0.031843, 0.0170972, -0.594849, -0.00300931, 0.00341165, -0.0566106, 0.0314769, 0.0314698, 0.014054, 0.0203836, 0.0201004, 0.0245747
0.0320112, 0.0172306, -0.593838, -0.00321419, 0.00295489, -0.0569918, 0.0314738, 0.0314684, 0.0139296, 0.0203244, 0.0200489, 0.0245365
0.032226, 0.0173752, -0.592773, -0.00330468, 0.00262976, -0.0574274, 0.0314701, 0.0314668, 0.0137791, 0.0202692, 0.0199992, 0.0245056
0.032497, 0.0175392, -0.591619, -0.00317294, 0.00245823, -0.0579678, 0.0314659, 0.0314653, 0.0135955, 0.0202172, 0.0199496, 0.0244765
0.0328203, 0.0177225, -0.590359, -0.00292082, 0.00234308, -0.0585877, 0.0314611, 0.0314636, 0.0133891, 0.0201666, 0.0198992, 0.0244463
0.0331904, 0.0179233, -0.588994, -0.00266532, 0.00222915, -0.0592311, 0.0314556, 0.0314619, 0.0131711, 0.0201169, 0.0198483, 0.0244175
0.033574, 0.0181285, -0.587567, -0.00255175, 0.00204145, -0.0598639, 0.0314496, 0.0314601, 0.0129512, 0.0200668, 0.0197969, 0.024392
0.033939, 0.0183217, -0.586217, -0.00258208, 0.00202176, -0.0603118, 0.031443, 0.0314583, 0.0127163, 0.0200198, 0.0197463, 0.0243758
0.034246, 0.0184802, -0.585075, -0.00275553, 0.00213221, -0.0606363, 0.0314361, 0.0314565, 0.012469, 0.0199746, 0.0196965, 0.0243616
0.0344771, 0.0185915, -0.584237, -0.0030379, 0.00247148, -0.0607465, 0.0314292, 0.0314549, 0.0122016, 0.0199331, 0.0196479, 0.0243478
0.0346593, 0.0186676, -0.58361, -0.00339055, 0.00289432, -0.060756, 0.0314226, 0.0314534, 0.0119297, 0.0198937, 0.0196003, 0.0243269
0.0348035, 0.0187194, -0.583135, -0.00384198, 0.00325899, -0.0606768, 0.0314162, 0.0314521, 0.0116677, 0.0198544, 0.0195534, 0.0242988
0.0349232, 0.0187558, -0.582741, -0.0042534, 0.00374889, -0.0604861, 0.0314103, 0.0314511, 0.0114059, 0.0198187, 0.0195073, 0.024262
0.0350416, 0.0187926, -0.582339, -0.00467038, 0.00411626, -0.0603256, 0.0314047, 0.0314502, 0.0111674, 0.0197816, 0.0194614, 0.0242191
0.0351501, 0.0188305, -0.581956, -0.00507349, 0.00425252, -0.0602523, 0.0313993, 0.0314494, 0.0109555, 0.0197402, 0.0194148, 0.0241707
0.035247, 0.0188657, -0.581615, -0.0054784, 0.00430203, -0.0601839, 0.0313942, 0.0314487, 0.0107654, 0.0196977, 0.0193685, 0.0241258
0.0353552, 0.0189033, -0.581251, -0.00588229, 0.00442249, -0.0600938, 0.0313893, 0.0314481, 0.0105939, 0.0196575, 0.0193233, 0.0240885
0.0354863, 0.0189475, -0.580835, -0.00630914, 0.00456169, -0.0600241, 0.0313845, 0.0314476, 0.0104435, 0.0196178, 0.019279, 0.0240571
0.0356587, 0.0190067, -0.58033, -0.00677808, 0.00463603, -0.0600257, 0.0313795, 0.031447, 0.0103147, 0.0195756, 0.0192352, 0.0240299
0.0358884, 0.01909, -0.579724, -0.00728343, 0.00457535, -0.0601271, 0.031374, 0.0314464, 0.010205, 0.0195287, 0.0191917, 0.0240053
0.0361901, 0.0192078, -0.579026, -0.0078271, 0.00429189, -0.0603469, 0.0313678, 0.0314457, 0.0101118, 0.0194744, 0.019148, 0.0239815
0.0365821, 0.0193611, -0.578236, -0.00838361, 0.00389481, -0.0606617, 0.031361, 0.0314448, 0.0100299, 0.019417, 0.0191052, 0.0239595
0.0370775, 0.0195476, -0.577349, -0.00887351, 0.00345149, -0.0611173, 0.0313539, 0.031444, 0.00995558, 0.019359, 0.0190638, 0.0239382
0.0376843, 0.0197722, -0.576363, -0.00924644, 0.00290139, -0.0617998, 0.0313464, 0.031443, 0.00988755, 0.0192993, 0.0190231, 0.0239153
0.0384213, 0.0200404, -0.575266, -0.00948094, 0.00223963, -0.0626699, 0.0313383, 0.031442, 0.00982313, 0.0192385, 0.0189824, 0.0238946
0.0393211, 0.0203628, -0.574018, -0.00960507, 0.00158529, -0.0633976, 0.0313295, 0.0314409, 0.00975902, 0.0191799, 0.0189419, 0.0238839
0.0403693, 0.0207361, -0.572636, -0.00966038, 0.000970094, -0.0639226, 0.0313198, 0.0314397, 0.00969629, 0.0191242, 0.0189015, 0.0238783
0.0415302, 0.0211553, -0.571191, -0.00974744, 0.000346883, -0.0642803, 0.0313094, 0.0314384, 0.00963658, 0.0190696, 0.0188605, 0.0238736
0.0427728, 0.0216055, -0.569713, -0.00986184, -0.000191921, -0.0643231, 0.0312981, 0.0314369, 0.00957809, 0.0190181, 0.0188194, 0.0238705
0.0440164, 0.0220634, -0.56832, -0.0100173, -0.000819983, -0.0646112, 0.0312865, 0.0314354, 0.00952435, 0.0189666, 0.0187773, 0.0238655
0.045252, 0.0225239, -0.566996, -0.0101416, -0.00144122, -0.0646932, 0.0312742, 0.0314338, 0.00947267, 0.0189169, 0.0187348, 0.0238618
0.0464137, 0.0229525, -0.565759, -0.010183, -0.0019034, -0.0646129, 0.0312618, 0.0314322, 0.00942221, 0.0188718, 0.0186917, 0.0238581
0.0474652, 0.0233408, -0.564654, -0.010162, -0.00220648, -0.0645, 0.0312493, 0.0314305, 0.00937468, 0.0188303, 0.0186475, 0.0238528
0.0483662, 0.0236766, -0.563739, -0.0101114, -0.00243842, -0.0645475, 0.0312368, 0.0314288, 0.00933192, 0.01879, 0.0186021, 0.0238455
0.0491533, 0.0239708, -0.562992, -0.0100847, -0.00254433, -0.0644826, 0.0312235, 0.031427, 0.009292, 0.0187517, 0.0185553, 0.0238374
0.0497866, 0.0242063, -0.562435, -0.0100807, -0.00261313, -0.0646054, 0.03121, 0.0314252, 0.00925729, 0.0187136, 0.0185076, 0.023827
0.0502495, 0.0243804, -0.562066, -0.0100583, -0.0028002, -0.0650298, 0.0311965, 0.0314233, 0.00922925, 0.0186724, 0.0184588, 0.0238039
0.0505586, 0.0244932, -0.561833, -0.00997935, -0.00293602, -0.0654141, 0.0311829, 0.0314215, 0.00920375, 0.018632, 0.0184099, 0.0237667
0.0507079, 0.0245427, -0.561727, -0.0098482, -0.00298999, -0.0656585, 0.0311695, 0.0314198, 0.00918107, 0.0185921, 0.018361, 0.023708
0.0506999, 0.0245356, -0.561735, -0.00965126, -0.00303961, -0.0657178, 0.0311568, 0.0314182, 0.00916248, 0.0185511, 0.0183117, 0.0236131
0.0505651, 0.0244728, -0.561816, -0.00937766, -0.00284666, -0.0652933, 0.0311447, 0.0314169, 0.00914462, 0.0185143, 0.0182632, 0.0234945
0.0503486, 0.0243766, -0.561939, -0.009037, -0.00247638, -0.06439, 0.0311336, 0.0314157, 0.00912937, 0.0184803, 0.0182152, 0.0233403
0.0500872, 0.0242724, -0.56208, -0.0087068, -0.00213454, -0.063183, 0.0311238, 0.0314147, 0.00911859, 0.0184453, 0.0181669, 0.0231478
0.0498376, 0.0241729, -0.562205, -0.00834465, -0.00168108, -0.0616099, 0.0311153, 0.031414, 0.00910962, 0.0184129, 0.0181196, 0.022924
0.049633, 0.0240953, -0.562294, -0.00791864, -0.00124987, -0.0598114, 0.0311088, 0.0314136, 0.00910352, 0.0183806, 0.0180736, 0.0226483
0.049489, 0.0240455, -0.562337, -0.00744411, -0.000865137, -0.0578737, 0.0311038, 0.0314133, 0.00909915, 0.0183481, 0.0180293, 0.0223269
0.0494057, 0.0240203, -0.562346, -0.00698955, -0.000474783, -0.0559382, 0.0310995, 0.0314132, 0.00909503, 0.0183172, 0.0179868, 0.0220018
0.0493293, 0.0240037, -0.562358, -0.0065798, -0.000251901, -0.0543559, 0.0310956, 0.031413, 0.00909199, 0.0182844, 0.0179453, 0.0216951
0.0492007, 0.0239768, -0.562409, -0.00620826, -0.000279188, -0.0532199, 0.0310917, 0.0314129, 0.00908948, 0.0182478, 0.0179041, 0.0214408
0.0490445, 0.023939, -0.562507, -0.00584512, -0.000405249, -0.0524178, 0.0310873, 0.0314128, 0.00908557, 0.0182109, 0.0178637, 0.021259
0.0490445, 0.023939, -0.562507, -0.00584512, -0.000405249, -0.0524178, 0.0310873, 0.0314128, 0.00908557, 0.0182109, 0.0178637, 0.021259
0.0485508, 0.0238397, -0.562715, -0.00555398, -0.00134167, -0.0521858, 0.0310751, 0.0314119, 0.00907176, 0.0181346, 0.0177926, 0.0211996
0.0481251, 0.0237393, -0.562936, -0.00553089, -0.00192894, -0.0520893, 0.0310592, 0.0314106, 0.00904732, 0.0180899, 0.0177432, 0.0211931
0.0477687, 0.0236431, -0.563154, -0.00563703, -0.00219822, -0.0521738, 0.0310394, 0.0314086, 0.00900578, 0.0180579, 0.0176999, 0.0211813
0.0474702, 0.0235664, -0.563287, -0.00586925, -0.00243066, -0.0522933, 0.0310142, 0.0314058, 0.00894792, 0.0180275, 0.0176577, 0.0211078
0.0472634, 0.0235323, -0.563269, -0.00619783, -0.0027936, -0.0521727, 0.0309858, 0.0314024, 0.00888151, 0.017994, 0.0176163, 0.020948
0.0471708, 0.0235357, -0.563136, -0.0065886, -0.00314452, -0.0518384, 0.0309594, 0.0313992, 0.00881448, 0.0179604, 0.0175771, 0.0207362
0.0471444, 0.0235524, -0.562994, -0.00693616, -0.00342746, -0.0514906, 0.0309385, 0.0313967, 0.00875456, 0.0179282, 0.0175406, 0.0205471
0.0471322, 0.0235651, -0.562904, -0.00717083, -0.00365737, -0.0512503, 0.0309227, 0.031395, 0.00870153, 0.0178971, 0.017506, 0.020403
0.0471306, 0.0235755, -0.562842, -0.00732144, -0.00383519, -0.0510863, 0.0309097, 0.0313937, 0.0086528, 0.017867, 0.0174729, 0.0202838
0.0471363, 0.0235896, -0.562765, -0.00742389, -0.00409451, -0.050852, 0.0308979, 0.0313927, 0.00860835, 0.0178347, 0.0174406, 0.0201767
0.0471676, 0.0236082, -0.562669, -0.00755681, -0.00429519, -0.0506175, 0.030887, 0.0313919, 0.00856606, 0.0178034, 0.0174095, 0.0200735
0.0472102, 0.0236267, -0.562565, -0.00768841, -0.00446971, -0.0503809, 0.0308769, 0.0313913, 0.00852505, 0.0177724, 0.0173793, 0.0199788
0.0472494, 0.0236401, -0.562476, -0.0077946, -0.00461514, -0.0501913, 0.0308676, 0.0313908, 0.00848444, 0.0177416, 0.0173497, 0.0198961
0.047284, 0.0236503, -0.562399, -0.00789725, -0.00473314, -0.0500432, 0.0308587, 0.0313904, 0.00844436, 0.017711, 0.0173207, 0.0198205
0.047319, 0.0236606, -0.562315, -0.00803215, -0.00486465, -0.0498846, 0.0308499, 0.0313901, 0.0084058, 0.0176795, 0.0172921, 0.0197454
0.0473467, 0.0236698, -0.562222, -0.00819142, -0.00508315, -0.0496848, 0.030841, 0.0313899, 0.00837037, 0.0176454, 0.0172638, 0.0196736
0.0473494, 0.0236749, -0.562182, -0.00834599, -0.00525311, -0.049592, 0.0308327, 0.0313897, 0.0083352, 0.0176121, 0.0172354, 0.0196117
0.047316, 0.0236753, -0.562193, -0.00843158, -0.00539817, -0.0495918, 0.0308245, 0.0313896, 0.00830018, 0.0175781, 0.0172066, 0.0195615
0.0472125, 0.0236709, -0.562272, -0.00840137, -0.0055744, -0.0496842, 0.0308162, 0.0313896, 0.00826504, 0.0175421, 0.0171771, 0.0195268
0.0470444, 0.0236696, -0.562428, -0.00832599, -0.00566933, -0.0498889, 0.0308079, 0.0313895, 0.00822974, 0.0175064, 0.017147, 0.0195
0.0468043, 0.023675, -0.562659, -0.0082032, -0.00567644, -0.0501668, 0.0307994, 0.0313895, 0.00819496, 0.0174704, 0.0171163, 0.0194801
0.0464949, 0.0236925, -0.562918, -0.00802392, -0.00574178, -0.0504226, 0.0307904, 0.0313894, 0.00816265, 0.0174308, 0.0170852, 0.019467
0.0461094, 0.0237255, -0.563242, -0.0078339, -0.00575627, -0.0506852, 0.0307811, 0.0313892, 0.00813154, 0.0173905, 0.0170535, 0.0194584
0.0456358, 0.0237784, -0.563663, -0.0075819, -0.00561602, -0.0508867, 0.0307718, 0.031389, 0.00810046, 0.017352, 0.0170216, 0.0194541
0.0450617, 0.0238608, -0.564191, -0.00721566, -0.00531216, -0.0508777, 0.0307624, 0.0313887, 0.00806871, 0.0173141, 0.0169889, 0.0194504
0.0444017, 0.023973, -0.564813, -0.00681389, -0.00481015, -0.050581, 0.0307528, 0.0313884, 0.00803647, 0.0172782, 0.0169558, 0.0194418
0.0436833, 0.024101, -0.565477, -0.00652808, -0.00417321, -0.0500613, 0.0307426, 0.0313879, 0.00800493, 0.0172444, 0.0169226, 0.01943
0.0429629, 0.0242361, -0.566112, -0.00642717, -0.00359972, -0.0494654, 0.0307314, 0.0313875, 0.00797496, 0.0172096, 0.0168894, 0.0194173
0.0422755, 0.0243672, -0.566715, -0.00646516, -0.00307684, -0.0488357, 0.03072, 0.0313869, 0.00794552, 0.0171747, 0.0168564, 0.0194028
0.0416441, 0.0244988, -0.567259, -0.00660948, -0.00269823, -0.0482358, 0.0307084, 0.0313862, 0.00791676, 0.0171379, 0.0168237, 0.0193843
0.0410615, 0.024616, -0.567786, -0.00683333, -0.00232881, -0.0476679, 0.0306976, 0.0313856, 0.00788829, 0.0171024, 0.0167917, 0.0193644
0.0405471, 0.0247341, -0.568234, -0.00713486, -0.00211438, -0.0472145, 0.0306871, 0.0313848, 0.00786164, 0.0170648, 0.0167604, 0.0193412
0.0400672, 0.0248491, -0.568653, -0.00746993, -0.00195427, -0.0468137, 0.0306773, 0.0313841, 0.0078362, 0.0170269, 0.0167299, 0.0193166
0.0396207, 0.0249624, -0.569042, -0.00779969, -0.001834, -0.0464378, 0.0306683, 0.0313833, 0.00781211, 0.0169888, 0.0167001, 0.0192905
0.0391911, 0.0250697, -0.569421, -0.00812274, -0.00169404, -0.0460767, 0.0306601, 0.0313826, 0.00778928, 0.0169519, 0.0166711, 0.0192649
0.0388137, 0.0251709, -0.569783, -0.00823903, -0.0014686, -0.0454988, 0.0306538, 0.0313818, 0.00776618, 0.0169158, 0.0166431, 0.0192298
0.0384669, 0.0252391, -0.570137, -0.00815865, -0.00101335, -0.0446813, 0.0306493, 0.031381, 0.00774245, 0.0168835, 0.0166158, 0.0191852
0.0381459, 0.0252969, -0.570465, -0.00813103, -0.000529996, -0.043907, 0.0306452, 0.0313802, 0.00772068, 0.0168517, 0.0165886, 0.0191381
0.0378781, 0.0253732, -0.570738, -0.00815299, -0.000209929, -0.0431952, 0.0306409, 0.0313794, 0.00770117, 0.0168164, 0.0165617, 0.0190817
0.0376517, 0.0254555, -0.570957, -0.0081876, -4.94673e-06, -0.042554, 0.0306368, 0.0313785, 0.00768381, 0.0167793, 0.0165351, 0.0190195
0.0374554, 0.025543, -0.571136, -0.0082407, 8.35406e-05, -0.0419979, 0.0306326, 0.0313776, 0.007668, 0.0167407, 0.0165089, 0.0189555
0.0372889, 0.0256182, -0.571286, -0.0082523, 0.00020794, -0.0414526, 0.0306291, 0.0313768, 0.00765415, 0.016704, 0.016483, 0.0188963
0.0371828, 0.0256642, -0.571372, -0.00807757, 0.000471385, -0.0408061, 0.0306267, 0.031376, 0.0076418, 0.0166703, 0.0164584, 0.0188347
0.0371255, 0.0256841, -0.571383, -0.00772908, 0.000863034, -0.0400713, 0.0306252, 0.0313753, 0.00763034, 0.0166389, 0.0164346, 0.0187678
0.0371053, 0.0256754, -0.571313, -0.00721649, 0.00136904, -0.0392565, 0.0306244, 0.0313746, 0.00761924, 0.0166093, 0.0164118, 0.0186938
0.0371067, 0.0256554, -0.571224, -0.00670867, 0.00186027, -0.0385428, 0.0306236, 0.031374, 0.00760884, 0.0165796, 0.0163889, 0.0186233
0.0371048, 0.0256323, -0.571144, -0.00626934, 0.00233354, -0.0379676, 0.0306227, 0.0313735, 0.00759936, 0.0165501, 0.0163655, 0.0185641
0.0370962, 0.0255981, -0.571044, -0.00582246, 0.00286166, -0.0374814, 0.0306218, 0.031373, 0.00759071, 0.0165218, 0.0163421, 0.0185142
0.0370875, 0.0255671, -0.570963, -0.00546722, 0.00335414, -0.0371627, 0.0306206, 0.0313725, 0.00758296, 0.0164931, 0.0163178, 0.0184777
0.0370748, 0.0255412, -0.570914, -0.00524055, 0.00376691, -0.0370047, 0.0306187, 0.031372, 0.00757572, 0.0164631, 0.0162919, 0.018455
0.0370533, 0.0255364, -0.570918, -0.00527619, 0.00399692, -0.0369794, 0.0306154, 0.0313713, 0.00756845, 0.0164306, 0.0162628, 0.0184462
0.0370011, 0.0255644, -0.570954, -0.00556436, 0.00411533, -0.0369213, 0.0306104, 0.0313703, 0.00755992, 0.0163975, 0.016231, 0.0184422
0.0369492, 0.0256024, -0.570994, -0.00589952, 0.00421249, -0.0368015, 0.0306053, 0.0313693, 0.00755025, 0.0163662, 0.0161993, 0.0184335
0.0369414, 0.0256317, -0.571002, -0.00616953, 0.00417975, -0.0366575, 0.0306006, 0.0313683, 0.00754096, 0.0163343, 0.0161681, 0.0184243
0.0369636, 0.0256286, -0.570992, -0.00621328, 0.00411978, -0.0366078, 0.0305973, 0.0313672, 0.0075322, 0.0163034, 0.0161391, 0.0184195
0.0370229, 0.0255917, -0.570964, -0.00598714, 0.00401572, -0.0366434, 0.0305954, 0.0313662, 0.00752345, 0.0162729, 0.0161122, 0.0184165
0.03712, 0.0255299, -0.570918, -0.00563362, 0.00376182, -0.0367065, 0.030594, 0.0313652, 0.00751475, 0.0162413, 0.0160858, 0.018412
0.0372094, 0.0254606, -0.57085, -0.00526262, 0.00355905, -0.0367939, 0.0305927, 0.0313641, 0.00750485, 0.0162119, 0.0160598, 0.0184073
0.0372979, 0.0253866, -0.570763, -0.00492528, 0.00335968, -0.0368736, 0.0305914, 0.031363, 0.00749411, 0.0161836, 0.0160334, 0.0184033
0.0374158, 0.0253058, -0.570663, -0.00469031, 0.00305085, -0.0369288, 0.0305896, 0.0313619, 0.00748335, 0.0161549, 0.0160055, 0.018401
0.0375447, 0.0252246, -0.57056, -0.00452781, 0.00253138, -0.036992, 0.0305876, 0.0313606, 0.00747318, 0.0161245, 0.0159765, 0.0183981
0.0376534, 0.0251469, -0.570473, -0.00431164, 0.00210977, -0.037074, 0.0305859, 0.0313593, 0.00746184, 0.0160971, 0.0159486, 0.0183953
0.0377455, 0.0250645, -0.570406, -0.00401494, 0.00180844, -0.0371798, 0.0305844, 0.0313581, 0.00744885, 0.016072, 0.0159215, 0.0183902
0.0378171, 0.0249794, -0.570348, -0.00360512, 0.00163325, -0.0373068, 0.0305831, 0.0313568, 0.00743393, 0.0160488, 0.0158955, 0.0183809
0.0378971, 0.0248861, -0.570294, -0.00310302, 0.0015081, -0.0374275, 0.0305819, 0.0313555, 0.00741797, 0.0160263, 0.01587, 0.0183683
0.0380436, 0.0247676, -0.570256, -0.0026117, 0.00126027, -0.0375092, 0.0305802, 0.0313542, 0.00740231, 0.0160026, 0.0158435, 0.0183559
0.0382451, 0.0246347, -0.570214, -0.00219476, 0.00100074, -0.0374912, 0.0305774, 0.0313527, 0.0073852, 0.0159792, 0.0158158, 0.0183402
0.0384862, 0.0244857, -0.570144, -0.0018728, 0.000707749, -0.0373683, 0.0305734, 0.0313512, 0.00736858, 0.0159563, 0.0157866, 0.018323
0.0387457, 0.0243139, -0.570088, -0.00159443, 0.000304759, -0.0372251, 0.0305686, 0.0313496, 0.00735246, 0.0159322, 0.015757, 0.0183046
0.0389921, 0.0242125, -0.569968, -0.001341, 0.000318847, -0.0368723, 0.0305638, 0.0313482, 0.0073323, 0.0159138, 0.0157292, 0.0182682
0.0391877, 0.0241543, -0.569787, -0.00116693, 0.000673775, -0.0364197, 0.0305589, 0.031347, 0.00731197, 0.0158994, 0.0157008, 0.0182106
0.0393502, 0.0240997, -0.56962, -0.00110726, 0.00109557, -0.0360534, 0.0305539, 0.0313459, 0.00729449, 0.015886, 0.0156709, 0.0181449
0.0395173, 0.0240377, -0.569449, -0.0012005, 0.00151097, -0.0357032, 0.0305484, 0.031345, 0.00727834, 0.0158725, 0.0156389, 0.0180586
0.0396926, 0.0239691, -0.569278, -0.00136939, 0.00186107, -0.0353487, 0.030543, 0.0313442, 0.00726329, 0.015858, 0.0156064, 0.0179595
0.0398883, 0.0238961, -0.569084, -0.00159382, 0.00214651, -0.0349085, 0.030538, 0.0313435, 0.00724848, 0.0158424, 0.0155742, 0.0178473
0.0401169, 0.0238127, -0.568858, -0.00185998, 0.00225715, -0.0342571, 0.0305331, 0.031343, 0.00723436, 0.0158237, 0.0155425, 0.0177334
0.0403593, 0.023716, -0.568609, -0.00214101, 0.00217331, -0.0334143, 0.0305284, 0.0313425, 0.0072214, 0.0158019, 0.0155121, 0.0176319
0.0406114, 0.0236111, -0.568345, -0.00242772, 0.00200135, -0.0324782, 0.0305242, 0.0313421, 0.00720954, 0.0157787, 0.0154835, 0.0175438
0.0408725, 0.0234937, -0.568062, -0.0027402, 0.00168292, -0.0314157, 0.0305201, 0.0313418, 0.00719909, 0.0157532, 0.0154561, 0.0174674
0.0411461, 0.0233771, -0.567776, -0.00308347, 0.00131827, -0.0303282, 0.0305164, 0.0313415, 0.00718959, 0.0157271, 0.01543, 0.017401
0.0414213, 0.0232724, -0.567501, -0.00342494, 0.000972211, -0.0293, 0.0305134, 0.0313413, 0.00718037, 0.0157015, 0.0154053, 0.0173457
0.041706, 0.0231729, -0.567213, -0.00380152, 0.000569088, -0.0282058, 0.0305105, 0.0313411, 0.0071714, 0.0156751, 0.0153816, 0.0172929
0.0419901, 0.0230882, -0.56694, -0.00419028, 0.000177002, -0.027179, 0.0305079, 0.0313409, 0.00716216, 0.015649, 0.0153589, 0.0172475
0.0422904, 0.0230241, -0.566693, -0.00459426, -0.000188083, -0.0261963, 0.0305054, 0.0313407, 0.00715231, 0.0156233, 0.015337, 0.0172054
0.0426672, 0.022993, -0.566486, -0.00505981, -0.000634481, -0.0251128, 0.0305021, 0.0313406, 0.00714179, 0.0155957, 0.0153155, 0.0171616
0.0432573, 0.023058, -0.566335, -0.00568992, -0.00131729, -0.0235541, 0.0304972, 0.0313401, 0.00713077, 0.0155631, 0.015295, 0.0171009
0.0441545, 0.0233039, -0.566282, -0.00650588, -0.0022504, -0.0213698, 0.0304904, 0.0313393, 0.00711836, 0.0155254, 0.0152765, 0.0170173
0.0453255, 0.0237032, -0.566397, -0.00739441, -0.00325122, -0.0188557, 0.0304821, 0.031338, 0.00710361, 0.0154883, 0.0152609, 0.0169232
0.046594, 0.0241801, -0.566651, -0.00823174, -0.00419035, -0.0164026, 0.0304735, 0.0313364, 0.00708648, 0.0154563, 0.0152479, 0.0168388
0.047796, 0.0247102, -0.566937, -0.00901806, -0.00507394, -0.014149, 0.030466, 0.0313348, 0.00706962, 0.0154288, 0.0152371, 0.0167688
0.0488438, 0.02522, -0.567245, -0.00973902, -0.00582818, -0.0122082, 0.0304602, 0.0313331, 0.00705379, 0.0154068, 0.015228, 0.0167118
0.0496742, 0.0256711, -0.567533, -0.0103929, -0.0064294, -0.0106172, 0.0304561, 0.0313315, 0.0070391, 0.0153894, 0.0152198, 0.0166667
0.050253, 0.0260391, -0.567766, -0.010955, -0.00687817, -0.00942024, 0.0304536, 0.0313297, 0.00702477, 0.0153755, 0.015212, 0.0166344
0.0506319, 0.026321, -0.567964, -0.0114584, -0.00716334, -0.00853191, 0.0304521, 0.0313276, 0.00701156, 0.0153638, 0.0152041, 0.0166075
0.0508445, 0.0266125, -0.568043, -0.0120781, -0.00742296, -0.00785496, 0.0304516, 0.0313255, 0.00700245, 0.0153503, 0.0151965, 0.0165829
0.0508238, 0.0270066, -0.567844, -0.013007, -0.00785599, -0.0074281, 0.0304514, 0.0313233, 0.00699712, 0.0153292, 0.0151887, 0.0165521
0.0506662, 0.0273638, -0.567523, -0.0138906, -0.00831756, -0.00726038, 0.0304509, 0.031321, 0.00699184, 0.0153035, 0.0151798, 0.0165195
0.050522, 0.0276086, -0.567289, -0.0143716, -0.008649, -0.00724725, 0.0304503, 0.0313183, 0.00698501, 0.0152757, 0.0151675, 0.0165
0.0505384, 0.0277722, -0.567306, -0.0142686, -0.00872244, -0.00724272, 0.030449, 0.0313152, 0.00697527, 0.0152467, 0.0151495, 0.0164953
0.0509239, 0.0279416, -0.567748, -0.0133667, -0.0082956, -0.00707146, 0.0304468, 0.0313109, 0.00696136, 0.0152199, 0.0151228, 0.016486
0.0517779, 0.0282498, -0.568588, -0.0117236, -0.00735778, -0.0065606, 0.0304433, 0.0313053, 0.00694146, 0.0151928, 0.0150865, 0.0164096
0.0530923, 0.0287897, -0.569723, -0.0095325, -0.00612531, -0.00578943, 0.0304389, 0.0312981, 0.00691557, 0.0151622, 0.0150471, 0.0162051
0.0547392, 0.0295826, -0.57102, -0.00715971, -0.00497279, -0.00523975, 0.0304341, 0.0312897, 0.0068869, 0.0151289, 0.0150157, 0.0159158
0.0566192, 0.0306007, -0.572458, -0.00480542, -0.00406287, -0.00513242, 0.0304288, 0.0312801, 0.00685574, 0.0150962, 0.0149964, 0.0156362
0.0585092, 0.031689, -0.573946, -0.00271665, -0.00356959, -0.00549144, 0.030423, 0.0312699, 0.00682554, 0.0150656, 0.0149853, 0.0154294
0.0603513, 0.0326699, -0.575422, -0.000849429, -0.00338091, -0.00597861, 0.0304167, 0.0312595, 0.00679312, 0.0150377, 0.0149784, 0.0152839
0.0619612, 0.033392, -0.576709, 0.000730426, -0.00342436, -0.006464, 0.03041, 0.0312495, 0.00676088, 0.0150128, 0.0149723, 0.0151853
0.0633201, 0.0338188, -0.577757, 0.00210297, -0.00358683, -0.00687742, 0.0304036, 0.0312405, 0.00672916, 0.0149908, 0.0149656, 0.0151166
0.0645087, 0.0339519, -0.578579, 0.00342059, -0.00374972, -0.00720333, 0.0303981, 0.0312328, 0.00669746, 0.0149713, 0.014958, 0.0150651
0.065524, 0.0338324, -0.579206, 0.00473616, -0.00392413, -0.00754061, 0.0303937, 0.0312261, 0.00666805, 0.014953, 0.0149491, 0.0150241
0.0663659, 0.0334782, -0.579629, 0.00605481, -0.00405159, -0.00789024, 0.0303902, 0.0312203, 0.00664218, 0.014936, 0.0149385, 0.0149905
0.0670302, 0.03294, -0.579826, 0.00731185, -0.00401743, -0.00820497, 0.0303873, 0.031215, 0.00662062, 0.014921, 0.0149264, 0.0149637
0.067524, 0.0322578, -0.579799, 0.00848584, -0.00369914, -0.00847826, 0.0303847, 0.0312102, 0.00660268, 0.0149084, 0.0149126, 0.0149425
0.0678699, 0.0314965, -0.579589, 0.00952218, -0.00304475, -0.00875305, 0.0303824, 0.0312054, 0.00658843, 0.0148978, 0.0148968, 0.0149263
0.068135, 0.0307188, -0.579281, 0.0103614, -0.00208229, -0.00909622, 0.0303804, 0.0312001, 0.00657785, 0.0148882, 0.0148784, 0.0149139
0.0684163, 0.0299399, -0.578962, 0.0109538, -0.000901243, -0.00956139, 0.0303785, 0.0311932, 0.00657079, 0.014878, 0.0148567, 0.014904
0.06874, 0.0291634, -0.578664, 0.0112292, 0.000484643, -0.0100975, 0.0303766, 0.0311835, 0.00656661, 0.0148668, 0.0148316, 0.0148961
0.069095, 0.0283948, -0.578389, 0.0111529, 0.00211855, -0.0106592, 0.0303744, 0.0311706, 0.00656434, 0.014855, 0.0148032, 0.0148892
0.0694878, 0.0276479, -0.578146, 0.0107205, 0.00398869, -0.0112318, 0.0303719, 0.031154, 0.00656315, 0.0148433, 0.0147721, 0.0148817
0.0699858, 0.0268431, -0.577965, 0.00999396, 0.00588838, -0.0117982, 0.030369, 0.0311327, 0.00656261, 0.0148307, 0.0147385, 0.0148714
0.0706241, 0.0258513, -0.577844, 0.00904572, 0.00764459, -0.0122673, 0.0303655, 0.0311064, 0.00656232, 0.0148165, 0.0147036, 0.0148569
0.0714371, 0.0244994, -0.577808, 0.00795121, 0.00901127, -0.0124157, 0.0303613, 0.0310754, 0.00656181, 0.014799, 0.0146677, 0.014838
0.0723387, 0.0229399, -0.577893, 0.00662231, 0.0101409, -0.0120168, 0.0303564, 0.0310422, 0.00656037, 0.0147792, 0.0146315, 0.0148148
0.0732925, 0.0213255, -0.578173, 0.0050346, 0.0110774, -0.010904, 0.030351, 0.0310084, 0.00655715, 0.0147574, 0.0145956, 0.0147868
0.0742666, 0.0198032, -0.578658, 0.00330289, 0.011702, -0.0090814, 0.0303453, 0.0309757, 0.00655145, 0.0147328, 0.0145618, 0.0147553
0.0752176, 0.0184605, -0.579275, 0.00159901, 0.0120708, -0.00685704, 0.0303402, 0.0309466, 0.00654359, 0.0147081, 0.0145326, 0.014723
0.0760988, 0.0173699, -0.579866, 4.71326e-05, 0.0116705, -0.00438181, 0.0303351, 0.0309187, 0.00653329, 0.0146783, 0.014508, 0.0146944
0.0767731, 0.0166773, -0.580352, -0.00135825, 0.010532, -0.00189481, 0.0303304, 0.0308925, 0.00652259, 0.0146438, 0.0144877, 0.0146722
0.0773497, 0.0163432, -0.58081, -0.0026588, 0.00920048, 0.000330766, 0.0303272, 0.0308704, 0.00651298, 0.0146121, 0.0144714, 0.0146553
0.0778511, 0.0162005, -0.581215, -0.00382849, 0.00788912, 0.00221132, 0.0303252, 0.0308517, 0.00650374, 0.0145851, 0.0144578, 0.014642
0.0782368, 0.0162023, -0.58154, -0.00487211, 0.00661284, 0.00374821, 0.0303241, 0.030835, 0.00649421, 0.0145614, 0.0144457, 0.0146316
0.0785066, 0.0162732, -0.581781, -0.00579461, 0.00546421, 0.00493307, 0.0303233, 0.0308201, 0.00648386, 0.0145413, 0.0144341, 0.0146231
0.0786477, 0.0164693, -0.581961, -0.00663406, 0.00433071, 0.00585522, 0.0303228, 0.0308055, 0.00647345, 0.0145219, 0.0144223, 0.0146161
0.0787032, 0.0167783, -0.582103, -0.00739031, 0.00322413, 0.00652264, 0.0303223, 0.0307911, 0.00646284, 0.0145033, 0.0144095, 0.0146105
0.0786995, 0.0171628, -0.582225, -0.00804978, 0.00221198, 0.00695958, 0.0303219, 0.0307768, 0.0064522, 0.0144858, 0.0143955, 0.0146057
0.0786403, 0.0176521, -0.58234, -0.0086328, 0.00124418, 0.00721072, 0.0303214, 0.0307617, 0.0064423, 0.0144681, 0.01438, 0.0146012
0.0784989, 0.0183205, -0.582455, -0.00920065, 0.000212279, 0.0073016, 0.0303208, 0.0307449, 0.00643413, 0.0144488, 0.0143627, 0.0145959
0.07832, 0.019112, -0.582572, -0.00970642, -0.000803365, 0.00723163, 0.03032, 0.0307268, 0.00642694, 0.0144286, 0.0143439, 0.0145896
0.0781051, 0.0200174, -0.58269, -0.0101497, -0.00177373, 0.00700283, 0.030319, 0.0307073, 0.00642076, 0.0144081, 0.0143236, 0.0145819
0.0778041, 0.0210799, -0.58278, -0.0105929, -0.00278282, 0.00660681, 0.0303176, 0.0306861, 0.0064161, 0.0143861, 0.0143022, 0.014571
0.0774112, 0.0222917, -0.582837, -0.0110303, -0.00386466, 0.00605706, 0.0303157, 0.0306631, 0.00641258, 0.0143619, 0.0142799, 0.0145565
0.0769775, 0.0235753, -0.58289, -0.0114046, -0.00494497, 0.00540132, 0.0303134, 0.0306394, 0.0064094, 0.0143361, 0.0142571, 0.0145394
0.0766685, 0.0248205, -0.583057, -0.0115184, -0.00572463, 0.00478334, 0.0303117, 0.0306161, 0.00640502, 0.0143117, 0.014235, 0.0145248
0.076546, 0.0262074, -0.583488, -0.0111771, -0.00596319, 0.00435371, 0.0303108, 0.0305918, 0.00639677, 0.0142887, 0.0142129, 0.0145169
0.0766227, 0.0281169, -0.584328, -0.0102519, -0.00536278, 0.00441119, 0.0303104, 0.0305655, 0.00637958, 0.0142687, 0.0141913, 0.0145114
0.076822, 0.0307352, -0.585557, -0.00887495, -0.00404075, 0.0052747, 0.0303098, 0.0305382, 0.00635177, 0.0142491, 0.0141696, 0.01449
0.0770655, 0.0335893, -0.586935, -0.00728855, -0.00245491, 0.00694051, 0.0303089, 0.0305145, 0.00631869, 0.0142284, 0.0141492, 0.0144344
0.0772264, 0.0359372, -0.58808, -0.00575436, -0.00113479, 0.00874707, 0.030308, 0.0304993, 0.00629165, 0.0142071, 0.0141334, 0.0143553
0.0772335, 0.0375982, -0.588865, -0.00431596, -0.000241057, 0.0101644, 0.0303072, 0.0304916, 0.00627532, 0.0141861, 0.0141231, 0.0142819
0.0771738, 0.0386578, -0.589372, -0.00309765, 0.000220806, 0.0110314, 0.0303067, 0.0304877, 0.00626744, 0.0141657, 0.014116, 0.0142299
0.0770902, 0.0393642, -0.589734, -0.00204125, 0.000402604, 0.0116012, 0.0303064, 0.0304855, 0.00626334, 0.0141459, 0.0141097, 0.0141942
0.0770112, 0.0398894, -0.590014, -0.00112685, 0.000476652, 0.0121247, 0.0303062, 0.030484, 0.00626072, 0.0141281, 0.0141032, 0.0141683
0.0769079, 0.0403257, -0.590238, -0.00032436, 0.000513712, 0.0126724, 0.030306, 0.0304828, 0.00625881, 0.0141118, 0.0140958, 0.0141482
0.0767656, 0.0407311, -0.590435, 0.000480174, 0.000613546, 0.0133748, 0.0303058, 0.0304819, 0.0062569, 0.0140976, 0.0140878, 0.0141307
0.0765656, 0.0411078, -0.590604, 0.00130974, 0.000785677, 0.0142159, 0.0303056, 0.0304811, 0.00625504, 0.014085, 0.0140789, 0.0141147
0.0763212, 0.0414884, -0.59075, 0.00210529, 0.00101925, 0.0151314, 0.0303052, 0.0304805, 0.00625342, 0.014073, 0.0140688, 0.0141
0.0760343, 0.041931, -0.590877, 0.0028586, 0.00136243, 0.016125, 0.0303048, 0.0304798, 0.00625196, 0.0140618, 0.014057, 0.0140864
0.0757259, 0.0424973, -0.590989, 0.00356595, 0.00182861, 0.0171321, 0.0303042, 0.0304788, 0.00625069, 0.014051, 0.0140433, 0.0140738
0.0754208, 0.0432151, -0.591095, 0.00423356, 0.00240422, 0.0180886, 0.0303034, 0.0304769, 0.00624962, 0.0140399, 0.0140274, 0.0140621
0.075109, 0.0441422, -0.591197, 0.00487653, 0.00319513, 0.0189951, 0.0303025, 0.0304742, 0.0062486, 0.0140297, 0.0140096, 0.0140508
0.0748539, 0.0451486, -0.591307, 0.0054376, 0.00413339, 0.0197308, 0.0303013, 0.0304706, 0.00624784, 0.0140187, 0.0139892, 0.0140403
0.074624, 0.0462827, -0.591428, 0.00578685, 0.00532403, 0.0202782, 0.0303001, 0.0304662, 0.00624718, 0.0140072, 0.0139659, 0.0140312
0.074346, 0.0477019, -0.591578, 0.00583375, 0.00698898, 0.0206177, 0.0302988, 0.030461, 0.00624634, 0.013997, 0.0139401, 0.0140238
0.0740853, 0.0492439, -0.59178, 0.00555274, 0.00894428, 0.0206637, 0.0302974, 0.0304546, 0.00624516, 0.0139863, 0.013911, 0.0140175
0.0739117, 0.050468, -0.591987, 0.00506496, 0.0105209, 0.0205341, 0.030295, 0.0304464, 0.0062435, 0.0139693, 0.0138769, 0.014011
0.0736526, 0.0514545, -0.592153, 0.00436758, 0.01183, 0.0204111, 0.030292, 0.0304373, 0.00624139, 0.0139486, 0.0138409, 0.0140033
0.0733262, 0.0522586, -0.592305, 0.00342648, 0.0131196, 0.020302, 0.0302893, 0.030428, 0.00623873, 0.0139284, 0.0138057, 0.0139926
0.0729495, 0.0527436, -0.592419, 0.00235851, 0.0141013, 0.0203919, 0.0302865, 0.0304185, 0.00623545, 0.0139068, 0.013772, 0.0139775
0.0725152, 0.0529588, -0.592517, 0.00112975, 0.0148344, 0.0207421, 0.0302838, 0.030409, 0.00623165, 0.0138848, 0.013742, 0.0139576
0.07207, 0.0529258, -0.592631, -0.000204167, 0.0153712, 0.0213287, 0.0302813, 0.0303997, 0.00622724, 0.0138637, 0.013717, 0.0139337
0.071627, 0.0527187, -0.592769, -0.00156266, 0.0156265, 0.0221762, 0.0302791, 0.030391, 0.00622242, 0.0138425, 0.0136971, 0.0139074
0.0712762, 0.0523986, -0.592931, -0.00285945, 0.015613, 0.0231811, 0.0302772, 0.0303836, 0.00621712, 0.0138219, 0.0136819, 0.0138823
0.0709847, 0.0521294, -0.593103, -0.00404494, 0.0152707, 0.0243139, 0.0302753, 0.0303777, 0.00621171, 0.0138008, 0.0136699, 0.0138605
0.070789, 0.0519509, -0.593278, -0.00512669, 0.0146959, 0.0254368, 0.0302736, 0.0303735, 0.00620608, 0.0137798, 0.0136598, 0.0138431
0.0707105, 0.0518325, -0.59346, -0.00612693, 0.0140287, 0.0264375, 0.0302723, 0.0303704, 0.00619992, 0.0137603, 0.0136505, 0.0138292
0.0706756, 0.0518247, -0.593625, -0.00702235, 0.013286, 0.0273162, 0.030271, 0.0303681, 0.00619356, 0.0137416, 0.0136413, 0.0138183
0.0706094, 0.0520099, -0.593763, -0.00783556, 0.0124057, 0.0281159, 0.0302697, 0.0303664, 0.00618766, 0.0137221, 0.0136315, 0.0138096
0.0705368, 0.0523345, -0.593876, -0.00855327, 0.0114525, 0.0287897, 0.0302683, 0.0303649, 0.00618212, 0.0137024, 0.0136208, 0.0138031
0.0704653, 0.0527657, -0.593967, -0.00919547, 0.0104576, 0.0293377, 0.0302668, 0.0303633, 0.00617694, 0.0136828, 0.0136089, 0.0137982
0.0704354, 0.0531887, -0.594042, -0.00973963, 0.00955283, 0.0297295, 0.0302655, 0.0303616, 0.00617156, 0.0136648, 0.0135962, 0.0137947
0.0704261, 0.0535577, -0.594096, -0.0101692, 0.0087941, 0.029983, 0.0302642, 0.0303597, 0.00616601, 0.0136485, 0.0135825, 0.0137922
0.0704106, 0.0538897, -0.594132, -0.0104816, 0.00814769, 0.0301303, 0.0302628, 0.0303576, 0.00616065, 0.0136327, 0.0135678, 0.0137904
0.0703829, 0.0541842, -0.594163, -0.0106754, 0.00760143, 0.0301887, 0.0302613, 0.0303552, 0.00615565, 0.0136168, 0.0135521, 0.0137891
0.0703325, 0.0544418, -0.5942, -0.0107893, 0.0071396, 0.030178, 0.0302594, 0.0303524, 0.00615129, 0.0136008, 0.0135357, 0.0137876
0.0702427, 0.0546876, -0.594251, -0.01086, 0.00673899, 0.0301085, 0.030257, 0.0303493, 0.0061477, 0.0135845, 0.0135186, 0.0137854
0.0701143, 0.0549095, -0.594318, -0.0108847, 0.00642991, 0.0299908, 0.0302544, 0.0303459, 0.00614461, 0.0135687, 0.0135018, 0.0137825
0.0700048, 0.0549579, -0.594398, -0.010659, 0.00644453, 0.0299229, 0.0302521, 0.0303423, 0.00614064, 0.0135548, 0.0134851, 0.0137799
0.0698435, 0.0550636, -0.594481, -0.010403, 0.00639615, 0.0297812, 0.0302488, 0.0303385, 0.00613814, 0.0135378, 0.0134683, 0.0137756
0.0695912, 0.0552444, -0.594561, -0.0102118, 0.00620766, 0.0295008, 0.0302445, 0.0303353, 0.00613687, 0.0135176, 0.0134518, 0.0137692
0.069345, 0.0553314, -0.594684, -0.00985528, 0.00619966, 0.0292735, 0.0302404, 0.0303336, 0.00613538, 0.0134979, 0.013436, 0.0137626
0.0690941, 0.0554048, -0.594899, -0.00917024, 0.00649971, 0.0292637, 0.030237, 0.030333, 0.00613294, 0.0134795, 0.0134207, 0.0137549
0.0688034, 0.055568, -0.595217, -0.00816848, 0.00702059, 0.0295472, 0.0302341, 0.0303327, 0.00612954, 0.0134614, 0.0134059, 0.0137401
0.0684937, 0.0558091, -0.595605, -0.00697296, 0.00761984, 0.0301323, 0.0302319, 0.0303322, 0.00612568, 0.0134432, 0.0133926, 0.013712
0.0681705, 0.0561357, -0.596015, -0.00580124, 0.00827053, 0.0311313, 0.0302304, 0.030331, 0.00612165, 0.0134275, 0.0133818, 0.0136698
0.0678027, 0.0566007, -0.596387, -0.00466184, 0.00897118, 0.0326377, 0.0302293, 0.0303283, 0.00611764, 0.0134146, 0.0133738, 0.0136169
0.0676533, 0.0566368, -0.59665, -0.00373875, 0.00928058, 0.033719, 0.0302286, 0.0303251, 0.00611582, 0.0134001, 0.0133669, 0.0135694
0.0676035, 0.0562514, -0.596816, -0.00297494, 0.00911225, 0.0341813, 0.030228, 0.0303222, 0.006115, 0.0133815, 0.0133593, 0.013534
0.067545, 0.0556982, -0.596915, -0.00232449, 0.00862652, 0.0343451, 0.0302274, 0.0303199, 0.00611442, 0.013361, 0.0133503, 0.0135089
0.0674793, 0.055219, -0.596997, -0.00173575, 0.00808567, 0.0346067, 0.0302271, 0.0303182, 0.00611408, 0.0133426, 0.0133404, 0.0134889
0.0673966, 0.0548471, -0.597049, -0.00131185, 0.00765804, 0.0349987, 0.0302268, 0.0303172, 0.00611382, 0.013327, 0.0133293, 0.0134735
0.0672865, 0.0545486, -0.597076, -0.00107527, 0.00732449, 0.0354362, 0.0302265, 0.0303166, 0.00611362, 0.0133124, 0.0133163, 0.0134623
0.0672865, 0.0545486, -0.597076, -0.00107527, 0.00732449, 0.0354362, 0.0302265, 0.0303166, 0.00611362, 0.0133124, 0.0133163, 0.0134623
0.0672865, 0.0545486, -0.597076, -0.00107527, 0.00732449, 0.0354362, 0.0302265, 0.0303166, 0.00611363, 0.0133124, 0.0133163, 0.0134623
0.0668464, 0.054534, -0.597196, -0.0012655, 0.00750305, 0.0360867, 0.0302251, 0.0303158, 0.00611271, 0.013277, 0.0132738, 0.0134533
0.0664957, 0.0545496, -0.597352, -0.00147348, 0.00772639, 0.036622, 0.0302245, 0.0303152, 0.00611206, 0.0132608, 0.0132489, 0.0134503
0.0661845, 0.0546339, -0.597554, -0.00170487, 0.00802505, 0.0370279, 0.030224, 0.0303145, 0.00611135, 0.013248, 0.0132277, 0.0134487
0.0658879, 0.0548082, -0.597818, -0.0019104, 0.00840345, 0.0373231, 0.0302235, 0.0303137, 0.00611038, 0.0132367, 0.0132078, 0.0134476
0.0655819, 0.0551072, -0.598154, -0.0020401, 0.0088318, 0.0375135, 0.0302231, 0.0303129, 0.00610902, 0.0132259, 0.0131887, 0.0134468
0.0652346, 0.0555836, -0.598546, -0.00212497, 0.00931113, 0.037507, 0.0302226, 0.0303117, 0.00610733, 0.0132148, 0.0131701, 0.013446
0.0648251, 0.0562869, -0.59896, -0.00216385, 0.0097644, 0.0372183, 0.0302221, 0.0303099, 0.00610547, 0.0132022, 0.0131515, 0.0134449
0.0643628, 0.0572068, -0.59939, -0.00215561, 0.0101706, 0.0366465, 0.0302215, 0.0303071, 0.00610334, 0.0131879, 0.013133, 0.0134427
0.0638859, 0.0582758, -0.599864, -0.00213499, 0.010697, 0.0357753, 0.0302208, 0.0303033, 0.00610058, 0.0131741, 0.0131148, 0.0134381
0.0633991, 0.059443, -0.60035, -0.00207294, 0.0112868, 0.034645, 0.03022, 0.0302982, 0.00609723, 0.0131607, 0.0130965, 0.0134296
0.0629294, 0.0606123, -0.600797, -0.00194401, 0.0118143, 0.0334109, 0.0302191, 0.0302917, 0.00609358, 0.0131468, 0.0130785, 0.0134168
0.0625046, 0.0616996, -0.601186, -0.00176248, 0.0122456, 0.0322042, 0.030218, 0.030284, 0.00608987, 0.0131321, 0.0130608, 0.0134
0.062151, 0.0626241, -0.601506, -0.00161832, 0.0126612, 0.0310597, 0.0302169, 0.0302761, 0.00608639, 0.0131179, 0.0130437, 0.0133795
0.0618573, 0.0633881, -0.601743, -0.00152774, 0.0129935, 0.0300483, 0.0302158, 0.0302683, 0.0060835, 0.0131033, 0.0130269, 0.0133558
0.0616257, 0.06399, -0.601912, -0.00149756, 0.0132468, 0.0292105, 0.0302149, 0.0302613, 0.00608115, 0.0130884, 0.0130105, 0.013331
0.0614571, 0.064436, -0.602034, -0.00149191, 0.0134489, 0.0285655, 0.0302141, 0.030255, 0.00607913, 0.0130736, 0.0129947, 0.013308
0.0613361, 0.0647665, -0.602118, -0.0015208, 0.0135779, 0.0280962, 0.0302134, 0.0302495, 0.00607744, 0.0130583, 0.0129794, 0.0132872
0.0612624, 0.0649843, -0.602172, -0.00158336, 0.0136608, 0.0277888, 0.0302128, 0.0302444, 0.00607593, 0.0130432, 0.0129646, 0.0132694
0.0612251, 0.0651171, -0.602202, -0.00167684, 0.0136837, 0.0276141, 0.0302123, 0.0302397, 0.00607454, 0.0130278, 0.0129503, 0.0132544
0.0612273, 0.0651487, -0.60221, -0.00183228, 0.0137133, 0.0275315, 0.0302119, 0.0302353, 0.00607305, 0.0130131, 0.0129362, 0.0132419
0.0612481, 0.0650795, -0.602194, -0.0019249, 0.013799, 0.0275412, 0.0302115, 0.030231, 0.00607086, 0.0129999, 0.0129228, 0.0132337
0.0612809, 0.0649162, -0.602146, -0.00202271, 0.0139152, 0.0276045, 0.0302112, 0.0302266, 0.00606826, 0.0129868, 0.0129093, 0.0132276
0.0613279, 0.0646996, -0.602076, -0.00211459, 0.0139324, 0.0277091, 0.0302109, 0.0302219, 0.00606562, 0.0129731, 0.0128963, 0.0132232
0.0613882, 0.064399, -0.601975, -0.0022106, 0.0138652, 0.027838, 0.0302106, 0.0302167, 0.0060628, 0.0129586, 0.0128831, 0.01322
0.0614369, 0.0640213, -0.60183, -0.00219064, 0.0136591, 0.0279567, 0.0302102, 0.0302104, 0.00605933, 0.0129426, 0.0128697, 0.0132184
0.0614964, 0.0635998, -0.601675, -0.00224506, 0.0134686, 0.0280309, 0.03021, 0.0302043, 0.00605565, 0.0129276, 0.0128565, 0.0132171
0.0615167, 0.0631244, -0.601485, -0.0022983, 0.0134592, 0.0280631, 0.0302096, 0.0301986, 0.0060509, 0.0129154, 0.0128436, 0.0132165
0.0615449, 0.0626598, -0.601312, -0.00241412, 0.0134243, 0.0280907, 0.0302094, 0.0301929, 0.0060466, 0.0129026, 0.0128304, 0.0132157
0.0615333, 0.0622093, -0.601134, -0.00254919, 0.0135114, 0.0280915, 0.0302091, 0.0301875, 0.00604162, 0.0128914, 0.0128173, 0.0132152
0.0614282, 0.0617275, -0.600907, -0.00259046, 0.013824, 0.0280425, 0.0302086, 0.0301822, 0.00603508, 0.0128824, 0.0128045, 0.0132149
0.0614065, 0.0612327, -0.600713, -0.00258322, 0.0139058, 0.0280044, 0.0302085, 0.0301754, 0.00602964, 0.0128697, 0.0127909, 0.0132143
0.0614061, 0.0607532, -0.600543, -0.00255764, 0.0138459, 0.0279811, 0.0302084, 0.0301679, 0.00602484, 0.0128549, 0.0127768, 0.0132137
0.0614258, 0.0603152, -0.600412, -0.00255714, 0.0136148, 0.0279962, 0.0302084, 0.0301595, 0.00602117, 0.012838, 0.0127622, 0.013213
0.0614515, 0.0599324, -0.600314, -0.00257969, 0.01325, 0.0280354, 0.0302084, 0.0301505, 0.0060182, 0.0128197, 0.0127472, 0.0132122
0.0614761, 0.0595614, -0.600221, -0.00256895, 0.0128989, 0.028058, 0.0302084, 0.0301416, 0.00601516, 0.0128025, 0.0127324, 0.0132116
0.0614978, 0.0592187, -0.600139, -0.0025086, 0.0125019, 0.0280602, 0.0302084, 0.0301322, 0.00601222, 0.0127851, 0.0127175, 0.0132111
0.061515, 0.0589261, -0.600069, -0.00243069, 0.0121737, 0.0280384, 0.0302083, 0.0301233, 0.00600918, 0.0127688, 0.0127029, 0.0132105
0.0615314, 0.0587082, -0.600022, -0.00235406, 0.0118459, 0.0280115, 0.0302083, 0.0301143, 0.00600641, 0.0127526, 0.0126883, 0.01321
0.0615463, 0.0585865, -0.599999, -0.00230557, 0.0115783, 0.0279886, 0.0302082, 0.0301057, 0.00600374, 0.0127372, 0.0126738, 0.0132095
0.0615606, 0.0585846, -0.600006, -0.00231615, 0.0114315, 0.027982, 0.0302081, 0.0300977, 0.00600099, 0.012723, 0.0126595, 0.013209
0.061578, 0.0586702, -0.600032, -0.00234556, 0.0112995, 0.0279877, 0.0302079, 0.0300894, 0.00599837, 0.0127088, 0.0126452, 0.0132086
0.0616069, 0.0588776, -0.600087, -0.00241184, 0.01117, 0.0280088, 0.0302078, 0.0300808, 0.00599581, 0.0126945, 0.0126309, 0.0132081
0.0616541, 0.0591747, -0.600165, -0.00249161, 0.0110997, 0.0280509, 0.0302076, 0.0300722, 0.00599304, 0.0126808, 0.0126168, 0.0132075
0.0617344, 0.0595683, -0.600272, -0.00259539, 0.0111308, 0.0281226, 0.0302072, 0.0300637, 0.0059899, 0.0126681, 0.0126029, 0.0132065
0.0618495, 0.0600545, -0.600408, -0.00269508, 0.0112346, 0.0282383, 0.0302068, 0.0300553, 0.00598644, 0.0126559, 0.0125891, 0.0132049
0.0618495, 0.0600545, -0.600408, -0.00269508, 0.0112346, 0.0282383, 0.0302068, 0.0300553, 0.00598644, 0.0126559, 0.0125891, 0.0132049
0.0621014, 0.0609061, -0.60067, -0.00279061, 0.0116236, 0.0285501, 0.0302059, 0.0300438, 0.00598027, 0.0126359, 0.0125667, 0.0132
0.0623572, 0.061763, -0.600932, -0.00279385, 0.0119117, 0.0289685, 0.030205, 0.0300325, 0.00597476, 0.0126217, 0.0125504, 0.0131936
0.0625697, 0.0626332, -0.601177, -0.00276651, 0.0120027, 0.029474, 0.0302042, 0.030021, 0.00597013, 0.0126071, 0.012536, 0.0131846
0.0627631, 0.0634497, -0.601411, -0.00271737, 0.0120349, 0.030078, 0.0302034, 0.0300102, 0.00596558, 0.0125929, 0.0125226, 0.0131707
0.0629385, 0.0641884, -0.601636, -0.00261835, 0.0120422, 0.0307925, 0.0302026, 0.0300004, 0.0059609, 0.012579, 0.0125099, 0.0131489
0.0631069, 0.0648351, -0.601848, -0.00249863, 0.0120717, 0.0315956, 0.0302019, 0.0299919, 0.00595615, 0.012566, 0.0124978, 0.0131193
0.0632693, 0.0654218, -0.602051, -0.00241747, 0.0121033, 0.0324344, 0.0302012, 0.0299847, 0.00595178, 0.0125534, 0.012486, 0.0130863
0.0634442, 0.0659511, -0.602252, -0.0023899, 0.0122067, 0.0333363, 0.0302006, 0.0299787, 0.0059475, 0.0125419, 0.0124743, 0.0130524
0.0636194, 0.0664516, -0.602448, -0.0024135, 0.012349, 0.034256, 0.0302001, 0.0299735, 0.00594351, 0.0125309, 0.0124624, 0.0130196
0.0637763, 0.0669293, -0.602634, -0.0024845, 0.0124612, 0.0351155, 0.0301997, 0.0299687, 0.00593994, 0.0125195, 0.0124503, 0.0129889
0.0639194, 0.0673906, -0.602812, -0.00258032, 0.0125629, 0.035916, 0.0301993, 0.0299641, 0.00593652, 0.012508, 0.012438, 0.0129607
0.064045, 0.0678265, -0.60298, -0.00267995, 0.0126586, 0.0366323, 0.030199, 0.0299595, 0.00593311, 0.0124964, 0.0124255, 0.0129349
0.0641397, 0.0682373, -0.603134, -0.00277088, 0.0127077, 0.0372334, 0.0301987, 0.0299547, 0.00592972, 0.0124841, 0.0124129, 0.0129119
0.0642178, 0.0686189, -0.603277, -0.002842, 0.0127525, 0.0377386, 0.0301984, 0.0299497, 0.00592609, 0.0124719, 0.0124004, 0.0128917
0.0642845, 0.0689721, -0.603408, -0.00289377, 0.0128131, 0.0381449, 0.0301982, 0.0299441, 0.00592205, 0.0124598, 0.0123879, 0.0128747
0.0643389, 0.0693351, -0.603534, -0.00298719, 0.0128629, 0.0384478, 0.030198, 0.0299373, 0.00591756, 0.0124475, 0.0123753, 0.012863
0.0643915, 0.0697299, -0.603661, -0.00313265, 0.0129404, 0.0386627, 0.0301978, 0.0299288, 0.00591225, 0.0124357, 0.0123626, 0.0128562
0.0644354, 0.0701239, -0.603781, -0.00330159, 0.0130258, 0.0387878, 0.0301975, 0.029918, 0.00590588, 0.0124239, 0.0123497, 0.0128526
0.064474, 0.0704962, -0.603889, -0.00348353, 0.0131371, 0.0388324, 0.0301973, 0.0299046, 0.0058981, 0.0124124, 0.0123366, 0.0128507
0.0645003, 0.0707662, -0.603962, -0.00363726, 0.0132548, 0.0388164, 0.030197, 0.0298887, 0.00588888, 0.0124011, 0.0123234, 0.0128493
0.0644974, 0.0707939, -0.603962, -0.00372574, 0.0132842, 0.0388069, 0.0301967, 0.0298703, 0.00587866, 0.0123889, 0.0123104, 0.0128477
0.0644632, 0.0705162, -0.603873, -0.00374659, 0.0131877, 0.0388609, 0.0301965, 0.02985, 0.00586787, 0.0123755, 0.0122975, 0.0128456
0.0644053, 0.0699784, -0.60371, -0.00374477, 0.0129678, 0.0389971, 0.0301962, 0.0298284, 0.00585691, 0.012361, 0.0122847, 0.0128425
0.0643398, 0.0692024, -0.603477, -0.00371311, 0.0126492, 0.0392022, 0.030196, 0.0298067, 0.00584598, 0.012346, 0.0122721, 0.0128388
0.0642813, 0.0682068, -0.603177, -0.00362265, 0.0122356, 0.0394326, 0.0301959, 0.0297862, 0.00583534, 0.0123307, 0.0122597, 0.0128354
0.064246, 0.0670508, -0.60282, -0.00347929, 0.011757, 0.0396231, 0.0301959, 0.0297672, 0.00582498, 0.0123157, 0.0122476, 0.0128324
0.0642437, 0.0658334, -0.602416, -0.00329038, 0.0113327, 0.0397101, 0.0301959, 0.0297504, 0.0058144, 0.0123021, 0.0122359, 0.0128299
0.0642625, 0.064591, -0.601982, -0.00309092, 0.0109694, 0.0397589, 0.0301959, 0.0297349, 0.00580354, 0.0122897, 0.0122244, 0.0128276
0.0642901, 0.0633693, -0.601533, -0.00291205, 0.0106603, 0.0398037, 0.0301958, 0.0297201, 0.00579234, 0.012278, 0.0122129, 0.0128254
0.0643053, 0.0621625, -0.60106, -0.00275968, 0.0104443, 0.0398663, 0.0301956, 0.0297062, 0.00578067, 0.0122673, 0.0122016, 0.0128236
0.064348, 0.060958, -0.600586, -0.00258638, 0.0101641, 0.0399025, 0.0301955, 0.0296927, 0.00576929, 0.0122558, 0.0121901, 0.0128215
0.0643959, 0.0597915, -0.600114, -0.00242056, 0.00990451, 0.0399349, 0.0301954, 0.02968, 0.0057578, 0.0122445, 0.0121787, 0.0128196
0.0644448, 0.0586895, -0.599646, -0.00224051, 0.0096833, 0.0399437, 0.0301953, 0.0296679, 0.00574617, 0.0122335, 0.0121674, 0.0128178
0.0644979, 0.057652, -0.599202, -0.00208113, 0.00947074, 0.0399729, 0.0301951, 0.0296562, 0.0057345, 0.0122224, 0.012156, 0.0128161
0.0645388, 0.0567181, -0.598783, -0.00193344, 0.00931936, 0.0400067, 0.0301949, 0.0296451, 0.00572267, 0.0122116, 0.0121446, 0.0128146
0.0645675, 0.055885, -0.5984, -0.00181817, 0.0092152, 0.0400639, 0.0301947, 0.0296344, 0.00571073, 0.0122011, 0.0121333, 0.0128134
0.0645663, 0.0551826, -0.598053, -0.00172374, 0.0092167, 0.0401354, 0.0301944, 0.0296243, 0.0056985, 0.0121911, 0.0121219, 0.0128124
0.0645618, 0.0545792, -0.597752, -0.00166724, 0.00924143, 0.0402251, 0.0301942, 0.0296143, 0.00568633, 0.0121808, 0.0121104, 0.0128114
0.0645571, 0.0540743, -0.597486, -0.00158196, 0.00928981, 0.0402832, 0.0301941, 0.029605, 0.00567405, 0.0121704, 0.0120989, 0.0128107
0.0645362, 0.0536966, -0.597271, -0.00152249, 0.00940325, 0.0403467, 0.030194, 0.029596, 0.00566155, 0.0121601, 0.0120873, 0.0128099
0.0645135, 0.0534348, -0.59712, -0.00152454, 0.00953578, 0.0404194, 0.0301939, 0.0295868, 0.00564912, 0.0121495, 0.0120755, 0.0128081
0.0645012, 0.0532754, -0.597037, -0.00160159, 0.00958686, 0.0404824, 0.0301938, 0.0295774, 0.0056371, 0.0121374, 0.012063, 0.0128037
0.0644885, 0.0532415, -0.597018, -0.00173141, 0.00960763, 0.0405028, 0.0301937, 0.0295679, 0.00562537, 0.0121247, 0.0120503, 0.0127955
0.0644826, 0.0533242, -0.597053, -0.00187594, 0.00968069, 0.0404431, 0.0301937, 0.0295587, 0.00561368, 0.0121127, 0.0120376, 0.0127835
0.0644857, 0.0534881, -0.597131, -0.00200857, 0.00975709, 0.0403077, 0.0301937, 0.0295499, 0.00560225, 0.0121006, 0.0120249, 0.0127672
0.0644994, 0.0537272, -0.59725, -0.00209724, 0.00984707, 0.0400834, 0.0301936, 0.0295416, 0.00559098, 0.0120888, 0.0120124, 0.0127484
0.0645262, 0.0540427, -0.597407, -0.00213411, 0.010027, 0.0397284, 0.0301936, 0.0295341, 0.00557974, 0.0120781, 0.0120003, 0.0127276
0.0645624, 0.0544121, -0.597595, -0.00212645, 0.0102267, 0.0392566, 0.0301935, 0.0295273, 0.00556907, 0.0120675, 0.0119883, 0.0127034
0.0646045, 0.0548041, -0.597799, -0.00208421, 0.01039, 0.0386966, 0.0301934, 0.0295211, 0.00555944, 0.0120564, 0.0119765, 0.0126753
0.0646508, 0.0552113, -0.598016, -0.0020163, 0.0105266, 0.0380452, 0.0301933, 0.0295157, 0.0055509, 0.012045, 0.0119648, 0.0126441
0.0647087, 0.0556156, -0.598234, -0.00194571, 0.0106989, 0.0372845, 0.0301931, 0.0295113, 0.00554353, 0.0120343, 0.0119535, 0.0126094
0.0647773, 0.0560042, -0.598444, -0.00188032, 0.0109031, 0.0364172, 0.030193, 0.0295078, 0.00553745, 0.0120239, 0.0119423, 0.012571
0.0648482, 0.0563581, -0.598635, -0.00183622, 0.0110848, 0.0354705, 0.0301927, 0.0295051, 0.00553288, 0.0120132, 0.0119311, 0.0125284
0.0648947, 0.0566634, -0.598795, -0.00182427, 0.0111612, 0.0345042, 0.0301923, 0.0295031, 0.00552984, 0.0120011, 0.01192, 0.0124821
0.0649279, 0.056927, -0.598937, -0.00182541, 0.0111959, 0.0335224, 0.0301919, 0.0295017, 0.00552767, 0.0119889, 0.0119089, 0.012437
0.0649384, 0.0571478, -0.599063, -0.00180725, 0.0111758, 0.0325886, 0.0301915, 0.0295007, 0.00552603, 0.0119762, 0.0118979, 0.0123958
0.0649403, 0.0573386, -0.599186, -0.00177576, 0.0111456, 0.0316995, 0.0301912, 0.0295, 0.00552458, 0.0119639, 0.0118871, 0.0123608
0.0649516, 0.0575047, -0.599316, -0.00172355, 0.0111646, 0.0308442, 0.0301909, 0.0294996, 0.00552304, 0.0119526, 0.0118764, 0.012332
0.0649592, 0.0576615, -0.599464, -0.00163974, 0.0112099, 0.0300419, 0.0301907, 0.0294992, 0.00552119, 0.0119416, 0.0118658, 0.0123091
0.0649635, 0.0578174, -0.599637, -0.0015274, 0.0112879, 0.0293024, 0.0301905, 0.0294988, 0.00551888, 0.011931, 0.0118552, 0.0122912
0.0649355, 0.0579643, -0.599819, -0.00140345, 0.0113137, 0.028662, 0.0301902, 0.0294985, 0.00551622, 0.0119196, 0.0118446, 0.0122771
0.0648477, 0.0581123, -0.599999, -0.00129258, 0.0112382, 0.0281296, 0.0301898, 0.0294982, 0.00551321, 0.0119069, 0.011834, 0.0122662
0.0647033, 0.0582924, -0.60019, -0.00116614, 0.0110952, 0.027717, 0.0301891, 0.0294977, 0.00550908, 0.0118937, 0.0118233, 0.0122591
0.0645795, 0.0584716, -0.600434, -0.00105745, 0.0110289, 0.0273927, 0.0301886, 0.0294971, 0.00550328, 0.0118819, 0.0118128, 0.0122547
0.0644962, 0.0586385, -0.600754, -0.000965784, 0.0111143, 0.0271811, 0.0301882, 0.0294965, 0.00549547, 0.0118723, 0.0118026, 0.0122516
0.0644277, 0.0588026, -0.601135, -0.0009139, 0.0112933, 0.0270682, 0.0301879, 0.029496, 0.00548626, 0.0118635, 0.0117923, 0.0122494
0.0643577, 0.0589696, -0.601556, -0.000919639, 0.011509, 0.0270297, 0.0301874, 0.0294956, 0.00547614, 0.011855, 0.0117821, 0.0122478
0.0642803, 0.0591516, -0.60201, -0.000935703, 0.0117614, 0.0270923, 0.0301869, 0.029495, 0.00546446, 0.0118468, 0.0117718, 0.0122466
0.0641679, 0.0593528, -0.60247, -0.000939758, 0.0119785, 0.0272451, 0.030186, 0.0294944, 0.00545085, 0.0118378, 0.0117615, 0.0122454
0.0640142, 0.0595787, -0.60292, -0.000900048, 0.0121385, 0.0275042, 0.0301847, 0.0294934, 0.0054343, 0.0118278, 0.0117513, 0.0122428
0.0638391, 0.0598082, -0.603333, -0.000833605, 0.0122522, 0.0278363, 0.030183, 0.0294921, 0.00541486, 0.011817, 0.0117411, 0.0122371
0.0636828, 0.0599864, -0.603665, -0.0008234, 0.0123274, 0.0281366, 0.0301809, 0.0294908, 0.00539471, 0.0118054, 0.0117309, 0.0122291
0.0635554, 0.0601111, -0.60389, -0.000823772, 0.0123568, 0.0283676, 0.0301784, 0.0294892, 0.00537358, 0.0117932, 0.0117208, 0.0122178
0.0634474, 0.0601838, -0.603984, -0.00078568, 0.0122954, 0.0284793, 0.0301753, 0.0294874, 0.00535145, 0.0117798, 0.0117107, 0.012202
0.0633968, 0.0601899, -0.603963, -0.000747204, 0.0121835, 0.0284486, 0.0301719, 0.0294856, 0.00533037, 0.0117661, 0.0117007, 0.0121845
0.0634095, 0.0601288, -0.603839, -0.000722746, 0.0120011, 0.0282755, 0.0301682, 0.029484, 0.00531165, 0.011752, 0.0116907, 0.012168
0.0635132, 0.0600138, -0.603638, -0.000681703, 0.0118029, 0.0280084, 0.0301645, 0.0294825, 0.00529462, 0.0117386, 0.0116807, 0.0121527
0.0637165, 0.0598555, -0.603375, -0.00062512, 0.0116179, 0.0276741, 0.0301608, 0.0294812, 0.00527922, 0.0117262, 0.011671, 0.0121392
0.0640184, 0.0596721, -0.603072, -0.000582714, 0.0114726, 0.0273115, 0.0301572, 0.0294801, 0.00526559, 0.0117147, 0.0116612, 0.0121286
0.064417, 0.0594785, -0.602736, -0.00057051, 0.0113819, 0.0269513, 0.0301537, 0.0294794, 0.00525353, 0.0117042, 0.0116515, 0.012121
0.0649111, 0.0592774, -0.602367, -0.000578872, 0.0113275, 0.0266074, 0.03015, 0.0294787, 0.00524271, 0.0116943, 0.0116418, 0.0121156
0.0655097, 0.0590685, -0.601968, -0.000611909, 0.011288, 0.0262901, 0.030146, 0.0294782, 0.00523296, 0.0116847, 0.0116321, 0.0121119
0.0662152, 0.0588477, -0.60154, -0.000649201, 0.0112595, 0.0259943, 0.0301417, 0.0294777, 0.00522387, 0.0116752, 0.0116223, 0.012109
0.0670201, 0.0586249, -0.601098, -0.000709895, 0.0112416, 0.0257465, 0.030137, 0.0294773, 0.00521554, 0.0116659, 0.0116125, 0.012107
0.0679221, 0.058383, -0.600626, -0.000755404, 0.0112464, 0.0254908, 0.0301319, 0.0294769, 0.00520737, 0.0116568, 0.0116027, 0.0121052
0.0689438, 0.0581151, -0.600124, -0.000786363, 0.0112371, 0.025222, 0.0301264, 0.0294765, 0.00519944, 0.0116476, 0.011593, 0.0121034
0.0700757, 0.0578448, -0.599625, -0.000841451, 0.0111802, 0.0250018, 0.0301201, 0.029476, 0.00519211, 0.011638, 0.0115832, 0.012102
0.0712257, 0.0575982, -0.599146, -0.000935364, 0.011192, 0.0248645, 0.0301137, 0.0294756, 0.00518528, 0.0116292, 0.0115733, 0.0121012
0.0723612, 0.0573694, -0.598683, -0.00105038, 0.0112467, 0.024741, 0.030107, 0.0294754, 0.00517861, 0.0116205, 0.0115634, 0.0121007
0.0732969, 0.0572099, -0.598225, -0.00114533, 0.0115308, 0.024611, 0.0301012, 0.0294751, 0.00517153, 0.0116138, 0.0115538, 0.0121003
0.0741675, 0.0571037, -0.597794, -0.00125193, 0.0118901, 0.0245133, 0.0300952, 0.029475, 0.00516478, 0.0116071, 0.011544, 0.0120998
0.0753288, 0.056901, -0.597394, -0.00135633, 0.0119253, 0.0244298, 0.0300867, 0.0294746, 0.00515896, 0.0115968, 0.0115337, 0.0120992
0.0766807, 0.0566034, -0.597002, -0.00143421, 0.0116331, 0.0243437, 0.0300758, 0.0294739, 0.00515372, 0.0115833, 0.0115231, 0.0120982
0.0779625, 0.0563372, -0.596647, -0.00152235, 0.0114012, 0.0242625, 0.0300652, 0.0294733, 0.00514871, 0.0115714, 0.0115128, 0.0120977
0.0790888, 0.0561569, -0.596336, -0.00166539, 0.011373, 0.0242944, 0.0300556, 0.029473, 0.00514403, 0.011562, 0.0115028, 0.0120973
0.0802401, 0.0559989, -0.596072, -0.00188777, 0.0112659, 0.0244294, 0.030045, 0.0294726, 0.00514013, 0.0115517, 0.0114924, 0.0120964
0.0813722, 0.055826, -0.595817, -0.00209883, 0.0111401, 0.0245008, 0.0300344, 0.0294722, 0.00513616, 0.0115413, 0.0114821, 0.0120956
0.0824821, 0.0556409, -0.595571, -0.00227582, 0.0109592, 0.0245218, 0.0300236, 0.0294716, 0.00513225, 0.0115304, 0.0114718, 0.0120948
0.083527, 0.0554553, -0.595337, -0.00242248, 0.0107872, 0.0245202, 0.0300131, 0.0294711, 0.00512839, 0.0115198, 0.0114616, 0.0120938
0.0845015, 0.05527, -0.595117, -0.00253186, 0.0105967, 0.0244921, 0.0300027, 0.0294705, 0.00512465, 0.011509, 0.0114514, 0.0120929
0.0853638, 0.055107, -0.594922, -0.00262828, 0.010441, 0.0244751, 0.0299928, 0.0294699, 0.00512108, 0.0114987, 0.0114414, 0.012092
0.0861196, 0.0549787, -0.594757, -0.00273881, 0.0103207, 0.0245046, 0.0299832, 0.0294695, 0.0051178, 0.0114887, 0.0114313, 0.0120911
0.0867861, 0.0548765, -0.594617, -0.00286103, 0.0101887, 0.0245597, 0.0299738, 0.029469, 0.00511477, 0.0114785, 0.0114212, 0.01209
0.0873776, 0.0547919, -0.594497, -0.00297978, 0.010004, 0.0246161, 0.0299646, 0.0294685, 0.00511193, 0.0114679, 0.011411, 0.0120891
0.0878701, 0.0547172, -0.594393, -0.0030722, 0.00981559, 0.0246354, 0.0299561, 0.0294679, 0.00510902, 0.0114572, 0.011401, 0.012088
0.0882611, 0.054649, -0.594302, -0.00312604, 0.00963405, 0.0246126, 0.0299481, 0.0294674, 0.00510595, 0.0114468, 0.0113909, 0.0120867
0.0885367, 0.0545923, -0.594229, -0.00314205, 0.00950121, 0.0245585, 0.029941, 0.0294669, 0.00510266, 0.0114369, 0.0113811, 0.0120845
0.0886966, 0.0545563, -0.594182, -0.00313891, 0.00942501, 0.0245106, 0.0299347, 0.0294664, 0.00509924, 0.0114276, 0.0113713, 0.0120816
0.0887492, 0.0545419, -0.594164, -0.00312384, 0.00939144, 0.0244832, 0.029929, 0.029466, 0.00509575, 0.0114185, 0.0113616, 0.0120778
0.0887069, 0.054549, -0.594177, -0.00310862, 0.00940513, 0.0244935, 0.0299239, 0.0294656, 0.00509222, 0.0114098, 0.011352, 0.0120733
0.0885833, 0.0545776, -0.594221, -0.00311009, 0.00943792, 0.0245467, 0.0299191, 0.0294653, 0.00508879, 0.011401, 0.0113424, 0.0120686
0.0883932, 0.0546287, -0.594286, -0.00312174, 0.00942532, 0.024626, 0.0299146, 0.0294649, 0.00508555, 0.0113916, 0.0113326, 0.0120642
0.0881196, 0.0547217, -0.594351, -0.003159, 0.00925376, 0.0247024, 0.0299096, 0.0294642, 0.00508282, 0.0113802, 0.0113226, 0.0120616
0.0877197, 0.054871, -0.594416, -0.00325053, 0.00893926, 0.0247819, 0.0299042, 0.0294635, 0.00508055, 0.0113674, 0.0113125, 0.0120606
0.087291, 0.0550092, -0.594526, -0.00337056, 0.00872922, 0.0248955, 0.0298995, 0.029463, 0.00507821, 0.0113568, 0.0113026, 0.0120595
0.0868386, 0.0551425, -0.594676, -0.00345862, 0.00861606, 0.0250785, 0.0298955, 0.0294627, 0.00507553, 0.0113476, 0.0112929, 0.0120568
0.0863775, 0.0552866, -0.594861, -0.0034811, 0.00856088, 0.0253941, 0.0298921, 0.0294624, 0.00507232, 0.0113393, 0.0112833, 0.0120509
0.0859416, 0.0554447, -0.595085, -0.0034245, 0.00858888, 0.0259452, 0.0298894, 0.029462, 0.00506842, 0.0113319, 0.0112741, 0.0120369
0.0855669, 0.0556278, -0.595338, -0.00328677, 0.0086819, 0.0268517, 0.0298872, 0.0294615, 0.00506392, 0.011325, 0.0112652, 0.0120076
0.0852974, 0.0558359, -0.595593, -0.00308984, 0.00878404, 0.028143, 0.0298855, 0.0294609, 0.00505929, 0.011318, 0.0112565, 0.0119548
0.085147, 0.0560575, -0.595817, -0.00285727, 0.00884179, 0.029697, 0.0298839, 0.0294601, 0.00505518, 0.0113104, 0.0112482, 0.0118729
0.0851201, 0.0562544, -0.595987, -0.00261992, 0.00887519, 0.0312862, 0.0298822, 0.0294591, 0.00505199, 0.0113023, 0.01124, 0.0117701
0.0851652, 0.0564079, -0.596101, -0.00240126, 0.00890003, 0.0326538, 0.0298804, 0.0294581, 0.00504985, 0.0112939, 0.0112319, 0.0116684
0.0851972, 0.0565292, -0.596172, -0.00222899, 0.00889202, 0.033662, 0.0298787, 0.0294572, 0.00504857, 0.011285, 0.0112237, 0.0115867
0.0851861, 0.0566349, -0.596222, -0.00208677, 0.00885212, 0.034384, 0.0298772, 0.0294565, 0.00504777, 0.0112756, 0.0112153, 0.0115276
0.0851533, 0.0567236, -0.596268, -0.00197177, 0.00881534, 0.0349617, 0.0298761, 0.029456, 0.00504714, 0.0112661, 0.0112068, 0.0114866
0.0851115, 0.0567964, -0.596317, -0.00187909, 0.00881566, 0.0354688, 0.0298752, 0.0294556, 0.00504651, 0.0112571, 0.0111982, 0.0114573
0.0850526, 0.0568592, -0.596371, -0.00180271, 0.00886243, 0.0359326, 0.0298744, 0.0294553, 0.00504576, 0.0112485, 0.0111896, 0.0114357
0.0849711, 0.0569133, -0.596434, -0.0017365, 0.00896748, 0.0363686, 0.0298734, 0.029455, 0.00504482, 0.0112404, 0.0111809, 0.0114191
0.084865, 0.0569648, -0.596503, -0.00165874, 0.00910667, 0.0367523, 0.0298722, 0.0294547, 0.00504371, 0.0112324, 0.0111722, 0.0114058
0.084723, 0.0570213, -0.596576, -0.00158008, 0.0092332, 0.0370664, 0.0298704, 0.0294544, 0.00504243, 0.011224, 0.0111634, 0.0113956
0.0845319, 0.0570835, -0.596656, -0.00152655, 0.00936112, 0.0373313, 0.0298679, 0.029454, 0.0050409, 0.0112154, 0.0111546, 0.0113882
0.0842915, 0.0571473, -0.596745, -0.001498, 0.00952453, 0.0375576, 0.0298646, 0.0294535, 0.00503901, 0.011207, 0.0111457, 0.011383
0.0839942, 0.0572207, -0.596839, -0.0015082, 0.00968616, 0.0377257, 0.02986, 0.029453, 0.00503676, 0.0111984, 0.0111367, 0.0113798
0.0836606, 0.0573068, -0.596932, -0.00153929, 0.00980551, 0.0378315, 0.0298537, 0.0294523, 0.00503417, 0.0111889, 0.0111274, 0.0113781
0.0833067, 0.0573997, -0.597022, -0.00158702, 0.00990496, 0.0378858, 0.0298457, 0.0294515, 0.00503117, 0.0111792, 0.011118, 0.0113773
0.0829565, 0.0574985, -0.5971, -0.00164785, 0.00995778, 0.0378975, 0.0298356, 0.0294506, 0.0050278, 0.0111688, 0.0111084, 0.0113769
0.0826756, 0.0575809, -0.597158, -0.00169534, 0.00996642, 0.0378905, 0.0298238, 0.0294495, 0.00502412, 0.0111582, 0.0110989, 0.0113765
0.08251, 0.0576286, -0.597194, -0.00170911, 0.00996542, 0.0378815, 0.0298111, 0.0294484, 0.00502018, 0.0111478, 0.0110895, 0.0113759
0.0824436, 0.0576494, -0.597208, -0.00171605, 0.00995028, 0.0378787, 0.0297973, 0.0294472, 0.00501607, 0.0111376, 0.0110802, 0.0113749
0.0824496, 0.05765, -0.597202, -0.0017458, 0.0099368, 0.0378822, 0.0297827, 0.0294461, 0.00501183, 0.0111276, 0.011071, 0.0113732
0.0825142, 0.0576314, -0.597182, -0.00179143, 0.00995222, 0.0378919, 0.0297677, 0.0294451, 0.00500748, 0.0111181, 0.0110618, 0.0113708
0.0826458, 0.0575955, -0.597148, -0.00184007, 0.00996894, 0.037918, 0.0297524, 0.029444, 0.00500317, 0.0111087, 0.0110525, 0.0113676
0.082855, 0.0575377, -0.5971, -0.00187304, 0.0100029, 0.0379629, 0.0297372, 0.029443, 0.00499897, 0.0110998, 0.0110435, 0.0113643
0.0831353, 0.0574626, -0.59704, -0.00189365, 0.0100101, 0.0380327, 0.0297218, 0.0294419, 0.00499504, 0.0110905, 0.0110344, 0.0113606
0.0834808, 0.057371, -0.596969, -0.00190474, 0.00998027, 0.0381266, 0.0297062, 0.0294408, 0.00499144, 0.011081, 0.0110254, 0.0113568
0.0838799, 0.0572638, -0.596893, -0.00189895, 0.00992607, 0.0382358, 0.0296906, 0.0294396, 0.00498816, 0.0110714, 0.0110164, 0.0113534
0.0843052, 0.0571475, -0.596816, -0.00188858, 0.00986206, 0.0383474, 0.0296751, 0.0294384, 0.00498516, 0.0110618, 0.0110076, 0.0113502
0.0847561, 0.057022, -0.596739, -0.00187284, 0.00978542, 0.0384606, 0.0296595, 0.0294371, 0.00498242, 0.0110523, 0.0109987, 0.0113474
0.0852305, 0.0568878, -0.596661, -0.00184439, 0.00970493, 0.0385709, 0.029644, 0.0294358, 0.0049799, 0.011043, 0.01099, 0.011345
0.0857169, 0.0567486, -0.596585, -0.00181488, 0.00962513, 0.0386738, 0.0296284, 0.0294345, 0.00497756, 0.0110339, 0.0109813, 0.0113429
0.0861996, 0.05661, -0.596511, -0.001785, 0.00957719, 0.0387647, 0.0296129, 0.0294331, 0.00497532, 0.0110254, 0.0109727, 0.0113412
0.08669, 0.0564679, -0.596439, -0.00174695, 0.00953929, 0.0388494, 0.0295973, 0.0294318, 0.00497319, 0.0110169, 0.0109641, 0.0113398
0.0871862, 0.0563227, -0.596366, -0.00169803, 0.00951898, 0.0389257, 0.0295817, 0.0294303, 0.00497116, 0.0110087, 0.0109556, 0.0113387
0.0876956, 0.0561724, -0.596293, -0.00163809, 0.00952181, 0.0389959, 0.0295658, 0.0294289, 0.00496919, 0.0110006, 0.0109471, 0.0113378
0.0882242, 0.0560151, -0.596219, -0.00155973, 0.00953878, 0.0390588, 0.0295499, 0.0294274, 0.00496731, 0.0109927, 0.0109387, 0.0113372
0.0887529, 0.0558587, -0.596139, -0.00146791, 0.00962198, 0.0391136, 0.0295342, 0.0294259, 0.00496541, 0.0109853, 0.0109305, 0.0113367
0.0893268, 0.0556838, -0.596053, -0.00135342, 0.00973042, 0.0391636, 0.0295184, 0.0294242, 0.00496358, 0.010978, 0.0109223, 0.0113363
0.0899688, 0.0554784, -0.595959, -0.00119208, 0.00984063, 0.0391975, 0.0295024, 0.0294224, 0.00496183, 0.0109704, 0.0109142, 0.0113359
0.0906639, 0.0552472, -0.595858, -0.000997925, 0.0099634, 0.0392182, 0.0294862, 0.0294205, 0.00496015, 0.0109628, 0.0109062, 0.0113353
0.0913912, 0.0549985, -0.595756, -0.000805078, 0.010095, 0.0392375, 0.0294698, 0.0294185, 0.00495856, 0.0109551, 0.0108982, 0.0113345
0.0921583, 0.0547302, -0.59565, -0.000593071, 0.0102382, 0.0392429, 0.0294533, 0.0294165, 0.00495704, 0.0109474, 0.0108904, 0.0113333
0.0929655, 0.0544438, -0.595542, -0.000367257, 0.0103862, 0.0392389, 0.0294366, 0.0294144, 0.00495559, 0.0109395, 0.0108825, 0.0113318
0.0938513, 0.0541238, -0.595435, -0.000115212, 0.0104907, 0.0391999, 0.0294195, 0.0294122, 0.00495427, 0.0109311, 0.0108748, 0.0113298
0.0947866, 0.0537786, -0.595318, 0.000173959, 0.0106016, 0.039126, 0.0294028, 0.0294099, 0.00495299, 0.0109228, 0.0108672, 0.0113268
0.0958229, 0.0533841, -0.595199, 0.000515822, 0.0106573, 0.038986, 0.0293859, 0.0294075, 0.00495182, 0.0109138, 0.0108599, 0.0113224
0.0969566, 0.0529493, -0.595088, 0.000851384, 0.0106105, 0.0388163, 0.0293683, 0.0294049, 0.00495079, 0.0109039, 0.0108525, 0.0113179
0.098128, 0.052503, -0.594977, 0.0011475, 0.0105374, 0.0386686, 0.0293506, 0.0294023, 0.0049498, 0.010894, 0.0108452, 0.0113138
0.099291, 0.0520596, -0.59486, 0.00139448, 0.0104969, 0.0385738, 0.0293333, 0.0293998, 0.00494876, 0.0108848, 0.010838, 0.0113101
0.10043, 0.0516256, -0.594743, 0.00158232, 0.0104924, 0.0385395, 0.0293163, 0.0293974, 0.0049477, 0.0108761, 0.0108307, 0.011307
0.101533, 0.0512025, -0.594625, 0.00172641, 0.0105242, 0.0385425, 0.0292997, 0.0293952, 0.00494663, 0.0108677, 0.0108235, 0.0113045
0.102647, 0.0507819, -0.594517, 0.00183128, 0.0105097, 0.0385445, 0.0292831, 0.0293929, 0.00494565, 0.0108588, 0.010816, 0.0113026
0.103715, 0.0503909, -0.594414, 0.00186617, 0.01048, 0.0386047, 0.0292665, 0.0293906, 0.00494468, 0.0108499, 0.0108082, 0.0113011
0.104747, 0.0500182, -0.594312, 0.00185563, 0.010448, 0.0386983, 0.0292503, 0.0293885, 0.0049437, 0.010841, 0.0108002, 0.0112998
0.10575, 0.0496684, -0.594214, 0.00179956, 0.0103715, 0.0388186, 0.0292344, 0.0293863, 0.00494275, 0.0108318, 0.0107918, 0.0112987
0.106733, 0.0493398, -0.594118, 0.00170841, 0.0102404, 0.0389689, 0.0292191, 0.0293842, 0.00494181, 0.0108224, 0.0107832, 0.0112975
0.107689, 0.0490303, -0.594022, 0.00159477, 0.010058, 0.0391352, 0.0292045, 0.0293821, 0.00494087, 0.0108128, 0.0107744, 0.0112962
0.108608, 0.0487196, -0.593922, 0.00148646, 0.00992676, 0.0392811, 0.0291912, 0.0293802, 0.00493981, 0.0108043, 0.0107658, 0.0112952
0.109486, 0.0484048, -0.593815, 0.00140206, 0.00985467, 0.039393, 0.029179, 0.0293785, 0.0049386, 0.0107965, 0.0107573, 0.0112944
0.110338, 0.0480874, -0.593698, 0.00134567, 0.00980118, 0.0394714, 0.0291678, 0.0293769, 0.00493727, 0.010789, 0.010749, 0.0112938
0.111172, 0.0477664, -0.593568, 0.00132287, 0.00976652, 0.0395154, 0.0291575, 0.0293753, 0.00493581, 0.0107816, 0.0107408, 0.0112934
0.112, 0.0474501, -0.593432, 0.00131876, 0.00970947, 0.0395587, 0.0291479, 0.0293739, 0.00493427, 0.010774, 0.0107327, 0.011293
0.112825, 0.0471493, -0.593292, 0.00130511, 0.00959636, 0.039638, 0.0291388, 0.0293726, 0.00493269, 0.0107659, 0.0107245, 0.0112925
0.113618, 0.0468582, -0.59314, 0.00130629, 0.00953294, 0.0396804, 0.0291306, 0.0293715, 0.00493093, 0.0107584, 0.0107166, 0.0112922
0.114343, 0.0465931, -0.592974, 0.00131905, 0.0095696, 0.0397191, 0.0291232, 0.0293706, 0.00492893, 0.0107518, 0.0107089, 0.0112916
0.115015, 0.0463673, -0.59281, 0.00129736, 0.00962634, 0.0398402, 0.0291164, 0.0293699, 0.00492682, 0.0107452, 0.010701, 0.0112906
0.115628, 0.046173, -0.592652, 0.00122904, 0.00968556, 0.0400198, 0.0291103, 0.0293694, 0.00492458, 0.0107387, 0.010693, 0.011289
0.116154, 0.0459996, -0.592495, 0.00114643, 0.00980083, 0.0401828, 0.0291048, 0.0293689, 0.00492214, 0.0107327, 0.010685, 0.0112872
0.116546, 0.0458753, -0.59234, 0.00104814, 0.0100237, 0.0403304, 0.0291, 0.0293687, 0.00491952, 0.0107272, 0.0106768, 0.0112846
0.116839, 0.0458141, -0.592202, 0.000921173, 0.0102871, 0.0404763, 0.0290957, 0.0293685, 0.00491693, 0.0107217, 0.0106683, 0.01128
0.117077, 0.0458049, -0.59208, 0.000784742, 0.0105442, 0.0406058, 0.0290919, 0.0293682, 0.00491442, 0.0107155, 0.0106595, 0.0112734
0.117356, 0.0457613, -0.591974, 0.000644705, 0.0105724, 0.0408497, 0.0290887, 0.0293681, 0.00491203, 0.010707, 0.0106503, 0.0112652
0.117662, 0.0456966, -0.591851, 0.000570656, 0.0105399, 0.0410712, 0.0290863, 0.0293678, 0.00490954, 0.0106982, 0.0106415, 0.01126
0.117957, 0.0456436, -0.591719, 0.000532149, 0.0104126, 0.0412873, 0.0290843, 0.0293676, 0.00490704, 0.0106886, 0.0106329, 0.0112566
0.118227, 0.0456076, -0.591589, 0.000493338, 0.0102282, 0.041501, 0.0290827, 0.0293673, 0.00490456, 0.0106786, 0.0106244, 0.0112537
0.118457, 0.0455852, -0.591475, 0.000419487, 0.0100614, 0.0417195, 0.0290815, 0.0293672, 0.00490211, 0.0106693, 0.0106161, 0.0112502
0.118646, 0.0455725, -0.591377, 0.000318605, 0.00990857, 0.0419461, 0.0290805, 0.0293671, 0.0048997, 0.0106605, 0.0106078, 0.0112458
0.11881, 0.0455602, -0.591281, 0.000235753, 0.00976376, 0.0421594, 0.0290797, 0.0293671, 0.00489727, 0.0106521, 0.0105997, 0.0112418
0.118953, 0.0455487, -0.591183, 0.000176923, 0.00961685, 0.0423583, 0.0290791, 0.0293671, 0.00489482, 0.0106439, 0.0105916, 0.0112383
0.119076, 0.0455388, -0.59108, 0.000151057, 0.00946959, 0.0425342, 0.0290787, 0.029367, 0.00489234, 0.0106358, 0.0105838, 0.0112357
0.119183, 0.0455334, -0.590968, 0.000164168, 0.00931356, 0.0426858, 0.0290784, 0.029367, 0.00488981, 0.0106277, 0.0105761, 0.0112339
0.119269, 0.0455316, -0.590851, 0.000196424, 0.00917847, 0.0428155, 0.0290781, 0.0293669, 0.00488722, 0.01062, 0.0105685, 0.0112326
0.119332, 0.0455294, -0.590744, 0.000225414, 0.00907694, 0.0429442, 0.0290779, 0.0293669, 0.00488468, 0.0106125, 0.010561, 0.011231
0.119389, 0.045527, -0.590664, 0.000228322, 0.00892011, 0.0430929, 0.0290777, 0.0293669, 0.00488241, 0.0106043, 0.0105533, 0.0112283
0.119426, 0.0455278, -0.590605, 0.000187426, 0.00879884, 0.043246, 0.0290774, 0.0293669, 0.0048802, 0.0105965, 0.0105456, 0.0112238
0.11945, 0.0455303, -0.590562, 0.000120046, 0.0086844, 0.0433984, 0.0290772, 0.0293669, 0.00487808, 0.0105888, 0.0105378, 0.0112174
0.119466, 0.0455289, -0.590517, 9.01397e-05, 0.00858589, 0.0435382, 0.029077, 0.0293669, 0.00487591, 0.0105814, 0.0105301, 0.0112122
0.119481, 0.0455247, -0.590474, 9.7119e-05, 0.00843988, 0.0436677, 0.0290769, 0.0293668, 0.00487374, 0.0105733, 0.0105224, 0.011208
0.11949, 0.0455214, -0.590436, 0.000106059, 0.00833078, 0.0437708, 0.0290767, 0.0293668, 0.00487152, 0.0105658, 0.0105148, 0.011204
0.119498, 0.0455178, -0.590403, 0.000120334, 0.00822019, 0.0438627, 0.0290764, 0.0293668, 0.00486932, 0.0105582, 0.0105073, 0.0111999
0.1195, 0.0455147, -0.590371, 0.000159949, 0.00811429, 0.0439415, 0.0290762, 0.0293668, 0.00486706, 0.0105506, 0.0104997, 0.0111965
0.119509, 0.0455109, -0.590346, 0.000199867, 0.0079838, 0.0440066, 0.0290759, 0.0293668, 0.00486482, 0.0105428, 0.0104922, 0.0111929
0.119513, 0.0455086, -0.590326, 0.000235282, 0.00788518, 0.0440574, 0.0290755, 0.0293668, 0.00486254, 0.0105353, 0.0104847, 0.0111891
0.119517, 0.0455075, -0.590308, 0.000286352, 0.00778623, 0.0440981, 0.0290751, 0.0293668, 0.00486019, 0.0105278, 0.0104773, 0.0111857
0.119525, 0.0455063, -0.590297, 0.00033682, 0.00768275, 0.0441264, 0.0290746, 0.0293668, 0.00485782, 0.0105202, 0.0104698, 0.0111822
0.119541, 0.0455048, -0.590294, 0.000380226, 0.00757537, 0.0441406, 0.029074, 0.0293668, 0.00485542, 0.0105126, 0.0104623, 0.0111783
0.119554, 0.0455052, -0.590292, 0.000431322, 0.00748567, 0.0441462, 0.0290734, 0.0293668, 0.00485294, 0.0105052, 0.0104549, 0.0111747
0.119574, 0.0455058, -0.590298, 0.000477048, 0.00740269, 0.0441391, 0.0290726, 0.0293668, 0.00485041, 0.0104978, 0.0104474, 0.0111707
0.1196, 0.0455071, -0.590309, 0.000527773, 0.00731283, 0.0441229, 0.0290718, 0.0293668, 0.00484779, 0.0104903, 0.01044, 0.011167
0.119636, 0.0455075, -0.590327, 0.00057076, 0.00722408, 0.0440923, 0.0290709, 0.0293668, 0.00484512, 0.0104828, 0.0104325, 0.011163
0.119674, 0.0455095, -0.590348, 0.000617708, 0.00715181, 0.044055, 0.0290699, 0.0293668, 0.00484234, 0.0104755, 0.0104251, 0.011159
0.119722, 0.045511, -0.590376, 0.000660279, 0.00708303, 0.0440055, 0.0290688, 0.0293668, 0.0048395, 0.0104682, 0.0104177, 0.0111549
0.119782, 0.045512, -0.590411, 0.000701405, 0.00701217, 0.0439453, 0.0290676, 0.0293668, 0.00483655, 0.0104609, 0.0104103, 0.0111508
0.119855, 0.045512, -0.590453, 0.000738768, 0.00693949, 0.0438734, 0.0290662, 0.0293668, 0.00483352, 0.0104535, 0.0104029, 0.0111466
0.119934, 0.0455119, -0.5905, 0.000774646, 0.0068873, 0.0437916, 0.0290647, 0.0293668, 0.0048304, 0.0104463, 0.0103955, 0.0111422
0.120028, 0.0455105, -0.590554, 0.000808591, 0.00683425, 0.0436991, 0.029063, 0.0293668, 0.00482719, 0.0104391, 0.0103881, 0.0111377
0.12014, 0.0455073, -0.590615, 0.000839692, 0.00677807, 0.043594, 0.0290612, 0.0293668, 0.00482388, 0.0104318, 0.0103807, 0.011133
0.120266, 0.0455024, -0.590683, 0.000867481, 0.00672658, 0.0434771, 0.0290592, 0.0293668, 0.00482049, 0.0104246, 0.0103733, 0.0111282
0.120405, 0.0454955, -0.590756, 0.000894663, 0.00668947, 0.043348, 0.029057, 0.0293668, 0.00481702, 0.0104175, 0.010366, 0.0111231
0.120561, 0.0454862, -0.590835, 0.000919305, 0.0066539, 0.0432052, 0.0290547, 0.0293668, 0.00481348, 0.0104103, 0.0103586, 0.0111177
