0.0356324, -0.00571359, -0.586467, -0.000376785, 7.53308e-05, -0.00144048, 0.0316228, 0.0316228, 0.0316228, 0.0316228, 0.0316228, 0.0316228
0.0356324, -0.00571359, -0.586467, -0.000376785, 7.53308e-05, -0.00144048, 0.0317, 0.0317, 0.0317, 0.0316247, 0.0316247, 0.0316247
0.0356298, -0.00575334, -0.586465, -0.000444237, 8.08938e-05, -0.00146873, 0.0317049, 0.0317049, 0.0317048, 0.0316143, 0.0316143, 0.0316238
0.0356294, -0.0057781, -0.586467, -0.000491202, 8.57386e-05, -0.00146288, 0.0317087, 0.0317087, 0.0317083, 0.0315983, 0.0315982, 0.031623
0.0356375, -0.00577828, -0.586444, -0.000494592, 5.5826e-05, -0.00145121, 0.0317113, 0.0317113, 0.0317101, 0.0315747, 0.0315746, 0.0316221
0.03565, -0.00580214, -0.586384, -0.000548485, 7.50679e-06, -0.00146439, 0.0317129, 0.0317129, 0.0317101, 0.0315414, 0.0315411, 0.0316212
0.0356391, -0.0058175, -0.586434, -0.000584761, 7.59017e-05, -0.00146488, 0.0317135, 0.0317135, 0.0317079, 0.0314962, 0.0314958, 0.0316203
0.0356377, -0.00583946, -0.586461, -0.000641719, 7.24472e-05, -0.00147117, 0.0317134, 0.0317133, 0.0317031, 0.0314377, 0.0314372, 0.0316193
0.0356232, -0.00580941, -0.586576, -0.000550721, 0.000151672, -0.00144904, 0.0317129, 0.0317128, 0.0316957, 0.0313647, 0.0313646, 0.0316183
0.0356282, -0.00582915, -0.5866, -0.000611102, 0.000117589, -0.0014702, 0.0317123, 0.0317121, 0.0316854, 0.0312769, 0.0312779, 0.0316173
0.0356281, -0.00585644, -0.586648, -0.00070355, 0.000132493, -0.00148019, 0.031712, 0.0317117, 0.031672, 0.0311737, 0.0311755, 0.0316163
0.0356314, -0.00581357, -0.58672, -0.000536799, 0.000134806, -0.0014476, 0.031712, 0.0317117, 0.0316549, 0.0310555, 0.031057, 0.0316152
0.0356427, -0.00581532, -0.586731, -0.000542218, 7.48548e-05, -0.00146431, 0.0317126, 0.0317124, 0.0316342, 0.0309226, 0.0309234, 0.0316141
0.0356443, -0.00584587, -0.58678, -0.000677915, 8.1665e-05, -0.00148536, 0.0317141, 0.0317139, 0.0316099, 0.0307756, 0.0307752, 0.031613
0.0356493, -0.00584965, -0.586824, -0.000694031, 6.21665e-05, -0.00147806, 0.0317162, 0.0317162, 0.0315821, 0.0306157, 0.0306139, 0.0316118
0.0356609, -0.00586965, -0.586744, -0.000820019, -4.57434e-05, -0.00149338, 0.0317194, 0.0317194, 0.0315509, 0.0304418, 0.0304387, 0.0316107
0.035668, -0.00584496, -0.586919, -0.000635226, -1.59107e-05, -0.00146422, 0.0317232, 0.0317233, 0.0315165, 0.0302556, 0.030252, 0.0316096
0.0356675, -0.00583451, -0.587178, -0.000522836, 5.60887e-05, -0.00146637, 0.0317278, 0.031728, 0.0314795, 0.0300556, 0.0300521, 0.0316085
0.0356785, -0.0058464, -0.587226, -0.000613806, -6.4332e-05, -0.00148407, 0.0317331, 0.0317333, 0.03144, 0.0298417, 0.0298384, 0.0316074
0.0356827, -0.00583567, -0.58751, -0.000455965, 6.69419e-06, -0.00146404, 0.0317389, 0.0317391, 0.0313983, 0.0296129, 0.0296096, 0.0316064
0.0356893, -0.00582338, -0.587698, -0.000272357, -3.31124e-05, -0.00145696, 0.0317451, 0.0317453, 0.0313545, 0.0293692, 0.0293664, 0.0316054
0.0356974, -0.00582518, -0.587946, -0.000231419, -5.59799e-05, -0.0014662, 0.0317517, 0.031752, 0.0313092, 0.0291081, 0.0291071, 0.0316044
0.0357034, -0.00585162, -0.587887, -0.000655927, -0.000223816, -0.00150368, 0.0317587, 0.0317589, 0.0312627, 0.028829, 0.0288315, 0.0316034
0.0357121, -0.00584659, -0.588222, -0.000445317, -0.000180056, -0.0014631, 0.031766, 0.0317662, 0.0312155, 0.0285302, 0.0285389, 0.0316024
0.035717, -0.00585326, -0.588307, -0.000561216, -0.000304244, -0.00148323, 0.0317735, 0.0317737, 0.0311683, 0.0282115, 0.0282316, 0.0316015
0.0357209, -0.00585933, -0.588278, -0.000744298, -0.000454888, -0.00148888, 0.0317811, 0.0317814, 0.0311217, 0.0278708, 0.0279085, 0.0316006
0.0357274, -0.00585349, -0.588444, -0.000429581, -0.000533973, -0.00145601, 0.0317889, 0.0317891, 0.0310762, 0.0275086, 0.027569, 0.0315996
0.0357327, -0.00586082, -0.588706, -0.000541123, -0.000540128, -0.00148308, 0.0317969, 0.031797, 0.0310315, 0.0271237, 0.0272082, 0.0315987
0.0357361, -0.00586288, -0.588905, -0.00043432, -0.000590772, -0.00147139, 0.0318048, 0.031805, 0.0309868, 0.0267164, 0.0268201, 0.0315977
0.0357366, -0.00586757, -0.588929, -0.000864837, -0.000688779, -0.00149855, 0.0318129, 0.031813, 0.0309403, 0.0262854, 0.0263941, 0.0315967
0.0357393, -0.00586895, -0.589041, -0.00069642, -0.000772673, -0.0014684, 0.0318209, 0.031821, 0.0308941, 0.0258338, 0.0259457, 0.0315957
0.035742, -0.00587247, -0.589189, -0.00036813, -0.000834659, -0.00145996, 0.0318289, 0.0318291, 0.0308489, 0.0253593, 0.0254784, 0.0315947
0.0357443, -0.00587603, -0.589331, -0.000262886, -0.000900281, -0.00147043, 0.0318369, 0.031837, 0.0308025, 0.024866, 0.0249839, 0.0315937
0.0357406, -0.0058713, -0.589264, -0.000604768, -0.00102919, -0.00149323, 0.0318449, 0.031845, 0.0307552, 0.0243553, 0.0244654, 0.0315926
0.035745, -0.00587499, -0.589426, -0.000573127, -0.00106371, -0.00147535, 0.0318527, 0.0318529, 0.0307082, 0.0238328, 0.0239349, 0.0315916
0.0357422, -0.00587081, -0.58941, -0.000804725, -0.00114839, -0.00149168, 0.0318606, 0.0318608, 0.0306611, 0.0233034, 0.0233944, 0.0315905
0.0357441, -0.00587104, -0.589509, -0.000889604, -0.00120938, -0.00148753, 0.0318685, 0.0318687, 0.0306132, 0.0227709, 0.0228455, 0.0315892
0.0357469, -0.00587683, -0.589652, -0.000773392, -0.00130378, -0.00147427, 0.0318762, 0.0318765, 0.0305647, 0.0222396, 0.0222945, 0.031588
0.0357402, -0.00586815, -0.589547, -0.0010285, -0.00138027, -0.00150204, 0.031884, 0.0318843, 0.030516, 0.021707, 0.0217422, 0.0315867
0.0357442, -0.00588378, -0.589659, -0.000571881, -0.00144388, -0.00145102, 0.0318916, 0.031892, 0.0304674, 0.0211714, 0.0211903, 0.0315853
0.035748, -0.00589554, -0.589777, -0.000284713, -0.00149009, -0.00144977, 0.0318993, 0.0318997, 0.030419, 0.0206316, 0.0206395, 0.031584
0.0357499, -0.0059047, -0.58984, -5.86278e-05, -0.00152539, -0.00144384, 0.0319068, 0.0319073, 0.0303704, 0.0200905, 0.020091, 0.0315827
0.0357514, -0.00590767, -0.589892, -1.56596e-05, -0.00154644, -0.00145089, 0.0319144, 0.0319149, 0.0303216, 0.0195566, 0.0195539, 0.0315812
0.0357519, -0.00591485, -0.58991, 0.000156208, -0.00157196, -0.00143459, 0.0319219, 0.0319224, 0.0302725, 0.0190386, 0.0190372, 0.0315797
0.0357539, -0.00592527, -0.589968, 0.000365838, -0.00161719, -0.00142029, 0.0319293, 0.0319299, 0.0302223, 0.0185458, 0.0185486, 0.0315781
0.0357541, -0.00593356, -0.590013, 0.000515014, -0.00168656, -0.00141239, 0.0319368, 0.0319374, 0.0301705, 0.0180787, 0.0180873, 0.0315763
0.0357532, -0.00594498, -0.590024, 0.000745738, -0.00175856, -0.0013912, 0.0319441, 0.0319448, 0.0301184, 0.0176392, 0.0176552, 0.0315743
0.0357493, -0.00594318, -0.589996, 0.000720162, -0.00180746, -0.00140294, 0.0319515, 0.0319522, 0.0300678, 0.0172266, 0.0172506, 0.0315723
0.035747, -0.00594312, -0.590009, 0.000698724, -0.00186408, -0.00139868, 0.0319589, 0.0319597, 0.0300181, 0.01684, 0.0168719, 0.0315699
0.0357413, -0.00593255, -0.589992, 0.000506194, -0.00190859, -0.00141756, 0.0319661, 0.031967, 0.0299692, 0.016481, 0.0165204, 0.0315673
0.0357323, -0.00592481, -0.589916, 0.00041112, -0.00196986, -0.00141234, 0.0319734, 0.0319744, 0.0299207, 0.0161466, 0.0161932, 0.0315644
0.0357296, -0.00592553, -0.589917, 0.000409432, -0.00201954, -0.00140071, 0.0319806, 0.0319817, 0.0298721, 0.0158346, 0.0158883, 0.0315612
0.0357242, -0.00591174, -0.589935, 0.000168936, -0.00204734, -0.0014401, 0.0319879, 0.0319891, 0.0298238, 0.0155373, 0.0155984, 0.0315578
0.0357128, -0.00589861, -0.589832, 3.20648e-05, -0.0020828, -0.00144501, 0.0319951, 0.0319964, 0.0297761, 0.0152488, 0.0153169, 0.0315541
0.0357097, -0.00589032, -0.589826, -8.63691e-05, -0.00208135, -0.00146001, 0.0320021, 0.0320035, 0.0297289, 0.0149635, 0.0150395, 0.0315502
0.035701, -0.00587896, -0.589745, -0.000193511, -0.00209098, -0.00147213, 0.0320092, 0.0320107, 0.0296814, 0.0146792, 0.0147636, 0.031546
0.035697, -0.00587728, -0.589692, -0.000183652, -0.00210202, -0.00145987, 0.0320163, 0.0320179, 0.0296337, 0.0143999, 0.0144926, 0.0315417
0.0357002, -0.00588785, -0.589632, 4.81359e-06, -0.00208743, -0.00141809, 0.0320233, 0.0320249, 0.0295862, 0.0141336, 0.0142335, 0.0315376
0.0357073, -0.00589791, -0.58961, 0.000164109, -0.00205182, -0.0014, 0.0320303, 0.032032, 0.0295391, 0.0138813, 0.0139867, 0.0315339
0.0357051, -0.00590586, -0.589489, 0.000339937, -0.00205962, -0.00137151, 0.0320371, 0.0320388, 0.0294927, 0.013641, 0.01375, 0.0315305
0.0357148, -0.0059232, -0.589463, 0.000568298, -0.00204109, -0.00133548, 0.0320439, 0.0320457, 0.0294468, 0.0134, 0.0135108, 0.0315272
0.0356967, -0.00589718, -0.589348, 0.000353142, -0.00203392, -0.00140746, 0.0320506, 0.0320525, 0.0294002, 0.0131449, 0.0132569, 0.0315241
0.0356869, -0.00588328, -0.589202, 0.000311293, -0.00199709, -0.00140002, 0.0320571, 0.0320591, 0.0293531, 0.0128666, 0.0129784, 0.0315206
0.0356752, -0.00585648, -0.589055, 0.000157905, -0.00190475, -0.00143983, 0.0320635, 0.0320655, 0.0293064, 0.0125578, 0.0126669, 0.0315168
0.0356569, -0.00582949, -0.588796, 7.80607e-05, -0.00182095, -0.0014495, 0.0320698, 0.0320718, 0.0292598, 0.0122136, 0.0123169, 0.0315129
0.0356569, -0.00582949, -0.588796, 7.80607e-05, -0.00182095, -0.0014495, 0.0320779, 0.0320799, 0.0292686, 0.0122141, 0.0123174, 0.0315131
0.0356461, -0.00579453, -0.588545, -1.47419e-05, -0.00162066, -0.00148187, 0.0320832, 0.0320853, 0.0292117, 0.0116692, 0.0117571, 0.0315048
0.0356406, -0.00577364, -0.588243, 0.000102607, -0.00144597, -0.00145405, 0.0320888, 0.0320909, 0.0291563, 0.0111388, 0.0112109, 0.0315004
0.0356461, -0.00576119, -0.58808, 0.000216207, -0.00127654, -0.00143779, 0.0320945, 0.0320968, 0.0291022, 0.0106354, 0.010693, 0.0314959
0.0356421, -0.00574377, -0.587815, 0.000346837, -0.00112506, -0.00140741, 0.0321004, 0.0321028, 0.0290496, 0.0101694, 0.0102137, 0.0314911
0.035648, -0.00573476, -0.587672, 0.000478888, -0.000983804, -0.00137679, 0.0321064, 0.032109, 0.0289983, 0.00974394, 0.00977614, 0.0314858
0.035648, -0.00573476, -0.587672, 0.000478888, -0.000983804, -0.00137679, 0.0321144, 0.032117, 0.0290071, 0.00974458, 0.00977677, 0.031486
0.0356894, -0.00573606, -0.58778, 0.000656511, -0.00072451, -0.0013324, 0.03212, 0.0321229, 0.0289467, 0.00924713, 0.00926203, 0.0314753
0.0356894, -0.00573606, -0.58778, 0.000656511, -0.00072451, -0.0013324, 0.0321279, 0.0321309, 0.0289555, 0.0092478, 0.0092627, 0.0314755
0.0357014, -0.00572225, -0.587634, 0.000844516, -0.000521439, -0.00125986, 0.0321336, 0.032137, 0.0288867, 0.00873322, 0.00872882, 0.0314618
0.0357251, -0.00572639, -0.587606, 0.0011125, -0.000376323, -0.00115139, 0.0321397, 0.0321436, 0.0288223, 0.00835594, 0.00833907, 0.031451
0.0357177, -0.00570683, -0.587498, 0.00106428, -0.000249299, -0.00117804, 0.0321462, 0.0321505, 0.0287615, 0.00807647, 0.00805183, 0.0314391
0.0357131, -0.00569363, -0.587414, 0.00104999, -0.00014913, -0.00116363, 0.0321528, 0.0321578, 0.0287037, 0.00786518, 0.0078351, 0.0314304
0.0357061, -0.00568452, -0.587306, 0.00109341, -8.33619e-05, -0.00112384, 0.0321598, 0.0321652, 0.028648, 0.00770525, 0.00767259, 0.0314232
0.0356933, -0.00567425, -0.587186, 0.00108272, -3.58416e-05, -0.00112449, 0.0321667, 0.0321728, 0.0285943, 0.00758526, 0.00755166, 0.0314165
0.03568, -0.0056666, -0.587057, 0.00111289, 2.23873e-06, -0.00109166, 0.0321738, 0.0321806, 0.0285425, 0.00749555, 0.00746183, 0.0314108
0.0356679, -0.00566123, -0.586952, 0.00114344, 3.20219e-05, -0.0010676, 0.0321809, 0.0321883, 0.0284929, 0.00742949, 0.00739448, 0.0314054
0.0356448, -0.00565475, -0.586792, 0.00124306, 2.72863e-05, -0.000980284, 0.032188, 0.0321962, 0.0284453, 0.00738161, 0.00734365, 0.0314004
0.0356375, -0.00565381, -0.586741, 0.00126558, 4.77003e-05, -0.00098686, 0.0321951, 0.032204, 0.0283996, 0.00734752, 0.0073068, 0.0313947
0.035649, -0.00566053, -0.58682, 0.00127177, 7.90557e-05, -0.000991833, 0.032202, 0.0322118, 0.0283554, 0.00732249, 0.00727847, 0.0313895
0.0356339, -0.00565489, -0.586708, 0.00127193, 8.46944e-05, -0.00098575, 0.032209, 0.0322196, 0.0283127, 0.00730313, 0.00725617, 0.0313846
0.0356348, -0.00566034, -0.586748, 0.00130391, 9.50884e-05, -0.000946607, 0.0322159, 0.0322273, 0.0282712, 0.00728671, 0.00723728, 0.0313802
0.0356103, -0.00565053, -0.586602, 0.00131843, 8.15693e-05, -0.000927755, 0.0322227, 0.0322348, 0.0282308, 0.00727188, 0.00722008, 0.0313754
0.0356079, -0.00565341, -0.586614, 0.00133923, 8.06084e-05, -0.000907745, 0.0322296, 0.0322424, 0.0281914, 0.00725675, 0.00720281, 0.0313706
0.0356185, -0.00566921, -0.586776, 0.00138122, 7.50286e-05, -0.000845151, 0.0322363, 0.0322498, 0.0281527, 0.00724062, 0.00718527, 0.0313655
0.035633, -0.00567361, -0.58683, 0.00136533, 9.12433e-05, -0.00091029, 0.032243, 0.0322572, 0.0281147, 0.00722257, 0.00716649, 0.0313589
0.0356359, -0.00567698, -0.586864, 0.00136878, 9.08497e-05, -0.000891257, 0.0322497, 0.0322644, 0.0280772, 0.00720126, 0.00714508, 0.0313524
0.0356445, -0.00569465, -0.587026, 0.00140398, 7.62471e-05, -0.000835374, 0.0322563, 0.0322715, 0.0280403, 0.00717601, 0.00712, 0.0313453
0.0356412, -0.00571182, -0.58719, 0.0014579, 3.21247e-05, -0.000744043, 0.0322628, 0.0322785, 0.0280037, 0.00714632, 0.00709009, 0.0313368
0.0356553, -0.00571928, -0.587291, 0.00145337, 3.25445e-05, -0.000782456, 0.0322692, 0.0322854, 0.0279675, 0.00711108, 0.00705355, 0.031326
0.0356555, -0.00574034, -0.587496, 0.00151041, -1.12622e-05, -0.000669403, 0.0322755, 0.0322921, 0.0279316, 0.00706865, 0.00700833, 0.0313136
0.0356587, -0.00575788, -0.587673, 0.00155472, -4.46078e-05, -0.000613269, 0.0322816, 0.0322986, 0.0278958, 0.00701844, 0.00695345, 0.0312987
0.0356674, -0.00575879, -0.587732, 0.00154287, -4.97091e-05, -0.00064143, 0.0322876, 0.032305, 0.0278601, 0.00695946, 0.006888, 0.031281
0.035663, -0.00576913, -0.587842, 0.00158306, -8.1639e-05, -0.000560426, 0.0322934, 0.0323112, 0.0278246, 0.00689108, 0.0068109, 0.0312609
0.0356583, -0.00577842, -0.587964, 0.00162359, -0.000120553, -0.000492083, 0.0322989, 0.0323171, 0.0277891, 0.00681429, 0.00672365, 0.0312387
0.0356768, -0.00577179, -0.587967, 0.0015716, -0.000101632, -0.000580868, 0.0323044, 0.0323229, 0.0277536, 0.00672957, 0.00662711, 0.0312145
0.0356753, -0.00576523, -0.587973, 0.00156137, -0.000121479, -0.000554192, 0.0323096, 0.0323283, 0.0277181, 0.00663811, 0.00652353, 0.0311884
0.0356945, -0.00575669, -0.587973, 0.00150578, -0.000107548, -0.000623801, 0.0323145, 0.0323334, 0.0276826, 0.0065415, 0.00641528, 0.0311612
0.0357171, -0.00574664, -0.587957, 0.00143947, -8.75211e-05, -0.000696682, 0.0323194, 0.0323383, 0.0276472, 0.00644084, 0.00630362, 0.0311323
0.0357302, -0.005733, -0.587934, 0.00138748, -9.00726e-05, -0.000728836, 0.0323241, 0.0323429, 0.0276118, 0.00633717, 0.00618967, 0.0311018
0.0357425, -0.00571742, -0.587884, 0.00133347, -9.02293e-05, -0.000771965, 0.0323288, 0.0323475, 0.0275763, 0.00623128, 0.00607362, 0.0310699
0.0357392, -0.0056975, -0.587807, 0.00130473, -0.000113525, -0.000762059, 0.0323333, 0.0323519, 0.0275408, 0.00612452, 0.00595664, 0.0310371
0.0357557, -0.00568979, -0.587828, 0.00126142, -0.00011774, -0.000800363, 0.0323378, 0.0323561, 0.0275052, 0.00601801, 0.00583927, 0.0310043
0.0357873, -0.0056733, -0.587784, 0.00116941, -0.000107057, -0.000909848, 0.0323424, 0.0323605, 0.0274696, 0.00591262, 0.00572187, 0.0309715
0.0357991, -0.00565926, -0.58775, 0.00112263, -0.00011654, -0.000933701, 0.0323471, 0.0323649, 0.0274339, 0.00580978, 0.00560562, 0.0309378
0.0358135, -0.0056421, -0.587686, 0.00106382, -0.000125119, -0.000990514, 0.0323519, 0.0323695, 0.0273982, 0.00571017, 0.00549083, 0.0309049
0.0358135, -0.0056403, -0.587735, 0.00106768, -0.0001436, -0.000947192, 0.032357, 0.0323745, 0.0273625, 0.00561385, 0.00537742, 0.0308726
0.0358394, -0.00563104, -0.58771, 0.000991478, -0.000143977, -0.00105853, 0.0323624, 0.0323798, 0.0273267, 0.00552137, 0.00526673, 0.0308433
0.0358781, -0.00561871, -0.587641, 0.000861772, -0.000138443, -0.00124203, 0.0323683, 0.0323855, 0.027291, 0.00543439, 0.00516086, 0.0308147
0.0358737, -0.00559875, -0.587543, 0.000837876, -0.000171181, -0.00122203, 0.0323746, 0.0323918, 0.0272553, 0.00535454, 0.00506146, 0.0307859
0.0358941, -0.00559091, -0.587469, 0.000743425, -0.000169099, -0.00137599, 0.0323811, 0.0323982, 0.0272197, 0.0052823, 0.00497024, 0.0307616
0.0359056, -0.00559824, -0.587582, 0.000735936, -0.00018068, -0.0013482, 0.0323879, 0.0324049, 0.0271844, 0.00521868, 0.00488838, 0.0307395
0.0359147, -0.00558589, -0.587466, 0.000663625, -0.000185751, -0.00147335, 0.0323949, 0.0324118, 0.0271492, 0.00516269, 0.00481612, 0.0307228
0.03592, -0.00557419, -0.587362, 0.000602579, -0.000190979, -0.00154951, 0.032402, 0.0324188, 0.0271143, 0.00511434, 0.00475299, 0.0307088
0.0359261, -0.00555798, -0.587202, 0.000521205, -0.000190155, -0.00166666, 0.0324091, 0.0324258, 0.0270797, 0.00507247, 0.00469787, 0.0306976
0.0359247, -0.00554289, -0.58708, 0.000482307, -0.000198302, -0.00169658, 0.0324163, 0.0324329, 0.0270454, 0.00503623, 0.00464995, 0.0306884
0.0359195, -0.0055471, -0.587141, 0.000513392, -0.000205902, -0.00162891, 0.0324236, 0.03244, 0.0270114, 0.00500416, 0.00460793, 0.0306816
0.0359146, -0.00552418, -0.586927, 0.000474687, -0.000207813, -0.00169845, 0.0324308, 0.0324471, 0.0269778, 0.00497483, 0.00457084, 0.0306779
0.0359106, -0.00551663, -0.58688, 0.000469934, -0.00021362, -0.0016835, 0.032438, 0.032454, 0.0269444, 0.00494828, 0.00453775, 0.0306751
0.0359233, -0.00549687, -0.586715, 0.000400172, -0.000207798, -0.00175543, 0.0324452, 0.0324611, 0.0269116, 0.00492356, 0.00450777, 0.0306734
0.0359238, -0.00548732, -0.586645, 0.000380853, -0.000207628, -0.00173772, 0.0324523, 0.0324679, 0.026879, 0.00490079, 0.00448024, 0.0306719
0.0359244, -0.00548185, -0.586597, 0.000370099, -0.000205403, -0.00173858, 0.0324594, 0.0324747, 0.0268468, 0.00487917, 0.0044546, 0.0306709
0.0359226, -0.00548293, -0.586608, 0.000374801, -0.000206106, -0.00172909, 0.0324664, 0.0324815, 0.0268149, 0.0048584, 0.00443054, 0.0306701
0.0359128, -0.00547936, -0.586594, 0.00039118, -0.000214458, -0.00172218, 0.0324734, 0.0324883, 0.0267833, 0.00483807, 0.00440751, 0.0306693
0.0359085, -0.00547683, -0.586572, 0.000395906, -0.000216197, -0.00172904, 0.0324801, 0.032495, 0.0267519, 0.00481789, 0.00438539, 0.0306683
0.0359034, -0.00546857, -0.586512, 0.000394082, -0.00022014, -0.00173112, 0.0324869, 0.0325018, 0.0267208, 0.00479768, 0.00436375, 0.0306668
0.0359154, -0.00547415, -0.586559, 0.000381083, -0.000214091, -0.00173252, 0.0324935, 0.0325086, 0.0266899, 0.00477735, 0.00434261, 0.0306648
0.0359233, -0.00547906, -0.586591, 0.000373658, -0.00020798, -0.00172733, 0.0325002, 0.0325154, 0.0266592, 0.00475688, 0.0043221, 0.0306621
0.0359249, -0.00548488, -0.586621, 0.00037707, -0.000202982, -0.00172693, 0.0325069, 0.0325222, 0.0266287, 0.00473624, 0.00430216, 0.0306587
0.0359325, -0.00549631, -0.586701, 0.000378011, -0.000195654, -0.0017328, 0.0325136, 0.032529, 0.0265984, 0.00471538, 0.00428269, 0.0306547
0.0359422, -0.0054977, -0.586709, 0.000362675, -0.000190522, -0.00173458, 0.0325204, 0.0325359, 0.0265684, 0.00469422, 0.00426348, 0.03065
0.0359382, -0.00550861, -0.586758, 0.00037967, -0.000182369, -0.00173652, 0.0325273, 0.0325427, 0.0265385, 0.00467283, 0.00424446, 0.030645
0.03593, -0.00551092, -0.586744, 0.000396125, -0.00017954, -0.00175234, 0.0325342, 0.0325496, 0.0265087, 0.00465122, 0.00422549, 0.0306395
0.0359265, -0.00551598, -0.586753, 0.00040759, -0.000173798, -0.00176859, 0.0325411, 0.0325565, 0.0264792, 0.00462942, 0.00420649, 0.0306335
0.0359145, -0.00553077, -0.586837, 0.000451274, -0.000169705, -0.00178541, 0.0325482, 0.0325636, 0.0264497, 0.00460746, 0.00418745, 0.0306271
0.0359198, -0.00553961, -0.586895, 0.000454336, -0.000162179, -0.00181653, 0.0325552, 0.0325707, 0.0264203, 0.00458548, 0.00416841, 0.0306204
0.0359329, -0.00554894, -0.58698, 0.000442138, -0.000152787, -0.0018262, 0.0325623, 0.0325779, 0.0263911, 0.0045635, 0.00414943, 0.0306132
0.03593, -0.00555367, -0.586995, 0.000456649, -0.000148152, -0.00182511, 0.0325696, 0.0325852, 0.026362, 0.00454153, 0.0041305, 0.0306054
0.0359292, -0.00556208, -0.587047, 0.000477371, -0.000143495, -0.00183785, 0.0325769, 0.0325926, 0.026333, 0.00451963, 0.00411164, 0.0305972
0.0359303, -0.00556375, -0.587051, 0.000478473, -0.000138846, -0.00185584, 0.0325844, 0.0326, 0.0263042, 0.00449782, 0.00409288, 0.0305885
0.0359249, -0.00556439, -0.587034, 0.000497366, -0.000137794, -0.00185196, 0.0325918, 0.0326074, 0.0262754, 0.00447623, 0.00407429, 0.0305794
0.0359249, -0.00556439, -0.587034, 0.000497366, -0.000137794, -0.00185196, 0.0325996, 0.0326153, 0.0262851, 0.00447763, 0.00407582, 0.0305796
0.0359249, -0.00556439, -0.587034, 0.000497366, -0.000137794, -0.00185196, 0.0326075, 0.0326231, 0.0262948, 0.00447902, 0.00407735, 0.0305798
0.0359359, -0.00557825, -0.587168, 0.000511122, -0.000127563, -0.00187644, 0.032615, 0.0326306, 0.0262517, 0.00444639, 0.0040482, 0.0305559
0.0359263, -0.00556904, -0.587066, 0.000514241, -0.000130857, -0.00186849, 0.0326224, 0.0326381, 0.0262109, 0.00441763, 0.0040221, 0.03054
0.0359259, -0.00556778, -0.587057, 0.000502552, -0.000131239, -0.00188072, 0.0326299, 0.0326456, 0.0261725, 0.0043917, 0.00399828, 0.0305243
0.0359216, -0.00556314, -0.587012, 0.000476475, -0.000130875, -0.00190595, 0.0326375, 0.0326532, 0.0261359, 0.00436807, 0.00397632, 0.0305085
0.0359184, -0.00556105, -0.586994, 0.000447, -0.000128438, -0.00193745, 0.0326449, 0.0326607, 0.0261008, 0.00434634, 0.00395592, 0.0304927
0.0359161, -0.00556126, -0.586992, 0.000420368, -0.00012866, -0.00195983, 0.0326524, 0.0326682, 0.0260672, 0.00432621, 0.00393686, 0.0304765
0.035911, -0.00556063, -0.586975, 0.00039229, -0.000129103, -0.00199024, 0.0326599, 0.0326757, 0.0260348, 0.00430748, 0.00391891, 0.0304601
0.0359204, -0.00556798, -0.587044, 0.000397211, -0.000132323, -0.0019514, 0.0326673, 0.0326831, 0.0260033, 0.00429, 0.00390202, 0.0304435
0.0359019, -0.0055616, -0.586939, 0.00035989, -0.000139637, -0.00201655, 0.0326746, 0.0326905, 0.0259728, 0.00427386, 0.00388614, 0.0304265
0.035918, -0.00558213, -0.587127, 0.000343363, -0.00013517, -0.00204505, 0.032682, 0.0326978, 0.0259429, 0.00425872, 0.00387117, 0.0304094
0.0359163, -0.00558192, -0.587107, 0.000338345, -0.00014264, -0.00201476, 0.0326893, 0.0327052, 0.0259138, 0.00424465, 0.00385697, 0.0303924
0.0359142, -0.00559388, -0.587168, 0.000308324, -0.00014474, -0.00209766, 0.0326966, 0.0327126, 0.0258852, 0.00423164, 0.00384345, 0.0303753
0.0358972, -0.0055922, -0.587084, 0.000277957, -0.000150626, -0.00213859, 0.0327039, 0.0327199, 0.0258571, 0.00421944, 0.00383052, 0.0303587
0.0358723, -0.00559327, -0.586985, 0.000231785, -0.000154847, -0.00224854, 0.0327111, 0.0327272, 0.0258294, 0.00420806, 0.00381816, 0.0303425
0.0358824, -0.00560084, -0.587052, 0.00023061, -0.000156462, -0.00220469, 0.0327184, 0.0327345, 0.025802, 0.00419737, 0.0038064, 0.0303269
0.0358646, -0.00559587, -0.586939, 0.00021101, -0.00016316, -0.00225384, 0.0327256, 0.0327418, 0.0257749, 0.00418775, 0.00379519, 0.0303114
0.0358503, -0.00559119, -0.586837, 0.000195931, -0.000166269, -0.00228502, 0.032733, 0.0327492, 0.025748, 0.00417896, 0.00378445, 0.0302961
0.0358286, -0.00557823, -0.586649, 0.00018447, -0.000172723, -0.00229544, 0.0327403, 0.0327566, 0.0257213, 0.00417098, 0.00377415, 0.0302811
0.0358162, -0.00556968, -0.586535, 0.000179766, -0.000175093, -0.00230438, 0.0327476, 0.0327641, 0.025695, 0.00416374, 0.00376424, 0.0302664
0.0357864, -0.00556231, -0.586352, 0.000147246, -0.000177875, -0.0024531, 0.0327549, 0.0327715, 0.0256689, 0.00415717, 0.00375467, 0.0302517
0.0357877, -0.0055599, -0.586335, 0.000149182, -0.000178621, -0.00239896, 0.0327624, 0.032779, 0.0256431, 0.00415097, 0.00374536, 0.0302384
0.0357909, -0.00556225, -0.586362, 0.000150807, -0.000177131, -0.00240378, 0.0327697, 0.0327864, 0.0256175, 0.00414534, 0.0037364, 0.0302248
0.0357716, -0.00555519, -0.586247, 0.000131423, -0.000177279, -0.00251115, 0.0327771, 0.0327939, 0.025592, 0.00414018, 0.00372772, 0.0302114
0.0357633, -0.0055503, -0.586189, 0.000124838, -0.000172323, -0.00252693, 0.0327845, 0.0328014, 0.0255669, 0.00413521, 0.00371914, 0.0301994
0.0357568, -0.00554675, -0.586147, 0.000120079, -0.000169718, -0.00255022, 0.0327918, 0.0328089, 0.0255419, 0.00413048, 0.00371065, 0.0301879
0.0357651, -0.00555216, -0.586212, 0.000118666, -0.000166473, -0.00255877, 0.0327992, 0.0328165, 0.0255172, 0.00412594, 0.00370222, 0.030177
0.0357758, -0.00555795, -0.586291, 0.00012298, -0.000161978, -0.00253877, 0.0328065, 0.0328241, 0.0254925, 0.00412153, 0.00369386, 0.0301665
0.0358068, -0.0055734, -0.586474, 0.000155944, -0.00016047, -0.00236509, 0.032814, 0.0328317, 0.0254681, 0.00411722, 0.00368563, 0.0301561
0.0357969, -0.00556828, -0.586423, 0.000150525, -0.000161826, -0.00245341, 0.0328213, 0.0328393, 0.0254439, 0.00411307, 0.00367762, 0.0301452
0.0358105, -0.00557645, -0.586507, 0.000160929, -0.0001587, -0.00238844, 0.0328287, 0.0328469, 0.0254198, 0.00410878, 0.00366974, 0.030135
0.0358359, -0.0055936, -0.586678, 0.000178896, -0.000153028, -0.00232412, 0.032836, 0.0328544, 0.0253959, 0.00410439, 0.00366203, 0.0301252
0.0358345, -0.00559374, -0.58667, 0.000185752, -0.000155267, -0.00231006, 0.0328434, 0.032862, 0.0253721, 0.00409987, 0.0036545, 0.0301156
0.0358356, -0.00559499, -0.586673, 0.000192291, -0.00015504, -0.00229015, 0.0328507, 0.0328695, 0.0253483, 0.00409506, 0.00364714, 0.0301065
0.0358487, -0.00560508, -0.586769, 0.000195811, -0.000150996, -0.0022985, 0.032858, 0.032877, 0.0253247, 0.0040899, 0.00363996, 0.0300978
0.035848, -0.00560518, -0.586764, 0.000198666, -0.000150043, -0.00229012, 0.0328654, 0.0328845, 0.0253012, 0.00408433, 0.00363294, 0.0300894
0.0358438, -0.00559793, -0.586722, 0.000187075, -0.000144826, -0.00235221, 0.0328727, 0.0328918, 0.0252777, 0.00407831, 0.00362605, 0.0300811
0.0358456, -0.00559885, -0.586729, 0.000186711, -0.000140128, -0.00234687, 0.0328801, 0.0328993, 0.0252544, 0.00407178, 0.0036193, 0.0300726
0.0358544, -0.00560879, -0.586799, 0.000195524, -0.000137625, -0.00233065, 0.0328874, 0.0329067, 0.0252311, 0.0040648, 0.00361263, 0.0300639
0.0358521, -0.0056108, -0.586796, 0.000204632, -0.000138026, -0.00231389, 0.0328947, 0.0329141, 0.0252078, 0.00405745, 0.00360604, 0.0300546
0.0358588, -0.00561904, -0.586855, 0.000211074, -0.00013765, -0.00231237, 0.032902, 0.0329214, 0.0251846, 0.00404979, 0.00359947, 0.0300451
0.0358521, -0.00561896, -0.586836, 0.00022063, -0.000141501, -0.00227922, 0.0329093, 0.0329287, 0.0251616, 0.00404192, 0.00359287, 0.0300353
0.0358503, -0.0056132, -0.5868, 0.000215055, -0.000140734, -0.00231098, 0.0329164, 0.0329359, 0.0251384, 0.00403392, 0.0035862, 0.0300255
0.0358554, -0.00562028, -0.58684, 0.000218567, -0.000136938, -0.00230887, 0.0329237, 0.0329431, 0.0251156, 0.00402584, 0.00357947, 0.0300156
0.0358521, -0.00563192, -0.586898, 0.000239143, -0.000139939, -0.0022488, 0.0329307, 0.0329502, 0.0250926, 0.00401773, 0.00357259, 0.0300059
0.0358517, -0.00562429, -0.58685, 0.000230795, -0.000139473, -0.00230224, 0.0329378, 0.0329572, 0.0250698, 0.00400969, 0.0035655, 0.0299966
0.0358415, -0.00562785, -0.586865, 0.000248569, -0.000143371, -0.00222348, 0.032945, 0.0329643, 0.0250471, 0.00400172, 0.00355819, 0.0299876
0.0358372, -0.00562853, -0.586871, 0.000257078, -0.000147023, -0.00221898, 0.032952, 0.0329713, 0.0250244, 0.00399384, 0.0035506, 0.0299794
0.0358383, -0.00562979, -0.58688, 0.000257851, -0.000147283, -0.00222764, 0.032959, 0.0329783, 0.0250019, 0.00398608, 0.00354279, 0.0299718
0.0358366, -0.00562851, -0.586868, 0.000258182, -0.000147217, -0.00222711, 0.0329658, 0.0329852, 0.0249793, 0.00397848, 0.00353479, 0.0299648
0.0358275, -0.0056232, -0.586837, 0.000263253, -0.000150248, -0.00220423, 0.0329727, 0.0329921, 0.0249569, 0.00397106, 0.00352667, 0.0299581
0.0358146, -0.00562888, -0.5869, 0.000285703, -0.000154616, -0.00213473, 0.0329794, 0.0329988, 0.0249345, 0.00396383, 0.00351845, 0.0299518
0.0358168, -0.00562522, -0.586876, 0.000281869, -0.000156829, -0.00217425, 0.032986, 0.0330054, 0.0249122, 0.00395679, 0.00351011, 0.0299462
0.0358204, -0.0056179, -0.586816, 0.000270621, -0.000156786, -0.00220307, 0.0329926, 0.033012, 0.0248901, 0.00395001, 0.00350176, 0.0299407
0.0358115, -0.00561339, -0.586811, 0.000276199, -0.000159768, -0.00216262, 0.0329989, 0.0330184, 0.024868, 0.0039435, 0.00349342, 0.0299353
0.0358048, -0.00561176, -0.586836, 0.0002845, -0.000163986, -0.00213883, 0.0330053, 0.0330248, 0.024846, 0.00393722, 0.00348503, 0.0299304
0.0357963, -0.00561384, -0.586898, 0.000298042, -0.000167468, -0.00210043, 0.0330117, 0.0330311, 0.024824, 0.00393114, 0.00347657, 0.0299259
0.0357963, -0.00560246, -0.586826, 0.000292507, -0.000173037, -0.0021346, 0.033018, 0.0330374, 0.0248021, 0.00392523, 0.00346804, 0.0299218
0.0357885, -0.00559338, -0.586793, 0.000294908, -0.000176978, -0.00211103, 0.0330244, 0.0330439, 0.0247803, 0.00391955, 0.00345946, 0.0299179
0.0357854, -0.00558942, -0.58682, 0.00030114, -0.000181898, -0.00209132, 0.0330309, 0.0330506, 0.0247584, 0.00391399, 0.00345067, 0.0299145
0.0357772, -0.00557993, -0.586777, 0.00030689, -0.000186981, -0.00208589, 0.0330375, 0.0330574, 0.0247366, 0.00390845, 0.00344182, 0.0299117
0.0357671, -0.00556694, -0.586712, 0.000313008, -0.000194567, -0.00207872, 0.0330442, 0.0330644, 0.0247148, 0.00390294, 0.00343321, 0.0299095
0.035767, -0.00556434, -0.586633, 0.000302585, -0.000196225, -0.00211324, 0.0330511, 0.0330714, 0.0246932, 0.00389739, 0.00342507, 0.0299079
0.0357682, -0.00556234, -0.58653, 0.000284532, -0.000196466, -0.00213983, 0.0330579, 0.0330784, 0.0246715, 0.00389192, 0.00341762, 0.0299067
0.0357741, -0.00556671, -0.58651, 0.000269661, -0.000194494, -0.00214745, 0.0330648, 0.0330855, 0.0246502, 0.00388653, 0.00341098, 0.0299054
0.0357728, -0.00556352, -0.586503, 0.00027065, -0.000195795, -0.00212643, 0.0330718, 0.0330925, 0.024629, 0.00388111, 0.00340521, 0.0299036
0.0357647, -0.00554981, -0.586422, 0.000272168, -0.000200204, -0.00211991, 0.0330788, 0.0330995, 0.0246081, 0.00387552, 0.00340037, 0.0299006
0.0357626, -0.00553478, -0.586247, 0.000249711, -0.000201149, -0.0021487, 0.0330858, 0.0331063, 0.0245872, 0.00386977, 0.00339633, 0.0298958
0.0357554, -0.00552795, -0.586224, 0.000252977, -0.000200384, -0.00210918, 0.0330928, 0.0331131, 0.0245666, 0.00386406, 0.00339295, 0.0298888
0.0357572, -0.00552513, -0.586216, 0.000250359, -0.000203063, -0.00210925, 0.0330996, 0.0331198, 0.0245461, 0.00385817, 0.00339005, 0.0298798
0.035776, -0.005513, -0.58602, 0.000205751, -0.000202559, -0.00215785, 0.0331063, 0.0331265, 0.0245258, 0.00385223, 0.00338751, 0.0298692
0.0357693, -0.00549121, -0.58586, 0.000189161, -0.000202007, -0.00210887, 0.033113, 0.0331331, 0.0245056, 0.00384649, 0.00338522, 0.0298573
0.0357425, -0.00548443, -0.585888, 0.000214433, -0.000202628, -0.00205422, 0.0331197, 0.0331398, 0.0244856, 0.00384073, 0.00338311, 0.0298446
0.0357473, -0.00547559, -0.585811, 0.000204457, -0.000206105, -0.00208848, 0.0331261, 0.0331462, 0.0244655, 0.00383483, 0.0033811, 0.0298317
0.0357383, -0.00546953, -0.585787, 0.000207964, -0.000206275, -0.00206484, 0.0331326, 0.0331527, 0.0244457, 0.00382915, 0.00337916, 0.0298189
0.0357453, -0.00545083, -0.585634, 0.000189322, -0.00021016, -0.00207694, 0.033139, 0.0331592, 0.024426, 0.00382372, 0.00337724, 0.0298066
0.0357513, -0.00546228, -0.58574, 0.000192084, -0.000208194, -0.00205321, 0.0331453, 0.0331655, 0.0244064, 0.00381874, 0.00337523, 0.0297953
0.0357249, -0.00545485, -0.585721, 0.000207489, -0.000208234, -0.00202586, 0.0331512, 0.0331716, 0.0243867, 0.00381418, 0.00337308, 0.0297848
0.0357063, -0.00544672, -0.58572, 0.000219279, -0.000211021, -0.00200864, 0.0331573, 0.0331778, 0.0243673, 0.00381004, 0.00337078, 0.0297751
0.0357035, -0.00544115, -0.585698, 0.000220345, -0.000213778, -0.00201594, 0.033163, 0.0331837, 0.0243477, 0.00380619, 0.00336828, 0.0297661
0.0357045, -0.00543262, -0.585587, 0.000213121, -0.000215273, -0.0020425, 0.0331688, 0.0331896, 0.0243284, 0.00380261, 0.00336566, 0.0297572
0.0357126, -0.00542264, -0.585499, 0.000202963, -0.000218707, -0.00205709, 0.0331744, 0.0331954, 0.0243091, 0.00379922, 0.0033629, 0.0297482
0.0357127, -0.00541553, -0.585434, 0.000198289, -0.000219794, -0.00205652, 0.0331801, 0.0332012, 0.0242899, 0.00379602, 0.00336009, 0.0297388
0.0356888, -0.00541756, -0.585459, 0.000210858, -0.00021359, -0.00200905, 0.0331859, 0.033207, 0.0242707, 0.00379299, 0.00335727, 0.0297289
0.0356733, -0.00540943, -0.585425, 0.000218312, -0.000214054, -0.00199571, 0.0331918, 0.0332128, 0.0242515, 0.00379009, 0.00335448, 0.0297184
0.0356832, -0.00541037, -0.585402, 0.000213429, -0.000216287, -0.00203262, 0.0331977, 0.0332186, 0.0242323, 0.00378732, 0.00335173, 0.0297074
0.0356706, -0.00541047, -0.585398, 0.000218668, -0.00021196, -0.0020027, 0.0332038, 0.0332245, 0.0242131, 0.00378465, 0.00334907, 0.0296961
0.0356494, -0.00541964, -0.585506, 0.000232982, -0.000205348, -0.00196703, 0.0332101, 0.0332304, 0.0241939, 0.00378208, 0.00334651, 0.0296847
0.0356682, -0.00542691, -0.585471, 0.000224183, -0.00020856, -0.00204882, 0.0332164, 0.0332364, 0.0241746, 0.00377963, 0.00334404, 0.0296734
0.0356519, -0.00543457, -0.585554, 0.000232452, -0.000201655, -0.00200643, 0.0332229, 0.0332427, 0.0241554, 0.00377721, 0.00334168, 0.0296624
0.0356243, -0.00543302, -0.585575, 0.000249211, -0.000193063, -0.00194729, 0.0332296, 0.0332491, 0.0241363, 0.00377491, 0.00333941, 0.0296515
0.0356264, -0.00543505, -0.585549, 0.000250031, -0.000193187, -0.0019842, 0.0332364, 0.0332557, 0.0241172, 0.00377272, 0.00333725, 0.0296411
0.0356013, -0.00544142, -0.585657, 0.000264582, -0.000184127, -0.00193418, 0.0332434, 0.0332625, 0.0240982, 0.00377058, 0.00333523, 0.0296314
0.0356055, -0.00543683, -0.585581, 0.000265413, -0.000184443, -0.00194585, 0.0332505, 0.0332695, 0.0240792, 0.00376853, 0.0033333, 0.0296223
0.0355834, -0.00543945, -0.585667, 0.000279627, -0.000175675, -0.00189594, 0.0332577, 0.0332767, 0.0240604, 0.00376643, 0.00333149, 0.0296143
0.0355864, -0.00543759, -0.585616, 0.000281485, -0.000174681, -0.00190901, 0.0332649, 0.0332839, 0.0240417, 0.00376436, 0.00332974, 0.0296068
0.0355598, -0.00544127, -0.585751, 0.00029849, -0.000164871, -0.00186145, 0.0332722, 0.0332913, 0.0240231, 0.00376221, 0.00332807, 0.0296004
0.0355341, -0.0054442, -0.58589, 0.000317373, -0.000156969, -0.0018374, 0.0332795, 0.0332986, 0.0240046, 0.00376015, 0.0033264, 0.0295941
0.0355405, -0.00543884, -0.585813, 0.000322401, -0.000154698, -0.00183001, 0.0332869, 0.0333062, 0.0239866, 0.00375816, 0.00332476, 0.0295881
0.0355253, -0.00543823, -0.585896, 0.00033555, -0.000147759, -0.00179994, 0.0332941, 0.0333137, 0.0239685, 0.00375588, 0.00332314, 0.0295835
0.035526, -0.00543671, -0.585884, 0.000339572, -0.00014684, -0.00180741, 0.0333015, 0.0333213, 0.0239509, 0.00375349, 0.00332151, 0.0295797
0.035526, -0.00543506, -0.585882, 0.000343331, -0.000144574, -0.00180018, 0.0333088, 0.0333288, 0.0239332, 0.00375081, 0.00331976, 0.0295768
0.0355388, -0.00543625, -0.585773, 0.000328385, -0.000146474, -0.00183176, 0.0333161, 0.0333364, 0.0239159, 0.00374786, 0.00331782, 0.0295747
0.0355261, -0.00543365, -0.585885, 0.000343601, -0.000138197, -0.00179687, 0.0333234, 0.0333439, 0.0238985, 0.00374446, 0.00331563, 0.0295731
0.0355314, -0.00543036, -0.585861, 0.000352031, -0.000138577, -0.00180348, 0.0333307, 0.0333515, 0.0238814, 0.00374094, 0.00331318, 0.0295716
0.0355253, -0.00542739, -0.585916, 0.000360366, -0.000133461, -0.00181096, 0.0333378, 0.0333589, 0.0238642, 0.00373704, 0.00331055, 0.0295701
0.0355269, -0.00542707, -0.585907, 0.000361758, -0.000134319, -0.00181873, 0.033345, 0.0333664, 0.0238473, 0.00373286, 0.00330779, 0.0295687
0.0355324, -0.00542704, -0.585862, 0.000357659, -0.000134557, -0.00181432, 0.0333518, 0.0333737, 0.0238304, 0.00372821, 0.00330476, 0.0295669
0.035532, -0.00542435, -0.585901, 0.000367885, -0.000132334, -0.00181395, 0.0333588, 0.033381, 0.0238137, 0.00372314, 0.00330141, 0.0295645
0.0355373, -0.00542528, -0.585841, 0.000361415, -0.000134549, -0.001819, 0.0333655, 0.0333882, 0.0237969, 0.00371776, 0.0032976, 0.0295616
0.0355344, -0.00542217, -0.585926, 0.000378019, -0.000131835, -0.00182872, 0.0333722, 0.0333954, 0.0237801, 0.00371194, 0.00329338, 0.0295576
0.0355312, -0.00541955, -0.585997, 0.000393374, -0.00013175, -0.00186302, 0.0333789, 0.0334025, 0.0237632, 0.00370563, 0.0032887, 0.0295522
0.0355185, -0.00542076, -0.586068, 0.000395135, -0.000132152, -0.00187542, 0.0333854, 0.0334095, 0.0237464, 0.00369862, 0.00328364, 0.0295446
0.0355094, -0.00541806, -0.586168, 0.000408569, -0.000131529, -0.00190406, 0.0333918, 0.0334166, 0.0237295, 0.00369085, 0.0032782, 0.029534
0.0355107, -0.00541873, -0.586194, 0.00041718, -0.000135443, -0.00193233, 0.033398, 0.0334235, 0.0237125, 0.00368231, 0.00327248, 0.0295201
0.0354914, -0.00542, -0.586248, 0.000407817, -0.000132594, -0.00190875, 0.0334041, 0.0334304, 0.0236954, 0.00367298, 0.00326648, 0.0295023
0.0354927, -0.00542191, -0.586235, 0.000404279, -0.00013294, -0.00188999, 0.0334101, 0.0334372, 0.0236782, 0.00366276, 0.00326025, 0.0294795
0.0354902, -0.00542423, -0.586235, 0.000400105, -0.000133416, -0.00187159, 0.0334161, 0.0334441, 0.0236607, 0.00365155, 0.00325364, 0.0294511
0.0354747, -0.00542391, -0.586335, 0.000404335, -0.000132379, -0.0018802, 0.0334221, 0.0334509, 0.0236428, 0.0036393, 0.00324658, 0.0294162
0.0354603, -0.00542925, -0.586343, 0.00038573, -0.000129889, -0.00180127, 0.0334283, 0.0334579, 0.0236245, 0.00362585, 0.00323911, 0.0293734
0.0354497, -0.00543455, -0.586354, 0.000369749, -0.000127453, -0.00171796, 0.0334344, 0.0334647, 0.0236058, 0.00361134, 0.00323141, 0.0293231
0.0354278, -0.00543902, -0.586524, 0.000372722, -0.000124553, -0.00171051, 0.0334407, 0.0334718, 0.0235871, 0.00359572, 0.00322371, 0.0292645
0.0354069, -0.00544517, -0.586578, 0.000350707, -0.000118437, -0.00159424, 0.033447, 0.0334789, 0.0235683, 0.00357863, 0.00321587, 0.0291945
0.0353916, -0.00545289, -0.586686, 0.000343697, -0.000115468, -0.00153643, 0.0334535, 0.033486, 0.0235496, 0.00356033, 0.00320811, 0.0291145
0.0353686, -0.00546058, -0.586732, 0.000310756, -0.000105196, -0.00134539, 0.0334601, 0.0334932, 0.0235311, 0.00354063, 0.00320029, 0.0290225
0.0353498, -0.00546445, -0.586687, 0.000264301, -9.09427e-05, -0.00107217, 0.0334667, 0.0335004, 0.0235129, 0.0035197, 0.00319247, 0.0289192
0.0353314, -0.00546644, -0.586628, 0.000213814, -7.32425e-05, -0.000765497, 0.0334735, 0.0335077, 0.0234951, 0.00349759, 0.00318462, 0.0288045
0.0353068, -0.00546475, -0.586511, 0.000140096, -4.36617e-05, -0.000316035, 0.0334802, 0.033515, 0.0234776, 0.00347438, 0.00317668, 0.0286785
0.035285, -0.00547319, -0.586628, 0.000109971, -2.55263e-05, -9.59364e-05, 0.0334872, 0.0335224, 0.0234606, 0.0034502, 0.00316871, 0.0285419
0.0352822, -0.00547534, -0.586628, 9.98808e-05, -2.27588e-05, -2.29466e-05, 0.0334941, 0.0335298, 0.023444, 0.00342464, 0.0031603, 0.0283901
0.0352568, -0.00548078, -0.586689, 5.22362e-05, 2.04428e-06, 0.000302466, 0.0335012, 0.0335372, 0.0234279, 0.00339802, 0.00315154, 0.0282256
0.0352442, -0.00548673, -0.586764, 2.67302e-05, 1.5578e-05, 0.000496128, 0.0335083, 0.0335447, 0.0234123, 0.00337033, 0.00314244, 0.0280477
0.0352433, -0.00548849, -0.58677, 2.1993e-05, 1.62152e-05, 0.00053549, 0.0335156, 0.0335522, 0.0233972, 0.00334158, 0.00313296, 0.0278558
0.0352388, -0.00549071, -0.586767, 7.81262e-06, 2.06929e-05, 0.000638422, 0.0335229, 0.0335597, 0.0233825, 0.00331197, 0.00312306, 0.0276513
0.0352352, -0.00549614, -0.586906, 7.4017e-06, 2.10654e-05, 0.000663256, 0.0335302, 0.0335672, 0.0233684, 0.00328144, 0.00311266, 0.0274329
0.0352201, -0.00550155, -0.586995, -3.34172e-05, 4.34251e-05, 0.000978189, 0.0335375, 0.0335747, 0.0233546, 0.00325007, 0.00310163, 0.0272008
0.0352182, -0.00550623, -0.587136, -3.64037e-05, 4.68745e-05, 0.00102517, 0.033545, 0.0335823, 0.0233415, 0.00321834, 0.00309019, 0.0269594
0.035218, -0.00551174, -0.587312, -3.02852e-05, 4.42149e-05, 0.00100029, 0.0335523, 0.0335897, 0.0233285, 0.00318651, 0.00307834, 0.0267116
0.035218, -0.00551174, -0.587312, -3.02852e-05, 4.42149e-05, 0.00100029, 0.0335601, 0.0335974, 0.0233396, 0.00318849, 0.00308039, 0.0267118
0.0352118, -0.00551519, -0.587481, -3.91722e-05, 5.13034e-05, 0.00108361, 0.0335674, 0.0336048, 0.0233227, 0.00314854, 0.00306429, 0.0263943
0.0351956, -0.00551826, -0.587481, -0.000107875, 9.25149e-05, 0.001623, 0.0335748, 0.0336122, 0.0233066, 0.00311139, 0.00304906, 0.0260965
0.0351893, -0.0055182, -0.587636, -0.000105174, 9.51256e-05, 0.00162315, 0.0335822, 0.0336195, 0.0232909, 0.00307716, 0.00303473, 0.0258212
0.0351872, -0.00551747, -0.587751, -7.62974e-05, 7.9013e-05, 0.00140382, 0.0335896, 0.0336268, 0.0232757, 0.00304503, 0.00302083, 0.0255608
0.0351731, -0.00551519, -0.587917, -7.45752e-05, 8.23163e-05, 0.00139609, 0.0335969, 0.0336339, 0.0232605, 0.0030149, 0.00300725, 0.0253159
0.0351682, -0.00551255, -0.588033, -4.27201e-05, 6.50378e-05, 0.00115161, 0.0336043, 0.033641, 0.0232457, 0.00298661, 0.00299401, 0.0250853
0.0351527, -0.00550801, -0.588176, -3.42871e-05, 6.41155e-05, 0.00108615, 0.0336115, 0.0336478, 0.0232307, 0.00296009, 0.00298097, 0.02487
0.0351527, -0.00550511, -0.588207, -1.42109e-05, 5.32914e-05, 0.000930491, 0.0336186, 0.0336545, 0.0232156, 0.00293533, 0.00296815, 0.0246707
0.0351574, -0.00550442, -0.588155, -3.17895e-05, 6.50873e-05, 0.00106295, 0.0336255, 0.0336609, 0.0232001, 0.00291238, 0.00295542, 0.024489
0.0351486, -0.00549809, -0.588204, -2.79938e-05, 6.74328e-05, 0.00103727, 0.0336324, 0.0336673, 0.0231844, 0.00289117, 0.0029429, 0.0243241
0.0351523, -0.00549794, -0.588164, -5.47476e-05, 8.49464e-05, 0.00123679, 0.0336389, 0.0336734, 0.023168, 0.00287153, 0.00293045, 0.0241754
0.0351304, -0.00548513, -0.588246, -5.31389e-05, 9.2586e-05, 0.00122664, 0.0336452, 0.0336795, 0.0231514, 0.0028534, 0.00291824, 0.0240416
0.0351336, -0.00547385, -0.588245, -3.37515e-05, 8.83782e-05, 0.0010905, 0.0336509, 0.0336854, 0.0231341, 0.00283651, 0.00290631, 0.0239208
0.0351819, -0.00548117, -0.588066, -7.97346e-05, 0.00011497, 0.00142596, 0.0336564, 0.0336913, 0.0231167, 0.00282072, 0.00289483, 0.0238104
0.0352105, -0.00548051, -0.587979, -8.95625e-05, 0.000123831, 0.00151487, 0.0336616, 0.0336973, 0.0230992, 0.00280586, 0.00288405, 0.0237089
0.0352707, -0.00548545, -0.587798, -0.000127621, 0.000147896, 0.00179826, 0.0336665, 0.0337033, 0.0230816, 0.00279183, 0.00287399, 0.0236152
0.0353074, -0.00548594, -0.587694, -0.000150226, 0.000164467, 0.00197366, 0.0336713, 0.0337096, 0.0230642, 0.00277846, 0.00286483, 0.0235273
0.0353716, -0.00549146, -0.58752, -0.000162733, 0.000172787, 0.00208836, 0.0336762, 0.0337161, 0.0230471, 0.00276568, 0.00285655, 0.0234449
0.0353938, -0.00549136, -0.58746, -0.000168889, 0.000178624, 0.00214159, 0.0336811, 0.0337227, 0.0230304, 0.00275337, 0.00284897, 0.0233667
0.0354062, -0.00548927, -0.587428, -0.000164118, 0.000178564, 0.00211929, 0.0336862, 0.0337295, 0.0230141, 0.0027416, 0.00284208, 0.0232936
0.0354192, -0.00548681, -0.587397, -0.000149693, 0.000173104, 0.00203508, 0.0336914, 0.0337363, 0.0229983, 0.00273033, 0.00283575, 0.0232254
0.0354455, -0.00548637, -0.587326, -0.000141035, 0.000170813, 0.00199128, 0.0336967, 0.0337432, 0.0229829, 0.0027195, 0.00282989, 0.0231612
0.0354298, -0.00547776, -0.587383, -0.000108723, 0.000157722, 0.00178789, 0.0337021, 0.0337502, 0.0229679, 0.00270901, 0.0028244, 0.0231003
0.0354602, -0.00548181, -0.587287, -0.000108197, 0.000156679, 0.00178899, 0.0337079, 0.0337574, 0.0229535, 0.00269894, 0.00281925, 0.0230433
0.0354368, -0.00547344, -0.587368, -9.43862e-05, 0.000154026, 0.00170013, 0.0337136, 0.0337645, 0.0229394, 0.0026891, 0.00281431, 0.0229884
0.0354614, -0.00547481, -0.587292, -8.27538e-05, 0.000149117, 0.00164129, 0.0337196, 0.0337718, 0.0229256, 0.00267966, 0.00280964, 0.0229372
0.0354425, -0.0054682, -0.587362, -6.30453e-05, 0.000141993, 0.00151901, 0.0337255, 0.033779, 0.0229122, 0.00267038, 0.00280506, 0.0228872
0.0354364, -0.00546341, -0.587389, -5.20957e-05, 0.000139884, 0.00145126, 0.0337317, 0.0337863, 0.0228991, 0.00266136, 0.00280059, 0.0228395
0.0354507, -0.00546535, -0.587336, -5.3825e-05, 0.000141063, 0.00146412, 0.0337379, 0.0337936, 0.0228862, 0.00265255, 0.00279617, 0.0227938
0.0354575, -0.00546529, -0.587315, -3.59558e-05, 0.00013285, 0.00137034, 0.0337444, 0.0338011, 0.0228738, 0.00264391, 0.00279178, 0.022749
0.0354744, -0.00546627, -0.587253, -1.83118e-05, 0.000125631, 0.00127607, 0.0337507, 0.0338085, 0.0228613, 0.00263536, 0.00278729, 0.0227054
0.0354973, -0.00547115, -0.587157, -2.44014e-05, 0.000126648, 0.00131025, 0.0337573, 0.0338159, 0.022849, 0.0026269, 0.00278267, 0.0226619
0.0354892, -0.0054683, -0.587195, -1.28537e-05, 0.000124208, 0.00125012, 0.0337639, 0.0338234, 0.0228368, 0.00261843, 0.00277785, 0.0226182
0.0355162, -0.00547351, -0.587072, -1.9264e-05, 0.000122963, 0.00128393, 0.0337706, 0.0338309, 0.0228246, 0.00261008, 0.00277284, 0.0225749
0.0355116, -0.00547287, -0.587093, -1.14114e-05, 0.000120226, 0.00124383, 0.0337773, 0.0338383, 0.0228125, 0.00260174, 0.00276759, 0.0225314
0.0355281, -0.00547515, -0.587015, -2.22424e-05, 0.000122005, 0.00129886, 0.0337841, 0.0338459, 0.0228003, 0.0025935, 0.0027621, 0.022488
0.0355406, -0.00547646, -0.586955, -1.97939e-05, 0.000120463, 0.00129147, 0.0337909, 0.0338534, 0.0227881, 0.00258531, 0.00275635, 0.0224445
0.0355384, -0.0054764, -0.586967, -2.56028e-05, 0.000121699, 0.00131926, 0.0337977, 0.033861, 0.0227759, 0.00257717, 0.00275031, 0.0224007
0.0355339, -0.00547601, -0.586989, -2.05503e-05, 0.00012144, 0.00129694, 0.0338046, 0.0338685, 0.0227634, 0.00256908, 0.00274395, 0.0223567
0.0355154, -0.00547489, -0.587087, -1.52267e-05, 0.000122162, 0.0012713, 0.0338115, 0.033876, 0.0227508, 0.00256103, 0.00273724, 0.0223118
0.0355326, -0.00547491, -0.586993, -3.1176e-05, 0.000123486, 0.00134407, 0.0338186, 0.0338836, 0.0227379, 0.00255296, 0.00273015, 0.0222655
0.0355396, -0.00547651, -0.586938, -1.83298e-05, 0.000116541, 0.00127535, 0.0338256, 0.0338911, 0.0227248, 0.00254484, 0.00272275, 0.0222177
0.035537, -0.00547706, -0.586943, -1.14475e-05, 0.00011037, 0.00122541, 0.0338328, 0.0338987, 0.0227116, 0.00253663, 0.00271499, 0.0221672
0.0355326, -0.00547618, -0.586981, -1.79383e-05, 0.00011321, 0.00126135, 0.0338401, 0.0339062, 0.0226982, 0.00252831, 0.00270692, 0.0221139
0.0355225, -0.00547638, -0.587069, -1.96151e-05, 0.000115043, 0.00127867, 0.0338473, 0.0339137, 0.0226845, 0.0025199, 0.00269863, 0.0220581
0.035531, -0.00547264, -0.587048, -4.50091e-05, 0.000124303, 0.00142568, 0.0338546, 0.0339213, 0.0226708, 0.00251141, 0.00269021, 0.0219992
0.0355262, -0.00547462, -0.587115, -4.54016e-05, 0.000125704, 0.00144289, 0.0338619, 0.0339287, 0.0226569, 0.00250283, 0.00268174, 0.0219379
0.035524, -0.00547551, -0.58718, -5.26563e-05, 0.00012962, 0.00149376, 0.0338694, 0.0339363, 0.0226432, 0.00249413, 0.00267321, 0.0218724
0.0355377, -0.00546832, -0.587128, -8.58175e-05, 0.000142799, 0.00170152, 0.0338768, 0.0339438, 0.0226295, 0.00248527, 0.00266465, 0.021803
0.0355477, -0.00546402, -0.58708, -0.000105489, 0.000152441, 0.00183809, 0.0338841, 0.0339512, 0.022616, 0.00247641, 0.00265632, 0.0217319
0.0355415, -0.00547323, -0.587257, -9.60198e-05, 0.000153343, 0.00180706, 0.0338915, 0.0339587, 0.0226027, 0.00246758, 0.00264827, 0.0216591
0.0355453, -0.00547013, -0.587244, -0.000107372, 0.000156738, 0.00187572, 0.0338989, 0.0339661, 0.0225897, 0.0024586, 0.00264033, 0.0215815
0.0355488, -0.00546836, -0.587243, -0.000114881, 0.000158993, 0.00192865, 0.0339063, 0.0339736, 0.0225772, 0.00244962, 0.00263267, 0.0215013
0.0355479, -0.00546734, -0.587242, -0.000113116, 0.000154896, 0.00191102, 0.0339136, 0.033981, 0.022565, 0.00244062, 0.00262524, 0.0214183
0.035541, -0.00547133, -0.587321, -9.61724e-05, 0.000144719, 0.00178988, 0.0339209, 0.0339884, 0.0225531, 0.00243164, 0.00261801, 0.0213331
0.0355365, -0.00547647, -0.587443, -8.46691e-05, 0.000140631, 0.00171508, 0.0339282, 0.0339958, 0.0225415, 0.00242273, 0.00261097, 0.021246
0.0355469, -0.00547199, -0.587408, -0.000108728, 0.000151835, 0.00188817, 0.0339356, 0.0340033, 0.0225304, 0.00241393, 0.00260414, 0.0211576
0.0355504, -0.00547107, -0.587436, -0.000116682, 0.000154893, 0.00195526, 0.0339429, 0.0340108, 0.0225193, 0.00240528, 0.00259755, 0.0210699
0.0355528, -0.00547065, -0.587472, -0.000123555, 0.00015778, 0.00201196, 0.0339503, 0.0340183, 0.0225087, 0.00239674, 0.00259112, 0.020981
0.0355446, -0.00547481, -0.587586, -0.000112349, 0.000152408, 0.00193622, 0.0339575, 0.0340257, 0.0224981, 0.00238835, 0.00258483, 0.0208932
0.0355429, -0.00547599, -0.587645, -0.000114425, 0.000152998, 0.00195249, 0.0339649, 0.0340332, 0.0224878, 0.00238014, 0.00257863, 0.0208051
0.0355424, -0.00547772, -0.587712, -0.000119349, 0.000156157, 0.00199765, 0.0339723, 0.0340407, 0.0224776, 0.00237209, 0.00257255, 0.020718
0.0355294, -0.00548666, -0.587886, -9.95469e-05, 0.000148186, 0.0018586, 0.0339795, 0.0340481, 0.0224675, 0.00236422, 0.00256661, 0.0206324
0.0355242, -0.00548855, -0.587943, -9.46612e-05, 0.000142869, 0.00181267, 0.0339868, 0.0340556, 0.0224575, 0.00235656, 0.00256077, 0.0205484
0.0355233, -0.00548973, -0.587994, -9.82712e-05, 0.000143852, 0.00184083, 0.0339942, 0.0340631, 0.0224477, 0.00234914, 0.00255508, 0.0204669
0.0355083, -0.00549586, -0.588141, -7.11808e-05, 0.000130264, 0.00163886, 0.0340015, 0.0340706, 0.0224379, 0.00234192, 0.00254953, 0.0203877
0.035508, -0.00549637, -0.588189, -7.56556e-05, 0.000131728, 0.00166705, 0.0340089, 0.0340781, 0.0224281, 0.00233484, 0.00254405, 0.0203098
0.0355071, -0.00549725, -0.588261, -7.79925e-05, 0.000133281, 0.00169019, 0.0340162, 0.0340856, 0.0224182, 0.00232799, 0.0025387, 0.0202349
0.0355192, -0.00549621, -0.588238, -0.000102896, 0.000147357, 0.00188379, 0.0340235, 0.034093, 0.0224081, 0.00232136, 0.00253344, 0.0201636
0.0354988, -0.00550062, -0.588448, -7.11547e-05, 0.000134109, 0.00165909, 0.0340309, 0.0341005, 0.0223981, 0.00231503, 0.0025283, 0.0200962
0.0354896, -0.00550315, -0.588563, -5.7143e-05, 0.000128083, 0.00154903, 0.0340382, 0.034108, 0.0223878, 0.00230887, 0.00252315, 0.0200311
0.0354751, -0.00550768, -0.588752, -4.01463e-05, 0.000122807, 0.00142792, 0.0340455, 0.0341155, 0.0223774, 0.00230303, 0.00251804, 0.0199713
0.035468, -0.00550882, -0.5888, -3.02834e-05, 0.000117446, 0.00135268, 0.0340529, 0.034123, 0.0223665, 0.00229749, 0.00251295, 0.0199171
0.03547, -0.00550839, -0.588779, -3.13464e-05, 0.000117544, 0.00135672, 0.0340602, 0.0341305, 0.0223553, 0.0022923, 0.0025079, 0.019869
0.0354731, -0.00550723, -0.58873, -2.84053e-05, 0.000115499, 0.0013389, 0.0340674, 0.034138, 0.0223436, 0.00228743, 0.00250289, 0.0198267
0.0354926, -0.00550515, -0.588616, -4.58619e-05, 0.00012307, 0.00144955, 0.0340746, 0.0341454, 0.0223317, 0.00228286, 0.00249795, 0.0197892
0.0355073, -0.00550308, -0.588509, -5.05091e-05, 0.000124854, 0.00148873, 0.0340818, 0.0341529, 0.0223195, 0.00227859, 0.0024931, 0.0197564
0.0355261, -0.00550145, -0.588401, -6.02028e-05, 0.00013052, 0.00155368, 0.0340891, 0.0341605, 0.0223071, 0.00227459, 0.00248835, 0.0197276
0.0355089, -0.00550238, -0.588477, -4.69654e-05, 0.00012887, 0.00148953, 0.034096, 0.0341679, 0.0222942, 0.0022708, 0.00248372, 0.019703
0.0355178, -0.00550145, -0.588425, -4.83698e-05, 0.000129585, 0.00149719, 0.0341032, 0.0341755, 0.0222814, 0.00226731, 0.0024793, 0.0196818
0.0355399, -0.00549852, -0.588296, -5.41643e-05, 0.000130037, 0.00153362, 0.0341102, 0.0341829, 0.0222685, 0.00226399, 0.00247508, 0.0196635
0.0355374, -0.00549729, -0.588278, -4.00072e-05, 0.000128548, 0.00148846, 0.0341173, 0.0341904, 0.0222558, 0.00226091, 0.00247114, 0.019648
0.0355663, -0.0054917, -0.588103, -4.75033e-05, 0.000131699, 0.00153113, 0.0341243, 0.0341979, 0.022243, 0.00225798, 0.00246743, 0.0196349
0.0355885, -0.00548685, -0.587969, -5.26721e-05, 0.000132878, 0.00156729, 0.0341313, 0.0342053, 0.0222304, 0.00225522, 0.002464, 0.0196237
0.0355959, -0.00548328, -0.587897, -4.11503e-05, 0.000130941, 0.00154821, 0.0341384, 0.0342128, 0.0222181, 0.00225263, 0.00246086, 0.019614
0.0356007, -0.0054819, -0.587866, -3.91361e-05, 0.000131306, 0.00154356, 0.0341455, 0.0342203, 0.0222059, 0.00225015, 0.00245794, 0.0196057
0.0355945, -0.00548196, -0.587885, -2.94205e-05, 0.000130638, 0.00152098, 0.0341524, 0.0342277, 0.0221938, 0.00224778, 0.00245527, 0.0195988
0.0356078, -0.00547906, -0.587801, -2.26474e-05, 0.000126709, 0.00151225, 0.0341594, 0.0342352, 0.0221822, 0.00224557, 0.0024529, 0.019593
0.0356216, -0.00547658, -0.587721, -1.95299e-05, 0.000125876, 0.00151529, 0.0341663, 0.0342426, 0.0221707, 0.0022434, 0.00245072, 0.019588
0.0356205, -0.00547587, -0.587714, -9.54296e-06, 0.000124041, 0.00149917, 0.0341732, 0.0342501, 0.0221595, 0.0022413, 0.00244876, 0.0195837
0.0356004, -0.00547766, -0.58782, 5.52645e-06, 0.000124168, 0.00146332, 0.0341802, 0.0342575, 0.0221487, 0.00223929, 0.00244696, 0.0195801
0.0356095, -0.00547612, -0.587753, 1.16271e-05, 0.00012196, 0.00145637, 0.0341874, 0.034265, 0.0221383, 0.00223738, 0.00244532, 0.0195773
0.0355972, -0.00547652, -0.587819, 2.81769e-05, 0.000121411, 0.00143306, 0.0341944, 0.0342725, 0.022128, 0.0022355, 0.00244375, 0.0195749
0.0355972, -0.00547642, -0.587812, 3.43314e-05, 0.000119918, 0.00142021, 0.0342016, 0.03428, 0.0221181, 0.00223372, 0.00244231, 0.019573
0.0355875, -0.00547652, -0.587869, 5.22197e-05, 0.000119383, 0.00140375, 0.0342087, 0.0342874, 0.0221083, 0.00223195, 0.00244089, 0.0195714
0.0355907, -0.00547634, -0.587836, 5.9035e-05, 0.000116658, 0.00139188, 0.0342159, 0.0342949, 0.0220988, 0.00223023, 0.00243952, 0.01957
0.0355916, -0.00547635, -0.587826, 6.9839e-05, 0.00011697, 0.00138738, 0.0342231, 0.0343024, 0.0220895, 0.00222853, 0.00243816, 0.0195688
0.0356053, -0.00547595, -0.587714, 6.70962e-05, 0.000115163, 0.00139029, 0.0342303, 0.0343098, 0.0220802, 0.00222683, 0.00243675, 0.0195677
0.0356159, -0.00547563, -0.58763, 6.73383e-05, 0.0001136, 0.00139757, 0.0342374, 0.0343172, 0.0220712, 0.00222513, 0.00243532, 0.0195666
0.0356321, -0.00547469, -0.587511, 6.00279e-05, 0.000113111, 0.00140815, 0.0342447, 0.0343247, 0.0220624, 0.00222344, 0.00243383, 0.0195655
0.035644, -0.0054736, -0.587424, 5.43576e-05, 0.000112815, 0.00142011, 0.0342518, 0.0343321, 0.0220536, 0.00222171, 0.00243226, 0.0195643
0.0356341, -0.00547579, -0.5875, 7.00463e-05, 0.000114161, 0.0014166, 0.034259, 0.0343396, 0.0220448, 0.00221996, 0.0024306, 0.0195632
0.0356364, -0.00547574, -0.587477, 7.38119e-05, 0.000112641, 0.00140593, 0.0342662, 0.034347, 0.0220361, 0.00221823, 0.00242887, 0.0195621
0.0356333, -0.00547643, -0.5875, 7.76629e-05, 0.000112761, 0.00140248, 0.0342734, 0.0343545, 0.0220273, 0.00221649, 0.00242707, 0.0195609
0.0356338, -0.0054766, -0.587495, 7.9582e-05, 0.000112596, 0.00139975, 0.0342805, 0.0343619, 0.0220184, 0.0022147, 0.00242516, 0.0195598
0.0356359, -0.00547649, -0.587476, 8.19509e-05, 0.000110756, 0.0013962, 0.0342878, 0.0343694, 0.0220096, 0.00221291, 0.00242319, 0.0195585
0.0356363, -0.00547685, -0.587471, 8.5461e-05, 0.000109861, 0.00139238, 0.0342949, 0.0343768, 0.0220004, 0.00221105, 0.00242108, 0.019557
0.0356452, -0.00547446, -0.5874, 8.02482e-05, 0.000107257, 0.00139132, 0.0343021, 0.0343842, 0.0219911, 0.00220917, 0.0024189, 0.0195553
0.0356344, -0.00547708, -0.587494, 8.22775e-05, 0.000110374, 0.00139747, 0.0343093, 0.0343916, 0.0219816, 0.00220722, 0.00241661, 0.0195534
0.0356333, -0.00547754, -0.5875, 8.46874e-05, 0.000108921, 0.00139246, 0.0343166, 0.0343991, 0.0219718, 0.00220521, 0.00241422, 0.0195511
0.0356208, -0.00548276, -0.587635, 8.7461e-05, 0.000112343, 0.00139646, 0.0343239, 0.0344065, 0.0219616, 0.00220313, 0.00241174, 0.0195483
0.0356126, -0.0054873, -0.587748, 8.8154e-05, 0.000115157, 0.00140183, 0.0343314, 0.0344139, 0.0219512, 0.002201, 0.0024092, 0.0195448
0.0356149, -0.00548302, -0.587724, 7.69699e-05, 0.000113934, 0.00141788, 0.0343388, 0.0344213, 0.0219403, 0.00219876, 0.00240657, 0.0195405
0.0356151, -0.00548483, -0.587801, 6.9392e-05, 0.000116141, 0.00144815, 0.0343462, 0.0344287, 0.0219294, 0.00219647, 0.00240396, 0.0195354
0.0356186, -0.00548132, -0.587826, 5.254e-05, 0.000118815, 0.00149537, 0.0343536, 0.034436, 0.0219182, 0.00219408, 0.00240135, 0.0195292
0.0356227, -0.00548196, -0.587878, 4.25521e-05, 0.000121975, 0.00153889, 0.034361, 0.0344434, 0.0219071, 0.00219165, 0.00239884, 0.0195218
0.0356277, -0.00547058, -0.587819, 1.83211e-05, 0.000125315, 0.00161033, 0.0343684, 0.0344506, 0.021896, 0.00218911, 0.00239637, 0.0195128
0.0356335, -0.00547204, -0.587874, 9.41118e-06, 0.0001286, 0.00166223, 0.0343758, 0.034458, 0.0218852, 0.00218652, 0.00239402, 0.0195023
0.035634, -0.00545868, -0.587767, -8.96131e-06, 0.000129342, 0.00171977, 0.0343831, 0.0344653, 0.0218746, 0.00218382, 0.00239171, 0.0194893
0.0356398, -0.00545225, -0.587758, -2.81231e-05, 0.000134112, 0.00180672, 0.0343905, 0.0344726, 0.0218642, 0.00218107, 0.00238952, 0.0194746
0.0356444, -0.00545008, -0.587773, -3.93799e-05, 0.000138435, 0.00186937, 0.0343979, 0.0344799, 0.0218542, 0.00217828, 0.00238744, 0.0194579
0.0356466, -0.0054447, -0.587739, -5.14824e-05, 0.000140939, 0.00192687, 0.0344053, 0.0344873, 0.0218445, 0.00217545, 0.00238545, 0.0194389
0.0356509, -0.00543927, -0.587732, -6.84815e-05, 0.00014566, 0.00201715, 0.0344126, 0.0344946, 0.0218351, 0.00217256, 0.0023835, 0.0194176
0.0356534, -0.0054425, -0.587783, -6.56144e-05, 0.000144148, 0.00201683, 0.0344201, 0.0345021, 0.0218262, 0.00216965, 0.00238163, 0.0193938
0.0356607, -0.00544637, -0.587899, -7.16604e-05, 0.000148546, 0.00206541, 0.0344274, 0.0345094, 0.0218175, 0.00216666, 0.00237971, 0.0193673
0.0356663, -0.005458, -0.588081, -5.86836e-05, 0.000145818, 0.00201299, 0.0344347, 0.0345167, 0.0218091, 0.00216365, 0.00237779, 0.0193377
0.0356699, -0.00545685, -0.588123, -6.90525e-05, 0.000148972, 0.00207815, 0.0344421, 0.0345241, 0.0218011, 0.00216058, 0.00237579, 0.0193044
0.035673, -0.00546257, -0.588235, -6.20537e-05, 0.000147287, 0.00204969, 0.0344494, 0.0345315, 0.0217933, 0.0021575, 0.00237378, 0.0192691
0.0356769, -0.00545855, -0.588229, -7.99253e-05, 0.000153594, 0.00216737, 0.0344568, 0.0345389, 0.0217857, 0.00215446, 0.00237173, 0.0192322
0.0356754, -0.00546452, -0.588384, -6.8127e-05, 0.000150378, 0.00210987, 0.0344641, 0.0345462, 0.0217781, 0.00215146, 0.00236968, 0.0191956
0.0356786, -0.00546264, -0.588427, -8.26897e-05, 0.000156307, 0.00220984, 0.0344714, 0.0345536, 0.0217706, 0.00214852, 0.00236758, 0.0191582
0.0356711, -0.00546708, -0.588576, -6.45271e-05, 0.000149622, 0.00210104, 0.0344788, 0.0345611, 0.0217633, 0.00214566, 0.00236549, 0.0191213
0.0356618, -0.00547052, -0.58876, -4.6041e-05, 0.000142732, 0.00197597, 0.0344861, 0.0345684, 0.0217558, 0.00214281, 0.0023633, 0.0190843
0.0356636, -0.00546928, -0.588767, -5.54375e-05, 0.000146437, 0.0020346, 0.0344935, 0.0345758, 0.0217483, 0.00214005, 0.00236106, 0.0190478
0.0356636, -0.00546928, -0.588767, -5.54375e-05, 0.000146437, 0.0020346, 0.0345009, 0.0345832, 0.02176, 0.00214295, 0.00236369, 0.0190481
0.035654, -0.00547019, -0.588892, -4.11358e-05, 0.000143242, 0.00195918, 0.0345082, 0.0345906, 0.0217488, 0.00213911, 0.00236027, 0.0190078
0.0356418, -0.00547008, -0.588997, -2.70515e-05, 0.000138369, 0.00186566, 0.0345155, 0.034598, 0.0217377, 0.00213565, 0.00235701, 0.0189727
0.0356426, -0.00547048, -0.588982, -2.27606e-05, 0.00013714, 0.00183439, 0.0345227, 0.0346054, 0.0217265, 0.00213253, 0.00235388, 0.0189426
0.0356741, -0.00547456, -0.588774, -1.09499e-06, 0.00015627, 0.00196584, 0.0346721, 0.0347572, 0.0217641, 0.00213468, 0.00234291, 0.0187609
0.0356603, -0.00547012, -0.588869, 1.30599e-05, 0.000160738, 0.00191992, 0.0346781, 0.0347645, 0.0216626, 0.00211623, 0.00232322, 0.0187188
0.0356752, -0.00547375, -0.588755, 1.63466e-05, 0.000159438, 0.00191371, 0.0346847, 0.0347718, 0.0216003, 0.00210742, 0.00231387, 0.0186979
0.0357014, -0.00548118, -0.588544, 9.98831e-06, 0.000157934, 0.00194072, 0.0346915, 0.0347791, 0.0215586, 0.00210256, 0.00230864, 0.0186854
0.035702, -0.00548101, -0.588541, 1.1569e-05, 0.000159563, 0.00194194, 0.0346985, 0.0347864, 0.0215289, 0.00209964, 0.00230542, 0.018677
0.0356999, -0.00548003, -0.588562, 1.49352e-05, 0.000161085, 0.00193578, 0.0347056, 0.0347938, 0.0215068, 0.00209783, 0.00230335, 0.0186711
0.0357124, -0.005484, -0.588438, 6.03774e-06, 0.000159692, 0.00195483, 0.0347128, 0.0348011, 0.0214897, 0.00209667, 0.00230192, 0.0186668
0.0357069, -0.0054825, -0.588503, 1.75494e-05, 0.000160065, 0.00194077, 0.0347201, 0.0348084, 0.0214759, 0.00209591, 0.00230089, 0.0186636
0.0357147, -0.00548513, -0.588395, 9.13208e-06, 0.000158942, 0.00194627, 0.0347273, 0.0348158, 0.0214646, 0.00209539, 0.00230008, 0.0186612
0.035713, -0.0054843, -0.588426, 9.7932e-06, 0.000160274, 0.0019523, 0.0347347, 0.0348231, 0.0214549, 0.002095, 0.00229941, 0.0186594
0.0357192, -0.00548745, -0.588308, 6.40932e-06, 0.000158754, 0.00195603, 0.034742, 0.0348305, 0.0214464, 0.00209469, 0.00229878, 0.018658
0.0357178, -0.00548602, -0.588348, 4.44545e-06, 0.000160177, 0.0019605, 0.0347493, 0.0348377, 0.0214386, 0.00209434, 0.00229811, 0.0186568
0.0357186, -0.00548705, -0.588315, 3.80148e-06, 0.000159809, 0.00196251, 0.0347567, 0.0348451, 0.0214315, 0.002094, 0.00229739, 0.0186556
0.0357184, -0.0054878, -0.588275, -2.41136e-07, 0.000159058, 0.00196261, 0.0347641, 0.0348525, 0.0214248, 0.00209361, 0.00229658, 0.0186545
0.0357169, -0.00548852, -0.58819, -1.07848e-05, 0.000157603, 0.00196316, 0.0347714, 0.0348597, 0.0214181, 0.00209312, 0.0022956, 0.0186534
0.035715, -0.00548813, -0.588093, -2.41356e-05, 0.000155922, 0.00196523, 0.0347788, 0.0348671, 0.0214116, 0.00209258, 0.00229449, 0.0186522
0.035716, -0.00548954, -0.588112, -1.94144e-05, 0.000155445, 0.00197258, 0.0347861, 0.0348744, 0.0214051, 0.00209194, 0.00229319, 0.0186509
0.0357159, -0.00548908, -0.588116, -2.13769e-05, 0.000154954, 0.00196783, 0.0347935, 0.0348817, 0.0213986, 0.00209121, 0.0022917, 0.0186492
0.0357159, -0.00548984, -0.588114, -1.83571e-05, 0.000154651, 0.00196978, 0.0348008, 0.034889, 0.021392, 0.00209041, 0.00229002, 0.018647
0.0357159, -0.00549108, -0.588127, -1.81128e-05, 0.00015372, 0.00196497, 0.0348082, 0.0348962, 0.0213853, 0.00208952, 0.00228817, 0.0186445
0.0357179, -0.00547179, -0.588016, -2.60551e-05, 0.000150164, 0.00196121, 0.0348155, 0.0349032, 0.0213785, 0.00208855, 0.0022861, 0.0186413
0.0357178, -0.00546977, -0.588008, -2.81065e-05, 0.000149347, 0.00195831, 0.0348229, 0.03491, 0.0213719, 0.00208753, 0.00228392, 0.0186378
0.0357178, -0.00546422, -0.587981, -2.50006e-05, 0.000147358, 0.00195723, 0.0348302, 0.0349164, 0.0213652, 0.00208644, 0.00228155, 0.0186338
0.0357164, -0.00548287, -0.588032, -1.99796e-05, 0.000147537, 0.00194988, 0.0348376, 0.0349224, 0.0213586, 0.00208533, 0.00227907, 0.0186293
0.0357124, -0.00552889, -0.588136, -8.64342e-06, 0.000147909, 0.00193827, 0.0348449, 0.0349279, 0.0213523, 0.00208419, 0.00227647, 0.0186244
0.0357116, -0.00553487, -0.588143, -4.14902e-06, 0.000146039, 0.00193076, 0.0348523, 0.034933, 0.0213461, 0.00208306, 0.00227379, 0.018619
0.0357126, -0.00553266, -0.588145, -8.27483e-06, 0.000143869, 0.00192194, 0.0348596, 0.0349376, 0.0213401, 0.00208195, 0.00227107, 0.0186135
0.0357114, -0.00554345, -0.588162, -5.88871e-06, 0.000142257, 0.00191697, 0.0348669, 0.0349418, 0.0213346, 0.00208091, 0.00226836, 0.0186081
0.0357129, -0.00555091, -0.588191, -1.44885e-05, 0.000142216, 0.00191179, 0.0348742, 0.0349456, 0.0213292, 0.00207988, 0.00226566, 0.0186029
0.0357152, -0.00554805, -0.588206, -2.53339e-05, 0.000142122, 0.00191483, 0.0348815, 0.0349489, 0.0213243, 0.00207893, 0.00226303, 0.0185979
0.0357093, -0.00559971, -0.588286, -2.26758e-05, 0.000140852, 0.00190319, 0.0348888, 0.034952, 0.0213197, 0.00207803, 0.00226048, 0.0185931
0.0357022, -0.005655, -0.588355, -1.30765e-05, 0.000138568, 0.00188665, 0.034896, 0.0349547, 0.0213153, 0.00207712, 0.00225797, 0.0185884
0.0357, -0.00567984, -0.588397, -1.44305e-05, 0.000137883, 0.00187811, 0.0349033, 0.0349572, 0.0213113, 0.00207626, 0.00225557, 0.018584
0.0356971, -0.00571379, -0.588451, -1.61218e-05, 0.000137474, 0.00187233, 0.0349106, 0.0349595, 0.0213076, 0.00207537, 0.00225324, 0.0185797
0.0357066, -0.00563551, -0.588382, -4.07486e-05, 0.000138654, 0.0019082, 0.0349179, 0.0349615, 0.021304, 0.00207446, 0.00225104, 0.0185755
0.0356998, -0.0057017, -0.588472, -3.81754e-05, 0.000140202, 0.00190114, 0.0349251, 0.0349634, 0.0213006, 0.00207352, 0.00224904, 0.0185719
0.0356902, -0.00578869, -0.588579, -3.00189e-05, 0.000140744, 0.00188073, 0.0349324, 0.0349652, 0.0212973, 0.00207252, 0.00224719, 0.0185684
0.0356879, -0.00580997, -0.588606, -2.838e-05, 0.000139573, 0.00187655, 0.0349396, 0.0349668, 0.0212941, 0.00207147, 0.00224555, 0.018565
0.0356925, -0.00576929, -0.588574, -4.36371e-05, 0.000140669, 0.00191019, 0.0349468, 0.0349683, 0.0212909, 0.00207035, 0.00224411, 0.0185615
0.0356904, -0.00578896, -0.588599, -4.32574e-05, 0.000140646, 0.00190994, 0.0349541, 0.0349697, 0.0212879, 0.0020692, 0.00224295, 0.0185581
0.0356824, -0.00586109, -0.588678, -3.19885e-05, 0.000140968, 0.00187618, 0.0349614, 0.0349708, 0.0212848, 0.00206798, 0.00224201, 0.0185545
0.0356771, -0.00591188, -0.588734, -2.54885e-05, 0.000141355, 0.00185436, 0.0349686, 0.0349716, 0.0212818, 0.00206669, 0.00224128, 0.0185504
0.0356719, -0.00595436, -0.588784, -2.45317e-05, 0.000143195, 0.00184543, 0.0349758, 0.0349719, 0.0212788, 0.00206535, 0.00224079, 0.0185455
0.0356681, -0.00598622, -0.588819, -2.28516e-05, 0.000143356, 0.00183975, 0.034983, 0.0349719, 0.021276, 0.00206398, 0.00224056, 0.0185396
0.035662, -0.00605014, -0.588883, -1.13132e-05, 0.000142818, 0.00179985, 0.0349902, 0.0349716, 0.021273, 0.00206253, 0.00224054, 0.0185322
0.0356614, -0.00606204, -0.588894, -6.85827e-06, 0.000141893, 0.0017844, 0.0349975, 0.034971, 0.02127, 0.00206104, 0.00224076, 0.0185233
0.0356546, -0.00612185, -0.588958, 4.76458e-09, 0.000142407, 0.00175317, 0.0350046, 0.0349702, 0.0212665, 0.00205944, 0.00224117, 0.0185126
0.0356576, -0.00610005, -0.588934, 5.02919e-07, 0.000141509, 0.00175504, 0.0350118, 0.0349695, 0.0212625, 0.00205777, 0.0022418, 0.0185003
0.0356568, -0.00610168, -0.588935, -3.74958e-07, 0.000141892, 0.00175376, 0.035019, 0.034969, 0.0212578, 0.00205605, 0.00224266, 0.0184863
0.0356555, -0.00609206, -0.588921, -5.70268e-06, 0.000142765, 0.00176365, 0.0350262, 0.0349687, 0.0212523, 0.00205427, 0.00224375, 0.0184699
0.035659, -0.00607515, -0.588903, -2.28996e-06, 0.000142312, 0.00176356, 0.0350335, 0.0349688, 0.0212462, 0.0020525, 0.00224509, 0.0184501
0.0356608, -0.00602949, -0.588845, -2.98136e-06, 0.000141447, 0.00176552, 0.0350407, 0.0349691, 0.0212395, 0.00205074, 0.00224666, 0.0184257
0.0356613, -0.00599092, -0.588793, -4.61316e-06, 0.000141318, 0.00176247, 0.0350479, 0.0349697, 0.0212325, 0.00204907, 0.00224848, 0.0183949
0.0356654, -0.00597123, -0.588778, 2.71588e-06, 0.00014057, 0.00175773, 0.0350551, 0.0349706, 0.0212254, 0.00204749, 0.00225052, 0.0183562
0.035667, -0.00593197, -0.588729, 5.98205e-06, 0.000139584, 0.00174549, 0.0350623, 0.0349718, 0.0212183, 0.00204603, 0.00225274, 0.0183079
0.0356677, -0.00587487, -0.588646, 4.89905e-06, 0.00013882, 0.00173586, 0.0350696, 0.0349736, 0.0212114, 0.00204474, 0.00225516, 0.018249
0.0356706, -0.00583847, -0.588604, 1.14796e-05, 0.000138262, 0.00171908, 0.0350768, 0.0349756, 0.0212047, 0.0020436, 0.00225767, 0.0181798
0.0356722, -0.00580911, -0.588571, 1.8892e-05, 0.000137437, 0.00169375, 0.0350841, 0.0349781, 0.0211986, 0.00204269, 0.00226031, 0.018099
0.0356755, -0.00575931, -0.588504, 2.52098e-05, 0.000136088, 0.00167461, 0.0350912, 0.0349809, 0.0211929, 0.00204192, 0.00226297, 0.0180062
0.0356809, -0.00569605, -0.588397, 2.02048e-05, 0.000135017, 0.0016532, 0.0350983, 0.0349842, 0.0211879, 0.00204136, 0.00226568, 0.0179008
0.035685, -0.00565993, -0.588342, 2.4508e-05, 0.000134731, 0.00164213, 0.0351055, 0.0349878, 0.0211836, 0.00204098, 0.0022684, 0.017784
0.0356915, -0.00559394, -0.588228, 1.63493e-05, 0.000133545, 0.00161944, 0.0351126, 0.0349918, 0.02118, 0.00204073, 0.00227108, 0.0176532
0.0356956, -0.00554837, -0.58815, 7.94485e-06, 0.000133356, 0.00159112, 0.0351197, 0.0349959, 0.0211772, 0.00204058, 0.00227369, 0.0175111
0.0356959, -0.00553959, -0.588137, 8.85632e-06, 0.000133396, 0.00156072, 0.0351269, 0.0350001, 0.0211751, 0.00204052, 0.00227621, 0.0173565
0.035694, -0.00553108, -0.588124, 9.31882e-06, 0.000132485, 0.00150583, 0.0351339, 0.0350045, 0.0211736, 0.0020405, 0.00227859, 0.0171875
0.0356919, -0.00554703, -0.588148, 1.48809e-05, 0.000131808, 0.00146257, 0.0351411, 0.0350092, 0.0211729, 0.00204056, 0.00228084, 0.017004
0.0356893, -0.00553406, -0.58813, 1.29876e-05, 0.000130335, 0.00140185, 0.0351482, 0.0350139, 0.0211726, 0.00204063, 0.00228289, 0.0168069
0.0356865, -0.00555202, -0.588154, 1.83763e-05, 0.000129353, 0.00134925, 0.0351552, 0.0350187, 0.0211729, 0.00204074, 0.00228481, 0.0166006
0.0356828, -0.0055715, -0.588185, 2.1199e-05, 0.000128074, 0.00128991, 0.0351623, 0.0350236, 0.0211737, 0.00204086, 0.00228658, 0.0163852
0.0356809, -0.00556761, -0.588176, 2.24861e-05, 0.000126844, 0.00125346, 0.0351693, 0.0350285, 0.0211748, 0.00204095, 0.0022882, 0.0161635
0.0356793, -0.00557507, -0.588196, 2.16437e-05, 0.000126133, 0.00121008, 0.0351764, 0.0350334, 0.0211763, 0.002041, 0.00228974, 0.0159405
0.0356787, -0.00555721, -0.588182, 1.72252e-05, 0.000125265, 0.00117178, 0.0351835, 0.0350384, 0.0211781, 0.002041, 0.00229124, 0.015718
0.0356774, -0.00556289, -0.588206, 1.53467e-05, 0.000124631, 0.00112494, 0.0351904, 0.0350432, 0.0211799, 0.0020409, 0.00229268, 0.0155005
0.0356791, -0.00551679, -0.588185, 1.37595e-06, 0.000124545, 0.00108749, 0.0351976, 0.0350482, 0.021182, 0.00204077, 0.00229418, 0.0152871
0.0356802, -0.00549643, -0.588182, -5.69786e-06, 0.00012461, 0.00105542, 0.0352046, 0.0350531, 0.0211841, 0.00204049, 0.00229568, 0.0150813
0.0356803, -0.00548434, -0.588179, -9.41137e-06, 0.000124296, 0.00102765, 0.0352116, 0.035058, 0.0211861, 0.0020401, 0.00229723, 0.0148833
0.0356813, -0.00546509, -0.588187, -1.74545e-05, 0.000123692, 0.000969169, 0.0352187, 0.035063, 0.0211882, 0.00203958, 0.00229884, 0.0146936
0.0356838, -0.00542801, -0.58817, -2.83537e-05, 0.000123846, 0.000936952, 0.0352257, 0.0350681, 0.0211901, 0.00203895, 0.00230052, 0.0145128
0.0356858, -0.00539543, -0.588154, -3.76339e-05, 0.000123916, 0.000900995, 0.0352327, 0.0350733, 0.0211919, 0.00203822, 0.00230229, 0.0143422
0.0356914, -0.00533278, -0.588129, -5.70545e-05, 0.000124988, 0.00086261, 0.0352398, 0.0350786, 0.0211936, 0.00203737, 0.00230416, 0.0141822
0.0356956, -0.00527681, -0.588089, -7.30448e-05, 0.000126336, 0.000844779, 0.0352468, 0.035084, 0.0211952, 0.00203642, 0.00230613, 0.0140322
0.0356943, -0.00526446, -0.588069, -7.5413e-05, 0.000126049, 0.000813208, 0.0352538, 0.0350896, 0.0211965, 0.00203533, 0.00230817, 0.013892
0.0356985, -0.00523233, -0.588071, -8.76795e-05, 0.000127158, 0.000785535, 0.0352609, 0.0350953, 0.0211975, 0.00203413, 0.00231029, 0.0137619
0.0357014, -0.00519253, -0.588045, -0.000101514, 0.000128595, 0.00076935, 0.0352679, 0.0351011, 0.0211983, 0.00203284, 0.00231249, 0.0136411
0.035699, -0.00517653, -0.588007, -0.000106149, 0.000128978, 0.000757022, 0.0352749, 0.035107, 0.0211988, 0.00203146, 0.00231477, 0.0135297
0.0356982, -0.00515951, -0.587985, -0.000112599, 0.000129581, 0.000732286, 0.0352818, 0.035113, 0.0211988, 0.00203, 0.0023171, 0.0134291
0.035693, -0.00518009, -0.587995, -0.000102557, 0.000127552, 0.000676969, 0.0352887, 0.035119, 0.0211986, 0.0020285, 0.00231952, 0.0133391
0.0356912, -0.0051715, -0.587983, -0.000106575, 0.000127633, 0.000642779, 0.0352957, 0.0351252, 0.021198, 0.00202696, 0.00232202, 0.013261
0.0356882, -0.00517613, -0.587977, -0.000104022, 0.000127188, 0.000613334, 0.0353027, 0.0351313, 0.021197, 0.00202539, 0.00232455, 0.0131938
0.0356862, -0.00516288, -0.587944, -0.000115397, 0.000128987, 0.000597208, 0.0353096, 0.0351375, 0.0211953, 0.00202378, 0.00232708, 0.0131374
0.0356818, -0.00516843, -0.587926, -0.000113994, 0.000129354, 0.000567764, 0.0353166, 0.0351436, 0.0211932, 0.00202219, 0.00232961, 0.0130906
0.0356758, -0.00518016, -0.587912, -0.000106273, 0.000128872, 0.000530358, 0.0353236, 0.0351498, 0.0211904, 0.00202061, 0.0023321, 0.0130535
0.0356761, -0.0051781, -0.587906, -0.000111375, 0.000130339, 0.0005109, 0.0353306, 0.0351559, 0.0211868, 0.00201902, 0.00233446, 0.0130253
0.0356676, -0.00518403, -0.587915, -9.32461e-05, 0.00012954, 0.000474801, 0.0353376, 0.035162, 0.0211824, 0.00201746, 0.0023367, 0.0130044
0.0356677, -0.00518122, -0.587925, -9.26214e-05, 0.000130516, 0.000454062, 0.0353446, 0.0351681, 0.0211772, 0.00201594, 0.00233872, 0.0129903
0.0356719, -0.00517258, -0.587959, -9.73399e-05, 0.000132941, 0.000438117, 0.0353517, 0.0351741, 0.0211711, 0.00201446, 0.00234053, 0.0129809
0.0356645, -0.00517463, -0.587944, -8.76175e-05, 0.000134659, 0.000422637, 0.0353588, 0.0351801, 0.0211641, 0.00201304, 0.00234207, 0.0129752
0.0356581, -0.00519153, -0.587887, -8.35561e-05, 0.000136812, 0.000415816, 0.0353658, 0.035186, 0.0211564, 0.0020117, 0.00234332, 0.0129723
0.0356627, -0.00522256, -0.587835, -9.49891e-05, 0.000140225, 0.000416911, 0.0353729, 0.0351919, 0.0211481, 0.00201046, 0.00234424, 0.0129712
0.035649, -0.00521452, -0.587809, -7.95392e-05, 0.000143255, 0.000418852, 0.03538, 0.0351979, 0.0211393, 0.00200937, 0.00234481, 0.012971
0.035635, -0.00519602, -0.587791, -6.18819e-05, 0.000146145, 0.000420244, 0.0353871, 0.0352039, 0.0211304, 0.00200842, 0.00234491, 0.0129708
0.0356218, -0.00517891, -0.587765, -4.49942e-05, 0.000149743, 0.000428837, 0.0353941, 0.03521, 0.0211214, 0.00200762, 0.00234448, 0.0129696
0.0356102, -0.00516327, -0.58774, -3.00224e-05, 0.000153251, 0.000440586, 0.0354012, 0.0352162, 0.0211128, 0.00200701, 0.00234358, 0.0129666
0.0356028, -0.00514899, -0.587753, -2.07037e-05, 0.000157324, 0.000449803, 0.0354083, 0.0352226, 0.0211048, 0.00200659, 0.00234226, 0.0129615
0.0355943, -0.00514269, -0.587723, -1.06169e-05, 0.000160774, 0.000467076, 0.0354154, 0.0352292, 0.0210975, 0.00200635, 0.00234054, 0.0129539
0.0355912, -0.00514829, -0.587664, -6.90253e-06, 0.000163215, 0.000482018, 0.0354224, 0.0352358, 0.021091, 0.00200627, 0.00233848, 0.0129442
0.0355872, -0.00515993, -0.587562, -4.00967e-06, 0.000164214, 0.000497993, 0.0354295, 0.0352427, 0.0210856, 0.00200636, 0.00233616, 0.0129324
0.0355839, -0.00516312, -0.587524, -1.35541e-06, 0.000165868, 0.000506958, 0.0354366, 0.0352498, 0.0210813, 0.00200661, 0.00233362, 0.0129187
0.0355802, -0.00516744, -0.587481, 1.42411e-06, 0.000167142, 0.000517014, 0.0354436, 0.0352567, 0.0210779, 0.00200693, 0.00233079, 0.012903
0.0355816, -0.00517054, -0.587435, -6.49033e-07, 0.000167339, 0.000520971, 0.0354506, 0.0352638, 0.0210756, 0.00200737, 0.00232777, 0.0128855
0.0355751, -0.00517185, -0.587482, 6.13402e-06, 0.000169905, 0.000527103, 0.0354577, 0.0352709, 0.0210743, 0.00200788, 0.00232461, 0.0128665
0.0355699, -0.00517618, -0.587512, 1.25794e-05, 0.000171268, 0.000531912, 0.0354647, 0.0352778, 0.0210737, 0.00200843, 0.00232127, 0.0128461
0.0355751, -0.00516808, -0.587542, 8.92689e-06, 0.000172509, 0.000534107, 0.0354718, 0.0352846, 0.021074, 0.00200902, 0.00231784, 0.0128245
0.0355769, -0.0051677, -0.587487, 4.82138e-06, 0.000169065, 0.000523629, 0.0354789, 0.0352913, 0.0210749, 0.00200961, 0.00231428, 0.0128015
0.0355834, -0.00515196, -0.587498, -2.2093e-06, 0.000169538, 0.000521661, 0.0354859, 0.0352978, 0.0210763, 0.00201016, 0.00231063, 0.0127775
0.0355896, -0.00513388, -0.587529, -8.22486e-06, 0.000169928, 0.000520328, 0.0354931, 0.0353041, 0.0210781, 0.00201069, 0.00230683, 0.0127518
0.0355879, -0.0051354, -0.587494, -1.0086e-05, 0.000165107, 0.000500623, 0.0355001, 0.0353101, 0.0210803, 0.00201114, 0.00230284, 0.0127241
0.0355935, -0.00511627, -0.587543, -1.30733e-05, 0.000165074, 0.000495355, 0.0355072, 0.0353159, 0.0210829, 0.00201153, 0.00229873, 0.0126949
0.0355946, -0.00511307, -0.587578, -1.1321e-05, 0.000163857, 0.000489431, 0.0355143, 0.0353216, 0.0210859, 0.00201185, 0.00229447, 0.0126637
0.0356043, -0.0050736, -0.587612, -2.22645e-05, 0.000162876, 0.000481668, 0.0355213, 0.0353271, 0.021089, 0.00201207, 0.00229009, 0.012631
0.0356036, -0.00507311, -0.587634, -2.03687e-05, 0.000160611, 0.000470645, 0.0355285, 0.0353325, 0.0210924, 0.00201222, 0.00228563, 0.0125965
0.0356007, -0.00508795, -0.587699, -9.25131e-06, 0.000160228, 0.000469793, 0.0355356, 0.0353378, 0.0210957, 0.00201221, 0.00228106, 0.0125607
0.0356011, -0.00508118, -0.587709, -1.03327e-05, 0.000156679, 0.000452417, 0.0355427, 0.0353432, 0.0210991, 0.0020121, 0.00227642, 0.0125234
0.0356026, -0.00507353, -0.587776, -7.43674e-06, 0.00015843, 0.000461139, 0.0355498, 0.0353485, 0.0211024, 0.00201186, 0.00227175, 0.0124852
0.0356002, -0.00508901, -0.587806, 8.79426e-07, 0.000157016, 0.000458734, 0.0355569, 0.035354, 0.0211058, 0.00201154, 0.00226704, 0.0124457
0.035599, -0.00510429, -0.587851, 1.01873e-05, 0.000157173, 0.000464471, 0.035564, 0.0353595, 0.0211091, 0.00201108, 0.00226233, 0.0124055
0.0355966, -0.00511645, -0.587853, 1.55251e-05, 0.00015474, 0.000455461, 0.0355712, 0.0353652, 0.0211123, 0.00201052, 0.00225767, 0.0123651
0.035595, -0.00513208, -0.587909, 2.564e-05, 0.000155723, 0.000466778, 0.0355783, 0.0353712, 0.0211152, 0.00200984, 0.0022531, 0.0123253
0.035591, -0.00515997, -0.587943, 4.13012e-05, 0.000155569, 0.000478082, 0.0355855, 0.0353774, 0.0211178, 0.00200905, 0.00224865, 0.0122861
0.0355897, -0.00517061, -0.587985, 4.94717e-05, 0.000155769, 0.000485094, 0.0355926, 0.0353839, 0.0211199, 0.00200814, 0.00224433, 0.0122479
0.0355905, -0.00516907, -0.588038, 5.02508e-05, 0.000155765, 0.000485557, 0.0355997, 0.0353906, 0.0211214, 0.00200711, 0.00224018, 0.0122111
0.0355903, -0.00516713, -0.588053, 4.98267e-05, 0.000153155, 0.000472392, 0.0356069, 0.0353976, 0.0211222, 0.00200598, 0.00223621, 0.0121761
0.0355911, -0.00516694, -0.588088, 5.22209e-05, 0.000150796, 0.000462669, 0.035614, 0.0354047, 0.0211221, 0.00200476, 0.00223244, 0.0121428
0.0355897, -0.00516623, -0.588094, 4.19762e-05, 0.000148012, 0.000437074, 0.0356211, 0.0354119, 0.0211211, 0.00200345, 0.00222885, 0.0121113
0.0355902, -0.00516609, -0.588104, 4.04023e-05, 0.000146185, 0.000428001, 0.0356282, 0.035419, 0.0211192, 0.00200211, 0.0022255, 0.0120818
0.0355937, -0.00516204, -0.58814, 4.42655e-05, 0.00014522, 0.000428989, 0.0356353, 0.035426, 0.0211162, 0.00200073, 0.00222235, 0.0120544
0.0355927, -0.00516287, -0.588148, 4.22691e-05, 0.000141482, 0.00040805, 0.0356423, 0.0354328, 0.0211123, 0.00199934, 0.00221945, 0.0120293
0.0355854, -0.00517796, -0.588105, 3.28283e-05, 0.000136346, 0.000370402, 0.0356493, 0.0354393, 0.0211074, 0.00199799, 0.00221683, 0.0120068
0.0355829, -0.00518625, -0.58809, 2.82072e-05, 0.000133001, 0.000350598, 0.0356563, 0.0354455, 0.0211018, 0.0019967, 0.00221449, 0.0119872
0.0355844, -0.00519027, -0.588106, 2.51637e-05, 0.000130733, 0.000337682, 0.0356633, 0.0354515, 0.0210957, 0.00199553, 0.00221248, 0.0119704
0.0355829, -0.00518688, -0.588099, 2.63965e-05, 0.000127934, 0.000331322, 0.0356703, 0.0354576, 0.0210895, 0.00199452, 0.00221082, 0.0119565
0.0355701, -0.00520323, -0.588003, 2.28159e-05, 0.000122691, 0.000305345, 0.0356773, 0.0354636, 0.0210834, 0.00199367, 0.00220947, 0.0119452
0.035565, -0.0051898, -0.58797, 3.08317e-05, 0.000120573, 0.000318233, 0.0356843, 0.0354698, 0.0210776, 0.00199299, 0.0022084, 0.0119361
0.0355679, -0.00517153, -0.588004, 3.82105e-05, 0.00012073, 0.000334784, 0.0356913, 0.0354761, 0.0210722, 0.00199247, 0.00220762, 0.011929
0.035555, -0.00519389, -0.587909, 3.22191e-05, 0.000115314, 0.000303517, 0.0356982, 0.0354825, 0.0210675, 0.0019921, 0.00220714, 0.0119239
0.0355434, -0.00520743, -0.587816, 3.1237e-05, 0.000111555, 0.000295064, 0.0357053, 0.0354891, 0.0210634, 0.0019919, 0.00220691, 0.01192
0.0355351, -0.00522145, -0.587742, 2.74293e-05, 0.000107906, 0.000280487, 0.0357123, 0.0354959, 0.0210601, 0.00199183, 0.00220691, 0.0119171
0.0355361, -0.00521892, -0.587749, 2.90205e-05, 0.000107153, 0.00028879, 0.0357193, 0.0355028, 0.0210577, 0.00199189, 0.00220716, 0.0119148
0.0355395, -0.00521228, -0.587786, 3.43911e-05, 0.000107349, 0.000306525, 0.0357264, 0.0355099, 0.0210561, 0.00199206, 0.00220767, 0.0119125
0.0355426, -0.00520792, -0.587824, 4.22451e-05, 0.000107468, 0.000330445, 0.0357335, 0.0355171, 0.0210552, 0.0019923, 0.00220842, 0.0119099
0.0355421, -0.00520838, -0.587827, 4.30145e-05, 0.000105703, 0.000333227, 0.0357405, 0.0355242, 0.021055, 0.00199261, 0.00220944, 0.0119063
0.0355504, -0.00520889, -0.587901, 4.9169e-05, 0.000106558, 0.000361767, 0.0357476, 0.0355314, 0.0210556, 0.00199297, 0.00221066, 0.0119013
0.0355541, -0.00521448, -0.587942, 5.5801e-05, 0.000106076, 0.000388544, 0.0357547, 0.0355385, 0.0210567, 0.00199335, 0.00221208, 0.0118942
0.0355563, -0.0052199, -0.587964, 5.9646e-05, 0.000105144, 0.00040828, 0.0357618, 0.0355455, 0.0210584, 0.00199375, 0.00221368, 0.0118849
0.0355582, -0.00521395, -0.587985, 5.33466e-05, 0.000102986, 0.000403238, 0.0357689, 0.0355524, 0.0210604, 0.00199413, 0.00221542, 0.0118735
0.0355616, -0.00521655, -0.588013, 5.27372e-05, 0.000102402, 0.000414321, 0.035776, 0.0355592, 0.0210629, 0.0019945, 0.00221729, 0.0118599
0.0355622, -0.00520899, -0.588027, 4.59753e-05, 0.000100903, 0.000405565, 0.035783, 0.0355658, 0.0210655, 0.00199483, 0.00221926, 0.0118439
0.0355627, -0.00520303, -0.588036, 4.07396e-05, 9.9603e-05, 0.000404724, 0.0357901, 0.0355724, 0.0210684, 0.00199511, 0.00222134, 0.0118256
0.0355572, -0.00517467, -0.588014, 2.55471e-05, 9.71107e-05, 0.000374188, 0.0357971, 0.0355789, 0.0210715, 0.00199534, 0.0022235, 0.0118049
0.0355543, -0.00515598, -0.588001, 1.54254e-05, 9.54674e-05, 0.000364588, 0.0358042, 0.0355854, 0.0210746, 0.0019955, 0.00222574, 0.0117821
0.0355502, -0.00513093, -0.587985, 2.08924e-06, 9.34403e-05, 0.000347657, 0.0358112, 0.0355917, 0.0210778, 0.00199559, 0.00222803, 0.0117573
0.0355516, -0.00511747, -0.587999, -7.80986e-06, 9.27046e-05, 0.000336117, 0.0358181, 0.0355981, 0.0210811, 0.00199562, 0.00223037, 0.0117307
0.035553, -0.00510828, -0.588013, -1.46488e-05, 9.21903e-05, 0.000327607, 0.0358251, 0.0356045, 0.0210845, 0.00199559, 0.00223277, 0.0117025
0.0355449, -0.00507697, -0.587983, -2.89327e-05, 9.06401e-05, 0.000300364, 0.0358321, 0.0356108, 0.0210878, 0.00199548, 0.00223519, 0.0116732
0.0355392, -0.00505155, -0.587963, -4.13985e-05, 8.96173e-05, 0.000283269, 0.035839, 0.0356173, 0.0210911, 0.0019953, 0.00223764, 0.0116434
0.035528, -0.00502187, -0.587919, -5.54227e-05, 8.81085e-05, 0.000265378, 0.0358459, 0.0356239, 0.0210943, 0.00199505, 0.00224008, 0.011614
0.0355269, -0.00501553, -0.587914, -5.92876e-05, 8.82348e-05, 0.000260275, 0.0358527, 0.0356305, 0.0210971, 0.00199471, 0.0022425, 0.0115858
0.0355149, -0.00500478, -0.587864, -6.34598e-05, 8.74408e-05, 0.000252943, 0.0358595, 0.0356373, 0.0210996, 0.00199431, 0.00224489, 0.0115595
0.035506, -0.00499746, -0.587827, -6.7546e-05, 8.71389e-05, 0.00024651, 0.0358663, 0.0356442, 0.0211017, 0.00199384, 0.00224721, 0.0115354
0.0355049, -0.0049985, -0.587823, -6.57052e-05, 8.79046e-05, 0.000243391, 0.0358731, 0.0356512, 0.0211035, 0.00199334, 0.00224951, 0.0115136
0.035494, -0.0049909, -0.587786, -7.62491e-05, 8.71603e-05, 0.000223897, 0.0358799, 0.0356583, 0.0211049, 0.00199278, 0.00225172, 0.0114942
0.0354838, -0.00499034, -0.587747, -8.00029e-05, 8.71882e-05, 0.000216775, 0.0358866, 0.0356654, 0.0211059, 0.00199219, 0.00225387, 0.0114772
0.0354825, -0.00499317, -0.587736, -6.90516e-05, 8.89349e-05, 0.000221894, 0.0358933, 0.0356725, 0.0211064, 0.00199157, 0.00225593, 0.0114629
0.0354714, -0.00499694, -0.5877, -7.77029e-05, 8.89421e-05, 0.000201648, 0.0359, 0.0356796, 0.0211064, 0.00199092, 0.00225785, 0.0114515
0.0354647, -0.00500213, -0.58768, -8.44717e-05, 8.9429e-05, 0.000189669, 0.0359067, 0.0356866, 0.0211058, 0.00199026, 0.00225963, 0.0114429
0.0354507, -0.0050153, -0.58763, -9.28111e-05, 8.9963e-05, 0.00017521, 0.0359134, 0.0356935, 0.0211043, 0.00198957, 0.00226121, 0.0114368
0.0354446, -0.00501145, -0.5876, -8.54352e-05, 9.22268e-05, 0.000181205, 0.03592, 0.0357003, 0.0211022, 0.0019889, 0.00226259, 0.0114328
0.0354415, -0.00500661, -0.587585, -8.12789e-05, 9.43882e-05, 0.000180518, 0.0359267, 0.0357068, 0.0210992, 0.00198822, 0.00226373, 0.0114306
0.0354371, -0.00499688, -0.587561, -7.52232e-05, 9.66471e-05, 0.000186684, 0.0359333, 0.0357131, 0.0210955, 0.00198758, 0.00226458, 0.0114295
0.0354323, -0.00498247, -0.587533, -6.83989e-05, 9.88274e-05, 0.000196065, 0.0359399, 0.0357191, 0.0210911, 0.00198695, 0.00226512, 0.0114288
0.0354361, -0.00494699, -0.587535, -5.44735e-05, 0.000102951, 0.000215897, 0.0359466, 0.035725, 0.0210863, 0.0019864, 0.00226534, 0.0114281
0.0354378, -0.00490412, -0.587518, -3.90949e-05, 0.000107235, 0.000240035, 0.0359532, 0.0357306, 0.0210812, 0.0019859, 0.00226524, 0.0114266
0.0354314, -0.00488156, -0.587476, -3.30228e-05, 0.000111495, 0.000255125, 0.0359599, 0.0357362, 0.0210762, 0.00198549, 0.00226488, 0.0114241
0.0354287, -0.00486076, -0.587455, -2.696e-05, 0.000115896, 0.000271343, 0.0359666, 0.0357417, 0.0210714, 0.00198516, 0.00226427, 0.0114206
0.0354181, -0.00483854, -0.587394, -2.36151e-05, 0.000119276, 0.00028692, 0.0359733, 0.0357473, 0.0210671, 0.00198494, 0.00226346, 0.0114161
0.0353982, -0.00480812, -0.587289, -2.24715e-05, 0.000121418, 0.000301136, 0.03598, 0.035753, 0.0210636, 0.00198482, 0.00226251, 0.0114107
0.0353836, -0.00478579, -0.587213, -2.31693e-05, 0.000123753, 0.000311174, 0.0359867, 0.0357589, 0.0210609, 0.00198481, 0.00226151, 0.0114049
0.0353726, -0.00476447, -0.587148, -2.30343e-05, 0.000126358, 0.000322427, 0.0359936, 0.0357649, 0.0210591, 0.00198491, 0.0022605, 0.011399
0.0353676, -0.00475012, -0.587112, -1.99639e-05, 0.000127875, 0.000330912, 0.0360004, 0.0357712, 0.0210582, 0.0019851, 0.0022595, 0.0113933
0.0353589, -0.00473682, -0.587068, -2.28425e-05, 0.000129879, 0.000335627, 0.0360073, 0.0357776, 0.021058, 0.00198536, 0.00225855, 0.0113879
0.0353502, -0.00472656, -0.587037, -2.9223e-05, 0.000130857, 0.000333227, 0.0360141, 0.0357842, 0.0210585, 0.00198568, 0.00225763, 0.0113827
0.0353451, -0.00471923, -0.587029, -3.66277e-05, 0.000132119, 0.000329061, 0.0360209, 0.035791, 0.0210598, 0.00198605, 0.00225673, 0.0113776
0.0353475, -0.00472142, -0.587041, -3.63933e-05, 0.000133792, 0.00033312, 0.0360277, 0.0357976, 0.0210615, 0.00198643, 0.00225581, 0.0113725
0.0353577, -0.00473007, -0.587085, -3.55702e-05, 0.000135758, 0.000335912, 0.0360345, 0.0358042, 0.0210639, 0.00198684, 0.0022549, 0.0113675
0.0353624, -0.0047356, -0.587104, -3.43893e-05, 0.000135927, 0.000337486, 0.0360413, 0.0358107, 0.0210667, 0.00198723, 0.00225394, 0.0113623
0.0353615, -0.00471183, -0.587111, -4.55114e-05, 0.000137595, 0.000331138, 0.0360481, 0.035817, 0.02107, 0.00198763, 0.00225298, 0.0113569
0.0353667, -0.00471583, -0.587135, -4.48099e-05, 0.000139083, 0.000335445, 0.036055, 0.0358233, 0.0210735, 0.00198801, 0.00225195, 0.0113511
0.0353739, -0.00472571, -0.587165, -4.14241e-05, 0.000140541, 0.000342313, 0.0360619, 0.0358295, 0.0210772, 0.00198836, 0.00225083, 0.0113447
0.0353769, -0.00472864, -0.587177, -4.04273e-05, 0.000141469, 0.000346282, 0.0360688, 0.0358357, 0.021081, 0.00198867, 0.00224962, 0.0113375
0.0353802, -0.00472844, -0.587191, -4.05338e-05, 0.00014189, 0.000347173, 0.0360756, 0.0358417, 0.0210849, 0.00198891, 0.0022483, 0.0113296
0.0353863, -0.00475182, -0.587212, -3.15538e-05, 0.000143597, 0.000361518, 0.0360824, 0.0358478, 0.0210888, 0.0019891, 0.0022469, 0.011321
0.0353916, -0.00477135, -0.587231, -2.37219e-05, 0.000144669, 0.000372928, 0.0360893, 0.0358538, 0.0210928, 0.00198923, 0.00224544, 0.0113118
0.0353911, -0.00477369, -0.587228, -2.27659e-05, 0.000144108, 0.000372125, 0.0360962, 0.03586, 0.0210966, 0.00198932, 0.00224391, 0.0113019
0.0353959, -0.00479172, -0.587242, -1.39065e-05, 0.000145166, 0.000386233, 0.0361031, 0.0358664, 0.0211001, 0.00198933, 0.00224229, 0.011291
0.035397, -0.00479889, -0.587242, -9.59863e-06, 0.000145399, 0.000392237, 0.0361099, 0.0358731, 0.0211032, 0.00198928, 0.00224056, 0.0112789
0.0354011, -0.00479959, -0.58726, -8.25255e-06, 0.000146286, 0.000396888, 0.0361167, 0.0358799, 0.0211057, 0.00198915, 0.00223869, 0.0112652
0.0354084, -0.00480401, -0.587274, 1.57212e-07, 0.000146906, 0.000412998, 0.0361235, 0.035887, 0.0211074, 0.00198896, 0.00223668, 0.0112498
0.0354127, -0.00480241, -0.587297, -6.16628e-08, 0.000146337, 0.000409105, 0.0361302, 0.035894, 0.0211083, 0.00198869, 0.00223453, 0.0112325
0.0354114, -0.00480463, -0.587324, -9.13705e-06, 0.000144086, 0.00038239, 0.0361368, 0.0359011, 0.0211083, 0.00198837, 0.00223229, 0.0112136
0.0354066, -0.00480733, -0.587305, -9.50589e-06, 0.000140841, 0.000370447, 0.0361434, 0.0359079, 0.0211073, 0.00198801, 0.00223001, 0.0111937
0.0353948, -0.00481912, -0.587278, -1.43843e-05, 0.000136157, 0.000340757, 0.0361499, 0.0359144, 0.0211054, 0.0019876, 0.00222771, 0.0111733
0.0353762, -0.00483874, -0.587227, -2.0487e-05, 0.000130929, 0.000306899, 0.0361563, 0.0359207, 0.0211028, 0.00198718, 0.00222549, 0.0111532
0.0353748, -0.004842, -0.58723, -2.18526e-05, 0.000128108, 0.000293165, 0.0361628, 0.0359269, 0.0210997, 0.00198677, 0.00222338, 0.0111339
0.0353494, -0.00487275, -0.587158, -2.98161e-05, 0.00012184, 0.000251059, 0.0361692, 0.0359328, 0.0210961, 0.00198637, 0.00222141, 0.0111161
0.0353237, -0.00490161, -0.587069, -3.5286e-05, 0.00011643, 0.000220155, 0.0361756, 0.0359386, 0.0210923, 0.00198601, 0.00221963, 0.0110998
0.0353109, -0.00491383, -0.587008, -3.52342e-05, 0.000112061, 0.000206162, 0.0361822, 0.0359444, 0.0210882, 0.0019857, 0.00221801, 0.0110851
0.0352914, -0.00494274, -0.586941, -4.21839e-05, 0.000108019, 0.000175949, 0.0361887, 0.0359502, 0.021084, 0.00198546, 0.00221661, 0.0110722
0.035271, -0.00497011, -0.586839, -4.5958e-05, 0.000103474, 0.000154418, 0.0361954, 0.0359561, 0.0210799, 0.00198531, 0.00221543, 0.0110609
0.0352531, -0.00499863, -0.586755, -5.1885e-05, 9.96566e-05, 0.000129245, 0.0362021, 0.035962, 0.0210759, 0.00198524, 0.00221447, 0.0110512
0.0352379, -0.00502348, -0.586665, -5.61461e-05, 9.51657e-05, 0.00010825, 0.0362089, 0.0359682, 0.0210723, 0.00198528, 0.00221376, 0.0110429
0.0352179, -0.00505555, -0.586567, -6.59497e-05, 9.10294e-05, 7.17491e-05, 0.0362156, 0.0359744, 0.021069, 0.00198538, 0.00221326, 0.0110357
0.0352146, -0.00506094, -0.58656, -6.85504e-05, 8.94021e-05, 6.30426e-05, 0.0362225, 0.035981, 0.0210662, 0.00198558, 0.00221299, 0.0110295
0.0352103, -0.00506424, -0.586525, -6.98444e-05, 8.72514e-05, 5.76943e-05, 0.0362293, 0.0359877, 0.0210639, 0.00198585, 0.00221293, 0.0110242
0.0352104, -0.00506404, -0.586521, -6.91977e-05, 8.58769e-05, 5.92511e-05, 0.0362361, 0.0359945, 0.0210621, 0.00198616, 0.00221307, 0.0110195
0.0352007, -0.00505999, -0.586461, -7.41653e-05, 8.28287e-05, 4.1728e-05, 0.036243, 0.0360011, 0.0210607, 0.00198653, 0.00221338, 0.0110151
0.0352024, -0.00504992, -0.586439, -7.0707e-05, 8.14502e-05, 5.55431e-05, 0.0362498, 0.0360072, 0.0210595, 0.00198688, 0.00221378, 0.0110108
0.0352046, -0.00502497, -0.586394, -6.53207e-05, 8.00677e-05, 7.41432e-05, 0.0362567, 0.0360129, 0.0210587, 0.00198727, 0.00221432, 0.0110065
0.0352187, -0.00504667, -0.586467, -5.48106e-05, 8.16413e-05, 0.000109161, 0.0362636, 0.036018, 0.0210579, 0.00198766, 0.00221498, 0.0110021
0.0352172, -0.00501924, -0.586423, -5.3863e-05, 7.97861e-05, 0.00011105, 0.0362705, 0.0360224, 0.0210573, 0.00198805, 0.00221575, 0.0109974
0.0352157, -0.00500333, -0.586398, -5.44113e-05, 7.90566e-05, 0.000110032, 0.0362774, 0.0360261, 0.0210568, 0.00198842, 0.00221663, 0.0109926
0.0352141, -0.00498251, -0.586369, -5.50452e-05, 7.75703e-05, 0.000111478, 0.0362843, 0.0360291, 0.0210562, 0.00198875, 0.00221761, 0.0109874
0.0352247, -0.00503637, -0.586457, -4.64879e-05, 7.99787e-05, 0.0001348, 0.0362912, 0.0360315, 0.0210557, 0.00198903, 0.00221869, 0.010982
0.0352273, -0.0050182, -0.586445, -4.32047e-05, 7.86617e-05, 0.000145668, 0.0362981, 0.0360332, 0.0210551, 0.00198926, 0.00221985, 0.0109765
0.0352271, -0.00499383, -0.586419, -4.26399e-05, 7.74996e-05, 0.000149866, 0.036305, 0.0360343, 0.0210545, 0.0019894, 0.00222111, 0.0109709
0.035228, -0.00499519, -0.586423, -4.17881e-05, 7.74464e-05, 0.000151638, 0.0363119, 0.036035, 0.0210539, 0.00198945, 0.00222245, 0.0109654
0.0352265, -0.00499442, -0.586418, -4.31831e-05, 7.76527e-05, 0.00014848, 0.0363188, 0.0360352, 0.0210531, 0.00198938, 0.00222385, 0.0109597
0.0352337, -0.00502774, -0.586473, -3.52426e-05, 7.84999e-05, 0.000147947, 0.0363257, 0.0360351, 0.0210523, 0.00198918, 0.0022253, 0.0109535
0.0352345, -0.00502915, -0.586478, -3.3902e-05, 7.92864e-05, 0.000139973, 0.0363326, 0.0360346, 0.0210514, 0.00198881, 0.00222678, 0.0109462
0.0352349, -0.00503665, -0.58649, -3.20588e-05, 8.15391e-05, 0.000124125, 0.0363395, 0.0360337, 0.0210504, 0.00198825, 0.00222826, 0.0109367
0.0352342, -0.00501936, -0.586471, -3.32003e-05, 8.39702e-05, 0.000113446, 0.0363464, 0.0360325, 0.0210492, 0.00198752, 0.00222972, 0.0109241
0.0352342, -0.00506201, -0.586526, -2.76978e-05, 8.61703e-05, 7.9592e-05, 0.0363533, 0.0360313, 0.0210479, 0.00198662, 0.00223111, 0.0109076
0.035235, -0.00508428, -0.586562, -2.27156e-05, 8.77764e-05, 4.29906e-05, 0.0363601, 0.0360301, 0.0210466, 0.00198555, 0.0022324, 0.0108865
0.0352296, -0.00509791, -0.586565, -2.73653e-05, 9.39849e-05, 3.73556e-05, 0.0363671, 0.0360291, 0.0210452, 0.00198434, 0.00223353, 0.0108597
0.035228, -0.00506686, -0.586522, -3.17782e-05, 0.000100266, 3.70515e-05, 0.036374, 0.0360285, 0.0210436, 0.00198298, 0.00223444, 0.0108272
0.0352265, -0.00503493, -0.586465, -4.0137e-05, 0.000109712, 5.83049e-05, 0.0363809, 0.0360283, 0.0210419, 0.00198155, 0.00223515, 0.0107891
0.0352265, -0.00500985, -0.586417, -4.67704e-05, 0.000119886, 7.1227e-05, 0.0363879, 0.0360285, 0.0210402, 0.00198007, 0.00223562, 0.0107464
0.0352233, -0.00502786, -0.586418, -5.27089e-05, 0.000131957, 7.79038e-05, 0.0363948, 0.0360291, 0.0210383, 0.00197858, 0.00223586, 0.0106997
0.0352154, -0.00506556, -0.58649, -4.00872e-05, 0.000133488, -3.67843e-05, 0.0364018, 0.03603, 0.0210363, 0.0019771, 0.00223585, 0.0106499
0.0352098, -0.00509229, -0.586526, -3.62223e-05, 0.000140166, -9.20107e-05, 0.0364088, 0.0360312, 0.0210343, 0.00197568, 0.00223559, 0.0105976
0.0351979, -0.0051266, -0.586606, -2.05819e-05, 0.000139973, -0.000230787, 0.0364156, 0.0360329, 0.0210321, 0.00197429, 0.00223508, 0.0105438
0.035196, -0.00512748, -0.586606, -1.71178e-05, 0.00014769, -0.000276954, 0.0364226, 0.0360351, 0.0210298, 0.00197301, 0.00223434, 0.0104892
0.0351897, -0.00514584, -0.58664, -1.08133e-05, 0.000154579, -0.000340563, 0.0364294, 0.0360376, 0.0210274, 0.0019718, 0.00223343, 0.0104348
0.0351715, -0.00517216, -0.586736, 1.01624e-05, 0.000152257, -0.000517105, 0.0364363, 0.0360406, 0.0210249, 0.00197072, 0.00223244, 0.0103818
0.0351558, -0.0051977, -0.586824, 2.69711e-05, 0.000152966, -0.000659776, 0.0364431, 0.036044, 0.0210222, 0.00196974, 0.00223139, 0.0103314
0.0351462, -0.00520519, -0.586874, 4.0365e-05, 0.000155416, -0.000770972, 0.03645, 0.0360476, 0.0210194, 0.00196886, 0.00223037, 0.0102844
0.0351351, -0.00520499, -0.586933, 5.8518e-05, 0.000154282, -0.000912081, 0.0364568, 0.0360514, 0.0210164, 0.00196807, 0.00222942, 0.0102418
0.0351267, -0.00522711, -0.586987, 6.41041e-05, 0.000162068, -0.000961668, 0.0364637, 0.0360554, 0.0210133, 0.00196741, 0.00222867, 0.0102045
0.0351144, -0.00522277, -0.587057, 8.46838e-05, 0.000159923, -0.00110215, 0.0364705, 0.0360594, 0.0210099, 0.00196682, 0.00222813, 0.0101728
0.0351055, -0.00527362, -0.587115, 7.53122e-05, 0.000174356, -0.00106402, 0.0364774, 0.0360637, 0.0210064, 0.00196632, 0.00222784, 0.0101465
0.0350927, -0.0053356, -0.587201, 6.57421e-05, 0.000187913, -0.00102931, 0.0364842, 0.036068, 0.0210027, 0.00196588, 0.00222783, 0.0101252
0.035086, -0.00534312, -0.587248, 7.23719e-05, 0.000191302, -0.00106969, 0.036491, 0.0360725, 0.0209987, 0.00196549, 0.00222811, 0.0101082
0.0350723, -0.00536092, -0.587355, 8.46313e-05, 0.00019303, -0.00113067, 0.0364979, 0.0360772, 0.0209946, 0.00196516, 0.00222868, 0.0100942
0.0350701, -0.0053848, -0.58736, 7.51225e-05, 0.000198728, -0.00111755, 0.0365048, 0.036082, 0.0209902, 0.00196485, 0.00222948, 0.0100817
0.035058, -0.00543601, -0.587446, 6.61003e-05, 0.000205378, -0.00111505, 0.0365117, 0.0360869, 0.0209856, 0.00196458, 0.00223053, 0.0100697
0.0350503, -0.00547192, -0.58749, 5.68593e-05, 0.000209299, -0.00110943, 0.0365186, 0.0360919, 0.0209808, 0.00196433, 0.00223177, 0.0100574
0.0350354, -0.00553344, -0.587564, 4.05019e-05, 0.000215048, -0.00111454, 0.0365254, 0.0360969, 0.0209757, 0.00196408, 0.00223314, 0.0100448
0.0350183, -0.00559769, -0.587654, 2.45878e-05, 0.000218164, -0.00112272, 0.0365322, 0.0361019, 0.0209705, 0.00196385, 0.00223462, 0.0100315
0.0350063, -0.00564653, -0.587679, 6.42294e-06, 0.000218633, -0.001143, 0.0365391, 0.0361071, 0.020965, 0.00196365, 0.00223619, 0.0100166
0.0349929, -0.00569217, -0.587744, -6.13623e-06, 0.000217868, -0.00116801, 0.036546, 0.0361124, 0.0209593, 0.00196348, 0.00223778, 0.00999856
0.034977, -0.00574425, -0.587816, -2.10875e-05, 0.000213756, -0.001206, 0.0365527, 0.0361178, 0.0209532, 0.00196333, 0.00223928, 0.00997615
0.0349866, -0.00571903, -0.587831, -8.20183e-06, 0.000214153, -0.00110377, 0.0365596, 0.0361233, 0.020947, 0.00196326, 0.0022406, 0.00994718
0.0349858, -0.00573222, -0.587787, -1.66756e-05, 0.000204426, -0.00111214, 0.0365664, 0.0361288, 0.0209404, 0.00196327, 0.00224161, 0.00990846
0.0349791, -0.00575909, -0.587837, -2.33127e-05, 0.000195787, -0.00111962, 0.0365733, 0.0361344, 0.0209336, 0.0019634, 0.00224217, 0.00985571
0.0349813, -0.00576445, -0.587813, -2.6671e-05, 0.000184666, -0.00107122, 0.0365801, 0.0361402, 0.0209266, 0.00196368, 0.00224213, 0.00978516
0.034988, -0.00575725, -0.587771, -2.65109e-05, 0.000174397, -0.000963157, 0.036587, 0.036146, 0.0209193, 0.00196415, 0.0022414, 0.00969391
0.0349918, -0.00575816, -0.587743, -2.9132e-05, 0.000160816, -0.000888711, 0.0365938, 0.0361519, 0.0209119, 0.00196483, 0.00223996, 0.00958244
0.0350009, -0.00573942, -0.587718, -2.44e-05, 0.000155819, -0.000682617, 0.0366008, 0.036158, 0.0209045, 0.00196575, 0.00223787, 0.00945272
0.0350091, -0.00571981, -0.587685, -2.0927e-05, 0.000148626, -0.000478222, 0.0366077, 0.0361643, 0.0208969, 0.00196691, 0.00223514, 0.00930727
0.0350155, -0.00569958, -0.58769, -1.70612e-05, 0.000142978, -0.00025682, 0.0366147, 0.0361707, 0.0208895, 0.00196832, 0.00223186, 0.0091492
0.0350226, -0.00566918, -0.587679, -1.10056e-05, 0.00014099, 2.86659e-05, 0.0366217, 0.0361771, 0.020882, 0.00196992, 0.00222813, 0.00898333
0.0350268, -0.00564722, -0.587663, -9.40251e-06, 0.000130079, 0.000217355, 0.0366286, 0.0361837, 0.0208747, 0.00197171, 0.00222409, 0.00881398
0.0350304, -0.0056255, -0.58767, -8.66687e-06, 0.000116823, 0.000392994, 0.0366356, 0.0361903, 0.0208676, 0.00197368, 0.00221994, 0.00864608
0.0350337, -0.00560381, -0.587708, -8.19128e-06, 0.000103683, 0.000553286, 0.0366426, 0.036197, 0.0208607, 0.00197577, 0.00221583, 0.00848355
0.0350346, -0.00559217, -0.587675, -1.36926e-05, 7.47473e-05, 0.000561082, 0.0366496, 0.0362037, 0.0208541, 0.00197796, 0.00221188, 0.0083291
0.0350356, -0.00558319, -0.58766, -1.96131e-05, 4.558e-05, 0.000554491, 0.0366566, 0.0362105, 0.0208476, 0.0019802, 0.00220819, 0.00818569
0.035034, -0.00558215, -0.587584, -2.8393e-05, 9.44624e-06, 0.000472641, 0.0366635, 0.0362173, 0.0208415, 0.00198249, 0.00220482, 0.00805461
0.0350345, -0.00557415, -0.587566, -3.19618e-05, -1.466e-05, 0.000528198, 0.0366705, 0.0362242, 0.0208357, 0.00198481, 0.00220181, 0.00793687
0.0350337, -0.00557304, -0.587567, -3.70685e-05, -4.15962e-05, 0.000531769, 0.0366774, 0.0362311, 0.0208299, 0.0019871, 0.00219907, 0.00783188
0.0350317, -0.00557583, -0.587561, -4.26918e-05, -6.91317e-05, 0.000521982, 0.0366844, 0.036238, 0.0208244, 0.00198939, 0.00219663, 0.00773901
