-0.0139203, -0.00744531, -0.589806, -0.000360391, 0.00139733, 0.000819097, 0.0316228, 0.0316228, 0.0316228, 0.0316228, 0.0316228, 0.0316228
-0.0139203, -0.00744531, -0.589806, -0.000360391, 0.00139733, 0.000819097, 0.0316235, 0.0316235, 0.0316235, 0.0316228, 0.0316228, 0.0316228
-0.0139226, -0.00727741, -0.589843, -7.63319e-05, 0.00139579, 0.000821121, 0.0316007, 0.0316005, 0.0315968, 0.031555, 0.0315554, 0.0316217
-0.0139462, -0.00723937, -0.589931, -1.00649e-06, 0.00143853, 0.000813358, 0.0315823, 0.0315808, 0.0315677, 0.031481, 0.0314861, 0.0316207
-0.0139695, -0.00716965, -0.590047, 0.000157211, 0.00149305, 0.000814069, 0.0315676, 0.031564, 0.0315365, 0.0313972, 0.0314114, 0.0316197
-0.0139831, -0.00723155, -0.590203, -1.04444e-06, 0.00152957, 0.000806754, 0.0315538, 0.0315498, 0.0314977, 0.0313017, 0.0313177, 0.0316187
-0.0139615, -0.00732119, -0.590203, -0.000274644, 0.00146132, 0.000800459, 0.0315411, 0.0315382, 0.0314486, 0.0311922, 0.0312014, 0.0316177
-0.013954, -0.00731096, -0.590338, -0.000238737, 0.00143374, 0.000806842, 0.0315305, 0.0315288, 0.0313872, 0.0310641, 0.0310658, 0.0316167
-0.0139442, -0.00722252, -0.590397, 0.000138244, 0.00139535, 0.000811119, 0.031522, 0.0315209, 0.0313103, 0.0309167, 0.0309157, 0.0316157
-0.0139442, -0.00722252, -0.590397, 0.000138244, 0.00139535, 0.000811119, 0.0315221, 0.031521, 0.0313104, 0.0309167, 0.0309157, 0.0316157
-0.0138965, -0.00724943, -0.589935, -4.14339e-05, 0.00116202, 0.000797887, 0.031514, 0.0315135, 0.0311811, 0.0306462, 0.0306446, 0.0316116
-0.0138965, -0.00724943, -0.589935, -4.14339e-05, 0.00116202, 0.000797887, 0.0315141, 0.0315136, 0.0311812, 0.0306462, 0.0306446, 0.0316116
-0.013883, -0.00717139, -0.590058, 0.000603964, 0.0010969, 0.000808299, 0.0315082, 0.0315084, 0.0310006, 0.0302805, 0.0302797, 0.0316074
-0.0138586, -0.00720614, -0.589627, 0.000207224, 0.000959004, 0.000809947, 0.031505, 0.0315057, 0.0308224, 0.0299768, 0.029982, 0.031606
-0.0138586, -0.00720614, -0.589627, 0.000207224, 0.000959004, 0.000809947, 0.0315051, 0.0315058, 0.0308225, 0.0299768, 0.029982, 0.031606
-0.0138586, -0.00720614, -0.589627, 0.000207224, 0.000959004, 0.000809947, 0.0315051, 0.0315059, 0.0308226, 0.0299768, 0.029982, 0.031606
-0.0138586, -0.00720614, -0.589627, 0.000207224, 0.000959004, 0.000809947, 0.0315052, 0.031506, 0.0308226, 0.0299768, 0.029982, 0.031606
-0.0138041, -0.00723997, -0.588442, -0.000742758, 0.000608289, 0.000826073, 0.0315027, 0.031504, 0.0304643, 0.0290362, 0.0290895, 0.0315892
-0.0137888, -0.00722827, -0.587992, -0.000486792, 0.000565659, 0.000833903, 0.0315016, 0.0315034, 0.0301272, 0.0284544, 0.0285337, 0.0315882
-0.0137649, -0.00722983, -0.587318, -0.000711658, 0.000429974, 0.000830045, 0.031501, 0.0315032, 0.0298027, 0.0279811, 0.0280763, 0.0315872
-0.0137562, -0.00722558, -0.587012, -0.000577876, 0.000406777, 0.000836134, 0.0315007, 0.0315031, 0.029485, 0.0275311, 0.0276271, 0.0315861
-0.0137473, -0.00722514, -0.586714, -0.000773936, 0.000388178, 0.00083162, 0.0315005, 0.0315032, 0.0291732, 0.0270632, 0.0271473, 0.0315849
-0.0137507, -0.0072274, -0.586858, -0.00112631, 0.000473279, 0.000829099, 0.0315004, 0.0315032, 0.0288858, 0.0265351, 0.0266205, 0.0315837
-0.0137367, -0.00722466, -0.58633, -0.00179384, 0.000252346, 0.00084076, 0.0315003, 0.0315033, 0.028621, 0.0259187, 0.0260225, 0.0315823
-0.0137311, -0.00722419, -0.586116, -0.00183264, 0.000248761, 0.00084653, 0.0315003, 0.0315034, 0.0283638, 0.0252229, 0.0253352, 0.0315812
-0.0137339, -0.00722352, -0.586265, -0.00209312, 0.000284483, 0.000844278, 0.0315002, 0.0315035, 0.0281185, 0.0244623, 0.0245736, 0.0315801
-0.0137318, -0.00722244, -0.586179, -0.00239462, 0.000348067, 0.000845994, 0.0315002, 0.0315035, 0.0278851, 0.0236548, 0.0237635, 0.0315788
-0.0137345, -0.00722249, -0.586358, -0.00228136, 0.000436835, 0.000847453, 0.0315002, 0.0315036, 0.0276372, 0.0228245, 0.022912, 0.0315776
-0.0137367, -0.00722083, -0.586526, -0.00261121, 0.00042323, 0.000852198, 0.0315002, 0.0315037, 0.0273693, 0.0219877, 0.0220396, 0.031576
-0.0137366, -0.00721961, -0.586596, -0.0027881, 0.000517524, 0.000856432, 0.0315002, 0.0315037, 0.0270947, 0.0211795, 0.021198, 0.0315743
-0.013736, -0.00722384, -0.586547, -0.00228786, 0.000584778, 0.000845738, 0.0315001, 0.0315038, 0.0268156, 0.0204249, 0.0203959, 0.0315726
-0.0137347, -0.00722843, -0.586234, -0.00200812, 0.000474935, 0.000833215, 0.0315, 0.0315038, 0.0265611, 0.0197425, 0.0196434, 0.0315708
-0.0137333, -0.00722644, -0.586124, -0.00217416, 0.000480352, 0.000836375, 0.0314999, 0.0315037, 0.0263417, 0.0191297, 0.0189303, 0.0315689
-0.013732, -0.00724293, -0.585859, -0.00160041, 0.000462318, 0.000817041, 0.0314997, 0.0315036, 0.0261727, 0.0185927, 0.0182629, 0.0315669
-0.0137338, -0.00725791, -0.58571, -0.00121909, 0.000416243, 0.000789456, 0.0314994, 0.0315034, 0.0260692, 0.0181325, 0.0176032, 0.0315634
-0.0137308, -0.00728756, -0.585436, -0.000763044, 0.000542477, 0.000765797, 0.0314988, 0.031503, 0.0260245, 0.017761, 0.0169436, 0.0315583
-0.013735, -0.00730645, -0.585456, -0.000462367, 0.000505205, 0.000727273, 0.031498, 0.0315025, 0.0260135, 0.0174747, 0.0162476, 0.031543
-0.0137361, -0.00731227, -0.585471, -0.000384546, 0.000507272, 0.000718627, 0.031497, 0.0315019, 0.0260057, 0.0172646, 0.0155525, 0.0315312
-0.0137389, -0.00731979, -0.585517, -0.000314283, 0.000499816, 0.000712182, 0.0314959, 0.0315014, 0.0259866, 0.0171076, 0.0148768, 0.0315239
-0.0137457, -0.00733365, -0.585634, -0.000199822, 0.00047231, 0.000703631, 0.0314947, 0.0315009, 0.0259549, 0.0169824, 0.0142166, 0.0315182
-0.0137432, -0.00732671, -0.585574, -0.000256418, 0.000474862, 0.000703928, 0.0314934, 0.0315003, 0.0259136, 0.0168684, 0.0135643, 0.0315122
-0.0137463, -0.00732975, -0.585619, -0.000242811, 0.000460939, 0.000702399, 0.0314921, 0.0314996, 0.0258621, 0.0167522, 0.012948, 0.0315095
-0.0137341, -0.00731592, -0.585402, -0.000279913, 0.000456631, 0.000719767, 0.0314909, 0.0314989, 0.0258044, 0.0166261, 0.0123528, 0.0315071
-0.013745, -0.0073169, -0.585467, -0.000312193, 0.000391845, 0.000700909, 0.0314897, 0.031498, 0.0257423, 0.0164762, 0.0118277, 0.031505
-0.0137526, -0.00732937, -0.585543, -0.000217376, 0.000330963, 0.000711923, 0.0314886, 0.031497, 0.0256751, 0.0162975, 0.0113162, 0.0315036
-0.0137559, -0.00733752, -0.585587, -0.00018492, 0.000335201, 0.000705233, 0.0314875, 0.0314957, 0.0256104, 0.0160922, 0.0108357, 0.0315015
-0.0137444, -0.00730611, -0.585444, -0.000414606, 0.000378962, 0.000698209, 0.0314864, 0.0314942, 0.025555, 0.0158654, 0.010379, 0.0314986
-0.013742, -0.00730783, -0.585495, -0.000327438, 0.000394807, 0.000724401, 0.0314855, 0.0314922, 0.0255122, 0.0155943, 0.00996208, 0.031496
-0.0137268, -0.00723988, -0.58538, -0.000712748, 0.000421629, 0.000725627, 0.0314847, 0.0314898, 0.0254828, 0.0152632, 0.00958276, 0.0314917
-0.0137218, -0.00723482, -0.585383, -0.000746785, 0.000476452, 0.000727255, 0.0314839, 0.0314865, 0.0254654, 0.0148294, 0.00925152, 0.0314861
-0.0137228, -0.00723499, -0.585371, -0.000781888, 0.000469407, 0.000717379, 0.0314833, 0.0314825, 0.0254552, 0.0142886, 0.00894588, 0.0314782
-0.0137287, -0.00735505, -0.585472, 0.000572617, 0.000463021, 0.000885167, 0.0314827, 0.0314774, 0.0254464, 0.0136399, 0.00866262, 0.0314658
-0.0137441, -0.0074307, -0.585303, 0.000450207, 0.00044699, 0.000805409, 0.0314823, 0.0314723, 0.0254341, 0.0129771, 0.00840746, 0.0314399
-0.0137576, -0.00756679, -0.585079, 0.000808894, 0.000454734, 0.000807319, 0.0314818, 0.031466, 0.0254137, 0.0122418, 0.00815472, 0.0313991
-0.0137452, -0.0074993, -0.585235, 0.00105423, 0.000488243, 0.000886949, 0.0314814, 0.031459, 0.0253818, 0.0114823, 0.00790927, 0.0313337
-0.0137408, -0.00745312, -0.58533, 0.000761574, 0.000513959, 0.000890857, 0.0314811, 0.0314505, 0.0253361, 0.0107115, 0.00769522, 0.0312566
-0.0137338, -0.00727467, -0.585747, -0.000550727, 0.000518357, 0.000753788, 0.0314806, 0.0314393, 0.0252738, 0.00992664, 0.00749668, 0.0311658
-0.0137338, -0.00727467, -0.585747, -0.000550727, 0.000518357, 0.000753788, 0.0314807, 0.0314394, 0.0252739, 0.00992665, 0.00749669, 0.0311658
-0.0136999, -0.00683743, -0.586763, -0.0019181, 0.000534604, 0.000687358, 0.0314797, 0.0314126, 0.0251288, 0.00880001, 0.00724838, 0.0310035
-0.0137092, -0.00704287, -0.586234, -0.00103272, 0.00055485, 0.000808302, 0.0314786, 0.0313785, 0.0249684, 0.00790186, 0.00704464, 0.0308498
-0.0136685, -0.00668095, -0.586904, -0.00123988, 0.000577651, 0.000901263, 0.0314777, 0.0313421, 0.0248026, 0.00724927, 0.00687137, 0.0306605
-0.0136426, -0.00638849, -0.587472, -0.00150062, 0.000550566, 0.000836812, 0.0314767, 0.0312987, 0.02462, 0.00673893, 0.00672884, 0.0304452
-0.013644, -0.00631624, -0.58773, -0.00186936, 0.000523699, 0.000705421, 0.0314756, 0.0312469, 0.0244087, 0.00632872, 0.00660886, 0.0301985
-0.0135792, -0.00574771, -0.588676, -0.00196833, 0.000561686, 0.000887985, 0.0314745, 0.0311856, 0.0241592, 0.00598243, 0.00650364, 0.0299238
-0.0135893, -0.00589171, -0.58818, -0.00154815, 0.000543267, 0.000856483, 0.0314734, 0.0311147, 0.0238451, 0.0057289, 0.00642328, 0.0295874
-0.0136111, -0.00606112, -0.587824, -0.00148957, 0.000503738, 0.000650796, 0.0314722, 0.0310308, 0.0234297, 0.00553315, 0.00635628, 0.0291873
-0.0135916, -0.00588984, -0.588116, -0.00144653, 0.000514265, 0.000702876, 0.0314709, 0.0309336, 0.0229012, 0.00537567, 0.00629898, 0.0287408
-0.0135916, -0.00588984, -0.588116, -0.00144653, 0.000514265, 0.000702876, 0.031471, 0.0309337, 0.0229013, 0.00537568, 0.00629899, 0.0287408
-0.0135054, -0.00509609, -0.589554, -0.00125815, 0.000548759, 0.000906761, 0.0314694, 0.0307923, 0.0219306, 0.00524, 0.0062319, 0.0279662
-0.0135054, -0.00509609, -0.589554, -0.00125815, 0.000548759, 0.000906761, 0.0314695, 0.0307924, 0.0219307, 0.00524001, 0.00623191, 0.0279662
-0.0134047, -0.00418871, -0.591793, -0.00121129, 0.000647513, 0.000999487, 0.0314675, 0.030625, 0.0204084, 0.00516815, 0.00615621, 0.0267972
-0.013388, -0.00406799, -0.592047, -0.00118598, 0.000676637, 0.00098427, 0.031466, 0.0304965, 0.0190134, 0.00514987, 0.00612928, 0.0257323
-0.0133755, -0.00396631, -0.592364, -0.00118642, 0.000698599, 0.000949503, 0.0314649, 0.0303975, 0.0177624, 0.00514047, 0.00610203, 0.0247843
-0.0133507, -0.00373271, -0.593016, -0.00117821, 0.000710844, 0.000932199, 0.0314641, 0.0303249, 0.0166792, 0.00513639, 0.006073, 0.023921
-0.0133662, -0.00393352, -0.592519, -0.00117755, 0.000752236, 0.000804528, 0.0314637, 0.0302747, 0.015767, 0.00513443, 0.00604023, 0.0230951
-0.0133706, -0.00398708, -0.592374, -0.00117548, 0.000760597, 0.000768592, 0.0314634, 0.0302416, 0.0150266, 0.00513143, 0.0060069, 0.0223517
-0.0133785, -0.00410088, -0.591947, -0.00115997, 0.000767464, 0.000804933, 0.0314633, 0.0302212, 0.0144398, 0.00512812, 0.00597251, 0.0216519
-0.0133727, -0.0040422, -0.592245, -0.00117577, 0.00079307, 0.000746938, 0.0314633, 0.0302091, 0.0139802, 0.00512425, 0.00593803, 0.0209897
-0.0133755, -0.00412272, -0.591927, -0.00117314, 0.000828657, 0.000709681, 0.0314632, 0.0302016, 0.0136255, 0.0051209, 0.00590191, 0.0203412
-0.0133775, -0.00415695, -0.591782, -0.00117585, 0.000834605, 0.000797824, 0.0314632, 0.0301959, 0.0133521, 0.00511428, 0.00586816, 0.0197298
-0.0133745, -0.0041389, -0.591893, -0.00121175, 0.000874715, 0.000827117, 0.0314632, 0.0301917, 0.01314, 0.00510365, 0.00583562, 0.0191389
-0.0133741, -0.00414604, -0.591859, -0.00124281, 0.000909779, 0.000741468, 0.0314633, 0.0301885, 0.0129762, 0.0050886, 0.00580416, 0.0185646
-0.0133717, -0.00413121, -0.591942, -0.00122722, 0.000915261, 0.000631577, 0.0314633, 0.0301862, 0.0128479, 0.00506467, 0.00577616, 0.0180131
-0.0133726, -0.00416554, -0.591845, -0.00116718, 0.000904844, 0.000532309, 0.0314633, 0.0301845, 0.0127446, 0.00502893, 0.00575117, 0.0174728
-0.0133681, -0.00415654, -0.591942, -0.00111544, 0.000920413, 0.00037866, 0.0314633, 0.0301829, 0.0126588, 0.00497331, 0.00573059, 0.016951
-0.0133632, -0.00414066, -0.592103, -0.00103983, 0.000925684, 0.00028083, 0.0314634, 0.0301814, 0.0125862, 0.00489894, 0.00571267, 0.0164444
-0.0133565, -0.00412117, -0.592296, -0.000939981, 0.000928133, 0.000227183, 0.0314634, 0.0301798, 0.0125246, 0.00480497, 0.00569656, 0.0159573
-0.0133523, -0.00409761, -0.592344, -0.00096713, 0.000952715, 0.000148496, 0.0314634, 0.0301776, 0.0124727, 0.00469036, 0.00568141, 0.0154927
-0.013348, -0.00406698, -0.592387, -0.00101486, 0.00097393, 8.65769e-05, 0.0314634, 0.0301754, 0.0124283, 0.00455619, 0.00566716, 0.015062
-0.0133457, -0.00406098, -0.592424, -0.000985584, 0.000980178, -2.93534e-05, 0.0314634, 0.0301736, 0.0123898, 0.00440722, 0.00565321, 0.0146651
-0.0133405, -0.0040962, -0.592505, -0.000743547, 0.000958368, -0.000136193, 0.0314634, 0.0301719, 0.0123563, 0.0042465, 0.00564038, 0.0143045
-0.013334, -0.00414338, -0.592553, -0.000498346, 0.000962513, -0.000292132, 0.0314633, 0.0301703, 0.0123269, 0.00407729, 0.00562923, 0.0139776
-0.0133279, -0.00418806, -0.592567, -0.000312282, 0.00098438, -0.000435572, 0.0314632, 0.0301687, 0.0123003, 0.00390363, 0.00561755, 0.0136813
-0.0133269, -0.00419285, -0.592561, -0.00031208, 0.00100823, -0.000517792, 0.0314631, 0.0301671, 0.0122757, 0.00373167, 0.00560443, 0.0134146
-0.0133227, -0.00422666, -0.592566, -0.000191869, 0.00101879, -0.000599406, 0.0314631, 0.0301654, 0.0122528, 0.0035664, 0.0055911, 0.0131787
-0.0133153, -0.0042522, -0.592603, -9.97542e-05, 0.00103476, -0.000694203, 0.031463, 0.0301635, 0.0122304, 0.0034071, 0.005578, 0.0129705
-0.0133163, -0.00424506, -0.592615, -0.00011884, 0.00103916, -0.000763869, 0.0314629, 0.0301615, 0.012207, 0.00325269, 0.00556678, 0.0127905
-0.0133029, -0.0043051, -0.592725, 2.6424e-05, 0.00102015, -0.000805165, 0.0314628, 0.0301591, 0.0121816, 0.00309951, 0.00555886, 0.012646
-0.0132944, -0.00434218, -0.592814, 0.000110851, 0.00099861, -0.000870912, 0.0314627, 0.0301571, 0.0121541, 0.00294976, 0.00555278, 0.0125299
-0.0132877, -0.00435185, -0.592806, 0.000263204, 0.000984565, -0.00090542, 0.0314625, 0.0301552, 0.0121247, 0.00280457, 0.00554671, 0.0124433
-0.0132836, -0.00434826, -0.59279, 0.000384294, 0.00097519, -0.000951596, 0.0314621, 0.0301534, 0.0120928, 0.00266054, 0.00553781, 0.0123825
-0.0132968, -0.00430766, -0.592697, 0.000460033, 0.000969156, -0.00103321, 0.0314617, 0.0301514, 0.0120587, 0.00251972, 0.00552526, 0.012341
-0.0133103, -0.00428997, -0.59269, 0.000388609, 0.000954532, -0.00110123, 0.0314612, 0.0301487, 0.0120217, 0.00238369, 0.00550715, 0.0123153
-0.0133227, -0.00424432, -0.592613, 0.000461893, 0.000935448, -0.00112453, 0.0314606, 0.0301447, 0.0119817, 0.00225503, 0.00548352, 0.0123008
-0.0133287, -0.00421585, -0.592582, 0.000526608, 0.000905184, -0.00112545, 0.0314598, 0.0301392, 0.0119372, 0.0021319, 0.00545444, 0.0122925
-0.0133535, -0.00412942, -0.592464, 0.000564233, 0.00088206, -0.00112942, 0.0314589, 0.0301321, 0.0118878, 0.00201642, 0.00541928, 0.0122862
-0.0133414, -0.00412818, -0.592516, 0.000649769, 0.000823576, -0.00106238, 0.0314577, 0.0301235, 0.0118317, 0.00190708, 0.0053738, 0.0122762
-0.0133513, -0.00407681, -0.592495, 0.000697509, 0.000761763, -0.000995995, 0.031456, 0.0301132, 0.0117672, 0.00180276, 0.00531895, 0.0122561
-0.0133547, -0.0041312, -0.592559, 0.000622767, 0.000734594, -0.00100498, 0.0314538, 0.0301011, 0.0116927, 0.00170323, 0.00525134, 0.0122197
-0.0133061, -0.00423762, -0.592771, 0.000625276, 0.0006928, -0.000962135, 0.0314509, 0.0300866, 0.0116062, 0.00160742, 0.00516834, 0.0121623
-0.0133876, -0.00413204, -0.592573, 0.000582021, 0.000628801, -0.000890099, 0.0314472, 0.0300708, 0.0115066, 0.0015185, 0.0050712, 0.0120794
-0.0134243, -0.00417162, -0.592547, 0.000503153, 0.000582655, -0.000844493, 0.0314425, 0.0300542, 0.0113932, 0.00143577, 0.00495758, 0.0119673
-0.0133977, -0.00421323, -0.592684, 0.00049556, 0.000506115, -0.000727825, 0.031437, 0.0300369, 0.0112659, 0.00135866, 0.00483069, 0.0118272
-0.0134914, -0.00413913, -0.59249, 0.000455361, 0.000410963, -0.000572112, 0.0314308, 0.0300194, 0.0111258, 0.00128899, 0.00469652, 0.011665
-0.0134552, -0.00420996, -0.592654, 0.000430757, 0.000340592, -0.000454598, 0.0314237, 0.0300035, 0.0109758, 0.00122728, 0.00455412, 0.0114788
-0.0135298, -0.00416374, -0.592524, 0.000401488, 0.000236503, -0.000264443, 0.0314162, 0.0299886, 0.0108177, 0.00117202, 0.00440994, 0.0112782
-0.0135813, -0.00412544, -0.592443, 0.000385002, 0.000146311, -8.98831e-05, 0.0314083, 0.0299745, 0.0106543, 0.00112337, 0.00426414, 0.0110635
-0.0136912, -0.00407754, -0.59222, 0.000338677, 7.23332e-05, 5.30659e-05, 0.0314003, 0.0299608, 0.0104878, 0.00108096, 0.0041184, 0.0108375
-0.0137242, -0.00410524, -0.592198, 0.000299103, 1.39981e-05, 0.000166637, 0.0313926, 0.0299452, 0.0103176, 0.00104356, 0.00397254, 0.0106007
-0.0138465, -0.00403166, -0.591933, 0.000246887, -3.14621e-05, 0.000258331, 0.0313851, 0.0299275, 0.0101463, 0.00101087, 0.00382831, 0.0103563
-0.0139369, -0.00389704, -0.591704, 0.000243712, -8.56792e-05, 0.000382893, 0.031378, 0.0299073, 0.00997577, 0.000981866, 0.00368524, 0.0101043
-0.0140062, -0.00380429, -0.591538, 0.000232538, -0.000124094, 0.000471376, 0.0313711, 0.0298859, 0.00981009, 0.000956341, 0.00354627, 0.00985072
-0.0140675, -0.00369239, -0.591382, 0.000232938, -0.000173286, 0.000589152, 0.0313646, 0.0298626, 0.0096504, 0.000933654, 0.00341136, 0.00959619
-0.0141473, -0.00363037, -0.591239, 0.000190213, -0.000203116, 0.000652048, 0.0313587, 0.0298346, 0.00949667, 0.000913439, 0.00328115, 0.00934269
-0.0141864, -0.00362101, -0.591195, 0.000163657, -0.000231462, 0.000715302, 0.0313533, 0.0298003, 0.00934848, 0.000895149, 0.00315398, 0.00908782
-0.0142926, -0.00338297, -0.590928, 0.000144745, -0.000271402, 0.000815297, 0.0313485, 0.029759, 0.00920721, 0.000878594, 0.00303003, 0.00883234
-0.0142677, -0.00358138, -0.591088, 0.000124352, -0.000283564, 0.000836956, 0.0313443, 0.0297104, 0.00907433, 0.000863353, 0.00290956, 0.00857769
-0.0143179, -0.00348938, -0.590993, 0.000107717, -0.00029509, 0.000863831, 0.0313404, 0.029656, 0.0089504, 0.000849465, 0.00279215, 0.00832321
-0.0143186, -0.00346725, -0.590981, 0.000110372, -0.000328904, 0.000953278, 0.0313367, 0.0295963, 0.00883457, 0.000836305, 0.00267764, 0.0080696
-0.0143921, -0.00331266, -0.590859, 8.63909e-05, -0.000333401, 0.000959712, 0.0313335, 0.0295264, 0.00872734, 0.000823899, 0.00256679, 0.007819
-0.0144008, -0.00324001, -0.590816, 8.78304e-05, -0.000344177, 0.000990237, 0.0313305, 0.0294439, 0.00862659, 0.000811875, 0.00245819, 0.00756923
-0.0144403, -0.0030443, -0.590707, 8.23921e-05, -0.000353332, 0.00101544, 0.0313278, 0.0293497, 0.00853212, 0.000800196, 0.00235258, 0.00732228
-0.014458, -0.00297248, -0.59067, 7.87113e-05, -0.000351139, 0.00100877, 0.0313252, 0.0292425, 0.00844257, 0.000788718, 0.00224944, 0.00707751
-0.014467, -0.00303614, -0.590694, 7.15933e-05, -0.000354644, 0.00101547, 0.0313226, 0.0291255, 0.00835709, 0.000777529, 0.00214905, 0.00683599
-0.0145628, -0.00260322, -0.590491, 5.57023e-05, -0.000345377, 0.000986287, 0.03132, 0.0290025, 0.00827456, 0.000766611, 0.00205163, 0.00659853
-0.0145454, -0.00304221, -0.590668, 4.35906e-05, -0.000342051, 0.000969257, 0.0313174, 0.0288763, 0.0081951, 0.00075581, 0.00195724, 0.00636579
-0.0145606, -0.00306515, -0.590673, 3.83904e-05, -0.000331059, 0.000935198, 0.0313146, 0.0287537, 0.00811831, 0.000745386, 0.00186629, 0.00613863
-0.014612, -0.00281147, -0.590558, 3.35018e-05, -0.000325465, 0.00091832, 0.0313117, 0.0286401, 0.00804359, 0.000735178, 0.00177956, 0.0059193
-0.014667, -0.00272879, -0.590512, 2.07567e-05, -0.000310109, 0.000867623, 0.0313088, 0.0285383, 0.00797152, 0.000725136, 0.00169751, 0.00570916
-0.0146939, -0.0026634, -0.590479, 1.64093e-05, -0.00030157, 0.000840435, 0.0313058, 0.0284495, 0.00790252, 0.000715372, 0.00162013, 0.00550844
-0.0147585, -0.00245385, -0.590373, 8.43062e-06, -0.000295445, 0.000819431, 0.0313029, 0.0283755, 0.00783567, 0.00070583, 0.00154747, 0.00531728
-0.0147812, -0.00246051, -0.59038, 2.70715e-07, -0.000285306, 0.000784526, 0.0312999, 0.0283144, 0.00777071, 0.000696462, 0.00147956, 0.0051363
-0.0148438, -0.00215785, -0.590202, 6.3949e-06, -0.00027937, 0.000769692, 0.0312969, 0.0282638, 0.00770757, 0.000687199, 0.00141585, 0.00496429
-0.0148655, -0.00213668, -0.590206, -2.48738e-06, -0.000275803, 0.000754419, 0.031294, 0.0282215, 0.00764669, 0.000678043, 0.00135663, 0.00480234
-0.014955, -0.00190417, -0.590114, -2.13329e-05, -0.000263841, 0.000710194, 0.0312912, 0.0281847, 0.00758819, 0.000669054, 0.00130105, 0.00464868
-0.0150828, -0.00148099, -0.589834, -1.82124e-05, -0.000262358, 0.000707401, 0.0312884, 0.0281518, 0.00753069, 0.000660156, 0.00124871, 0.00450288
-0.0151195, -0.00135907, -0.58973, -1.09822e-05, -0.000259845, 0.000701146, 0.0312856, 0.0281222, 0.00747556, 0.000651563, 0.00119986, 0.00436546
-0.0151031, -0.00141872, -0.589809, -1.97292e-05, -0.000252818, 0.000674693, 0.0312828, 0.0280957, 0.00742335, 0.000643417, 0.00115422, 0.00423561
-0.0150897, -0.00141502, -0.58963, 2.23122e-05, -0.000258553, 0.000706283, 0.0312801, 0.028072, 0.0073738, 0.000635732, 0.00111122, 0.00411216
-0.01515, -0.00125191, -0.589455, 3.5043e-05, -0.000259548, 0.000712887, 0.0312773, 0.0280513, 0.00732645, 0.000628601, 0.00107189, 0.00399727
-0.01515, -0.00125191, -0.589455, 3.5043e-05, -0.000259548, 0.000712887, 0.0312774, 0.0280514, 0.00732679, 0.0006287, 0.00107195, 0.00399729
-0.015229, -0.00107638, -0.589365, 2.76365e-05, -0.000245704, 0.000662201, 0.031274, 0.0280318, 0.00727751, 0.000620926, 0.00102811, 0.00386666
-0.0152807, -0.000953793, -0.589265, 3.05372e-05, -0.000236723, 0.000632875, 0.0312707, 0.0280141, 0.00723058, 0.000613586, 0.000988776, 0.00374917
-0.0152807, -0.000953793, -0.589265, 3.05372e-05, -0.000236723, 0.000632875, 0.0312707, 0.0280142, 0.00723094, 0.000613689, 0.000988839, 0.00374918
-0.0153816, -0.000743642, -0.589123, 2.55588e-05, -0.000226737, 0.000597391, 0.0312672, 0.0279963, 0.00718109, 0.000605077, 0.000946599, 0.00362313
-0.0155834, -0.000338328, -0.588835, 1.55528e-05, -0.000214734, 0.000554031, 0.0312638, 0.0279792, 0.00713315, 0.000596794, 0.000909303, 0.00351308
-0.0155916, -0.00030363, -0.588816, 1.88521e-05, -0.000196944, 0.0004948, 0.0312606, 0.0279623, 0.00708574, 0.000588596, 0.000875536, 0.00341513
-0.0156371, -0.000234741, -0.58877, 1.39573e-05, -0.000189722, 0.000468619, 0.0312574, 0.027945, 0.00703864, 0.000580447, 0.000844832, 0.00332766
-0.0156326, -0.000255218, -0.588791, 1.2897e-05, -0.000179518, 0.000433671, 0.0312543, 0.0279255, 0.00699143, 0.000572245, 0.000816324, 0.00324851
-0.0156924, -0.000148229, -0.588712, 9.52389e-06, -0.000170709, 0.000402934, 0.0312514, 0.0279009, 0.00694439, 0.000563934, 0.000789566, 0.00317651
-0.0156145, -0.000429783, -0.58889, 5.37229e-06, -0.000158692, 0.000360839, 0.0312488, 0.0278683, 0.00689615, 0.000555383, 0.000764174, 0.00311074
-0.0155426, -0.000453816, -0.588932, 2.07625e-05, -0.000153699, 0.000350133, 0.0312464, 0.0278252, 0.00684755, 0.000546722, 0.000740091, 0.00305083
-0.0154762, -0.000761136, -0.58909, 1.85154e-05, -0.000146867, 0.000325775, 0.0312442, 0.0277728, 0.00679707, 0.000538004, 0.000717621, 0.00299691
-0.0153867, -0.00110387, -0.589263, 2.20704e-05, -0.000141121, 0.000307017, 0.0312422, 0.0277095, 0.00674627, 0.000529323, 0.000696411, 0.00294813
-0.015356, -0.00132031, -0.589356, 2.02242e-05, -0.000133467, 0.000280329, 0.0312404, 0.0276367, 0.00669449, 0.000520764, 0.000676546, 0.00290437
-0.0153875, -0.00152091, -0.589407, 6.48756e-06, -0.000121661, 0.00023519, 0.0312386, 0.0275513, 0.00664208, 0.000512302, 0.000657892, 0.00286529
-0.0154153, -0.00135219, -0.589337, 7.80275e-06, -0.00011351, 0.000211609, 0.0312368, 0.0274534, 0.00658618, 0.000503898, 0.000640328, 0.00283069
-0.0153979, -0.00135936, -0.589346, 1.23489e-05, -0.000106838, 0.000194305, 0.0312349, 0.0273449, 0.00652563, 0.000495702, 0.000624058, 0.0028005
-0.0153407, -0.00165392, -0.589461, 1.42305e-05, -0.000101355, 0.000178459, 0.0312327, 0.0272258, 0.00646145, 0.000487837, 0.000609091, 0.00277432
-0.0153471, -0.00130809, -0.589355, 2.79225e-05, -9.60767e-05, 0.000171358, 0.03123, 0.0271021, 0.00639357, 0.000480418, 0.000595425, 0.00275186
-0.0152993, -0.00157809, -0.589453, 2.88354e-05, -8.89815e-05, 0.000151586, 0.0312274, 0.0269721, 0.00632603, 0.000473485, 0.000583056, 0.00273256
-0.0153407, -0.00129623, -0.589352, 3.15975e-05, -8.33623e-05, 0.00013815, 0.0312246, 0.0268409, 0.00625838, 0.000467039, 0.000571825, 0.00271612
-0.0153362, -0.00120597, -0.589327, 3.67748e-05, -7.76428e-05, 0.000126672, 0.0312216, 0.026712, 0.00619185, 0.000461088, 0.000561668, 0.00270208
-0.0153208, -0.00119372, -0.58933, 4.11913e-05, -7.2776e-05, 0.000116869, 0.0312187, 0.0265872, 0.00612863, 0.000455625, 0.000552479, 0.00269006
-0.0152329, -0.00139423, -0.589424, 5.37473e-05, -6.92612e-05, 0.000115648, 0.0312163, 0.0264662, 0.00607077, 0.000450598, 0.000544135, 0.00267973
-0.0152437, -0.00113099, -0.589349, 6.09182e-05, -6.66964e-05, 0.000114071, 0.0312142, 0.0263512, 0.00601837, 0.000445958, 0.00053651, 0.00267079
-0.0152504, -0.00106845, -0.589328, 6.18142e-05, -6.15829e-05, 0.000102658, 0.0312123, 0.026243, 0.00597055, 0.000441673, 0.000529513, 0.00266302
-0.0152006, -0.00133193, -0.589421, 6.45124e-05, -5.74899e-05, 9.42625e-05, 0.0312106, 0.0261419, 0.00592644, 0.000437672, 0.000523054, 0.0026563
-0.0152029, -0.00125044, -0.5894, 6.65189e-05, -5.43119e-05, 8.82906e-05, 0.0312089, 0.0260466, 0.0058858, 0.000433921, 0.000517038, 0.00265045
-0.0152094, -0.000980637, -0.589328, 7.24618e-05, -5.32104e-05, 9.0285e-05, 0.0312075, 0.0259555, 0.00584875, 0.000430416, 0.000511413, 0.00264535
-0.0151716, -0.00105468, -0.589364, 7.9006e-05, -5.12877e-05, 8.99119e-05, 0.0312062, 0.0258696, 0.00581471, 0.000427164, 0.000506121, 0.00264088
-0.0151866, -0.000839818, -0.589304, 8.12424e-05, -4.83558e-05, 8.55489e-05, 0.0312052, 0.0257889, 0.00578338, 0.000424157, 0.000501109, 0.00263695
-0.015188, -0.00079899, -0.589293, 8.19729e-05, -4.60157e-05, 8.1626e-05, 0.0312043, 0.0257128, 0.00575447, 0.000421386, 0.000496349, 0.00263347
-0.0152002, -0.000672922, -0.589257, 8.20125e-05, -4.40491e-05, 7.8403e-05, 0.0312036, 0.025642, 0.00572743, 0.00041881, 0.000491812, 0.00263038
-0.015227, -0.000567048, -0.589226, 7.68633e-05, -4.0464e-05, 6.97375e-05, 0.0312029, 0.025576, 0.0057022, 0.00041642, 0.000487472, 0.00262761
-0.0152272, -0.000201239, -0.589117, 8.88737e-05, -4.18293e-05, 8.00741e-05, 0.0312024, 0.0255126, 0.0056789, 0.000414238, 0.000483319, 0.00262513
-0.0152225, -0.000190865, -0.58911, 9.27063e-05, -4.0871e-05, 7.97772e-05, 0.031202, 0.0254544, 0.0056574, 0.000412222, 0.000479308, 0.00262287
-0.0152339, -5.55965e-05, -0.589077, 9.09483e-05, -3.91311e-05, 7.66071e-05, 0.0312018, 0.0253992, 0.00563764, 0.00041037, 0.000475444, 0.00262084
-0.0152246, -0.000214562, -0.58911, 9.47424e-05, -3.81393e-05, 7.5629e-05, 0.0312016, 0.0253462, 0.00561932, 0.000408663, 0.000471735, 0.00261905
-0.0152361, -2.64835e-05, -0.589057, 9.48665e-05, -3.82116e-05, 7.67436e-05, 0.0312016, 0.0252946, 0.00560246, 0.00040706, 0.000468165, 0.00261747
-0.0152403, -1.48044e-05, -0.589044, 9.74851e-05, -3.60982e-05, 7.45185e-05, 0.0312015, 0.0252453, 0.00558696, 0.000405534, 0.000464735, 0.00261608
-0.0152698, 0.000390664, -0.588892, 0.000105833, -3.82207e-05, 8.3306e-05, 0.0312015, 0.0251968, 0.00557282, 0.000404056, 0.000461427, 0.00261485
-0.0152815, 0.000401194, -0.588862, 0.000110881, -3.80126e-05, 8.43911e-05, 0.0312015, 0.0251494, 0.00556005, 0.000402621, 0.000458223, 0.00261374
-0.015282, 0.00049763, -0.588837, 0.000111401, -3.65078e-05, 8.31216e-05, 0.0312015, 0.0251034, 0.00554784, 0.000401207, 0.000455125, 0.00261275
-0.0152847, 0.000374069, -0.588861, 0.000113329, -3.4539e-05, 7.99891e-05, 0.0312015, 0.0250604, 0.00553566, 0.000399799, 0.000452131, 0.00261189
-0.0152952, 0.00052042, -0.588791, 0.000120133, -3.54805e-05, 8.41075e-05, 0.0312015, 0.0250202, 0.00552301, 0.000398373, 0.000449232, 0.00261114
-0.0153028, 0.000777627, -0.5887, 0.000124788, -3.60911e-05, 8.77929e-05, 0.0312016, 0.0249836, 0.00550962, 0.000396914, 0.000446409, 0.00261048
-0.0153102, 0.00101886, -0.588612, 0.000130539, -3.64961e-05, 9.11338e-05, 0.0312016, 0.0249498, 0.00549542, 0.000395418, 0.000443651, 0.00260988
-0.0153166, 0.00124744, -0.588531, 0.000133972, -3.73824e-05, 9.42886e-05, 0.0312017, 0.0249181, 0.00547996, 0.000393863, 0.000440944, 0.00260933
-0.0153181, 0.0012612, -0.588527, 0.000131451, -3.69552e-05, 9.30451e-05, 0.0312017, 0.0248877, 0.00546292, 0.000392246, 0.00043828, 0.0026088
-0.0153246, 0.00152374, -0.588435, 0.000138657, -3.69268e-05, 9.61757e-05, 0.0312016, 0.0248582, 0.00544406, 0.000390545, 0.000435656, 0.00260829
-0.0153151, 0.00156116, -0.588436, 0.000142576, -3.69765e-05, 9.77819e-05, 0.0312014, 0.024829, 0.00542287, 0.000388761, 0.000433053, 0.00260775
-0.0153071, 0.0015286, -0.588457, 0.00014367, -3.57286e-05, 9.69428e-05, 0.0312012, 0.0247992, 0.00540053, 0.000386904, 0.000430469, 0.00260718
-0.0153023, 0.00145665, -0.588486, 0.000142643, -3.44357e-05, 9.51969e-05, 0.0312008, 0.0247688, 0.00537638, 0.000384952, 0.000427902, 0.00260655
-0.0153023, 0.00135284, -0.588519, 0.000140106, -3.36553e-05, 9.35264e-05, 0.0312004, 0.0247373, 0.00535143, 0.000382931, 0.000425349, 0.00260583
-0.0153114, 0.00138208, -0.588489, 0.000139239, -3.30934e-05, 9.248e-05, 0.0312, 0.0247044, 0.00532639, 0.00038086, 0.000422804, 0.00260499
-0.0153221, 0.00122482, -0.588526, 0.000134252, -3.23765e-05, 8.95153e-05, 0.0311995, 0.0246711, 0.00530054, 0.000378759, 0.000420264, 0.00260398
-0.0153081, 0.00130405, -0.588524, 0.000138075, -3.27632e-05, 9.16265e-05, 0.031199, 0.0246368, 0.00527572, 0.000376644, 0.000417734, 0.00260279
-0.0153128, 0.00124237, -0.588541, 0.000136406, -3.26212e-05, 9.08916e-05, 0.0311985, 0.0246024, 0.00525159, 0.000374514, 0.000415202, 0.00260136
-0.0153376, 0.00123509, -0.588481, 0.000132082, -3.32762e-05, 9.09279e-05, 0.0311979, 0.024568, 0.00522844, 0.000372388, 0.000412678, 0.00259964
-0.0153518, 0.00124157, -0.588446, 0.000129938, -3.37e-05, 9.08004e-05, 0.0311972, 0.0245344, 0.00520573, 0.000370309, 0.000410166, 0.00259763
-0.0153626, 0.00112078, -0.588496, 0.000127549, -3.40401e-05, 9.05108e-05, 0.0311964, 0.024504, 0.00518247, 0.000368304, 0.000407667, 0.00259529
-0.0153736, 0.00116184, -0.588449, 0.000126543, -3.47475e-05, 9.20946e-05, 0.0311955, 0.0244764, 0.00515831, 0.00036638, 0.000405179, 0.00259259
-0.0153977, 0.00122544, -0.58837, 0.000123344, -3.50758e-05, 9.14566e-05, 0.0311947, 0.0244486, 0.00513532, 0.000364569, 0.000402708, 0.00258955
-0.0154072, 0.00122353, -0.588358, 0.000121916, -3.60813e-05, 9.36831e-05, 0.0311938, 0.0244177, 0.00511337, 0.000362878, 0.00040026, 0.00258617
-0.0154069, 0.0012986, -0.588325, 0.000121581, -3.71388e-05, 9.68198e-05, 0.0311929, 0.0243813, 0.00509234, 0.000361288, 0.000397831, 0.00258245
-0.0154526, 0.00118661, -0.588318, 0.000115202, -3.74281e-05, 9.46814e-05, 0.0311919, 0.0243387, 0.00507134, 0.000359786, 0.000395418, 0.00257837
-0.0154514, 0.00129822, -0.588279, 0.000114663, -3.84171e-05, 9.78857e-05, 0.0311909, 0.0242886, 0.00505026, 0.000358374, 0.000393026, 0.00257394
-0.0154445, 0.00141482, -0.588246, 0.00011476, -3.98134e-05, 0.000103041, 0.0311895, 0.0242314, 0.00502885, 0.00035703, 0.000390642, 0.00256906
-0.0154744, 0.00150686, -0.588188, 0.000111201, -4.03722e-05, 0.000103659, 0.0311877, 0.024167, 0.00500723, 0.000355761, 0.000388263, 0.00256365
-0.0154814, 0.00168113, -0.588125, 0.000109607, -4.20804e-05, 0.000109963, 0.031185, 0.0240948, 0.00498551, 0.000354617, 0.000385895, 0.00255769
-0.0154584, 0.00167768, -0.588145, 0.000110828, -4.35215e-05, 0.000116603, 0.0311814, 0.0240155, 0.00496327, 0.000353626, 0.000383537, 0.00255109
-0.0155189, 0.00182429, -0.588045, 0.000106893, -4.55468e-05, 0.000124616, 0.0311768, 0.0239307, 0.00493994, 0.000352795, 0.00038118, 0.00254377
-0.0155406, 0.00204346, -0.587956, 0.000105196, -4.79738e-05, 0.000135337, 0.0311716, 0.0238415, 0.00491497, 0.000352179, 0.000378844, 0.00253582
-0.0156118, 0.00208486, -0.58788, 0.000102654, -4.97545e-05, 0.000143154, 0.031166, 0.0237466, 0.00488936, 0.000351749, 0.000376531, 0.00252722
-0.0156552, 0.00228221, -0.587782, 0.000101099, -5.23835e-05, 0.000155642, 0.0311603, 0.0236458, 0.00486369, 0.000351478, 0.00037425, 0.00251806
-0.0157536, 0.00265443, -0.587601, 9.96597e-05, -5.28136e-05, 0.000156395, 0.031155, 0.0235401, 0.0048385, 0.000351311, 0.000372008, 0.00250835
-0.0157739, 0.00284231, -0.58753, 9.91534e-05, -5.48435e-05, 0.000166568, 0.03115, 0.0234293, 0.00481459, 0.000351231, 0.000369822, 0.00249825
-0.0157306, 0.00294481, -0.587523, 9.89243e-05, -5.77601e-05, 0.000182829, 0.0311453, 0.0233155, 0.00479182, 0.000351191, 0.000367689, 0.00248769
-0.0157529, 0.00287719, -0.587522, 9.84684e-05, -5.88702e-05, 0.000189418, 0.0311407, 0.0232006, 0.00477016, 0.000351165, 0.00036561, 0.00247658
-0.0157091, 0.00270282, -0.587582, 9.78383e-05, -6.08931e-05, 0.000201127, 0.0311362, 0.0230854, 0.00474935, 0.000351152, 0.000363592, 0.00246502
-0.0157109, 0.00232742, -0.587671, 9.68033e-05, -6.17027e-05, 0.000206293, 0.0311316, 0.0229703, 0.0047294, 0.000351134, 0.000361634, 0.0024529
-0.015709, 0.00193661, -0.587763, 9.54318e-05, -6.27179e-05, 0.000212619, 0.0311266, 0.0228552, 0.00471011, 0.000351097, 0.000359733, 0.00244029
-0.0157074, 0.00161951, -0.587835, 9.41941e-05, -6.34938e-05, 0.000217412, 0.0311212, 0.0227398, 0.00469157, 0.000351037, 0.000357888, 0.00242724
-0.0156944, 0.00159477, -0.587841, 9.40358e-05, -6.41734e-05, 0.000221457, 0.031115, 0.0226236, 0.004674, 0.000350966, 0.000356098, 0.00241383
-0.0155798, 0.0014885, -0.587877, 9.41327e-05, -6.64605e-05, 0.000232717, 0.031108, 0.0225067, 0.00465731, 0.000350883, 0.000354356, 0.00240015
-0.0155324, 0.00171495, -0.587835, 9.49322e-05, -6.7441e-05, 0.000237845, 0.0310995, 0.0223898, 0.00464137, 0.000350749, 0.000352645, 0.002386
-0.0155145, 0.00178219, -0.587822, 9.51722e-05, -6.78077e-05, 0.000239846, 0.0310894, 0.0222724, 0.00462611, 0.000350564, 0.000350959, 0.00237155
-0.0153842, 0.00167001, -0.587846, 9.64948e-05, -6.9268e-05, 0.000246917, 0.0310772, 0.0221548, 0.00461137, 0.0003503, 0.000349289, 0.00235675
-0.0152943, 0.00164541, -0.587853, 9.77091e-05, -6.97923e-05, 0.000248483, 0.0310622, 0.0220382, 0.00459714, 0.000349926, 0.000347631, 0.00234151
-0.015147, 0.00185548, -0.587816, 9.95632e-05, -7.14243e-05, 0.000257057, 0.0310441, 0.021923, 0.00458329, 0.000349434, 0.000345993, 0.0023259
-0.0149929, 0.00200235, -0.587789, 0.000101726, -7.24655e-05, 0.000261617, 0.0310222, 0.0218101, 0.00456971, 0.000348806, 0.00034438, 0.00230993
-0.0147728, 0.00223694, -0.587745, 0.000104781, -7.4034e-05, 0.000269339, 0.030996, 0.0216996, 0.00455633, 0.000348019, 0.000342789, 0.00229361
-0.0147426, 0.00215049, -0.58776, 0.000105518, -7.34048e-05, 0.000264119, 0.0309648, 0.0215916, 0.00454305, 0.000347043, 0.000341217, 0.00227692
-0.014818, 0.00216648, -0.587761, 0.000104547, -7.27281e-05, 0.000259724, 0.0309279, 0.0214856, 0.00452978, 0.000345859, 0.000339658, 0.00225989
-0.0145991, 0.00226671, -0.587739, 0.000108355, -7.23321e-05, 0.000253726, 0.0308849, 0.0213814, 0.00451642, 0.000344453, 0.000338111, 0.00224256
-0.0143407, 0.00234426, -0.587719, 0.000113055, -7.1412e-05, 0.000243411, 0.0308353, 0.0212794, 0.00450302, 0.000342794, 0.00033657, 0.00222487
-0.01406, 0.00221124, -0.587731, 0.000118236, -7.01876e-05, 0.000231328, 0.0307787, 0.0211796, 0.00448952, 0.000340824, 0.000335022, 0.00220678
-0.013674, 0.00218224, -0.587721, 0.00012553, -6.86201e-05, 0.000215807, 0.030715, 0.0210822, 0.00447582, 0.000338451, 0.000333447, 0.00218818
-0.0134181, 0.00201924, -0.587738, 0.000130999, -6.64061e-05, 0.000196624, 0.0306451, 0.0209874, 0.00446195, 0.00033565, 0.000331841, 0.00216917
-0.0132323, 0.00192058, -0.587746, 0.000135236, -6.46152e-05, 0.000181392, 0.0305707, 0.0208946, 0.00444795, 0.000332441, 0.000330207, 0.00214989
-0.0130666, 0.00196744, -0.58773, 0.000139342, -6.26984e-05, 0.000165235, 0.0304944, 0.020803, 0.00443386, 0.000328912, 0.000328566, 0.00213057
-0.0127861, 0.00234291, -0.587652, 0.000145025, -6.19463e-05, 0.000158797, 0.0304192, 0.0207125, 0.00441972, 0.000325218, 0.000326946, 0.00211151
-0.012878, 0.00259463, -0.587614, 0.000143685, -6.13082e-05, 0.000153352, 0.0303483, 0.0206233, 0.00440566, 0.000321563, 0.000325383, 0.00209304
-0.0125994, 0.00281786, -0.587559, 0.0001498, -6.02501e-05, 0.000145646, 0.0302839, 0.0205347, 0.00439169, 0.000318066, 0.000323892, 0.00207525
-0.0124763, 0.00312212, -0.587498, 0.000152854, -5.94724e-05, 0.000140131, 0.0302273, 0.0204472, 0.00437811, 0.000314875, 0.000322489, 0.00205835
-0.0123143, 0.00324602, -0.587464, 0.000156993, -5.81577e-05, 0.000130618, 0.0301791, 0.0203603, 0.00436491, 0.00031205, 0.000321178, 0.00204234
-0.0122541, 0.00350027, -0.587414, 0.000159066, -5.70874e-05, 0.00012283, 0.0301388, 0.0202746, 0.00435222, 0.000309626, 0.000319959, 0.0020272
-0.0120993, 0.00418725, -0.587283, 0.000163235, -5.62754e-05, 0.000119707, 0.0301053, 0.0201902, 0.00433999, 0.000307588, 0.000318829, 0.00201281
-0.0117977, 0.00431968, -0.587232, 0.000170687, -5.46316e-05, 0.000110223, 0.0300776, 0.0201081, 0.00432821, 0.00030591, 0.000317785, 0.00199909
-0.0115131, 0.00413089, -0.58724, 0.0001773, -5.36244e-05, 0.000105147, 0.0300547, 0.0200286, 0.00431699, 0.000304532, 0.000316813, 0.0019859
-0.0113385, 0.00406768, -0.587234, 0.000181593, -5.27947e-05, 0.000100819, 0.0300358, 0.0199521, 0.00430631, 0.000303392, 0.000315901, 0.00197314
-0.0112808, 0.0039043, -0.587255, 0.000183482, -5.16825e-05, 9.17591e-05, 0.0300205, 0.0198784, 0.00429608, 0.000302445, 0.000315045, 0.00196075
-0.0111435, 0.00367349, -0.58728, 0.000187181, -5.06753e-05, 8.47338e-05, 0.0300082, 0.0198075, 0.00428623, 0.000301647, 0.000314237, 0.00194872
-0.0110154, 0.0036175, -0.587277, 0.00019019, -5.06981e-05, 8.72635e-05, 0.0299981, 0.0197402, 0.00427681, 0.000300973, 0.000313474, 0.00193701
-0.0109652, 0.00324486, -0.587336, 0.000191819, -4.95798e-05, 7.65748e-05, 0.0299899, 0.0196766, 0.00426782, 0.000300395, 0.000312756, 0.0019256
-0.010855, 0.00304901, -0.587359, 0.000194549, -4.95797e-05, 7.75336e-05, 0.0299833, 0.0196165, 0.00425916, 0.000299887, 0.000312076, 0.0019145
-0.010886, 0.00303732, -0.587364, 0.000194037, -4.89313e-05, 7.11348e-05, 0.029978, 0.01956, 0.00425082, 0.000299435, 0.000311433, 0.00190366
-0.0108279, 0.00290096, -0.587383, 0.000195345, -4.96983e-05, 7.80856e-05, 0.0299739, 0.0195064, 0.00424265, 0.000299027, 0.000310826, 0.00189312
-0.0108388, 0.00285125, -0.587393, 0.000195114, -4.93629e-05, 7.46039e-05, 0.0299707, 0.0194558, 0.00423478, 0.000298653, 0.000310251, 0.00188285
-0.010866, 0.00283528, -0.587401, 0.000194087, -4.93418e-05, 7.39998e-05, 0.0299683, 0.0194073, 0.00422712, 0.000298306, 0.000309707, 0.00187288
-0.0108833, 0.00270964, -0.587429, 0.000193278, -4.92442e-05, 7.2187e-05, 0.0299664, 0.0193603, 0.00421967, 0.000297975, 0.000309189, 0.00186322
-0.0109133, 0.00277, -0.587425, 0.000191625, -4.93469e-05, 7.35553e-05, 0.0299648, 0.019315, 0.00421243, 0.000297655, 0.000308698, 0.00185386
-0.0109221, 0.0027197, -0.587438, 0.000191121, -4.99883e-05, 7.89873e-05, 0.0299632, 0.0192718, 0.00420537, 0.000297338, 0.000308232, 0.0018448
-0.0109411, 0.00284186, -0.587419, 0.000189853, -5.04097e-05, 8.41261e-05, 0.0299617, 0.0192313, 0.00419852, 0.00029702, 0.000307789, 0.001836
-0.0109501, 0.00284722, -0.587423, 0.000188652, -5.05466e-05, 8.62444e-05, 0.0299599, 0.0191935, 0.00419181, 0.000296697, 0.00030737, 0.00182747
-0.0109543, 0.00279503, -0.587437, 0.000188018, -5.07821e-05, 8.84447e-05, 0.0299581, 0.0191582, 0.00418513, 0.000296359, 0.000306969, 0.00181915
-0.0109553, 0.00280378, -0.58744, 0.000186386, -5.06863e-05, 8.9813e-05, 0.0299562, 0.0191254, 0.00417849, 0.000296, 0.000306584, 0.00181102
-0.0109477, 0.00286034, -0.587434, 0.000183566, -5.03494e-05, 9.17952e-05, 0.0299542, 0.0190947, 0.00417183, 0.000295617, 0.000306212, 0.00180306
-0.0109533, 0.00292876, -0.587421, 0.00018266, -5.07741e-05, 9.718e-05, 0.0299521, 0.0190658, 0.00416512, 0.000295207, 0.000305853, 0.00179528
-0.0109663, 0.00290945, -0.587427, 0.00018303, -5.12231e-05, 9.97392e-05, 0.0299499, 0.0190388, 0.00415839, 0.000294767, 0.000305505, 0.00178761
-0.0109762, 0.00287849, -0.587435, 0.000183665, -5.13713e-05, 9.9345e-05, 0.0299475, 0.0190134, 0.00415166, 0.00029429, 0.000305161, 0.00178008
-0.0110056, 0.00283668, -0.587448, 0.000184682, -5.20012e-05, 0.000101541, 0.0299448, 0.0189895, 0.00414495, 0.000293778, 0.000304825, 0.00177268
-0.0110418, 0.00293253, -0.587424, 0.000186578, -5.26916e-05, 0.000103262, 0.0299416, 0.0189665, 0.00413825, 0.000293225, 0.000304492, 0.0017654
-0.0110995, 0.00285984, -0.58745, 0.000188441, -5.34615e-05, 0.000104076, 0.029938, 0.0189444, 0.00413156, 0.00029263, 0.000304162, 0.00175824
-0.0111949, 0.0028097, -0.587475, 0.000191704, -5.45927e-05, 0.000104299, 0.0299339, 0.018923, 0.00412486, 0.000291989, 0.00030383, 0.00175119
-0.011203, 0.0028041, -0.587476, 0.000192434, -5.44048e-05, 0.000101258, 0.0299293, 0.0189023, 0.00411816, 0.000291299, 0.000303496, 0.00174426
-0.0111655, 0.00269701, -0.587502, 0.000191053, -5.36887e-05, 9.88697e-05, 0.029924, 0.0188821, 0.00411141, 0.000290559, 0.000303157, 0.00173749
-0.011194, 0.00271336, -0.587499, 0.000192444, -5.36827e-05, 9.568e-05, 0.0299179, 0.0188622, 0.00410458, 0.00028977, 0.000302813, 0.00173091
-0.0111911, 0.00267134, -0.587512, 0.000192301, -5.35658e-05, 9.49984e-05, 0.0299108, 0.0188425, 0.00409769, 0.000288932, 0.000302461, 0.00172453
-0.0113488, 0.00276864, -0.58751, 0.000197044, -5.52334e-05, 9.49962e-05, 0.0299028, 0.0188227, 0.00409066, 0.000288038, 0.0003021, 0.00171836
-0.0113597, 0.00270153, -0.587536, 0.0001972, -5.52549e-05, 9.43853e-05, 0.0298942, 0.0188027, 0.00408348, 0.000287083, 0.000301725, 0.00171237
-0.0112708, 0.00263829, -0.587535, 0.000194623, -5.40911e-05, 9.30658e-05, 0.0298853, 0.0187822, 0.00407608, 0.000286059, 0.000301334, 0.00170659
-0.0112022, 0.0026326, -0.587516, 0.000192611, -5.31981e-05, 9.25006e-05, 0.0298764, 0.0187611, 0.00406842, 0.000284965, 0.000300924, 0.00170104
-0.0113551, 0.00277416, -0.587508, 0.000198111, -5.46624e-05, 8.86518e-05, 0.0298677, 0.0187392, 0.00406047, 0.0002838, 0.000300498, 0.0016957
-0.0113638, 0.00276239, -0.587511, 0.000198645, -5.42495e-05, 8.49972e-05, 0.0298593, 0.0187167, 0.00405228, 0.000282566, 0.000300055, 0.00169056
-0.0114465, 0.00286801, -0.587495, 0.000202112, -5.4701e-05, 7.97347e-05, 0.0298511, 0.0186937, 0.00404387, 0.000281278, 0.000299601, 0.00168565
-0.0115701, 0.00294854, -0.587511, 0.000207231, -5.54809e-05, 7.23834e-05, 0.0298431, 0.0186705, 0.00403527, 0.000279949, 0.000299139, 0.00168097
-0.0116735, 0.00301843, -0.58752, 0.000211785, -5.56341e-05, 6.29491e-05, 0.0298356, 0.0186473, 0.00402645, 0.000278588, 0.000298673, 0.0016765
-0.0117452, 0.0030865, -0.587518, 0.000215157, -5.56056e-05, 5.52861e-05, 0.0298288, 0.0186245, 0.00401749, 0.000277214, 0.000298208, 0.00167225
-0.0117736, 0.00300635, -0.587558, 0.000216287, -5.43774e-05, 4.66283e-05, 0.029823, 0.0186023, 0.00400841, 0.000275845, 0.000297749, 0.00166822
-0.0118269, 0.00300697, -0.587578, 0.000218951, -5.35142e-05, 3.668e-05, 0.0298181, 0.0185811, 0.00399934, 0.0002745, 0.0002973, 0.00166441
-0.0119043, 0.00312244, -0.58757, 0.000223564, -5.3692e-05, 2.73475e-05, 0.0298143, 0.0185614, 0.00399031, 0.000273198, 0.000296865, 0.0016608
-0.0119532, 0.003111, -0.587616, 0.000227002, -5.31567e-05, 1.75522e-05, 0.0298113, 0.0185434, 0.00398142, 0.000271959, 0.000296449, 0.00165739
-0.0119918, 0.0031214, -0.587642, 0.000229832, -5.26589e-05, 9.36737e-06, 0.029809, 0.0185272, 0.00397266, 0.000270797, 0.000296052, 0.00165417
-0.0120382, 0.0031757, -0.587657, 0.000233466, -5.26515e-05, 1.6075e-06, 0.0298071, 0.0185127, 0.00396406, 0.000269722, 0.000295675, 0.00165114
-0.0120264, 0.00313378, -0.58766, 0.000232489, -5.15272e-05, -1.12106e-06, 0.0298056, 0.0184998, 0.00395557, 0.000268739, 0.000295321, 0.00164828
-0.0120469, 0.00315852, -0.587666, 0.000234141, -5.15429e-05, -4.39834e-06, 0.0298042, 0.0184885, 0.00394723, 0.000267847, 0.000294984, 0.0016456
-0.0120144, 0.00307982, -0.587678, 0.000231932, -5.02577e-05, -5.02878e-06, 0.0298028, 0.0184786, 0.00393914, 0.000267045, 0.000294665, 0.00164308
-0.0119906, 0.00309385, -0.587643, 0.000230317, -4.99392e-05, -3.59908e-06, 0.0298014, 0.0184701, 0.00393126, 0.000266327, 0.000294364, 0.00164073
-0.0119326, 0.00301654, -0.587645, 0.000226753, -4.88883e-05, -9.07572e-07, 0.0297998, 0.018463, 0.00392358, 0.000265689, 0.000294079, 0.00163852
-0.0118765, 0.002971, -0.587631, 0.000223601, -4.79045e-05, 9.00521e-07, 0.0297979, 0.0184571, 0.00391611, 0.000265121, 0.000293807, 0.00163645
-0.0119094, 0.00296649, -0.587667, 0.000226057, -4.79901e-05, -2.40271e-06, 0.0297955, 0.0184523, 0.00390886, 0.000264616, 0.000293547, 0.0016345
-0.0118955, 0.00291729, -0.587712, 0.000226637, -4.71361e-05, -5.63693e-06, 0.0297926, 0.0184484, 0.00390179, 0.000264161, 0.000293297, 0.00163264
-0.01191, 0.00290035, -0.587742, 0.000228067, -4.67334e-05, -8.87062e-06, 0.029789, 0.0184451, 0.00389488, 0.000263747, 0.000293052, 0.00163088
-0.0118888, 0.00285784, -0.587779, 0.000228368, -4.58553e-05, -1.16742e-05, 0.0297845, 0.0184421, 0.00388816, 0.000263368, 0.000292815, 0.0016292
-0.0119313, 0.0028246, -0.587836, 0.000230967, -4.53479e-05, -1.60837e-05, 0.029779, 0.0184393, 0.00388161, 0.000263015, 0.000292579, 0.0016276
-0.0119371, 0.00280677, -0.587857, 0.000231698, -4.48891e-05, -1.82719e-05, 0.0297726, 0.0184367, 0.00387517, 0.000262684, 0.000292348, 0.00162608
-0.0119485, 0.00277667, -0.587894, 0.000232639, -4.43399e-05, -2.05297e-05, 0.0297654, 0.0184341, 0.0038688, 0.000262371, 0.000292119, 0.00162465
-0.0119357, 0.00276713, -0.587896, 0.000232714, -4.37952e-05, -2.25544e-05, 0.0297575, 0.0184316, 0.00386249, 0.000262072, 0.000291893, 0.00162329
-0.0119296, 0.00276463, -0.587889, 0.000232906, -4.33562e-05, -2.46022e-05, 0.0297489, 0.0184291, 0.00385625, 0.000261791, 0.000291673, 0.00162201
-0.0119011, 0.00276379, -0.587875, 0.000232499, -4.29444e-05, -2.6001e-05, 0.0297396, 0.0184266, 0.00385009, 0.000261503, 0.000291439, 0.00162082
-0.0118763, 0.00275945, -0.587872, 0.000232078, -4.27037e-05, -2.64467e-05, 0.0297297, 0.0184239, 0.00384403, 0.00026123, 0.000291213, 0.00161971
-0.0117605, 0.00275953, -0.587848, 0.000229605, -4.24523e-05, -2.54638e-05, 0.0297194, 0.0184213, 0.00383803, 0.00026096, 0.000290985, 0.00161868
-0.0116762, 0.00277963, -0.587799, 0.000227675, -4.25867e-05, -2.46135e-05, 0.0297087, 0.0184186, 0.00383209, 0.000260694, 0.000290753, 0.00161774
-0.0115196, 0.0027868, -0.587757, 0.000224353, -4.2421e-05, -2.35062e-05, 0.0296979, 0.0184159, 0.00382621, 0.000260429, 0.000290517, 0.00161688
-0.0113838, 0.00280469, -0.587697, 0.000221376, -4.23991e-05, -2.28658e-05, 0.0296872, 0.0184133, 0.00382039, 0.000260167, 0.000290277, 0.0016161
-0.0111983, 0.00282375, -0.587637, 0.00021718, -4.25511e-05, -2.1101e-05, 0.0296767, 0.0184108, 0.00381463, 0.000259905, 0.000290029, 0.0016154
-0.0109926, 0.00286049, -0.587525, 0.000212294, -4.26623e-05, -2.04032e-05, 0.0296665, 0.0184083, 0.00380894, 0.000259644, 0.000289775, 0.00161476
-0.0109926, 0.00286049, -0.587525, 0.000212294, -4.26623e-05, -2.04032e-05, 0.0296666, 0.0184085, 0.00380961, 0.000259884, 0.00028999, 0.0016148
-0.0109926, 0.00286049, -0.587525, 0.000212294, -4.26623e-05, -2.04032e-05, 0.0296667, 0.0184086, 0.00381029, 0.000260126, 0.000290207, 0.00161484
-0.0109446, 0.0029059, -0.58744, 0.000209955, -4.37074e-05, -1.85309e-05, 0.0296554, 0.0184058, 0.0038034, 0.000259695, 0.00028977, 0.0016142
-0.0108576, 0.00292031, -0.587408, 0.000207351, -4.40885e-05, -1.74468e-05, 0.0296448, 0.0184032, 0.0037967, 0.00025928, 0.000289344, 0.00161365
-0.0107083, 0.00291166, -0.587389, 0.000203683, -4.35765e-05, -1.80421e-05, 0.0296346, 0.0184005, 0.00379016, 0.000258872, 0.000288923, 0.00161316
-0.0106198, 0.00287608, -0.587437, 0.000202527, -4.25104e-05, -1.94304e-05, 0.0296244, 0.0183976, 0.0037837, 0.000258464, 0.000288503, 0.00161273
-0.0105858, 0.00285042, -0.587491, 0.000202743, -4.19063e-05, -2.01608e-05, 0.0296138, 0.0183946, 0.00377732, 0.00025805, 0.000288079, 0.00161236
-0.0105419, 0.00281723, -0.587577, 0.000203461, -4.11823e-05, -2.09488e-05, 0.0296025, 0.0183914, 0.00377103, 0.000257628, 0.000287651, 0.00161203
-0.0104376, 0.00278122, -0.587656, 0.000202727, -4.05255e-05, -2.19927e-05, 0.0295904, 0.0183878, 0.00376475, 0.000257195, 0.000287218, 0.00161175
-0.0104895, 0.00277743, -0.587724, 0.000205433, -4.03635e-05, -2.18618e-05, 0.0295766, 0.0183839, 0.00375857, 0.000256752, 0.000286778, 0.00161151
-0.0103556, 0.00275376, -0.587739, 0.000203066, -4.01501e-05, -2.28264e-05, 0.029561, 0.0183795, 0.00375244, 0.0002563, 0.000286331, 0.0016113
-0.0101329, 0.00272316, -0.587771, 0.000199562, -4.01153e-05, -2.39233e-05, 0.0295434, 0.0183746, 0.00374634, 0.000255844, 0.000285879, 0.00161112
-0.0100383, 0.00270992, -0.58776, 0.000197507, -4.01643e-05, -2.45959e-05, 0.0295244, 0.0183692, 0.0037402, 0.000255387, 0.000285421, 0.00161096
-0.0100293, 0.00271767, -0.587776, 0.000197804, -4.04439e-05, -2.42117e-05, 0.0295041, 0.0183636, 0.00373406, 0.000254937, 0.00028496, 0.00161083
-0.0101137, 0.00272632, -0.587768, 0.000199092, -4.04066e-05, -2.3554e-05, 0.0294829, 0.0183576, 0.00372794, 0.000254496, 0.000284498, 0.00161071
-0.0100474, 0.00271702, -0.587753, 0.000197498, -4.0457e-05, -2.41902e-05, 0.0294615, 0.0183515, 0.0037218, 0.000254072, 0.000284036, 0.00161062
-0.00995645, 0.00270373, -0.587758, 0.000196029, -4.03033e-05, -2.53582e-05, 0.0294405, 0.0183455, 0.00371569, 0.000253666, 0.000283572, 0.00161053
-0.0100009, 0.00271743, -0.587779, 0.00019745, -4.05183e-05, -2.45568e-05, 0.0294204, 0.0183395, 0.0037096, 0.000253284, 0.00028311, 0.00161046
-0.00995994, 0.00271325, -0.587786, 0.000196913, -4.04891e-05, -2.51944e-05, 0.0294016, 0.0183338, 0.00370361, 0.000252929, 0.00028265, 0.0016104
-0.00999217, 0.00271898, -0.58782, 0.000198593, -4.04995e-05, -2.45823e-05, 0.0293852, 0.0183287, 0.00369769, 0.000252602, 0.000282194, 0.00161035
-0.00991298, 0.00271186, -0.587865, 0.000198522, -4.03902e-05, -2.59933e-05, 0.0293714, 0.0183244, 0.00369194, 0.000252305, 0.000281745, 0.00161029
-0.00983745, 0.00270628, -0.587902, 0.000198262, -4.03498e-05, -2.73286e-05, 0.0293604, 0.018321, 0.00368638, 0.000252038, 0.000281303, 0.00161024
-0.00973302, 0.00270508, -0.587947, 0.000197669, -4.05821e-05, -2.91699e-05, 0.0293519, 0.0183185, 0.00368098, 0.000251797, 0.000280868, 0.00161019
-0.0097572, 0.00271279, -0.587958, 0.00019924, -4.10268e-05, -2.77854e-05, 0.0293455, 0.0183168, 0.00367574, 0.000251581, 0.000280444, 0.00161014
-0.00962505, 0.00271005, -0.588017, 0.000198217, -4.09562e-05, -3.04307e-05, 0.0293407, 0.0183157, 0.00367064, 0.000251386, 0.000280026, 0.00161009
-0.00953185, 0.00271322, -0.588065, 0.000198193, -4.13602e-05, -3.17014e-05, 0.0293369, 0.0183152, 0.00366567, 0.00025121, 0.000279616, 0.00161005
-0.00949337, 0.00271218, -0.588078, 0.00019567, -4.10976e-05, -3.47454e-05, 0.0293339, 0.0183149, 0.00366078, 0.000251049, 0.00027921, 0.00161
-0.00940613, 0.00271451, -0.588126, 0.000194731, -4.11203e-05, -3.69599e-05, 0.0293312, 0.018315, 0.00365595, 0.000250906, 0.000278811, 0.00160995
-0.00932289, 0.00271714, -0.588167, 0.000195001, -4.15706e-05, -3.77504e-05, 0.0293283, 0.0183151, 0.00365122, 0.000250774, 0.000278415, 0.0016099
-0.00923986, 0.00272117, -0.58822, 0.000193916, -4.18594e-05, -4.02901e-05, 0.0293252, 0.0183152, 0.00364654, 0.000250654, 0.000278025, 0.00160984
-0.00919239, 0.00272316, -0.58825, 0.000193444, -4.21811e-05, -4.16413e-05, 0.0293215, 0.0183153, 0.00364188, 0.000250543, 0.000277637, 0.00160978
-0.00917189, 0.00272692, -0.588281, 0.000192336, -4.2155e-05, -4.36816e-05, 0.0293172, 0.0183152, 0.00363721, 0.000250443, 0.000277254, 0.00160971
-0.00918213, 0.00272607, -0.588298, 0.000191197, -4.25976e-05, -4.57123e-05, 0.0293126, 0.0183149, 0.00363245, 0.000250353, 0.000276875, 0.00160963
-0.00918699, 0.00273037, -0.588341, 0.000189807, -4.27085e-05, -4.89163e-05, 0.0293078, 0.0183145, 0.00362757, 0.000250274, 0.000276499, 0.00160954
-0.00925771, 0.00273309, -0.588366, 0.000187696, -4.26402e-05, -5.2699e-05, 0.0293025, 0.0183139, 0.00362254, 0.000250203, 0.000276127, 0.00160943
-0.00929547, 0.00272958, -0.588384, 0.000186584, -4.31258e-05, -5.52219e-05, 0.0292966, 0.0183131, 0.00361739, 0.000250141, 0.000275758, 0.00160931
-0.00937632, 0.00272543, -0.588401, 0.000184785, -4.35032e-05, -5.87673e-05, 0.0292898, 0.0183121, 0.00361213, 0.000250086, 0.000275393, 0.00160917
-0.00940964, 0.00272296, -0.588423, 0.000184116, -4.39764e-05, -6.11094e-05, 0.0292819, 0.0183108, 0.0036067, 0.000250039, 0.000275032, 0.00160903
-0.00943133, 0.00271694, -0.588452, 0.000183771, -4.4907e-05, -6.36291e-05, 0.029273, 0.0183093, 0.00360111, 0.000249993, 0.000274671, 0.00160887
-0.00941813, 0.00270416, -0.588458, 0.000183837, -4.59668e-05, -6.44423e-05, 0.029263, 0.0183076, 0.00359534, 0.000249947, 0.000274311, 0.0016087
-0.00962815, 0.00270555, -0.588511, 0.000181332, -4.62017e-05, -7.15879e-05, 0.0292518, 0.0183057, 0.00358934, 0.0002499, 0.000273952, 0.00160852
-0.00979819, 0.00269662, -0.588551, 0.000179441, -4.69342e-05, -7.76022e-05, 0.0292393, 0.0183037, 0.00358312, 0.000249851, 0.000273591, 0.00160832
-0.00987701, 0.00267981, -0.588564, 0.000178344, -4.79474e-05, -8.09727e-05, 0.0292251, 0.0183018, 0.00357667, 0.0002498, 0.00027323, 0.00160809
-0.0100722, 0.00266737, -0.588629, 0.000177965, -4.95748e-05, -8.80814e-05, 0.0292093, 0.0182998, 0.00357005, 0.000249748, 0.000272869, 0.00160785
-0.0101124, 0.00264415, -0.588658, 0.000178719, -5.17403e-05, -9.12304e-05, 0.029192, 0.0182978, 0.00356333, 0.000249694, 0.000272508, 0.00160759
-0.0101973, 0.00262275, -0.588686, 0.000178696, -5.3543e-05, -9.52709e-05, 0.0291741, 0.0182959, 0.00355661, 0.000249639, 0.000272148, 0.00160733
-0.0103432, 0.00260606, -0.588741, 0.000179471, -5.56546e-05, -0.000100719, 0.0291562, 0.018294, 0.00354993, 0.000249582, 0.000271788, 0.00160708
-0.0104723, 0.0025876, -0.588776, 0.000179159, -5.73542e-05, -0.00010568, 0.0291381, 0.0182923, 0.00354327, 0.000249524, 0.000271429, 0.00160684
-0.0105822, 0.0025714, -0.588817, 0.000179865, -5.95542e-05, -0.000110227, 0.0291202, 0.0182907, 0.00353664, 0.000249467, 0.000271071, 0.0016066
-0.0105033, 0.00254192, -0.588803, 0.000179799, -6.1719e-05, -0.000111287, 0.029102, 0.0182893, 0.00352999, 0.000249408, 0.000270713, 0.00160636
-0.0102399, 0.0025078, -0.588758, 0.000181187, -6.46658e-05, -0.000108923, 0.0290832, 0.0182881, 0.00352331, 0.000249347, 0.000270354, 0.00160613
-0.0102328, 0.0024959, -0.58877, 0.000182373, -6.6914e-05, -0.000110772, 0.0290643, 0.0182871, 0.00351662, 0.000249284, 0.000269996, 0.00160591
-0.00994437, 0.00247443, -0.588723, 0.000184481, -6.94551e-05, -0.000107566, 0.0290447, 0.0182862, 0.0035099, 0.000249218, 0.000269636, 0.0016057
-0.00976514, 0.00244934, -0.588687, 0.000184399, -7.12103e-05, -0.000107062, 0.0290251, 0.0182853, 0.00350317, 0.000249148, 0.000269277, 0.0016055
-0.00997296, 0.00244885, -0.588733, 0.000183561, -7.243e-05, -0.000112374, 0.0290051, 0.0182846, 0.0034964, 0.00024907, 0.000268913, 0.0016053
-0.0101093, 0.00244446, -0.588763, 0.000182667, -7.36948e-05, -0.000116593, 0.0289846, 0.0182839, 0.00348957, 0.000248991, 0.000268548, 0.00160512
-0.0102178, 0.00243595, -0.588786, 0.000181238, -7.48268e-05, -0.000120482, 0.0289639, 0.0182833, 0.00348268, 0.000248903, 0.000268177, 0.00160494
-0.0102448, 0.00243094, -0.588795, 0.000180942, -7.63125e-05, -0.000123035, 0.0289426, 0.0182828, 0.00347571, 0.000248807, 0.000267802, 0.00160477
-0.0101624, 0.00240464, -0.588777, 0.000178661, -7.71588e-05, -0.000124602, 0.0289209, 0.0182823, 0.00346866, 0.000248701, 0.000267421, 0.00160461
-0.0100957, 0.00237613, -0.588763, 0.000175711, -7.77421e-05, -0.000126196, 0.0288983, 0.0182819, 0.0034615, 0.000248587, 0.000267035, 0.00160445
-0.0101978, 0.00236548, -0.588786, 0.000173062, -7.82051e-05, -0.000128834, 0.0288753, 0.0182814, 0.00345423, 0.000248457, 0.000266638, 0.00160429
-0.0101636, 0.002351, -0.588784, 0.000171152, -7.92414e-05, -0.000130617, 0.0288515, 0.0182809, 0.00344682, 0.000248316, 0.000266236, 0.00160413
-0.0101398, 0.00235003, -0.588784, 0.000170769, -8.03911e-05, -0.000132154, 0.028827, 0.0182804, 0.00343929, 0.000248161, 0.000265825, 0.00160398
-0.0100191, 0.00233259, -0.588763, 0.000169349, -8.1194e-05, -0.000132749, 0.0288026, 0.0182797, 0.00343166, 0.000247989, 0.000265407, 0.00160382
-0.00996314, 0.00231227, -0.588759, 0.000166641, -8.14065e-05, -0.000132638, 0.0287782, 0.0182789, 0.00342393, 0.0002478, 0.000264981, 0.00160365
-0.00989941, 0.0023061, -0.588751, 0.000165789, -8.21464e-05, -0.000133262, 0.0287545, 0.018278, 0.00341611, 0.000247593, 0.000264546, 0.00160348
-0.00995855, 0.00230042, -0.588776, 0.000163086, -8.16873e-05, -0.000131516, 0.0287317, 0.0182768, 0.00340823, 0.000247368, 0.000264102, 0.00160329
-0.00993766, 0.00228421, -0.588784, 0.000160079, -8.1212e-05, -0.000129003, 0.0287098, 0.0182754, 0.0034003, 0.000247124, 0.000263649, 0.00160307
-0.00992078, 0.00227254, -0.588794, 0.000157496, -8.07667e-05, -0.000126259, 0.0286888, 0.0182738, 0.00339235, 0.000246863, 0.000263187, 0.00160282
-0.00978951, 0.00222094, -0.588782, 0.000152618, -7.90977e-05, -0.000119805, 0.028669, 0.018272, 0.00338443, 0.000246585, 0.000262717, 0.00160251
-0.00967779, 0.0021833, -0.588768, 0.000149302, -7.7997e-05, -0.000115024, 0.0286505, 0.0182701, 0.00337656, 0.000246293, 0.000262241, 0.00160216
-0.00962423, 0.0021515, -0.588781, 0.000145005, -7.61387e-05, -0.000106533, 0.0286335, 0.0182679, 0.00336879, 0.00024599, 0.00026176, 0.00160173
-0.00941762, 0.00208707, -0.588738, 0.000141209, -7.50615e-05, -0.000101519, 0.0286175, 0.0182655, 0.00336108, 0.000245676, 0.000261277, 0.00160123
-0.00918182, 0.0020106, -0.58869, 0.000137024, -7.37954e-05, -9.55835e-05, 0.0286018, 0.0182627, 0.0033534, 0.000245358, 0.000260794, 0.00160067
-0.0089747, 0.00193972, -0.588646, 0.000133579, -7.25409e-05, -9.01371e-05, 0.0285855, 0.0182597, 0.00334569, 0.000245038, 0.000260315, 0.00160005
-0.00871539, 0.00184626, -0.588599, 0.000128578, -7.03277e-05, -8.01374e-05, 0.0285687, 0.0182562, 0.00333799, 0.000244717, 0.000259839, 0.00159937
-0.00858132, 0.00180393, -0.588561, 0.000127745, -7.0287e-05, -8.0448e-05, 0.0285511, 0.0182524, 0.00333032, 0.000244399, 0.00025937, 0.00159864
-0.00847668, 0.00176274, -0.588519, 0.000127983, -7.04513e-05, -8.34042e-05, 0.0285325, 0.0182483, 0.0033227, 0.000244081, 0.000258906, 0.00159784
-0.00835668, 0.00172886, -0.588486, 0.000127433, -7.06245e-05, -8.43285e-05, 0.0285127, 0.018244, 0.00331515, 0.000243765, 0.000258447, 0.00159699
-0.00838615, 0.00175129, -0.588512, 0.000126332, -7.03319e-05, -7.9947e-05, 0.0284919, 0.0182394, 0.00330769, 0.000243452, 0.000257994, 0.00159607
-0.0082966, 0.00172788, -0.588507, 0.000124357, -6.93494e-05, -7.38273e-05, 0.0284704, 0.0182347, 0.00330034, 0.000243135, 0.000257544, 0.00159507
-0.00796076, 0.00166105, -0.588474, 0.000118797, -6.75816e-05, -5.86785e-05, 0.0284481, 0.0182298, 0.00329311, 0.000242819, 0.0002571, 0.001594
-0.00785476, 0.00163366, -0.588438, 0.000119172, -6.82706e-05, -6.28174e-05, 0.028425, 0.0182248, 0.00328596, 0.0002425, 0.000256659, 0.00159286
-0.00798211, 0.00167403, -0.588467, 0.000120036, -6.87191e-05, -6.43867e-05, 0.0284008, 0.0182196, 0.0032789, 0.000242187, 0.000256227, 0.00159165
-0.00777361, 0.00164735, -0.588453, 0.000116639, -6.78549e-05, -5.40477e-05, 0.0283753, 0.0182143, 0.00327191, 0.000241867, 0.000255795, 0.00159038
-0.00772709, 0.00165104, -0.588457, 0.000115423, -6.76151e-05, -4.98176e-05, 0.0283483, 0.0182088, 0.00326496, 0.000241548, 0.00025537, 0.00158905
-0.00752677, 0.00161356, -0.588427, 0.0001135, -6.72069e-05, -4.4823e-05, 0.0283202, 0.018203, 0.00325809, 0.000241224, 0.000254948, 0.00158765
-0.007406, 0.0016049, -0.588419, 0.000111732, -6.6917e-05, -3.92154e-05, 0.0282911, 0.0181971, 0.00325131, 0.000240901, 0.000254531, 0.0015862
-0.00752184, 0.00164347, -0.588435, 0.000113239, -6.81296e-05, -4.54741e-05, 0.028261, 0.0181911, 0.00324461, 0.000240573, 0.000254116, 0.00158469
-0.00744912, 0.00164355, -0.588424, 0.000112816, -6.86387e-05, -4.5601e-05, 0.0282304, 0.018185, 0.00323803, 0.000240243, 0.000253704, 0.00158312
-0.00729153, 0.001627, -0.588402, 0.000111506, -6.87608e-05, -4.25123e-05, 0.0281987, 0.0181788, 0.00323152, 0.00023991, 0.000253293, 0.0015815
-0.00739073, 0.00165639, -0.588414, 0.000112818, -6.97553e-05, -4.82766e-05, 0.0281666, 0.0181725, 0.00322513, 0.000239575, 0.000252885, 0.00157983
-0.00726107, 0.0016429, -0.588393, 0.000112042, -7.00728e-05, -4.71641e-05, 0.0281337, 0.0181661, 0.00321882, 0.000239235, 0.000252477, 0.0015781
-0.00703624, 0.00162372, -0.588376, 0.000109134, -6.93387e-05, -3.64146e-05, 0.0280992, 0.0181596, 0.0032125, 0.000238893, 0.00025207, 0.00157636
-0.0068365, 0.00160436, -0.588354, 0.000107087, -6.90206e-05, -2.94844e-05, 0.0280634, 0.0181531, 0.00320617, 0.000238546, 0.000251664, 0.0015746
-0.00681369, 0.00160371, -0.58835, 0.000107088, -6.92258e-05, -3.00333e-05, 0.0280264, 0.0181463, 0.00319986, 0.000238195, 0.000251261, 0.00157282
-0.00673266, 0.00160464, -0.588343, 0.000106273, -6.93548e-05, -2.76327e-05, 0.0279883, 0.0181395, 0.00319357, 0.000237838, 0.000250856, 0.00157102
-0.00654724, 0.00159634, -0.588344, 0.000102703, -6.78719e-05, -1.22098e-05, 0.0279492, 0.0181326, 0.00318731, 0.000237476, 0.000250451, 0.00156921
-0.00639986, 0.00159341, -0.588343, 0.000100054, -6.69429e-05, -1.08686e-06, 0.0279092, 0.0181257, 0.00318105, 0.000237108, 0.000250047, 0.00156738
-0.00650094, 0.00161134, -0.588357, 0.000100899, -6.72764e-05, -4.34086e-06, 0.0278682, 0.0181186, 0.00317479, 0.000236731, 0.000249641, 0.00156553
-0.00625918, 0.00158208, -0.588334, 9.82176e-05, -6.63203e-05, 6.39453e-06, 0.0278259, 0.0181116, 0.00316851, 0.000236348, 0.000249234, 0.00156369
-0.00609436, 0.00156114, -0.588308, 9.73481e-05, -6.63642e-05, 8.91425e-06, 0.0277813, 0.0181044, 0.00316209, 0.00023596, 0.000248827, 0.00156187
-0.00595054, 0.00153792, -0.588284, 9.67343e-05, -6.63018e-05, 1.08479e-05, 0.0277337, 0.0180972, 0.00315547, 0.000235564, 0.000248416, 0.00156009
-0.00577302, 0.00151125, -0.588265, 9.49175e-05, -6.54637e-05, 1.84288e-05, 0.027682, 0.01809, 0.00314857, 0.000235162, 0.000248004, 0.00155834
-0.00572906, 0.00149946, -0.588261, 9.43628e-05, -6.50271e-05, 2.10643e-05, 0.0276273, 0.0180828, 0.00314147, 0.000234751, 0.000247589, 0.00155662
-0.00530344, 0.00144705, -0.588211, 9.10109e-05, -6.38855e-05, 3.43581e-05, 0.0275681, 0.0180755, 0.00313408, 0.000234331, 0.000247173, 0.00155492
-0.00518819, 0.00143033, -0.588209, 8.86814e-05, -6.26185e-05, 4.42138e-05, 0.0275049, 0.0180682, 0.0031264, 0.000233904, 0.000246757, 0.00155327
-0.00502156, 0.00139394, -0.588183, 8.79995e-05, -6.20107e-05, 4.77654e-05, 0.0274384, 0.0180609, 0.00311852, 0.00023347, 0.000246341, 0.00155164
-0.00459187, 0.00135443, -0.588135, 8.4996e-05, -6.12974e-05, 5.93327e-05, 0.0273699, 0.0180536, 0.00311053, 0.000233033, 0.000245926, 0.00155004
-0.00448507, 0.00133892, -0.588134, 8.25986e-05, -6.00017e-05, 6.91051e-05, 0.0273004, 0.0180465, 0.00310252, 0.000232602, 0.000245518, 0.00154848
-0.00423346, 0.00131975, -0.58811, 8.04243e-05, -5.94172e-05, 7.74019e-05, 0.0272288, 0.0180394, 0.0030944, 0.000232168, 0.000245112, 0.00154694
-0.00426346, 0.00131896, -0.58813, 7.82879e-05, -5.81025e-05, 8.56545e-05, 0.0271574, 0.0180324, 0.00308632, 0.000231742, 0.000244712, 0.00154545
-0.00403853, 0.00129169, -0.588104, 7.67715e-05, -5.74434e-05, 9.20872e-05, 0.0270857, 0.0180256, 0.00307826, 0.000231321, 0.000244318, 0.001544
-0.00397712, 0.00128069, -0.5881, 7.58431e-05, -5.68738e-05, 9.59184e-05, 0.0270128, 0.018019, 0.00307017, 0.000230909, 0.000243931, 0.00154259
-0.00401412, 0.00129112, -0.588107, 7.57807e-05, -5.70418e-05, 9.55673e-05, 0.0269383, 0.0180126, 0.00306205, 0.000230503, 0.00024355, 0.00154123
-0.003964, 0.00130095, -0.588121, 7.28042e-05, -5.61217e-05, 0.000105098, 0.0268621, 0.0180063, 0.00305392, 0.000230103, 0.000243174, 0.00153989
-0.00422427, 0.00133516, -0.588156, 7.37275e-05, -5.68229e-05, 9.9853e-05, 0.0267838, 0.0180004, 0.00304579, 0.000229707, 0.000242805, 0.00153858
-0.00432319, 0.00136463, -0.588168, 7.45163e-05, -5.79001e-05, 9.53074e-05, 0.0267052, 0.0179947, 0.0030378, 0.000229317, 0.000242441, 0.00153727
-0.00448749, 0.00139184, -0.588188, 7.54266e-05, -5.87816e-05, 9.0384e-05, 0.026627, 0.0179893, 0.00302997, 0.000228933, 0.000242079, 0.00153598
-0.00474891, 0.00142878, -0.588225, 7.5947e-05, -5.96034e-05, 8.58133e-05, 0.0265504, 0.0179842, 0.00302237, 0.000228559, 0.000241724, 0.00153471
-0.00495204, 0.00146229, -0.588248, 7.7383e-05, -6.09184e-05, 7.857e-05, 0.0264759, 0.0179794, 0.003015, 0.000228194, 0.000241373, 0.00153345
-0.00482915, 0.00148535, -0.58825, 7.47612e-05, -6.10306e-05, 8.53022e-05, 0.0264036, 0.0179749, 0.00300785, 0.000227842, 0.00024103, 0.00153222
-0.0048286, 0.00150975, -0.588257, 7.39948e-05, -6.16752e-05, 8.58376e-05, 0.0263334, 0.0179706, 0.00300089, 0.000227503, 0.000240694, 0.00153102
-0.00469704, 0.00153138, -0.588252, 7.22544e-05, -6.21944e-05, 8.97461e-05, 0.026265, 0.0179664, 0.00299413, 0.000227178, 0.000240367, 0.00152985
-0.00481089, 0.00155299, -0.588259, 7.41227e-05, -6.36009e-05, 8.20681e-05, 0.026199, 0.0179625, 0.00298757, 0.000226867, 0.000240046, 0.0015287
-0.00466083, 0.0015696, -0.588238, 7.47509e-05, -6.51776e-05, 7.87288e-05, 0.0261366, 0.0179586, 0.00298126, 0.000226573, 0.000239732, 0.0015276
-0.00480197, 0.00159042, -0.588256, 7.53578e-05, -6.58104e-05, 7.52005e-05, 0.0260781, 0.0179549, 0.0029752, 0.00022629, 0.000239421, 0.00152653
-0.00473905, 0.00160356, -0.588245, 7.59134e-05, -6.69577e-05, 7.22061e-05, 0.0260239, 0.0179513, 0.00296936, 0.00022602, 0.000239113, 0.0015255
-0.00450252, 0.00160934, -0.588218, 7.51922e-05, -6.79724e-05, 7.33407e-05, 0.0259735, 0.0179478, 0.00296373, 0.000225765, 0.000238812, 0.00152452
-0.00455112, 0.00161974, -0.588218, 7.65737e-05, -6.89659e-05, 6.81663e-05, 0.0259268, 0.0179444, 0.00295828, 0.000225521, 0.000238513, 0.00152357
-0.00441343, 0.00163131, -0.588211, 7.46775e-05, -6.91652e-05, 7.26174e-05, 0.0258832, 0.017941, 0.00295297, 0.000225285, 0.000238215, 0.00152265
-0.0044302, 0.0016362, -0.588206, 7.6077e-05, -7.01356e-05, 6.76954e-05, 0.0258422, 0.0179377, 0.00294779, 0.000225057, 0.00023792, 0.00152177
-0.00430083, 0.00164902, -0.588195, 7.49133e-05, -7.08516e-05, 6.94181e-05, 0.0258036, 0.0179345, 0.0029427, 0.000224834, 0.000237623, 0.00152091
-0.00410416, 0.00164542, -0.588166, 7.49093e-05, -7.20771e-05, 6.79626e-05, 0.0257669, 0.0179314, 0.00293769, 0.000224618, 0.000237328, 0.00152006
-0.00400184, 0.00164847, -0.588152, 7.47606e-05, -7.2907e-05, 6.70878e-05, 0.0257323, 0.0179283, 0.00293272, 0.000224404, 0.000237031, 0.00151923
-0.00411469, 0.00167337, -0.588169, 7.53372e-05, -7.35738e-05, 6.41539e-05, 0.0256993, 0.0179252, 0.00292781, 0.000224193, 0.000236734, 0.00151841
-0.00418166, 0.00170011, -0.588188, 7.45572e-05, -7.37311e-05, 6.53822e-05, 0.0256679, 0.0179223, 0.00292292, 0.000223985, 0.000236435, 0.00151759
-0.00426925, 0.001705, -0.588187, 7.7225e-05, -7.51359e-05, 5.64703e-05, 0.0256386, 0.0179193, 0.00291809, 0.00022378, 0.000236134, 0.00151676
-0.00428816, 0.00171895, -0.588191, 7.75735e-05, -7.5917e-05, 5.40795e-05, 0.0256116, 0.0179165, 0.0029133, 0.000223571, 0.000235826, 0.00151593
-0.00430795, 0.00172847, -0.588192, 7.82909e-05, -7.67505e-05, 5.07529e-05, 0.025587, 0.0179136, 0.00290856, 0.000223365, 0.000235516, 0.00151508
-0.00440517, 0.00176531, -0.588224, 7.69027e-05, -7.62474e-05, 5.53014e-05, 0.0255644, 0.0179108, 0.00290385, 0.000223158, 0.000235203, 0.00151422
-0.00437451, 0.00177184, -0.588223, 7.6516e-05, -7.66046e-05, 5.55879e-05, 0.0255439, 0.017908, 0.00289916, 0.000222952, 0.000234888, 0.00151333
-0.00448619, 0.00180076, -0.588251, 7.62957e-05, -7.62187e-05, 5.73927e-05, 0.0255255, 0.0179052, 0.00289451, 0.000222743, 0.00023457, 0.00151242
-0.00452477, 0.0018317, -0.588278, 7.44608e-05, -7.53015e-05, 6.45239e-05, 0.0255092, 0.0179024, 0.00288991, 0.000222537, 0.000234252, 0.00151149
-0.00439598, 0.00180557, -0.588248, 7.37405e-05, -7.54468e-05, 6.54042e-05, 0.0254949, 0.0178996, 0.00288538, 0.00022233, 0.000233932, 0.00151051
-0.00425773, 0.0017863, -0.588224, 7.19102e-05, -7.51013e-05, 7.02204e-05, 0.0254827, 0.017897, 0.00288096, 0.000222125, 0.000233613, 0.00150951
-0.00410708, 0.00177991, -0.588206, 6.8814e-05, -7.42895e-05, 7.9747e-05, 0.0254725, 0.0178945, 0.00287666, 0.000221924, 0.000233296, 0.00150847
-0.00405901, 0.00174885, -0.588182, 6.87939e-05, -7.39235e-05, 7.95392e-05, 0.0254638, 0.017892, 0.00287248, 0.000221726, 0.000232982, 0.0015074
-0.00402256, 0.00173604, -0.588167, 6.85178e-05, -7.39757e-05, 7.95247e-05, 0.0254568, 0.0178898, 0.00286846, 0.000221535, 0.000232674, 0.00150629
-0.00402845, 0.0017096, -0.588144, 6.97988e-05, -7.46125e-05, 7.32238e-05, 0.0254511, 0.0178876, 0.00286459, 0.00022135, 0.000232371, 0.00150514
-0.00396454, 0.00173467, -0.588156, 6.73318e-05, -7.39722e-05, 8.27313e-05, 0.0254466, 0.0178856, 0.0028609, 0.000221171, 0.000232074, 0.00150394
-0.00399261, 0.0017495, -0.588172, 6.78768e-05, -7.4141e-05, 8.16678e-05, 0.0254429, 0.0178837, 0.00285733, 0.000221001, 0.000231788, 0.00150271
-0.00393957, 0.00177156, -0.588179, 6.58595e-05, -7.38413e-05, 8.92363e-05, 0.0254396, 0.0178818, 0.00285385, 0.000220833, 0.000231509, 0.00150145
-0.0039157, 0.00179638, -0.58819, 6.47284e-05, -7.38519e-05, 9.37556e-05, 0.0254367, 0.01788, 0.00285044, 0.000220672, 0.000231241, 0.00150017
-0.00389036, 0.0018264, -0.588203, 6.3518e-05, -7.41809e-05, 9.80699e-05, 0.025434, 0.0178781, 0.00284712, 0.000220513, 0.000230981, 0.00149886
-0.00392541, 0.00183591, -0.588213, 6.46655e-05, -7.48347e-05, 9.34905e-05, 0.0254315, 0.0178762, 0.00284392, 0.000220358, 0.00023073, 0.00149752
-0.00388954, 0.00182254, -0.588197, 6.36109e-05, -7.4692e-05, 9.64887e-05, 0.0254291, 0.0178745, 0.0028408, 0.000220206, 0.000230485, 0.00149618
-0.00390467, 0.00186253, -0.588225, 6.34022e-05, -7.48593e-05, 9.86269e-05, 0.0254269, 0.0178728, 0.00283774, 0.00022006, 0.000230251, 0.00149484
-0.00387222, 0.00192461, -0.588259, 6.07942e-05, -7.39189e-05, 0.000111843, 0.0254246, 0.0178712, 0.00283473, 0.000219915, 0.000230022, 0.0014935
-0.00388846, 0.00195708, -0.588285, 6.0518e-05, -7.36009e-05, 0.000114811, 0.0254224, 0.0178697, 0.00283177, 0.00021977, 0.000229799, 0.00149216
-0.00386007, 0.00199404, -0.588301, 5.84336e-05, -7.29729e-05, 0.000124534, 0.0254202, 0.0178682, 0.00282884, 0.000219623, 0.000229579, 0.00149083
-0.00388075, 0.00203004, -0.588329, 5.78495e-05, -7.24643e-05, 0.000128899, 0.0254178, 0.0178668, 0.00282592, 0.000219478, 0.000229366, 0.00148951
-0.00391356, 0.00205163, -0.588349, 5.80725e-05, -7.23369e-05, 0.000129195, 0.0254154, 0.0178654, 0.00282301, 0.000219329, 0.000229153, 0.00148821
-0.00392157, 0.00206891, -0.588361, 5.75774e-05, -7.20737e-05, 0.000131972, 0.0254129, 0.0178641, 0.00282012, 0.000219179, 0.000228943, 0.00148693
-0.00394873, 0.00207625, -0.588372, 5.80311e-05, -7.20496e-05, 0.000130742, 0.0254102, 0.0178629, 0.00281723, 0.000219025, 0.000228732, 0.00148566
-0.00394722, 0.00209299, -0.588381, 5.70947e-05, -7.16856e-05, 0.000135062, 0.0254074, 0.0178618, 0.00281434, 0.000218867, 0.000228521, 0.00148442
-0.00395449, 0.00207678, -0.588374, 5.82019e-05, -7.20044e-05, 0.000130333, 0.0254045, 0.0178607, 0.00281143, 0.000218704, 0.00022831, 0.00148321
-0.00398487, 0.00207408, -0.58838, 5.9106e-05, -7.20197e-05, 0.000127224, 0.0254014, 0.0178598, 0.00280851, 0.000218539, 0.000228098, 0.00148202
-0.00402166, 0.00207752, -0.588392, 5.97553e-05, -7.19597e-05, 0.000125259, 0.0253981, 0.0178588, 0.00280557, 0.000218365, 0.000227881, 0.00148087
-0.00402758, 0.00208352, -0.588397, 5.93806e-05, -7.15302e-05, 0.000127294, 0.0253947, 0.017858, 0.00280261, 0.000218189, 0.000227664, 0.00147974
-0.00400659, 0.00209452, -0.588397, 5.8027e-05, -7.09518e-05, 0.000132795, 0.0253911, 0.0178571, 0.00279962, 0.000218005, 0.000227443, 0.00147865
-0.00403596, 0.00210093, -0.588408, 5.80619e-05, -7.05658e-05, 0.000133346, 0.0253873, 0.0178564, 0.00279661, 0.000217823, 0.000227228, 0.0014776
-0.00404116, 0.00210586, -0.588412, 5.76873e-05, -7.02163e-05, 0.000135096, 0.0253831, 0.0178556, 0.00279349, 0.000217627, 0.000227001, 0.00147659
-0.00400092, 0.00208346, -0.588392, 5.86372e-05, -7.02283e-05, 0.000131977, 0.0253784, 0.0178549, 0.00279031, 0.000217434, 0.000226779, 0.00147563
-0.00398552, 0.00208754, -0.58839, 5.77297e-05, -6.92758e-05, 0.000136111, 0.0253728, 0.0178543, 0.00278701, 0.000217237, 0.000226555, 0.00147472
-0.00391464, 0.00206464, -0.588365, 5.84446e-05, -6.88737e-05, 0.000134661, 0.0253665, 0.0178537, 0.00278364, 0.000217039, 0.000226332, 0.00147386
-0.00389699, 0.00205765, -0.588358, 5.86182e-05, -6.81469e-05, 0.000135175, 0.0253587, 0.0178532, 0.00278012, 0.000216838, 0.000226108, 0.00147305
-0.00386521, 0.00205133, -0.588348, 5.86415e-05, -6.73533e-05, 0.000136286, 0.0253495, 0.0178527, 0.00277647, 0.000216636, 0.000225884, 0.00147229
-0.00380356, 0.00206347, -0.588338, 5.6588e-05, -6.61541e-05, 0.000143778, 0.025339, 0.0178523, 0.00277273, 0.000216431, 0.00022566, 0.00147157
-0.00380069, 0.00207508, -0.588339, 5.51019e-05, -6.49403e-05, 0.000149253, 0.0253282, 0.0178519, 0.00276897, 0.00021623, 0.000225441, 0.00147089
-0.00382789, 0.0020746, -0.588344, 5.52273e-05, -6.43375e-05, 0.000149466, 0.0253171, 0.0178516, 0.00276521, 0.00021603, 0.000225225, 0.00147025
-0.00376468, 0.00208193, -0.588332, 5.39648e-05, -6.35685e-05, 0.000154107, 0.0253066, 0.0178513, 0.0027615, 0.000215834, 0.000225013, 0.00146963
-0.00372616, 0.00208193, -0.588323, 5.36895e-05, -6.29492e-05, 0.000155854, 0.0252958, 0.0178509, 0.00275779, 0.000215643, 0.000224806, 0.00146905
-0.00374262, 0.00209284, -0.588328, 5.25515e-05, -6.22754e-05, 0.000159212, 0.0252857, 0.0178507, 0.00275415, 0.00021546, 0.000224605, 0.00146851
-0.00371639, 0.00209262, -0.588322, 5.23976e-05, -6.19038e-05, 0.000160275, 0.0252769, 0.0178504, 0.00275061, 0.000215284, 0.000224409, 0.001468
-0.00371608, 0.00209279, -0.588321, 5.23931e-05, -6.15826e-05, 0.000160668, 0.0252704, 0.0178501, 0.00274725, 0.000215114, 0.000224216, 0.00146752
-0.00372061, 0.00211214, -0.588326, 5.02987e-05, -6.08482e-05, 0.000166092, 0.0252657, 0.0178498, 0.00274406, 0.000214952, 0.000224029, 0.00146706
-0.00369982, 0.00212019, -0.58832, 4.91563e-05, -6.05941e-05, 0.000169189, 0.0252627, 0.0178495, 0.00274104, 0.000214799, 0.000223847, 0.00146663
-0.00371768, 0.00214166, -0.588332, 4.70844e-05, -6.01061e-05, 0.000173767, 0.0252607, 0.0178492, 0.00273815, 0.000214652, 0.00022367, 0.00146624
-0.00371316, 0.00215227, -0.588332, 4.58549e-05, -5.96556e-05, 0.000176878, 0.0252595, 0.0178489, 0.00273538, 0.000214513, 0.000223498, 0.00146587
-0.00354792, 0.00213651, -0.588215, 4.19453e-05, -6.00478e-05, 0.00018873, 0.0252588, 0.0178486, 0.00273269, 0.000214379, 0.000223329, 0.00146555
-0.00356751, 0.00214643, -0.588235, 4.181e-05, -5.96536e-05, 0.000188659, 0.0252585, 0.0178483, 0.00273011, 0.000214259, 0.000223172, 0.00146526
-0.0035644, 0.00214238, -0.588225, 4.19894e-05, -5.92845e-05, 0.00018905, 0.0252583, 0.017848, 0.0027276, 0.000214136, 0.000223009, 0.00146501
-0.00356506, 0.00215391, -0.588233, 4.09665e-05, -5.88501e-05, 0.000190947, 0.0252583, 0.0178477, 0.00272519, 0.000214023, 0.000222855, 0.00146479
-0.00356156, 0.00217109, -0.588246, 3.93988e-05, -5.84504e-05, 0.000193393, 0.0252583, 0.0178475, 0.00272285, 0.000213915, 0.000222703, 0.00146459
-0.00357685, 0.00216318, -0.588136, 3.52897e-05, -5.90178e-05, 0.000203049, 0.0252583, 0.0178473, 0.00272057, 0.000213811, 0.000222554, 0.00146442
-0.00358612, 0.00214865, -0.588117, 3.63707e-05, -5.91575e-05, 0.000202151, 0.0252582, 0.017847, 0.00271832, 0.000213713, 0.000222411, 0.00146429
-0.0035822, 0.00215401, -0.588124, 3.60628e-05, -5.88563e-05, 0.000202561, 0.0252581, 0.0178468, 0.00271615, 0.000213619, 0.000222271, 0.00146417
-0.00357299, 0.00216323, -0.588136, 3.55959e-05, -5.82662e-05, 0.000203222, 0.0252578, 0.0178466, 0.00271402, 0.000213527, 0.000222131, 0.00146408
-0.00355208, 0.00217236, -0.588154, 3.54315e-05, -5.79417e-05, 0.000203071, 0.0252573, 0.0178464, 0.00271194, 0.000213439, 0.000221994, 0.00146399
-0.00369115, 0.00215513, -0.588054, 3.20317e-05, -5.86184e-05, 0.000209279, 0.0252566, 0.0178462, 0.0027099, 0.000213351, 0.000221855, 0.00146392
-0.00378885, 0.00214052, -0.587994, 3.0488e-05, -5.90635e-05, 0.000212413, 0.0252558, 0.017846, 0.00270789, 0.000213266, 0.00022172, 0.00146385
-0.00384079, 0.00214796, -0.58797, 2.79625e-05, -5.90114e-05, 0.000215507, 0.0252548, 0.0178457, 0.00270591, 0.000213184, 0.000221584, 0.00146379
-0.00379569, 0.00215584, -0.587993, 2.85441e-05, -5.85908e-05, 0.000214654, 0.0252535, 0.0178454, 0.00270395, 0.000213103, 0.000221448, 0.00146372
-0.00392187, 0.0021468, -0.587941, 2.57066e-05, -5.92799e-05, 0.00021802, 0.025252, 0.017845, 0.002702, 0.000213019, 0.00022131, 0.00146365
-0.0038679, 0.00216098, -0.587967, 2.58302e-05, -5.88823e-05, 0.000217553, 0.0252502, 0.0178445, 0.00270007, 0.000212938, 0.000221174, 0.00146357
-0.00386895, 0.00215716, -0.587963, 2.63856e-05, -5.87339e-05, 0.000217329, 0.025248, 0.0178439, 0.00269816, 0.000212853, 0.000221035, 0.00146348
-0.00409124, 0.00210139, -0.587875, 2.50804e-05, -6.01663e-05, 0.000219175, 0.0252456, 0.0178431, 0.00269626, 0.000212767, 0.000220897, 0.00146337
-0.00400434, 0.00209248, -0.587891, 2.75697e-05, -6.04408e-05, 0.000215894, 0.0252429, 0.0178422, 0.00269436, 0.00021268, 0.000220762, 0.00146327
-0.00395088, 0.00208966, -0.5879, 2.90205e-05, -6.04158e-05, 0.000214079, 0.0252398, 0.0178412, 0.0026925, 0.000212592, 0.000220628, 0.00146314
-0.00391711, 0.00211217, -0.587921, 2.81112e-05, -6.00861e-05, 0.000215403, 0.0252365, 0.0178401, 0.00269068, 0.000212502, 0.000220494, 0.001463
-0.00391711, 0.00211217, -0.587921, 2.81112e-05, -6.00861e-05, 0.000215403, 0.0252367, 0.0178403, 0.00269163, 0.000212795, 0.000220776, 0.00146304
-0.00376674, 0.00214825, -0.587969, 2.88024e-05, -5.95458e-05, 0.000214993, 0.0252327, 0.017839, 0.00268957, 0.000212644, 0.000220583, 0.00146281
-0.00377057, 0.00217416, -0.587982, 2.67045e-05, -5.94325e-05, 0.000219119, 0.0252289, 0.0178378, 0.00268757, 0.0002125, 0.000220397, 0.00146253
-0.00377057, 0.00217416, -0.587982, 2.67045e-05, -5.94325e-05, 0.000219119, 0.025229, 0.017838, 0.00268852, 0.000212793, 0.00022068, 0.00146257
-0.00372514, 0.00220378, -0.588004, 2.58802e-05, -5.90296e-05, 0.000221798, 0.0252257, 0.0178367, 0.00268627, 0.000212599, 0.00022044, 0.00146214
-0.0036623, 0.00223389, -0.588029, 2.54871e-05, -5.88275e-05, 0.000223551, 0.0252228, 0.0178356, 0.0026841, 0.000212431, 0.000220217, 0.00146167
-0.00361955, 0.00225079, -0.588045, 2.55131e-05, -5.89476e-05, 0.000223797, 0.0252203, 0.0178344, 0.00268202, 0.00021229, 0.00022001, 0.00146116
-0.00355618, 0.00227322, -0.588068, 2.61266e-05, -5.90151e-05, 0.000222704, 0.0252183, 0.0178331, 0.00268, 0.000212174, 0.000219813, 0.0014606
-0.00351457, 0.00230609, -0.588088, 2.55694e-05, -5.88393e-05, 0.000225272, 0.0252166, 0.0178318, 0.00267807, 0.000212087, 0.000219628, 0.00146
-0.00351373, 0.00229173, -0.588085, 2.656e-05, -5.90217e-05, 0.00022174, 0.0252154, 0.0178304, 0.00267623, 0.000212028, 0.000219455, 0.00145936
-0.00352093, 0.00229402, -0.588082, 2.58754e-05, -5.9108e-05, 0.000223867, 0.0252145, 0.0178291, 0.00267446, 0.000211992, 0.000219286, 0.00145871
-0.00351038, 0.00230671, -0.588089, 2.56028e-05, -5.91995e-05, 0.00022499, 0.0252138, 0.0178277, 0.0026728, 0.000211983, 0.000219128, 0.00145805
-0.00346816, 0.00235153, -0.588119, 2.59545e-05, -5.90049e-05, 0.000225167, 0.0252133, 0.0178262, 0.00267125, 0.000211998, 0.000218978, 0.0014574
-0.0034772, 0.0023371, -0.58811, 2.59125e-05, -5.93871e-05, 0.000224472, 0.0252127, 0.0178247, 0.00266979, 0.000212031, 0.000218832, 0.00145676
-0.00344785, 0.00235768, -0.588134, 2.79833e-05, -5.94019e-05, 0.000217865, 0.0252122, 0.0178231, 0.00266844, 0.000212084, 0.000218695, 0.00145616
-0.00343217, 0.00237971, -0.588144, 2.7539e-05, -5.94518e-05, 0.000219975, 0.0252116, 0.0178216, 0.00266721, 0.000212151, 0.00021856, 0.00145558
-0.00339853, 0.00241263, -0.588167, 2.80721e-05, -5.91617e-05, 0.000219714, 0.025211, 0.0178203, 0.0026661, 0.000212233, 0.000218432, 0.00145504
-0.00337891, 0.00243422, -0.588179, 2.79056e-05, -5.91256e-05, 0.000221202, 0.0252104, 0.0178192, 0.00266508, 0.000212325, 0.000218307, 0.00145454
-0.00334548, 0.0024772, -0.588202, 2.71783e-05, -5.87128e-05, 0.000225946, 0.0252099, 0.0178181, 0.00266417, 0.000212426, 0.000218186, 0.00145407
-0.00332951, 0.00248936, -0.588211, 2.73833e-05, -5.87161e-05, 0.000225981, 0.0252093, 0.017817, 0.00266333, 0.000212538, 0.00021807, 0.00145363
-0.00332496, 0.00246058, -0.588203, 2.9094e-05, -5.9274e-05, 0.000219043, 0.0252088, 0.0178159, 0.00266255, 0.000212655, 0.000217955, 0.00145322
-0.00332223, 0.00247738, -0.588209, 2.84492e-05, -5.90856e-05, 0.000221906, 0.0252083, 0.0178147, 0.00266183, 0.00021278, 0.000217844, 0.00145285
-0.003308, 0.00251998, -0.588227, 2.73636e-05, -5.8917e-05, 0.000227475, 0.0252078, 0.0178135, 0.00266114, 0.000212903, 0.000217733, 0.00145251
-0.00330383, 0.0025389, -0.588235, 2.68515e-05, -5.88615e-05, 0.000229986, 0.0252073, 0.0178122, 0.0026605, 0.000213031, 0.000217628, 0.0014522
-0.00329247, 0.00254048, -0.588238, 2.72242e-05, -5.90589e-05, 0.000229405, 0.0252067, 0.0178109, 0.00265989, 0.000213155, 0.000217525, 0.00145194
-0.00326662, 0.00260429, -0.588268, 2.64561e-05, -5.88202e-05, 0.000235575, 0.0252062, 0.0178097, 0.00265929, 0.000213274, 0.000217425, 0.00145174
-0.00324691, 0.00261565, -0.588277, 2.69471e-05, -5.90305e-05, 0.00023603, 0.0252056, 0.0178085, 0.00265871, 0.000213385, 0.000217329, 0.00145158
-0.00325783, 0.00261599, -0.588275, 2.62804e-05, -5.90259e-05, 0.000236553, 0.0252051, 0.0178074, 0.00265809, 0.000213482, 0.000217235, 0.00145147
-0.00324302, 0.00259321, -0.588268, 2.77828e-05, -5.9342e-05, 0.000234545, 0.0252046, 0.0178062, 0.00265742, 0.000213561, 0.000217146, 0.00145142
-0.00322844, 0.00262473, -0.588285, 2.78671e-05, -5.96695e-05, 0.000236952, 0.0252042, 0.017805, 0.00265665, 0.000213615, 0.000217057, 0.0014514
-0.00318602, 0.00262518, -0.588293, 3.09107e-05, -5.9921e-05, 0.00023918, 0.0252036, 0.0178035, 0.00265573, 0.000213636, 0.000216967, 0.00145139
-0.00313449, 0.00255903, -0.588274, 3.53372e-05, -6.08699e-05, 0.000241061, 0.025203, 0.0178017, 0.00265464, 0.000213619, 0.00021688, 0.00145135
-0.00310478, 0.00255728, -0.588277, 3.72367e-05, -6.11318e-05, 0.000244089, 0.0252022, 0.0177996, 0.00265336, 0.00021356, 0.000216789, 0.00145125
-0.00309665, 0.00255201, -0.588276, 3.79006e-05, -6.11595e-05, 0.000245294, 0.0252013, 0.0177972, 0.00265185, 0.00021345, 0.000216696, 0.00145103
-0.00306155, 0.00259784, -0.588295, 3.90039e-05, -6.07187e-05, 0.000249378, 0.0252, 0.0177947, 0.00265008, 0.000213289, 0.000216599, 0.00145063
-0.00304586, 0.00261731, -0.588304, 3.92243e-05, -6.07656e-05, 0.000250239, 0.0251986, 0.017792, 0.00264802, 0.000213079, 0.000216495, 0.00145001
-0.00309225, 0.00258726, -0.588289, 3.74138e-05, -6.08991e-05, 0.000244265, 0.0251969, 0.0177893, 0.00264564, 0.000212825, 0.000216386, 0.00144913
-0.00312439, 0.00260125, -0.588292, 3.44997e-05, -6.1085e-05, 0.000233791, 0.0251952, 0.0177865, 0.00264289, 0.000212534, 0.00021627, 0.00144795
-0.0031243, 0.00263238, -0.588308, 3.26588e-05, -6.15912e-05, 0.000225654, 0.0251936, 0.0177836, 0.00263973, 0.00021222, 0.000216148, 0.0014465
-0.00310825, 0.00266011, -0.588322, 3.25486e-05, -6.17145e-05, 0.000224398, 0.0251922, 0.0177806, 0.0026362, 0.000211901, 0.000216021, 0.00144482
-0.00314402, 0.00262894, -0.588307, 3.04288e-05, -6.22157e-05, 0.000215439, 0.0251908, 0.0177772, 0.00263231, 0.000211596, 0.000215891, 0.00144295
-0.00311177, 0.00265893, -0.588323, 3.16295e-05, -6.2335e-05, 0.000219472, 0.0251895, 0.0177735, 0.00262816, 0.000211315, 0.000215759, 0.00144098
-0.00309969, 0.00265783, -0.588325, 3.22637e-05, -6.27628e-05, 0.000221425, 0.0251881, 0.0177695, 0.00262381, 0.000211069, 0.000215623, 0.00143895
-0.003087, 0.002646, -0.588323, 3.33739e-05, -6.33425e-05, 0.000225673, 0.0251869, 0.0177652, 0.00261933, 0.000210864, 0.000215485, 0.00143692
-0.00304123, 0.00268483, -0.588343, 3.60646e-05, -6.34745e-05, 0.000236593, 0.0251857, 0.0177606, 0.00261479, 0.000210705, 0.000215348, 0.00143494
-0.00298822, 0.00276864, -0.588382, 3.73776e-05, -6.39611e-05, 0.000238541, 0.0251848, 0.0177557, 0.00261022, 0.000210586, 0.000215206, 0.00143302
-0.00298458, 0.00273321, -0.58837, 3.89454e-05, -6.43575e-05, 0.000246476, 0.0251841, 0.0177508, 0.00260566, 0.000210508, 0.000215064, 0.00143117
-0.0029638, 0.00275944, -0.588384, 3.95451e-05, -6.51097e-05, 0.000246336, 0.0251835, 0.0177459, 0.00260118, 0.000210465, 0.000214921, 0.00142939
-0.00295957, 0.00271697, -0.58837, 4.0858e-05, -6.57856e-05, 0.000252823, 0.025183, 0.0177413, 0.00259682, 0.000210456, 0.000214778, 0.0014277
-0.00295131, 0.00269348, -0.588363, 4.20025e-05, -6.63498e-05, 0.000257934, 0.0251827, 0.017737, 0.0025926, 0.000210476, 0.000214635, 0.00142609
-0.00293983, 0.00270562, -0.588372, 4.20682e-05, -6.72602e-05, 0.000254977, 0.0251824, 0.017733, 0.00258858, 0.000210522, 0.000214492, 0.00142456
-0.00293291, 0.00266911, -0.588359, 4.2382e-05, -6.82954e-05, 0.000255259, 0.0251821, 0.0177293, 0.00258474, 0.00021059, 0.000214349, 0.00142311
-0.00293291, 0.00266911, -0.588359, 4.2382e-05, -6.82954e-05, 0.000255259, 0.0251822, 0.0177294, 0.00258573, 0.000210887, 0.000214641, 0.00142316
-0.00293096, 0.0026561, -0.588356, 4.13774e-05, -6.93293e-05, 0.00024777, 0.025182, 0.0177257, 0.00258162, 0.000210943, 0.000214432, 0.00142159
-0.0029213, 0.00272133, -0.58839, 4.17976e-05, -7.0042e-05, 0.000243929, 0.0251818, 0.0177222, 0.0025778, 0.000211025, 0.000214235, 0.00142017
-0.00290347, 0.00274985, -0.588408, 4.30634e-05, -7.10434e-05, 0.000245082, 0.0251815, 0.0177188, 0.00257428, 0.000211125, 0.000214043, 0.00141886
-0.00289879, 0.00276466, -0.588419, 4.28371e-05, -7.21273e-05, 0.000239679, 0.0251813, 0.0177153, 0.00257102, 0.000211241, 0.000213858, 0.00141762
-0.00288042, 0.00274864, -0.588419, 4.37574e-05, -7.32399e-05, 0.000240758, 0.025181, 0.0177117, 0.00256799, 0.000211367, 0.000213678, 0.00141648
-0.00287023, 0.00274809, -0.588424, 4.40826e-05, -7.43798e-05, 0.0002383, 0.0251807, 0.0177077, 0.00256515, 0.000211504, 0.000213504, 0.00141541
-0.00289024, 0.00277759, -0.588439, 4.26804e-05, -7.56287e-05, 0.000227395, 0.0251803, 0.0177034, 0.00256248, 0.000211647, 0.000213334, 0.00141442
-0.00289067, 0.00280898, -0.588455, 4.25808e-05, -7.67179e-05, 0.000222225, 0.0251798, 0.0176989, 0.00256, 0.000211794, 0.000213171, 0.00141351
-0.00287678, 0.0027994, -0.588457, 4.31004e-05, -7.7899e-05, 0.000220477, 0.0251795, 0.0176944, 0.00255769, 0.000211941, 0.000213012, 0.00141267
-0.00287457, 0.00279784, -0.58846, 4.30087e-05, -7.87202e-05, 0.000217497, 0.0251791, 0.0176904, 0.00255557, 0.000212088, 0.000212857, 0.00141186
-0.00287598, 0.00280416, -0.588466, 4.26374e-05, -7.9731e-05, 0.000212855, 0.0251789, 0.0176868, 0.00255361, 0.000212228, 0.000212704, 0.0014111
-0.0028909, 0.00286907, -0.588494, 4.21058e-05, -8.08829e-05, 0.000205209, 0.0251785, 0.0176834, 0.00255175, 0.000212361, 0.000212554, 0.00141039
-0.00286058, 0.00284212, -0.588491, 4.37214e-05, -8.2055e-05, 0.000205543, 0.0251781, 0.0176799, 0.00254998, 0.000212485, 0.000212409, 0.00140973
-0.00286226, 0.00287206, -0.588507, 4.37623e-05, -8.34238e-05, 0.000200098, 0.0251777, 0.0176763, 0.00254824, 0.000212594, 0.000212263, 0.0014091
-0.00287789, 0.00289887, -0.58852, 4.29194e-05, -8.43143e-05, 0.000195315, 0.0251772, 0.0176727, 0.00254652, 0.000212688, 0.00021212, 0.00140851
-0.002882, 0.00294267, -0.588539, 4.36474e-05, -8.50508e-05, 0.000192498, 0.0251767, 0.0176692, 0.00254481, 0.000212765, 0.000211981, 0.00140795
-0.00289403, 0.00297127, -0.588553, 4.31244e-05, -8.6332e-05, 0.000187406, 0.0251762, 0.0176656, 0.0025431, 0.00021282, 0.000211843, 0.00140741
-0.00290299, 0.00297856, -0.588558, 4.24129e-05, -8.71777e-05, 0.000184369, 0.0251755, 0.017662, 0.00254131, 0.000212852, 0.000211708, 0.0014069
-0.00289356, 0.00295433, -0.588552, 4.21973e-05, -8.81033e-05, 0.000181971, 0.0251747, 0.0176582, 0.00253946, 0.00021286, 0.000211577, 0.00140641
-0.00288481, 0.0029823, -0.588567, 4.44159e-05, -8.91118e-05, 0.000178346, 0.0251737, 0.017654, 0.00253753, 0.000212838, 0.000211447, 0.00140593
-0.0028852, 0.00299285, -0.588574, 4.48625e-05, -9.00141e-05, 0.000175387, 0.0251725, 0.0176493, 0.00253551, 0.000212785, 0.000211317, 0.00140543
-0.00285779, 0.00293948, -0.58856, 4.54353e-05, -9.08923e-05, 0.000172813, 0.0251713, 0.0176441, 0.00253339, 0.000212698, 0.000211187, 0.00140491
-0.00284649, 0.00297325, -0.588575, 4.71761e-05, -9.17825e-05, 0.000168736, 0.02517, 0.0176383, 0.00253116, 0.000212579, 0.000211058, 0.00140437
-0.0028465, 0.00295295, -0.588571, 4.67595e-05, -9.25681e-05, 0.000166868, 0.0251684, 0.0176319, 0.00252879, 0.000212429, 0.000210931, 0.00140379
-0.002833, 0.00290185, -0.588557, 4.66135e-05, -9.29198e-05, 0.00016603, 0.0251668, 0.017625, 0.00252632, 0.000212245, 0.000210804, 0.00140317
-0.00287776, 0.00295769, -0.588574, 4.4983e-05, -9.34977e-05, 0.00016658, 0.0251651, 0.0176178, 0.00252372, 0.000212033, 0.000210678, 0.0014025
-0.00288242, 0.00291876, -0.588562, 4.38597e-05, -9.35425e-05, 0.000167916, 0.0251633, 0.0176103, 0.00252101, 0.000211794, 0.000210554, 0.00140179
-0.00287575, 0.00287037, -0.58855, 4.3379e-05, -9.39091e-05, 0.000167337, 0.0251617, 0.0176021, 0.00251821, 0.000211534, 0.000210431, 0.00140104
-0.00286874, 0.00283546, -0.588542, 4.31401e-05, -9.45629e-05, 0.000165677, 0.0251599, 0.0175932, 0.00251523, 0.000211256, 0.000210308, 0.00140023
-0.00285849, 0.00278432, -0.588529, 4.24585e-05, -9.49937e-05, 0.000165192, 0.0251576, 0.0175835, 0.00251208, 0.000210969, 0.000210187, 0.00139938
-0.00281387, 0.00273232, -0.588519, 4.42546e-05, -9.57387e-05, 0.000159428, 0.0251553, 0.0175738, 0.0025089, 0.000210676, 0.000210065, 0.00139847
-0.00285934, 0.00285931, -0.588553, 4.40178e-05, -9.57915e-05, 0.000160937, 0.025153, 0.0175644, 0.00250576, 0.000210381, 0.000209942, 0.00139748
-0.00282805, 0.00279565, -0.588536, 4.4672e-05, -9.58065e-05, 0.000159122, 0.0251506, 0.0175556, 0.00250266, 0.000210088, 0.000209819, 0.00139644
-0.00281895, 0.00275988, -0.588527, 4.47524e-05, -9.62613e-05, 0.000157221, 0.025148, 0.0175473, 0.00249961, 0.000209803, 0.000209695, 0.00139535
-0.00273762, 0.00268926, -0.588511, 4.78481e-05, -9.6878e-05, 0.00014804, 0.0251454, 0.0175391, 0.00249657, 0.000209527, 0.000209571, 0.00139422
-0.00276168, 0.00262372, -0.588492, 4.58738e-05, -9.7117e-05, 0.00015062, 0.0251426, 0.017531, 0.00249354, 0.000209267, 0.000209447, 0.00139304
-0.00279713, 0.00268888, -0.58851, 4.50888e-05, -9.71883e-05, 0.000153111, 0.0251401, 0.0175229, 0.00249054, 0.000209022, 0.000209324, 0.00139188
-0.00282377, 0.00274436, -0.588526, 4.46563e-05, -9.72072e-05, 0.000154918, 0.0251377, 0.017515, 0.00248757, 0.000208795, 0.000209202, 0.00139071
-0.00283353, 0.00270712, -0.588516, 4.35463e-05, -9.74122e-05, 0.000156134, 0.0251356, 0.0175069, 0.00248464, 0.000208585, 0.000209081, 0.00138954
-0.00281612, 0.00278913, -0.58854, 4.61669e-05, -9.7622e-05, 0.000151254, 0.0251336, 0.0174985, 0.00248173, 0.000208395, 0.000208961, 0.00138839
-0.00276015, 0.00273652, -0.588528, 4.84627e-05, -9.77339e-05, 0.000144765, 0.0251317, 0.0174898, 0.00247886, 0.000208223, 0.000208841, 0.00138722
-0.00277961, 0.00269785, -0.588517, 4.63637e-05, -9.76343e-05, 0.000148987, 0.0251295, 0.0174807, 0.00247602, 0.00020807, 0.000208723, 0.00138604
-0.00276055, 0.00266527, -0.588508, 4.66162e-05, -9.74676e-05, 0.000148324, 0.0251272, 0.0174715, 0.00247318, 0.000207933, 0.000208604, 0.00138489
-0.00283653, 0.00280237, -0.588541, 4.57748e-05, -9.70984e-05, 0.000154008, 0.0251247, 0.0174619, 0.00247038, 0.000207812, 0.000208486, 0.00138375
-0.00290357, 0.00291493, -0.588567, 4.48194e-05, -9.66163e-05, 0.000159705, 0.0251222, 0.0174522, 0.00246764, 0.000207706, 0.00020837, 0.00138264
-0.00290492, 0.00284249, -0.588545, 4.21313e-05, -9.57514e-05, 0.000166494, 0.0251197, 0.0174426, 0.00246498, 0.000207616, 0.000208258, 0.00138156
-0.00301534, 0.00297875, -0.588573, 3.87494e-05, -9.45268e-05, 0.00017993, 0.0251173, 0.017433, 0.00246239, 0.000207537, 0.000208146, 0.00138053
-0.00306079, 0.00302947, -0.588582, 3.70165e-05, -9.36963e-05, 0.00018688, 0.0251149, 0.0174237, 0.00245985, 0.000207471, 0.000208039, 0.00137955
-0.00309448, 0.00308536, -0.588593, 3.63655e-05, -9.29439e-05, 0.000191442, 0.0251126, 0.0174145, 0.00245738, 0.000207413, 0.000207932, 0.00137861
-0.00320929, 0.00326972, -0.588634, 3.45547e-05, -9.1751e-05, 0.000202083, 0.0251103, 0.0174055, 0.00245497, 0.000207364, 0.000207826, 0.00137771
-0.00326762, 0.00331383, -0.588639, 3.09275e-05, -9.06191e-05, 0.000212977, 0.0251082, 0.0173966, 0.00245264, 0.000207322, 0.000207722, 0.00137685
-0.00336667, 0.00351074, -0.588684, 3.0588e-05, -8.95393e-05, 0.000220456, 0.0251062, 0.0173879, 0.00245038, 0.000207286, 0.000207622, 0.00137605
-0.00342695, 0.0036089, -0.588704, 2.90749e-05, -8.85898e-05, 0.000227559, 0.0251044, 0.0173794, 0.00244817, 0.000207253, 0.000207522, 0.00137528
-0.00347737, 0.00369999, -0.588723, 2.80332e-05, -8.77196e-05, 0.00023336, 0.0251028, 0.0173711, 0.00244602, 0.000207225, 0.000207424, 0.00137454
-0.00352956, 0.00386884, -0.588764, 2.96365e-05, -8.68999e-05, 0.000236144, 0.0251014, 0.0173631, 0.00244394, 0.000207197, 0.000207326, 0.00137383
-0.00356619, 0.00400992, -0.588797, 3.09704e-05, -8.59739e-05, 0.000239239, 0.0251001, 0.0173553, 0.00244191, 0.00020717, 0.000207229, 0.00137313
-0.00357, 0.00402718, -0.588799, 3.08821e-05, -8.52021e-05, 0.000241866, 0.0250988, 0.0173479, 0.00243992, 0.000207141, 0.000207131, 0.00137243
-0.00359736, 0.00403047, -0.588798, 2.90369e-05, -8.47307e-05, 0.000245453, 0.0250975, 0.0173407, 0.00243795, 0.000207111, 0.000207035, 0.00137175
-0.00361377, 0.00402641, -0.588795, 2.78827e-05, -8.43039e-05, 0.000247846, 0.0250961, 0.0173337, 0.00243601, 0.000207077, 0.000206939, 0.00137111
-0.00360976, 0.00409147, -0.588811, 2.8953e-05, -8.39257e-05, 0.000248819, 0.0250947, 0.0173267, 0.00243407, 0.000207043, 0.000206846, 0.00137049
-0.00363349, 0.00419009, -0.588836, 2.86746e-05, -8.36965e-05, 0.000250719, 0.0250935, 0.0173199, 0.00243217, 0.000207001, 0.000206751, 0.00136987
-0.00370117, 0.00424243, -0.588847, 2.53478e-05, -8.29418e-05, 0.000255346, 0.0250925, 0.0173136, 0.00243032, 0.000206956, 0.000206658, 0.00136927
-0.00364046, 0.00426999, -0.588855, 2.84335e-05, -8.28224e-05, 0.000254778, 0.0250914, 0.0173076, 0.00242846, 0.000206907, 0.000206566, 0.0013687
-0.003666, 0.00426513, -0.588853, 2.71809e-05, -8.258e-05, 0.000255773, 0.0250902, 0.0173017, 0.0024266, 0.000206852, 0.000206474, 0.00136811
-0.00370281, 0.00422987, -0.588842, 2.54883e-05, -8.24324e-05, 0.00025625, 0.0250889, 0.0172958, 0.00242471, 0.000206794, 0.000206383, 0.00136754
-0.00368331, 0.0041612, -0.588823, 2.66096e-05, -8.27085e-05, 0.000255448, 0.0250876, 0.01729, 0.0024228, 0.000206732, 0.000206293, 0.00136698
-0.00367581, 0.00411397, -0.588809, 2.71077e-05, -8.2752e-05, 0.00025547, 0.0250864, 0.017284, 0.00242086, 0.000206669, 0.000206204, 0.00136641
-0.0036824, 0.00416479, -0.588823, 2.64724e-05, -8.24537e-05, 0.000256074, 0.0250851, 0.0172781, 0.00241891, 0.000206605, 0.000206116, 0.00136583
-0.00370294, 0.00415204, -0.588817, 2.55946e-05, -8.19556e-05, 0.00025725, 0.0250838, 0.0172718, 0.00241696, 0.00020654, 0.000206027, 0.00136525
-0.00368699, 0.00419186, -0.588828, 2.59186e-05, -8.20135e-05, 0.000257097, 0.0250823, 0.0172653, 0.00241502, 0.000206478, 0.000205942, 0.00136468
-0.00367277, 0.00413342, -0.588813, 2.72964e-05, -8.2187e-05, 0.000257901, 0.0250808, 0.0172587, 0.00241309, 0.000206418, 0.000205856, 0.00136409
-0.00369415, 0.00410417, -0.588804, 2.6731e-05, -8.18254e-05, 0.000258837, 0.0250792, 0.0172522, 0.00241119, 0.000206364, 0.000205771, 0.00136348
-0.00374049, 0.00407601, -0.588795, 2.50406e-05, -8.15523e-05, 0.000258369, 0.0250776, 0.017246, 0.00240933, 0.000206316, 0.000205689, 0.00136287
-0.0037419, 0.00400906, -0.588776, 2.62452e-05, -8.17083e-05, 0.000260158, 0.0250762, 0.0172407, 0.00240753, 0.000206275, 0.000205609, 0.00136225
-0.00376046, 0.0039239, -0.588752, 2.74708e-05, -8.21145e-05, 0.000261713, 0.0250747, 0.017236, 0.00240584, 0.000206242, 0.000205528, 0.00136161
-0.00372876, 0.00396372, -0.588765, 2.77628e-05, -8.22886e-05, 0.000260478, 0.0250729, 0.0172319, 0.00240425, 0.000206217, 0.000205448, 0.00136094
-0.00369732, 0.00398679, -0.588773, 2.85536e-05, -8.24384e-05, 0.000260585, 0.0250712, 0.017228, 0.00240274, 0.000206201, 0.00020537, 0.00136025
-0.00371797, 0.00397933, -0.588771, 2.77432e-05, -8.24623e-05, 0.000259476, 0.0250694, 0.0172242, 0.00240127, 0.000206194, 0.000205293, 0.00135954
-0.00369103, 0.00404969, -0.588795, 2.6861e-05, -8.26117e-05, 0.000256061, 0.0250677, 0.0172203, 0.00239983, 0.000206194, 0.000205217, 0.00135884
-0.00369868, 0.00404056, -0.588793, 2.66935e-05, -8.28641e-05, 0.000255017, 0.0250659, 0.0172162, 0.00239844, 0.000206201, 0.000205142, 0.00135815
-0.00368825, 0.00406293, -0.5888, 2.65128e-05, -8.29657e-05, 0.000253951, 0.0250643, 0.017212, 0.00239709, 0.000206213, 0.00020507, 0.00135747
-0.00369344, 0.00410352, -0.588812, 2.4877e-05, -8.30034e-05, 0.000250589, 0.0250624, 0.0172077, 0.00239583, 0.000206231, 0.000204999, 0.00135681
-0.00372796, 0.00411302, -0.588816, 2.27264e-05, -8.31975e-05, 0.000246653, 0.0250603, 0.0172035, 0.00239465, 0.000206253, 0.000204929, 0.00135617
-0.00369165, 0.00411905, -0.588821, 2.40382e-05, -8.39424e-05, 0.000245762, 0.025058, 0.0171994, 0.00239353, 0.000206278, 0.000204862, 0.00135558
-0.00367096, 0.0041335, -0.588827, 2.42347e-05, -8.46193e-05, 0.000243379, 0.0250559, 0.0171956, 0.00239245, 0.000206303, 0.000204796, 0.00135499
-0.00367024, 0.0041373, -0.58883, 2.39007e-05, -8.51173e-05, 0.000241232, 0.0250539, 0.0171921, 0.00239141, 0.000206327, 0.00020473, 0.00135442
-0.00368193, 0.0041296, -0.588829, 2.33998e-05, -8.55937e-05, 0.000239262, 0.0250521, 0.0171889, 0.00239039, 0.000206349, 0.000204665, 0.00135387
-0.00365171, 0.00412935, -0.588833, 2.50901e-05, -8.6504e-05, 0.000237831, 0.0250504, 0.017186, 0.00238939, 0.000206367, 0.000204601, 0.00135334
-0.00361687, 0.00416228, -0.588845, 2.51099e-05, -8.70564e-05, 0.000235583, 0.0250485, 0.0171829, 0.00238841, 0.000206381, 0.000204538, 0.00135282
-0.00354498, 0.00420659, -0.588861, 2.67624e-05, -8.78789e-05, 0.00023345, 0.0250463, 0.0171797, 0.00238744, 0.000206389, 0.000204476, 0.00135231
-0.00355502, 0.00418707, -0.588858, 2.71375e-05, -8.85825e-05, 0.00023145, 0.0250438, 0.0171763, 0.00238649, 0.000206389, 0.000204414, 0.00135181
-0.00360453, 0.00414691, -0.588847, 2.64392e-05, -8.89979e-05, 0.00023017, 0.0250411, 0.0171727, 0.00238552, 0.00020638, 0.000204354, 0.00135131
-0.00360338, 0.00412285, -0.588842, 2.80843e-05, -8.96596e-05, 0.000228341, 0.0250379, 0.0171691, 0.00238456, 0.000206361, 0.000204294, 0.00135083
-0.0035301, 0.0041766, -0.58886, 2.85099e-05, -9.06669e-05, 0.000225081, 0.0250347, 0.0171653, 0.00238357, 0.000206334, 0.000204236, 0.00135035
-0.0035483, 0.00414951, -0.588854, 2.90661e-05, -9.13027e-05, 0.000223016, 0.0250316, 0.0171617, 0.00238255, 0.000206294, 0.000204176, 0.00134986
-0.00352606, 0.00414046, -0.588854, 3.09915e-05, -9.20664e-05, 0.000219974, 0.0250282, 0.017158, 0.00238152, 0.000206247, 0.000204119, 0.00134937
-0.00343527, 0.00420029, -0.588874, 3.21197e-05, -9.2966e-05, 0.000217, 0.0250248, 0.0171542, 0.00238046, 0.000206192, 0.000204062, 0.00134886
-0.0035474, 0.00413472, -0.588854, 2.89695e-05, -9.30416e-05, 0.000217927, 0.0250214, 0.0171502, 0.00237937, 0.000206129, 0.000204006, 0.00134834
