-0.0127425, -0.00215207, -0.587667, -0.000204143, 0.00308105, -7.77617e-05, 0.0316228, 0.0316228, 0.0316228, 0.0316228, 0.0316228, 0.0316228
-0.0127425, -0.00215207, -0.587667, -0.000204143, 0.00308105, -7.77617e-05, 0.0316228, 0.0316228, 0.0316228, 0.0316228, 0.0316228, 0.0316228
-0.0128202, -0.00219217, -0.586779, -0.000573908, -0.00088353, -0.0002973, 0.0316063, 0.0315699, 0.031543, 0.0311783, 0.0299508, 0.0304668
-0.0129111, -0.00219052, -0.586498, -0.000644017, -0.00151215, -0.000319835, 0.0315913, 0.0315554, 0.0315112, 0.0308563, 0.0297605, 0.0303917
-0.0129813, -0.00220098, -0.586148, -0.000757666, -0.00225438, -0.000358893, 0.0315769, 0.0315432, 0.0314726, 0.0305224, 0.0295528, 0.0303382
-0.0130499, -0.00220897, -0.586012, -0.000812359, -0.00248464, -0.000383119, 0.0315631, 0.0315331, 0.0314256, 0.0302009, 0.0292914, 0.0302865
-0.0131152, -0.00223073, -0.58587, -0.000898285, -0.00269392, -0.000412255, 0.0315501, 0.0315219, 0.0313628, 0.0298896, 0.0290022, 0.0302436
-0.013168, -0.00225289, -0.585606, -0.000975055, -0.00312858, -0.000438161, 0.0315379, 0.0315114, 0.031284, 0.0295846, 0.028684, 0.0302061
-0.0132187, -0.00226747, -0.585482, -0.000996218, -0.00328661, -0.000456196, 0.0315266, 0.0315032, 0.0311999, 0.0292765, 0.0283579, 0.0301706
-0.0132655, -0.00226608, -0.585489, -0.000989744, -0.00320124, -0.00046398, 0.0315164, 0.0314947, 0.0311024, 0.0289564, 0.0280253, 0.0301382
-0.0133051, -0.00227099, -0.585388, -0.000954925, -0.00329716, -0.000475164, 0.0315073, 0.0314862, 0.0309926, 0.028624, 0.0277128, 0.0301066
-0.0133378, -0.00227029, -0.585377, -0.000908206, -0.00325428, -0.000488937, 0.0314992, 0.0314792, 0.0308867, 0.0282779, 0.0274464, 0.0300733
-0.0133877, -0.00226973, -0.585661, -0.000828188, -0.00282768, -0.000507332, 0.0314918, 0.0314711, 0.0307667, 0.0279124, 0.0271821, 0.0300381
-0.0134491, -0.00228535, -0.585915, -0.000830466, -0.0024517, -0.000506085, 0.0314839, 0.0314578, 0.0306089, 0.0275263, 0.0268825, 0.03
-0.0135056, -0.00229957, -0.586173, -0.000785654, -0.00209268, -0.000514519, 0.0314762, 0.0314419, 0.0304476, 0.0271287, 0.0265892, 0.0299645
-0.0135904, -0.00234484, -0.586584, -0.000756387, -0.00154554, -0.000506581, 0.0314685, 0.0314221, 0.0302897, 0.0267204, 0.0262955, 0.0299338
-0.013658, -0.00240142, -0.58678, -0.000808398, -0.00120686, -0.000500981, 0.031461, 0.0313986, 0.0301586, 0.0263115, 0.0260149, 0.0299116
-0.0137083, -0.00247045, -0.586808, -0.000923294, -0.00105421, -0.00048485, 0.0314541, 0.0313779, 0.030079, 0.0259104, 0.0258138, 0.0298906
-0.0137435, -0.00251455, -0.586755, -0.00101875, -0.000974399, -0.000476718, 0.0314477, 0.0313627, 0.0300462, 0.0255154, 0.0256841, 0.0298665
-0.0137705, -0.00253986, -0.586733, -0.00106831, -0.000875045, -0.00046948, 0.031442, 0.0313512, 0.0300336, 0.0251131, 0.0255564, 0.0298352
-0.013781, -0.00253592, -0.586734, -0.00107674, -0.000805351, -0.000487937, 0.0314369, 0.0313412, 0.0300266, 0.0247025, 0.0254002, 0.0297979
-0.0137839, -0.00250667, -0.586746, -0.00102708, -0.000791798, -0.000542015, 0.0314328, 0.0313306, 0.0300197, 0.0242686, 0.0252307, 0.0297504
-0.0137969, -0.00245268, -0.586769, -0.000978726, -0.00080885, -0.000616623, 0.0314298, 0.0313154, 0.0299885, 0.0237683, 0.0250618, 0.0296827
-0.0138295, -0.00236231, -0.586906, -0.00090653, -0.000828963, -0.00069124, 0.0314266, 0.031292, 0.0298751, 0.0231729, 0.0248838, 0.0295907
-0.0138996, -0.00222608, -0.58742, -0.000892143, -0.000671228, -0.000709798, 0.0314218, 0.031258, 0.0295803, 0.0225311, 0.0246678, 0.0294869
-0.0139833, -0.00208356, -0.588207, -0.000986021, -0.000237967, -0.000682181, 0.0314153, 0.0312191, 0.0290639, 0.0219601, 0.0243762, 0.0294
-0.0140401, -0.00200651, -0.588811, -0.00117855, 0.000208466, -0.000645073, 0.0314084, 0.0311874, 0.0284849, 0.0214535, 0.0240441, 0.0293331
-0.0140951, -0.00193665, -0.58944, -0.00138315, 0.000670961, -0.000582216, 0.0314022, 0.0311659, 0.0279919, 0.0209685, 0.0237286, 0.0292704
-0.0141311, -0.00191217, -0.589895, -0.0015898, 0.00101084, -0.00050932, 0.0313971, 0.0311497, 0.0276054, 0.0204973, 0.0234567, 0.0292058
-0.0141649, -0.00190171, -0.590258, -0.00177954, 0.00127279, -0.000421182, 0.0313932, 0.0311365, 0.0273009, 0.0200016, 0.0232054, 0.0291337
-0.0142018, -0.00189121, -0.590696, -0.00193087, 0.00143285, -0.000328219, 0.03139, 0.0311235, 0.027016, 0.0195034, 0.0229306, 0.0290515
-0.014236, -0.00189504, -0.591092, -0.00204454, 0.00151607, -0.000233343, 0.031387, 0.0311083, 0.0267126, 0.0190223, 0.0225977, 0.0289538
-0.0142728, -0.00190939, -0.59154, -0.00214555, 0.00149258, -0.000125041, 0.031384, 0.03109, 0.0263738, 0.018578, 0.0221732, 0.0288416
-0.014312, -0.0019238, -0.592026, -0.00221591, 0.00137181, -3.02624e-05, 0.0313807, 0.0310686, 0.0259916, 0.0182084, 0.0216283, 0.0287209
-0.0143558, -0.00191118, -0.592594, -0.00223115, 0.00113011, 1.08077e-05, 0.0313769, 0.0310459, 0.0255713, 0.0179372, 0.0209859, 0.0286058
-0.0144077, -0.0018955, -0.593162, -0.00219606, 0.000904272, 3.68791e-05, 0.0313728, 0.0310254, 0.0251363, 0.0177442, 0.0203405, 0.0285091
-0.0144559, -0.00187179, -0.593572, -0.00211584, 0.000832776, 4.06127e-05, 0.0313688, 0.0310088, 0.0247347, 0.017574, 0.0198063, 0.0284297
-0.0145009, -0.00186699, -0.593757, -0.00202601, 0.000966949, 4.8018e-05, 0.0313651, 0.030996, 0.0244117, 0.0173983, 0.0194256, 0.028353
-0.0145458, -0.00187562, -0.59384, -0.00191139, 0.00119451, 6.59003e-05, 0.031362, 0.0309855, 0.0241695, 0.0172181, 0.0191665, 0.0282674
-0.0145845, -0.00190951, -0.593724, -0.00179982, 0.00151052, 0.000131665, 0.0313593, 0.0309767, 0.0240137, 0.0170431, 0.0189766, 0.0281741
-0.0146194, -0.00193943, -0.593649, -0.0016772, 0.00180023, 0.000232123, 0.031357, 0.0309689, 0.0239243, 0.0168735, 0.0188143, 0.0280803
-0.0146533, -0.00197341, -0.593632, -0.00154593, 0.00206607, 0.000354955, 0.031355, 0.0309623, 0.023866, 0.0166986, 0.0186653, 0.0279848
-0.0146867, -0.00200124, -0.593716, -0.0014106, 0.00232167, 0.000498208, 0.0313531, 0.0309569, 0.0237998, 0.016513, 0.01852, 0.0278886
-0.0147127, -0.00201795, -0.593848, -0.00124499, 0.00255585, 0.000605118, 0.0313514, 0.0309525, 0.0236964, 0.0163203, 0.0183762, 0.0277899
-0.0147328, -0.00203485, -0.593902, -0.00110129, 0.00274889, 0.000677158, 0.0313499, 0.030949, 0.0235668, 0.0161387, 0.0182395, 0.027694
-0.0147517, -0.00206013, -0.593932, -0.000972887, 0.00289988, 0.000752288, 0.0313486, 0.0309464, 0.0234283, 0.0159803, 0.0181175, 0.0276059
-0.0147816, -0.0020858, -0.594147, -0.000865301, 0.00304469, 0.000833591, 0.0313475, 0.0309444, 0.0232662, 0.0158388, 0.018008, 0.0275248
-0.0148168, -0.00209501, -0.594537, -0.00079359, 0.00320017, 0.00088028, 0.0313464, 0.0309427, 0.0230583, 0.0157025, 0.0179004, 0.0274428
-0.0148584, -0.00208358, -0.595045, -0.000736481, 0.00338263, 0.000874706, 0.0313452, 0.0309409, 0.0228017, 0.0155628, 0.0177871, 0.0273557
-0.0149057, -0.00205032, -0.595595, -0.000672046, 0.00356498, 0.000778458, 0.0313438, 0.0309384, 0.0225125, 0.0154113, 0.0176616, 0.0272656
-0.0149449, -0.00201748, -0.595984, -0.000629601, 0.00371459, 0.000676377, 0.0313422, 0.0309353, 0.0222463, 0.0152535, 0.0175212, 0.0271794
-0.0149848, -0.00197502, -0.59637, -0.000590751, 0.00384698, 0.000495457, 0.0313407, 0.0309314, 0.0220212, 0.0150712, 0.0173619, 0.0270881
-0.0150165, -0.00192504, -0.596689, -0.000508732, 0.0039392, 0.000270944, 0.0313391, 0.0309266, 0.0218305, 0.0148453, 0.0171749, 0.0269891
-0.0150369, -0.00188797, -0.596888, -0.000412669, 0.00398514, 5.27189e-05, 0.0313375, 0.0309214, 0.0216758, 0.0145718, 0.0169595, 0.0268783
-0.0150528, -0.00184682, -0.597079, -0.000242749, 0.00404079, -0.000220119, 0.031336, 0.0309163, 0.0215479, 0.0142184, 0.0167102, 0.0267471
-0.0150625, -0.00183812, -0.597132, -0.000186578, 0.00402118, -0.000349326, 0.0313342, 0.0309114, 0.0214402, 0.0137847, 0.0164238, 0.0265995
-0.0150751, -0.00184312, -0.59715, -0.000182613, 0.00395098, -0.000412664, 0.0313321, 0.0309076, 0.0213477, 0.0132612, 0.016103, 0.026429
-0.0150879, -0.00184359, -0.5972, -9.00215e-05, 0.00388465, -0.000550283, 0.0313294, 0.0309045, 0.0212646, 0.0126411, 0.0157375, 0.0262417
-0.0151066, -0.00185192, -0.597245, -8.01533e-05, 0.00376189, -0.000591654, 0.0313261, 0.0309017, 0.0211877, 0.011974, 0.0153318, 0.0260619
-0.0151412, -0.00185796, -0.597308, -0.000253424, 0.00355712, -0.000440221, 0.0313224, 0.0308988, 0.0211141, 0.0112861, 0.014901, 0.0258947
-0.0151851, -0.00185366, -0.597411, -0.000325608, 0.00331666, -0.000344859, 0.0313179, 0.0308957, 0.0210404, 0.0105857, 0.014444, 0.0257415
-0.0152416, -0.00183668, -0.597555, -0.000457646, 0.0030275, -0.00018019, 0.0313129, 0.0308919, 0.0209644, 0.00990588, 0.0139697, 0.0256124
-0.0153236, -0.00180177, -0.597775, -0.000573012, 0.00262183, 2.13281e-05, 0.0313072, 0.0308867, 0.0208825, 0.00926095, 0.0134885, 0.0255026
-0.0154021, -0.001765, -0.597993, -0.000610638, 0.00224725, 0.000181768, 0.0313009, 0.0308796, 0.0207896, 0.00863975, 0.0129871, 0.0254051
-0.015481, -0.00171178, -0.59823, -0.000679154, 0.00189844, 0.00037966, 0.0312939, 0.030869, 0.0206785, 0.00804254, 0.0124688, 0.0253114
-0.015542, -0.00167106, -0.598406, -0.000664492, 0.00164172, 0.000510346, 0.0312863, 0.0308533, 0.0205432, 0.00747378, 0.0119386, 0.0252067
-0.0155852, -0.00165323, -0.59852, -0.00059597, 0.00145455, 0.000580956, 0.0312785, 0.0308308, 0.0203807, 0.00693821, 0.0113978, 0.0250871
-0.0156286, -0.00161881, -0.598649, -0.000549006, 0.00128124, 0.000678521, 0.0312706, 0.0308006, 0.0201933, 0.00644545, 0.0108553, 0.0249527
-0.0156596, -0.00159886, -0.598738, -0.000508181, 0.00116258, 0.000743039, 0.0312629, 0.0307626, 0.0199901, 0.00600832, 0.010324, 0.024805
-0.015686, -0.00157991, -0.598836, -0.000506869, 0.00107241, 0.000791806, 0.0312554, 0.0307158, 0.0197734, 0.00562188, 0.00980945, 0.0246456
-0.0157157, -0.00154292, -0.598979, -0.000531239, 0.000979096, 0.000848177, 0.0312483, 0.0306601, 0.0195479, 0.00528477, 0.00932151, 0.0244756
-0.0157531, -0.00147117, -0.599178, -0.000570337, 0.000879215, 0.000927187, 0.0312413, 0.0305944, 0.0193149, 0.00499171, 0.00886209, 0.0242912
-0.0157866, -0.00140412, -0.599352, -0.000595789, 0.000795427, 0.00099317, 0.0312345, 0.0305183, 0.0190762, 0.00473671, 0.00843175, 0.0240917
-0.0158229, -0.00131715, -0.599597, -0.000674698, 0.000728332, 0.00101917, 0.0312278, 0.0304313, 0.0188337, 0.00451552, 0.00803314, 0.0238791
-0.0158563, -0.00122975, -0.599817, -0.000734521, 0.00067985, 0.00105398, 0.0312212, 0.0303326, 0.0185868, 0.00432519, 0.00767132, 0.0236504
-0.0158619, -0.00124344, -0.599856, -0.000747333, 0.000684753, 0.00102764, 0.0312148, 0.0302229, 0.018337, 0.00415903, 0.00734064, 0.0234084
-0.0158562, -0.00129437, -0.599828, -0.000746414, 0.000719005, 0.000984346, 0.0312087, 0.0301047, 0.0180899, 0.00401116, 0.00703365, 0.0231656
-0.0158492, -0.00135893, -0.599815, -0.000764613, 0.000754839, 0.000900723, 0.031203, 0.029978, 0.0178447, 0.0038787, 0.00674849, 0.0229258
-0.0158283, -0.00149219, -0.599715, -0.000771482, 0.000808659, 0.000788596, 0.0311976, 0.0298435, 0.0176014, 0.00376042, 0.00649075, 0.0226927
-0.0158092, -0.00162835, -0.599613, -0.000774182, 0.000847519, 0.000689917, 0.0311926, 0.0297016, 0.0173601, 0.00365339, 0.00625774, 0.0224695
-0.0157934, -0.00176755, -0.599481, -0.000755955, 0.000853984, 0.000634931, 0.031188, 0.029553, 0.0171209, 0.00355554, 0.00604564, 0.0222496
-0.0157755, -0.00192829, -0.599326, -0.000736699, 0.000856559, 0.000582661, 0.0311837, 0.0293983, 0.0168807, 0.00346384, 0.00585026, 0.0220285
-0.0157594, -0.00208963, -0.599179, -0.000722627, 0.000851572, 0.000523591, 0.0311797, 0.0292388, 0.0166368, 0.00337777, 0.00566994, 0.0218027
-0.0157349, -0.00230823, -0.598942, -0.000694634, 0.000847837, 0.000499793, 0.031176, 0.0290752, 0.0163862, 0.00329663, 0.00550443, 0.0215708
-0.0156984, -0.00262026, -0.598602, -0.000663721, 0.00084733, 0.000476777, 0.0311727, 0.0289093, 0.0161263, 0.0032192, 0.00535323, 0.0213347
-0.0156627, -0.00296343, -0.598193, -0.000621401, 0.000818453, 0.000513586, 0.0311698, 0.0287429, 0.0158546, 0.00314395, 0.00521431, 0.0210924
-0.0156389, -0.00325097, -0.597817, -0.000578354, 0.000763737, 0.00058875, 0.0311674, 0.0285795, 0.015573, 0.00307079, 0.00508552, 0.0208378
-0.0156212, -0.0035163, -0.597412, -0.000527418, 0.00068933, 0.000734915, 0.0311653, 0.0284225, 0.0152839, 0.00299998, 0.00496484, 0.0205649
-0.0156135, -0.00368461, -0.597135, -0.000495475, 0.00062402, 0.000831509, 0.0311636, 0.0282752, 0.0149941, 0.00293187, 0.00485194, 0.0202712
-0.0156091, -0.00380471, -0.596924, -0.0004758, 0.000565403, 0.000889976, 0.0311622, 0.0281397, 0.0147102, 0.00286895, 0.00474849, 0.0199637
-0.0156086, -0.00391554, -0.596632, -0.000438736, 0.000490708, 0.00107145, 0.0311611, 0.0280164, 0.0144356, 0.00281046, 0.00465305, 0.0196401
-0.0156108, -0.00395494, -0.596467, -0.000420296, 0.000436752, 0.00116359, 0.0311602, 0.0279048, 0.014177, 0.00275468, 0.00456418, 0.019291
-0.0156108, -0.00392216, -0.596502, -0.000435818, 0.000429956, 0.00103179, 0.0311596, 0.0278045, 0.0139381, 0.00270384, 0.00448528, 0.0189338
-0.0156111, -0.00400224, -0.596245, -0.000409075, 0.00036981, 0.00122689, 0.0311591, 0.0277125, 0.0137199, 0.0026572, 0.00441545, 0.0185728
-0.0156152, -0.00403235, -0.596072, -0.000391083, 0.000320075, 0.00137745, 0.0311586, 0.0276248, 0.0135273, 0.00261127, 0.00434982, 0.0181787
-0.0156116, -0.00377327, -0.596452, -0.000456328, 0.000410176, 0.000785582, 0.0311582, 0.0275425, 0.013359, 0.00256902, 0.00429168, 0.0177829
-0.0156146, -0.00367138, -0.596497, -0.000467351, 0.000423016, 0.000682429, 0.0311579, 0.0274642, 0.0132088, 0.0025312, 0.00424125, 0.017405
-0.0156187, -0.00362485, -0.596444, -0.000461101, 0.000416866, 0.000743456, 0.0311575, 0.0273837, 0.0130797, 0.0024946, 0.00419127, 0.0170049
-0.0156237, -0.00331494, -0.59675, -0.000520391, 0.000522361, 0.000129917, 0.0311572, 0.0273024, 0.0129671, 0.00245945, 0.0041421, 0.0165932
-0.015634, -0.00303395, -0.597018, -0.000567639, 0.000624889, -0.000394698, 0.0311568, 0.027226, 0.0128637, 0.00242626, 0.00409673, 0.016194
-0.0156376, -0.00290939, -0.597083, -0.000584732, 0.000667508, -0.000592783, 0.0311563, 0.027153, 0.0127695, 0.00239387, 0.00405296, 0.0157941
-0.0156449, -0.00273423, -0.59719, -0.000609818, 0.000730661, -0.000893803, 0.0311558, 0.0270784, 0.0126834, 0.00236094, 0.00400832, 0.0153729
-0.0156577, -0.00251573, -0.597331, -0.000642955, 0.000814626, -0.0013106, 0.0311551, 0.0270089, 0.0126038, 0.00232826, 0.00396687, 0.0149559
-0.015662, -0.00238717, -0.597363, -0.000657312, 0.00085865, -0.00150795, 0.0311542, 0.0269459, 0.0125262, 0.00229515, 0.00392855, 0.0145369
-0.0156615, -0.00230489, -0.597342, -0.000663193, 0.000883297, -0.00160786, 0.0311532, 0.0268869, 0.0124503, 0.00226168, 0.0038916, 0.0141072
-0.0156583, -0.00223117, -0.597294, -0.000666064, 0.000898215, -0.00166074, 0.0311521, 0.0268324, 0.0123741, 0.00222798, 0.00385605, 0.0136666
-0.0156478, -0.00220336, -0.59721, -0.0006593, 0.000892184, -0.001584, 0.0311509, 0.0267819, 0.0122976, 0.00219486, 0.00382072, 0.0132156
-0.0156366, -0.00216747, -0.597113, -0.000655632, 0.000882025, -0.00151686, 0.0311496, 0.0267337, 0.0122212, 0.00216276, 0.0037842, 0.0127502
-0.0156123, -0.00218132, -0.596957, -0.000642805, 0.000846413, -0.00131285, 0.0311482, 0.0266867, 0.0121445, 0.00213214, 0.00374562, 0.0122727
-0.0155898, -0.00220073, -0.596826, -0.000631189, 0.000813896, -0.00111397, 0.0311466, 0.0266374, 0.0120686, 0.00210306, 0.00370194, 0.0117726
-0.015582, -0.00216131, -0.596781, -0.000631373, 0.000812388, -0.00107343, 0.031145, 0.0265861, 0.0119969, 0.00207575, 0.00365406, 0.0112587
-0.0155856, -0.00208659, -0.596784, -0.000639046, 0.000829333, -0.00114045, 0.0311431, 0.026536, 0.0119309, 0.00205055, 0.00360496, 0.0107528
-0.0156066, -0.00195759, -0.596858, -0.000653147, 0.000879874, -0.00136252, 0.0311411, 0.0264895, 0.0118713, 0.00202752, 0.00355725, 0.0102709
-0.0156253, -0.00186389, -0.596921, -0.000661283, 0.00092358, -0.00154164, 0.0311389, 0.0264481, 0.0118181, 0.00200663, 0.00351241, 0.00982448
-0.0156502, -0.00176756, -0.596996, -0.000668024, 0.000973032, -0.00174266, 0.0311366, 0.0264106, 0.0117703, 0.00198709, 0.00347024, 0.00941039
-0.0156754, -0.00168655, -0.597068, -0.000670021, 0.00102409, -0.00193125, 0.0311341, 0.0263774, 0.0117274, 0.00196843, 0.00343183, 0.0090331
-0.0156644, -0.001686, -0.597048, -0.00066606, 0.00103246, -0.00192073, 0.0311314, 0.026346, 0.011689, 0.00194978, 0.00339515, 0.00868444
-0.0156693, -0.00167917, -0.597065, -0.000658855, 0.00105921, -0.0019907, 0.0311288, 0.0263139, 0.0116542, 0.00193005, 0.00335744, 0.00835003
-0.0156908, -0.00164493, -0.597112, -0.000651922, 0.0011005, -0.00213267, 0.0311261, 0.0262834, 0.0116228, 0.0019094, 0.0033218, 0.00804337
-0.0156751, -0.00165659, -0.597078, -0.000647417, 0.00110501, -0.00211619, 0.0311234, 0.0262543, 0.0115943, 0.00188775, 0.00328827, 0.00776573
-0.0156686, -0.00167409, -0.597061, -0.000634569, 0.00112558, -0.00214722, 0.0311209, 0.0262245, 0.0115675, 0.00186445, 0.0032538, 0.00750261
-0.0156978, -0.00168312, -0.597117, -0.000607321, 0.00118331, -0.00232268, 0.0311184, 0.0261953, 0.0115433, 0.00183936, 0.0032213, 0.00726304
-0.0157202, -0.00170466, -0.597153, -0.000581073, 0.00122935, -0.00245787, 0.0311158, 0.0261676, 0.0115221, 0.00181248, 0.00319292, 0.00705418
-0.0157337, -0.0017569, -0.597169, -0.000547512, 0.00127052, -0.00255637, 0.0311131, 0.0261402, 0.0115031, 0.00178327, 0.00316724, 0.00686865
-0.0157664, -0.00185901, -0.597204, -0.000490824, 0.00132689, -0.00269174, 0.0311103, 0.0261125, 0.0114869, 0.0017501, 0.0031442, 0.00670194
-0.0157835, -0.00196384, -0.597202, -0.000444046, 0.00135739, -0.00275359, 0.0311073, 0.0260843, 0.0114733, 0.0017119, 0.00312384, 0.00655198
-0.0157645, -0.0020583, -0.59714, -0.000409352, 0.00136007, -0.0027133, 0.0311043, 0.0260567, 0.0114602, 0.00166914, 0.00310412, 0.00641044
-0.0157615, -0.00217284, -0.597078, -0.000361112, 0.00136752, -0.00269624, 0.0311015, 0.0260302, 0.0114462, 0.00162199, 0.00308419, 0.00627215
-0.0157511, -0.0022685, -0.597001, -0.000318563, 0.00136607, -0.00265216, 0.0310987, 0.0260052, 0.0114303, 0.00157165, 0.00306486, 0.00614029
-0.0157212, -0.00236619, -0.596882, -0.000282214, 0.00134576, -0.00256281, 0.0310961, 0.0259819, 0.0114111, 0.00151939, 0.00304571, 0.00601325
-0.0156894, -0.00244631, -0.596747, -0.000246876, 0.0013236, -0.00246579, 0.0310937, 0.0259597, 0.0113869, 0.0014667, 0.0030259, 0.005888
-0.0156715, -0.00251284, -0.596619, -0.000204237, 0.00130942, -0.00240214, 0.0310916, 0.0259389, 0.011358, 0.00141456, 0.00300666, 0.00576929
-0.015641, -0.00255784, -0.596467, -0.000171358, 0.00128505, -0.00231384, 0.0310896, 0.0259194, 0.0113242, 0.00136398, 0.00298809, 0.00565818
-0.0156213, -0.00258179, -0.596334, -0.000138919, 0.0012683, -0.00227131, 0.0310878, 0.0259009, 0.011285, 0.00131643, 0.00297005, 0.0055556
-0.0156085, -0.00259656, -0.596217, -0.00010122, 0.00125822, -0.00224425, 0.0310861, 0.0258828, 0.0112415, 0.00127201, 0.00295342, 0.00546545
-0.0155834, -0.00258597, -0.596079, -7.48963e-05, 0.00123699, -0.0021921, 0.0310844, 0.0258635, 0.0111937, 0.00123036, 0.00293791, 0.0053863
-0.0155561, -0.00255393, -0.595944, -5.98998e-05, 0.00121189, -0.00214543, 0.0310826, 0.0258419, 0.0111397, 0.0011921, 0.00292288, 0.00531623
-0.0155289, -0.00250106, -0.595803, -4.34683e-05, 0.0011878, -0.0021025, 0.0310809, 0.025816, 0.0110783, 0.00115732, 0.00290823, 0.00525504
-0.0154924, -0.00240445, -0.59562, -2.34849e-05, 0.00115902, -0.00204602, 0.0310791, 0.0257841, 0.011009, 0.00112527, 0.00289379, 0.00520068
-0.0154476, -0.00226118, -0.595398, -8.38778e-06, 0.00112453, -0.00197551, 0.0310773, 0.0257446, 0.0109301, 0.00109564, 0.00287925, 0.0051512
-0.0154093, -0.00211448, -0.595192, 1.38181e-05, 0.00109483, -0.00191494, 0.0310755, 0.0256968, 0.0108402, 0.00106815, 0.00286441, 0.00510487
-0.0153664, -0.00192299, -0.594957, 4.28599e-05, 0.00106255, -0.00184957, 0.0310737, 0.0256396, 0.0107411, 0.0010413, 0.00284958, 0.00506121
-0.0153226, -0.00171253, -0.594668, 7.38608e-05, 0.00101278, -0.00175886, 0.0310719, 0.0255732, 0.010632, 0.0010148, 0.00283454, 0.00501882
-0.0152826, -0.00148826, -0.594421, 0.0001027, 0.000976941, -0.00168438, 0.0310701, 0.0254973, 0.0105125, 0.000988465, 0.00281918, 0.00497739
-0.0152414, -0.00124126, -0.594154, 0.000128285, 0.000935386, -0.00160403, 0.0310683, 0.0254111, 0.010383, 0.000962508, 0.00280354, 0.00493702
-0.015206, -0.00101234, -0.593916, 0.000148756, 0.000897372, -0.00153715, 0.0310666, 0.0253139, 0.0102434, 0.000937278, 0.00278759, 0.00489819
-0.0151693, -0.000758576, -0.593667, 0.000166075, 0.000860144, -0.0014689, 0.0310649, 0.0252042, 0.0100947, 0.000913243, 0.0027715, 0.00486207
-0.0151337, -0.00049579, -0.593419, 0.000184339, 0.000822041, -0.00140014, 0.0310632, 0.0250821, 0.00993772, 0.000890352, 0.00275527, 0.00482856
-0.0150955, -0.000215995, -0.593151, 0.000195831, 0.000782231, -0.00132903, 0.0310615, 0.0249477, 0.00977334, 0.000868932, 0.00273895, 0.00479792
-0.0150588, 6.3804e-05, -0.592875, 0.000206024, 0.000742615, -0.00125488, 0.0310599, 0.0248036, 0.00960058, 0.000849556, 0.00272254, 0.00476979
-0.0150326, 0.000273716, -0.592663, 0.00022023, 0.000704003, -0.00119176, 0.0310584, 0.0246523, 0.0094228, 0.000831643, 0.00270599, 0.00474366
-0.0150036, 0.000496962, -0.592436, 0.000230882, 0.000667119, -0.00112612, 0.031057, 0.0244959, 0.00924347, 0.000814825, 0.00268928, 0.00471924
-0.014976, 0.000681396, -0.592225, 0.000240266, 0.000629053, -0.0010615, 0.0310556, 0.02434, 0.00906381, 0.000799347, 0.00267237, 0.00469582
-0.0149519, 0.000807918, -0.592047, 0.00024732, 0.000592599, -0.000999519, 0.0310542, 0.0241881, 0.00888749, 0.000784989, 0.00265524, 0.00467329
-0.0149215, 0.000915339, -0.591857, 0.000252564, 0.000556272, -0.00092938, 0.0310528, 0.0240445, 0.00871649, 0.000771897, 0.00263781, 0.00465125
-0.0148971, 0.000915513, -0.591728, 0.000256191, 0.000518519, -0.000862835, 0.0310515, 0.0239122, 0.00855293, 0.000760199, 0.00262003, 0.00462945
-0.0148691, 0.000905071, -0.591598, 0.000260373, 0.000481128, -0.000794072, 0.0310502, 0.0237924, 0.0083995, 0.00074958, 0.00260187, 0.00460828
-0.0148396, 0.000837399, -0.59149, 0.000262338, 0.000446194, -0.000727933, 0.0310488, 0.0236873, 0.00825706, 0.00073998, 0.00258321, 0.00458715
-0.0148341, 0.000617654, -0.591522, 0.000260185, 0.000413769, -0.000687261, 0.0310475, 0.023592, 0.00812574, 0.000731339, 0.002564, 0.0045674
-0.0148073, 0.000496934, -0.591461, 0.000260288, 0.000383951, -0.000634837, 0.031046, 0.0235029, 0.00800476, 0.00072345, 0.0025441, 0.00454943
-0.0147642, 0.000405941, -0.591345, 0.00026204, 0.000354722, -0.00057102, 0.0310445, 0.0234277, 0.00789519, 0.000716373, 0.0025235, 0.00453112
-0.0147541, 0.000177162, -0.591373, 0.000261722, 0.000322841, -0.000524461, 0.031043, 0.0233644, 0.00779656, 0.000709876, 0.00250185, 0.00451227
-0.0147411, -2.54373e-05, -0.591393, 0.00026045, 0.000296433, -0.000486968, 0.0310414, 0.0233055, 0.00770742, 0.000703751, 0.00247917, 0.0044941
-0.0146982, -0.000137763, -0.591309, 0.00026096, 0.000276879, -0.000441806, 0.0310398, 0.0232542, 0.00762745, 0.000697963, 0.00245529, 0.0044753
-0.0146729, -0.000292147, -0.591284, 0.000261959, 0.000252097, -0.000399454, 0.0310382, 0.0232125, 0.00755754, 0.000692417, 0.00243031, 0.00445515
-0.0146663, -0.00048515, -0.591326, 0.00026076, 0.000226893, -0.000367824, 0.0310365, 0.0231735, 0.00749388, 0.00068685, 0.00240353, 0.00443349
-0.0146597, -0.000654033, -0.591356, 0.00025953, 0.00020415, -0.000339953, 0.0310346, 0.023131, 0.00743286, 0.000681017, 0.00237411, 0.00440927
-0.0146407, -0.000749783, -0.591342, 0.000257611, 0.000191329, -0.000322927, 0.0310326, 0.0230862, 0.00737499, 0.000674928, 0.00234225, 0.00438185
-0.0146398, -0.000884336, -0.59137, 0.000256082, 0.000172189, -0.000301939, 0.0310305, 0.0230374, 0.00731926, 0.000668513, 0.00230772, 0.00435053
-0.014635, -0.000985776, -0.59138, 0.000253471, 0.000157361, -0.000288823, 0.0310281, 0.0229799, 0.00726329, 0.000661517, 0.00226977, 0.0043138
-0.0146101, -0.000994116, -0.591335, 0.000251091, 0.000153024, -0.000286981, 0.0310255, 0.0229179, 0.00720904, 0.000654117, 0.00222912, 0.00427232
-0.0145852, -0.000989453, -0.591291, 0.000250419, 0.000147323, -0.000281311, 0.0310229, 0.0228531, 0.00715852, 0.00064648, 0.0021868, 0.0042272
-0.0145605, -0.000959018, -0.591248, 0.000248831, 0.000142336, -0.000280444, 0.0310202, 0.0227815, 0.00711088, 0.000638547, 0.00214286, 0.00417811
-0.0145382, -0.000904068, -0.591208, 0.000246889, 0.000137594, -0.000282622, 0.0310173, 0.0227002, 0.0070649, 0.000630308, 0.0020971, 0.00412468
-0.0145217, -0.00083747, -0.591175, 0.000245053, 0.000131315, -0.000284214, 0.0310143, 0.0226048, 0.00701858, 0.000621652, 0.00204918, 0.00406607
-0.014514, -0.000747916, -0.591149, 0.000242425, 0.000123152, -0.000287053, 0.0310109, 0.0224908, 0.00696974, 0.000612427, 0.00199872, 0.0040012
-0.0144884, -0.00056303, -0.591084, 0.000237299, 0.000128408, -0.000312933, 0.0310074, 0.0223592, 0.00691788, 0.000602703, 0.0019459, 0.00393029
-0.0144575, -0.000346263, -0.59101, 0.000232064, 0.000137192, -0.000343916, 0.0310037, 0.0222133, 0.00686503, 0.000592926, 0.00189224, 0.00385614
-0.0144409, -7.56967e-05, -0.590941, 0.000225297, 0.000144243, -0.000378013, 0.0309998, 0.0220526, 0.0068105, 0.000583068, 0.00183776, 0.00377865
-0.0144351, 0.00022011, -0.590872, 0.000218225, 0.000145482, -0.000407636, 0.0309957, 0.0218818, 0.00675281, 0.000572887, 0.00178162, 0.00369642
-0.01442, 0.000534787, -0.59079, 0.000211129, 0.000150542, -0.000442256, 0.0309913, 0.0217038, 0.00669265, 0.000562489, 0.00172438, 0.00361038
-0.0143974, 0.000883238, -0.590694, 0.000203393, 0.000160325, -0.000484878, 0.0309867, 0.0215181, 0.00663104, 0.000552104, 0.00166705, 0.00352231
-0.0143954, 0.00119614, -0.590622, 0.000197605, 0.000157215, -0.000505904, 0.0309819, 0.0213255, 0.00656816, 0.000541801, 0.00161011, 0.00343301
-0.0144128, 0.00152941, -0.590555, 0.000191167, 0.00014858, -0.000520201, 0.0309768, 0.0211264, 0.00650173, 0.000531106, 0.0015524, 0.00333975
-0.0144454, 0.0018343, -0.590499, 0.000184309, 0.000138465, -0.000529973, 0.0309713, 0.0209245, 0.00643069, 0.0005197, 0.00149337, 0.00324109
-0.0144813, 0.00211352, -0.590444, 0.000176032, 0.000130446, -0.00054209, 0.0309656, 0.020723, 0.006355, 0.000507484, 0.00143307, 0.00313692
-0.0145346, 0.00231193, -0.590411, 0.000167412, 0.00011782, -0.000542526, 0.0309598, 0.0205271, 0.00627568, 0.000494457, 0.00137201, 0.00302817
-0.0146114, 0.0023488, -0.59042, 0.000159243, 9.98683e-05, -0.000524442, 0.0309539, 0.0203367, 0.0061921, 0.000480308, 0.00131006, 0.00291401
-0.0146776, 0.00231375, -0.590433, 0.000149202, 8.96432e-05, -0.000515811, 0.0309481, 0.0201494, 0.00610523, 0.000465194, 0.00124832, 0.00279641
-0.0147162, 0.00227966, -0.590433, 0.00013825, 8.89368e-05, -0.000522885, 0.0309424, 0.0199668, 0.00601872, 0.000449992, 0.00118911, 0.00268094
-0.0147379, 0.00224179, -0.59043, 0.000126563, 9.23809e-05, -0.000536749, 0.030937, 0.0197901, 0.0059351, 0.00043535, 0.00113382, 0.0025714
-0.0147207, 0.00233347, -0.590379, 0.000111417, 0.00011069, -0.000584808, 0.0309318, 0.0196223, 0.005856, 0.000421595, 0.00108291, 0.00246963
-0.0146799, 0.00249935, -0.590306, 9.53921e-05, 0.000135611, -0.000648, 0.0309267, 0.0194681, 0.0057833, 0.00040911, 0.00103662, 0.00237734
-0.0146264, 0.00263061, -0.590244, 7.84522e-05, 0.000156125, -0.000703247, 0.0309217, 0.0193297, 0.00571734, 0.000397855, 0.000994504, 0.00229413
-0.0145618, 0.00274581, -0.590191, 6.0328e-05, 0.000177029, -0.000758062, 0.0309166, 0.0192069, 0.0056572, 0.000387475, 0.000955753, 0.00221824
-0.014492, 0.00281031, -0.590156, 4.3205e-05, 0.000193395, -0.000801242, 0.0309113, 0.0190991, 0.00560241, 0.000377817, 0.000919952, 0.00214886
-0.0144122, 0.0028149, -0.590141, 2.66986e-05, 0.000204038, -0.000831358, 0.0309057, 0.0190037, 0.00555211, 0.000368689, 0.000886693, 0.00208496
-0.0143142, 0.00277858, -0.590137, 8.21082e-06, 0.000214745, -0.000860292, 0.0308998, 0.0189197, 0.00550577, 0.000359943, 0.00085571, 0.00202586
-0.0142103, 0.00272834, -0.590136, -8.55962e-06, 0.000224237, -0.000885617, 0.0308936, 0.0188462, 0.00546308, 0.000351527, 0.000826774, 0.00197118
-0.0141068, 0.00271415, -0.590125, -2.22901e-05, 0.000233808, -0.000911698, 0.0308869, 0.0187789, 0.00542349, 0.000343505, 0.000799773, 0.00192071
-0.0139764, 0.00265311, -0.590133, -3.82045e-05, 0.00024178, -0.00093305, 0.0308794, 0.0187172, 0.0053868, 0.000335886, 0.000774547, 0.00187421
-0.0138525, 0.00258259, -0.590144, -5.15691e-05, 0.000247297, -0.000948515, 0.0308712, 0.0186598, 0.00535223, 0.000328505, 0.000750839, 0.001831
-0.0137255, 0.00255085, -0.590143, -6.33766e-05, 0.000254086, -0.000968148, 0.030862, 0.0186046, 0.00531947, 0.000321395, 0.000728533, 0.00179093
-0.0135578, 0.00246116, -0.590162, -7.82529e-05, 0.000260205, -0.000985206, 0.0308517, 0.018551, 0.00528815, 0.00031448, 0.000707479, 0.00175372
-0.0133755, 0.00233424, -0.590191, -9.34818e-05, 0.00026611, -0.00100029, 0.0308406, 0.018499, 0.00525798, 0.00030768, 0.00068761, 0.00171921
-0.0131976, 0.00220963, -0.590219, -0.000106993, 0.000271066, -0.00101334, 0.0308285, 0.0184503, 0.00522936, 0.000301056, 0.000668848, 0.00168749
-0.0130215, 0.00206359, -0.590255, -0.000119172, 0.0002719, -0.00101763, 0.0308152, 0.0184043, 0.0052023, 0.000294576, 0.000651106, 0.00165831
-0.0128276, 0.00188428, -0.590303, -0.000132093, 0.000270947, -0.00101773, 0.0308005, 0.0183605, 0.00517665, 0.000288201, 0.000634323, 0.00163141
-0.0126105, 0.00162491, -0.590377, -0.000146895, 0.00026808, -0.00101074, 0.0307848, 0.0183174, 0.00515191, 0.000281905, 0.000618477, 0.00160655
-0.0123571, 0.00127138, -0.590476, -0.000164267, 0.000266515, -0.00100252, 0.0307687, 0.0182724, 0.00512736, 0.00027569, 0.00060357, 0.00158355
-0.012142, 0.000980407, -0.590552, -0.000177682, 0.000265805, -0.000997649, 0.0307521, 0.018225, 0.00510295, 0.000269635, 0.000589555, 0.00156235
-0.0119413, 0.000757165, -0.590606, -0.000188743, 0.000265953, -0.000997445, 0.0307343, 0.0181795, 0.00507953, 0.000263838, 0.00057629, 0.00154294
-0.0117368, 0.000585763, -0.590646, -0.000198699, 0.000267783, -0.00100314, 0.030715, 0.0181387, 0.00505771, 0.000258355, 0.000563682, 0.0015253
-0.0115336, 0.000423903, -0.590687, -0.000207855, 0.000267937, -0.00100525, 0.0306939, 0.018104, 0.00503787, 0.000253226, 0.00055166, 0.00150947
-0.0113635, 0.00030553, -0.590718, -0.000214831, 0.000266384, -0.00100479, 0.0306709, 0.0180738, 0.00501977, 0.000248369, 0.000540181, 0.00149525
-0.0111802, 0.000213218, -0.590741, -0.000221419, 0.000265847, -0.00100823, 0.0306455, 0.018048, 0.00500337, 0.000243729, 0.000529175, 0.00148249
-0.0109674, 9.87416e-05, -0.590776, -0.00022933, 0.00026533, -0.00101055, 0.0306178, 0.0180252, 0.00498835, 0.00023932, 0.000518605, 0.00147116
-0.0107548, 7.07855e-06, -0.590801, -0.000236139, 0.000265568, -0.00101581, 0.0305882, 0.0180031, 0.00497417, 0.000235132, 0.000508473, 0.00146115
-0.010531, -8.91021e-05, -0.590829, -0.00024294, 0.000265796, -0.00102062, 0.0305564, 0.0179814, 0.00496075, 0.000231179, 0.00049874, 0.00145243
-0.0103411, -0.000156306, -0.590846, -0.000247887, 0.000265862, -0.00102554, 0.0305225, 0.0179592, 0.00494784, 0.000227435, 0.000489399, 0.00144487
-0.0101602, -0.000212902, -0.590865, -0.000252712, 0.000263915, -0.00102694, 0.0304862, 0.0179364, 0.00493527, 0.000223826, 0.000480409, 0.00143828
-0.0099898, -0.000270818, -0.590886, -0.000257481, 0.000261617, -0.0010268, 0.030448, 0.0179114, 0.00492268, 0.000220345, 0.000471812, 0.00143255
-0.00986411, -0.000293557, -0.590895, -0.000260576, 0.000258015, -0.00102548, 0.030408, 0.0178838, 0.00490986, 0.00021695, 0.000463591, 0.00142757
-0.00974814, -0.00030751, -0.590902, -0.000263788, 0.000253083, -0.00102231, 0.0303662, 0.0178544, 0.00489681, 0.000213598, 0.000455722, 0.00142317
-0.00963668, -0.000326185, -0.590909, -0.000266443, 0.000249578, -0.00102114, 0.0303229, 0.0178227, 0.00488335, 0.000210294, 0.000448206, 0.00141926
-0.00952389, -0.000347765, -0.590917, -0.000269369, 0.000245777, -0.00101955, 0.0302785, 0.0177886, 0.00486942, 0.000207053, 0.000441028, 0.0014158
-0.00944577, -0.000358208, -0.590922, -0.000271677, 0.000241837, -0.00101717, 0.0302336, 0.0177507, 0.0048548, 0.000203901, 0.000434214, 0.00141271
-0.00937361, -0.000353333, -0.590919, -0.000273049, 0.000238136, -0.00101606, 0.0301885, 0.0177092, 0.00483954, 0.000200834, 0.000427741, 0.0014099
-0.00933846, -0.000306019, -0.590903, -0.000273212, 0.000234193, -0.00101563, 0.0301432, 0.0176651, 0.00482385, 0.000197839, 0.000421582, 0.00140731
-0.00934357, -0.000225581, -0.590878, -0.000272624, 0.000229044, -0.0010139, 0.0300975, 0.0176201, 0.00480807, 0.000194878, 0.000415694, 0.00140486
-0.00935316, -0.000166146, -0.590861, -0.000272702, 0.000224074, -0.00101145, 0.0300515, 0.017573, 0.00479219, 0.000191955, 0.000410079, 0.00140246
-0.0093749, -5.38763e-05, -0.590828, -0.000271168, 0.000220069, -0.00101192, 0.0300052, 0.0175239, 0.00477632, 0.00018909, 0.000404727, 0.00140013
-0.00937702, 6.2171e-05, -0.590793, -0.000269302, 0.000217843, -0.00101487, 0.0299582, 0.017475, 0.00476094, 0.000186293, 0.000399618, 0.00139791
-0.00937275, 0.000177088, -0.59076, -0.000267499, 0.000215729, -0.00101804, 0.0299101, 0.0174273, 0.00474624, 0.000183595, 0.000394752, 0.0013959
-0.0094146, 0.00031643, -0.590721, -0.000265317, 0.000212032, -0.00101952, 0.0298609, 0.0173808, 0.00473228, 0.000180995, 0.000390127, 0.00139407
-0.00944394, 0.000468975, -0.590678, -0.000262874, 0.000208412, -0.00102196, 0.0298102, 0.0173359, 0.0047192, 0.000178467, 0.000385722, 0.00139239
-0.00943437, 0.000644942, -0.590629, -0.000259597, 0.000206557, -0.00102732, 0.0297575, 0.0172945, 0.00470727, 0.000176007, 0.000381527, 0.0013909
-0.00950461, 0.000823557, -0.59058, -0.000256034, 0.000203147, -0.00102995, 0.0297024, 0.017258, 0.00469668, 0.000173592, 0.000377522, 0.00138961
-0.0096392, 0.000968626, -0.590537, -0.000253399, 0.000197634, -0.00102965, 0.0296447, 0.0172242, 0.00468726, 0.000171191, 0.000373684, 0.00138835
-0.00975339, 0.00107643, -0.590504, -0.000251567, 0.000192765, -0.00102949, 0.0295849, 0.0171908, 0.00467873, 0.00016884, 0.000370021, 0.00138707
-0.0098281, 0.0011936, -0.590472, -0.000249247, 0.000189662, -0.00103129, 0.0295233, 0.0171572, 0.00467094, 0.000166576, 0.000366539, 0.00138577
-0.00982242, 0.00132282, -0.590439, -0.000246626, 0.000188169, -0.00103532, 0.0294598, 0.0171254, 0.00466407, 0.000164399, 0.000363229, 0.00138453
-0.00982165, 0.00142999, -0.590412, -0.000244499, 0.000186611, -0.00103892, 0.029395, 0.0170961, 0.00465802, 0.000162342, 0.0003601, 0.00138342
-0.00978489, 0.00155013, -0.590384, -0.000242165, 0.000185002, -0.00104345, 0.0293285, 0.0170687, 0.00465263, 0.000160397, 0.000357139, 0.0013824
-0.00966789, 0.00167579, -0.590357, -0.00023953, 0.000184765, -0.00104872, 0.0292608, 0.0170448, 0.00464789, 0.000158575, 0.000354357, 0.00138152
-0.00968328, 0.00176913, -0.590333, -0.00023724, 0.000182538, -0.00105229, 0.0291917, 0.017024, 0.00464361, 0.000156857, 0.000351737, 0.00138071
-0.00969427, 0.00186396, -0.590308, -0.000234255, 0.000180932, -0.00105598, 0.02912, 0.0170045, 0.00463972, 0.000155195, 0.000349242, 0.00137991
-0.00961983, 0.00196503, -0.590286, -0.000230734, 0.00017985, -0.00106005, 0.0290457, 0.0169868, 0.00463615, 0.000153569, 0.000346866, 0.0013791
-0.00959551, 0.0020308, -0.59027, -0.000227571, 0.000178619, -0.00106312, 0.0289692, 0.0169703, 0.0046327, 0.000151983, 0.000344608, 0.00137823
-0.00959923, 0.00207121, -0.590258, -0.000224532, 0.000177141, -0.00106571, 0.0288904, 0.0169534, 0.00462927, 0.000150427, 0.000342454, 0.00137726
-0.00963257, 0.00208981, -0.590249, -0.00022222, 0.000175631, -0.00106827, 0.0288093, 0.0169354, 0.00462578, 0.000148907, 0.000340394, 0.00137622
-0.0095486, 0.00212935, -0.590243, -0.000220508, 0.000174691, -0.00107115, 0.0287272, 0.0169167, 0.00462216, 0.000147463, 0.000338437, 0.0013751
-0.0093442, 0.0021784, -0.590241, -0.000219057, 0.000174188, -0.00107271, 0.0286465, 0.0168986, 0.00461811, 0.000146155, 0.00033661, 0.00137381
-0.00921798, 0.00220635, -0.590239, -0.000217632, 0.000173206, -0.00107494, 0.0285678, 0.0168806, 0.00461346, 0.000144984, 0.000334898, 0.00137223
-0.00906, 0.00222003, -0.590242, -0.00021607, 0.000172405, -0.00107606, 0.0284908, 0.0168617, 0.00460817, 0.000143928, 0.000333278, 0.00137034
-0.008918, 0.00220718, -0.59025, -0.000213946, 0.000171442, -0.00107763, 0.0284156, 0.0168404, 0.00460206, 0.000142969, 0.000331733, 0.00136807
-0.00882267, 0.00216966, -0.59026, -0.000211607, 0.000170479, -0.00108043, 0.028341, 0.0168161, 0.00459513, 0.00014207, 0.000330243, 0.00136548
-0.00886124, 0.00209587, -0.590272, -0.000208935, 0.000170017, -0.00108666, 0.0282654, 0.0167895, 0.00458757, 0.000141195, 0.000328796, 0.00136275
-0.00886056, 0.00198581, -0.590295, -0.000205921, 0.000169724, -0.00109133, 0.0281864, 0.0167614, 0.00457959, 0.000140296, 0.000327383, 0.00136008
-0.00876008, 0.00186459, -0.590326, -0.000202914, 0.000169197, -0.0010928, 0.028105, 0.0167307, 0.00457085, 0.000139388, 0.000326005, 0.00135732
-0.00870871, 0.00173607, -0.590356, -0.000200118, 0.000168711, -0.00109549, 0.0280224, 0.0166979, 0.00456131, 0.000138488, 0.000324659, 0.00135434
-0.00866651, 0.00162572, -0.590383, -0.000197725, 0.000168303, -0.00109827, 0.0279381, 0.0166651, 0.00455136, 0.000137586, 0.000323343, 0.00135124
-0.00857763, 0.00155099, -0.590404, -0.000195906, 0.000167737, -0.00110014, 0.0278545, 0.0166339, 0.00454116, 0.000136721, 0.000322046, 0.00134788
-0.00846624, 0.00148179, -0.590426, -0.000194091, 0.000167247, -0.00110228, 0.0277726, 0.0166043, 0.00453081, 0.000135908, 0.000320757, 0.0013442
-0.00831397, 0.00142726, -0.590447, -0.00019269, 0.000166638, -0.00110241, 0.0276934, 0.0165752, 0.00452022, 0.000135162, 0.000319462, 0.00134006
-0.00823656, 0.00138374, -0.590464, -0.000190951, 0.000167001, -0.00110871, 0.0276171, 0.0165459, 0.00450941, 0.000134481, 0.000318146, 0.00133543
-0.00818578, 0.00133332, -0.590484, -0.000188503, 0.000168699, -0.00111915, 0.0275407, 0.0165186, 0.00449885, 0.000133813, 0.000316838, 0.00133073
-0.00811202, 0.00129611, -0.590503, -0.000186195, 0.000170088, -0.00113009, 0.027463, 0.0164939, 0.00448863, 0.00013314, 0.00031555, 0.00132606
-0.00806143, 0.00126232, -0.590524, -0.000183369, 0.000172481, -0.00114473, 0.0273833, 0.0164725, 0.00447895, 0.000132455, 0.000314285, 0.00132153
-0.00795452, 0.00120789, -0.590555, -0.000180083, 0.000175093, -0.00115829, 0.0273, 0.0164549, 0.00446998, 0.000131732, 0.000313063, 0.00131734
-0.00781571, 0.00114568, -0.59059, -0.000176884, 0.00017755, -0.00116865, 0.0272133, 0.0164397, 0.00446154, 0.000130974, 0.000311886, 0.00131344
-0.00767477, 0.00110373, -0.59062, -0.00017411, 0.000179538, -0.00117815, 0.0271242, 0.0164267, 0.00445376, 0.0001302, 0.000310738, 0.00130975
-0.00749967, 0.00108351, -0.590647, -0.000171547, 0.000181254, -0.00118719, 0.0270337, 0.0164153, 0.00444673, 0.000129427, 0.000309605, 0.00130615
-0.0073044, 0.00107282, -0.590678, -0.000168581, 0.000183644, -0.00119834, 0.0269423, 0.0164051, 0.00444052, 0.00012866, 0.000308486, 0.00130262
-0.00704141, 0.00108926, -0.590706, -0.000165949, 0.000185278, -0.00120714, 0.0268495, 0.0163952, 0.00443516, 0.000127884, 0.000307392, 0.00129924
-0.00674772, 0.00112374, -0.590732, -0.000163663, 0.000186772, -0.00121282, 0.0267585, 0.0163852, 0.00443048, 0.00012714, 0.000306306, 0.00129575
-0.00643965, 0.00117902, -0.590759, -0.000160638, 0.000189263, -0.00122442, 0.0266692, 0.0163745, 0.00442643, 0.000126419, 0.000305238, 0.00129216
-0.00608113, 0.00125355, -0.590785, -0.000157909, 0.000191244, -0.00123212, 0.0265811, 0.0163623, 0.00442299, 0.000125701, 0.000304201, 0.0012886
-0.00566158, 0.00136027, -0.590811, -0.000155003, 0.000193205, -0.00123984, 0.0264963, 0.0163489, 0.00442003, 0.00012501, 0.000303187, 0.00128487
-0.00520907, 0.00148877, -0.590837, -0.000151587, 0.000195705, -0.00124929, 0.0264143, 0.016334, 0.0044174, 0.000124326, 0.000302214, 0.00128105
-0.00475638, 0.00162681, -0.590862, -0.000148155, 0.000197999, -0.00125864, 0.0263348, 0.0163173, 0.00441503, 0.000123636, 0.000301293, 0.00127726
-0.00431201, 0.00177334, -0.590886, -0.000144545, 0.00020031, -0.00126894, 0.0262572, 0.0162981, 0.00441286, 0.000122934, 0.000300422, 0.00127357
-0.00384762, 0.00193468, -0.590907, -0.000141126, 0.000202021, -0.00127523, 0.0261817, 0.0162758, 0.00441084, 0.000122216, 0.000299596, 0.00126996
-0.0034084, 0.00209554, -0.590927, -0.000137762, 0.000203568, -0.00128199, 0.0261095, 0.0162514, 0.00440893, 0.000121498, 0.000298807, 0.00126629
-0.00301314, 0.00224886, -0.590946, -0.000134329, 0.000205383, -0.00129069, 0.0260398, 0.0162227, 0.00440713, 0.000120769, 0.000298049, 0.00126269
-0.00264166, 0.00240884, -0.590962, -0.000131043, 0.00020703, -0.00129865, 0.0259725, 0.0161877, 0.00440537, 0.000120022, 0.000297316, 0.00125925
-0.00228803, 0.00258038, -0.590973, -0.000127885, 0.000208455, -0.00130677, 0.0259081, 0.0161459, 0.0044036, 0.000119263, 0.0002966, 0.00125593
-0.0019846, 0.0027489, -0.590981, -0.000125049, 0.0002097, -0.00131558, 0.025847, 0.0160953, 0.00440174, 0.000118499, 0.000295888, 0.00125273
-0.00166631, 0.00296817, -0.590979, -0.000122255, 0.000210926, -0.00132281, 0.0257899, 0.0160359, 0.00439973, 0.000117738, 0.000295175, 0.00124954
-0.0013819, 0.00319257, -0.590974, -0.00011958, 0.000212183, -0.0013313, 0.0257377, 0.0159688, 0.00439749, 0.000116984, 0.000294463, 0.00124628
-0.00112718, 0.0034249, -0.590963, -0.000117167, 0.00021314, -0.00134059, 0.02569, 0.0158921, 0.00439481, 0.000116238, 0.000293745, 0.00124297
-0.00089667, 0.00366848, -0.590949, -0.000114837, 0.000214218, -0.00135058, 0.0256469, 0.0158055, 0.00439151, 0.000115503, 0.000293018, 0.00123957
-0.000678175, 0.00393073, -0.590929, -0.000112672, 0.000215174, -0.00136045, 0.0256083, 0.0157102, 0.00438755, 0.000114785, 0.000292287, 0.00123606
-0.000464881, 0.0042206, -0.590905, -0.000110324, 0.000216316, -0.00137272, 0.0255739, 0.0156074, 0.00438287, 0.000114082, 0.000291555, 0.00123245
-0.000264769, 0.0045154, -0.590878, -0.000108159, 0.000217155, -0.00138397, 0.0255433, 0.015497, 0.0043774, 0.000113389, 0.00029082, 0.00122887
-9.305e-05, 0.00478572, -0.590851, -0.00010626, 0.000217819, -0.0013933, 0.0255165, 0.0153828, 0.00437136, 0.000112716, 0.00029009, 0.00122517
6.8663e-05, 0.00506621, -0.590822, -0.000104357, 0.000218493, -0.00140334, 0.025493, 0.015266, 0.00436479, 0.000112063, 0.000289365, 0.00122142
0.000219924, 0.00534317, -0.590792, -0.000102533, 0.00021903, -0.00141282, 0.0254724, 0.0151478, 0.00435779, 0.00011143, 0.000288644, 0.00121767
0.000368614, 0.0056214, -0.590761, -0.000100733, 0.000219501, -0.00141918, 0.0254542, 0.0150325, 0.00435068, 0.000110813, 0.000287941, 0.0012139
0.000494309, 0.00586431, -0.590734, -9.91956e-05, 0.000219575, -0.00142904, 0.0254381, 0.0149217, 0.00434363, 0.000110214, 0.000287261, 0.00121011
0.000593413, 0.00605304, -0.590716, -9.79722e-05, 0.000219366, -0.00144054, 0.0254234, 0.0148123, 0.00433642, 0.000109634, 0.000286582, 0.00120661
0.000684879, 0.00620655, -0.590703, -9.69346e-05, 0.000218923, -0.00144884, 0.0254097, 0.0147025, 0.00432889, 0.000109083, 0.000285889, 0.00120347
0.00077718, 0.00637316, -0.590684, -9.58218e-05, 0.000218773, -0.00145094, 0.0253967, 0.0145963, 0.0043214, 0.000108566, 0.000285203, 0.00120045
0.000868583, 0.00651962, -0.59067, -9.48067e-05, 0.000218429, -0.00145513, 0.025384, 0.014497, 0.00431422, 0.000108077, 0.000284541, 0.00119744
0.00096536, 0.00662735, -0.590666, -9.40075e-05, 0.000217614, -0.0014621, 0.0253714, 0.0144011, 0.00430706, 0.000107618, 0.000283876, 0.00119471
0.00106404, 0.00678281, -0.590651, -9.28803e-05, 0.000217253, -0.00146533, 0.0253585, 0.0143097, 0.00429997, 0.000107184, 0.000283211, 0.00119228
0.00117602, 0.00694049, -0.590638, -9.1682e-05, 0.000216657, -0.00146918, 0.0253453, 0.0142269, 0.0042933, 0.000106761, 0.000282565, 0.00119008
0.00132249, 0.00697149, -0.590656, -9.10004e-05, 0.000214673, -0.00147888, 0.0253314, 0.0141481, 0.00428652, 0.000106351, 0.000281903, 0.00118834
0.00145018, 0.00695899, -0.590678, -9.03727e-05, 0.000212582, -0.00148359, 0.0253165, 0.0140654, 0.00427874, 0.000105965, 0.000281166, 0.00118717
0.00157123, 0.00702234, -0.590685, -8.93112e-05, 0.00021124, -0.0014851, 0.0253002, 0.0139833, 0.00427037, 0.000105596, 0.000280387, 0.00118631
0.00175509, 0.006998, -0.590717, -8.82132e-05, 0.000208357, -0.00148719, 0.0252824, 0.0139031, 0.0042614, 0.000105229, 0.000279566, 0.00118568
0.00201718, 0.0067647, -0.590799, -8.71201e-05, 0.000202683, -0.00148569, 0.0252631, 0.0138135, 0.00425044, 0.000104864, 0.000278602, 0.00118524
0.00224621, 0.00661869, -0.590861, -8.55499e-05, 0.000198047, -0.0014796, 0.0252419, 0.0137063, 0.00423639, 0.000104489, 0.000277423, 0.00118466
0.00245043, 0.00658503, -0.590897, -8.37434e-05, 0.000194666, -0.00147311, 0.0252184, 0.0135901, 0.00421996, 0.000104092, 0.00027611, 0.00118379
0.00269777, 0.00638023, -0.590971, -8.1979e-05, 0.000189432, -0.00146113, 0.0251921, 0.0134634, 0.00420086, 0.000103668, 0.000274662, 0.00118248
0.00294522, 0.00616812, -0.591045, -8.01751e-05, 0.000184187, -0.00144721, 0.0251624, 0.013318, 0.00417801, 0.000103217, 0.000273027, 0.00118047
0.00313023, 0.00609302, -0.591086, -7.85606e-05, 0.000180986, -0.00143726, 0.0251289, 0.0131579, 0.00415181, 0.000102741, 0.00027126, 0.00117778
0.00329674, 0.0060073, -0.591125, -7.72137e-05, 0.000178053, -0.00142774, 0.0250912, 0.0129892, 0.00412297, 0.000102252, 0.000269431, 0.0011746
0.00348555, 0.00587337, -0.591176, -7.58499e-05, 0.000174629, -0.00141619, 0.0250485, 0.0128089, 0.00409112, 0.000101753, 0.00026753, 0.00117088
0.00368049, 0.00572996, -0.591229, -7.4502e-05, 0.000171228, -0.00140419, 0.0250008, 0.0126167, 0.00405628, 0.000101246, 0.000265561, 0.00116663
0.00393181, 0.00550207, -0.591304, -7.29853e-05, 0.00016665, -0.00138798, 0.024948, 0.0124109, 0.00401839, 0.000100729, 0.000263521, 0.00116178
0.00419316, 0.00526748, -0.591381, -7.14595e-05, 0.000162027, -0.00137119, 0.02489, 0.0121883, 0.0039771, 0.000100197, 0.000261385, 0.00115622
0.00442058, 0.00509715, -0.591442, -7.01093e-05, 0.000158241, -0.00135725, 0.0248269, 0.0119509, 0.00393285, 9.96511e-05, 0.000259173, 0.00115
0.00461937, 0.00497968, -0.59149, -6.88729e-05, 0.000155294, -0.00134592, 0.0247592, 0.0117044, 0.00388657, 9.90974e-05, 0.000256926, 0.00114335
0.00477199, 0.0049465, -0.591517, -6.78572e-05, 0.000153351, -0.00133877, 0.0246873, 0.0114533, 0.00383899, 9.85389e-05, 0.000254668, 0.0011364
0.00491008, 0.00494279, -0.591537, -6.6955e-05, 0.000151697, -0.00133324, 0.0246114, 0.0112028, 0.00379085, 9.79818e-05, 0.000252433, 0.00112937
0.00512848, 0.00481993, -0.591587, -6.57373e-05, 0.000148616, -0.0013213, 0.024532, 0.0109518, 0.00374223, 9.74233e-05, 0.000250203, 0.00112219
0.00536674, 0.00466274, -0.591647, -6.44558e-05, 0.000145168, -0.00130747, 0.0244503, 0.0106971, 0.00369314, 9.68569e-05, 0.000247945, 0.00111467
0.00556458, 0.0045607, -0.591691, -6.33899e-05, 0.000142344, -0.00129673, 0.0243671, 0.0104416, 0.00364423, 9.62852e-05, 0.00024567, 0.0011069
0.00562921, 0.00456488, -0.591698, -6.30464e-05, 0.000141277, -0.00129396, 0.0242821, 0.0101893, 0.003596, 9.57161e-05, 0.000243411, 0.00109908
0.005623, 0.00458775, -0.591691, -6.3097e-05, 0.000140843, -0.00129383, 0.0241933, 0.00994446, 0.0035487, 9.51653e-05, 0.000241213, 0.0010915
0.00545777, 0.00468534, -0.59165, -6.39202e-05, 0.000141793, -0.00130014, 0.0240986, 0.00970841, 0.00350226, 9.46418e-05, 0.000239094, 0.00108428
0.00522408, 0.00463692, -0.591624, -6.49779e-05, 0.000141501, -0.00129963, 0.0239941, 0.00948158, 0.00345645, 9.41596e-05, 0.000237071, 0.0010775
0.004856, 0.00463582, -0.591573, -6.63277e-05, 0.000141885, -0.0013014, 0.0238768, 0.00925993, 0.00341087, 9.37183e-05, 0.000235112, 0.0010709
0.00444238, 0.00471438, -0.591502, -6.76317e-05, 0.00014229, -0.00130486, 0.0237448, 0.00904603, 0.00336564, 9.33224e-05, 0.000233225, 0.00106454
0.00413042, 0.0047831, -0.591447, -6.84625e-05, 0.000142196, -0.00130623, 0.0236001, 0.00884087, 0.00332118, 9.29653e-05, 0.000231386, 0.00105827
0.00371219, 0.00507446, -0.591337, -6.97814e-05, 0.000144135, -0.00131943, 0.0234468, 0.0086475, 0.00327814, 9.26418e-05, 0.000229591, 0.00105214
0.00334765, 0.00541251, -0.591226, -7.09857e-05, 0.000146217, -0.0013345, 0.0232871, 0.0084724, 0.00323699, 9.23627e-05, 0.00022788, 0.00104648
0.00330656, 0.00561339, -0.591181, -7.13083e-05, 0.000146232, -0.0013409, 0.0231264, 0.0083143, 0.00319825, 9.21159e-05, 0.000226222, 0.00104115
0.00322181, 0.00585597, -0.591123, -7.18134e-05, 0.000146487, -0.00134921, 0.0229696, 0.00817109, 0.00316234, 9.18869e-05, 0.000224586, 0.00103595
0.00317519, 0.0061445, -0.591059, -7.23992e-05, 0.000146849, -0.0013596, 0.0228173, 0.00804444, 0.00312934, 9.16798e-05, 0.000222994, 0.00103106
0.00329534, 0.00633804, -0.591035, -7.25868e-05, 0.000146228, -0.00136491, 0.0226725, 0.0079333, 0.00309942, 9.14874e-05, 0.000221435, 0.00102642
0.00343897, 0.00660766, -0.590998, -7.30956e-05, 0.00014642, -0.00137543, 0.022537, 0.00783605, 0.00307259, 9.13035e-05, 0.000219902, 0.00102202
0.00352512, 0.00691153, -0.590947, -7.38288e-05, 0.000147, -0.00138779, 0.0224096, 0.00775258, 0.00304846, 9.11354e-05, 0.000218415, 0.00101797
0.00382573, 0.00713865, -0.590937, -7.42563e-05, 0.00014694, -0.00139671, 0.0222906, 0.00768098, 0.0030268, 9.09814e-05, 0.00021697, 0.00101425
0.00424466, 0.00732019, -0.59095, -7.44998e-05, 0.00014629, -0.00140274, 0.0221811, 0.00761793, 0.00300739, 9.08322e-05, 0.000215546, 0.00101071
0.00465393, 0.00750641, -0.590961, -7.48086e-05, 0.0001457, -0.00140892, 0.0220799, 0.00756172, 0.00298988, 9.06869e-05, 0.000214141, 0.00100732
0.00504873, 0.00767996, -0.590973, -7.50628e-05, 0.000144835, -0.00141345, 0.0219853, 0.0075113, 0.00297389, 9.05465e-05, 0.000212754, 0.00100406
0.00536768, 0.00783694, -0.590979, -7.529e-05, 0.000143915, -0.00141663, 0.0218954, 0.00746582, 0.00295909, 9.04116e-05, 0.000211385, 0.0010009
0.00566444, 0.00795541, -0.590989, -7.53452e-05, 0.000142454, -0.00141654, 0.021809, 0.00742492, 0.00294536, 9.02808e-05, 0.000210029, 0.000997828
0.00596468, 0.00806026, -0.591002, -7.5333e-05, 0.000140701, -0.0014148, 0.0217254, 0.00738842, 0.00293262, 9.0153e-05, 0.000208682, 0.00099481
0.00625346, 0.00817512, -0.591012, -7.53904e-05, 0.000139066, -0.00141349, 0.0216438, 0.00735591, 0.00292068, 9.00288e-05, 0.000207345, 0.000991841
0.00650303, 0.00828186, -0.591019, -7.54391e-05, 0.00013746, -0.0014116, 0.0215626, 0.00732703, 0.00290918, 8.99106e-05, 0.000206018, 0.00098892
0.00681159, 0.00836003, -0.591038, -7.53628e-05, 0.000135572, -0.00140757, 0.0214822, 0.00730126, 0.00289808, 8.97976e-05, 0.000204707, 0.000986036
0.0071625, 0.00842262, -0.591066, -7.52272e-05, 0.0001336, -0.00140237, 0.0214018, 0.00727782, 0.00288717, 8.96868e-05, 0.000203404, 0.000983138
0.00758762, 0.0084751, -0.591105, -7.49932e-05, 0.000131332, -0.00139541, 0.0213209, 0.00725605, 0.00287627, 8.95759e-05, 0.000202104, 0.000980185
0.0080614, 0.00852365, -0.59115, -7.46681e-05, 0.000128927, -0.00138717, 0.0212382, 0.00723527, 0.00286509, 8.94631e-05, 0.000200802, 0.000977141
0.00867413, 0.00854991, -0.591218, -7.40432e-05, 0.000125774, -0.00137485, 0.0211526, 0.00721464, 0.00285334, 8.93431e-05, 0.000199486, 0.000973933
0.00934643, 0.00857314, -0.591294, -7.31632e-05, 0.000122212, -0.00136023, 0.0210627, 0.0071932, 0.00284076, 8.92072e-05, 0.000198135, 0.000970466
0.0100561, 0.00858447, -0.591378, -7.19681e-05, 0.000117992, -0.00134244, 0.0209672, 0.00717052, 0.00282716, 8.90477e-05, 0.000196731, 0.000966673
0.0108063, 0.0086014, -0.591467, -7.04714e-05, 0.000113166, -0.00132216, 0.0208647, 0.00714609, 0.00281234, 8.8856e-05, 0.000195254, 0.000962476
0.0115756, 0.00860823, -0.59156, -6.86972e-05, 0.000107851, -0.00129943, 0.0207535, 0.00711966, 0.00279604, 8.86256e-05, 0.000193687, 0.000957816
0.0123574, 0.00861578, -0.591656, -6.67343e-05, 0.000102325, -0.00127564, 0.0206333, 0.00709097, 0.0027783, 8.83508e-05, 0.00019202, 0.000952661
0.0131398, 0.00865052, -0.591748, -6.46399e-05, 9.66176e-05, -0.00125177, 0.020502, 0.00705963, 0.00275872, 8.80254e-05, 0.000190234, 0.000946932
0.0139154, 0.00869882, -0.591838, -6.24647e-05, 9.10363e-05, -0.00122854, 0.0203585, 0.0070252, 0.00273694, 8.76421e-05, 0.000188309, 0.000940537
0.0146952, 0.00873518, -0.59193, -6.01227e-05, 8.51777e-05, -0.00120374, 0.0202018, 0.0069874, 0.00271279, 8.71974e-05, 0.000186236, 0.000933437
0.015533, 0.00876896, -0.592032, -5.749e-05, 7.88159e-05, -0.00117652, 0.0200325, 0.00694575, 0.00268639, 8.66889e-05, 0.00018401, 0.00092563
0.0164139, 0.00882076, -0.592136, -5.46349e-05, 7.21818e-05, -0.00114847, 0.0198507, 0.00689946, 0.00265765, 8.61091e-05, 0.000181612, 0.000917055
0.0173169, 0.00888416, -0.592242, -5.1572e-05, 6.52014e-05, -0.00111933, 0.0196574, 0.00684796, 0.00262655, 8.54573e-05, 0.00017904, 0.000907693
0.0183634, 0.00891063, -0.592374, -4.78396e-05, 5.68034e-05, -0.00108274, 0.0194549, 0.00679026, 0.00259338, 8.47298e-05, 0.000176289, 0.000897543
0.0195321, 0.00893092, -0.592523, -4.34683e-05, 4.71332e-05, -0.00104042, 0.0192474, 0.00672489, 0.00255888, 8.39256e-05, 0.000173368, 0.000886687
0.020575, 0.00900966, -0.592647, -3.9494e-05, 3.88068e-05, -0.00100559, 0.0190382, 0.00665104, 0.00252343, 8.30537e-05, 0.000170304, 0.000875224
0.0215566, 0.00911274, -0.592759, -3.5647e-05, 3.10516e-05, -0.000973901, 0.0188302, 0.00656886, 0.00248718, 8.21288e-05, 0.000167129, 0.000863254
0.0224546, 0.00918075, -0.592867, -3.19689e-05, 2.36427e-05, -0.000942685, 0.0186273, 0.0064788, 0.00245074, 8.11712e-05, 0.000163892, 0.000850994
0.0231701, 0.00926163, -0.592949, -2.89568e-05, 1.77401e-05, -0.000918529, 0.0184333, 0.00638238, 0.00241498, 8.02095e-05, 0.000160664, 0.000838759
0.0238101, 0.00932459, -0.593024, -2.6186e-05, 1.23505e-05, -0.00089604, 0.0182503, 0.00628131, 0.00238034, 7.92642e-05, 0.00015749, 0.000826756
0.0242897, 0.00940835, -0.593074, -2.41342e-05, 8.72061e-06, -0.000881684, 0.0180802, 0.00617662, 0.00234722, 7.83486e-05, 0.000154405, 0.000815151
0.0246237, 0.00952588, -0.5931, -2.27246e-05, 6.63084e-06, -0.00087501, 0.0179231, 0.00607051, 0.0023157, 7.74772e-05, 0.000151432, 0.000804072
0.0249026, 0.00959149, -0.593127, -2.1543e-05, 4.86091e-06, -0.00086809, 0.0177793, 0.00596418, 0.00228591, 7.66561e-05, 0.000148587, 0.000793606
0.0251259, 0.00962864, -0.593151, -2.05956e-05, 3.4645e-06, -0.000861947, 0.017649, 0.00585904, 0.00225808, 7.58906e-05, 0.000145882, 0.000783837
0.0253459, 0.00960652, -0.593185, -1.96617e-05, 1.87426e-06, -0.00085305, 0.017532, 0.00575636, 0.00223231, 7.51828e-05, 0.000143327, 0.000774811
0.025482, 0.00962755, -0.5932, -1.91393e-05, 1.39108e-06, -0.000850105, 0.0174275, 0.00565672, 0.00220853, 7.45312e-05, 0.000140922, 0.000766529
0.025574, 0.00963779, -0.593211, -1.88221e-05, 1.25896e-06, -0.000848423, 0.0173341, 0.00556102, 0.0021864, 7.39326e-05, 0.000138651, 0.000758936
0.0255964, 0.00961976, -0.593217, -1.88416e-05, 1.57428e-06, -0.00084813, 0.0172507, 0.00546976, 0.00216589, 7.33846e-05, 0.000136508, 0.000752016
0.0255633, 0.00961497, -0.593214, -1.9183e-05, 2.6463e-06, -0.00085148, 0.017176, 0.00538352, 0.00214678, 7.28833e-05, 0.000134481, 0.000745719
0.0254917, 0.00961632, -0.593204, -1.97665e-05, 4.31267e-06, -0.000857381, 0.0171086, 0.00530268, 0.00212889, 7.24253e-05, 0.000132556, 0.000739993
0.0253837, 0.00959345, -0.593193, -2.0464e-05, 5.77881e-06, -0.000862515, 0.0170475, 0.00522739, 0.00211206, 7.20067e-05, 0.000130722, 0.000734791
0.0252549, 0.00956494, -0.59318, -2.13544e-05, 7.66931e-06, -0.000869259, 0.0169916, 0.00515749, 0.00209621, 7.16238e-05, 0.000128971, 0.000730063
0.0250999, 0.0095189, -0.593166, -2.24007e-05, 9.66472e-06, -0.000876289, 0.0169401, 0.005093, 0.00208122, 7.12727e-05, 0.000127294, 0.000725756
0.024964, 0.00945416, -0.593157, -2.33254e-05, 1.11379e-05, -0.000881039, 0.0168926, 0.00503332, 0.00206702, 7.09494e-05, 0.000125685, 0.000721821
0.0248495, 0.00935612, -0.593156, -2.42596e-05, 1.24499e-05, -0.000884301, 0.0168486, 0.00497791, 0.00205353, 7.06502e-05, 0.00012414, 0.000718213
0.0247373, 0.00922319, -0.593161, -2.51916e-05, 1.33136e-05, -0.000885467, 0.0168077, 0.00492618, 0.00204074, 7.03718e-05, 0.000122659, 0.000714885
0.0246056, 0.0091219, -0.593157, -2.61752e-05, 1.44747e-05, -0.000888847, 0.0167696, 0.00487774, 0.00202858, 7.01112e-05, 0.000121236, 0.000711797
0.0244716, 0.00903349, -0.593152, -2.7212e-05, 1.58953e-05, -0.000893637, 0.016734, 0.00483265, 0.00201698, 6.98656e-05, 0.00011986, 0.000708905
0.0243534, 0.00892493, -0.593151, -2.82318e-05, 1.70678e-05, -0.000897286, 0.0167006, 0.00479077, 0.00200593, 6.96328e-05, 0.000118527, 0.000706176
0.0242454, 0.00880602, -0.593153, -2.92785e-05, 1.82901e-05, -0.000900811, 0.0166695, 0.0047516, 0.00199543, 6.94105e-05, 0.000117237, 0.000703581
0.0241315, 0.00869259, -0.593153, -3.03429e-05, 1.94872e-05, -0.000904834, 0.0166404, 0.00471495, 0.00198546, 6.9197e-05, 0.000115985, 0.000701092
0.0240184, 0.00860942, -0.593149, -3.13497e-05, 2.08327e-05, -0.00091014, 0.016613, 0.00468072, 0.00197599, 6.89912e-05, 0.000114769, 0.000698694
0.0238956, 0.0085755, -0.593136, -3.22641e-05, 2.23753e-05, -0.000917357, 0.0165871, 0.00464903, 0.00196691, 6.87922e-05, 0.000113583, 0.00069638
0.0238006, 0.00852924, -0.593129, -3.31086e-05, 2.37007e-05, -0.000923295, 0.0165622, 0.00461989, 0.00195817, 6.85993e-05, 0.000112423, 0.000694143
0.0237456, 0.00847742, -0.593128, -3.38009e-05, 2.47009e-05, -0.000927498, 0.0165388, 0.00459276, 0.00194979, 6.84107e-05, 0.000111291, 0.000691966
0.023726, 0.00841683, -0.593134, -3.43793e-05, 2.5409e-05, -0.000930027, 0.0165167, 0.00456735, 0.00194176, 6.82252e-05, 0.000110187, 0.000689836
0.0237139, 0.00835827, -0.59314, -3.49294e-05, 2.5987e-05, -0.000932312, 0.0164962, 0.00454337, 0.0019341, 6.80413e-05, 0.000109111, 0.000687738
0.0237093, 0.00831195, -0.593145, -3.54433e-05, 2.66568e-05, -0.000935005, 0.0164771, 0.00452084, 0.00192677, 6.78581e-05, 0.000108058, 0.000685665
0.0237461, 0.00823442, -0.59316, -3.59989e-05, 2.70513e-05, -0.000936107, 0.0164594, 0.00449959, 0.00191978, 6.76742e-05, 0.000107028, 0.000683604
0.0237959, 0.0081516, -0.593178, -3.65812e-05, 2.74085e-05, -0.000937026, 0.0164431, 0.00447926, 0.00191316, 6.74883e-05, 0.000106022, 0.000681533
0.0238399, 0.00807627, -0.593193, -3.71877e-05, 2.77205e-05, -0.000938437, 0.0164279, 0.00445983, 0.00190688, 6.72996e-05, 0.000105037, 0.000679449
0.0238888, 0.0079983, -0.593208, -3.79757e-05, 2.82445e-05, -0.000941437, 0.0164137, 0.00444136, 0.00190093, 6.7108e-05, 0.000104072, 0.000677349
0.0239301, 0.00793578, -0.59322, -3.88508e-05, 2.90324e-05, -0.000946373, 0.0164002, 0.00442393, 0.0018953, 6.69134e-05, 0.000103125, 0.000675232
0.0239629, 0.00789681, -0.593227, -3.96611e-05, 2.99646e-05, -0.000952323, 0.0163871, 0.00440773, 0.00188992, 6.67164e-05, 0.000102193, 0.000673106
0.0240038, 0.00786374, -0.593234, -4.04213e-05, 3.0894e-05, -0.000958091, 0.0163739, 0.0043928, 0.00188474, 6.65168e-05, 0.000101276, 0.000670975
0.0240486, 0.00783897, -0.593241, -4.11264e-05, 3.18493e-05, -0.000963883, 0.0163605, 0.00437905, 0.00187972, 6.63136e-05, 0.000100371, 0.00066883
0.0240992, 0.0078177, -0.593248, -4.17766e-05, 3.27127e-05, -0.000969185, 0.0163464, 0.00436643, 0.00187481, 6.61064e-05, 9.94764e-05, 0.000666667
0.0241665, 0.00779528, -0.593258, -4.24814e-05, 3.36339e-05, -0.000974902, 0.0163315, 0.00435482, 0.00187, 6.58944e-05, 9.85927e-05, 0.000664478
0.0242444, 0.00777542, -0.593268, -4.32226e-05, 3.45307e-05, -0.000980955, 0.0163154, 0.00434414, 0.00186522, 6.5677e-05, 9.77188e-05, 0.000662261
0.024351, 0.00774935, -0.593282, -4.40527e-05, 3.54024e-05, -0.000987024, 0.0162979, 0.00433426, 0.00186044, 6.54537e-05, 9.68543e-05, 0.000660016
0.0244859, 0.00772313, -0.593299, -4.50638e-05, 3.64304e-05, -0.000994586, 0.0162791, 0.00432511, 0.00185566, 6.52242e-05, 9.60001e-05, 0.000657744
0.0246309, 0.00770233, -0.593316, -4.61499e-05, 3.75351e-05, -0.001003, 0.0162589, 0.00431666, 0.00185084, 6.49884e-05, 9.51562e-05, 0.000655451
0.0247666, 0.00768918, -0.593331, -4.72254e-05, 3.88917e-05, -0.00101232, 0.0162368, 0.00430889, 0.00184591, 6.47462e-05, 9.43222e-05, 0.000653149
0.0249269, 0.00767006, -0.59335, -4.82605e-05, 3.99492e-05, -0.00101983, 0.0162123, 0.00430174, 0.0018408, 6.44965e-05, 9.34964e-05, 0.000650833
0.0251212, 0.00764732, -0.593374, -4.93795e-05, 4.09055e-05, -0.00102703, 0.0161855, 0.00429509, 0.00183553, 6.42366e-05, 9.26779e-05, 0.000648481
0.0253209, 0.00762982, -0.593398, -5.05794e-05, 4.20735e-05, -0.00103544, 0.0161563, 0.00428888, 0.00183007, 6.39658e-05, 9.1867e-05, 0.000646097
0.0255364, 0.00761542, -0.593422, -5.1821e-05, 4.31179e-05, -0.00104372, 0.016124, 0.00428311, 0.00182433, 6.36841e-05, 9.10636e-05, 0.000643692
0.0257939, 0.00759593, -0.593453, -5.32026e-05, 4.42521e-05, -0.0010522, 0.0160888, 0.0042777, 0.00181829, 6.33907e-05, 9.02684e-05, 0.000641269
0.0260615, 0.00757979, -0.593484, -5.46181e-05, 4.53201e-05, -0.0010606, 0.0160506, 0.0042726, 0.00181196, 6.30853e-05, 8.94819e-05, 0.000638829
0.0263235, 0.00756938, -0.593513, -5.61609e-05, 4.67406e-05, -0.0010711, 0.016009, 0.00426779, 0.00180526, 6.27676e-05, 8.87036e-05, 0.00063638
0.0266016, 0.00756001, -0.593542, -5.78488e-05, 4.83344e-05, -0.00108263, 0.0159637, 0.00426328, 0.00179807, 6.24393e-05, 8.79342e-05, 0.000633946
0.0268821, 0.00755056, -0.593572, -5.95255e-05, 4.98508e-05, -0.00109349, 0.0159143, 0.00425902, 0.00179037, 6.20998e-05, 8.7173e-05, 0.000631527
0.0271633, 0.00754295, -0.593601, -6.12013e-05, 5.12505e-05, -0.0011038, 0.0158608, 0.00425498, 0.00178215, 6.17496e-05, 8.64203e-05, 0.000629122
0.0274965, 0.00753351, -0.593637, -6.31828e-05, 5.28489e-05, -0.00111552, 0.0158033, 0.00425111, 0.00177338, 6.13892e-05, 8.56758e-05, 0.000626734
0.0279388, 0.00752069, -0.593687, -6.53844e-05, 5.41055e-05, -0.00112539, 0.015743, 0.00424738, 0.00176418, 6.10195e-05, 8.49384e-05, 0.00062436
0.0284745, 0.00750614, -0.59375, -6.80016e-05, 5.53653e-05, -0.00113573, 0.0156822, 0.00424374, 0.00175487, 6.06402e-05, 8.42058e-05, 0.000621972
0.0290128, 0.00748842, -0.59381, -7.10143e-05, 5.70794e-05, -0.00114872, 0.0156219, 0.00424016, 0.00174548, 6.02548e-05, 8.34757e-05, 0.000619581
0.0296522, 0.00746884, -0.593885, -7.41732e-05, 5.82156e-05, -0.00115799, 0.0155631, 0.00423658, 0.00173609, 5.98659e-05, 8.27442e-05, 0.000617174
0.0302646, 0.00744574, -0.593958, -7.74783e-05, 5.94445e-05, -0.00116745, 0.0155081, 0.00423298, 0.001727, 5.94751e-05, 8.20065e-05, 0.000614714
0.0307192, 0.00741437, -0.594007, -8.06982e-05, 6.14297e-05, -0.00118048, 0.0154559, 0.0042293, 0.00171806, 5.90869e-05, 8.12599e-05, 0.000612208
0.0310207, 0.0073834, -0.594037, -8.34445e-05, 6.34062e-05, -0.00119299, 0.0154043, 0.0042255, 0.00170896, 5.87055e-05, 8.05023e-05, 0.000609667
0.0313432, 0.00735383, -0.594072, -8.60753e-05, 6.49382e-05, -0.00120249, 0.0153532, 0.00422157, 0.00169972, 5.83328e-05, 7.97329e-05, 0.000607085
0.0315331, 0.00731822, -0.594089, -8.85629e-05, 6.69329e-05, -0.00121452, 0.0153032, 0.00421748, 0.00169045, 5.7971e-05, 7.89488e-05, 0.00060444
0.031606, 0.00728552, -0.59409, -9.05306e-05, 6.87318e-05, -0.0012252, 0.0152521, 0.00421321, 0.00168087, 5.76215e-05, 7.81497e-05, 0.000601749
0.0318536, 0.00726134, -0.594119, -9.25614e-05, 6.95521e-05, -0.00122995, 0.0152011, 0.00420877, 0.00167118, 5.72849e-05, 7.73381e-05, 0.000599004
0.0320276, 0.00723112, -0.594137, -9.46046e-05, 7.06894e-05, -0.0012365, 0.0151523, 0.00420421, 0.00166167, 5.69611e-05, 7.65116e-05, 0.000596184
0.0320818, 0.0071971, -0.59414, -9.63343e-05, 7.21216e-05, -0.00124454, 0.0151037, 0.00419948, 0.00165206, 5.66499e-05, 7.56713e-05, 0.000593302
0.0322431, 0.00717196, -0.594159, -9.80191e-05, 7.27819e-05, -0.00124824, 0.0150553, 0.00419464, 0.00164238, 5.63503e-05, 7.48202e-05, 0.000590365
0.0322718, 0.00715801, -0.59416, -9.90036e-05, 7.30544e-05, -0.00125002, 0.0150077, 0.00418973, 0.00163272, 5.60603e-05, 7.39589e-05, 0.000587367
0.0322907, 0.00716112, -0.594161, -9.93189e-05, 7.25401e-05, -0.0012474, 0.01496, 0.00418485, 0.001623, 5.57789e-05, 7.30968e-05, 0.000584341
0.0323544, 0.00718294, -0.59417, -9.91279e-05, 7.10408e-05, -0.00123927, 0.0149129, 0.00418013, 0.00161334, 5.55048e-05, 7.22429e-05, 0.000581314
0.0324099, 0.00721671, -0.594178, -9.84392e-05, 6.89784e-05, -0.00122776, 0.014867, 0.00417567, 0.00160387, 5.5237e-05, 7.14062e-05, 0.000578313
0.0324024, 0.00725473, -0.594179, -9.74359e-05, 6.67602e-05, -0.0012152, 0.0148221, 0.00417153, 0.00159458, 5.49752e-05, 7.0592e-05, 0.00057536
0.0322957, 0.00729196, -0.594165, -9.6214e-05, 6.47145e-05, -0.00120346, 0.0147771, 0.00416767, 0.00158534, 5.47186e-05, 6.9802e-05, 0.000572466
0.0321565, 0.0073348, -0.594148, -9.46661e-05, 6.23276e-05, -0.00118936, 0.0147313, 0.00416408, 0.00157606, 5.44667e-05, 6.90378e-05, 0.000569638
0.0320231, 0.00737652, -0.594133, -9.30813e-05, 5.98843e-05, -0.00117463, 0.0146848, 0.00416078, 0.00156679, 5.42196e-05, 6.83019e-05, 0.000566887
0.0318615, 0.00741328, -0.594114, -9.15373e-05, 5.76405e-05, -0.00116074, 0.0146377, 0.00415774, 0.00155755, 5.3977e-05, 6.75922e-05, 0.000564207
0.0316207, 0.00744577, -0.594084, -8.99201e-05, 5.56184e-05, -0.00114784, 0.0145897, 0.00415492, 0.00154828, 5.37382e-05, 6.69051e-05, 0.000561585
0.0314006, 0.00747384, -0.594057, -8.84292e-05, 5.37532e-05, -0.00113563, 0.0145405, 0.00415228, 0.00153894, 5.3503e-05, 6.62383e-05, 0.000559014
0.0311482, 0.00749538, -0.594026, -8.70585e-05, 5.22553e-05, -0.00112536, 0.0144903, 0.0041498, 0.0015296, 5.32713e-05, 6.55886e-05, 0.000556482
0.030815, 0.00751059, -0.593983, -8.57105e-05, 5.11122e-05, -0.00111678, 0.0144386, 0.00414741, 0.00152017, 5.30426e-05, 6.49527e-05, 0.000553975
0.030511, 0.00752479, -0.593944, -8.43946e-05, 4.99269e-05, -0.00110769, 0.0143849, 0.0041451, 0.0015106, 5.28163e-05, 6.43286e-05, 0.000551484
0.0302183, 0.0075382, -0.593908, -8.30288e-05, 4.8685e-05, -0.00109787, 0.0143301, 0.00414286, 0.00150103, 5.25943e-05, 6.37196e-05, 0.000549028
0.0298662, 0.00754963, -0.593865, -8.14929e-05, 4.74213e-05, -0.00108725, 0.0142744, 0.00414069, 0.0014915, 5.23774e-05, 6.31283e-05, 0.000546622
0.0295238, 0.00756127, -0.593825, -7.98458e-05, 4.60372e-05, -0.0010754, 0.0142181, 0.00413858, 0.00148205, 5.21668e-05, 6.25588e-05, 0.000544291
0.02918, 0.00757257, -0.593786, -7.81084e-05, 4.45361e-05, -0.00106248, 0.014162, 0.00413657, 0.0014728, 5.1964e-05, 6.20147e-05, 0.000542055
0.0287999, 0.00757827, -0.593742, -7.63796e-05, 4.32306e-05, -0.00105021, 0.0141065, 0.00413464, 0.00146378, 5.17694e-05, 6.1497e-05, 0.000539924
0.0284241, 0.00758298, -0.5937, -7.45835e-05, 4.18755e-05, -0.00103727, 0.0140513, 0.00413276, 0.00145497, 5.15827e-05, 6.10049e-05, 0.000537898
