0.0356324, -0.00571359, -0.586467, -0.000376785, 7.53308e-05, -0.00144048, 0.0316228, 0.0316228, 0.0316228, 0.0316228, 0.0316228, 0.0316228
0.0356324, -0.00571359, -0.586467, -0.000376785, 7.53308e-05, -0.00144048, 0.0317, 0.0317, 0.0317, 0.0316247, 0.0316247, 0.0316247
0.0356298, -0.00575334, -0.586465, -0.000444237, 8.08939e-05, -0.00146873, 0.0317049, 0.0317049, 0.0317048, 0.0316143, 0.0316143, 0.0316238
0.0356294, -0.0057781, -0.586467, -0.000491202, 8.57389e-05, -0.00146288, 0.0317087, 0.0317087, 0.0317083, 0.0315983, 0.0315982, 0.031623
0.0356375, -0.00577828, -0.586444, -0.000494588, 5.58296e-05, -0.00145121, 0.0317113, 0.0317113, 0.0317101, 0.0315747, 0.0315746, 0.0316221
0.03565, -0.00580213, -0.586384, -0.000548469, 7.5136e-06, -0.00146439, 0.0317129, 0.0317129, 0.0317101, 0.0315414, 0.0315411, 0.0316212
0.0356391, -0.0058175, -0.586434, -0.00058476, 7.59096e-05, -0.00146489, 0.0317135, 0.0317135, 0.0317079, 0.0314962, 0.0314958, 0.0316203
0.0356377, -0.00583946, -0.586461, -0.000641726, 7.24527e-05, -0.00147117, 0.0317134, 0.0317133, 0.0317031, 0.0314377, 0.0314372, 0.0316193
0.0356232, -0.00580941, -0.586576, -0.000550707, 0.000151676, -0.00144902, 0.0317129, 0.0317128, 0.0316957, 0.0313647, 0.0313646, 0.0316183
0.0356282, -0.00582914, -0.5866, -0.000611085, 0.000117607, -0.0014702, 0.0317123, 0.0317121, 0.0316854, 0.0312769, 0.0312778, 0.0316173
0.0356281, -0.00585644, -0.586648, -0.000703535, 0.000132523, -0.00148017, 0.031712, 0.0317117, 0.031672, 0.0311737, 0.0311755, 0.0316163
0.0356314, -0.00581356, -0.58672, -0.00053677, 0.000134824, -0.00144758, 0.031712, 0.0317117, 0.0316549, 0.0310554, 0.031057, 0.0316152
0.0356427, -0.00581532, -0.586731, -0.00054223, 7.48796e-05, -0.00146429, 0.0317126, 0.0317124, 0.0316342, 0.0309226, 0.0309233, 0.0316141
0.0356443, -0.00584589, -0.58678, -0.000678001, 8.16819e-05, -0.00148535, 0.031714, 0.0317139, 0.0316099, 0.0307755, 0.030775, 0.031613
0.0356493, -0.00584969, -0.586824, -0.00069418, 6.21939e-05, -0.00147804, 0.0317162, 0.0317162, 0.031582, 0.0306155, 0.0306135, 0.0316118
0.0356609, -0.00586974, -0.586745, -0.000820456, -4.58237e-05, -0.00149339, 0.0317193, 0.0317194, 0.0315507, 0.0304414, 0.030438, 0.0316107
0.035668, -0.00584504, -0.586919, -0.000635614, -1.58992e-05, -0.0014642, 0.0317231, 0.0317232, 0.0315163, 0.0302548, 0.0302509, 0.0316096
0.0356675, -0.00583465, -0.587178, -0.000523492, 5.64236e-05, -0.00146637, 0.0317278, 0.0317279, 0.0314792, 0.0300543, 0.0300505, 0.0316085
0.0356784, -0.00584657, -0.587226, -0.000614737, -6.40559e-05, -0.0014841, 0.031733, 0.0317332, 0.0314397, 0.0298398, 0.029836, 0.0316074
0.0356826, -0.00583596, -0.587511, -0.00045751, 7.31733e-06, -0.00146408, 0.0317388, 0.031739, 0.0313978, 0.0296102, 0.0296065, 0.0316064
0.0356891, -0.00582371, -0.5877, -0.000274132, -3.22844e-05, -0.00145702, 0.031745, 0.0317452, 0.0313539, 0.0293657, 0.0293624, 0.0316054
0.0356972, -0.00582565, -0.587948, -0.000234062, -5.48898e-05, -0.00146628, 0.0317516, 0.0317519, 0.0313084, 0.0291038, 0.0291022, 0.0316044
0.0357034, -0.00585228, -0.587889, -0.000660138, -0.000222739, -0.00150384, 0.0317586, 0.0317588, 0.0312617, 0.0288238, 0.0288257, 0.0316034
0.0357119, -0.0058473, -0.588225, -0.000449675, -0.000178723, -0.00146317, 0.0317659, 0.0317661, 0.0312143, 0.0285241, 0.0285321, 0.0316024
0.0357169, -0.0058542, -0.588311, -0.000567368, -0.000302754, -0.00148339, 0.0317733, 0.0317736, 0.0311668, 0.0282046, 0.028224, 0.0316015
0.0357208, -0.00586035, -0.588282, -0.000751621, -0.000453415, -0.00148905, 0.031781, 0.0317812, 0.03112, 0.0278633, 0.0279001, 0.0316005
0.0357273, -0.00585452, -0.588449, -0.000436881, -0.000532664, -0.00145611, 0.0317888, 0.031789, 0.0310741, 0.0275005, 0.0275598, 0.0315996
0.0357327, -0.00586208, -0.588712, -0.000549327, -0.000538909, -0.00148321, 0.0317967, 0.0317969, 0.0310291, 0.0271152, 0.0271986, 0.0315987
0.035736, -0.00586428, -0.588912, -0.000442868, -0.000589364, -0.00147165, 0.0318047, 0.0318049, 0.030984, 0.0267079, 0.0268104, 0.0315977
0.0357365, -0.00586877, -0.588936, -0.00087236, -0.000687282, -0.00149883, 0.0318128, 0.0318129, 0.0309373, 0.0262772, 0.0263846, 0.0315967
0.0357392, -0.00587025, -0.589049, -0.000704453, -0.000771208, -0.00146868, 0.0318207, 0.0318209, 0.0308906, 0.0258258, 0.0259363, 0.0315957
0.0357419, -0.00587389, -0.589198, -0.00037641, -0.000833381, -0.00146025, 0.0318288, 0.0318289, 0.030845, 0.0253517, 0.0254691, 0.0315947
0.0357442, -0.00587753, -0.58934, -0.000271114, -0.000898844, -0.00147077, 0.0318367, 0.0318369, 0.0307982, 0.0248589, 0.0249751, 0.0315936
0.0357405, -0.00587264, -0.589273, -0.000613017, -0.0010272, -0.0014936, 0.0318447, 0.0318449, 0.0307506, 0.0243487, 0.0244572, 0.0315926
0.0357449, -0.00587653, -0.589437, -0.000581605, -0.00106193, -0.00147567, 0.0318526, 0.0318528, 0.0307032, 0.0238268, 0.0239273, 0.0315915
0.0357421, -0.00587219, -0.58942, -0.000812664, -0.00114641, -0.00149201, 0.0318605, 0.0318607, 0.0306556, 0.0232982, 0.0233877, 0.0315904
0.035744, -0.00587259, -0.58952, -0.000897493, -0.00120756, -0.00148785, 0.0318684, 0.0318686, 0.0306073, 0.0227666, 0.0228397, 0.0315892
0.0357467, -0.00587859, -0.589665, -0.000780532, -0.00130236, -0.00147458, 0.0318761, 0.0318764, 0.0305584, 0.0222364, 0.0222897, 0.0315879
0.03574, -0.00586963, -0.589559, -0.00103506, -0.00137861, -0.0015024, 0.0318839, 0.0318842, 0.0305092, 0.0217049, 0.0217387, 0.0315867
0.035744, -0.00588562, -0.589673, -0.000577488, -0.00144296, -0.0014513, 0.0318915, 0.0318918, 0.0304601, 0.0211703, 0.0211878, 0.0315853
0.0357478, -0.00589765, -0.589792, -0.000288373, -0.00148993, -0.00145001, 0.0318991, 0.0318995, 0.0304114, 0.0206313, 0.0206379, 0.031584
0.0357497, -0.00590701, -0.589855, -6.02541e-05, -0.00152585, -0.00144407, 0.0319067, 0.0319071, 0.0303626, 0.0200905, 0.0200899, 0.0315827
0.0357512, -0.0059101, -0.589908, -1.51019e-05, -0.00154747, -0.00145104, 0.0319142, 0.0319147, 0.0303137, 0.0195564, 0.0195529, 0.0315813
0.0357517, -0.00591742, -0.589926, 0.000158751, -0.00157356, -0.00143468, 0.0319217, 0.0319222, 0.0302647, 0.0190377, 0.0190357, 0.0315797
0.0357537, -0.00592813, -0.589984, 0.000371077, -0.0016195, -0.00142031, 0.0319291, 0.0319297, 0.0302147, 0.0185437, 0.0185459, 0.0315781
0.0357538, -0.00593655, -0.59003, 0.000522504, -0.00168953, -0.00141236, 0.0319365, 0.0319372, 0.0301632, 0.0180749, 0.018083, 0.0315763
0.0357528, -0.00594815, -0.59004, 0.000755354, -0.00176196, -0.00139114, 0.0319439, 0.0319445, 0.0301115, 0.0176334, 0.0176487, 0.0315743
0.0357488, -0.0059464, -0.590011, 0.000730962, -0.00181176, -0.00140273, 0.0319512, 0.0319519, 0.0300616, 0.0172185, 0.0172415, 0.0315723
0.0357464, -0.00594643, -0.590024, 0.000711079, -0.00186918, -0.00139828, 0.0319586, 0.0319594, 0.0300126, 0.0168295, 0.0168597, 0.0315699
0.0357405, -0.00593577, -0.590006, 0.000518881, -0.00191483, -0.00141699, 0.0319658, 0.0319667, 0.0299643, 0.016468, 0.0165048, 0.0315673
0.0357313, -0.00592798, -0.589929, 0.000423893, -0.00197712, -0.00141167, 0.0319731, 0.0319741, 0.0299165, 0.0161311, 0.016174, 0.0315644
0.0357284, -0.00592886, -0.58993, 0.000423871, -0.00202807, -0.0013998, 0.0319802, 0.0319814, 0.0298686, 0.0158169, 0.0158656, 0.0315611
0.0357229, -0.005915, -0.589946, 0.000183572, -0.00205713, -0.00143898, 0.0319875, 0.0319888, 0.0298208, 0.0155172, 0.0155719, 0.0315578
0.0357112, -0.00590176, -0.589842, 4.61631e-05, -0.00209398, -0.00144384, 0.0319946, 0.0319961, 0.0297735, 0.0152262, 0.0152868, 0.0315541
0.0357079, -0.0058936, -0.589835, -7.0896e-05, -0.0020938, -0.00145855, 0.0320017, 0.0320032, 0.0297266, 0.0149385, 0.0150059, 0.0315501
0.0356989, -0.00588217, -0.589752, -0.00017817, -0.00210484, -0.00147062, 0.0320088, 0.0320104, 0.0296793, 0.0146518, 0.0147267, 0.0315459
0.0356947, -0.0058806, -0.589698, -0.000166999, -0.0021172, -0.00145817, 0.0320158, 0.0320176, 0.0296318, 0.0143702, 0.0144528, 0.0315417
0.0356977, -0.00589123, -0.589637, 2.28522e-05, -0.00210355, -0.0014162, 0.0320227, 0.0320246, 0.0295842, 0.0141018, 0.014191, 0.0315376
0.0357046, -0.0059014, -0.589612, 0.000183904, -0.00206878, -0.00139788, 0.0320297, 0.0320317, 0.029537, 0.0138476, 0.0139417, 0.0315338
0.035702, -0.00590927, -0.589489, 0.000360102, -0.00207735, -0.00136935, 0.0320365, 0.0320385, 0.0294905, 0.0136057, 0.0137026, 0.0315304
0.0357114, -0.00592671, -0.589459, 0.000590562, -0.00205981, -0.00133304, 0.0320432, 0.0320454, 0.0294443, 0.0133631, 0.0134612, 0.0315271
0.0356929, -0.00590054, -0.589342, 0.000374722, -0.00205407, -0.00140515, 0.0320499, 0.0320522, 0.0293973, 0.0131067, 0.013205, 0.031524
0.0356827, -0.00588668, -0.589194, 0.000333826, -0.00201901, -0.0013977, 0.0320564, 0.0320588, 0.0293497, 0.012827, 0.0129248, 0.0315205
0.0356705, -0.00585993, -0.589045, 0.000181249, -0.00192833, -0.00143744, 0.0320628, 0.0320652, 0.0293024, 0.0125167, 0.012612, 0.0315167
0.0356514, -0.00583284, -0.588783, 0.000101364, -0.00184671, -0.00144726, 0.0320691, 0.0320716, 0.0292551, 0.0121711, 0.0122616, 0.0315128
0.0356514, -0.00583284, -0.588783, 0.000101364, -0.00184671, -0.00144726, 0.0320772, 0.0320796, 0.0292639, 0.0121716, 0.0122621, 0.0315131
0.0356399, -0.00579774, -0.588528, 8.49684e-06, -0.00164823, -0.00147956, 0.0320825, 0.032085, 0.0292062, 0.0116247, 0.0117021, 0.0315047
0.0356335, -0.00577655, -0.588222, 0.000125045, -0.00147492, -0.00145197, 0.0320881, 0.0320907, 0.02915, 0.0110933, 0.011157, 0.0315003
0.0356385, -0.0057639, -0.588056, 0.000238439, -0.0013067, -0.00143552, 0.0320938, 0.0320965, 0.0290952, 0.0105898, 0.0106403, 0.0314958
0.0356338, -0.00574618, -0.587787, 0.000368423, -0.00115587, -0.00140531, 0.0320997, 0.0321026, 0.0290419, 0.0101241, 0.0101618, 0.0314911
0.0356393, -0.00573701, -0.587642, 0.00050054, -0.00101537, -0.00137439, 0.0321057, 0.0321088, 0.02899, 0.0096996, 0.00972493, 0.0314859
0.0356393, -0.00573701, -0.587642, 0.00050054, -0.00101537, -0.00137439, 0.0321137, 0.0321168, 0.0289988, 0.00970024, 0.00972557, 0.031486
0.035681, -0.00573835, -0.58775, 0.000679048, -0.00075724, -0.00132849, 0.0321193, 0.0321227, 0.028938, 0.00920373, 0.00921141, 0.0314753
0.035681, -0.00573835, -0.58775, 0.000679048, -0.00075724, -0.00132849, 0.0321273, 0.0321306, 0.0289468, 0.0092044, 0.00921209, 0.0314755
0.0356921, -0.00572474, -0.587601, 0.000870675, -0.000556111, -0.00125578, 0.0321329, 0.0321367, 0.0288779, 0.00869023, 0.00867738, 0.0314617
0.0357157, -0.00572877, -0.587572, 0.00113855, -0.000411902, -0.00114639, 0.0321391, 0.0321434, 0.0288136, 0.00831336, 0.00828617, 0.0314509
0.0357086, -0.00570939, -0.587465, 0.00109183, -0.000283867, -0.00117282, 0.0321455, 0.0321503, 0.028753, 0.00803395, 0.00799668, 0.0314389
0.0357043, -0.00569632, -0.587384, 0.00107821, -0.000182991, -0.00115814, 0.0321522, 0.0321576, 0.0286957, 0.00782265, 0.00777885, 0.0314301
0.0356975, -0.00568738, -0.587277, 0.00112243, -0.000116916, -0.00111821, 0.0321592, 0.032165, 0.0286408, 0.00766261, 0.007616, 0.0314228
0.0356853, -0.0056773, -0.58716, 0.00111185, -6.7759e-05, -0.00111903, 0.0321662, 0.0321726, 0.028588, 0.00754246, 0.00749512, 0.031416
0.0356725, -0.00566977, -0.587035, 0.00114177, -2.86249e-05, -0.00108626, 0.0321733, 0.0321804, 0.0285373, 0.00745259, 0.00740586, 0.0314102
0.035661, -0.00566446, -0.586934, 0.00117137, 2.25868e-06, -0.00106216, 0.0321804, 0.0321881, 0.0284888, 0.00738643, 0.0073393, 0.0314047
0.0356382, -0.00565817, -0.586776, 0.00127118, -1.47273e-06, -0.000974537, 0.0321875, 0.032196, 0.0284423, 0.00733849, 0.0072894, 0.0313996
0.0356317, -0.00565705, -0.586729, 0.00129105, 2.02508e-05, -0.000980989, 0.0321947, 0.0322038, 0.0283975, 0.00730442, 0.00725341, 0.0313938
0.0356433, -0.00566352, -0.586811, 0.00129465, 4.98733e-05, -0.000985539, 0.0322017, 0.0322116, 0.0283541, 0.00727945, 0.00722608, 0.0313885
0.035629, -0.00565874, -0.586704, 0.00129881, 5.76263e-05, -0.00098001, 0.0322087, 0.0322194, 0.028312, 0.00726016, 0.00720482, 0.0313836
0.0356302, -0.00566389, -0.586746, 0.00132759, 6.68789e-05, -0.000940382, 0.0322157, 0.0322271, 0.0282709, 0.00724395, 0.0071871, 0.0313791
0.0356065, -0.00565483, -0.586604, 0.00134545, 5.67623e-05, -0.000922157, 0.0322225, 0.0322346, 0.0282306, 0.00722935, 0.00717105, 0.0313743
0.0356044, -0.00565747, -0.586618, 0.00136321, 5.52398e-05, -0.000901903, 0.0322294, 0.0322422, 0.0281912, 0.00721459, 0.00715504, 0.0313695
0.0356149, -0.00567304, -0.586782, 0.00140267, 4.63342e-05, -0.000838757, 0.0322361, 0.0322496, 0.0281523, 0.00719891, 0.0071388, 0.0313643
0.0356298, -0.00567803, -0.586841, 0.0013883, 6.15092e-05, -0.000904391, 0.0322429, 0.032257, 0.0281139, 0.0071813, 0.00712125, 0.0313577
0.0356332, -0.00568176, -0.586878, 0.00139215, 6.09804e-05, -0.000885858, 0.0322496, 0.0322642, 0.0280759, 0.00716057, 0.00710123, 0.0313512
0.0356419, -0.00569941, -0.587043, 0.00142543, 4.36547e-05, -0.000830095, 0.0322562, 0.0322713, 0.0280383, 0.00713601, 0.00707766, 0.0313441
0.0356389, -0.00571666, -0.587208, 0.00147885, -1.57432e-06, -0.000739005, 0.0322627, 0.0322783, 0.0280011, 0.00710702, 0.0070493, 0.0313355
0.0356534, -0.00572453, -0.587314, 0.00147448, -1.77774e-06, -0.000778221, 0.0322692, 0.0322852, 0.0279641, 0.00707247, 0.00701434, 0.0313247
0.0356539, -0.00574563, -0.587521, 0.00153015, -4.76675e-05, -0.000665747, 0.0322755, 0.0322919, 0.0279274, 0.00703082, 0.00697086, 0.0313123
0.0356575, -0.00576332, -0.587702, 0.0015738, -8.19438e-05, -0.000610325, 0.0322815, 0.0322984, 0.0278909, 0.00698139, 0.00691767, 0.0312973
0.0356669, -0.00576464, -0.587763, 0.00156206, -8.61937e-05, -0.000639815, 0.0322875, 0.0323048, 0.0278546, 0.0069232, 0.00685385, 0.0312796
0.0356629, -0.00577513, -0.587875, 0.00160107, -0.000118062, -0.000559944, 0.0322933, 0.032311, 0.0278184, 0.00685575, 0.00677845, 0.0312594
0.0356587, -0.00578453, -0.587999, 0.00164047, -0.00015668, -0.000492685, 0.0322988, 0.0323169, 0.0277823, 0.00677994, 0.00669279, 0.0312371
0.0356779, -0.00577843, -0.588003, 0.00158877, -0.00013589, -0.000583281, 0.0323043, 0.0323226, 0.0277463, 0.0066962, 0.0065977, 0.0312129
0.035677, -0.00577225, -0.58801, 0.00157828, -0.000154084, -0.000558451, 0.0323095, 0.032328, 0.0277104, 0.00660582, 0.00649558, 0.0311867
0.0356969, -0.00576416, -0.588012, 0.00152237, -0.000138578, -0.000629831, 0.0323145, 0.0323332, 0.0276745, 0.00651033, 0.00638873, 0.0311594
0.0357201, -0.00575462, -0.587997, 0.00145611, -0.000116951, -0.000704593, 0.0323193, 0.032338, 0.0276388, 0.00641082, 0.00627844, 0.0311304
0.0357338, -0.00574141, -0.587974, 0.00140414, -0.000117747, -0.000738574, 0.032324, 0.0323427, 0.0276032, 0.00630836, 0.00616585, 0.0310998
0.0357468, -0.00572629, -0.587924, 0.00135023, -0.000116033, -0.00078374, 0.0323287, 0.0323472, 0.0275676, 0.00620375, 0.00605114, 0.0310677
0.0357441, -0.00570677, -0.587847, 0.0013214, -0.000137241, -0.000775989, 0.0323332, 0.0323516, 0.027532, 0.00609837, 0.00593553, 0.0310348
0.0357609, -0.00569927, -0.587867, 0.00127803, -0.000140352, -0.000815458, 0.0323377, 0.0323558, 0.0274964, 0.00599336, 0.00581953, 0.0310018
0.0357931, -0.00568324, -0.587823, 0.00118635, -0.000128202, -0.000926855, 0.0323423, 0.0323602, 0.0274609, 0.0058895, 0.00570346, 0.0309688
0.0358054, -0.0056695, -0.587788, 0.00113941, -0.000136258, -0.000952504, 0.0323469, 0.0323646, 0.0274254, 0.00578831, 0.0055886, 0.0309348
0.0358204, -0.00565273, -0.587723, 0.00108047, -0.000143359, -0.00101148, 0.0323517, 0.0323691, 0.0273899, 0.00569042, 0.00547519, 0.0309016
0.0358206, -0.00565086, -0.58777, 0.00108432, -0.000160789, -0.000969053, 0.0323568, 0.0323741, 0.0273546, 0.00559588, 0.00536317, 0.0308691
0.035847, -0.00564199, -0.587745, 0.00100789, -0.000160269, -0.00108233, 0.0323622, 0.0323793, 0.0273192, 0.00550515, 0.00525371, 0.0308394
0.0358864, -0.0056302, -0.587677, 0.000878493, -0.000153593, -0.00126874, 0.032368, 0.0323851, 0.027284, 0.00541987, 0.00514904, 0.0308103
0.0358821, -0.0056104, -0.587577, 0.000853101, -0.000184857, -0.00125041, 0.0323743, 0.0323913, 0.0272489, 0.00534161, 0.00505085, 0.030781
0.0359034, -0.00560312, -0.587503, 0.000759393, -0.000181962, -0.00140798, 0.0323808, 0.0323977, 0.027214, 0.00527085, 0.0049607, 0.0307563
0.0359153, -0.00561001, -0.587613, 0.00075345, -0.000192796, -0.00138161, 0.0323876, 0.0324044, 0.0271793, 0.00520852, 0.00487985, 0.0307337
0.0359243, -0.00559811, -0.587497, 0.00067901, -0.000197279, -0.00150798, 0.0323946, 0.0324113, 0.0271449, 0.00515358, 0.00480834, 0.0307165
0.0359301, -0.00558671, -0.587392, 0.00061761, -0.000201728, -0.00158675, 0.0324016, 0.0324182, 0.0271107, 0.00510615, 0.00474592, 0.0307021
0.0359367, -0.0055711, -0.587233, 0.00053551, -0.000200331, -0.00170676, 0.0324088, 0.0324253, 0.0270768, 0.00506507, 0.00469146, 0.0306906
0.0359356, -0.00555631, -0.58711, 0.000496191, -0.000207929, -0.00173882, 0.0324159, 0.0324323, 0.0270431, 0.00502952, 0.0046442, 0.030681
0.0359306, -0.00556023, -0.587167, 0.000527919, -0.000215366, -0.00167215, 0.0324231, 0.0324394, 0.0270097, 0.00499804, 0.00460275, 0.030674
0.0359251, -0.00553776, -0.586952, 0.000487218, -0.000216886, -0.00174125, 0.0324304, 0.0324466, 0.0269766, 0.00496919, 0.00456606, 0.03067
0.0359213, -0.00553027, -0.586902, 0.000482768, -0.000222532, -0.00172777, 0.0324375, 0.0324535, 0.0269436, 0.00494309, 0.00453335, 0.0306671
0.0359342, -0.00551116, -0.586738, 0.000412442, -0.000216626, -0.00180151, 0.0324447, 0.0324605, 0.0269111, 0.00491876, 0.00450368, 0.0306652
0.035935, -0.00550164, -0.586665, 0.0003932, -0.000216293, -0.00178495, 0.0324518, 0.0324674, 0.0268787, 0.00489633, 0.00447647, 0.0306636
0.0359355, -0.0054961, -0.586614, 0.00038234, -0.000214002, -0.00178623, 0.0324589, 0.0324742, 0.0268466, 0.00487502, 0.0044511, 0.0306625
0.0359335, -0.00549685, -0.586622, 0.00038718, -0.000214709, -0.00177696, 0.0324658, 0.032481, 0.0268147, 0.00485452, 0.00442726, 0.0306617
0.0359231, -0.00549281, -0.586603, 0.000403313, -0.000222961, -0.00176936, 0.0324728, 0.0324878, 0.026783, 0.00483441, 0.0044044, 0.0306609
0.0359185, -0.00549, -0.586577, 0.000407961, -0.000224648, -0.00177623, 0.0324795, 0.0324945, 0.0267515, 0.00481443, 0.00438241, 0.0306599
0.0359131, -0.00548158, -0.586513, 0.000405957, -0.000228469, -0.00177844, 0.0324863, 0.0325013, 0.0267202, 0.0047944, 0.00436086, 0.0306585
0.0359251, -0.0054868, -0.586557, 0.000393357, -0.000222469, -0.00178061, 0.0324929, 0.0325081, 0.026689, 0.00477423, 0.00433981, 0.0306565
0.0359325, -0.00549135, -0.586586, 0.000386038, -0.000216415, -0.00177535, 0.0324995, 0.032515, 0.026658, 0.0047539, 0.00431938, 0.0306538
0.0359337, -0.00549679, -0.586612, 0.000389566, -0.000211445, -0.00177492, 0.0325062, 0.0325218, 0.0266271, 0.00473335, 0.0042995, 0.0306505
0.035941, -0.00550773, -0.586689, 0.000390849, -0.000204272, -0.00178079, 0.0325129, 0.0325285, 0.0265964, 0.00471256, 0.00428008, 0.0306465
0.0359503, -0.00550877, -0.586694, 0.000375495, -0.000199142, -0.00178222, 0.0325197, 0.0325355, 0.0265659, 0.00469144, 0.00426089, 0.0306419
0.0359461, -0.00551926, -0.58674, 0.000392784, -0.000191097, -0.00178439, 0.0325266, 0.0325423, 0.0265356, 0.00467006, 0.0042419, 0.0306369
0.0359375, -0.00552124, -0.586723, 0.000409223, -0.000188246, -0.00180022, 0.0325334, 0.0325492, 0.0265053, 0.00464844, 0.00422294, 0.0306314
0.0359337, -0.00552601, -0.586729, 0.000420824, -0.000182547, -0.00181661, 0.0325404, 0.0325561, 0.0264753, 0.00462661, 0.00420393, 0.0306255
0.0359213, -0.00554027, -0.586809, 0.000464884, -0.000178598, -0.00183375, 0.0325475, 0.0325632, 0.0264454, 0.00460461, 0.00418487, 0.0306192
0.0359262, -0.00554872, -0.586864, 0.000468111, -0.000171166, -0.0018644, 0.0325544, 0.0325703, 0.0264155, 0.00458257, 0.00416579, 0.0306124
0.035939, -0.00555772, -0.586947, 0.000456113, -0.000161948, -0.00187326, 0.0325616, 0.0325775, 0.026386, 0.00456051, 0.00414676, 0.0306052
0.0359357, -0.00556215, -0.58696, 0.000470638, -0.000157308, -0.00187211, 0.0325689, 0.0325849, 0.0263565, 0.00453845, 0.00412777, 0.0305975
0.0359346, -0.00557025, -0.587009, 0.000491524, -0.000152732, -0.00188481, 0.0325762, 0.0325922, 0.0263272, 0.00451645, 0.00410884, 0.0305893
0.0359354, -0.00557171, -0.587011, 0.000492578, -0.000148058, -0.00190265, 0.0325837, 0.0325997, 0.0262981, 0.00449454, 0.00409, 0.0305806
0.0359299, -0.00557211, -0.58699, 0.000511473, -0.000146917, -0.0018994, 0.0325911, 0.0326071, 0.0262691, 0.00447287, 0.00407133, 0.0305715
0.0359299, -0.00557211, -0.58699, 0.000511473, -0.000146917, -0.0018994, 0.0325989, 0.0326149, 0.0262788, 0.00447426, 0.00407287, 0.0305717
0.0359299, -0.00557211, -0.58699, 0.000511473, -0.000146917, -0.0018994, 0.0326068, 0.0326228, 0.0262885, 0.00447566, 0.0040744, 0.0305719
0.0359404, -0.00558565, -0.587123, 0.000525235, -0.000136877, -0.00192174, 0.0326143, 0.0326303, 0.0262453, 0.00444291, 0.00404514, 0.0305482
0.0359308, -0.00557634, -0.587018, 0.000528184, -0.000139864, -0.00191601, 0.0326218, 0.0326377, 0.0262045, 0.00441403, 0.00401892, 0.0305324
0.0359304, -0.00557498, -0.587008, 0.000516297, -0.000140139, -0.00192817, 0.0326293, 0.0326453, 0.026166, 0.00438802, 0.003995, 0.0305167
0.0359261, -0.00557035, -0.586963, 0.000489998, -0.00013963, -0.00195395, 0.0326369, 0.0326529, 0.0261294, 0.00436433, 0.00397299, 0.030501
0.035923, -0.00556831, -0.586945, 0.000460285, -0.00013711, -0.00198543, 0.0326444, 0.0326604, 0.0260945, 0.00434256, 0.00395255, 0.0304852
0.0359207, -0.0055686, -0.586943, 0.000433425, -0.000137301, -0.00200774, 0.0326518, 0.0326679, 0.0260609, 0.00432241, 0.0039335, 0.0304692
0.0359157, -0.00556809, -0.586927, 0.000405136, -0.000137687, -0.00203855, 0.0326593, 0.0326754, 0.0260287, 0.00430367, 0.00391559, 0.0304528
0.0359247, -0.00557537, -0.586996, 0.000409801, -0.000140947, -0.00199878, 0.0326667, 0.0326828, 0.0259974, 0.00428619, 0.00389877, 0.0304363
0.0359066, -0.00556925, -0.586892, 0.000372388, -0.000148041, -0.00206676, 0.0326741, 0.0326902, 0.0259671, 0.00427005, 0.00388294, 0.0304193
0.0359223, -0.00559005, -0.587081, 0.000355448, -0.000144024, -0.00209112, 0.0326814, 0.0326975, 0.0259376, 0.00425493, 0.00386807, 0.0304023
0.0359209, -0.00559001, -0.587061, 0.000350571, -0.000151429, -0.00206384, 0.0326887, 0.0327048, 0.0259088, 0.00424086, 0.00385397, 0.0303854
0.0359188, -0.00560241, -0.587124, 0.000320274, -0.000153738, -0.00214578, 0.0326961, 0.0327122, 0.0258806, 0.00422785, 0.00384056, 0.0303683
0.0359022, -0.00560112, -0.587042, 0.000289889, -0.000159444, -0.00218985, 0.0327034, 0.0327195, 0.0258529, 0.00421567, 0.00382775, 0.0303517
0.0358776, -0.00560274, -0.586946, 0.0002434, -0.00016348, -0.00230158, 0.0327106, 0.0327268, 0.0258256, 0.00420429, 0.00381555, 0.0303355
0.0358874, -0.00561049, -0.587015, 0.000241737, -0.000165092, -0.00225626, 0.0327179, 0.0327341, 0.0257986, 0.00419364, 0.003804, 0.03032
0.0358702, -0.00560594, -0.586905, 0.000222216, -0.000171507, -0.00230952, 0.0327251, 0.0327414, 0.0257719, 0.00418402, 0.00379297, 0.0303044
0.035856, -0.0056015, -0.586806, 0.000206678, -0.000174208, -0.00234198, 0.0327324, 0.0327488, 0.0257456, 0.00417526, 0.00378244, 0.0302891
0.0358347, -0.00558857, -0.586622, 0.000194813, -0.000179947, -0.00235505, 0.0327397, 0.0327562, 0.0257193, 0.00416731, 0.00377236, 0.0302742
0.0358221, -0.0055801, -0.586512, 0.000189408, -0.000181822, -0.00236369, 0.032747, 0.0327636, 0.0256934, 0.0041601, 0.00376266, 0.0302593
0.0357928, -0.00557328, -0.586334, 0.000156583, -0.000184201, -0.00251477, 0.0327544, 0.032771, 0.0256677, 0.00415356, 0.0037533, 0.0302445
0.0357937, -0.005571, -0.58632, 0.00015783, -0.000184746, -0.00245859, 0.0327618, 0.0327785, 0.0256423, 0.00414742, 0.00374421, 0.030231
0.0357971, -0.00557378, -0.586351, 0.000159345, -0.000183327, -0.0024635, 0.0327691, 0.0327859, 0.0256169, 0.00414183, 0.00373545, 0.0302173
0.0357786, -0.0055672, -0.58624, 0.000139969, -0.000183225, -0.00257343, 0.0327765, 0.0327934, 0.0255917, 0.00413671, 0.00372695, 0.0302037
0.0357704, -0.00556269, -0.586187, 0.000132984, -0.00017809, -0.00258892, 0.0327838, 0.0328009, 0.0255668, 0.00413179, 0.00371855, 0.0301914
0.0357642, -0.00555945, -0.586148, 0.000128018, -0.000175332, -0.00261245, 0.0327912, 0.0328084, 0.0255419, 0.00412711, 0.00371023, 0.0301798
0.0357727, -0.00556547, -0.586217, 0.000126547, -0.000172284, -0.00262085, 0.0327985, 0.032816, 0.0255171, 0.00412262, 0.00370194, 0.0301687
0.035784, -0.00557188, -0.586299, 0.000131037, -0.000168052, -0.00260172, 0.0328058, 0.0328235, 0.0254924, 0.00411825, 0.00369371, 0.030158
0.0358152, -0.00558796, -0.586483, 0.000164263, -0.000167134, -0.00242811, 0.0328133, 0.0328312, 0.025468, 0.00411398, 0.00368559, 0.0301475
0.0358066, -0.00558315, -0.586437, 0.000159164, -0.000168357, -0.00251903, 0.0328206, 0.0328387, 0.0254435, 0.00410984, 0.00367764, 0.0301365
0.0358202, -0.00559181, -0.586523, 0.000169506, -0.000165471, -0.00245327, 0.032828, 0.0328463, 0.0254192, 0.00410556, 0.00366982, 0.0301262
0.0358459, -0.00560976, -0.586697, 0.000187708, -0.00016039, -0.00238898, 0.0328353, 0.0328538, 0.025395, 0.00410118, 0.00366214, 0.0301164
0.0358454, -0.00561007, -0.586691, 0.000194878, -0.000162642, -0.00237648, 0.0328426, 0.0328614, 0.025371, 0.00409664, 0.00365463, 0.0301067
0.0358468, -0.00561158, -0.586697, 0.000201442, -0.000162456, -0.00235664, 0.0328499, 0.0328688, 0.025347, 0.00409181, 0.00364728, 0.0300976
0.03586, -0.00562222, -0.586795, 0.000204977, -0.000158737, -0.00236416, 0.0328573, 0.0328763, 0.0253231, 0.00408664, 0.0036401, 0.0300889
0.0358598, -0.00562254, -0.586793, 0.000208027, -0.000157853, -0.00235661, 0.0328647, 0.0328838, 0.0252994, 0.00408104, 0.00363308, 0.0300805
0.0358559, -0.00561555, -0.586754, 0.000196413, -0.000152545, -0.00241889, 0.0328719, 0.0328911, 0.0252756, 0.00407499, 0.00362618, 0.0300721
0.0358578, -0.00561673, -0.586762, 0.000196034, -0.000147935, -0.00241319, 0.0328793, 0.0328986, 0.0252521, 0.00406844, 0.00361942, 0.0300637
0.0358665, -0.00562693, -0.586834, 0.000204892, -0.000145727, -0.00239619, 0.0328866, 0.032906, 0.0252286, 0.00406143, 0.00361274, 0.0300549
0.0358645, -0.00562894, -0.58683, 0.000214149, -0.000146192, -0.0023797, 0.032894, 0.0329134, 0.0252052, 0.00405405, 0.00360614, 0.0300457
0.035871, -0.00563734, -0.58689, 0.0002206, -0.000146055, -0.00237729, 0.0329012, 0.0329207, 0.0251819, 0.00404637, 0.00359956, 0.0300362
0.0358645, -0.00563717, -0.586871, 0.000230292, -0.000149922, -0.0023445, 0.0329085, 0.032928, 0.0251587, 0.00403847, 0.00359295, 0.0300265
0.0358628, -0.0056315, -0.586836, 0.000224726, -0.000149115, -0.00237639, 0.0329157, 0.0329352, 0.0251355, 0.00403044, 0.00358627, 0.0300167
0.0358677, -0.00563861, -0.586876, 0.000228232, -0.000145482, -0.00237338, 0.0329229, 0.0329424, 0.0251126, 0.00402233, 0.00357952, 0.0300068
0.0358641, -0.00565008, -0.586933, 0.000248889, -0.000148699, -0.00231255, 0.03293, 0.0329495, 0.0250896, 0.00401421, 0.00357263, 0.0299972
0.0358639, -0.00564251, -0.586885, 0.000240572, -0.000148147, -0.00236632, 0.0329371, 0.0329565, 0.0250668, 0.00400614, 0.00356552, 0.029988
0.0358534, -0.00564594, -0.586899, 0.000258409, -0.000152165, -0.00228741, 0.0329443, 0.0329636, 0.0250441, 0.00399815, 0.0035582, 0.0299791
0.0358489, -0.00564652, -0.586904, 0.000266965, -0.00015588, -0.00228268, 0.0329513, 0.0329706, 0.0250214, 0.00399027, 0.00355059, 0.029971
0.0358499, -0.00564771, -0.586913, 0.000267791, -0.000156201, -0.00229108, 0.0329583, 0.0329777, 0.0249989, 0.00398251, 0.00354276, 0.0299634
0.0358482, -0.00564639, -0.5869, 0.00026816, -0.000156134, -0.00229056, 0.0329651, 0.0329845, 0.0249764, 0.00397491, 0.00353475, 0.0299564
0.0358389, -0.00564107, -0.586868, 0.00027323, -0.000159118, -0.00226794, 0.032972, 0.0329914, 0.024954, 0.00396749, 0.0035266, 0.0299498
0.0358255, -0.00564646, -0.586929, 0.000295707, -0.00016366, -0.0021976, 0.0329787, 0.0329982, 0.0249317, 0.00396029, 0.00351836, 0.0299436
0.0358278, -0.00564284, -0.586905, 0.000291901, -0.000165825, -0.0022374, 0.0329853, 0.0330048, 0.0249095, 0.00395326, 0.00351, 0.0299379
0.0358315, -0.00563569, -0.586845, 0.000280651, -0.000165627, -0.00226687, 0.0329918, 0.0330113, 0.0248875, 0.00394651, 0.00350163, 0.0299324
0.0358224, -0.0056311, -0.586839, 0.000286228, -0.000168585, -0.00222643, 0.0329982, 0.0330178, 0.0248655, 0.00394004, 0.00349327, 0.029927
0.0358155, -0.00562928, -0.586863, 0.000294566, -0.000172851, -0.00220243, 0.0330046, 0.0330242, 0.0248436, 0.00393379, 0.00348486, 0.0299221
0.0358065, -0.00563103, -0.586923, 0.000308207, -0.000176474, -0.00216357, 0.0330109, 0.0330305, 0.0248218, 0.00392775, 0.00347638, 0.0299175
0.0358063, -0.00561996, -0.58685, 0.000302467, -0.00018189, -0.00219801, 0.0330172, 0.0330368, 0.0248, 0.00392186, 0.00346781, 0.0299135
0.0357985, -0.00561098, -0.586816, 0.000304949, -0.000185805, -0.00217522, 0.0330236, 0.0330434, 0.0247783, 0.00391622, 0.00345921, 0.0299096
0.0357954, -0.00560681, -0.586842, 0.000311402, -0.000190803, -0.00215597, 0.0330301, 0.03305, 0.0247567, 0.00391069, 0.00345038, 0.0299061
0.0357865, -0.00559762, -0.586798, 0.000316956, -0.000195884, -0.00215046, 0.0330367, 0.0330569, 0.0247351, 0.00390519, 0.00344147, 0.0299033
0.0357759, -0.00558489, -0.586731, 0.000322955, -0.00020341, -0.00214366, 0.0330435, 0.0330638, 0.0247135, 0.00389972, 0.00343282, 0.0299011
0.0357758, -0.00558266, -0.586651, 0.000312506, -0.000204907, -0.00217901, 0.0330503, 0.0330709, 0.024692, 0.00389421, 0.00342462, 0.0298995
0.035777, -0.00558111, -0.586549, 0.000294378, -0.000204903, -0.00220655, 0.0330571, 0.0330779, 0.0246706, 0.00388878, 0.00341713, 0.0298982
0.0357833, -0.00558553, -0.586528, 0.000279769, -0.000202846, -0.00221553, 0.033064, 0.033085, 0.0246494, 0.00388343, 0.00341046, 0.0298968
0.0357816, -0.00558211, -0.586519, 0.000280758, -0.000204079, -0.00219452, 0.033071, 0.033092, 0.0246284, 0.00387806, 0.00340467, 0.029895
0.0357729, -0.00556849, -0.586435, 0.000282026, -0.000208324, -0.00218811, 0.033078, 0.0330991, 0.0246077, 0.00387252, 0.00339981, 0.029892
0.0357707, -0.00555431, -0.586259, 0.00025944, -0.000209008, -0.00221938, 0.033085, 0.0331059, 0.0245869, 0.00386682, 0.00339573, 0.0298873
0.0357634, -0.0055472, -0.586233, 0.000262843, -0.000208229, -0.00218081, 0.0330919, 0.0331127, 0.0245665, 0.00386117, 0.00339234, 0.0298802
0.035765, -0.0055441, -0.586222, 0.000260255, -0.000210873, -0.00218139, 0.0330987, 0.0331194, 0.024546, 0.00385535, 0.00338942, 0.0298712
0.0357842, -0.00553309, -0.586026, 0.000215738, -0.000210128, -0.00223468, 0.0331055, 0.0331261, 0.0245257, 0.00384947, 0.00338686, 0.0298606
0.0357776, -0.00551194, -0.585864, 0.000199158, -0.00020943, -0.00218902, 0.0331122, 0.0331328, 0.0245056, 0.00384379, 0.00338457, 0.0298487
0.03575, -0.00550443, -0.585886, 0.000224409, -0.000210063, -0.00213365, 0.0331188, 0.0331394, 0.0244856, 0.0038381, 0.00338246, 0.0298359
0.0357546, -0.00549564, -0.585807, 0.00021442, -0.000213454, -0.00216941, 0.0331252, 0.0331459, 0.0244655, 0.00383225, 0.00338045, 0.0298229
0.0357452, -0.00548934, -0.585778, 0.000217964, -0.000213611, -0.00214645, 0.0331317, 0.0331524, 0.0244455, 0.00382663, 0.00337851, 0.0298102
0.0357521, -0.00547121, -0.585624, 0.000199337, -0.000217392, -0.00216152, 0.033138, 0.0331588, 0.0244257, 0.00382124, 0.00337659, 0.0297979
0.0357577, -0.00548177, -0.585727, 0.000202191, -0.000215483, -0.00213598, 0.0331443, 0.0331652, 0.024406, 0.00381631, 0.00337459, 0.0297865
0.0357306, -0.005474, -0.585704, 0.00021759, -0.000215566, -0.00210881, 0.0331503, 0.0331713, 0.0243862, 0.00381178, 0.00337244, 0.029776
0.0357115, -0.00546548, -0.585699, 0.000229375, -0.000218352, -0.00209136, 0.0331563, 0.0331775, 0.0243666, 0.00380766, 0.00337015, 0.0297663
0.0357084, -0.00545979, -0.585676, 0.000230461, -0.000221095, -0.00209905, 0.033162, 0.0331833, 0.024347, 0.00380383, 0.00336765, 0.0297572
0.0357097, -0.00545179, -0.585563, 0.000223239, -0.000222494, -0.00212777, 0.0331677, 0.0331893, 0.0243276, 0.00380027, 0.00336504, 0.0297483
0.035718, -0.00544222, -0.585474, 0.000213055, -0.000225836, -0.00214383, 0.0331734, 0.033195, 0.0243081, 0.00379691, 0.0033623, 0.0297392
0.0357181, -0.00543534, -0.585408, 0.000208362, -0.000226865, -0.00214427, 0.033179, 0.0332008, 0.0242888, 0.00379373, 0.00335951, 0.0297298
0.035694, -0.00543699, -0.585432, 0.000220998, -0.00022072, -0.00209636, 0.0331848, 0.0332066, 0.0242695, 0.00379071, 0.00335672, 0.0297198
0.0356783, -0.00542875, -0.585396, 0.000228444, -0.000221178, -0.00208333, 0.0331907, 0.0332124, 0.0242503, 0.00378783, 0.00335395, 0.0297093
0.035688, -0.00542966, -0.585373, 0.000223553, -0.000223412, -0.00211998, 0.0331966, 0.0332182, 0.024231, 0.00378506, 0.00335123, 0.0296983
0.0356755, -0.0054296, -0.585368, 0.000228946, -0.000219172, -0.00209058, 0.0332027, 0.0332241, 0.0242117, 0.00378239, 0.00334859, 0.029687
0.0356541, -0.00543797, -0.585475, 0.000243514, -0.000212715, -0.00205332, 0.033209, 0.0332301, 0.0241925, 0.00377982, 0.00334607, 0.0296756
0.0356723, -0.00544518, -0.585441, 0.000234654, -0.000215927, -0.00213413, 0.0332154, 0.0332361, 0.0241732, 0.00377734, 0.00334362, 0.0296644
0.0356561, -0.00545233, -0.585523, 0.000243288, -0.000209204, -0.00209131, 0.0332219, 0.0332423, 0.024154, 0.0037749, 0.0033413, 0.0296535
0.0356289, -0.00545043, -0.585543, 0.000260377, -0.00020077, -0.00203293, 0.0332286, 0.0332487, 0.0241348, 0.00377256, 0.00333906, 0.0296428
0.0356304, -0.00545224, -0.585517, 0.000261196, -0.000200901, -0.00206881, 0.0332354, 0.0332553, 0.0241157, 0.00377033, 0.00333694, 0.0296326
0.0356057, -0.00545817, -0.585625, 0.000276298, -0.000192047, -0.00201878, 0.0332425, 0.0332622, 0.0240967, 0.00376814, 0.00333496, 0.0296231
0.0356096, -0.00545351, -0.585549, 0.00027715, -0.000192408, -0.00203064, 0.0332495, 0.0332691, 0.0240777, 0.00376603, 0.00333305, 0.0296143
0.035588, -0.00545583, -0.585634, 0.000291917, -0.000183807, -0.00198098, 0.0332568, 0.0332763, 0.0240589, 0.00376387, 0.00333128, 0.0296066
0.0355906, -0.00545384, -0.585584, 0.00029385, -0.000182857, -0.00199399, 0.033264, 0.0332836, 0.0240401, 0.00376172, 0.00332956, 0.0295994
0.0355646, -0.00545726, -0.585718, 0.000311602, -0.00017327, -0.00194678, 0.0332713, 0.0332909, 0.0240216, 0.0037595, 0.00332792, 0.0295933
0.0355392, -0.00545987, -0.585857, 0.000331181, -0.000165586, -0.00192295, 0.0332786, 0.0332983, 0.0240031, 0.00375736, 0.00332627, 0.0295873
0.0355456, -0.00545444, -0.58578, 0.000336341, -0.000163367, -0.0019167, 0.033286, 0.0333059, 0.0239849, 0.00375526, 0.00332466, 0.0295816
0.0355308, -0.00545373, -0.585862, 0.000350067, -0.000156588, -0.00188706, 0.0332933, 0.0333133, 0.0239669, 0.00375288, 0.00332305, 0.0295774
0.0355314, -0.0054521, -0.585852, 0.000354274, -0.000155738, -0.00189476, 0.0333006, 0.033321, 0.0239491, 0.00375039, 0.00332144, 0.0295738
0.0355313, -0.00545042, -0.585849, 0.000358271, -0.000153556, -0.00188782, 0.0333079, 0.0333284, 0.0239314, 0.00374761, 0.0033197, 0.0295711
0.0355435, -0.00545157, -0.585743, 0.000343074, -0.000155393, -0.0019189, 0.0333152, 0.0333361, 0.023914, 0.00374456, 0.00331777, 0.0295691
0.0355314, -0.00544904, -0.585855, 0.000358839, -0.000147353, -0.00188422, 0.0333225, 0.0333435, 0.0238966, 0.00374109, 0.00331559, 0.0295675
0.0355367, -0.00544573, -0.585831, 0.000367394, -0.000147806, -0.00189163, 0.0333298, 0.0333511, 0.0238794, 0.00373749, 0.00331313, 0.029566
0.0355308, -0.00544283, -0.585886, 0.000375976, -0.000142856, -0.00189932, 0.0333369, 0.0333585, 0.0238621, 0.00373353, 0.00331051, 0.0295646
0.0355322, -0.00544252, -0.585878, 0.000377396, -0.000143778, -0.00190739, 0.033344, 0.033366, 0.0238452, 0.00372929, 0.00330774, 0.0295632
0.0355375, -0.00544248, -0.585834, 0.000373197, -0.000143985, -0.00190311, 0.0333509, 0.0333733, 0.0238282, 0.0037246, 0.00330471, 0.0295614
0.0355373, -0.0054399, -0.585873, 0.00038357, -0.000141901, -0.00190289, 0.0333578, 0.0333807, 0.0238115, 0.0037195, 0.00330137, 0.029559
0.0355422, -0.0054408, -0.585815, 0.000376878, -0.000144024, -0.00190793, 0.0333645, 0.0333878, 0.0237945, 0.0037141, 0.00329756, 0.0295561
0.0355394, -0.00543788, -0.585899, 0.000393574, -0.000141519, -0.00191724, 0.0333712, 0.033395, 0.0237777, 0.00370828, 0.00329335, 0.0295521
0.0355362, -0.00543544, -0.58597, 0.000408986, -0.000141637, -0.00195158, 0.0333779, 0.0334021, 0.0237608, 0.00370199, 0.00328868, 0.0295468
0.0355233, -0.00543687, -0.586042, 0.00041076, -0.00014223, -0.00196406, 0.0333844, 0.0334092, 0.0237439, 0.00369502, 0.00328363, 0.0295393
0.0355142, -0.00543447, -0.586142, 0.000424256, -0.000141875, -0.00199269, 0.0333908, 0.0334162, 0.023727, 0.00368729, 0.00327819, 0.0295289
0.0355153, -0.00543521, -0.586168, 0.000432685, -0.000145798, -0.0020205, 0.0333969, 0.0334231, 0.02371, 0.00367879, 0.00327247, 0.0295151
0.0354956, -0.00543661, -0.586224, 0.000423209, -0.000143019, -0.00199661, 0.0334031, 0.03343, 0.0236929, 0.00366953, 0.00326647, 0.0294975
0.0354964, -0.00543848, -0.586211, 0.000419288, -0.000143155, -0.00197661, 0.0334091, 0.0334368, 0.0236756, 0.00365939, 0.00326025, 0.0294752
0.0354935, -0.00544079, -0.586212, 0.000414688, -0.000143394, -0.00195649, 0.0334151, 0.0334437, 0.0236582, 0.00364831, 0.00325366, 0.0294472
0.0354775, -0.00544066, -0.586313, 0.000418592, -0.000142424, -0.00196322, 0.0334211, 0.0334505, 0.0236403, 0.00363621, 0.00324663, 0.0294129
0.0354628, -0.00544609, -0.586321, 0.000399644, -0.000139663, -0.00188303, 0.0334272, 0.0334574, 0.0236221, 0.00362296, 0.00323919, 0.0293709
0.0354516, -0.00545142, -0.586333, 0.000383038, -0.000136854, -0.00179678, 0.0334333, 0.0334643, 0.0236035, 0.00360868, 0.00323154, 0.0293216
0.035429, -0.00545608, -0.586503, 0.000385559, -0.00013417, -0.00178631, 0.0334396, 0.0334714, 0.0235848, 0.00359333, 0.0032239, 0.0292642
0.0354079, -0.00546257, -0.586558, 0.000363137, -0.000127846, -0.00166802, 0.033446, 0.0334784, 0.0235662, 0.00357654, 0.00321613, 0.0291957
0.0353918, -0.0054704, -0.586666, 0.000355438, -0.000124755, -0.00160605, 0.0334525, 0.0334856, 0.0235476, 0.00355855, 0.00320846, 0.0291173
0.0353685, -0.00547851, -0.586712, 0.000321912, -0.00011417, -0.0014117, 0.033459, 0.0334928, 0.0235292, 0.00353918, 0.00320073, 0.0290271
0.0353493, -0.00548268, -0.586669, 0.000274385, -9.91032e-05, -0.00113246, 0.0334656, 0.0335, 0.0235111, 0.00351859, 0.00319302, 0.0289257
0.0353304, -0.00548499, -0.586611, 0.000222592, -8.04855e-05, -0.000817994, 0.0334724, 0.0335073, 0.0234935, 0.00349681, 0.00318531, 0.0288129
0.0353054, -0.00548384, -0.586496, 0.000147311, -4.97154e-05, -0.000358923, 0.0334792, 0.0335145, 0.0234762, 0.0034739, 0.00317751, 0.0286887
0.0352828, -0.00549258, -0.586614, 0.000116341, -3.14123e-05, -0.000132699, 0.0334861, 0.0335219, 0.0234593, 0.00345001, 0.00316968, 0.0285537
0.0352793, -0.00549475, -0.586614, 0.000104758, -2.78044e-05, -4.98703e-05, 0.0334931, 0.0335293, 0.0234429, 0.0034247, 0.00316142, 0.0284034
0.0352539, -0.00550088, -0.586676, 5.60314e-05, -2.4466e-06, 0.000283966, 0.0335002, 0.0335368, 0.023427, 0.00339829, 0.00315279, 0.0282403
0.0352406, -0.00550708, -0.586751, 2.93361e-05, 1.16122e-05, 0.000486325, 0.0335073, 0.0335442, 0.0234114, 0.00337079, 0.00314382, 0.0280637
0.035239, -0.00550886, -0.586758, 2.29557e-05, 1.3211e-05, 0.000537408, 0.0335146, 0.0335518, 0.0233964, 0.00334218, 0.00313445, 0.0278728
0.0352343, -0.00551123, -0.586755, 7.05169e-06, 1.87722e-05, 0.00065317, 0.0335218, 0.0335592, 0.0233818, 0.00331266, 0.00312465, 0.0276691
0.0352303, -0.00551678, -0.586893, 5.80177e-06, 1.94278e-05, 0.000685015, 0.0335292, 0.0335668, 0.0233677, 0.00328217, 0.00311433, 0.027451
0.0352152, -0.00552273, -0.586983, -3.62194e-05, 4.24186e-05, 0.00100992, 0.0335365, 0.0335742, 0.0233539, 0.0032508, 0.00310336, 0.0272191
0.0352126, -0.00552747, -0.587124, -3.99295e-05, 4.6075e-05, 0.00106305, 0.033544, 0.0335818, 0.0233407, 0.00321903, 0.00309197, 0.0269776
0.035212, -0.00553315, -0.587301, -3.43092e-05, 4.34426e-05, 0.00104283, 0.0335514, 0.0335893, 0.0233277, 0.00318715, 0.00308016, 0.0267298
0.035212, -0.00553315, -0.587301, -3.43092e-05, 4.34426e-05, 0.00104283, 0.0335591, 0.033597, 0.0233388, 0.00318913, 0.00308221, 0.0267301
0.0352057, -0.00553694, -0.58747, -4.39424e-05, 5.08061e-05, 0.0011331, 0.0335664, 0.0336044, 0.0233218, 0.00314911, 0.00306613, 0.0264125
0.0351891, -0.0055401, -0.587473, -0.00011421, 9.32289e-05, 0.00168514, 0.0335738, 0.0336117, 0.0233056, 0.00311188, 0.00305091, 0.0261144
0.0351827, -0.00554023, -0.587629, -0.000111733, 9.58039e-05, 0.00168763, 0.0335812, 0.033619, 0.0232898, 0.00307757, 0.00303658, 0.0258386
0.0351806, -0.00553959, -0.587742, -8.3087e-05, 7.97151e-05, 0.00147031, 0.0335886, 0.0336264, 0.0232745, 0.0030454, 0.00302266, 0.025578
0.0351665, -0.00553748, -0.587909, -8.10492e-05, 8.26532e-05, 0.00146049, 0.0335959, 0.0336334, 0.0232592, 0.00301525, 0.00300907, 0.0253331
0.035162, -0.00553501, -0.588023, -4.90217e-05, 6.51222e-05, 0.00121468, 0.0336033, 0.0336405, 0.0232443, 0.00298697, 0.0029958, 0.0251027
0.0351465, -0.00553053, -0.588166, -3.99864e-05, 6.37032e-05, 0.00114458, 0.0336105, 0.0336473, 0.0232292, 0.00296048, 0.00298273, 0.0248877
0.0351469, -0.00552758, -0.588196, -1.9888e-05, 5.29392e-05, 0.000988581, 0.0336176, 0.033654, 0.0232141, 0.00293578, 0.00296988, 0.0246888
0.035151, -0.00552614, -0.588145, -3.76266e-05, 6.52501e-05, 0.00112205, 0.0336245, 0.0336604, 0.0231985, 0.00291288, 0.00295711, 0.0245073
0.0351426, -0.00551969, -0.588194, -3.32757e-05, 6.7385e-05, 0.00109213, 0.0336314, 0.0336668, 0.0231828, 0.0028917, 0.00294454, 0.0243424
0.0351453, -0.0055186, -0.588156, -5.97433e-05, 8.51708e-05, 0.00128918, 0.0336379, 0.0336729, 0.0231665, 0.00287209, 0.00293205, 0.0241936
0.0351241, -0.00550585, -0.588237, -5.70685e-05, 9.225e-05, 0.00127117, 0.0336442, 0.033679, 0.02315, 0.00285395, 0.00291979, 0.0240594
0.0351282, -0.00549454, -0.588236, -3.6971e-05, 8.77552e-05, 0.00112962, 0.0336499, 0.0336849, 0.0231328, 0.00283705, 0.00290781, 0.0239379
0.0351736, -0.00549978, -0.58806, -8.30268e-05, 0.000115227, 0.00146494, 0.0336555, 0.0336908, 0.0231156, 0.00282121, 0.00289627, 0.0238268
0.0352023, -0.00549868, -0.587974, -9.2465e-05, 0.000124303, 0.00155173, 0.0336607, 0.0336968, 0.0230982, 0.00280629, 0.00288544, 0.0237243
0.0352602, -0.005502, -0.587797, -0.000130498, 0.000149052, 0.00183467, 0.0336657, 0.0337028, 0.0230808, 0.00279217, 0.00287533, 0.0236295
0.0352959, -0.00550176, -0.587695, -0.000152681, 0.000165806, 0.00200765, 0.0336705, 0.0337091, 0.0230636, 0.00277869, 0.00286613, 0.0235404
0.0353594, -0.00550647, -0.587522, -0.000165071, 0.000174515, 0.00212193, 0.0336754, 0.0337156, 0.0230467, 0.00276579, 0.0028578, 0.0234568
0.0353813, -0.00550603, -0.587463, -0.000170514, 0.000180121, 0.00217051, 0.0336803, 0.0337222, 0.0230301, 0.00275336, 0.00285019, 0.0233774
0.0353939, -0.00550388, -0.587431, -0.000164849, 0.000179598, 0.00214228, 0.0336855, 0.033729, 0.023014, 0.00274146, 0.00284326, 0.0233031
0.0354074, -0.00550151, -0.587399, -0.000149492, 0.0001736, 0.00205185, 0.0336906, 0.0337358, 0.0229982, 0.00273006, 0.00283689, 0.0232337
0.0354339, -0.00550089, -0.587327, -0.000140153, 0.000171003, 0.00200355, 0.033696, 0.0337428, 0.0229829, 0.00271908, 0.00283098, 0.0231683
0.0354195, -0.00549287, -0.587381, -0.000106417, 0.000156851, 0.00179073, 0.0337014, 0.0337498, 0.0229679, 0.00270846, 0.00282545, 0.0231063
0.0354498, -0.00549655, -0.587286, -0.000105463, 0.000155718, 0.00178906, 0.0337072, 0.033757, 0.0229535, 0.00269824, 0.00282025, 0.0230482
0.035427, -0.00548857, -0.587366, -9.02578e-05, 0.000152068, 0.00169107, 0.033713, 0.0337641, 0.0229393, 0.00268826, 0.00281526, 0.0229923
0.0354519, -0.0054899, -0.587289, -7.80351e-05, 0.000146883, 0.00162859, 0.0337189, 0.0337713, 0.0229255, 0.00267867, 0.00281055, 0.02294
0.0354338, -0.0054837, -0.587357, -5.70484e-05, 0.000138804, 0.00149791, 0.0337249, 0.0337786, 0.0229121, 0.00266925, 0.00280593, 0.022889
0.035428, -0.00547905, -0.587383, -4.51274e-05, 0.000136018, 0.00142375, 0.033731, 0.0337859, 0.022899, 0.00266009, 0.00280141, 0.0228403
0.0354423, -0.00548086, -0.587331, -4.64083e-05, 0.000137013, 0.00143399, 0.0337372, 0.0337932, 0.022886, 0.00265115, 0.00279695, 0.0227937
0.0354499, -0.00548105, -0.587307, -2.7864e-05, 0.000128345, 0.00133616, 0.0337437, 0.0338007, 0.0228734, 0.00264238, 0.00279252, 0.0227482
0.0354673, -0.00548214, -0.587243, -9.81862e-06, 0.000120879, 0.00123947, 0.0337501, 0.033808, 0.0228608, 0.00263372, 0.002788, 0.0227038
0.0354903, -0.00548686, -0.587147, -1.58809e-05, 0.000122043, 0.00127388, 0.0337566, 0.0338155, 0.0228485, 0.00262517, 0.00278336, 0.0226597
0.0354824, -0.00548416, -0.587184, -3.7062e-06, 0.000119073, 0.00120978, 0.0337632, 0.0338229, 0.0228362, 0.00261665, 0.00277852, 0.0226155
0.0355096, -0.00548928, -0.587061, -1.03373e-05, 0.000118166, 0.00124536, 0.0337699, 0.0338304, 0.022824, 0.00260824, 0.0027735, 0.0225718
0.0355052, -0.00548871, -0.58708, -2.15542e-06, 0.00011512, 0.00120329, 0.0337766, 0.0338379, 0.0228117, 0.00259989, 0.00276825, 0.022528
0.0355217, -0.00549095, -0.587003, -1.31619e-05, 0.000117167, 0.00125973, 0.0337834, 0.0338454, 0.0227995, 0.00259165, 0.00276277, 0.0224845
0.0355344, -0.00549222, -0.586943, -1.08848e-05, 0.000115774, 0.00125361, 0.0337902, 0.033853, 0.0227872, 0.00258348, 0.00275705, 0.022441
0.0355321, -0.0054922, -0.586954, -1.66202e-05, 0.000116964, 0.00128114, 0.033797, 0.0338605, 0.0227749, 0.00257538, 0.00275103, 0.0223973
0.0355276, -0.00549181, -0.586977, -1.15323e-05, 0.000116571, 0.00125836, 0.0338039, 0.033868, 0.0227624, 0.00256735, 0.0027447, 0.0223534
0.035509, -0.00549073, -0.587074, -5.93792e-06, 0.000116898, 0.00123069, 0.0338108, 0.0338756, 0.0227498, 0.00255937, 0.00273803, 0.0223088
0.0355265, -0.00549081, -0.586981, -2.24517e-05, 0.000118881, 0.00130782, 0.0338179, 0.0338831, 0.0227369, 0.00255138, 0.00273098, 0.0222629
0.0355335, -0.00549224, -0.586926, -1.03619e-05, 0.000112332, 0.00124351, 0.0338249, 0.0338907, 0.0227238, 0.00254336, 0.00272363, 0.0222156
0.0355311, -0.00549273, -0.58693, -3.93302e-06, 0.000106383, 0.00119668, 0.0338321, 0.0338982, 0.0227106, 0.00253527, 0.00271593, 0.0221657
0.035527, -0.00549191, -0.586969, -1.06937e-05, 0.00010941, 0.00123491, 0.0338394, 0.0339058, 0.0226972, 0.00252708, 0.00270792, 0.0221131
0.0355169, -0.00549205, -0.587057, -1.25894e-05, 0.000111239, 0.00125372, 0.0338466, 0.0339133, 0.0226836, 0.0025188, 0.00269969, 0.022058
0.035526, -0.00548873, -0.587038, -3.8559e-05, 0.000121177, 0.00140585, 0.0338539, 0.0339209, 0.02267, 0.00251044, 0.00269133, 0.022
0.0355211, -0.0054904, -0.587105, -3.9528e-05, 0.000122776, 0.0014269, 0.0338612, 0.0339283, 0.0226562, 0.00250198, 0.00268293, 0.0219395
0.0355193, -0.00549137, -0.58717, -4.72931e-05, 0.000126981, 0.00148195, 0.0338687, 0.0339359, 0.0226426, 0.0024934, 0.00267446, 0.021875
0.0355343, -0.00548479, -0.587122, -8.14549e-05, 0.000141221, 0.00169835, 0.033876, 0.0339433, 0.022629, 0.00248466, 0.00266597, 0.0218065
0.0355449, -0.00548063, -0.587077, -0.00010231, 0.000151837, 0.00184396, 0.0338834, 0.0339508, 0.0226156, 0.00247591, 0.0026577, 0.0217363
0.0355382, -0.00548934, -0.587253, -9.30924e-05, 0.000152452, 0.00181489, 0.0338908, 0.0339583, 0.0226025, 0.00246717, 0.00264971, 0.0216643
0.0355433, -0.00548653, -0.587241, -0.00010556, 0.000156729, 0.00189292, 0.0338981, 0.0339657, 0.0225895, 0.00245827, 0.00264182, 0.0215874
0.0355476, -0.00548476, -0.587242, -0.000114199, 0.000159775, 0.00195499, 0.0339055, 0.0339731, 0.0225771, 0.00244935, 0.00263421, 0.0215079
0.0355472, -0.00548358, -0.587241, -0.000113578, 0.000156401, 0.00194643, 0.0339128, 0.0339806, 0.0225649, 0.00244039, 0.00262681, 0.0214254
0.0355401, -0.00548717, -0.587318, -9.73429e-05, 0.000146428, 0.00183102, 0.0339201, 0.033988, 0.0225531, 0.00243144, 0.00261962, 0.0213406
0.0355358, -0.00549209, -0.58744, -8.62589e-05, 0.000142354, 0.00176002, 0.0339274, 0.0339954, 0.0225415, 0.00242253, 0.0026126, 0.0212538
0.0355475, -0.0054879, -0.587408, -0.000111495, 0.000154609, 0.00194338, 0.0339348, 0.0340029, 0.0225303, 0.00241374, 0.00260579, 0.0211657
0.0355514, -0.00548692, -0.587437, -0.000120243, 0.000158221, 0.0020175, 0.0339421, 0.0340103, 0.0225193, 0.00240507, 0.00259921, 0.021078
0.0355543, -0.0054865, -0.587474, -0.000127811, 0.000161587, 0.00208043, 0.0339494, 0.0340179, 0.0225086, 0.00239651, 0.00259279, 0.0209892
0.0355462, -0.00549045, -0.587588, -0.000116817, 0.000156117, 0.0020068, 0.0339567, 0.0340253, 0.022498, 0.00238811, 0.00258649, 0.0209012
0.0355447, -0.00549168, -0.587648, -0.000119325, 0.000156954, 0.00202697, 0.0339641, 0.0340328, 0.0224876, 0.00237987, 0.00258029, 0.0208132
0.0355445, -0.00549345, -0.587716, -0.000124571, 0.000160301, 0.00207533, 0.0339714, 0.0340403, 0.0224774, 0.00237181, 0.0025742, 0.0207261
0.0355311, -0.00550213, -0.587888, -0.000104478, 0.00015173, 0.00193409, 0.0339787, 0.0340477, 0.0224672, 0.00236393, 0.00256825, 0.0206405
0.035526, -0.00550403, -0.587946, -9.98498e-05, 0.00014648, 0.00189031, 0.033986, 0.0340551, 0.0224572, 0.00235627, 0.0025624, 0.0205566
0.0355253, -0.00550525, -0.587998, -0.000103663, 0.000147587, 0.00192048, 0.0339933, 0.0340626, 0.0224473, 0.00234886, 0.0025567, 0.0204754
0.0355097, -0.00551123, -0.588142, -7.62339e-05, 0.000133317, 0.00171533, 0.0340007, 0.0340702, 0.0224374, 0.00234165, 0.00255114, 0.0203964
0.0355097, -0.00551173, -0.588191, -8.08405e-05, 0.000134891, 0.00174498, 0.034008, 0.0340777, 0.0224275, 0.00233459, 0.00254565, 0.0203186
0.0355087, -0.00551261, -0.588264, -8.3091e-05, 0.000136337, 0.00176753, 0.0340154, 0.0340852, 0.0224175, 0.00232775, 0.00254028, 0.0202439
0.0355209, -0.00551155, -0.588244, -0.000108233, 0.000150906, 0.00196368, 0.0340226, 0.0340926, 0.0224074, 0.00232114, 0.002535, 0.0201728
0.0355002, -0.00551585, -0.588451, -7.57352e-05, 0.000136571, 0.00173259, 0.03403, 0.0341001, 0.0223973, 0.00231483, 0.00252984, 0.0201054
0.0354908, -0.00551838, -0.588565, -6.13034e-05, 0.000130007, 0.00161881, 0.0340373, 0.0341076, 0.022387, 0.00230869, 0.00252467, 0.0200406
0.0354761, -0.00552287, -0.588752, -4.34941e-05, 0.000123812, 0.00149087, 0.0340447, 0.0341151, 0.0223765, 0.00230288, 0.00251954, 0.019981
0.035469, -0.00552401, -0.588799, -3.33946e-05, 0.000118178, 0.00141336, 0.034052, 0.0341226, 0.0223656, 0.00229737, 0.00251442, 0.0199269
0.0354709, -0.00552355, -0.588779, -3.44107e-05, 0.000118367, 0.00141695, 0.0340594, 0.0341301, 0.0223544, 0.00229222, 0.00250934, 0.019879
0.0354742, -0.00552245, -0.588729, -3.1506e-05, 0.00011648, 0.00139956, 0.0340666, 0.0341376, 0.0223427, 0.00228737, 0.0025043, 0.0198368
0.035493, -0.00552028, -0.588618, -4.91214e-05, 0.000124617, 0.00151187, 0.0340738, 0.034145, 0.0223309, 0.00228281, 0.00249933, 0.0197992
0.0355079, -0.00551832, -0.588512, -5.38699e-05, 0.000126787, 0.00155237, 0.034081, 0.0341525, 0.0223187, 0.00227855, 0.00249446, 0.0197664
0.0355261, -0.00551665, -0.588405, -6.35483e-05, 0.00013282, 0.00161781, 0.0340882, 0.0341601, 0.0223064, 0.00227455, 0.0024897, 0.0197375
0.0355097, -0.00551778, -0.588479, -4.95153e-05, 0.000130627, 0.00154915, 0.0340952, 0.0341675, 0.0222936, 0.00227076, 0.00248504, 0.0197126
0.035518, -0.00551677, -0.588428, -5.05754e-05, 0.000131329, 0.00155477, 0.0341024, 0.0341751, 0.0222809, 0.00226727, 0.00248061, 0.0196912
0.0355397, -0.0055138, -0.5883, -5.63124e-05, 0.000132098, 0.00159153, 0.0341094, 0.0341825, 0.022268, 0.00226393, 0.00247637, 0.0196728
0.035538, -0.00551268, -0.588281, -4.15775e-05, 0.000130317, 0.00154417, 0.0341165, 0.03419, 0.0222554, 0.00226083, 0.00247242, 0.0196571
0.0355662, -0.005507, -0.588108, -4.90965e-05, 0.000133875, 0.00158758, 0.0341235, 0.0341974, 0.0222427, 0.00225788, 0.00246871, 0.0196438
0.0355882, -0.00550212, -0.587975, -5.41089e-05, 0.000135315, 0.0016241, 0.0341305, 0.0342049, 0.0222302, 0.00225509, 0.00246527, 0.0196323
0.0355962, -0.00549861, -0.587902, -4.21093e-05, 0.000133233, 0.00160414, 0.0341377, 0.0342124, 0.0222179, 0.00225247, 0.00246212, 0.0196225
0.0356007, -0.00549714, -0.587871, -3.94833e-05, 0.00013339, 0.00159706, 0.0341447, 0.0342199, 0.0222058, 0.00224996, 0.0024592, 0.019614
0.0355949, -0.00549729, -0.587889, -2.8893e-05, 0.000132302, 0.00157159, 0.0341516, 0.0342273, 0.0221937, 0.00224755, 0.00245653, 0.0196068
0.0356084, -0.00549431, -0.587803, -2.16927e-05, 0.000128277, 0.00156184, 0.0341586, 0.0342348, 0.0221821, 0.00224529, 0.00245415, 0.0196008
0.0356223, -0.00549176, -0.587723, -1.81227e-05, 0.000127389, 0.00156407, 0.0341655, 0.0342422, 0.0221706, 0.00224308, 0.00245197, 0.0195956
0.0356216, -0.0054911, -0.587715, -7.38769e-06, 0.00012522, 0.0015461, 0.0341725, 0.0342497, 0.0221594, 0.00224094, 0.00245, 0.0195912
0.0356017, -0.00549301, -0.587818, 8.86468e-06, 0.000124645, 0.00150641, 0.0341795, 0.0342571, 0.0221486, 0.00223888, 0.0024482, 0.0195874
0.0356111, -0.00549138, -0.58775, 1.53917e-05, 0.000122325, 0.00149863, 0.0341866, 0.0342646, 0.0221382, 0.00223692, 0.00244656, 0.0195844
0.0355992, -0.00549198, -0.587813, 3.29304e-05, 0.000121197, 0.00147277, 0.0341937, 0.0342721, 0.0221278, 0.00223499, 0.00244498, 0.0195818
0.0355992, -0.00549181, -0.587805, 3.96551e-05, 0.00011946, 0.00145844, 0.0342008, 0.0342796, 0.0221179, 0.00223316, 0.00244354, 0.0195798
0.0355901, -0.00549213, -0.587859, 5.84298e-05, 0.000118376, 0.00143996, 0.0342079, 0.034287, 0.0221081, 0.00223134, 0.00244212, 0.0195781
0.0355935, -0.0054919, -0.587823, 6.56302e-05, 0.00011549, 0.00142732, 0.0342151, 0.0342945, 0.0220985, 0.00222957, 0.00244074, 0.0195767
0.0355947, -0.00549202, -0.587812, 7.69529e-05, 0.000115532, 0.00142197, 0.0342223, 0.0343019, 0.0220891, 0.00222783, 0.00243937, 0.0195754
0.0356086, -0.00549151, -0.5877, 7.42036e-05, 0.000113901, 0.00142527, 0.0342295, 0.0343093, 0.0220798, 0.00222608, 0.00243796, 0.0195742
0.0356194, -0.00549121, -0.587615, 7.45568e-05, 0.000112423, 0.00143313, 0.0342366, 0.0343168, 0.0220707, 0.00222435, 0.00243653, 0.0195731
0.0356357, -0.00549021, -0.587497, 6.71546e-05, 0.000112204, 0.0014445, 0.0342438, 0.0343243, 0.0220619, 0.00222263, 0.00243504, 0.0195718
0.0356478, -0.00548911, -0.58741, 6.14832e-05, 0.000112093, 0.00145719, 0.034251, 0.0343317, 0.022053, 0.00222088, 0.00243347, 0.0195706
0.035638, -0.00549137, -0.587483, 7.77627e-05, 0.000112923, 0.00145249, 0.0342582, 0.0343392, 0.0220441, 0.00221912, 0.00243181, 0.0195694
0.0356403, -0.00549128, -0.58746, 8.16411e-05, 0.000111301, 0.00144124, 0.0342653, 0.0343466, 0.0220353, 0.00221738, 0.00243009, 0.0195683
0.0356372, -0.00549198, -0.587481, 8.57338e-05, 0.000111234, 0.00143726, 0.0342726, 0.0343541, 0.0220265, 0.00221564, 0.00242829, 0.0195672
0.0356378, -0.00549215, -0.587476, 8.77409e-05, 0.000110988, 0.00143421, 0.0342797, 0.0343615, 0.0220175, 0.00221386, 0.00242639, 0.019566
0.03564, -0.00549201, -0.587456, 9.00595e-05, 0.000109126, 0.00143074, 0.0342869, 0.034369, 0.0220086, 0.00221208, 0.00242442, 0.0195647
0.0356404, -0.00549234, -0.58745, 9.35136e-05, 0.000108177, 0.00142699, 0.034294, 0.0343764, 0.0219994, 0.00221023, 0.00242232, 0.0195632
0.0356495, -0.00548994, -0.58738, 8.79642e-05, 0.000105835, 0.0014269, 0.0343013, 0.0343838, 0.0219901, 0.00220838, 0.00242015, 0.0195616
0.0356385, -0.00549253, -0.587474, 9.01619e-05, 0.00010871, 0.00143276, 0.0343085, 0.0343912, 0.0219805, 0.00220646, 0.00241787, 0.0195597
0.0356375, -0.00549291, -0.587479, 9.23234e-05, 0.00010726, 0.00142816, 0.0343158, 0.0343987, 0.0219707, 0.00220449, 0.00241549, 0.0195574
0.0356248, -0.00549805, -0.587614, 9.52466e-05, 0.000110384, 0.00143219, 0.0343231, 0.0344061, 0.0219605, 0.00220246, 0.00241303, 0.0195547
0.0356166, -0.00550254, -0.587726, 9.59366e-05, 0.000113021, 0.00143788, 0.0343305, 0.0344135, 0.0219502, 0.00220037, 0.0024105, 0.0195513
0.0356196, -0.00549843, -0.587703, 8.42481e-05, 0.000112218, 0.00145631, 0.0343379, 0.0344209, 0.0219393, 0.00219818, 0.00240788, 0.0195472
0.03562, -0.0055002, -0.587782, 7.63509e-05, 0.000114532, 0.00148829, 0.0343454, 0.0344283, 0.0219284, 0.00219595, 0.00240528, 0.0195423
0.0356243, -0.005497, -0.587808, 5.90369e-05, 0.00011763, 0.00153807, 0.0343527, 0.0344356, 0.0219173, 0.00219362, 0.00240269, 0.0195362
0.0356287, -0.00549762, -0.587862, 4.84919e-05, 0.000121048, 0.00158408, 0.0343602, 0.034443, 0.0219064, 0.00219125, 0.00240019, 0.019529
0.0356351, -0.00548676, -0.587806, 2.33495e-05, 0.000125239, 0.00165992, 0.0343675, 0.0344502, 0.0218954, 0.00218877, 0.00239773, 0.0195202
0.0356412, -0.00548811, -0.587863, 1.37269e-05, 0.00012882, 0.00171534, 0.0343749, 0.0344576, 0.0218847, 0.00218624, 0.00239541, 0.0195099
0.0356431, -0.00547498, -0.587758, -6.01584e-06, 0.000130598, 0.0017793, 0.0343822, 0.0344649, 0.0218741, 0.00218358, 0.00239312, 0.019497
0.0356502, -0.00546875, -0.587752, -2.62072e-05, 0.000136126, 0.00187256, 0.0343896, 0.0344722, 0.0218638, 0.00218087, 0.00239095, 0.0194824
0.0356556, -0.00546655, -0.58777, -3.84336e-05, 0.000141022, 0.00194085, 0.034397, 0.0344795, 0.0218539, 0.00217812, 0.00238889, 0.0194658
0.0356587, -0.00546113, -0.587738, -5.17751e-05, 0.000144341, 0.00200572, 0.0344044, 0.0344869, 0.0218443, 0.0021753, 0.00238691, 0.0194468
0.0356645, -0.00545579, -0.587733, -6.9926e-05, 0.000149919, 0.00210406, 0.0344117, 0.0344942, 0.0218349, 0.00217242, 0.00238497, 0.0194254
0.0356669, -0.00545863, -0.587784, -6.794e-05, 0.000148706, 0.00210943, 0.0344191, 0.0345017, 0.0218261, 0.00216951, 0.00238311, 0.0194015
0.0356752, -0.00546257, -0.587901, -7.45455e-05, 0.000153397, 0.00216383, 0.0344264, 0.034509, 0.0218174, 0.00216651, 0.0023812, 0.0193748
0.0356803, -0.00547386, -0.588081, -6.17559e-05, 0.000150358, 0.00211406, 0.0344338, 0.0345163, 0.021809, 0.00216348, 0.00237928, 0.019345
0.0356851, -0.00547278, -0.588124, -7.30313e-05, 0.000154181, 0.00218669, 0.0344411, 0.0345237, 0.021801, 0.00216039, 0.00237728, 0.0193116
0.035688, -0.0054783, -0.588236, -6.64593e-05, 0.000152517, 0.00216223, 0.0344484, 0.0345311, 0.0217932, 0.0021573, 0.00237526, 0.0192761
0.0356931, -0.00547429, -0.588233, -8.53396e-05, 0.000159722, 0.00228812, 0.0344558, 0.0345385, 0.0217856, 0.00215424, 0.0023732, 0.0192391
0.0356913, -0.00548015, -0.588386, -7.35973e-05, 0.000156216, 0.00223211, 0.0344631, 0.0345458, 0.0217779, 0.00215121, 0.00237114, 0.0192023
0.0356953, -0.00547828, -0.588432, -8.87388e-05, 0.000162709, 0.00233729, 0.0344705, 0.0345532, 0.0217704, 0.00214826, 0.00236903, 0.0191647
0.0356874, -0.00548267, -0.588578, -7.04964e-05, 0.000155561, 0.00222846, 0.0344779, 0.0345607, 0.021763, 0.00214539, 0.00236693, 0.0191278
0.0356781, -0.00548614, -0.588758, -5.17028e-05, 0.000148048, 0.00210186, 0.0344852, 0.034568, 0.0217555, 0.00214254, 0.00236472, 0.0190907
0.0356801, -0.00548483, -0.588767, -6.15241e-05, 0.000152189, 0.00216374, 0.0344925, 0.0345754, 0.0217479, 0.00213978, 0.00236246, 0.0190544
0.0356801, -0.00548483, -0.588767, -6.15241e-05, 0.000152189, 0.00216374, 0.0344999, 0.0345828, 0.0217597, 0.00214269, 0.00236509, 0.0190547
0.0356707, -0.00548584, -0.58889, -4.69589e-05, 0.000148531, 0.00208696, 0.0345072, 0.0345903, 0.0217484, 0.00213886, 0.00236166, 0.0190146
0.0356587, -0.00548583, -0.588993, -3.25815e-05, 0.000143197, 0.0019913, 0.0345145, 0.0345977, 0.0217373, 0.00213542, 0.00235838, 0.0189797
0.0356596, -0.00548619, -0.588977, -2.83942e-05, 0.000142024, 0.00196045, 0.0345217, 0.034605, 0.0217261, 0.00213233, 0.00235523, 0.0189498
0.0356948, -0.00549053, -0.588766, -5.97166e-07, 0.000156009, 0.00201208, 0.0346711, 0.0347569, 0.021764, 0.00213461, 0.00234376, 0.018758
0.0356817, -0.00548628, -0.588857, 1.68667e-05, 0.000159166, 0.00195396, 0.0346771, 0.0347641, 0.0216625, 0.0021161, 0.00232404, 0.0187166
0.0356969, -0.00548996, -0.58874, 2.10744e-05, 0.000157728, 0.001945, 0.0346836, 0.0347714, 0.0216003, 0.00210724, 0.00231466, 0.018696
0.035723, -0.00549727, -0.588531, 1.46987e-05, 0.000156621, 0.00197288, 0.0346905, 0.0347787, 0.0215586, 0.00210234, 0.00230941, 0.0186836
0.0357238, -0.00549718, -0.588527, 1.69583e-05, 0.000158052, 0.00197239, 0.0346975, 0.034786, 0.0215289, 0.00209939, 0.0023062, 0.0186752
0.0357219, -0.00549629, -0.588546, 2.09496e-05, 0.000159312, 0.00196431, 0.0347046, 0.0347934, 0.0215067, 0.00209757, 0.00230412, 0.0186693
0.0357341, -0.00550012, -0.588425, 1.1892e-05, 0.00015823, 0.00198379, 0.0347118, 0.0348007, 0.0214896, 0.00209639, 0.0023027, 0.018665
0.035729, -0.00549882, -0.588486, 2.40138e-05, 0.000158167, 0.00196841, 0.034719, 0.034808, 0.0214758, 0.00209562, 0.00230167, 0.0186618
0.0357368, -0.00550136, -0.588379, 1.53843e-05, 0.00015737, 0.00197479, 0.0347263, 0.0348154, 0.0214644, 0.00209509, 0.00230087, 0.0186594
0.0357351, -0.00550058, -0.58841, 1.63854e-05, 0.000158554, 0.00198026, 0.0347336, 0.0348227, 0.0214547, 0.0020947, 0.0023002, 0.0186576
0.0357414, -0.00550366, -0.588293, 1.26241e-05, 0.00015731, 0.00198496, 0.034741, 0.0348301, 0.0214462, 0.00209438, 0.00229959, 0.0186562
0.03574, -0.00550227, -0.588333, 1.09431e-05, 0.000158656, 0.0019894, 0.0347483, 0.0348373, 0.0214385, 0.00209405, 0.00229893, 0.018655
0.0357408, -0.00550328, -0.588299, 1.0179e-05, 0.000158341, 0.00199152, 0.0347556, 0.0348447, 0.0214313, 0.00209371, 0.00229823, 0.0186538
0.0357408, -0.00550398, -0.588259, 5.93347e-06, 0.000157773, 0.00199251, 0.034763, 0.0348521, 0.0214246, 0.00209333, 0.00229743, 0.0186528
0.0357395, -0.00550456, -0.588177, -5.06185e-06, 0.000156747, 0.00199454, 0.0347704, 0.0348593, 0.0214179, 0.00209285, 0.00229646, 0.0186517
0.0357379, -0.00550401, -0.588083, -1.8968e-05, 0.000155585, 0.00199825, 0.0347778, 0.0348667, 0.0214114, 0.00209233, 0.00229537, 0.0186505
0.0357389, -0.00550519, -0.5881, -1.43167e-05, 0.000155023, 0.00200603, 0.0347851, 0.034874, 0.0214049, 0.0020917, 0.00229409, 0.0186492
0.0357387, -0.00550485, -0.588105, -1.63913e-05, 0.000154571, 0.00200142, 0.0347925, 0.0348814, 0.0213984, 0.00209099, 0.00229262, 0.0186475
0.0357388, -0.00550537, -0.588102, -1.35451e-05, 0.000154254, 0.00200349, 0.0347998, 0.0348886, 0.0213918, 0.0020902, 0.00229097, 0.0186454
0.0357387, -0.00550666, -0.588114, -1.34113e-05, 0.000153318, 0.00199896, 0.0348072, 0.0348958, 0.0213851, 0.00208933, 0.00228913, 0.0186429
0.0357404, -0.00548766, -0.588005, -2.21314e-05, 0.000150135, 0.00199473, 0.0348145, 0.0349028, 0.0213783, 0.00208837, 0.00228709, 0.0186399
0.0357407, -0.00548555, -0.587997, -2.44172e-05, 0.000149503, 0.00199438, 0.0348219, 0.0349096, 0.0213717, 0.00208737, 0.00228493, 0.0186365
0.0357409, -0.00547923, -0.587969, -2.17206e-05, 0.000147602, 0.00199383, 0.0348292, 0.0349161, 0.021365, 0.00208629, 0.0022826, 0.0186325
0.0357396, -0.00549742, -0.588018, -1.6701e-05, 0.000147681, 0.00198784, 0.0348366, 0.0349221, 0.0213585, 0.00208518, 0.00228014, 0.0186282
0.0357357, -0.00554216, -0.588119, -5.1372e-06, 0.000147711, 0.00197646, 0.0348439, 0.0349276, 0.0213521, 0.00208405, 0.00227758, 0.0186234
0.0357348, -0.00554715, -0.588124, -9.85541e-07, 0.000145785, 0.00196764, 0.0348512, 0.0349326, 0.0213459, 0.00208292, 0.00227493, 0.0186182
0.0357355, -0.00554533, -0.588127, -5.51218e-06, 0.00014378, 0.00195943, 0.0348585, 0.0349373, 0.0213399, 0.00208182, 0.00227225, 0.0186129
0.0357346, -0.00555502, -0.588142, -3.47428e-06, 0.000142265, 0.00195571, 0.0348659, 0.0349415, 0.0213344, 0.00208077, 0.00226958, 0.0186077
0.0357354, -0.00556409, -0.588174, -1.23461e-05, 0.000142384, 0.00195055, 0.0348731, 0.0349452, 0.021329, 0.00207974, 0.00226693, 0.0186027
0.0357376, -0.0055627, -0.58819, -2.35185e-05, 0.000142582, 0.00195422, 0.0348804, 0.0349486, 0.021324, 0.00207877, 0.00226434, 0.0185979
0.0357319, -0.00561389, -0.588269, -2.08749e-05, 0.000141279, 0.00194432, 0.0348877, 0.0349516, 0.0213195, 0.00207786, 0.00226183, 0.0185933
0.0357251, -0.00566733, -0.588337, -1.1355e-05, 0.000138806, 0.00192799, 0.034895, 0.0349543, 0.0213151, 0.00207694, 0.00225934, 0.0185888
0.0357225, -0.00569264, -0.588379, -1.29098e-05, 0.000138136, 0.00191891, 0.0349023, 0.0349568, 0.0213111, 0.00207606, 0.00225697, 0.0185845
0.0357194, -0.00572719, -0.588433, -1.47193e-05, 0.000137758, 0.0019135, 0.0349095, 0.0349591, 0.0213073, 0.00207516, 0.00225468, 0.0185804
0.0357284, -0.00565244, -0.588371, -4.00073e-05, 0.000139654, 0.00194965, 0.0349168, 0.0349611, 0.0213037, 0.00207424, 0.0022525, 0.0185763
0.0357218, -0.00571916, -0.58846, -3.73188e-05, 0.000141135, 0.00194466, 0.0349241, 0.034963, 0.0213003, 0.00207328, 0.00225052, 0.0185728
0.0357121, -0.00580595, -0.588567, -2.89275e-05, 0.000141352, 0.00192382, 0.0349313, 0.0349647, 0.021297, 0.00207227, 0.00224869, 0.0185693
0.0357097, -0.00582691, -0.588593, -2.74805e-05, 0.000140199, 0.00191952, 0.0349385, 0.0349663, 0.0212938, 0.00207121, 0.00224705, 0.0185659
0.035714, -0.00578856, -0.588565, -4.31599e-05, 0.000141758, 0.00195362, 0.0349458, 0.0349678, 0.0212906, 0.00207009, 0.00224562, 0.0185625
0.0357119, -0.00580843, -0.58859, -4.29445e-05, 0.000141841, 0.00195481, 0.034953, 0.0349692, 0.0212876, 0.00206893, 0.00224446, 0.0185591
0.0357041, -0.00587977, -0.588668, -3.15397e-05, 0.000141905, 0.0019217, 0.0349603, 0.0349703, 0.0212845, 0.00206771, 0.00224352, 0.0185554
0.0356987, -0.00593037, -0.588723, -2.49733e-05, 0.00014213, 0.00189981, 0.0349676, 0.034971, 0.0212815, 0.00206643, 0.00224278, 0.0185513
0.0356934, -0.00597378, -0.588774, -2.39036e-05, 0.00014389, 0.00189058, 0.0349747, 0.0349713, 0.0212785, 0.00206509, 0.00224228, 0.0185465
0.0356896, -0.00600602, -0.58881, -2.22136e-05, 0.000144024, 0.00188502, 0.034982, 0.0349713, 0.0212756, 0.00206372, 0.00224205, 0.0185407
0.0356837, -0.00606894, -0.588872, -1.05571e-05, 0.000143274, 0.00184594, 0.0349892, 0.0349709, 0.0212727, 0.00206228, 0.00224202, 0.0185334
0.0356831, -0.00608045, -0.588883, -6.25476e-06, 0.00014237, 0.00183088, 0.0349964, 0.0349703, 0.0212696, 0.0020608, 0.00224222, 0.0185245
0.0356764, -0.00614017, -0.588946, 8.15648e-07, 0.000142742, 0.00179977, 0.0350036, 0.0349694, 0.0212661, 0.00205922, 0.00224262, 0.018514
0.0356791, -0.0061188, -0.588922, 9.42245e-07, 0.000142046, 0.0018022, 0.0350108, 0.0349687, 0.0212621, 0.00205757, 0.00224323, 0.018502
0.0356783, -0.00612126, -0.588925, -4.44212e-08, 0.000142599, 0.00180087, 0.035018, 0.0349682, 0.0212574, 0.00205587, 0.00224407, 0.0184883
0.035677, -0.00611346, -0.588913, -5.54437e-06, 0.000143762, 0.00181066, 0.0350252, 0.0349679, 0.021252, 0.00205412, 0.00224514, 0.0184724
0.0356796, -0.00609762, -0.588896, -2.44592e-06, 0.000143349, 0.00180881, 0.0350325, 0.034968, 0.0212459, 0.00205238, 0.00224645, 0.0184532
0.0356809, -0.00605347, -0.588839, -3.60707e-06, 0.000142748, 0.00180976, 0.0350397, 0.0349684, 0.0212393, 0.00205065, 0.002248, 0.0184295
0.0356811, -0.00601652, -0.588789, -5.57644e-06, 0.00014282, 0.00180461, 0.0350469, 0.034969, 0.0212323, 0.002049, 0.0022498, 0.0183996
0.0356842, -0.0059973, -0.588773, 1.55495e-06, 0.000141963, 0.00179694, 0.0350541, 0.0349699, 0.0212252, 0.00204743, 0.00225182, 0.0183618
0.0356854, -0.00595882, -0.588725, 4.54938e-06, 0.000141072, 0.00178286, 0.0350614, 0.0349712, 0.0212181, 0.00204599, 0.00225403, 0.0183145
0.0356857, -0.00590306, -0.588643, 3.14308e-06, 0.000140453, 0.00177012, 0.0350686, 0.034973, 0.0212113, 0.0020447, 0.00225643, 0.0182568
0.0356876, -0.005867, -0.5886, 9.65517e-06, 0.000139733, 0.00174943, 0.0350758, 0.0349751, 0.0212046, 0.00204357, 0.00225892, 0.018189
0.0356886, -0.00583751, -0.588567, 1.71143e-05, 0.000138778, 0.00172152, 0.0350831, 0.0349777, 0.0211985, 0.00204265, 0.00226156, 0.0181095
0.0356914, -0.00578777, -0.588498, 2.33774e-05, 0.000137368, 0.00169984, 0.0350902, 0.0349805, 0.0211928, 0.00204186, 0.0022642, 0.0180181
0.0356967, -0.00572544, -0.588393, 1.82496e-05, 0.000136388, 0.00167329, 0.0350974, 0.0349838, 0.0211878, 0.00204129, 0.00226691, 0.0179144
0.0356998, -0.00568963, -0.588338, 2.27013e-05, 0.000135875, 0.00165738, 0.0351045, 0.0349875, 0.0211835, 0.00204089, 0.00226963, 0.017799
0.0357065, -0.00562468, -0.588226, 1.44011e-05, 0.000134802, 0.00162919, 0.0351117, 0.0349915, 0.02118, 0.00204061, 0.0022723, 0.0176696
0.0357101, -0.00558044, -0.588151, 6.05694e-06, 0.000134589, 0.00159474, 0.0351188, 0.0349956, 0.0211772, 0.00204044, 0.00227491, 0.0175287
0.0357096, -0.00557225, -0.588138, 7.31063e-06, 0.000134445, 0.00156151, 0.0351259, 0.0349999, 0.0211751, 0.00204034, 0.00227743, 0.0173751
0.0357077, -0.00556415, -0.588126, 8.03269e-06, 0.000133492, 0.0015064, 0.035133, 0.0350042, 0.0211736, 0.00204029, 0.0022798, 0.0172067
0.035705, -0.00558019, -0.588148, 1.40265e-05, 0.000132684, 0.00146472, 0.0351401, 0.0350089, 0.0211729, 0.00204031, 0.00228205, 0.0170235
0.0357029, -0.0055675, -0.588131, 1.22483e-05, 0.000131276, 0.00140529, 0.0351472, 0.0350136, 0.0211726, 0.00204035, 0.0022841, 0.0168265
0.0356995, -0.0055858, -0.588153, 1.80867e-05, 0.000130188, 0.00135494, 0.0351543, 0.0350184, 0.0211729, 0.00204042, 0.002286, 0.0166198
0.0356958, -0.00560556, -0.588184, 2.12759e-05, 0.000128937, 0.00130011, 0.0351613, 0.0350234, 0.0211737, 0.00204051, 0.00228776, 0.0164038
0.0356941, -0.00560164, -0.588173, 2.26921e-05, 0.000127778, 0.00126711, 0.0351684, 0.0350282, 0.0211748, 0.00204057, 0.00228937, 0.0161813
0.0356925, -0.00560957, -0.588193, 2.21493e-05, 0.000127083, 0.00122667, 0.0351754, 0.0350331, 0.0211763, 0.00204059, 0.00229089, 0.0159572
0.0356922, -0.00559199, -0.58818, 1.77876e-05, 0.000126277, 0.00119007, 0.0351825, 0.0350381, 0.0211781, 0.00204057, 0.00229237, 0.0157335
0.0356908, -0.00559852, -0.588203, 1.6266e-05, 0.000125644, 0.00114591, 0.0351895, 0.0350429, 0.0211798, 0.00204045, 0.00229379, 0.0155146
0.0356931, -0.00555298, -0.588184, 2.19794e-06, 0.000125597, 0.00110707, 0.0351966, 0.0350478, 0.021182, 0.00204029, 0.00229526, 0.0152999
0.0356941, -0.00553353, -0.588183, -4.66934e-06, 0.000125645, 0.00107541, 0.0352036, 0.0350527, 0.0211841, 0.00204, 0.00229674, 0.0150928
0.0356943, -0.00552183, -0.588179, -8.23413e-06, 0.000125372, 0.00105, 0.0352107, 0.0350576, 0.0211861, 0.0020396, 0.00229827, 0.0148937
0.0356953, -0.00550345, -0.588188, -1.608e-05, 0.000124778, 0.000992697, 0.0352177, 0.0350626, 0.0211881, 0.00203907, 0.00229986, 0.0147029
0.0356981, -0.00546689, -0.588172, -2.69703e-05, 0.00012495, 0.00096043, 0.0352248, 0.0350677, 0.02119, 0.00203844, 0.00230151, 0.0145212
0.0357001, -0.00543489, -0.588157, -3.61804e-05, 0.000125007, 0.000924288, 0.0352318, 0.0350729, 0.0211919, 0.00203771, 0.00230326, 0.0143498
0.035706, -0.00537289, -0.588135, -5.56797e-05, 0.000126017, 0.000882167, 0.0352388, 0.0350781, 0.0211936, 0.00203687, 0.00230511, 0.014189
0.0357102, -0.00531727, -0.588098, -7.17897e-05, 0.000127326, 0.000861485, 0.0352459, 0.0350836, 0.0211952, 0.00203593, 0.00230707, 0.0140385
0.0357088, -0.00530518, -0.588078, -7.40671e-05, 0.000127032, 0.000831507, 0.035253, 0.0350892, 0.0211964, 0.00203485, 0.00230909, 0.013898
0.0357132, -0.00527353, -0.588081, -8.62629e-05, 0.000128135, 0.000803493, 0.03526, 0.0350949, 0.0211974, 0.00203366, 0.0023112, 0.0137675
0.0357164, -0.00523362, -0.588057, -0.000100256, 0.000129584, 0.00078583, 0.035267, 0.0351007, 0.0211982, 0.00203238, 0.00231339, 0.0136463
0.035714, -0.00521713, -0.588019, -0.000105108, 0.000129993, 0.000773584, 0.035274, 0.0351066, 0.0211987, 0.00203102, 0.00231566, 0.0135347
0.0357133, -0.00519981, -0.587998, -0.000111712, 0.000130611, 0.000748595, 0.0352809, 0.0351126, 0.0211987, 0.00202957, 0.00231798, 0.0134338
0.0357079, -0.0052209, -0.588005, -0.000101526, 0.000128547, 0.000697268, 0.0352878, 0.0351186, 0.0211985, 0.0020281, 0.00232039, 0.0133436
0.0357063, -0.00521197, -0.587994, -0.000105702, 0.000128668, 0.000663419, 0.0352948, 0.0351248, 0.0211979, 0.00202658, 0.00232288, 0.0132652
0.0357032, -0.00521665, -0.587987, -0.000103222, 0.000128215, 0.000635309, 0.0353018, 0.035131, 0.0211969, 0.00202503, 0.00232541, 0.0131978
0.0357015, -0.00520254, -0.587956, -0.000114899, 0.000130089, 0.000617092, 0.0353087, 0.0351371, 0.0211952, 0.00202345, 0.00232794, 0.0131412
0.0356971, -0.00520803, -0.587937, -0.000113607, 0.000130452, 0.000588025, 0.0353157, 0.0351433, 0.0211931, 0.00202188, 0.00233047, 0.0130944
0.0356912, -0.0052201, -0.587921, -0.000105903, 0.000129923, 0.000551977, 0.0353228, 0.0351495, 0.0211903, 0.00202033, 0.00233296, 0.0130573
0.0356913, -0.00521799, -0.587917, -0.00011095, 0.000131406, 0.000531931, 0.0353297, 0.0351556, 0.0211867, 0.00201877, 0.00233532, 0.0130291
0.0356833, -0.00522465, -0.587921, -9.26362e-05, 0.000130464, 0.000498956, 0.0353368, 0.0351617, 0.0211823, 0.00201724, 0.00233756, 0.0130083
0.0356829, -0.00522232, -0.58793, -9.17004e-05, 0.000131367, 0.000478364, 0.0353438, 0.0351678, 0.021177, 0.00201574, 0.00233959, 0.0129943
0.0356868, -0.00521354, -0.587966, -9.59955e-05, 0.000133757, 0.000462459, 0.0353509, 0.0351739, 0.0211709, 0.00201429, 0.0023414, 0.012985
0.0356797, -0.00521564, -0.587948, -8.60797e-05, 0.000135353, 0.000447543, 0.035358, 0.0351798, 0.0211639, 0.0020129, 0.00234294, 0.0129795
0.0356729, -0.0052331, -0.58789, -8.19567e-05, 0.000137486, 0.000440218, 0.035365, 0.0351858, 0.0211562, 0.00201158, 0.00234419, 0.0129766
0.0356766, -0.00526451, -0.587842, -9.33159e-05, 0.000141042, 0.000439528, 0.0353721, 0.0351916, 0.0211479, 0.00201037, 0.0023451, 0.0129756
0.0356645, -0.00525556, -0.587811, -7.77003e-05, 0.000144136, 0.000445026, 0.0353792, 0.0351976, 0.0211392, 0.00200929, 0.00234566, 0.0129754
0.0356509, -0.00523699, -0.587788, -5.968e-05, 0.000146897, 0.000448581, 0.0353863, 0.0352036, 0.0211302, 0.00200835, 0.00234576, 0.0129752
0.035638, -0.00521979, -0.587756, -4.2438e-05, 0.000150323, 0.000458395, 0.0353934, 0.0352096, 0.0211213, 0.00200756, 0.00234533, 0.012974
0.0356266, -0.00520412, -0.587726, -2.7113e-05, 0.00015371, 0.000471525, 0.0354005, 0.0352158, 0.0211127, 0.00200695, 0.00234443, 0.0129709
0.0356191, -0.00518966, -0.587736, -1.7283e-05, 0.00015765, 0.000481779, 0.0354076, 0.0352222, 0.0211046, 0.00200652, 0.0023431, 0.0129657
0.0356107, -0.00518311, -0.587702, -6.94366e-06, 0.000160964, 0.00049914, 0.0354147, 0.0352288, 0.0210973, 0.00200628, 0.00234139, 0.0129581
0.0356074, -0.00518928, -0.587641, -3.21889e-06, 0.000163385, 0.000513708, 0.0354217, 0.0352354, 0.0210908, 0.00200619, 0.00233934, 0.0129484
0.0356038, -0.00520144, -0.587538, -5.91935e-07, 0.000164553, 0.000530073, 0.0354288, 0.0352423, 0.0210854, 0.00200626, 0.00233704, 0.0129368
0.0356006, -0.00520515, -0.587499, 2.09586e-06, 0.000166397, 0.000541089, 0.0354359, 0.0352493, 0.0210811, 0.0020065, 0.00233452, 0.0129233
0.035597, -0.00520963, -0.587454, 4.83017e-06, 0.000167737, 0.000551759, 0.0354429, 0.0352563, 0.0210776, 0.00200681, 0.00233172, 0.0129079
0.0355983, -0.0052132, -0.587408, 2.58977e-06, 0.000168, 0.000555547, 0.03545, 0.0352634, 0.0210753, 0.00200724, 0.00232874, 0.0128907
0.0355919, -0.00521484, -0.587451, 9.79836e-06, 0.000170506, 0.00056394, 0.0354571, 0.0352705, 0.0210739, 0.00200774, 0.00232561, 0.0128721
0.0355864, -0.00521925, -0.587479, 1.6489e-05, 0.000171459, 0.000567201, 0.0354641, 0.0352774, 0.0210733, 0.00200826, 0.00232232, 0.0128521
0.0355907, -0.00521176, -0.587509, 1.2891e-05, 0.000172332, 0.000566573, 0.0354712, 0.0352842, 0.0210735, 0.00200884, 0.00231893, 0.012831
0.0355929, -0.00521043, -0.587454, 8.3702e-06, 0.00016914, 0.000556774, 0.0354783, 0.0352909, 0.0210743, 0.00200942, 0.00231541, 0.0128085
0.0355993, -0.00519524, -0.587467, 1.2068e-06, 0.000169673, 0.000555227, 0.0354854, 0.0352974, 0.0210757, 0.00200996, 0.00231181, 0.012785
0.0356053, -0.00517746, -0.587498, -4.83524e-06, 0.000170047, 0.00055392, 0.0354925, 0.0353037, 0.0210775, 0.00201048, 0.00230805, 0.0127598
0.0356042, -0.00517764, -0.587462, -7.11672e-06, 0.0001655, 0.000535717, 0.0354995, 0.0353098, 0.0210796, 0.00201092, 0.00230409, 0.0127326
0.0356095, -0.00515943, -0.587512, -1.01191e-05, 0.000165216, 0.000529573, 0.0355066, 0.0353157, 0.0210822, 0.00201131, 0.00230002, 0.0127039
0.0356104, -0.00515621, -0.587545, -8.38703e-06, 0.00016377, 0.000522787, 0.0355137, 0.0353213, 0.0210851, 0.00201162, 0.00229579, 0.0126732
0.03562, -0.00511642, -0.587582, -1.94913e-05, 0.000162765, 0.000513987, 0.0355208, 0.0353268, 0.0210882, 0.00201184, 0.00229144, 0.0126408
0.0356195, -0.00511558, -0.587603, -1.77254e-05, 0.000160466, 0.000503585, 0.0355279, 0.0353323, 0.0210915, 0.00201198, 0.00228699, 0.0126067
0.0356162, -0.00513159, -0.587665, -6.43148e-06, 0.000159389, 0.000499793, 0.035535, 0.0353376, 0.0210948, 0.00201197, 0.00228242, 0.0125712
0.0356165, -0.00512389, -0.587676, -7.77693e-06, 0.000155735, 0.000481146, 0.0355421, 0.035343, 0.0210982, 0.00201187, 0.00227778, 0.0125341
0.0356177, -0.0051172, -0.587742, -4.69762e-06, 0.000157042, 0.000487867, 0.0355492, 0.0353483, 0.0211015, 0.00201163, 0.0022731, 0.012496
0.0356152, -0.00513264, -0.58777, 3.56763e-06, 0.000155263, 0.000483638, 0.0355564, 0.0353538, 0.0211049, 0.0020113, 0.00226837, 0.0124565
0.0356137, -0.0051484, -0.587814, 1.29443e-05, 0.000154896, 0.000486616, 0.0355635, 0.0353593, 0.0211081, 0.00201085, 0.00226363, 0.0124162
0.0356113, -0.00515989, -0.587814, 1.80229e-05, 0.00015234, 0.000476691, 0.0355706, 0.035365, 0.0211113, 0.0020103, 0.00225894, 0.0123758
0.0356094, -0.00517617, -0.587869, 2.83116e-05, 0.000152798, 0.000485372, 0.0355778, 0.035371, 0.0211142, 0.00200962, 0.00225435, 0.0123358
0.0356053, -0.00520425, -0.587901, 4.39576e-05, 0.000152083, 0.000493588, 0.0355849, 0.0353772, 0.0211168, 0.00200884, 0.00224986, 0.0122964
0.0356037, -0.00521506, -0.587942, 5.21801e-05, 0.000151988, 0.00049901, 0.035592, 0.0353837, 0.0211188, 0.00200793, 0.0022455, 0.012258
0.0356046, -0.00521365, -0.587995, 5.30926e-05, 0.000151943, 0.000499444, 0.0355992, 0.0353904, 0.0211203, 0.00200692, 0.00224131, 0.0122209
0.0356044, -0.00521167, -0.58801, 5.24343e-05, 0.000149469, 0.00048675, 0.0356063, 0.0353974, 0.021121, 0.0020058, 0.0022373, 0.0121855
0.0356052, -0.00521145, -0.588045, 5.47422e-05, 0.000147154, 0.000477002, 0.0356134, 0.0354045, 0.021121, 0.00200459, 0.00223348, 0.0121518
0.0356045, -0.00521089, -0.588053, 4.42367e-05, 0.000145034, 0.00045516, 0.0356205, 0.0354116, 0.02112, 0.0020033, 0.00222985, 0.0121198
0.0356049, -0.00521106, -0.588065, 4.23544e-05, 0.00014345, 0.000446407, 0.0356277, 0.0354188, 0.0211181, 0.00200198, 0.00222645, 0.0120899
0.0356082, -0.00520721, -0.588102, 4.60614e-05, 0.000142589, 0.000447201, 0.0356347, 0.0354258, 0.0211151, 0.00200061, 0.00222326, 0.012062
0.0356077, -0.00520878, -0.58811, 4.36925e-05, 0.000139325, 0.000428439, 0.0356418, 0.0354326, 0.0211112, 0.00199924, 0.00222032, 0.0120364
0.0356015, -0.00522513, -0.58807, 3.36113e-05, 0.00013503, 0.00039438, 0.0356488, 0.0354391, 0.0211064, 0.0019979, 0.00221765, 0.0120135
0.0355994, -0.00523429, -0.588057, 2.85497e-05, 0.000132174, 0.000375243, 0.0356558, 0.0354453, 0.0211008, 0.00199663, 0.00221528, 0.0119933
0.0356012, -0.00523862, -0.588075, 2.53092e-05, 0.000130315, 0.000363018, 0.0356627, 0.0354514, 0.0210948, 0.00199547, 0.00221322, 0.0119761
0.0355998, -0.0052362, -0.58807, 2.62081e-05, 0.000127803, 0.000356521, 0.0356697, 0.0354574, 0.0210886, 0.00199447, 0.00221151, 0.0119618
0.0355878, -0.00525435, -0.587976, 2.18674e-05, 0.000123244, 0.000331884, 0.0356767, 0.0354635, 0.0210826, 0.00199363, 0.00221012, 0.0119501
0.0355818, -0.00524216, -0.587943, 2.95065e-05, 0.000121148, 0.000341776, 0.0356837, 0.0354697, 0.0210768, 0.00199295, 0.002209, 0.0119406
0.0355843, -0.00522382, -0.587977, 3.69673e-05, 0.000121342, 0.000357232, 0.0356907, 0.0354759, 0.0210715, 0.00199243, 0.00220817, 0.0119333
0.0355728, -0.00524687, -0.587884, 3.03989e-05, 0.000116704, 0.000328217, 0.0356977, 0.0354824, 0.0210668, 0.00199207, 0.00220764, 0.011928
0.0355614, -0.00526124, -0.587793, 2.89095e-05, 0.000113342, 0.000318238, 0.0357047, 0.035489, 0.0210628, 0.00199186, 0.00220737, 0.011924
0.0355534, -0.00527532, -0.587721, 2.4756e-05, 0.000110142, 0.000302721, 0.0357117, 0.0354958, 0.0210596, 0.00199179, 0.00220732, 0.011921
0.0355542, -0.00527268, -0.58773, 2.64834e-05, 0.000109471, 0.000309419, 0.0357188, 0.0355028, 0.0210572, 0.00199184, 0.00220753, 0.0119187
0.0355571, -0.00526609, -0.587767, 3.21395e-05, 0.000109644, 0.000326557, 0.0357258, 0.0355098, 0.0210556, 0.001992, 0.002208, 0.0119166
0.0355598, -0.00526199, -0.587805, 4.02565e-05, 0.000109689, 0.000350188, 0.0357329, 0.035517, 0.0210547, 0.00199224, 0.00220872, 0.0119142
0.0355597, -0.00526227, -0.587809, 4.10663e-05, 0.000108076, 0.000352974, 0.0357399, 0.0355241, 0.0210546, 0.00199254, 0.0022097, 0.0119108
0.0355674, -0.00526331, -0.587882, 4.76873e-05, 0.00010877, 0.00038129, 0.035747, 0.0355313, 0.0210552, 0.00199289, 0.0022109, 0.0119061
0.0355709, -0.00526926, -0.587922, 5.45389e-05, 0.000108209, 0.000408521, 0.0357541, 0.0355384, 0.0210563, 0.00199327, 0.00221229, 0.0118993
0.035573, -0.00527482, -0.587944, 5.8493e-05, 0.000107255, 0.000428229, 0.0357612, 0.0355454, 0.021058, 0.00199365, 0.00221388, 0.0118904
0.0355753, -0.00526886, -0.587967, 5.23167e-05, 0.000105213, 0.000422662, 0.0357683, 0.0355523, 0.02106, 0.00199403, 0.0022156, 0.0118792
0.0355787, -0.00527195, -0.587996, 5.1917e-05, 0.000104643, 0.000433951, 0.0357754, 0.0355591, 0.0210625, 0.00199439, 0.00221746, 0.0118659
0.0355796, -0.00526467, -0.588012, 4.52847e-05, 0.000103248, 0.000424903, 0.0357824, 0.0355657, 0.0210651, 0.00199471, 0.00221942, 0.0118501
0.0355804, -0.0052591, -0.588022, 4.01566e-05, 0.000102014, 0.000423842, 0.0357895, 0.0355723, 0.021068, 0.00199498, 0.00222149, 0.0118319
0.0355755, -0.00523099, -0.588003, 2.49227e-05, 9.97265e-05, 0.000391623, 0.0357965, 0.0355788, 0.0210711, 0.0019952, 0.00222365, 0.0118114
0.0355728, -0.00521278, -0.587992, 1.48402e-05, 9.81862e-05, 0.000381018, 0.0358036, 0.0355852, 0.0210742, 0.00199536, 0.00222589, 0.0117887
0.035569, -0.00518821, -0.58798, 1.53537e-06, 9.6276e-05, 0.0003629, 0.0358106, 0.0355916, 0.0210774, 0.00199545, 0.00222818, 0.0117639
0.0355707, -0.00517568, -0.587996, -8.10079e-06, 9.5575e-05, 0.000351696, 0.0358175, 0.035598, 0.0210807, 0.00199547, 0.00223052, 0.0117373
0.0355723, -0.00516726, -0.588011, -1.47012e-05, 9.5058e-05, 0.000344294, 0.0358245, 0.0356043, 0.0210841, 0.00199543, 0.00223292, 0.011709
0.0355648, -0.00513615, -0.587984, -2.90135e-05, 9.35938e-05, 0.000315945, 0.0358315, 0.0356107, 0.0210874, 0.00199532, 0.00223535, 0.0116796
0.0355593, -0.00511114, -0.587966, -4.14192e-05, 9.26166e-05, 0.000298299, 0.0358384, 0.0356172, 0.0210908, 0.00199515, 0.0022378, 0.0116497
0.0355485, -0.00508147, -0.587924, -5.55518e-05, 9.11803e-05, 0.000279047, 0.0358453, 0.0356237, 0.0210939, 0.00199489, 0.00224025, 0.0116201
0.0355475, -0.00507555, -0.58792, -5.92497e-05, 9.12445e-05, 0.000275387, 0.0358521, 0.0356304, 0.0210967, 0.00199456, 0.00224267, 0.0115918
0.0355356, -0.00506464, -0.58787, -6.35585e-05, 9.04325e-05, 0.000267965, 0.0358589, 0.0356372, 0.0210993, 0.00199416, 0.00224507, 0.0115652
0.0355267, -0.00505734, -0.587834, -6.76637e-05, 9.00946e-05, 0.00026197, 0.0358657, 0.035644, 0.0211014, 0.00199369, 0.0022474, 0.011541
0.0355255, -0.00505862, -0.587828, -6.56263e-05, 9.07348e-05, 0.000261038, 0.0358725, 0.0356511, 0.0211032, 0.0019932, 0.0022497, 0.011519
0.0355149, -0.00505104, -0.587793, -7.61584e-05, 9.00197e-05, 0.000241226, 0.0358793, 0.0356581, 0.0211046, 0.00199264, 0.00225192, 0.0114993
0.0355046, -0.00505047, -0.587754, -7.99204e-05, 8.99972e-05, 0.000234404, 0.035886, 0.0356653, 0.0211056, 0.00199205, 0.00225408, 0.0114821
0.0355029, -0.00505354, -0.58774, -6.88069e-05, 9.15019e-05, 0.000242047, 0.0358927, 0.0356724, 0.0211061, 0.00199143, 0.00225615, 0.0114676
0.0354921, -0.00505735, -0.587706, -7.73891e-05, 9.15356e-05, 0.000221853, 0.0358994, 0.0356795, 0.0211061, 0.00199079, 0.00225808, 0.0114561
0.0354856, -0.00506238, -0.587687, -8.40107e-05, 9.19937e-05, 0.000210257, 0.0359061, 0.0356865, 0.0211055, 0.00199013, 0.00225987, 0.0114473
0.0354717, -0.00507543, -0.587639, -9.23195e-05, 9.25536e-05, 0.000195188, 0.0359127, 0.0356934, 0.0211041, 0.00198945, 0.00226146, 0.0114411
0.0354655, -0.00507133, -0.587606, -8.4812e-05, 9.46145e-05, 0.000202242, 0.0359194, 0.0357001, 0.021102, 0.00198878, 0.00226286, 0.011437
0.0354622, -0.00506627, -0.58759, -8.03714e-05, 9.66075e-05, 0.00020286, 0.035926, 0.0357067, 0.021099, 0.0019881, 0.00226401, 0.0114347
0.0354577, -0.00505618, -0.587565, -7.40618e-05, 9.8664e-05, 0.000209885, 0.0359327, 0.035713, 0.0210953, 0.00198747, 0.00226488, 0.0114335
0.0354524, -0.00504132, -0.587534, -6.6991e-05, 0.000100626, 0.000219919, 0.0359393, 0.035719, 0.0210909, 0.00198684, 0.00226544, 0.0114329
0.0354564, -0.00500438, -0.587532, -5.26495e-05, 0.000104421, 0.000241414, 0.0359459, 0.0357248, 0.0210861, 0.00198629, 0.00226568, 0.0114321
0.0354576, -0.00496028, -0.587511, -3.69175e-05, 0.000108299, 0.000266033, 0.0359526, 0.0357304, 0.021081, 0.00198579, 0.0022656, 0.0114306
0.0354507, -0.00493745, -0.587468, -3.05956e-05, 0.000112292, 0.000280729, 0.0359592, 0.035736, 0.021076, 0.00198539, 0.00226526, 0.0114283
0.0354478, -0.00491573, -0.587444, -2.42428e-05, 0.000116461, 0.000297366, 0.0359659, 0.0357415, 0.0210712, 0.00198506, 0.00226468, 0.0114249
0.0354367, -0.00489335, -0.587383, -2.08408e-05, 0.000119632, 0.000312052, 0.0359726, 0.0357471, 0.021067, 0.00198484, 0.00226391, 0.0114205
0.0354163, -0.00486334, -0.587277, -1.99313e-05, 0.000121719, 0.00032539, 0.0359793, 0.0357528, 0.0210634, 0.00198472, 0.002263, 0.0114154
0.0354013, -0.00484138, -0.5872, -2.07433e-05, 0.000124028, 0.000335469, 0.0359861, 0.0357586, 0.0210608, 0.00198471, 0.00226204, 0.0114099
0.0353903, -0.00482001, -0.587134, -2.06824e-05, 0.000126582, 0.000346901, 0.0359929, 0.0357647, 0.021059, 0.00198481, 0.00226107, 0.0114044
0.0353853, -0.00480522, -0.587096, -1.75991e-05, 0.000127928, 0.000355791, 0.0359998, 0.0357709, 0.021058, 0.00198499, 0.00226012, 0.0113991
0.0353762, -0.00479216, -0.587052, -2.0522e-05, 0.000129734, 0.000359545, 0.0360066, 0.0357774, 0.0210578, 0.00198525, 0.00225922, 0.011394
0.0353674, -0.00478235, -0.587022, -2.69454e-05, 0.000130597, 0.000356753, 0.0360135, 0.035784, 0.0210584, 0.00198557, 0.00225835, 0.0113892
0.0353623, -0.00477556, -0.587015, -3.43019e-05, 0.000131705, 0.000352318, 0.0360203, 0.0357907, 0.0210596, 0.00198594, 0.00225749, 0.0113844
0.0353646, -0.00477769, -0.587025, -3.3947e-05, 0.000133059, 0.000356343, 0.0360271, 0.0357974, 0.0210613, 0.00198632, 0.00225662, 0.0113797
0.0353743, -0.00478689, -0.587067, -3.28401e-05, 0.000134442, 0.000358135, 0.0360339, 0.035804, 0.0210637, 0.00198673, 0.00225576, 0.011375
0.0353784, -0.00479232, -0.587084, -3.15695e-05, 0.000134117, 0.000358476, 0.0360407, 0.0358104, 0.0210665, 0.00198713, 0.00225485, 0.0113701
0.0353773, -0.00476912, -0.587093, -4.26631e-05, 0.00013548, 0.000350126, 0.0360475, 0.0358168, 0.0210697, 0.00198753, 0.00225393, 0.0113651
0.0353823, -0.00477335, -0.587115, -4.18421e-05, 0.000136572, 0.000354188, 0.0360544, 0.0358231, 0.0210732, 0.00198791, 0.00225294, 0.0113596
0.035389, -0.00478357, -0.587143, -3.83128e-05, 0.000137451, 0.000359665, 0.0360613, 0.0358293, 0.0210768, 0.00198826, 0.00225186, 0.0113535
0.0353916, -0.00478651, -0.587153, -3.73027e-05, 0.000137942, 0.000362235, 0.0360682, 0.0358355, 0.0210806, 0.00198856, 0.00225067, 0.0113466
0.0353946, -0.00478639, -0.587167, -3.74078e-05, 0.000137966, 0.000361841, 0.036075, 0.0358415, 0.0210845, 0.00198881, 0.00224938, 0.0113389
0.0354, -0.00480997, -0.587185, -2.83525e-05, 0.000139067, 0.000374716, 0.0360819, 0.0358476, 0.0210884, 0.00198899, 0.002248, 0.0113306
0.0354047, -0.00482967, -0.587201, -2.04729e-05, 0.000139545, 0.000384178, 0.0360887, 0.0358536, 0.0210923, 0.00198913, 0.00224656, 0.0113216
0.0354038, -0.00483169, -0.587197, -1.96545e-05, 0.000138735, 0.000382252, 0.0360956, 0.0358598, 0.0210961, 0.00198921, 0.00224504, 0.0113119
0.035408, -0.00484985, -0.587208, -1.078e-05, 0.000139291, 0.000394674, 0.0361025, 0.0358662, 0.0210996, 0.00198923, 0.00224343, 0.0113012
0.0354087, -0.00485694, -0.587206, -6.577e-06, 0.000139282, 0.000399678, 0.0361094, 0.0358729, 0.0211027, 0.00198917, 0.00224169, 0.0112891
0.0354126, -0.00485769, -0.587223, -5.20552e-06, 0.000140024, 0.000403777, 0.0361162, 0.0358797, 0.0211051, 0.00198905, 0.00223981, 0.0112755
0.0354192, -0.00486236, -0.587235, 3.16308e-06, 0.000140332, 0.000418349, 0.036123, 0.0358868, 0.0211068, 0.00198885, 0.00223779, 0.0112599
0.0354236, -0.00486071, -0.587258, 2.93228e-06, 0.000139874, 0.000415129, 0.0361297, 0.0358938, 0.0211076, 0.00198859, 0.00223562, 0.0112425
0.035423, -0.00486255, -0.587287, -6.17812e-06, 0.000138087, 0.000390475, 0.0361363, 0.0359009, 0.0211076, 0.00198828, 0.00223335, 0.0112233
0.0354178, -0.00486591, -0.587268, -6.95173e-06, 0.000135097, 0.000378485, 0.0361429, 0.0359077, 0.0211066, 0.00198792, 0.00223104, 0.011203
0.0354062, -0.00487795, -0.587243, -1.22742e-05, 0.000131061, 0.000350516, 0.0361494, 0.0359142, 0.0211047, 0.00198751, 0.0022287, 0.0111821
0.035388, -0.00489813, -0.587193, -1.89744e-05, 0.00012661, 0.000318508, 0.0361558, 0.0359206, 0.0211021, 0.0019871, 0.00222644, 0.0111614
0.0353867, -0.00490152, -0.587197, -2.05815e-05, 0.000124262, 0.000305467, 0.0361623, 0.0359267, 0.021099, 0.00198669, 0.00222428, 0.0111416
0.0353617, -0.00493298, -0.587128, -2.92515e-05, 0.000118967, 0.000265928, 0.0361687, 0.0359326, 0.0210955, 0.0019863, 0.00222226, 0.0111231
0.0353361, -0.00496281, -0.587041, -3.54716e-05, 0.000114452, 0.000236332, 0.0361752, 0.0359385, 0.0210916, 0.00198594, 0.00222042, 0.0111062
0.0353229, -0.00497588, -0.58698, -3.59541e-05, 0.000110707, 0.000222614, 0.0361817, 0.0359443, 0.0210876, 0.00198564, 0.00221875, 0.0110909
0.0353039, -0.00500472, -0.586915, -4.33731e-05, 0.000107562, 0.000194142, 0.0361883, 0.0359501, 0.0210834, 0.0019854, 0.00221728, 0.0110774
0.0352834, -0.00503271, -0.586815, -4.77625e-05, 0.000103836, 0.000173309, 0.0361949, 0.035956, 0.0210793, 0.00198524, 0.00221604, 0.0110656
0.0352656, -0.00506106, -0.586733, -5.41115e-05, 0.000100832, 0.000148863, 0.0362016, 0.0359619, 0.0210754, 0.00198517, 0.00221502, 0.0110554
0.0352504, -0.0050859, -0.586645, -5.87715e-05, 9.70522e-05, 0.000127888, 0.0362084, 0.0359681, 0.0210718, 0.0019852, 0.00221424, 0.0110466
0.0352307, -0.0051173, -0.58655, -6.89154e-05, 9.37737e-05, 9.18931e-05, 0.0362152, 0.0359744, 0.0210685, 0.0019853, 0.00221368, 0.0110392
0.0352278, -0.00512212, -0.586545, -7.13457e-05, 9.24889e-05, 8.34586e-05, 0.036222, 0.0359809, 0.0210658, 0.0019855, 0.00221335, 0.0110328
0.0352236, -0.00512512, -0.586511, -7.26005e-05, 9.06872e-05, 7.82621e-05, 0.0362288, 0.0359876, 0.0210636, 0.00198576, 0.00221324, 0.0110273
0.0352239, -0.00512462, -0.586507, -7.1749e-05, 8.94904e-05, 8.02176e-05, 0.0362357, 0.0359944, 0.0210618, 0.00198607, 0.00221333, 0.0110226
0.0352145, -0.00512068, -0.58645, -7.67444e-05, 8.68306e-05, 6.23304e-05, 0.0362425, 0.036001, 0.0210604, 0.00198643, 0.00221359, 0.0110182
0.0352161, -0.00511043, -0.586428, -7.31841e-05, 8.55337e-05, 7.61055e-05, 0.0362493, 0.0360072, 0.0210592, 0.00198678, 0.00221395, 0.011014
0.0352181, -0.00508516, -0.586382, -6.78197e-05, 8.42177e-05, 9.41158e-05, 0.0362562, 0.0360129, 0.0210584, 0.00198717, 0.00221447, 0.0110097
0.0352327, -0.0051058, -0.586454, -5.67659e-05, 8.55041e-05, 0.000131299, 0.0362631, 0.036018, 0.0210577, 0.00198756, 0.00221509, 0.0110054
0.0352312, -0.00507857, -0.586411, -5.58017e-05, 8.37654e-05, 0.000132611, 0.03627, 0.0360224, 0.0210571, 0.00198794, 0.00221584, 0.0110008
0.0352297, -0.0050632, -0.586387, -5.62164e-05, 8.31389e-05, 0.000131754, 0.0362769, 0.0360261, 0.0210565, 0.0019883, 0.00221671, 0.0109961
0.0352283, -0.00504291, -0.586358, -5.67783e-05, 8.17415e-05, 0.000133057, 0.0362839, 0.0360291, 0.021056, 0.00198863, 0.00221767, 0.010991
0.0352394, -0.00509569, -0.586447, -4.76428e-05, 8.38471e-05, 0.000159304, 0.0362908, 0.0360314, 0.0210555, 0.00198892, 0.00221873, 0.0109857
0.0352419, -0.00507718, -0.586434, -4.43306e-05, 8.24946e-05, 0.000169991, 0.0362977, 0.0360331, 0.0210549, 0.00198914, 0.00221989, 0.0109803
0.0352416, -0.005053, -0.586409, -4.38178e-05, 8.13807e-05, 0.00017382, 0.0363046, 0.0360343, 0.0210543, 0.00198928, 0.00222114, 0.0109748
0.0352426, -0.00505447, -0.586413, -4.29063e-05, 8.13112e-05, 0.000175832, 0.0363115, 0.036035, 0.0210537, 0.00198933, 0.00222248, 0.0109693
0.0352411, -0.0050542, -0.586409, -4.43035e-05, 8.15499e-05, 0.000172522, 0.0363184, 0.0360352, 0.0210529, 0.00198926, 0.00222387, 0.0109636
0.0352485, -0.00508575, -0.586462, -3.62375e-05, 8.21555e-05, 0.000173117, 0.0363253, 0.0360351, 0.0210521, 0.00198905, 0.00222533, 0.0109574
0.0352492, -0.0050866, -0.586466, -3.5001e-05, 8.29226e-05, 0.000165117, 0.0363322, 0.0360345, 0.0210513, 0.00198867, 0.00222681, 0.01095
0.0352495, -0.00509333, -0.586477, -3.32569e-05, 8.51361e-05, 0.000149577, 0.0363391, 0.0360336, 0.0210502, 0.00198811, 0.00222829, 0.0109404
0.0352486, -0.00507556, -0.586456, -3.47157e-05, 8.76908e-05, 0.000139148, 0.036346, 0.0360325, 0.0210491, 0.00198737, 0.00222975, 0.0109276
0.0352489, -0.00511596, -0.58651, -2.92457e-05, 8.96795e-05, 0.000106402, 0.0363528, 0.0360313, 0.0210478, 0.00198647, 0.00223115, 0.0109109
0.0352498, -0.00513579, -0.586542, -2.45026e-05, 9.12021e-05, 7.1175e-05, 0.0363597, 0.0360301, 0.0210465, 0.00198539, 0.00223244, 0.0108895
0.0352443, -0.00514903, -0.586544, -2.95338e-05, 9.76137e-05, 6.70208e-05, 0.0363666, 0.0360291, 0.0210451, 0.00198416, 0.00223357, 0.0108623
0.0352424, -0.00511762, -0.586498, -3.47129e-05, 0.000104421, 6.97987e-05, 0.0363736, 0.0360284, 0.0210435, 0.00198278, 0.00223448, 0.0108292
0.0352404, -0.00508626, -0.58644, -4.39405e-05, 0.000114585, 9.48615e-05, 0.0363805, 0.0360282, 0.0210418, 0.00198133, 0.00223518, 0.0107905
0.0352401, -0.00506161, -0.58639, -5.14393e-05, 0.000125485, 0.00011211, 0.0363875, 0.0360284, 0.02104, 0.00197981, 0.00223565, 0.0107472
0.0352369, -0.00508008, -0.586389, -5.79735e-05, 0.000138031, 0.000122167, 0.0363944, 0.0360288, 0.021038, 0.00197827, 0.00223587, 0.0106998
0.0352297, -0.00511481, -0.586458, -4.56719e-05, 0.000139421, 1.01639e-05, 0.0364014, 0.0360296, 0.0210359, 0.00197675, 0.00223583, 0.0106492
0.0352246, -0.00514072, -0.586491, -4.2361e-05, 0.000146393, -4.11313e-05, 0.0364084, 0.0360308, 0.0210337, 0.00197527, 0.00223555, 0.0105959
0.0352136, -0.00517219, -0.586566, -2.70435e-05, 0.000146046, -0.000177298, 0.0364153, 0.0360323, 0.0210313, 0.00197382, 0.00223501, 0.0105412
0.0352123, -0.00517322, -0.586563, -2.43879e-05, 0.000154427, -0.000217695, 0.0364222, 0.0360344, 0.0210288, 0.00197247, 0.00223424, 0.0104856
0.0352066, -0.00519136, -0.586595, -1.86639e-05, 0.000161702, -0.000277055, 0.0364291, 0.0360368, 0.021026, 0.0019712, 0.00223329, 0.0104301
0.0351895, -0.00521533, -0.586687, 2.14223e-06, 0.000159023, -0.000452395, 0.0364359, 0.0360396, 0.0210232, 0.00197005, 0.00223226, 0.0103761
0.0351747, -0.00523971, -0.586771, 1.87287e-05, 0.000159537, -0.000593604, 0.0364428, 0.0360428, 0.0210201, 0.001969, 0.00223117, 0.0103246
0.035166, -0.00524671, -0.586818, 3.16732e-05, 0.000162147, -0.000701765, 0.0364497, 0.0360464, 0.0210169, 0.00196806, 0.00223011, 0.0102767
0.0351557, -0.00524531, -0.586872, 4.94539e-05, 0.00016099, -0.00084052, 0.0364565, 0.03605, 0.0210134, 0.00196721, 0.00222914, 0.0102333
0.0351478, -0.00526794, -0.586925, 5.46802e-05, 0.000169005, -0.000888093, 0.0364634, 0.0360539, 0.0210099, 0.0019665, 0.00222837, 0.0101952
0.0351366, -0.00526215, -0.58699, 7.5035e-05, 0.000166612, -0.00102749, 0.0364702, 0.0360578, 0.0210061, 0.00196586, 0.00222782, 0.010163
0.0351274, -0.00531497, -0.587051, 6.54227e-05, 0.000181459, -0.000988565, 0.0364771, 0.036062, 0.0210023, 0.00196534, 0.00222753, 0.0101362
0.0351144, -0.00537881, -0.58714, 5.58136e-05, 0.000195219, -0.000954202, 0.0364839, 0.0360662, 0.0209982, 0.00196488, 0.00222752, 0.0101146
0.0351081, -0.00538621, -0.587184, 6.21971e-05, 0.000198642, -0.000993803, 0.0364907, 0.0360707, 0.0209938, 0.00196447, 0.00222781, 0.0100974
0.0350952, -0.00540286, -0.587289, 7.45734e-05, 0.000200002, -0.00105456, 0.0364976, 0.0360753, 0.0209894, 0.00196414, 0.00222839, 0.0100832
0.0350928, -0.0054278, -0.587295, 6.4744e-05, 0.000206053, -0.00104189, 0.0365045, 0.0360801, 0.0209847, 0.00196384, 0.00222922, 0.0100706
0.0350806, -0.0054793, -0.587381, 5.59035e-05, 0.000212691, -0.00104035, 0.0365113, 0.036085, 0.0209799, 0.00196358, 0.00223029, 0.0100583
0.0350726, -0.0055154, -0.587426, 4.66624e-05, 0.000216679, -0.00103581, 0.0365182, 0.03609, 0.020975, 0.00196335, 0.00223155, 0.0100459
0.0350573, -0.00557716, -0.587503, 3.06124e-05, 0.000222464, -0.00104271, 0.0365251, 0.036095, 0.0209698, 0.00196314, 0.00223294, 0.010033
0.0350398, -0.00564127, -0.587595, 1.51105e-05, 0.000225553, -0.00105232, 0.0365319, 0.0361, 0.0209645, 0.00196295, 0.00223444, 0.0100195
0.0350271, -0.00569034, -0.587623, -2.86105e-06, 0.000226099, -0.00107541, 0.0365388, 0.0361052, 0.020959, 0.00196279, 0.00223602, 0.0100042
0.0350134, -0.00573533, -0.58769, -1.49815e-05, 0.000225303, -0.00110111, 0.0365456, 0.0361106, 0.0209533, 0.00196268, 0.00223762, 0.00998581
0.0349973, -0.00578651, -0.587764, -2.93804e-05, 0.000221189, -0.00113961, 0.0365524, 0.036116, 0.0209474, 0.00196259, 0.0022391, 0.00996281
0.0350078, -0.00576025, -0.587774, -1.64848e-05, 0.000221551, -0.00103284, 0.0365592, 0.0361215, 0.0209414, 0.00196259, 0.00224041, 0.00993298
0.0350066, -0.00577349, -0.587732, -2.48422e-05, 0.00021185, -0.00104354, 0.0365661, 0.0361271, 0.0209352, 0.00196267, 0.00224138, 0.00989289
0.0350001, -0.0057988, -0.587784, -3.08359e-05, 0.000203446, -0.00104658, 0.0365729, 0.0361328, 0.0209289, 0.00196288, 0.00224188, 0.00983819
0.0350022, -0.00580369, -0.587762, -3.38761e-05, 0.000192532, -0.000995801, 0.0365798, 0.0361386, 0.0209223, 0.00196323, 0.00224175, 0.00976487
0.0350091, -0.00579621, -0.587721, -3.34401e-05, 0.000182595, -0.000883379, 0.0365866, 0.0361445, 0.0209157, 0.00196377, 0.0022409, 0.00966988
0.035013, -0.00579644, -0.587696, -3.55838e-05, 0.000169545, -0.000802213, 0.0365935, 0.0361505, 0.0209089, 0.00196451, 0.0022393, 0.00955362
0.0350227, -0.00577658, -0.587671, -3.04204e-05, 0.000165379, -0.00058347, 0.0366004, 0.0361566, 0.020902, 0.00196549, 0.00223702, 0.00941798
0.0350312, -0.00575593, -0.587639, -2.65026e-05, 0.000159157, -0.000365319, 0.0366073, 0.0361629, 0.0208951, 0.00196669, 0.00223407, 0.0092655
0.035038, -0.00573341, -0.587646, -2.20604e-05, 0.000154799, -0.000124725, 0.0366143, 0.0361693, 0.0208882, 0.00196813, 0.00223055, 0.00909936
0.0350454, -0.00570092, -0.587634, -1.55389e-05, 0.000154219, 0.000181445, 0.0366213, 0.0361758, 0.0208812, 0.00196976, 0.00222656, 0.00892453
0.0350499, -0.00567709, -0.587622, -1.34598e-05, 0.000144669, 0.000388337, 0.0366283, 0.0361824, 0.0208742, 0.00197157, 0.00222226, 0.00874564
0.0350537, -0.00565284, -0.587632, -1.22485e-05, 0.000132812, 0.000583121, 0.0366353, 0.036189, 0.0208673, 0.00197355, 0.00221786, 0.00856798
0.035057, -0.00562775, -0.587674, -1.12721e-05, 0.000121144, 0.000764477, 0.0366422, 0.0361957, 0.0208604, 0.00197565, 0.00221352, 0.00839583
0.0350584, -0.0056151, -0.587648, -1.64053e-05, 9.32366e-05, 0.000782323, 0.0366492, 0.0362024, 0.0208536, 0.00197785, 0.00220937, 0.00823212
0.0350599, -0.00560476, -0.58764, -2.19435e-05, 6.50845e-05, 0.000786061, 0.0366562, 0.0362091, 0.0208469, 0.0019801, 0.0022055, 0.00808018
0.035059, -0.0056044, -0.587572, -3.04313e-05, 2.96716e-05, 0.000707182, 0.0366632, 0.036216, 0.0208404, 0.00198239, 0.00220199, 0.00794139
0.03506, -0.00559569, -0.587559, -3.36926e-05, 6.37028e-06, 0.00077204, 0.0366702, 0.0362229, 0.020834, 0.00198472, 0.00219884, 0.00781688
0.0350598, -0.00559344, -0.587567, -3.84528e-05, -1.98033e-05, 0.000784136, 0.0366771, 0.0362297, 0.0208276, 0.00198701, 0.002196, 0.00770609
0.0350584, -0.00559551, -0.587567, -4.37552e-05, -4.67026e-05, 0.000780889, 0.036684, 0.0362366, 0.0208214, 0.0019893, 0.00219348, 0.00760832
0.0350552, -0.00560326, -0.58756, -4.97293e-05, -7.39647e-05, 0.000760855, 0.036691, 0.0362436, 0.0208153, 0.00199156, 0.0021913, 0.00752342
