-0.0125776, -0.00319111, -0.586226, -0.000302253, 0.000459276, -0.000461652, 0.0316228, 0.0316228, 0.0316228, 0.0316228, 0.0316228, 0.0316228
-0.0125776, -0.00319111, -0.586226, -0.000302253, 0.000459276, -0.000461652, 0.0316228, 0.0316228, 0.0316228, 0.0316228, 0.0316228, 0.0316228
-0.0125594, -0.00318843, -0.586052, -0.000298755, 0.000424538, -0.000461496, 0.0315736, 0.0315736, 0.0315515, 0.0314841, 0.031484, 0.031621
-0.0125646, -0.00325302, -0.586052, -0.000419813, 0.000448341, -0.000467251, 0.0315542, 0.0315543, 0.0315014, 0.0314105, 0.0314103, 0.0316191
-0.0125518, -0.00328462, -0.586056, -0.000492706, 0.000422931, -0.000461996, 0.0315425, 0.0315425, 0.0314575, 0.0313466, 0.0313463, 0.0316173
-0.0125427, -0.00329272, -0.586162, -0.00051597, 0.000393479, -0.000457281, 0.031534, 0.0315341, 0.0314145, 0.031279, 0.0312789, 0.0316155
-0.0125373, -0.00334374, -0.586154, -0.000683447, 0.000366317, -0.000459199, 0.0315273, 0.0315275, 0.031369, 0.0312028, 0.0312023, 0.0316136
-0.0125364, -0.00334447, -0.586059, -0.000686707, 0.000369021, -0.000449511, 0.0315221, 0.0315224, 0.0313195, 0.0311152, 0.0311134, 0.0316117
-0.0125303, -0.00337101, -0.585918, -0.000820847, 0.000353778, -0.000454958, 0.031518, 0.0315185, 0.0312655, 0.0310181, 0.031015, 0.0316099
-0.0125158, -0.00333957, -0.585898, -0.000637123, 0.00027674, -0.000435478, 0.0315151, 0.0315156, 0.0312065, 0.0309104, 0.0309078, 0.0316081
-0.0125058, -0.00336136, -0.585813, -0.000797402, 0.000212405, -0.000451812, 0.0315129, 0.0315134, 0.0311383, 0.030795, 0.0307939, 0.0316063
-0.0125001, -0.00334945, -0.585721, -0.000698892, 0.000177957, -0.000439188, 0.0315114, 0.0315119, 0.0310602, 0.0306708, 0.0306726, 0.0316045
-0.0124999, -0.00337091, -0.585741, -0.000923763, 0.000180213, -0.00045806, 0.0315103, 0.0315108, 0.0309696, 0.0305397, 0.0305449, 0.0316027
-0.0124986, -0.0033699, -0.585691, -0.000915776, 0.000171283, -0.000449599, 0.0315095, 0.03151, 0.0308619, 0.0304019, 0.0304085, 0.0316009
-0.0125006, -0.00336693, -0.585682, -0.00087067, 0.000207866, -0.000449832, 0.0315088, 0.0315095, 0.0307341, 0.0302552, 0.0302625, 0.0315992
-0.0124971, -0.00336102, -0.585533, -0.000748771, 0.000188775, -0.00044734, 0.0315084, 0.0315091, 0.0305863, 0.0300962, 0.0301047, 0.0315973
-0.0124956, -0.00335748, -0.585415, -0.000662444, 0.000213246, -0.000451179, 0.0315081, 0.0315089, 0.0304214, 0.0299231, 0.029933, 0.0315955
-0.0124907, -0.00335526, -0.585193, -0.000593692, 0.000200107, -0.000452738, 0.0315078, 0.0315087, 0.0302397, 0.0297329, 0.0297419, 0.0315937
-0.0124888, -0.0033474, -0.585094, -0.000269812, 0.000137187, -0.00044704, 0.0315076, 0.0315086, 0.0300402, 0.0295225, 0.0295248, 0.0315919
-0.0124918, -0.00334088, -0.585181, 0.000103548, 6.93804e-05, -0.000450055, 0.0315074, 0.0315085, 0.0298302, 0.0292808, 0.0292667, 0.0315901
-0.0124949, -0.00333767, -0.585269, 0.000331948, 1.23314e-07, -0.000458797, 0.0315073, 0.0315084, 0.0296209, 0.0289998, 0.028956, 0.031588
-0.0124909, -0.00333239, -0.58509, 0.000489717, -5.0431e-05, -0.000466223, 0.031507, 0.0315083, 0.0294047, 0.0286742, 0.0285831, 0.0315855
-0.0124907, -0.00333495, -0.585092, 0.00037806, -3.37517e-05, -0.000472534, 0.0315068, 0.0315081, 0.0291718, 0.0283007, 0.0281423, 0.0315834
-0.0124907, -0.00333168, -0.585073, 0.000496267, -3.10022e-05, -0.000471742, 0.0315064, 0.0315079, 0.0289225, 0.0278708, 0.0276354, 0.0315812
-0.0124918, -0.0033211, -0.585062, 0.000866159, -2.49476e-05, -0.000476151, 0.0315058, 0.0315075, 0.0286524, 0.0273714, 0.02706, 0.031579
-0.0124889, -0.00331053, -0.584838, 0.00108778, 3.66116e-05, -0.000485944, 0.0315052, 0.031507, 0.0283633, 0.0268103, 0.0264359, 0.0315767
-0.0124932, -0.00329468, -0.585108, 0.00170382, -6.02794e-05, -0.000489946, 0.0315044, 0.0315064, 0.0280597, 0.0262137, 0.0258008, 0.0315746
-0.0124966, -0.00330026, -0.585037, 0.00151131, 5.36657e-05, -0.000509538, 0.0315035, 0.0315055, 0.027751, 0.0256155, 0.0251945, 0.0315717
-0.0124978, -0.00330156, -0.585025, 0.00146259, 9.18717e-05, -0.000507269, 0.0315027, 0.0315047, 0.0274445, 0.0250491, 0.0246597, 0.0315696
-0.0124996, -0.0032944, -0.585053, 0.00163308, 0.000110824, -0.000506015, 0.0315019, 0.0315039, 0.027146, 0.0245272, 0.0242219, 0.0315676
-0.0125052, -0.00329486, -0.585128, 0.00164511, 0.000191463, -0.00051315, 0.0315012, 0.0315032, 0.0268684, 0.0240487, 0.0238797, 0.0315656
-0.0125098, -0.00331126, -0.585325, 0.00133613, 0.000208716, -0.000527337, 0.0315007, 0.0315026, 0.0266152, 0.0236109, 0.0235883, 0.0315637
-0.0125126, -0.00331572, -0.585458, 0.00125418, 0.000221096, -0.00052627, 0.0315003, 0.0315022, 0.0263731, 0.0232079, 0.0233106, 0.0315614
-0.0125119, -0.0033103, -0.585372, 0.00138428, 0.000235109, -0.000512191, 0.0315, 0.0315019, 0.0261395, 0.0228389, 0.0230457, 0.0315588
-0.012513, -0.0033162, -0.585539, 0.00123879, 0.000197469, -0.000523534, 0.0314998, 0.0315016, 0.0259037, 0.0224946, 0.0227662, 0.031557
-0.0125119, -0.00331566, -0.585447, 0.00123866, 0.00016347, -0.000518084, 0.0314997, 0.0315015, 0.025647, 0.0221568, 0.0224616, 0.031555
-0.0125131, -0.00331797, -0.58556, 0.00107177, 0.000104173, -0.000523668, 0.0314996, 0.0315015, 0.025365, 0.0218165, 0.0221439, 0.0315532
-0.0125141, -0.00331823, -0.585633, 0.00101224, 2.60982e-05, -0.000522195, 0.0314996, 0.0315015, 0.0250695, 0.0214831, 0.0218063, 0.0315512
-0.012513, -0.00331612, -0.585525, 0.000799843, -3.58928e-05, -0.000528999, 0.0314995, 0.0315015, 0.0247681, 0.0211593, 0.0214335, 0.0315492
-0.0125152, -0.00332051, -0.585622, 0.00102461, -0.000130696, -0.000525031, 0.0314994, 0.0315014, 0.0244892, 0.0208415, 0.0210329, 0.031547
-0.0125132, -0.00332534, -0.585417, 0.00118267, -0.000202213, -0.000535626, 0.0314992, 0.0315013, 0.0242779, 0.0205428, 0.0206279, 0.031545
-0.0125113, -0.00333003, -0.585191, 0.00124182, -0.000249032, -0.000545266, 0.031499, 0.0315011, 0.0241493, 0.0202539, 0.0201976, 0.0315427
-0.0125067, -0.00334247, -0.584986, 0.00138393, -0.000186795, -0.000543697, 0.0314986, 0.0315007, 0.0240978, 0.0199844, 0.0197433, 0.0315387
-0.0125041, -0.00336812, -0.584933, 0.00170044, -0.000194699, -0.000531579, 0.0314981, 0.0315002, 0.0240902, 0.0197538, 0.0192576, 0.0315256
-0.0125086, -0.00338819, -0.584993, 0.00183733, -0.000214704, -0.000536841, 0.0314973, 0.0314994, 0.0240786, 0.0195735, 0.0187181, 0.0314982
-0.0125104, -0.003406, -0.585118, 0.0019598, -0.000200442, -0.000522271, 0.0314962, 0.0314987, 0.0240317, 0.0194518, 0.0181295, 0.0314546
-0.0125153, -0.00342752, -0.585369, 0.00208194, -0.000192546, -0.000513167, 0.0314949, 0.031498, 0.0239445, 0.0193776, 0.0174921, 0.0314079
-0.0125173, -0.00344639, -0.585607, 0.00218961, -0.000177748, -0.000497175, 0.0314933, 0.0314975, 0.0238315, 0.0193327, 0.0168012, 0.0313542
-0.0125176, -0.00345554, -0.585742, 0.00224052, -0.000162125, -0.000489304, 0.0314915, 0.031497, 0.0237063, 0.0193023, 0.0160746, 0.031308
-0.012517, -0.00345532, -0.58587, 0.00223727, -9.01753e-05, -0.000485062, 0.0314897, 0.0314966, 0.0235858, 0.0192782, 0.015348, 0.0312793
-0.0125154, -0.00346215, -0.586012, 0.00227278, -5.14206e-05, -0.000480018, 0.031488, 0.0314963, 0.0234782, 0.0192565, 0.0146347, 0.0312618
-0.012514, -0.00346924, -0.586153, 0.00231914, -1.86225e-05, -0.000487919, 0.0314863, 0.031496, 0.0233809, 0.0192308, 0.0139336, 0.0312532
-0.0125131, -0.00346837, -0.586171, 0.00231327, -4.76764e-07, -0.000491002, 0.0314847, 0.0314957, 0.0232946, 0.0191959, 0.0132539, 0.0312492
-0.0125132, -0.00347362, -0.586209, 0.00235743, -3.27286e-06, -0.00049488, 0.0314833, 0.0314953, 0.0232168, 0.0191442, 0.0126093, 0.031247
-0.0125092, -0.00346359, -0.586179, 0.00225825, 4.45113e-05, -0.000494622, 0.0314819, 0.0314947, 0.0231476, 0.0190663, 0.012001, 0.0312427
-0.0125057, -0.00346124, -0.586206, 0.00221305, 8.90481e-05, -0.000497264, 0.0314806, 0.031494, 0.0230868, 0.0189548, 0.0114278, 0.0312352
-0.0125034, -0.00344408, -0.586122, 0.00203804, 0.000113117, -0.000477432, 0.0314795, 0.031493, 0.0230316, 0.018797, 0.0108865, 0.0312242
-0.0125008, -0.0034344, -0.58606, 0.00198784, 0.000164763, -0.000469733, 0.0314784, 0.0314917, 0.022984, 0.0185808, 0.0103812, 0.0312087
-0.012495, -0.00344553, -0.586122, 0.00205138, 0.000218881, -0.000507808, 0.0314774, 0.03149, 0.0229459, 0.0182958, 0.0099112, 0.0311883
-0.0124812, -0.00345259, -0.586176, 0.00199512, 0.000338125, -0.000562585, 0.0314765, 0.0314878, 0.0229152, 0.017942, 0.00947035, 0.0311672
-0.0124772, -0.00342623, -0.586122, 0.00169802, 0.000370267, -0.000547253, 0.0314757, 0.031485, 0.0228895, 0.017507, 0.00905797, 0.0311474
-0.0124821, -0.00337147, -0.586023, 0.00130987, 0.000358929, -0.000496486, 0.0314748, 0.0314814, 0.0228721, 0.0169616, 0.00867475, 0.0311283
-0.0124922, -0.00333031, -0.585973, 0.00127856, 0.00037517, -0.000471573, 0.031474, 0.0314769, 0.022863, 0.0162896, 0.00831971, 0.0311099
-0.0124924, -0.00328753, -0.585939, 0.00094271, 0.000382674, -0.00046988, 0.0314732, 0.0314716, 0.0228573, 0.0155245, 0.0079934, 0.0310929
-0.0124885, -0.00335049, -0.585985, 0.00162711, 0.000481705, -0.000520664, 0.0314723, 0.0314655, 0.0228524, 0.014696, 0.0076924, 0.0310797
-0.0125035, -0.00328208, -0.585953, 0.00139455, 0.000444319, -0.000491501, 0.0314716, 0.031459, 0.0228487, 0.0138919, 0.00741465, 0.0310668
-0.0125097, -0.00318907, -0.585916, 0.000550435, 0.000343328, -0.000448035, 0.0314707, 0.0314519, 0.0228469, 0.0130714, 0.00715273, 0.0310588
-0.0124957, -0.00319012, -0.585907, 0.00019863, 0.000355919, -0.000452646, 0.0314698, 0.0314436, 0.0228458, 0.0122136, 0.00689871, 0.0310556
-0.0125012, -0.00312653, -0.585933, -0.000385964, 0.000274766, -0.000416913, 0.0314687, 0.0314343, 0.0228423, 0.0113668, 0.00665463, 0.0310529
-0.0124956, -0.00310016, -0.585963, -0.000850366, 0.000238599, -0.000396238, 0.0314675, 0.0314237, 0.0228306, 0.0105238, 0.00641851, 0.0310478
-0.0124818, -0.00313286, -0.58593, -0.000904374, 0.000262762, -0.000385034, 0.0314661, 0.0314114, 0.0228083, 0.00971113, 0.00619272, 0.0310365
-0.0125231, -0.00303198, -0.586037, -0.000585068, 0.000267789, -0.0004056, 0.0314646, 0.0313971, 0.022773, 0.00895747, 0.00597891, 0.0310188
-0.0125192, -0.00303485, -0.586036, -0.00066658, 0.000258668, -0.000410749, 0.0314629, 0.0313806, 0.0227236, 0.008271, 0.00578306, 0.0309958
-0.0124554, -0.00324261, -0.585722, -0.000587393, 0.000320166, -0.000381303, 0.031461, 0.0313612, 0.0226579, 0.00764275, 0.00559887, 0.0309603
-0.0124964, -0.00311589, -0.585904, -0.000493966, 0.000304544, -0.000385464, 0.031459, 0.0313385, 0.0225726, 0.00708371, 0.00542195, 0.0309148
-0.0125308, -0.00299155, -0.586139, -0.000659928, 0.000252476, -0.000419386, 0.0314567, 0.0313118, 0.0224686, 0.00657281, 0.00526294, 0.0308496
-0.0124864, -0.00315867, -0.585826, -0.000471114, 0.000282572, -0.000442425, 0.031454, 0.0312802, 0.0223492, 0.00610703, 0.00511935, 0.0307507
-0.012555, -0.00291741, -0.586246, -0.000569333, 0.000230653, -0.000500163, 0.0314512, 0.0312446, 0.0222151, 0.0057057, 0.00498539, 0.0306389
-0.0125749, -0.00286931, -0.586243, -0.000370787, 0.000231381, -0.00063387, 0.0314478, 0.0312028, 0.022066, 0.00533945, 0.00486961, 0.0304782
-0.0126309, -0.00268523, -0.586507, -0.000319833, 0.00020004, -0.000792028, 0.0314442, 0.0311561, 0.0219077, 0.00501996, 0.00476785, 0.030295
-0.0126362, -0.00267054, -0.586531, -0.000320761, 0.000185756, -0.000857745, 0.0314402, 0.0311036, 0.0217397, 0.00473645, 0.00468084, 0.0300674
-0.0126189, -0.00271137, -0.586588, -0.000554587, 0.00016655, -0.000759299, 0.0314358, 0.0310453, 0.0215565, 0.00448884, 0.00460605, 0.0297956
-0.0126347, -0.00267092, -0.586602, -0.000476048, 0.000157527, -0.000919968, 0.0314309, 0.0309779, 0.0213526, 0.00427316, 0.0045426, 0.029455
-0.0126028, -0.00278843, -0.58647, -0.000515776, 0.000148739, -0.000918171, 0.0314255, 0.0309018, 0.0211322, 0.00408391, 0.00449098, 0.0290769
-0.0126236, -0.00269483, -0.586735, -0.000682973, 0.000121554, -0.000933527, 0.0314196, 0.0308145, 0.0208944, 0.00392011, 0.00444858, 0.0286518
-0.0125939, -0.00280204, -0.586643, -0.000736803, 0.000117, -0.000898074, 0.0314128, 0.0307129, 0.0206333, 0.00377868, 0.0044165, 0.0281547
-0.0126501, -0.00258862, -0.586947, -0.000760012, 0.000100522, -0.00105815, 0.0314053, 0.0305987, 0.0203448, 0.00365707, 0.00439259, 0.0276217
-0.0127265, -0.00230036, -0.587303, -0.000753073, 8.50857e-05, -0.0013447, 0.0313971, 0.0304714, 0.0200352, 0.00355199, 0.00437706, 0.0270524
-0.0127837, -0.00207635, -0.587634, -0.000792444, 7.39486e-05, -0.00149633, 0.0313883, 0.0303329, 0.019707, 0.00346078, 0.00436826, 0.0264598
-0.0127485, -0.00221342, -0.587511, -0.000817213, 7.16601e-05, -0.00152994, 0.0313788, 0.030182, 0.0193572, 0.00338184, 0.00436388, 0.025845
-0.0127563, -0.00218388, -0.587525, -0.000806741, 7.11944e-05, -0.00157131, 0.0313687, 0.0300178, 0.0189853, 0.00331391, 0.00436145, 0.02523
-0.0128491, -0.00181234, -0.588022, -0.000835311, 6.34421e-05, -0.00162314, 0.0313581, 0.0298414, 0.0185931, 0.00325551, 0.00436012, 0.0246199
-0.0129853, -0.0012672, -0.588608, -0.000824459, 5.78112e-05, -0.00175918, 0.0313472, 0.0296557, 0.0181804, 0.00320567, 0.0043591, 0.024004
-0.0130412, -0.00104217, -0.588719, -0.000783046, 5.9195e-05, -0.0018095, 0.0313361, 0.0294657, 0.0177533, 0.00316405, 0.00435716, 0.023394
-0.0130196, -0.00113287, -0.588745, -0.0008144, 6.00858e-05, -0.001648, 0.0313253, 0.0292758, 0.0173115, 0.00312935, 0.00435345, 0.0228008
-0.0130978, -0.000811239, -0.589084, -0.000809848, 5.18775e-05, -0.00168498, 0.0313149, 0.0290881, 0.0168593, 0.00309974, 0.00434758, 0.0222249
-0.013197, -0.000398974, -0.589479, -0.000800715, 4.64677e-05, -0.00172548, 0.0313051, 0.0289084, 0.0164054, 0.00307561, 0.00433873, 0.0216633
-0.0132265, -0.000277782, -0.589656, -0.000809563, 4.96966e-05, -0.00172691, 0.0312962, 0.0287406, 0.0159571, 0.00305642, 0.00432635, 0.0211133
-0.0132322, -0.000257154, -0.589732, -0.000814976, 4.82675e-05, -0.00169598, 0.0312883, 0.0285884, 0.0155272, 0.00304051, 0.00431103, 0.0205849
-0.0132778, -6.19164e-05, -0.589888, -0.000809415, 3.55882e-05, -0.00160456, 0.0312817, 0.0284548, 0.0151232, 0.00302705, 0.00429312, 0.0200819
-0.0133447, 0.000239165, -0.589961, -0.000792803, 2.84813e-05, -0.00158144, 0.0312762, 0.0283414, 0.0147523, 0.00301588, 0.00427247, 0.019595
-0.0133833, 0.000418327, -0.590012, -0.000789918, 3.65655e-05, -0.00164805, 0.0312719, 0.0282482, 0.0144178, 0.00300677, 0.00424858, 0.0191088
-0.0133461, 0.000240068, -0.589762, -0.000782558, 3.98734e-05, -0.0015602, 0.0312687, 0.0281764, 0.0141174, 0.00299832, 0.00422178, 0.0186315
-0.0133548, 0.000285517, -0.589583, -0.000769438, 3.65188e-05, -0.00152404, 0.0312664, 0.0281208, 0.0138517, 0.0029899, 0.00419316, 0.0181676
-0.0133594, 0.000307912, -0.589108, -0.000744709, 5.0053e-05, -0.00155557, 0.0312647, 0.0280763, 0.0136281, 0.00298141, 0.00416173, 0.0176955
-0.0133829, 0.000434319, -0.58912, -0.000746597, 6.35437e-05, -0.0016484, 0.0312634, 0.0280416, 0.0134197, 0.00297298, 0.00412757, 0.0172094
-0.0133842, 0.000443754, -0.588975, -0.000742209, 7.87354e-05, -0.00170382, 0.0312624, 0.0280128, 0.0132212, 0.00296394, 0.00409066, 0.0167227
-0.0133966, 0.000524215, -0.588776, -0.00073288, 9.73377e-05, -0.00181017, 0.0312616, 0.0279883, 0.0130418, 0.00295421, 0.00405186, 0.0162341
-0.0133844, 0.000450277, -0.588591, -0.000728215, 0.000101971, -0.00177336, 0.0312609, 0.0279678, 0.0128818, 0.00294359, 0.0040107, 0.0157341
-0.0134095, 0.000615913, -0.588667, -0.00072725, 0.00010971, -0.0018803, 0.0312604, 0.0279512, 0.0127408, 0.00293251, 0.00396878, 0.0152391
-0.0134109, 0.000623713, -0.588599, -0.000721957, 0.000114447, -0.00185926, 0.0312601, 0.027939, 0.0126192, 0.0029207, 0.00392411, 0.0147321
-0.0134199, 0.000711452, -0.588597, -0.000714843, 0.000123401, -0.00192997, 0.0312599, 0.0279295, 0.0125114, 0.00290834, 0.00387782, 0.0142204
-0.0134208, 0.000719811, -0.588607, -0.000714818, 0.00013109, -0.00194063, 0.0312597, 0.0279214, 0.0124117, 0.00289513, 0.00382928, 0.0136973
-0.0134218, 0.00075423, -0.58863, -0.000705472, 0.000127632, -0.00192701, 0.0312596, 0.0279149, 0.0123245, 0.00288151, 0.00377951, 0.0131728
-0.0134261, 0.000824531, -0.588772, -0.000699934, 0.000137232, -0.00198017, 0.0312594, 0.0279086, 0.0122433, 0.0028673, 0.00372886, 0.0126478
-0.0134243, 0.000819157, -0.588773, -0.000690942, 0.000129908, -0.00190973, 0.0312592, 0.0279017, 0.0121674, 0.00285246, 0.00367698, 0.012124
-0.0134138, 0.000801863, -0.588759, -0.000679754, 0.000127655, -0.00190418, 0.031259, 0.0278958, 0.0121012, 0.00283733, 0.00362592, 0.0116098
-0.013405, 0.00081055, -0.58883, -0.000665876, 0.000132632, -0.00192152, 0.0312586, 0.0278902, 0.0120429, 0.0028216, 0.00357626, 0.0111064
-0.0133971, 0.000841879, -0.588969, -0.000647486, 0.000143012, -0.00195392, 0.0312581, 0.0278826, 0.0119881, 0.00280506, 0.00352759, 0.0106173
-0.0133786, 0.000811359, -0.589016, -0.000626206, 0.000144357, -0.00193593, 0.0312574, 0.0278718, 0.0119347, 0.00278785, 0.00347987, 0.0101455
-0.0133597, 0.000783661, -0.589078, -0.000605044, 0.000148603, -0.00193824, 0.0312564, 0.0278584, 0.0118844, 0.00276977, 0.00343452, 0.00969436
-0.0133199, 0.000712307, -0.589169, -0.000569802, 0.000164612, -0.0019988, 0.0312552, 0.0278428, 0.0118387, 0.00275052, 0.00339189, 0.00926744
-0.0133171, 0.000794885, -0.589397, -0.000531072, 0.000181721, -0.00202496, 0.0312537, 0.0278239, 0.0117957, 0.00272964, 0.0033522, 0.00886316
-0.0133002, 0.000732869, -0.589383, -0.00051038, 0.000163722, -0.0019087, 0.0312521, 0.0278046, 0.0117577, 0.0027073, 0.00331479, 0.0084825
-0.0132815, 0.000669941, -0.589372, -0.000495063, 0.000155892, -0.00186117, 0.0312504, 0.0277853, 0.0117247, 0.00268239, 0.00328158, 0.0081296
-0.0132694, 0.000641839, -0.589397, -0.000474672, 0.000146062, -0.00179266, 0.0312486, 0.0277662, 0.0116961, 0.00265415, 0.00325219, 0.00780314
-0.0132518, 0.00062029, -0.589459, -0.000441751, 0.000142582, -0.00174647, 0.0312466, 0.0277465, 0.0116708, 0.00262214, 0.00322631, 0.00750244
-0.0131856, 0.000442383, -0.589481, -0.00038248, 0.000148285, -0.00174825, 0.0312443, 0.0277254, 0.0116479, 0.00258573, 0.00320357, 0.00722551
-0.0131451, 0.000395187, -0.589611, -0.000312647, 0.000168062, -0.00176018, 0.0312418, 0.0277031, 0.0116281, 0.00254346, 0.00318411, 0.00697243
-0.0131348, 0.000319702, -0.589548, -0.000312917, 0.000147402, -0.00163826, 0.0312391, 0.0276804, 0.0116106, 0.00249604, 0.00316727, 0.00674068
-0.0131034, 0.000268025, -0.589606, -0.000260665, 0.000149402, -0.00158977, 0.0312364, 0.0276582, 0.0115943, 0.0024425, 0.0031534, 0.00653065
-0.0130671, 0.000197001, -0.589649, -0.000205375, 0.000152511, -0.00153795, 0.0312338, 0.027637, 0.0115793, 0.00238435, 0.00314169, 0.00634
-0.0129794, 0.000118955, -0.589845, -4.28518e-05, 0.000202204, -0.00164743, 0.0312313, 0.0276166, 0.0115646, 0.00232246, 0.00313185, 0.00616709
-0.0129734, 9.03277e-05, -0.589838, -3.22974e-05, 0.000194558, -0.00154711, 0.0312288, 0.0275967, 0.0115504, 0.00225822, 0.00312338, 0.00600849
-0.0129923, 0.00012817, -0.58983, -5.08852e-05, 0.000177875, -0.00144266, 0.0312264, 0.0275775, 0.0115365, 0.00219191, 0.00311643, 0.00586647
-0.0129601, 6.85817e-05, -0.589848, -3.35312e-06, 0.000175997, -0.00139087, 0.031224, 0.0275582, 0.0115232, 0.00212387, 0.00311091, 0.00573997
-0.0129427, 6.89583e-05, -0.589893, 4.12642e-05, 0.000179773, -0.00134178, 0.0312216, 0.0275392, 0.0115107, 0.00205471, 0.00310614, 0.00562756
-0.0128993, -3.10235e-05, -0.589886, 9.21747e-05, 0.000182355, -0.00130661, 0.0312193, 0.0275212, 0.0114988, 0.00198568, 0.00310241, 0.00552769
-0.0129183, 1.20687e-05, -0.589888, 7.46096e-05, 0.000176134, -0.00123825, 0.031217, 0.027504, 0.0114876, 0.0019175, 0.00309919, 0.00544074
-0.0128714, -7.59667e-05, -0.589885, 0.000133299, 0.00018112, -0.0012139, 0.0312149, 0.0274886, 0.0114771, 0.00185033, 0.00309677, 0.00536507
-0.0128449, -0.000157105, -0.589846, 0.000148071, 0.000183871, -0.00118474, 0.0312128, 0.027475, 0.0114673, 0.00178474, 0.00309458, 0.0053002
-0.0128814, -7.21857e-05, -0.589871, 0.000116371, 0.00017587, -0.00112312, 0.031211, 0.0274632, 0.0114581, 0.00172128, 0.00309212, 0.0052454
-0.0128634, -9.90474e-05, -0.589861, 0.00013757, 0.00017783, -0.00109479, 0.0312093, 0.0274531, 0.0114494, 0.00166005, 0.00309059, 0.00519872
-0.0128895, -3.2118e-05, -0.589893, 0.000121962, 0.000175843, -0.00105364, 0.0312078, 0.0274445, 0.0114411, 0.00160203, 0.00308896, 0.00515988
-0.0128684, -5.75305e-05, -0.589878, 0.000147284, 0.000178739, -0.00104648, 0.0312064, 0.0274376, 0.0114332, 0.00154666, 0.00308777, 0.00512754
-0.0128408, -6.95937e-05, -0.589867, 0.000189334, 0.000186497, -0.0010412, 0.0312051, 0.027432, 0.0114256, 0.00149487, 0.00308614, 0.00510152
-0.01283, -7.53086e-05, -0.589857, 0.000203414, 0.000191637, -0.00103552, 0.0312039, 0.0274276, 0.0114181, 0.00144655, 0.00308407, 0.00508107
-0.0128238, -8.53374e-05, -0.589841, 0.000203072, 0.000198455, -0.00101693, 0.0312028, 0.0274244, 0.0114105, 0.00140105, 0.00308143, 0.00506555
-0.01279, -0.000111594, -0.589784, 0.000227991, 0.000206377, -0.00101753, 0.0312018, 0.0274221, 0.0114022, 0.00135783, 0.00307792, 0.00505435
-0.0127653, -0.000127596, -0.589733, 0.000238687, 0.00021627, -0.00101718, 0.0312009, 0.0274204, 0.0113932, 0.00131678, 0.00307279, 0.0050468
-0.0127557, -0.000125012, -0.589716, 0.000246252, 0.000221581, -0.00101816, 0.0312, 0.0274189, 0.011383, 0.00127767, 0.00306595, 0.00504207
-0.0127532, -0.000125672, -0.589711, 0.000245371, 0.000225291, -0.00101656, 0.0311991, 0.0274171, 0.0113712, 0.00123995, 0.00305763, 0.00503954
-0.0127336, -0.000116504, -0.589653, 0.000246831, 0.000232849, -0.00101739, 0.0311984, 0.0274145, 0.0113572, 0.00120348, 0.00304776, 0.00503849
-0.0127295, -9.64629e-05, -0.589645, 0.000260072, 0.000233234, -0.00101998, 0.0311976, 0.0274107, 0.0113405, 0.00116884, 0.00303577, 0.00503813
-0.0127202, -0.000103315, -0.589602, 0.000242383, 0.000235473, -0.00102021, 0.0311969, 0.0274051, 0.0113205, 0.0011356, 0.00302191, 0.00503788
-0.0127176, -0.000107282, -0.589595, 0.000236895, 0.000240086, -0.00102143, 0.0311962, 0.027397, 0.0112964, 0.00110388, 0.00300602, 0.00503711
-0.0127102, -7.52468e-05, -0.589565, 0.000243331, 0.000241608, -0.001022, 0.0311955, 0.027386, 0.0112679, 0.0010736, 0.00298829, 0.00503539
-0.0127138, -0.000109935, -0.589591, 0.000235176, 0.000246715, -0.00102528, 0.0311948, 0.0273711, 0.0112339, 0.00104468, 0.00296852, 0.00503222
-0.0127139, -0.000134288, -0.5896, 0.000226453, 0.000251187, -0.00102871, 0.0311941, 0.0273513, 0.0111935, 0.0010167, 0.00294675, 0.00502725
-0.0127123, -8.08957e-05, -0.589571, 0.000238879, 0.000243974, -0.0010223, 0.0311934, 0.027326, 0.0111463, 0.000989485, 0.00292285, 0.00502009
-0.0127053, -7.36873e-05, -0.589526, 0.000224146, 0.000240517, -0.00102085, 0.0311927, 0.0272941, 0.0110907, 0.000962808, 0.00289643, 0.00501023
-0.0126906, 2.36027e-06, -0.589426, 0.000214808, 0.000239869, -0.00102097, 0.031192, 0.0272551, 0.0110269, 0.00093669, 0.00286759, 0.00499744
-0.0126945, 5.52885e-05, -0.589398, 0.000224299, 0.000225447, -0.00100666, 0.0311913, 0.0272088, 0.0109551, 0.000911248, 0.00283639, 0.00498148
-0.0126779, 6.98414e-05, -0.589313, 0.00020481, 0.000217598, -0.00100072, 0.0311905, 0.0271552, 0.0108747, 0.000886524, 0.00280306, 0.00496228
-0.0126666, 0.000109903, -0.589246, 0.000196726, 0.000217049, -0.00100119, 0.0311897, 0.0270943, 0.0107861, 0.000862508, 0.00276798, 0.00493998
-0.0126447, 0.000304368, -0.589048, 0.000192416, 0.000211207, -0.000995049, 0.0311889, 0.0270265, 0.0106893, 0.000839338, 0.00273145, 0.00491471
-0.0126424, 0.000458194, -0.588936, 0.000200804, 0.000199458, -0.000980614, 0.0311881, 0.0269522, 0.010584, 0.000817041, 0.00269361, 0.00488646
-0.0126317, 0.000593351, -0.588808, 0.000201708, 0.000188241, -0.000967058, 0.0311872, 0.0268725, 0.0104717, 0.000795773, 0.00265471, 0.00485534
-0.0126015, 0.000700967, -0.588641, 0.000189682, 0.000183018, -0.000961971, 0.0311862, 0.0267885, 0.0103526, 0.000775465, 0.0026151, 0.00482162
-0.0125792, 0.000831134, -0.58848, 0.000184035, 0.00017656, -0.00095461, 0.0311851, 0.0267013, 0.0102271, 0.000756058, 0.00257515, 0.00478566
-0.0125507, 0.00110461, -0.588207, 0.000182252, 0.000168858, -0.000944769, 0.031184, 0.0266124, 0.0100969, 0.000737729, 0.00253522, 0.0047478
-0.0125098, 0.00117874, -0.58804, 0.000169363, 0.000167393, -0.000944794, 0.0311827, 0.0265238, 0.00996536, 0.000720527, 0.00249542, 0.00470812
-0.0124512, 0.00110046, -0.587942, 0.00014458, 0.000181031, -0.000967612, 0.0311814, 0.0264355, 0.00983226, 0.000704399, 0.00245614, 0.00466713
-0.0124508, 0.000996019, -0.588002, 0.00014161, 0.000175146, -0.000960108, 0.0311801, 0.0263469, 0.0096963, 0.000689257, 0.00241762, 0.00462525
-0.0124243, 0.000958059, -0.587964, 0.000131331, 0.000182749, -0.00097281, 0.0311787, 0.0262614, 0.0095633, 0.000675144, 0.00237967, 0.00458219
-0.0123826, 0.00114664, -0.58773, 0.000125194, 0.000184283, -0.00097672, 0.0311774, 0.0261805, 0.00943503, 0.000661895, 0.00234206, 0.00453778
-0.0123636, 0.00127136, -0.587594, 0.000125132, 0.000178081, -0.000967912, 0.0311759, 0.0261033, 0.00930842, 0.000649396, 0.0023047, 0.00449195
-0.0123248, 0.00139975, -0.587421, 0.000119478, 0.000180634, -0.000973127, 0.0311744, 0.0260309, 0.00918484, 0.00063762, 0.00226755, 0.00444472
-0.0122914, 0.00143073, -0.58733, 0.000112317, 0.000186491, -0.000983813, 0.0311727, 0.0259656, 0.00906814, 0.0006265, 0.00223048, 0.00439592
-0.0122624, 0.00153029, -0.5872, 0.000110259, 0.000182893, -0.000978658, 0.031171, 0.0259068, 0.00895763, 0.000615964, 0.00219339, 0.00434551
-0.0122469, 0.0016148, -0.587109, 0.000111579, 0.000175213, -0.000966098, 0.0311692, 0.0258526, 0.00885018, 0.000605995, 0.00215641, 0.00429374
-0.0122218, 0.00167271, -0.587022, 0.000110419, 0.000168628, -0.000955324, 0.0311672, 0.0258014, 0.0087432, 0.000596521, 0.00211937, 0.00424045
-0.0121608, 0.00166877, -0.586929, 9.81092e-05, 0.000181213, -0.000978212, 0.0311651, 0.0257535, 0.00863773, 0.000587503, 0.00208229, 0.00418572
-0.0121311, 0.00177391, -0.586804, 9.80427e-05, 0.000173676, -0.000965172, 0.0311628, 0.0257105, 0.00853709, 0.000578906, 0.00204533, 0.00412988
-0.0120782, 0.00180882, -0.586706, 9.07243e-05, 0.000179378, -0.000975851, 0.0311604, 0.0256722, 0.0084416, 0.000570721, 0.00200829, 0.00407264
-0.0120445, 0.00185121, -0.586628, 8.81271e-05, 0.000174991, -0.000968308, 0.0311579, 0.0256361, 0.00834803, 0.000562884, 0.00197123, 0.00401418
-0.0120123, 0.00189028, -0.58656, 8.60535e-05, 0.000169688, -0.000958891, 0.0311553, 0.025604, 0.00826007, 0.000555393, 0.00193402, 0.00395436
-0.011957, 0.0020282, -0.586401, 8.46324e-05, 0.000166667, -0.000952929, 0.0311525, 0.0255758, 0.00817861, 0.000548214, 0.00189653, 0.00389299
-0.0119316, 0.00205247, -0.586358, 8.29939e-05, 0.000162705, -0.000945736, 0.0311497, 0.0255494, 0.0081015, 0.000541332, 0.0018589, 0.00383037
-0.0119288, 0.00201747, -0.586377, 8.22552e-05, 0.000154786, -0.000931408, 0.0311468, 0.0255247, 0.0080292, 0.0005347, 0.00182097, 0.00376631
-0.0118923, 0.00207502, -0.586309, 8.02549e-05, 0.0001514, -0.000925057, 0.0311438, 0.0255016, 0.00796219, 0.000528287, 0.00178259, 0.00370063
-0.0118697, 0.00209631, -0.58628, 7.80988e-05, 0.000148765, -0.000920314, 0.0311407, 0.0254795, 0.00789947, 0.000522082, 0.00174393, 0.00363369
-0.0118229, 0.00217129, -0.586206, 7.3612e-05, 0.000153548, -0.000929647, 0.0311374, 0.0254588, 0.00784207, 0.00051606, 0.00170492, 0.00356542
-0.0118112, 0.00218475, -0.58619, 7.35666e-05, 0.000145536, -0.000914529, 0.031134, 0.0254398, 0.00779006, 0.000510228, 0.00166566, 0.00349601
-0.0118013, 0.00219615, -0.586178, 7.36154e-05, 0.000137355, -0.000898854, 0.0311303, 0.0254213, 0.00774168, 0.000504583, 0.00162615, 0.00342557
-0.0117754, 0.00224061, -0.586152, 6.89646e-05, 0.000140391, -0.000905208, 0.0311264, 0.025403, 0.00769646, 0.000499129, 0.00158654, 0.00335441
-0.0117695, 0.00225999, -0.586152, 6.51401e-05, 0.000137365, -0.000900116, 0.0311223, 0.0253845, 0.00765425, 0.000493865, 0.00154697, 0.0032828
-0.0117641, 0.00231412, -0.586156, 5.54151e-05, 0.000148009, -0.000922334, 0.0311179, 0.025365, 0.00761396, 0.000488794, 0.00150755, 0.003211
-0.011753, 0.00234466, -0.586138, 5.45039e-05, 0.000142889, -0.000912887, 0.0311133, 0.025344, 0.00757472, 0.000483913, 0.00146854, 0.00313956
-0.0118063, 0.00225926, -0.58621, 5.56079e-05, 0.000129287, -0.000886665, 0.0311086, 0.0253211, 0.00753595, 0.000479228, 0.0014298, 0.00306831
-0.0118344, 0.00222278, -0.586247, 5.5871e-05, 0.000116853, -0.000862476, 0.0311035, 0.0252965, 0.00749785, 0.000474721, 0.0013913, 0.00299725
-0.0118168, 0.00226105, -0.586224, 5.59385e-05, 0.000110953, -0.000850703, 0.0310981, 0.0252707, 0.00746156, 0.000470401, 0.00135314, 0.00292665
-0.0117665, 0.0023453, -0.586164, 5.64282e-05, 0.000107101, -0.000842673, 0.0310924, 0.0252433, 0.00742642, 0.000466259, 0.00131551, 0.00285685
-0.0117686, 0.00241447, -0.586155, 5.28356e-05, 0.000107366, -0.000844011, 0.0310863, 0.025214, 0.00739212, 0.000462286, 0.00127857, 0.00278822
-0.0118241, 0.00240105, -0.5862, 5.0191e-05, 9.91037e-05, -0.00082881, 0.03108, 0.025183, 0.00735891, 0.000458453, 0.00124238, 0.00272095
-0.0117705, 0.00266339, -0.586119, 3.97385e-05, 0.000118452, -0.000869118, 0.0310734, 0.0251503, 0.00732643, 0.000454716, 0.00120684, 0.00265499
-0.0118079, 0.00267666, -0.586138, 3.78468e-05, 0.000107611, -0.000848828, 0.0310667, 0.0251157, 0.00729498, 0.000451092, 0.00117221, 0.00259075
-0.0117701, 0.0028045, -0.586088, 3.6036e-05, 0.000101837, -0.000837562, 0.0310596, 0.0250795, 0.00726468, 0.000447547, 0.00113831, 0.00252808
-0.0117962, 0.00276867, -0.586107, 3.72781e-05, 8.94108e-05, -0.000812894, 0.0310522, 0.0250423, 0.0072355, 0.000444058, 0.00110537, 0.00246737
-0.0117244, 0.00293057, -0.586036, 3.50589e-05, 9.43343e-05, -0.000822886, 0.0310446, 0.0250047, 0.00720759, 0.000440571, 0.00107328, 0.00240856
-0.0117683, 0.0029308, -0.586057, 3.2834e-05, 8.95544e-05, -0.000814261, 0.0310367, 0.0249669, 0.00718119, 0.000437126, 0.00104227, 0.002352
-0.0117025, 0.00301644, -0.586006, 3.40294e-05, 8.68283e-05, -0.000808423, 0.0310284, 0.0249294, 0.00715611, 0.00043365, 0.00101217, 0.00229749
-0.0117512, 0.00297432, -0.586034, 3.4219e-05, 7.36079e-05, -0.000782296, 0.0310199, 0.0248925, 0.0071324, 0.00043016, 0.000983132, 0.00224525
-0.0116831, 0.00314181, -0.58597, 3.12481e-05, 7.58047e-05, -0.000787295, 0.031011, 0.0248565, 0.00710985, 0.000426602, 0.000954982, 0.00219502
-0.0117695, 0.00316223, -0.585997, 2.49976e-05, 6.9588e-05, -0.000776499, 0.0310018, 0.0248212, 0.00708841, 0.000423021, 0.000927823, 0.00214692
-0.011849, 0.00316917, -0.586022, 2.00636e-05, 5.89698e-05, -0.0007565, 0.0309924, 0.024787, 0.00706805, 0.000419339, 0.000901421, 0.00210061
-0.011859, 0.00325893, -0.586005, 1.48182e-05, 5.67942e-05, -0.000753345, 0.0309827, 0.0247543, 0.00704879, 0.000415554, 0.000875831, 0.00205619
-0.0118419, 0.00331435, -0.585985, 1.38099e-05, 5.07111e-05, -0.000741648, 0.0309727, 0.0247229, 0.00703061, 0.000411711, 0.000851119, 0.00201369
-0.0118075, 0.00345921, -0.585943, 8.04169e-06, 5.09771e-05, -0.000743509, 0.0309624, 0.0246932, 0.00701354, 0.000407799, 0.000827332, 0.00197318
-0.0118699, 0.00342204, -0.585967, 6.2718e-06, 4.28706e-05, -0.000727861, 0.030952, 0.0246653, 0.00699765, 0.000403848, 0.000804471, 0.00193461
-0.0120176, 0.00340369, -0.586014, -4.12766e-06, 3.90544e-05, -0.000722052, 0.0309413, 0.0246395, 0.0069829, 0.00039983, 0.000782421, 0.00189782
-0.0120225, 0.00348675, -0.586, -1.12315e-05, 4.16046e-05, -0.000728525, 0.0309303, 0.0246159, 0.00696929, 0.000395701, 0.000761037, 0.00186259
-0.0119487, 0.00363688, -0.585953, -1.76798e-05, 4.51119e-05, -0.000737054, 0.0309192, 0.0245947, 0.00695681, 0.000391509, 0.000740496, 0.00182915
-0.0118804, 0.00376014, -0.585912, -2.28355e-05, 4.55571e-05, -0.000739244, 0.0309081, 0.0245758, 0.0069455, 0.000387312, 0.000720694, 0.00179728
-0.0119413, 0.00371383, -0.585935, -2.3372e-05, 3.75329e-05, -0.000723533, 0.0308969, 0.0245594, 0.00693535, 0.00038308, 0.000701572, 0.00176692
-0.0118713, 0.00380685, -0.585903, -2.7823e-05, 3.84479e-05, -0.000726389, 0.0308855, 0.0245455, 0.00692624, 0.000378728, 0.000683107, 0.00173807
-0.0118901, 0.00381338, -0.585908, -3.12714e-05, 3.42044e-05, -0.000718754, 0.0308737, 0.0245341, 0.00691827, 0.000374329, 0.000665244, 0.00171064
-0.0118106, 0.003881, -0.585882, -3.42371e-05, 3.74033e-05, -0.000725714, 0.0308615, 0.0245251, 0.00691133, 0.000369809, 0.000647904, 0.00168453
-0.0117475, 0.00393147, -0.585866, -3.90642e-05, 3.72917e-05, -0.00072651, 0.0308486, 0.0245183, 0.00690531, 0.000365184, 0.000631129, 0.00165981
-0.0117133, 0.00395195, -0.585865, -4.52014e-05, 3.72184e-05, -0.000727504, 0.030835, 0.0245133, 0.0069, 0.000360412, 0.000614823, 0.00163633
-0.0116246, 0.00398351, -0.585853, -5.09608e-05, 3.92816e-05, -0.000732658, 0.0308207, 0.0245094, 0.00689506, 0.000355441, 0.000598924, 0.00161402
-0.0115284, 0.00400057, -0.585846, -5.6866e-05, 4.20728e-05, -0.000739114, 0.0308057, 0.0245059, 0.00689027, 0.000350294, 0.000583419, 0.00159285
-0.0114663, 0.00397123, -0.58586, -6.53253e-05, 4.40763e-05, -0.000744306, 0.0307904, 0.0245022, 0.00688545, 0.000344988, 0.000568291, 0.00157277
-0.0114482, 0.00394194, -0.585873, -6.94489e-05, 4.42055e-05, -0.000745106, 0.0307746, 0.0244974, 0.00688029, 0.000339454, 0.000553521, 0.00155381
-0.0113727, 0.0039119, -0.58588, -7.44492e-05, 4.38813e-05, -0.000745476, 0.0307583, 0.0244911, 0.0068748, 0.000333753, 0.000539168, 0.00153601
-0.0112453, 0.00396494, -0.585847, -7.25941e-05, 4.31548e-05, -0.000744256, 0.0307412, 0.024483, 0.00686891, 0.000327921, 0.000525216, 0.00151934
-0.0112343, 0.00395095, -0.585851, -7.36063e-05, 4.17765e-05, -0.000741832, 0.0307234, 0.0244724, 0.00686238, 0.000321986, 0.000511778, 0.00150387
-0.0111209, 0.00395098, -0.58584, -7.49548e-05, 4.19731e-05, -0.000742832, 0.0307048, 0.0244586, 0.00685516, 0.000315971, 0.000498743, 0.00148946
-0.0110265, 0.00383379, -0.585873, -8.29685e-05, 4.42515e-05, -0.000748164, 0.0306851, 0.0244409, 0.00684698, 0.000309905, 0.000486088, 0.00147602
-0.0110898, 0.0039522, -0.585837, -7.53711e-05, 3.64992e-05, -0.000733074, 0.0306649, 0.024418, 0.00683742, 0.000303747, 0.000473786, 0.00146352
-0.0111378, 0.00391707, -0.585851, -7.61521e-05, 3.25153e-05, -0.000726255, 0.0306444, 0.02439, 0.00682652, 0.000297568, 0.000461983, 0.00145206
-0.0111416, 0.00384639, -0.585873, -7.90171e-05, 3.13133e-05, -0.000724508, 0.0306242, 0.0243576, 0.00681464, 0.000291416, 0.000450626, 0.00144156
-0.0110778, 0.00385469, -0.585864, -7.89264e-05, 2.92903e-05, -0.000721529, 0.0306045, 0.0243211, 0.00680181, 0.000285315, 0.000439762, 0.00143202
-0.0109864, 0.00367911, -0.585912, -8.67748e-05, 3.34718e-05, -0.000729766, 0.0305849, 0.0242812, 0.00678814, 0.000279324, 0.000429443, 0.00142343
-0.01099, 0.00363167, -0.585927, -8.82113e-05, 3.20904e-05, -0.000727249, 0.0305653, 0.0242382, 0.00677389, 0.000273463, 0.000419582, 0.00141567
-0.0109179, 0.00339167, -0.585994, -9.73145e-05, 3.47525e-05, -0.000732891, 0.0305455, 0.0241922, 0.00675897, 0.000267731, 0.000410196, 0.00140872
-0.0107353, 0.00323766, -0.586026, -0.000104379, 3.83199e-05, -0.000739977, 0.0305258, 0.024144, 0.00674351, 0.000262158, 0.000401295, 0.00140255
-0.0107547, 0.00310264, -0.586068, -0.000108087, 3.67249e-05, -0.00073745, 0.030506, 0.024094, 0.00672772, 0.000256768, 0.000392864, 0.00139707
-0.0106248, 0.00312135, -0.586051, -0.000108844, 3.58722e-05, -0.000737313, 0.0304859, 0.0240428, 0.00671167, 0.00025155, 0.000384891, 0.00139227
-0.0106886, 0.00325833, -0.586014, -0.000103322, 3.01557e-05, -0.000728248, 0.0304656, 0.0239909, 0.00669547, 0.000246541, 0.000377419, 0.00138812
-0.0106019, 0.00335039, -0.58598, -0.00010183, 2.95961e-05, -0.000728761, 0.0304446, 0.0239388, 0.00667926, 0.000241733, 0.000370407, 0.00138454
-0.0103818, 0.00342602, -0.585943, -0.000103084, 3.14363e-05, -0.000734024, 0.0304235, 0.023887, 0.00666304, 0.000237143, 0.000363872, 0.00138152
-0.0103605, 0.00336725, -0.585958, -0.00010498, 3.09579e-05, -0.00073422, 0.0304023, 0.0238365, 0.00664717, 0.000232795, 0.000357812, 0.00137899
-0.0103476, 0.00342305, -0.585941, -0.000103434, 2.95646e-05, -0.000732677, 0.030381, 0.0237883, 0.00663191, 0.000228674, 0.000352196, 0.00137692
-0.0103239, 0.00343436, -0.585935, -0.000103507, 2.91783e-05, -0.000732783, 0.0303603, 0.0237433, 0.00661749, 0.000224789, 0.000347032, 0.00137527
-0.0102997, 0.00353629, -0.585905, -0.000100713, 2.73654e-05, -0.000730963, 0.0303394, 0.0237021, 0.00660415, 0.000221141, 0.000342293, 0.00137397
-0.0102504, 0.00361218, -0.58588, -9.928e-05, 2.66824e-05, -0.000731123, 0.0303177, 0.0236649, 0.00659191, 0.000217718, 0.000337951, 0.00137297
-0.0101592, 0.00372003, -0.585845, -9.76694e-05, 2.68403e-05, -0.0007323, 0.0302965, 0.0236316, 0.00658072, 0.00021452, 0.000333999, 0.00137223
-0.0101073, 0.00378225, -0.585825, -9.67004e-05, 2.69102e-05, -0.00073315, 0.0302758, 0.0236024, 0.00657062, 0.000211541, 0.000330421, 0.00137171
-0.0100779, 0.00373615, -0.585837, -9.90731e-05, 2.84107e-05, -0.000734837, 0.0302556, 0.0235772, 0.00656165, 0.000208765, 0.000327189, 0.00137137
-0.010023, 0.00381569, -0.585812, -9.72054e-05, 2.83297e-05, -0.000734983, 0.0302351, 0.0235559, 0.00655381, 0.000206172, 0.00032427, 0.00137115
-0.00995467, 0.00385716, -0.585798, -9.70805e-05, 2.92717e-05, -0.00073607, 0.0302146, 0.0235382, 0.00654702, 0.000203752, 0.000321646, 0.00137102
-0.00993532, 0.00390624, -0.585784, -9.53236e-05, 2.96719e-05, -0.000736318, 0.0301939, 0.0235235, 0.00654114, 0.000201495, 0.000319296, 0.00137095
-0.00989337, 0.00392231, -0.585778, -9.5542e-05, 3.03946e-05, -0.000736771, 0.0301725, 0.0235114, 0.0065361, 0.000199382, 0.00031719, 0.00137089
-0.00985678, 0.00394997, -0.585769, -9.48385e-05, 3.12561e-05, -0.000737012, 0.0301508, 0.0235016, 0.00653177, 0.000197406, 0.000315316, 0.00137082
-0.00981925, 0.00399275, -0.585755, -9.29991e-05, 3.17911e-05, -0.000737168, 0.0301296, 0.0234934, 0.00652795, 0.000195558, 0.000313659, 0.00137071
-0.0098089, 0.00403643, -0.58574, -8.98505e-05, 3.17291e-05, -0.000737547, 0.0301091, 0.0234864, 0.00652454, 0.000193834, 0.000312203, 0.00137052
-0.00969789, 0.00409036, -0.585721, -8.91488e-05, 3.16079e-05, -0.000737855, 0.0300887, 0.0234802, 0.00652146, 0.000192219, 0.000310927, 0.00137023
-0.00950189, 0.00417076, -0.585694, -8.80801e-05, 3.23388e-05, -0.000737146, 0.0300685, 0.0234743, 0.00651862, 0.000190711, 0.000309816, 0.00136982
-0.00955116, 0.00415912, -0.585693, -8.47253e-05, 3.26993e-05, -0.000738259, 0.0300479, 0.0234685, 0.00651594, 0.0001893, 0.000308854, 0.00136926
-0.00949758, 0.00416654, -0.585689, -8.33736e-05, 3.33944e-05, -0.000737085, 0.0300267, 0.0234624, 0.00651341, 0.000187971, 0.000308025, 0.00136853
-0.00939102, 0.00418007, -0.585679, -8.04218e-05, 3.38339e-05, -0.000737207, 0.030005, 0.0234558, 0.00651093, 0.00018672, 0.000307317, 0.00136762
-0.00954156, 0.00407584, -0.585697, -7.449e-05, 3.38038e-05, -0.000742483, 0.0299826, 0.0234484, 0.00650845, 0.000185538, 0.000306718, 0.0013665
-0.00945994, 0.00407541, -0.585696, -7.38441e-05, 3.42742e-05, -0.000740268, 0.0299599, 0.0234404, 0.00650597, 0.000184415, 0.000306216, 0.00136518
-0.00932765, 0.00404737, -0.585698, -7.12191e-05, 3.51491e-05, -0.000739122, 0.0299361, 0.0234317, 0.00650352, 0.00018334, 0.000305796, 0.00136365
-0.00940155, 0.00397437, -0.585715, -6.93814e-05, 3.61943e-05, -0.000737416, 0.0299104, 0.0234226, 0.00650114, 0.000182298, 0.000305447, 0.00136191
-0.00942073, 0.00390467, -0.585731, -6.74281e-05, 3.7123e-05, -0.00073563, 0.0298823, 0.0234131, 0.00649886, 0.000181277, 0.000305156, 0.00135996
-0.00933824, 0.00386107, -0.58574, -6.60061e-05, 3.78675e-05, -0.000733829, 0.0298521, 0.0234035, 0.00649669, 0.000180274, 0.000304915, 0.00135781
-0.00945271, 0.00375919, -0.585761, -6.31869e-05, 3.8978e-05, -0.000733433, 0.0298206, 0.0233938, 0.00649461, 0.000179288, 0.000304715, 0.00135544
-0.0096196, 0.00371564, -0.585773, -6.25418e-05, 3.9528e-05, -0.000729241, 0.029787, 0.0233841, 0.00649259, 0.000178308, 0.000304547, 0.00135286
-0.00972506, 0.00364839, -0.585788, -6.09375e-05, 4.03427e-05, -0.000726145, 0.0297511, 0.023374, 0.00649059, 0.000177327, 0.000304403, 0.0013501
-0.00989405, 0.00360024, -0.585799, -5.98354e-05, 4.09317e-05, -0.000721559, 0.029714, 0.0233635, 0.00648854, 0.000176355, 0.000304278, 0.00134714
-0.00999007, 0.00352903, -0.585815, -5.81342e-05, 4.17087e-05, -0.000718253, 0.0296747, 0.0233524, 0.00648644, 0.000175392, 0.000304164, 0.00134401
-0.0101305, 0.0034286, -0.585834, -5.54688e-05, 4.27761e-05, -0.000717322, 0.0296339, 0.0233406, 0.00648424, 0.000174449, 0.000304057, 0.00134072
-0.0101967, 0.0033601, -0.58585, -5.40969e-05, 4.3396e-05, -0.000712688, 0.0295937, 0.0233279, 0.00648189, 0.000173536, 0.000303955, 0.00133725
-0.010107, 0.00328695, -0.585868, -5.30078e-05, 4.40243e-05, -0.000707953, 0.0295539, 0.0233145, 0.00647942, 0.000172651, 0.000303854, 0.00133362
-0.0100912, 0.00318994, -0.58589, -5.1135e-05, 4.49281e-05, -0.000705332, 0.029514, 0.0233005, 0.0064769, 0.000171797, 0.000303753, 0.00132986
-0.0102043, 0.0030845, -0.58591, -4.87369e-05, 4.59429e-05, -0.000705733, 0.0294747, 0.0232863, 0.00647436, 0.000170972, 0.00030365, 0.00132598
-0.0102804, 0.00299555, -0.585928, -4.6976e-05, 4.66025e-05, -0.00070257, 0.0294367, 0.0232723, 0.00647186, 0.000170177, 0.000303543, 0.00132197
-0.0101378, 0.00288651, -0.585954, -4.52584e-05, 4.74559e-05, -0.000699905, 0.0294002, 0.0232588, 0.00646948, 0.000169413, 0.000303431, 0.00131782
-0.0100849, 0.00285255, -0.585964, -4.49817e-05, 4.73936e-05, -0.000693982, 0.0293656, 0.023246, 0.00646724, 0.000168685, 0.000303312, 0.00131353
-0.0101212, 0.002854, -0.585966, -4.53021e-05, 4.68354e-05, -0.000686206, 0.0293326, 0.0232341, 0.0064652, 0.000167984, 0.000303186, 0.00130911
-0.0101411, 0.0027217, -0.58599, -4.23828e-05, 4.81956e-05, -0.000687335, 0.0293016, 0.023223, 0.00646331, 0.000167302, 0.000303049, 0.00130453
-0.0101369, 0.00267055, -0.586003, -4.17159e-05, 4.79943e-05, -0.000679426, 0.0292723, 0.0232126, 0.00646156, 0.000166641, 0.000302902, 0.00129981
-0.0102142, 0.00262031, -0.586013, -4.06656e-05, 4.80559e-05, -0.00067427, 0.0292445, 0.0232032, 0.00645999, 0.000165992, 0.000302743, 0.00129496
-0.0102916, 0.00256533, -0.586023, -3.94166e-05, 4.81938e-05, -0.0006694, 0.0292186, 0.0231949, 0.00645859, 0.000165352, 0.000302569, 0.00128994
-0.0104211, 0.00248304, -0.586032, -3.6518e-05, 4.95713e-05, -0.000672206, 0.0291941, 0.023188, 0.00645741, 0.000164711, 0.000302379, 0.00128477
-0.0105107, 0.00243856, -0.586037, -3.47604e-05, 5.01083e-05, -0.000670473, 0.0291704, 0.0231827, 0.00645642, 0.000164059, 0.000302179, 0.00127947
-0.0105749, 0.00241203, -0.586038, -3.32388e-05, 5.05305e-05, -0.00066889, 0.0291474, 0.0231785, 0.00645545, 0.000163385, 0.000301969, 0.00127402
-0.0106624, 0.00240666, -0.586034, -3.16677e-05, 5.10109e-05, -0.000668399, 0.0291251, 0.0231747, 0.00645423, 0.00016268, 0.000301751, 0.0012684
-0.0106809, 0.00240935, -0.586021, -2.9051e-05, 5.20632e-05, -0.000670001, 0.029103, 0.0231697, 0.00645238, 0.000161934, 0.000301527, 0.00126263
-0.0106505, 0.00240042, -0.586013, -2.70718e-05, 5.25283e-05, -0.00066732, 0.0290812, 0.0231621, 0.0064495, 0.00016115, 0.000301298, 0.0012567
-0.0106922, 0.00244859, -0.585986, -2.4334e-05, 5.34916e-05, -0.000668657, 0.0290595, 0.0231504, 0.00644526, 0.000160322, 0.000301063, 0.00125063
-0.0106824, 0.00242761, -0.585988, -2.35253e-05, 5.31327e-05, -0.000661774, 0.0290372, 0.0231337, 0.00643941, 0.00015945, 0.000300826, 0.00124447
-0.0107791, 0.00252027, -0.585953, -2.12168e-05, 5.3739e-05, -0.000662492, 0.0290144, 0.0231112, 0.00643179, 0.00015853, 0.000300587, 0.00123824
-0.0108382, 0.00254977, -0.585942, -2.01089e-05, 5.33907e-05, -0.000656507, 0.0289908, 0.0230822, 0.00642222, 0.000157563, 0.000300348, 0.00123199
-0.0108805, 0.00260435, -0.585915, -1.80977e-05, 5.38052e-05, -0.000654563, 0.0289659, 0.0230459, 0.00641052, 0.000156543, 0.00030011, 0.00122576
-0.0109608, 0.00270298, -0.585876, -1.58205e-05, 5.42996e-05, -0.000653705, 0.0289393, 0.0230015, 0.00639651, 0.000155471, 0.000299872, 0.00121959
-0.0109745, 0.00273079, -0.585856, -1.41224e-05, 5.4835e-05, -0.000652461, 0.0289114, 0.022948, 0.00637998, 0.000154346, 0.000299633, 0.00121352
-0.0110986, 0.00288519, -0.585802, -1.16119e-05, 5.53932e-05, -0.000652612, 0.0288819, 0.0228852, 0.00636092, 0.000153174, 0.000299391, 0.00120756
-0.0112096, 0.00302176, -0.585754, -9.33119e-06, 5.58565e-05, -0.000651815, 0.0288503, 0.0228142, 0.00633963, 0.000151955, 0.000299148, 0.00120179
-0.0111616, 0.0029258, -0.585775, -8.95572e-06, 5.54453e-05, -0.000643774, 0.028817, 0.0227367, 0.00631662, 0.000150699, 0.000298904, 0.00119624
-0.0112994, 0.00308126, -0.585731, -7.44841e-06, 5.50592e-05, -0.000640405, 0.0287818, 0.0226554, 0.0062926, 0.00014942, 0.000298661, 0.00119091
-0.0115433, 0.00340305, -0.58564, -4.96955e-06, 5.53971e-05, -0.000643875, 0.0287457, 0.0225733, 0.00626834, 0.000148136, 0.000298422, 0.00118582
-0.0115693, 0.00342035, -0.585624, -3.34402e-06, 5.60697e-05, -0.000642478, 0.0287088, 0.0224931, 0.00624454, 0.000146865, 0.00029819, 0.00118099
-0.0115525, 0.00337036, -0.585641, -3.78053e-06, 5.52184e-05, -0.00063637, 0.0286717, 0.0224166, 0.00622167, 0.00014562, 0.000297965, 0.00117642
-0.0113604, 0.00314757, -0.585677, -2.55503e-06, 5.72198e-05, -0.000637596, 0.0286355, 0.0223454, 0.00620018, 0.000144408, 0.00029775, 0.00117207
-0.0113578, 0.00311075, -0.585685, -2.2564e-06, 5.67694e-05, -0.000632001, 0.0286004, 0.02228, 0.00618017, 0.000143241, 0.000297542, 0.00116793
-0.0113486, 0.00308111, -0.585688, -1.65701e-06, 5.67572e-05, -0.000628124, 0.0285665, 0.0222207, 0.00616173, 0.000142102, 0.00029734, 0.00116401
-0.0113915, 0.00312794, -0.585672, -8.43406e-07, 5.69783e-05, -0.00062788, 0.0285342, 0.0221673, 0.00614486, 0.000140991, 0.000297144, 0.0011603
-0.0113994, 0.00315287, -0.585662, -1.89275e-07, 5.73527e-05, -0.000628337, 0.028504, 0.0221195, 0.0061295, 0.000139912, 0.000296954, 0.00115679
-0.0116616, 0.00343918, -0.585581, 2.11824e-06, 5.83794e-05, -0.000637284, 0.0284757, 0.0220766, 0.00611553, 0.00013887, 0.000296772, 0.00115347
-0.0117694, 0.0035588, -0.585545, 3.49283e-06, 5.89284e-05, -0.000639694, 0.0284496, 0.0220381, 0.00610284, 0.000137868, 0.000296601, 0.00115034
-0.0119097, 0.00372909, -0.585495, 5.27209e-06, 5.9953e-05, -0.000646014, 0.0284255, 0.022003, 0.0060912, 0.000136907, 0.000296441, 0.0011474
-0.0118713, 0.00375285, -0.585486, 5.71093e-06, 6.02205e-05, -0.000645578, 0.0284035, 0.02197, 0.00608031, 0.000135989, 0.000296291, 0.00114463
-0.0119571, 0.00381562, -0.585468, 6.49137e-06, 6.06883e-05, -0.000648703, 0.0283837, 0.0219377, 0.00606988, 0.000135117, 0.000296147, 0.00114202
-0.0118967, 0.0038664, -0.585453, 6.73789e-06, 6.09358e-05, -0.000649587, 0.0283661, 0.0219051, 0.00605965, 0.000134293, 0.00029601, 0.00113955
-0.0118517, 0.00396671, -0.585424, 7.3772e-06, 6.14339e-05, -0.000652133, 0.0283506, 0.0218711, 0.00604943, 0.000133521, 0.000295876, 0.00113722
-0.0119048, 0.00399519, -0.585416, 7.86159e-06, 6.19903e-05, -0.000656348, 0.0283367, 0.0218352, 0.00603907, 0.000132803, 0.000295744, 0.00113503
-0.0118134, 0.00405863, -0.585399, 7.66667e-06, 6.17503e-05, -0.0006554, 0.0283242, 0.0217966, 0.00602846, 0.000132142, 0.000295613, 0.00113297
-0.0117968, 0.00410753, -0.585386, 7.84356e-06, 6.20494e-05, -0.000658743, 0.028313, 0.0217548, 0.00601744, 0.000131542, 0.000295485, 0.00113106
-0.0117616, 0.00424438, -0.58535, 8.50491e-06, 6.26633e-05, -0.000664268, 0.028303, 0.0217093, 0.0060059, 0.000131007, 0.000295359, 0.00112929
-0.0117105, 0.00447297, -0.58529, 9.69482e-06, 6.36035e-05, -0.000671773, 0.028294, 0.0216593, 0.00599363, 0.00013054, 0.000295234, 0.00112765
-0.0116424, 0.00453104, -0.585275, 9.25034e-06, 6.29766e-05, -0.000670244, 0.0282863, 0.0216039, 0.00598038, 0.000130145, 0.000295109, 0.00112614
-0.0116024, 0.00477209, -0.585214, 1.07273e-05, 6.43324e-05, -0.000681326, 0.0282796, 0.0215416, 0.00596568, 0.000129812, 0.000294988, 0.00112477
-0.0116051, 0.00492216, -0.58518, 1.24761e-05, 6.65496e-05, -0.000696818, 0.0282739, 0.0214715, 0.00594936, 0.000129539, 0.000294867, 0.00112352
-0.0115761, 0.00504158, -0.585152, 1.33465e-05, 6.76038e-05, -0.000706162, 0.0282687, 0.0213932, 0.00593142, 0.000129317, 0.000294743, 0.00112239
-0.01161, 0.00490086, -0.58519, 1.34552e-05, 6.84992e-05, -0.000712852, 0.0282637, 0.0213062, 0.00591172, 0.000129137, 0.00029462, 0.00112138
-0.0116524, 0.00469521, -0.585244, 1.34252e-05, 6.94457e-05, -0.000718938, 0.028259, 0.02121, 0.00589008, 0.000128987, 0.000294499, 0.0011205
-0.0116471, 0.00458321, -0.585277, 1.3733e-05, 7.05175e-05, -0.00072847, 0.0282544, 0.0211047, 0.00586653, 0.000128862, 0.000294378, 0.00111974
-0.011705, 0.00412927, -0.585397, 1.34333e-05, 7.22446e-05, -0.000737808, 0.0282497, 0.02099, 0.00584109, 0.000128756, 0.000294255, 0.00111907
-0.0116662, 0.00410095, -0.585408, 1.36852e-05, 7.27264e-05, -0.000744475, 0.028245, 0.0208657, 0.00581367, 0.000128662, 0.000294131, 0.00111848
-0.0116985, 0.00366653, -0.585522, 1.31757e-05, 7.38043e-05, -0.00075087, 0.02824, 0.0207315, 0.00578428, 0.000128571, 0.000294006, 0.00111798
-0.0117146, 0.0035236, -0.585557, 1.29652e-05, 7.38504e-05, -0.000752092, 0.0282349, 0.0205882, 0.0057531, 0.000128478, 0.000293878, 0.00111755
-0.0116819, 0.00345684, -0.585577, 1.31261e-05, 7.38383e-05, -0.000756214, 0.0282296, 0.0204361, 0.00572022, 0.00012838, 0.000293747, 0.0011172
-0.0116855, 0.00330186, -0.585617, 1.30215e-05, 7.37777e-05, -0.000758067, 0.0282241, 0.0202767, 0.00568611, 0.000128279, 0.000293606, 0.0011169
-0.0116291, 0.00346017, -0.58558, 1.36279e-05, 7.32145e-05, -0.000760416, 0.0282185, 0.020111, 0.00565096, 0.000128173, 0.000293451, 0.00111664
-0.0116169, 0.00317554, -0.585656, 1.34671e-05, 7.34241e-05, -0.000763395, 0.0282127, 0.0199397, 0.00561496, 0.000128062, 0.000293278, 0.00111641
-0.0115989, 0.00314016, -0.585667, 1.36373e-05, 7.31566e-05, -0.00076445, 0.0282068, 0.0197637, 0.00557832, 0.000127946, 0.000293079, 0.00111617
-0.0115661, 0.00308825, -0.585684, 1.3943e-05, 7.27499e-05, -0.000765904, 0.0282008, 0.0195831, 0.00554098, 0.000127824, 0.000292853, 0.00111594
-0.0115442, 0.00305315, -0.585696, 1.41664e-05, 7.24288e-05, -0.000766615, 0.0281947, 0.0193979, 0.00550294, 0.000127692, 0.000292597, 0.00111568
-0.0115016, 0.00318735, -0.585666, 1.47708e-05, 7.16699e-05, -0.000767003, 0.0281883, 0.0192089, 0.00546439, 0.000127552, 0.000292306, 0.00111539
-0.0115271, 0.00306952, -0.585693, 1.46033e-05, 7.14147e-05, -0.000766049, 0.0281818, 0.0190166, 0.00542543, 0.000127401, 0.000291976, 0.00111504
-0.0115441, 0.00316645, -0.585665, 1.47114e-05, 7.09188e-05, -0.000764899, 0.028175, 0.0188208, 0.005386, 0.000127239, 0.000291602, 0.00111463
-0.0114646, 0.00319446, -0.58567, 1.54608e-05, 7.03583e-05, -0.000765804, 0.028168, 0.0186224, 0.00534622, 0.000127062, 0.000291181, 0.00111415
-0.0114392, 0.00302401, -0.585718, 1.54044e-05, 7.07201e-05, -0.000766713, 0.0281607, 0.0184218, 0.00530631, 0.000126869, 0.000290708, 0.00111356
-0.0113789, 0.00286646, -0.585768, 1.56741e-05, 7.09237e-05, -0.000767852, 0.028153, 0.018219, 0.00526619, 0.000126657, 0.000290177, 0.00111286
-0.0113269, 0.00276261, -0.585803, 1.59436e-05, 7.11461e-05, -0.000768874, 0.028145, 0.0180142, 0.00522594, 0.000126425, 0.00028958, 0.00111202
-0.011175, 0.00300801, -0.585767, 1.7553e-05, 7.08629e-05, -0.000771154, 0.0281367, 0.0178071, 0.00518543, 0.000126166, 0.000288911, 0.00111102
-0.0110044, 0.00311401, -0.585771, 1.91266e-05, 7.11529e-05, -0.00077427, 0.0281281, 0.0175979, 0.0051447, 0.000125876, 0.000288162, 0.00110986
-0.0108935, 0.00355959, -0.585679, 2.07199e-05, 7.10338e-05, -0.000776887, 0.0281194, 0.0173868, 0.00510375, 0.000125552, 0.000287322, 0.0011085
-0.0107813, 0.003646, -0.585679, 2.17277e-05, 7.18929e-05, -0.000780316, 0.0281106, 0.0171737, 0.00506244, 0.000125187, 0.00028639, 0.00110695
-0.0107036, 0.00389511, -0.585632, 2.27527e-05, 7.25325e-05, -0.000783601, 0.0281018, 0.0169595, 0.00502086, 0.000124776, 0.00028536, 0.00110518
-0.0106893, 0.00420216, -0.585558, 2.29737e-05, 7.34066e-05, -0.000787317, 0.0280933, 0.0167447, 0.00497899, 0.000124317, 0.000284227, 0.00110319
-0.0105526, 0.00463188, -0.58548, 2.52556e-05, 7.39617e-05, -0.000791399, 0.0280849, 0.016529, 0.00493662, 0.000123808, 0.000282995, 0.00110098
-0.0104673, 0.00493049, -0.585424, 2.63643e-05, 7.58366e-05, -0.000798168, 0.028077, 0.0163137, 0.00489393, 0.000123244, 0.000281673, 0.00109857
-0.0103431, 0.00522612, -0.585379, 2.83704e-05, 7.74243e-05, -0.00080419, 0.0280694, 0.0160994, 0.00485095, 0.000122635, 0.000280263, 0.00109594
-0.0102494, 0.00570944, -0.585282, 3.03912e-05, 7.8853e-05, -0.000810627, 0.0280623, 0.0158875, 0.00480792, 0.000121985, 0.000278778, 0.00109313
-0.010194, 0.00585517, -0.585258, 3.05984e-05, 8.17375e-05, -0.000819586, 0.0280554, 0.0156784, 0.00476483, 0.0001213, 0.000277223, 0.00109012
-0.00999919, 0.00567769, -0.585344, 3.31988e-05, 8.44668e-05, -0.000826102, 0.028049, 0.0154724, 0.00472178, 0.000120594, 0.000275599, 0.00108691
-0.00984909, 0.0055428, -0.58541, 3.49125e-05, 8.76997e-05, -0.000834402, 0.0280429, 0.0152708, 0.00467905, 0.000119866, 0.000273918, 0.00108352
-0.0096942, 0.00515624, -0.585535, 3.58613e-05, 9.10636e-05, -0.000841836, 0.0280367, 0.0150742, 0.0046366, 0.000119123, 0.000272189, 0.00107995
-0.00953054, 0.00455857, -0.585709, 3.62948e-05, 9.42206e-05, -0.000847615, 0.0280306, 0.0148822, 0.00459445, 0.000118375, 0.000270408, 0.0010762
-0.0094569, 0.00450471, -0.585739, 3.69338e-05, 9.67959e-05, -0.000854767, 0.0280243, 0.0146951, 0.00455272, 0.000117631, 0.000268583, 0.00107226
-0.00935922, 0.00437343, -0.585793, 3.82059e-05, 9.85208e-05, -0.000858659, 0.028018, 0.014512, 0.00451135, 0.000116895, 0.000266708, 0.00106814
-0.00921607, 0.00411204, -0.585889, 4.07758e-05, 9.91999e-05, -0.00085803, 0.0280114, 0.0143336, 0.00447054, 0.000116168, 0.000264789, 0.00106381
-0.00904018, 0.00341997, -0.58608, 3.98887e-05, 0.000102674, -0.000864769, 0.0280044, 0.0141608, 0.0044305, 0.000115443, 0.000262826, 0.00105929
-0.00896228, 0.00317765, -0.58615, 3.95308e-05, 0.000105043, -0.000870716, 0.0279972, 0.0139921, 0.00439099, 0.000114731, 0.000260822, 0.00105459
-0.00890117, 0.0030862, -0.586188, 4.06691e-05, 0.000106081, -0.000872782, 0.0279897, 0.0138274, 0.00435211, 0.000114031, 0.000258776, 0.00104971
-0.00891854, 0.00322615, -0.58615, 3.97072e-05, 0.000108412, -0.000881443, 0.0279821, 0.0136676, 0.00431414, 0.000113338, 0.000256692, 0.00104463
-0.00881556, 0.00286379, -0.586254, 4.01903e-05, 0.000108999, -0.000880677, 0.0279743, 0.0135112, 0.0042768, 0.000112657, 0.000254565, 0.00103936
-0.00882177, 0.00291908, -0.586251, 4.21383e-05, 0.000108683, -0.000879014, 0.0279664, 0.0133592, 0.00424038, 0.000111982, 0.000252401, 0.00103391
-0.00883292, 0.0029641, -0.586245, 4.33457e-05, 0.000108469, -0.000877973, 0.0279582, 0.0132124, 0.00420506, 0.000111309, 0.000250203, 0.00102828
-0.00885495, 0.00306264, -0.586221, 4.35135e-05, 0.000109108, -0.000880596, 0.0279496, 0.0130707, 0.00417073, 0.00011064, 0.000247977, 0.00102249
-0.00885037, 0.0030128, -0.586237, 4.42132e-05, 0.000109168, -0.000880072, 0.0279407, 0.0129331, 0.00413727, 0.000109979, 0.000245721, 0.00101654
-0.00889561, 0.0030859, -0.58622, 4.53095e-05, 0.000108739, -0.000878593, 0.0279314, 0.0127997, 0.00410472, 0.000109323, 0.000243439, 0.00101044
-0.00889255, 0.00306336, -0.586226, 4.54453e-05, 0.000108788, -0.000878523, 0.0279219, 0.0126703, 0.00407305, 0.000108672, 0.000241132, 0.00100419
-0.00894692, 0.00312973, -0.586208, 4.64528e-05, 0.000107755, -0.00087505, 0.027912, 0.0125444, 0.00404204, 0.000108028, 0.000238805, 0.00099781
-0.00894678, 0.0030504, -0.58623, 4.70326e-05, 0.000107154, -0.000872198, 0.0279014, 0.0124226, 0.00401172, 0.000107388, 0.00023646, 0.000991315
-0.00895435, 0.00308986, -0.586218, 4.6971e-05, 0.000106895, -0.000871638, 0.0278903, 0.0123046, 0.00398201, 0.000106753, 0.000234101, 0.000984709
-0.00895345, 0.00299948, -0.586242, 4.75638e-05, 0.000105994, -0.000867668, 0.0278787, 0.0121894, 0.00395274, 0.000106124, 0.000231726, 0.000977999
-0.00894256, 0.00290394, -0.586268, 4.80301e-05, 0.000104916, -0.000863095, 0.0278666, 0.0120769, 0.00392391, 0.000105499, 0.000229336, 0.000971184
-0.00896758, 0.00283687, -0.586284, 4.89658e-05, 0.000103334, -0.00085679, 0.0278541, 0.0119667, 0.00389538, 0.000104878, 0.000226932, 0.000964271
-0.009004, 0.00278035, -0.586296, 4.99795e-05, 0.000101846, -0.000850842, 0.0278408, 0.011859, 0.00386707, 0.00010426, 0.000224517, 0.00095727
-0.00894172, 0.00270325, -0.58632, 4.95901e-05, 0.000101518, -0.000849261, 0.027827, 0.0117534, 0.00383891, 0.000103644, 0.00022209, 0.000950181
-0.0090059, 0.00270579, -0.586315, 5.06312e-05, 0.00010014, -0.000844108, 0.0278124, 0.0116493, 0.00381064, 0.000103031, 0.00021965, 0.000943009
-0.00902142, 0.00266801, -0.586324, 5.11809e-05, 9.92077e-05, -0.000840367, 0.0277969, 0.0115475, 0.0037824, 0.000102417, 0.000217204, 0.000935765
-0.00910584, 0.00273996, -0.586299, 5.20636e-05, 9.80671e-05, -0.000836629, 0.0277807, 0.0114477, 0.00375397, 0.000101804, 0.000214752, 0.000928449
-0.00911281, 0.00268539, -0.586313, 5.27444e-05, 9.67238e-05, -0.000831239, 0.0277635, 0.0113499, 0.00372526, 0.000101188, 0.000212294, 0.000921062
-0.00909571, 0.00262038, -0.586332, 5.29821e-05, 9.65361e-05, -0.000830008, 0.0277459, 0.0112533, 0.00369626, 0.00010057, 0.000209828, 0.000913603
-0.0090139, 0.00250307, -0.586369, 5.27337e-05, 9.62651e-05, -0.000828137, 0.0277276, 0.0111579, 0.00366682, 9.99486e-05, 0.000207358, 0.000906079
-0.00901644, 0.00243482, -0.586389, 5.36194e-05, 9.51647e-05, -0.000823453, 0.0277085, 0.0110631, 0.00363681, 9.93229e-05, 0.000204884, 0.0008985
-0.0090317, 0.00239725, -0.5864, 5.44758e-05, 9.44043e-05, -0.000820257, 0.0276887, 0.010969, 0.00360628, 9.86918e-05, 0.000202409, 0.00089087
-0.00905009, 0.0023935, -0.586401, 5.49789e-05, 9.41566e-05, -0.000819267, 0.0276688, 0.0108748, 0.0035753, 9.80556e-05, 0.000199932, 0.000883189
-0.00880836, 0.00197591, -0.586538, 5.55404e-05, 9.36156e-05, -0.000813715, 0.0276488, 0.0107804, 0.0035439, 9.74146e-05, 0.000197458, 0.00087547
-0.00891348, 0.0021472, -0.586481, 5.5515e-05, 9.39439e-05, -0.00081641, 0.0276285, 0.0106866, 0.00351218, 9.67684e-05, 0.000194994, 0.000867742
-0.00924703, 0.00258968, -0.586335, 5.70843e-05, 9.32631e-05, -0.000817593, 0.0276081, 0.0105927, 0.00348013, 9.61213e-05, 0.000192539, 0.000860003
-0.00914346, 0.00241563, -0.586394, 5.74169e-05, 9.28901e-05, -0.000814645, 0.0275876, 0.0104992, 0.00344794, 9.54746e-05, 0.000190097, 0.000852263
-0.00914874, 0.00242615, -0.586389, 5.72629e-05, 9.23316e-05, -0.000812658, 0.0275669, 0.0104069, 0.00341581, 9.48291e-05, 0.000187677, 0.000844555
-0.00913919, 0.00242687, -0.586387, 5.62718e-05, 9.33817e-05, -0.000816654, 0.0275459, 0.0103162, 0.00338373, 9.41875e-05, 0.000185282, 0.000836893
-0.00916953, 0.00244957, -0.586382, 5.7658e-05, 9.22943e-05, -0.000812691, 0.0275241, 0.0102276, 0.00335175, 9.35517e-05, 0.000182919, 0.000829307
-0.00956293, 0.00294377, -0.58621, 5.85874e-05, 9.13897e-05, -0.000813866, 0.0275021, 0.0101416, 0.0033203, 9.29228e-05, 0.00018059, 0.000821794
-0.00954386, 0.00286894, -0.58624, 6.09013e-05, 8.94156e-05, -0.000805586, 0.0274802, 0.0100584, 0.00328949, 9.23044e-05, 0.000178292, 0.000814356
-0.00972443, 0.00305137, -0.586175, 6.26342e-05, 8.71475e-05, -0.000798655, 0.0274573, 0.00997952, 0.00325942, 9.1693e-05, 0.000176039, 0.000807024
-0.00984919, 0.00318389, -0.586124, 6.24804e-05, 8.66155e-05, -0.000797931, 0.0274336, 0.00990473, 0.00323004, 9.10908e-05, 0.000173829, 0.000799798
-0.0098772, 0.00319963, -0.586117, 6.27536e-05, 8.60862e-05, -0.000796053, 0.027409, 0.0098339, 0.00320133, 9.04984e-05, 0.000171662, 0.000792691
-0.00985338, 0.00313055, -0.586142, 6.43458e-05, 8.4312e-05, -0.000788506, 0.0273831, 0.00976723, 0.00317328, 8.99145e-05, 0.000169542, 0.000785713
-0.00979577, 0.00301612, -0.586182, 6.61338e-05, 8.20506e-05, -0.000778598, 0.0273562, 0.00970459, 0.00314595, 8.93382e-05, 0.000167467, 0.000778854
-0.00972841, 0.00290286, -0.586223, 6.7626e-05, 8.03884e-05, -0.000770983, 0.027328, 0.0096458, 0.00311934, 8.87684e-05, 0.000165436, 0.000772114
-0.00975943, 0.00292949, -0.586212, 6.76482e-05, 8.0116e-05, -0.000770202, 0.0272982, 0.00959073, 0.00309332, 8.82041e-05, 0.00016345, 0.000765496
-0.00975082, 0.00286026, -0.586236, 6.93628e-05, 7.88352e-05, -0.000764433, 0.0272668, 0.00953908, 0.00306779, 8.76465e-05, 0.00016151, 0.000759011
-0.00980128, 0.00282937, -0.586242, 7.11899e-05, 7.7226e-05, -0.000757755, 0.0272343, 0.00949063, 0.0030429, 8.7093e-05, 0.000159608, 0.000752625
-0.00972539, 0.00272955, -0.586278, 7.20774e-05, 7.64207e-05, -0.000753533, 0.0272004, 0.00944515, 0.00301857, 8.65435e-05, 0.000157742, 0.000746334
-0.00985547, 0.00278109, -0.586252, 7.31515e-05, 7.55689e-05, -0.000750659, 0.0271651, 0.0094024, 0.00299472, 8.59985e-05, 0.000155913, 0.00074015
-0.00980758, 0.00275609, -0.586263, 7.29159e-05, 7.56636e-05, -0.000750792, 0.0271282, 0.00936227, 0.00297125, 8.54575e-05, 0.00015412, 0.000734063
-0.00969661, 0.00266159, -0.586302, 7.32286e-05, 7.5363e-05, -0.000748592, 0.0270893, 0.00932454, 0.00294805, 8.49203e-05, 0.000152364, 0.000728083
-0.00982807, 0.00269765, -0.586278, 7.42532e-05, 7.43458e-05, -0.000744863, 0.0270489, 0.00928902, 0.00292518, 8.43866e-05, 0.000150642, 0.000722197
-0.00993513, 0.00269872, -0.586267, 7.55248e-05, 7.30283e-05, -0.00073954, 0.0270069, 0.00925556, 0.00290261, 8.38559e-05, 0.00014895, 0.00071639
-0.0100799, 0.0027962, -0.586225, 7.53983e-05, 7.33311e-05, -0.000741793, 0.0269631, 0.00922409, 0.00288029, 8.33278e-05, 0.000147287, 0.000710659
-0.0101013, 0.00284634, -0.586208, 7.47352e-05, 7.39157e-05, -0.000744728, 0.0269179, 0.00919442, 0.00285822, 8.2804e-05, 0.000145651, 0.000705008
-0.0102655, 0.00292626, -0.586169, 7.50489e-05, 7.3487e-05, -0.000743823, 0.0268717, 0.00916638, 0.00283643, 8.22853e-05, 0.000144043, 0.000699434
-0.0104039, 0.00302984, -0.586124, 7.46477e-05, 7.36386e-05, -0.000745582, 0.026824, 0.00913997, 0.00281486, 8.17715e-05, 0.00014246, 0.000693932
-0.0104275, 0.00308759, -0.586105, 7.38934e-05, 7.41323e-05, -0.00074828, 0.026775, 0.00911506, 0.00279345, 8.12629e-05, 0.000140903, 0.000688502
-0.0105431, 0.00313805, -0.586079, 7.40451e-05, 7.42493e-05, -0.000749271, 0.026725, 0.00909149, 0.00277225, 8.07601e-05, 0.000139369, 0.000683141
-0.0106671, 0.0032216, -0.586042, 7.37345e-05, 7.43763e-05, -0.000750723, 0.0266738, 0.00906923, 0.00275124, 8.02624e-05, 0.000137858, 0.00067784
-0.0106836, 0.003284, -0.586023, 7.2742e-05, 7.53821e-05, -0.000755631, 0.0266215, 0.00904818, 0.00273037, 7.97703e-05, 0.000136367, 0.000672598
-0.0106476, 0.00328532, -0.586027, 7.23553e-05, 7.59193e-05, -0.000757898, 0.0265682, 0.00902825, 0.00270965, 7.92838e-05, 0.000134897, 0.000667419
-0.0106155, 0.00330142, -0.586026, 7.17313e-05, 7.66537e-05, -0.000761184, 0.0265137, 0.00900941, 0.00268907, 7.88018e-05, 0.000133446, 0.000662291
-0.0105308, 0.00327445, -0.586042, 7.15687e-05, 7.66224e-05, -0.000760797, 0.0264579, 0.00899155, 0.00266859, 7.83243e-05, 0.000132011, 0.000657213
-0.0103479, 0.00314783, -0.586097, 7.25121e-05, 7.55035e-05, -0.000754663, 0.026401, 0.00897459, 0.00264823, 7.7851e-05, 0.000130589, 0.000652175
-0.0101901, 0.00313614, -0.586118, 7.1302e-05, 7.68721e-05, -0.000760461, 0.0263419, 0.00895854, 0.00262786, 7.73792e-05, 0.000129179, 0.000647168
-0.00998198, 0.00305211, -0.586163, 7.10717e-05, 7.74528e-05, -0.00076205, 0.0262802, 0.0089433, 0.00260738, 7.69106e-05, 0.000127781, 0.000642207
-0.0100531, 0.00304425, -0.586158, 7.15933e-05, 7.73532e-05, -0.000761435, 0.0262163, 0.00892871, 0.00258691, 7.64441e-05, 0.000126391, 0.000637276
-0.0101971, 0.00302505, -0.586148, 7.27025e-05, 7.70491e-05, -0.000759688, 0.0261493, 0.00891477, 0.00256634, 7.59786e-05, 0.000125008, 0.000632371
-0.0100059, 0.00297145, -0.586184, 7.20134e-05, 7.8121e-05, -0.000763825, 0.0260788, 0.0089014, 0.00254564, 7.55126e-05, 0.00012363, 0.000627487
-0.0100462, 0.00298535, -0.586175, 7.15121e-05, 7.93989e-05, -0.00076947, 0.0260059, 0.00888835, 0.00252501, 7.50477e-05, 0.000122259, 0.000622639
-0.00934172, 0.00290314, -0.586274, 6.85609e-05, 8.11441e-05, -0.000776938, 0.0259302, 0.00887549, 0.00250437, 7.45837e-05, 0.000120897, 0.000617835
-0.00934157, 0.00287178, -0.586282, 6.88171e-05, 8.13471e-05, -0.000777423, 0.0258507, 0.00886279, 0.00248352, 7.41198e-05, 0.000119551, 0.000613106
-0.00952039, 0.00289367, -0.586256, 6.90016e-05, 8.20405e-05, -0.000780488, 0.0257678, 0.00885028, 0.00246253, 7.36551e-05, 0.000118218, 0.000608429
-0.00997947, 0.00298754, -0.586179, 6.91793e-05, 8.34457e-05, -0.000787198, 0.0256821, 0.00883786, 0.00244152, 7.31906e-05, 0.0001169, 0.000603807
-0.0102543, 0.00303552, -0.586134, 6.94405e-05, 8.40651e-05, -0.000790134, 0.0255931, 0.00882556, 0.00242039, 7.27253e-05, 0.000115595, 0.000599238
-0.0101942, 0.00306497, -0.586132, 6.83163e-05, 8.5297e-05, -0.000796049, 0.025501, 0.00881342, 0.00239918, 7.22598e-05, 0.000114308, 0.000594729
-0.010339, 0.00301264, -0.58613, 6.98426e-05, 8.43529e-05, -0.000790977, 0.0254066, 0.00880138, 0.002378, 7.17959e-05, 0.00011304, 0.000590295
-0.0103437, 0.00297704, -0.586139, 7.00417e-05, 8.4736e-05, -0.000792225, 0.0253098, 0.00878956, 0.00235685, 7.13309e-05, 0.000111788, 0.000585915
-0.0102314, 0.00296351, -0.586154, 6.92309e-05, 8.58639e-05, -0.000797279, 0.0252105, 0.00877794, 0.0023357, 7.08658e-05, 0.000110556, 0.000581602
-0.0101323, 0.0029685, -0.586162, 6.81696e-05, 8.72068e-05, -0.000803525, 0.0251099, 0.00876645, 0.00231469, 7.0402e-05, 0.000109344, 0.000577363
-0.00973982, 0.00293005, -0.586215, 6.66829e-05, 8.83422e-05, -0.000808781, 0.0250083, 0.00875506, 0.00229389, 6.99402e-05, 0.000108152, 0.000573202
-0.0094132, 0.00288747, -0.586262, 6.56114e-05, 8.92205e-05, -0.00081274, 0.0249046, 0.00874379, 0.00227316, 6.94782e-05, 0.000106982, 0.00056912
-0.00913963, 0.00283495, -0.586306, 6.49615e-05, 8.98328e-05, -0.000815304, 0.024799, 0.00873257, 0.00225255, 6.90163e-05, 0.000105832, 0.000565116
-0.00913019, 0.00280636, -0.586313, 6.49213e-05, 9.04091e-05, -0.000817572, 0.0246923, 0.00872135, 0.00223221, 6.85542e-05, 0.0001047, 0.000561182
-0.00878231, 0.00279076, -0.586355, 6.3368e-05, 9.16875e-05, -0.000823772, 0.0245838, 0.00871013, 0.00221207, 6.80919e-05, 0.000103585, 0.000557313
-0.00867941, 0.002771, -0.586371, 6.28755e-05, 9.24277e-05, -0.00082707, 0.0244738, 0.00869888, 0.00219212, 6.76321e-05, 0.000102491, 0.000553528
-0.00839873, 0.00274649, -0.586408, 6.19021e-05, 9.31967e-05, -0.000830754, 0.024363, 0.00868761, 0.00217247, 6.71756e-05, 0.000101416, 0.000549814
-0.00819408, 0.00266016, -0.586453, 6.233e-05, 9.27684e-05, -0.000828104, 0.0242514, 0.00867635, 0.00215304, 6.67247e-05, 0.000100361, 0.000546179
-0.00803851, 0.00261918, -0.586481, 6.22462e-05, 9.28358e-05, -0.000828185, 0.0241377, 0.00866522, 0.00213365, 6.62794e-05, 9.9327e-05, 0.00054262
-0.00787924, 0.00262158, -0.586498, 6.14313e-05, 9.35771e-05, -0.000831868, 0.0240228, 0.00865406, 0.00211443, 6.58409e-05, 9.83134e-05, 0.000539137
-0.00737133, 0.00262216, -0.586555, 5.9985e-05, 9.38099e-05, -0.000833787, 0.0239071, 0.00864279, 0.00209544, 6.54109e-05, 9.73205e-05, 0.000535734
-0.00749041, 0.00267194, -0.586528, 5.93415e-05, 9.48823e-05, -0.000839082, 0.02379, 0.0086315, 0.00207658, 6.49904e-05, 9.63503e-05, 0.00053242
-0.00725392, 0.00268075, -0.586552, 5.85525e-05, 9.51363e-05, -0.000840736, 0.023672, 0.00862023, 0.0020579, 6.45806e-05, 9.5402e-05, 0.000529186
-0.00753989, 0.00274753, -0.586503, 5.83344e-05, 9.58838e-05, -0.000844483, 0.0235527, 0.00860901, 0.00203937, 6.41807e-05, 9.4475e-05, 0.000526031
-0.00720039, 0.00276866, -0.586536, 5.73817e-05, 9.58564e-05, -0.000845128, 0.0234324, 0.00859788, 0.00202099, 6.37916e-05, 9.35689e-05, 0.000522949
-0.00677038, 0.00278926, -0.58658, 5.62441e-05, 9.58775e-05, -0.000846099, 0.0233113, 0.00858684, 0.00200283, 6.34123e-05, 9.26835e-05, 0.000519944
-0.0067333, 0.00285367, -0.586568, 5.53329e-05, 9.65812e-05, -0.000850112, 0.0231897, 0.00857586, 0.0019849, 6.30416e-05, 9.18178e-05, 0.000517013
-0.00634377, 0.00289326, -0.586603, 5.42167e-05, 9.65219e-05, -0.000850859, 0.0230673, 0.00856494, 0.00196714, 6.268e-05, 9.09722e-05, 0.000514153
-0.00608889, 0.00291069, -0.586628, 5.34649e-05, 9.67085e-05, -0.000852278, 0.0229441, 0.00855415, 0.00194953, 6.23269e-05, 9.01463e-05, 0.000511364
-0.00587488, 0.00297308, -0.586637, 5.23141e-05, 9.7221e-05, -0.000855652, 0.0228206, 0.00854353, 0.00193213, 6.19815e-05, 8.93388e-05, 0.000508641
-0.0053936, 0.00300237, -0.586686, 5.1346e-05, 9.67765e-05, -0.000854579, 0.0226971, 0.0085331, 0.00191493, 6.16442e-05, 8.85499e-05, 0.000505985
-0.00541896, 0.00301605, -0.58668, 5.12786e-05, 9.68111e-05, -0.000854858, 0.0225737, 0.00852291, 0.00189794, 6.13137e-05, 8.7778e-05, 0.00050339
-0.00510427, 0.00306095, -0.586705, 5.03532e-05, 9.67686e-05, -0.000855593, 0.0224506, 0.00851293, 0.00188116, 6.0989e-05, 8.70223e-05, 0.000500851
-0.00522875, 0.00309964, -0.586681, 5.02289e-05, 9.68952e-05, -0.000856481, 0.0223273, 0.00850308, 0.00186454, 6.06698e-05, 8.62827e-05, 0.000498371
-0.00491064, 0.00314267, -0.586708, 4.94239e-05, 9.66693e-05, -0.000856332, 0.0222038, 0.00849336, 0.00184807, 6.03556e-05, 8.55583e-05, 0.000495944
-0.00487837, 0.00313712, -0.586714, 4.95657e-05, 9.63448e-05, -0.000854781, 0.0220799, 0.00848369, 0.00183169, 6.00454e-05, 8.48486e-05, 0.000493573
-0.00452713, 0.00316796, -0.586748, 4.87916e-05, 9.61916e-05, -0.000854841, 0.0219551, 0.00847406, 0.00181539, 5.97386e-05, 8.4153e-05, 0.000491252
-0.00419703, 0.00321568, -0.586776, 4.79854e-05, 9.59297e-05, -0.000854563, 0.0218294, 0.00846446, 0.00179911, 5.94357e-05, 8.34712e-05, 0.000488983
-0.00409939, 0.0032265, -0.586785, 4.78232e-05, 9.57552e-05, -0.000853977, 0.0217028, 0.00845491, 0.00178282, 5.91369e-05, 8.28024e-05, 0.000486763
-0.00418585, 0.00323325, -0.586773, 4.79069e-05, 9.57321e-05, -0.000853884, 0.0215755, 0.00844545, 0.00176653, 5.88412e-05, 8.21454e-05, 0.000484586
-0.00388119, 0.00328941, -0.586796, 4.70373e-05, 9.56187e-05, -0.00085436, 0.0214474, 0.00843613, 0.00175018, 5.85492e-05, 8.15003e-05, 0.00048245
-0.00407969, 0.0032443, -0.586783, 4.78435e-05, 9.53501e-05, -0.000852306, 0.0213187, 0.00842691, 0.00173378, 5.82596e-05, 8.08662e-05, 0.000480355
-0.00385593, 0.00328323, -0.586801, 4.71954e-05, 9.53468e-05, -0.000852998, 0.0211897, 0.00841791, 0.00171733, 5.79711e-05, 8.02423e-05, 0.000478293
-0.00378869, 0.00325633, -0.586818, 4.77682e-05, 9.45779e-05, -0.000848938, 0.0210604, 0.00840915, 0.00170078, 5.76841e-05, 7.96289e-05, 0.000476267
-0.00391708, 0.0032573, -0.586801, 4.78375e-05, 9.46578e-05, -0.000849325, 0.0209314, 0.00840068, 0.00168419, 5.73968e-05, 7.90253e-05, 0.000474273
-0.00415833, 0.00325635, -0.586769, 4.77508e-05, 9.53173e-05, -0.00085243, 0.0208023, 0.00839245, 0.0016675, 5.71104e-05, 7.84318e-05, 0.00047231
-0.00353638, 0.00328981, -0.586842, 4.74015e-05, 9.42786e-05, -0.000847978, 0.0206733, 0.00838444, 0.00165071, 5.68252e-05, 7.78487e-05, 0.000470381
-0.00334478, 0.00335182, -0.586848, 4.61391e-05, 9.49218e-05, -0.000852233, 0.0205441, 0.00837661, 0.00163382, 5.65403e-05, 7.72763e-05, 0.000468487
-0.0030895, 0.00337256, -0.586877, 4.59348e-05, 9.45129e-05, -0.000850552, 0.0204153, 0.00836878, 0.00161694, 5.62556e-05, 7.67151e-05, 0.000466633
-0.00232489, 0.00350232, -0.58694, 4.36425e-05, 9.48672e-05, -0.00085449, 0.0202871, 0.00836097, 0.00160015, 5.59694e-05, 7.61644e-05, 0.000464814
-0.0030063, 0.00345874, -0.586861, 4.40769e-05, 9.56703e-05, -0.000857922, 0.0201588, 0.00835309, 0.0015834, 5.56826e-05, 7.56254e-05, 0.000463035
-0.00285043, 0.00348182, -0.586876, 4.3726e-05, 9.57074e-05, -0.000858438, 0.0200301, 0.00834505, 0.00156671, 5.53955e-05, 7.50967e-05, 0.000461286
-0.00282863, 0.00346399, -0.586884, 4.42169e-05, 9.52058e-05, -0.000855612, 0.019901, 0.00833683, 0.00155015, 5.51072e-05, 7.45779e-05, 0.000459566
-0.00297776, 0.00339445, -0.586885, 4.5782e-05, 9.40222e-05, -0.000848541, 0.0197705, 0.00832832, 0.00153369, 5.48185e-05, 7.40683e-05, 0.000457872
-0.00312564, 0.00338431, -0.586868, 4.59233e-05, 9.4032e-05, -0.000848578, 0.0196385, 0.00831944, 0.00151733, 5.45293e-05, 7.35669e-05, 0.000456202
-0.00339243, 0.00336189, -0.586839, 4.61325e-05, 9.42857e-05, -0.00084965, 0.0195055, 0.00831008, 0.00150116, 5.42402e-05, 7.30737e-05, 0.000454561
-0.00366501, 0.0033104, -0.586817, 4.69869e-05, 9.39791e-05, -0.000847381, 0.0193718, 0.0083001, 0.00148519, 5.3951e-05, 7.25875e-05, 0.000452949
-0.00349365, 0.00333554, -0.586833, 4.66498e-05, 9.39641e-05, -0.000847646, 0.0192366, 0.00828946, 0.00146941, 5.36611e-05, 7.21074e-05, 0.000451363
-0.00344694, 0.00334496, -0.586837, 4.65427e-05, 9.39262e-05, -0.000847612, 0.0191004, 0.00827816, 0.00145388, 5.33709e-05, 7.16343e-05, 0.000449809
-0.00369646, 0.00332771, -0.586808, 4.66662e-05, 9.41832e-05, -0.000848807, 0.0189633, 0.00826615, 0.00143859, 5.30801e-05, 7.11668e-05, 0.000448283
-0.00386308, 0.00332028, -0.586788, 4.66652e-05, 9.44297e-05, -0.000850053, 0.0188256, 0.00825344, 0.00142359, 5.27889e-05, 7.07047e-05, 0.000446783
-0.00362137, 0.00334697, -0.586813, 4.65098e-05, 9.40043e-05, -0.000848275, 0.0186876, 0.00824004, 0.0014089, 5.24972e-05, 7.02472e-05, 0.000445309
-0.00348941, 0.00339442, -0.586818, 4.58782e-05, 9.41572e-05, -0.00084987, 0.0185496, 0.00822594, 0.00139457, 5.22042e-05, 6.97943e-05, 0.000443862
-0.00314063, 0.00346633, -0.586845, 4.50472e-05, 9.40868e-05, -0.000850643, 0.018412, 0.00821115, 0.00138061, 5.19101e-05, 6.93463e-05, 0.000442441
-0.0030021, 0.0035067, -0.586852, 4.45464e-05, 9.41775e-05, -0.000851768, 0.0182749, 0.00819568, 0.00136703, 5.16147e-05, 6.89033e-05, 0.000441047
-0.00322088, 0.0034188, -0.586848, 4.59406e-05, 9.32748e-05, -0.000845825, 0.0181388, 0.00817962, 0.00135386, 5.1318e-05, 6.84654e-05, 0.000439678
-0.00332755, 0.00335489, -0.586852, 4.69631e-05, 9.24861e-05, -0.000840835, 0.0180041, 0.00816314, 0.00134112, 5.10202e-05, 6.80311e-05, 0.000438324
-0.00279287, 0.00347173, -0.586891, 4.56425e-05, 9.24063e-05, -0.000842362, 0.0178709, 0.00814632, 0.00132878, 5.07227e-05, 6.76017e-05, 0.000436988
-0.00247994, 0.00356212, -0.586908, 4.45711e-05, 9.26018e-05, -0.000844856, 0.0177403, 0.00812923, 0.00131689, 5.04257e-05, 6.71794e-05, 0.000435681
-0.00212955, 0.00363293, -0.586936, 4.38323e-05, 9.24547e-05, -0.000845293, 0.0176126, 0.0081119, 0.00130546, 5.01302e-05, 6.67644e-05, 0.000434401
-0.00175299, 0.00369922, -0.586969, 4.32563e-05, 9.20064e-05, -0.0008442, 0.0174879, 0.00809438, 0.00129453, 4.98361e-05, 6.63566e-05, 0.000433148
-0.0015283, 0.00373887, -0.586989, 4.29043e-05, 9.17598e-05, -0.000843658, 0.0173664, 0.00807676, 0.00128409, 4.95437e-05, 6.59566e-05, 0.000431922
-0.00131614, 0.00379843, -0.587001, 4.23026e-05, 9.16839e-05, -0.000844336, 0.0172481, 0.00805908, 0.00127415, 4.92538e-05, 6.55646e-05, 0.000430725
-0.000926913, 0.00391208, -0.587022, 4.11084e-05, 9.16764e-05, -0.000846304, 0.0171338, 0.00804148, 0.00126473, 4.89665e-05, 6.51815e-05, 0.000429558
-0.000584806, 0.00398619, -0.587049, 4.05026e-05, 9.11932e-05, -0.000845276, 0.0170234, 0.00802403, 0.00125583, 4.86831e-05, 6.48087e-05, 0.000428426
-0.000278697, 0.00405782, -0.587071, 3.99518e-05, 9.06723e-05, -0.000844042, 0.0169155, 0.00800667, 0.00124729, 4.84043e-05, 6.44452e-05, 0.000427325
0.000178648, 0.00416465, -0.587105, 3.89462e-05, 9.0347e-05, -0.000844355, 0.0168104, 0.00798947, 0.00123909, 4.81307e-05, 6.4091e-05, 0.000426256
0.000628316, 0.0042841, -0.587133, 3.77967e-05, 9.01347e-05, -0.00084545, 0.0167084, 0.00797245, 0.00123128, 4.78619e-05, 6.37469e-05, 0.00042522
0.0010461, 0.00438313, -0.587163, 3.6969e-05, 8.9643e-05, -0.000844838, 0.0166092, 0.00795561, 0.0012238, 4.75987e-05, 6.34126e-05, 0.000424218
0.00137878, 0.0044601, -0.587188, 3.64091e-05, 8.90703e-05, -0.000843461, 0.0165129, 0.00793904, 0.00121665, 4.73407e-05, 6.3088e-05, 0.000423247
0.00177104, 0.00456116, -0.587214, 3.55745e-05, 8.86034e-05, -0.00084303, 0.0164194, 0.00792274, 0.00120982, 4.7088e-05, 6.27726e-05, 0.000422306
0.00203601, 0.00461978, -0.587236, 3.5208e-05, 8.80391e-05, -0.000841375, 0.0163288, 0.00790675, 0.0012033, 4.68408e-05, 6.24664e-05, 0.000421395
0.00238012, 0.00471026, -0.587258, 3.456e-05, 8.74241e-05, -0.000840068, 0.0162409, 0.00789107, 0.00119705, 4.65988e-05, 6.21686e-05, 0.00042051
0.00274675, 0.00481176, -0.58728, 3.37013e-05, 8.70806e-05, -0.000840246, 0.0161555, 0.00787563, 0.00119107, 4.63622e-05, 6.18792e-05, 0.000419652
0.00300651, 0.00486765, -0.587303, 3.34569e-05, 8.63295e-05, -0.000837669, 0.0160725, 0.00786042, 0.00118532, 4.61309e-05, 6.15979e-05, 0.000418819
0.00336141, 0.00497006, -0.587323, 3.26471e-05, 8.59076e-05, -0.000837499, 0.0159914, 0.00784539, 0.00117979, 4.5905e-05, 6.13236e-05, 0.000418008
0.00377788, 0.00508089, -0.58735, 3.1777e-05, 8.5438e-05, -0.000837239, 0.0159122, 0.00783047, 0.00117444, 4.56846e-05, 6.10561e-05, 0.000417218
0.00399383, 0.00514047, -0.587365, 3.14746e-05, 8.48464e-05, -0.000835487, 0.0158351, 0.00781572, 0.00116928, 4.54696e-05, 6.07954e-05, 0.00041645
0.00424966, 0.00519911, -0.587387, 3.12418e-05, 8.40874e-05, -0.000832922, 0.0157601, 0.00780117, 0.00116433, 4.52599e-05, 6.05405e-05, 0.000415697
0.00459399, 0.00527715, -0.587416, 3.08257e-05, 8.33231e-05, -0.000830671, 0.015687, 0.00778681, 0.00115954, 4.50554e-05, 6.02907e-05, 0.00041496
0.00484284, 0.005336, -0.587437, 3.06178e-05, 8.25407e-05, -0.00082799, 0.0156158, 0.00777268, 0.00115495, 4.48557e-05, 6.0046e-05, 0.000414237
0.00506326, 0.00538905, -0.587456, 3.04779e-05, 8.17461e-05, -0.000825142, 0.0155463, 0.00775878, 0.00115051, 4.46612e-05, 5.98058e-05, 0.000413527
0.00523783, 0.00544531, -0.587466, 3.0285e-05, 8.10732e-05, -0.000822922, 0.0154785, 0.0077451, 0.00114623, 4.44715e-05, 5.95696e-05, 0.000412829
0.00535471, 0.00547321, -0.587479, 3.04741e-05, 8.01023e-05, -0.000818771, 0.0154123, 0.00773164, 0.00114209, 4.42866e-05, 5.93375e-05, 0.000412143
0.00531932, 0.00545485, -0.587485, 3.1249e-05, 7.8777e-05, -0.000812094, 0.0153474, 0.00771839, 0.00113808, 4.41065e-05, 5.91086e-05, 0.000411468
0.00548272, 0.00550052, -0.587498, 3.12008e-05, 7.79826e-05, -0.000809095, 0.0152837, 0.00770532, 0.00113417, 4.3931e-05, 5.8882e-05, 0.000410799
0.00563605, 0.00555413, -0.587506, 3.11106e-05, 7.71925e-05, -0.000806231, 0.0152214, 0.00769244, 0.0011304, 4.376e-05, 5.86584e-05, 0.00041014
0.00572721, 0.00558743, -0.587512, 3.12379e-05, 7.63251e-05, -0.000802627, 0.0151603, 0.00767973, 0.00112675, 4.35934e-05, 5.84375e-05, 0.000409489
0.00583469, 0.00562443, -0.587519, 3.13074e-05, 7.55093e-05, -0.000799328, 0.0151003, 0.0076671, 0.00112318, 4.34312e-05, 5.82183e-05, 0.000408843
0.00594193, 0.00566267, -0.587526, 3.13973e-05, 7.46448e-05, -0.000795792, 0.0150411, 0.00765449, 0.00111971, 4.32732e-05, 5.80003e-05, 0.000408202
0.00617539, 0.00573893, -0.587539, 3.10687e-05, 7.39751e-05, -0.000793845, 0.0149826, 0.00764178, 0.00111629, 4.31194e-05, 5.77831e-05, 0.000407562
0.00631159, 0.0057867, -0.587547, 3.10458e-05, 7.32075e-05, -0.000790896, 0.0149244, 0.0076288, 0.0011129, 4.29695e-05, 5.75662e-05, 0.000406925
0.00648107, 0.00585371, -0.587554, 3.08672e-05, 7.25126e-05, -0.000788581, 0.0148662, 0.00761544, 0.00110951, 4.28233e-05, 5.73485e-05, 0.000406285
0.00654321, 0.0058849, -0.587557, 3.10386e-05, 7.1714e-05, -0.000785115, 0.0148078, 0.00760151, 0.0011061, 4.26804e-05, 5.71291e-05, 0.00040564
0.0067687, 0.00595359, -0.587573, 3.09028e-05, 7.08564e-05, -0.000781982, 0.0147486, 0.00758683, 0.00110258, 4.25407e-05, 5.69064e-05, 0.000404986
0.00684623, 0.00598059, -0.587579, 3.11012e-05, 7.00516e-05, -0.000778356, 0.0146882, 0.00757125, 0.00109894, 4.24039e-05, 5.66802e-05, 0.000404323
0.00704675, 0.00603135, -0.587596, 3.10507e-05, 6.93016e-05, -0.000775401, 0.0146265, 0.00755472, 0.00109514, 4.22699e-05, 5.64501e-05, 0.000403649
0.00704351, 0.00605853, -0.587591, 3.12823e-05, 6.86327e-05, -0.000772338, 0.0145633, 0.00753714, 0.00109117, 4.21384e-05, 5.6216e-05, 0.000402966
0.00714132, 0.00609734, -0.587597, 3.13373e-05, 6.80309e-05, -0.000769829, 0.0144982, 0.0075184, 0.00108699, 4.20095e-05, 5.59775e-05, 0.000402271
0.00730588, 0.00616583, -0.587605, 3.12325e-05, 6.73789e-05, -0.000767495, 0.0144315, 0.00749857, 0.0010826, 4.18828e-05, 5.57355e-05, 0.000401567
0.0074195, 0.00623165, -0.587606, 3.10293e-05, 6.70366e-05, -0.000766693, 0.0143632, 0.00747771, 0.001078, 4.17586e-05, 5.54906e-05, 0.000400856
0.0073405, 0.00627155, -0.587589, 3.11138e-05, 6.6716e-05, -0.000765501, 0.0142935, 0.00745582, 0.00107317, 4.16367e-05, 5.52432e-05, 0.000400139
0.00736317, 0.00630226, -0.587587, 3.12836e-05, 6.61464e-05, -0.000762907, 0.0142223, 0.00743291, 0.0010681, 4.15171e-05, 5.49935e-05, 0.000399416
0.00711667, 0.00631688, -0.587556, 3.15438e-05, 6.5989e-05, -0.000762122, 0.0141498, 0.00740917, 0.00106278, 4.13999e-05, 5.47424e-05, 0.000398689
0.00698458, 0.00635293, -0.587535, 3.17622e-05, 6.5565e-05, -0.000760271, 0.0140766, 0.00738467, 0.00105725, 4.1285e-05, 5.44909e-05, 0.000397958
0.00675932, 0.00634556, -0.587512, 3.23102e-05, 6.50196e-05, -0.000757082, 0.0140032, 0.00735969, 0.00105155, 4.11726e-05, 5.42406e-05, 0.00039723
0.00645797, 0.00630465, -0.587489, 3.32523e-05, 6.41467e-05, -0.000751589, 0.0139304, 0.00733453, 0.00104577, 4.10628e-05, 5.39926e-05, 0.000396506
0.00641089, 0.00631746, -0.587484, 3.36726e-05, 6.3415e-05, -0.000747747, 0.013859, 0.00730942, 0.00103998, 4.09554e-05, 5.37476e-05, 0.000395787
0.00629311, 0.00630325, -0.587476, 3.42319e-05, 6.27339e-05, -0.000743751, 0.0137892, 0.00728456, 0.00103424, 4.08505e-05, 5.35069e-05, 0.000395077
0.00615232, 0.0062902, -0.587465, 3.49311e-05, 6.18417e-05, -0.000738597, 0.0137215, 0.00726008, 0.00102858, 4.07481e-05, 5.32708e-05, 0.000394376
0.0058564, 0.00612008, -0.587469, 3.69215e-05, 6.00031e-05, -0.000725994, 0.0136559, 0.0072361, 0.00102302, 4.06482e-05, 5.30393e-05, 0.000393685
0.00554962, 0.00595463, -0.587472, 3.88895e-05, 5.81922e-05, -0.000713615, 0.0135922, 0.00721274, 0.00101754, 4.05509e-05, 5.28115e-05, 0.000393001
0.00545162, 0.00596233, -0.587462, 3.9438e-05, 5.73726e-05, -0.000709165, 0.0135303, 0.00718999, 0.00101213, 4.04562e-05, 5.25873e-05, 0.000392324
0.00528867, 0.0059689, -0.587445, 3.99471e-05, 5.67305e-05, -0.000705642, 0.0134703, 0.0071678, 0.0010068, 4.03639e-05, 5.23683e-05, 0.000391659
0.00516333, 0.00592662, -0.587443, 4.08193e-05, 5.57051e-05, -0.000699353, 0.0134123, 0.00714621, 0.00100157, 4.02741e-05, 5.21543e-05, 0.000391006
0.00501577, 0.00594203, -0.587426, 4.1237e-05, 5.51473e-05, -0.000696424, 0.0133563, 0.00712525, 0.000996451, 4.01865e-05, 5.19452e-05, 0.000390364
0.00507185, 0.00594336, -0.587436, 4.17398e-05, 5.41715e-05, -0.000691058, 0.0133023, 0.00710489, 0.000991443, 4.0101e-05, 5.17413e-05, 0.000389735
0.00506667, 0.00591645, -0.587444, 4.24608e-05, 5.30996e-05, -0.000684761, 0.0132506, 0.00708522, 0.00098657, 4.00177e-05, 5.15425e-05, 0.00038912
0.00500356, 0.00594646, -0.587434, 4.27461e-05, 5.25373e-05, -0.000682031, 0.013201, 0.00706628, 0.000981844, 3.99363e-05, 5.13483e-05, 0.000388516
0.00501664, 0.00598893, -0.58743, 4.28729e-05, 5.20351e-05, -0.000679818, 0.0131537, 0.00704799, 0.00097726, 3.98566e-05, 5.11588e-05, 0.000387923
0.00512079, 0.00603533, -0.587436, 4.30024e-05, 5.13324e-05, -0.000676567, 0.0131085, 0.00703034, 0.00097281, 3.97786e-05, 5.09742e-05, 0.000387343
0.00498294, 0.00603565, -0.587422, 4.34153e-05, 5.08791e-05, -0.000674035, 0.0130655, 0.00701333, 0.000968531, 3.97021e-05, 5.07939e-05, 0.000386776
0.00517989, 0.0060827, -0.587438, 4.34514e-05, 5.0145e-05, -0.000670647, 0.0130244, 0.00699687, 0.000964408, 3.96269e-05, 5.06174e-05, 0.000386218
0.00522223, 0.00612676, -0.587437, 4.3517e-05, 4.96841e-05, -0.000668684, 0.0129854, 0.00698098, 0.000960452, 3.95528e-05, 5.04447e-05, 0.000385672
0.0052057, 0.00608369, -0.587446, 4.42314e-05, 4.87184e-05, -0.000662846, 0.0129483, 0.0069656, 0.000956679, 3.94797e-05, 5.0275e-05, 0.000385135
0.00523118, 0.0060303, -0.587461, 4.49607e-05, 4.76865e-05, -0.000656553, 0.0129127, 0.00695071, 0.00095305, 3.94073e-05, 5.01075e-05, 0.000384603
0.00524248, 0.00608123, -0.587455, 4.50062e-05, 4.72955e-05, -0.000655053, 0.0128786, 0.00693635, 0.000949548, 3.93358e-05, 4.99421e-05, 0.000384078
0.00520503, 0.00610439, -0.587447, 4.51528e-05, 4.7001e-05, -0.000653719, 0.0128461, 0.00692241, 0.0009462, 3.9265e-05, 4.97786e-05, 0.00038356
0.00511732, 0.0060862, -0.587443, 4.57053e-05, 4.6347e-05, -0.000649924, 0.012815, 0.00690886, 0.000942997, 3.91945e-05, 4.96167e-05, 0.000383045
0.00510203, 0.00608642, -0.587442, 4.60437e-05, 4.57899e-05, -0.000646909, 0.0127851, 0.0068957, 0.000939915, 3.91245e-05, 4.94557e-05, 0.000382533
0.00518859, 0.00614397, -0.587443, 4.60194e-05, 4.53044e-05, -0.000644991, 0.0127564, 0.00688287, 0.000936971, 3.90547e-05, 4.92953e-05, 0.000382023
0.00519074, 0.00620056, -0.587433, 4.59868e-05, 4.50916e-05, -0.000644482, 0.0127289, 0.00687027, 0.000934212, 3.89847e-05, 4.9134e-05, 0.000381509
0.0051038, 0.00613902, -0.587437, 4.67929e-05, 4.42152e-05, -0.000639074, 0.0127024, 0.00685785, 0.000931638, 3.89143e-05, 4.89713e-05, 0.000380991
0.00521433, 0.00612486, -0.587453, 4.69529e-05, 4.36056e-05, -0.000635742, 0.0126765, 0.00684562, 0.000929211, 3.88436e-05, 4.88067e-05, 0.000380466
0.00523975, 0.00616251, -0.587449, 4.69833e-05, 4.33388e-05, -0.000634725, 0.0126509, 0.00683351, 0.000926954, 3.87723e-05, 4.86395e-05, 0.000379935
0.00539955, 0.00613675, -0.587473, 4.70481e-05, 4.26211e-05, -0.000630869, 0.0126255, 0.00682139, 0.000924879, 3.87e-05, 4.84691e-05, 0.000379394
0.00553198, 0.00617555, -0.587481, 4.68164e-05, 4.23614e-05, -0.000630032, 0.0126002, 0.00680938, 0.000922943, 3.86278e-05, 4.82978e-05, 0.000378856
0.00559891, 0.00623035, -0.587478, 4.6745e-05, 4.21187e-05, -0.000629316, 0.012575, 0.00679746, 0.000921104, 3.85557e-05, 4.81266e-05, 0.000378324
0.00569017, 0.00624146, -0.587487, 4.67813e-05, 4.16013e-05, -0.000626842, 0.0125497, 0.00678557, 0.000919358, 3.84837e-05, 4.79548e-05, 0.000377794
0.00583878, 0.00628866, -0.587494, 4.65306e-05, 4.12519e-05, -0.000625636, 0.0125241, 0.00677376, 0.000917705, 3.84118e-05, 4.77826e-05, 0.000377268
0.00595899, 0.00632855, -0.5875, 4.63792e-05, 4.08813e-05, -0.000624219, 0.0124986, 0.00676206, 0.000916135, 3.83404e-05, 4.76108e-05, 0.000376748
0.00606427, 0.00636193, -0.587505, 4.6287e-05, 4.04861e-05, -0.000622601, 0.0124728, 0.00675045, 0.000914642, 3.82694e-05, 4.74394e-05, 0.000376233
0.00615175, 0.00634764, -0.587519, 4.62512e-05, 3.99653e-05, -0.000620014, 0.0124468, 0.00673891, 0.000913233, 3.81986e-05, 4.72681e-05, 0.000375722
0.00630046, 0.00641551, -0.587521, 4.60263e-05, 3.96216e-05, -0.000618954, 0.0124203, 0.00672746, 0.000911909, 3.81282e-05, 4.7097e-05, 0.000375216
0.00645235, 0.00642427, -0.587537, 4.56688e-05, 3.91878e-05, -0.000617115, 0.0123934, 0.00671611, 0.000910664, 3.80583e-05, 4.69265e-05, 0.000374715
0.00662161, 0.00644041, -0.587554, 4.52064e-05, 3.87765e-05, -0.000615497, 0.0123661, 0.00670491, 0.000909493, 3.79888e-05, 4.67575e-05, 0.000374223
0.00678628, 0.00648747, -0.587562, 4.49603e-05, 3.82624e-05, -0.00061349, 0.0123384, 0.00669388, 0.000908392, 3.79201e-05, 4.65904e-05, 0.000373741
0.00697691, 0.00653957, -0.587572, 4.4597e-05, 3.77709e-05, -0.000611649, 0.0123103, 0.00668304, 0.000907352, 3.78522e-05, 4.6425e-05, 0.000373269
0.00706058, 0.00650975, -0.587588, 4.44448e-05, 3.70922e-05, -0.000608327, 0.0122818, 0.00667237, 0.000906378, 3.77852e-05, 4.62616e-05, 0.000372805
0.00720882, 0.00652719, -0.587601, 4.41974e-05, 3.6445e-05, -0.000605479, 0.0122528, 0.00666191, 0.000905463, 3.77192e-05, 4.61008e-05, 0.000372352
0.00729496, 0.00650006, -0.587617, 4.3996e-05, 3.57636e-05, -0.000602173, 0.0122237, 0.00665169, 0.000904596, 3.76544e-05, 4.59428e-05, 0.000371912
0.00727662, 0.00644517, -0.587626, 4.42756e-05, 3.49667e-05, -0.000598013, 0.0121948, 0.00664172, 0.000903771, 3.75909e-05, 4.5788e-05, 0.000371484
0.00736114, 0.00643283, -0.587637, 4.42085e-05, 3.4246e-05, -0.000594557, 0.0121661, 0.00663197, 0.000902986, 3.75286e-05, 4.56359e-05, 0.000371065
0.00740478, 0.00639595, -0.58765, 4.41724e-05, 3.3516e-05, -0.000590901, 0.0121378, 0.00662245, 0.000902241, 3.74675e-05, 4.5487e-05, 0.000370657
0.0074354, 0.0063566, -0.587662, 4.42231e-05, 3.2738e-05, -0.000586986, 0.0121102, 0.00661315, 0.000901531, 3.74076e-05, 4.53415e-05, 0.000370261
0.007445, 0.00631083, -0.587672, 4.43588e-05, 3.19339e-05, -0.000582899, 0.0120832, 0.00660402, 0.000900856, 3.73488e-05, 4.5199e-05, 0.000369875
0.00749901, 0.00629192, -0.587681, 4.44588e-05, 3.11272e-05, -0.00057897, 0.0120568, 0.00659503, 0.000900214, 3.72909e-05, 4.50594e-05, 0.000369498
0.00758955, 0.00628432, -0.587692, 4.43915e-05, 3.0352e-05, -0.00057527, 0.012031, 0.0065862, 0.000899605, 3.7234e-05, 4.49226e-05, 0.000369129
0.00761785, 0.00624868, -0.587702, 4.44451e-05, 2.95762e-05, -0.000571384, 0.0120058, 0.0065775, 0.000899028, 3.71782e-05, 4.47885e-05, 0.000368768
0.0076401, 0.00620881, -0.587712, 4.45105e-05, 2.87691e-05, -0.000567318, 0.0119812, 0.0065689, 0.000898479, 3.71233e-05, 4.46569e-05, 0.000368415
0.00765304, 0.00616644, -0.587722, 4.45981e-05, 2.79669e-05, -0.000563256, 0.0119571, 0.00656038, 0.00089796, 3.70693e-05, 4.45275e-05, 0.000368068
0.00769451, 0.00614165, -0.587731, 4.4655e-05, 2.71799e-05, -0.00055937, 0.0119333, 0.00655192, 0.000897469, 3.70161e-05, 4.44004e-05, 0.000367728
0.0077751, 0.00614, -0.587739, 4.46615e-05, 2.64232e-05, -0.000555762, 0.0119099, 0.00654352, 0.000897007, 3.69639e-05, 4.42753e-05, 0.000367393
0.0078713, 0.0061444, -0.587747, 4.46023e-05, 2.56787e-05, -0.000552234, 0.0118868, 0.00653515, 0.000896571, 3.69124e-05, 4.41522e-05, 0.000367064
0.00790982, 0.00611897, -0.587756, 4.4572e-05, 2.4962e-05, -0.000548647, 0.0118639, 0.00652677, 0.00089616, 3.68617e-05, 4.40309e-05, 0.000366739
0.0078554, 0.00604933, -0.587765, 4.47504e-05, 2.41718e-05, -0.000544462, 0.0118413, 0.00651839, 0.000895774, 3.68117e-05, 4.39114e-05, 0.00036642
0.00795285, 0.00605698, -0.587772, 4.4678e-05, 2.34409e-05, -0.000540987, 0.0118189, 0.00650997, 0.000895409, 3.67625e-05, 4.37934e-05, 0.000366104
0.00798328, 0.0060364, -0.587779, 4.47738e-05, 2.26997e-05, -0.000537312, 0.0117966, 0.00650149, 0.000895063, 3.67139e-05, 4.36769e-05, 0.000365792
0.00797832, 0.00599932, -0.587786, 4.49577e-05, 2.19259e-05, -0.00053339, 0.0117746, 0.00649292, 0.000894736, 3.66661e-05, 4.35616e-05, 0.000365482
0.00800372, 0.00597633, -0.587792, 4.51053e-05, 2.11212e-05, -0.00052938, 0.0117529, 0.00648424, 0.000894422, 3.66188e-05, 4.34471e-05, 0.000365173
0.0079917, 0.00593222, -0.5878, 4.51975e-05, 2.0391e-05, -0.000525552, 0.0117318, 0.0064754, 0.000894114, 3.65722e-05, 4.33332e-05, 0.000364864
0.00799125, 0.00589853, -0.587806, 4.5393e-05, 1.96165e-05, -0.00052159, 0.0117113, 0.0064664, 0.000893812, 3.65261e-05, 4.32199e-05, 0.000364554
0.00799862, 0.00586684, -0.587813, 4.54705e-05, 1.89043e-05, -0.000517875, 0.0116915, 0.0064572, 0.000893515, 3.64805e-05, 4.31067e-05, 0.000364243
0.00797454, 0.00582337, -0.587819, 4.56405e-05, 1.82461e-05, -0.000514362, 0.0116722, 0.00644778, 0.00089322, 3.64353e-05, 4.29937e-05, 0.000363929
0.00796781, 0.00578428, -0.587827, 4.5697e-05, 1.7569e-05, -0.000510706, 0.0116536, 0.00643811, 0.000892928, 3.63905e-05, 4.28809e-05, 0.000363614
0.00803284, 0.00578644, -0.587834, 4.54695e-05, 1.70255e-05, -0.000507845, 0.0116356, 0.00642818, 0.000892637, 3.63462e-05, 4.27682e-05, 0.000363296
0.0080349, 0.00575846, -0.58784, 4.56212e-05, 1.63567e-05, -0.000504302, 0.0116181, 0.00641793, 0.000892344, 3.63023e-05, 4.26556e-05, 0.000362976
0.00806307, 0.00574636, -0.587846, 4.56448e-05, 1.57344e-05, -0.000501023, 0.0116012, 0.00640735, 0.000892044, 3.62587e-05, 4.2543e-05, 0.000362653
0.00812107, 0.00575641, -0.587851, 4.55545e-05, 1.52088e-05, -0.000498308, 0.0115848, 0.00639641, 0.000891745, 3.62155e-05, 4.24304e-05, 0.000362328
0.00819618, 0.00578308, -0.587854, 4.5523e-05, 1.46869e-05, -0.000495748, 0.0115688, 0.00638512, 0.000891441, 3.61726e-05, 4.23179e-05, 0.000362
0.00827819, 0.0058169, -0.587857, 4.53895e-05, 1.42244e-05, -0.000493468, 0.0115534, 0.00637346, 0.000891126, 3.61299e-05, 4.22054e-05, 0.000361669
0.00837428, 0.00586641, -0.587859, 4.52642e-05, 1.38148e-05, -0.000491564, 0.0115387, 0.00636143, 0.000890795, 3.60876e-05, 4.2093e-05, 0.000361335
0.00843581, 0.00589414, -0.587861, 4.53586e-05, 1.3314e-05, -0.000489158, 0.0115246, 0.00634903, 0.000890446, 3.60457e-05, 4.19807e-05, 0.000360998
0.00852161, 0.00594506, -0.587861, 4.53874e-05, 1.28717e-05, -0.000487186, 0.0115113, 0.00633627, 0.000890078, 3.60041e-05, 4.18688e-05, 0.000360658
0.00858378, 0.00597811, -0.587862, 4.55541e-05, 1.23285e-05, -0.00048463, 0.0114986, 0.00632316, 0.000889689, 3.59629e-05, 4.17573e-05, 0.000360316
0.00862001, 0.00599146, -0.587864, 4.57675e-05, 1.17624e-05, -0.000481826, 0.0114866, 0.00630976, 0.000889281, 3.59223e-05, 4.16465e-05, 0.000359972
0.0087526, 0.00609305, -0.58786, 4.56854e-05, 1.14042e-05, -0.000480575, 0.0114752, 0.00629614, 0.00088886, 3.58821e-05, 4.15365e-05, 0.000359627
0.0088176, 0.00613762, -0.58786, 4.57221e-05, 1.09993e-05, -0.000478705, 0.0114642, 0.00628239, 0.000888435, 3.58425e-05, 4.14275e-05, 0.000359281
0.00891201, 0.00621308, -0.587857, 4.57219e-05, 1.07129e-05, -0.000477702, 0.0114537, 0.00626858, 0.000888007, 3.58035e-05, 4.13195e-05, 0.000358933
0.00900273, 0.00628586, -0.587854, 4.57171e-05, 1.03694e-05, -0.000476335, 0.0114435, 0.00625473, 0.000887574, 3.57651e-05, 4.12126e-05, 0.000358585
0.00899567, 0.00626685, -0.587858, 4.58259e-05, 9.89736e-06, -0.000473555, 0.0114337, 0.0062409, 0.000887147, 3.57273e-05, 4.1107e-05, 0.000358236
0.00903351, 0.00629175, -0.587859, 4.59357e-05, 9.51573e-06, -0.000471674, 0.011424, 0.0062271, 0.000886729, 3.56903e-05, 4.10028e-05, 0.000357889
0.0090494, 0.00629634, -0.587861, 4.59459e-05, 9.0845e-06, -0.00046914, 0.0114146, 0.00621338, 0.000886318, 3.56539e-05, 4.09001e-05, 0.000357543
0.00907077, 0.0063063, -0.587864, 4.5937e-05, 8.64091e-06, -0.000466513, 0.0114055, 0.00619976, 0.000885915, 3.56184e-05, 4.07991e-05, 0.000357199
0.00909831, 0.00632194, -0.587864, 4.61662e-05, 8.1834e-06, -0.000464278, 0.0113966, 0.00618626, 0.00088552, 3.55836e-05, 4.07e-05, 0.000356859
0.00914041, 0.00635504, -0.587864, 4.61828e-05, 7.80833e-06, -0.000462298, 0.0113879, 0.00617289, 0.000885138, 3.55494e-05, 4.06024e-05, 0.000356521
0.00914024, 0.00634711, -0.587866, 4.63964e-05, 7.38031e-06, -0.000459994, 0.0113793, 0.00615967, 0.000884772, 3.5516e-05, 4.05065e-05, 0.000356185
0.00915755, 0.00635628, -0.587867, 4.66574e-05, 7.02046e-06, -0.000458404, 0.0113709, 0.00614664, 0.000884417, 3.54832e-05, 4.04122e-05, 0.000355852
0.0090896, 0.00628599, -0.587872, 4.70478e-05, 6.55678e-06, -0.000455691, 0.0113625, 0.00613378, 0.000884078, 3.5451e-05, 4.03193e-05, 0.000355521
0.00902694, 0.00621734, -0.587877, 4.76169e-05, 5.99395e-06, -0.000452828, 0.0113542, 0.00612108, 0.000883757, 3.54194e-05, 4.02277e-05, 0.000355192
0.00896333, 0.00615632, -0.587883, 4.77681e-05, 5.55887e-06, -0.000449773, 0.011346, 0.00610856, 0.000883449, 3.53883e-05, 4.01372e-05, 0.000354863
0.00894059, 0.00612798, -0.587885, 4.80571e-05, 5.11536e-06, -0.000447372, 0.0113379, 0.00609625, 0.000883154, 3.53578e-05, 4.00482e-05, 0.000354538
0.00883042, 0.00602315, -0.587893, 4.83768e-05, 4.6303e-06, -0.000443985, 0.0113298, 0.00608411, 0.000882878, 3.53278e-05, 3.99603e-05, 0.000354213
0.00873929, 0.00593796, -0.587899, 4.861e-05, 4.2123e-06, -0.000440988, 0.0113215, 0.00607211, 0.000882621, 3.52983e-05, 3.98733e-05, 0.000353889
0.00867584, 0.00587652, -0.587904, 4.88747e-05, 3.78379e-06, -0.000438287, 0.011313, 0.00606023, 0.000882388, 3.52691e-05, 3.97871e-05, 0.000353566
0.00859316, 0.00579814, -0.587909, 4.91975e-05, 3.31759e-06, -0.000435353, 0.0113042, 0.00604847, 0.000882173, 3.52403e-05, 3.97013e-05, 0.000353242
0.00859608, 0.00579793, -0.58791, 4.92493e-05, 3.05329e-06, -0.000433716, 0.0112953, 0.00603682, 0.000881976, 3.52118e-05, 3.96159e-05, 0.000352917
0.00861516, 0.00580798, -0.58791, 4.93819e-05, 2.86189e-06, -0.000432998, 0.011286, 0.00602526, 0.000881796, 3.51835e-05, 3.95308e-05, 0.000352591
0.0085492, 0.00574982, -0.587914, 4.95415e-05, 2.48236e-06, -0.000430302, 0.0112765, 0.00601379, 0.000881629, 3.51555e-05, 3.94459e-05, 0.000352263
0.00860461, 0.00579197, -0.587913, 4.95111e-05, 2.3025e-06, -0.000429398, 0.0112668, 0.00600241, 0.000881475, 3.51278e-05, 3.9361e-05, 0.000351932
0.00855598, 0.00574572, -0.587916, 4.97282e-05, 1.98318e-06, -0.000427497, 0.0112568, 0.00599111, 0.000881333, 3.51003e-05, 3.92761e-05, 0.000351599
0.00849236, 0.00569067, -0.587919, 4.98867e-05, 1.66832e-06, -0.000425286, 0.0112465, 0.00597987, 0.000881199, 3.50729e-05, 3.91909e-05, 0.000351261
0.00849816, 0.00568846, -0.58792, 5.0001e-05, 1.44424e-06, -0.000424151, 0.011236, 0.00596869, 0.000881073, 3.50457e-05, 3.91055e-05, 0.00035092
0.00840262, 0.00561798, -0.587923, 4.99935e-05, 1.14029e-06, -0.000421105, 0.0112251, 0.00595755, 0.000880955, 3.50185e-05, 3.90195e-05, 0.000350574
0.00835557, 0.00558206, -0.587925, 5.0032e-05, 9.24321e-07, -0.000419308, 0.0112136, 0.00594637, 0.000880845, 3.49914e-05, 3.89327e-05, 0.000350223
0.00827368, 0.00552161, -0.587927, 5.0088e-05, 6.92841e-07, -0.000417191, 0.0112014, 0.00593513, 0.00088074, 3.49643e-05, 3.88449e-05, 0.000349866
0.00815819, 0.00543198, -0.587931, 5.02805e-05, 3.61847e-07, -0.000414653, 0.0111888, 0.00592389, 0.000880639, 3.49371e-05, 3.87565e-05, 0.000349504
0.00824365, 0.00549138, -0.587929, 5.01715e-05, 3.15846e-07, -0.000414487, 0.0111754, 0.00591254, 0.000880539, 3.49098e-05, 3.86666e-05, 0.000349134
0.0081919, 0.00546033, -0.58793, 5.00999e-05, 1.9917e-07, -0.000412951, 0.0111612, 0.00590109, 0.000880439, 3.48824e-05, 3.85756e-05, 0.000348758
0.00811284, 0.00540647, -0.587931, 5.01209e-05, -3.19279e-08, -0.000410773, 0.0111465, 0.00588962, 0.000880338, 3.4855e-05, 3.84838e-05, 0.000348377
0.00813031, 0.0054202, -0.587931, 5.00249e-05, -1.37553e-07, -0.000409699, 0.011131, 0.00587804, 0.000880235, 3.48274e-05, 3.83908e-05, 0.00034799
0.00809432, 0.00539141, -0.587932, 5.01384e-05, -2.47089e-07, -0.000409143, 0.0111142, 0.00586623, 0.000880123, 3.47995e-05, 3.82961e-05, 0.000347595
0.00812798, 0.00541678, -0.587931, 5.00049e-05, -2.77292e-07, -0.000408546, 0.0110964, 0.00585426, 0.000880002, 3.47715e-05, 3.81997e-05, 0.000347192
0.00812378, 0.00542446, -0.58793, 4.97966e-05, -3.47772e-07, -0.00040711, 0.0110777, 0.00584218, 0.000879876, 3.47434e-05, 3.81024e-05, 0.000346783
0.00821045, 0.00549468, -0.587928, 4.94283e-05, -3.06383e-07, -0.000406353, 0.0110582, 0.00582999, 0.000879741, 3.47153e-05, 3.80039e-05, 0.000346369
0.00816905, 0.00547926, -0.587927, 4.92583e-05, -4.48192e-07, -0.000404352, 0.0110371, 0.00581759, 0.00087959, 3.46871e-05, 3.7904e-05, 0.000345948
0.00809795, 0.00544504, -0.587926, 4.91481e-05, -5.8206e-07, -0.000402509, 0.0110152, 0.00580512, 0.00087943, 3.4659e-05, 3.7803e-05, 0.000345522
0.00797382, 0.00537709, -0.587926, 4.91234e-05, -7.65642e-07, -0.000400388, 0.0109925, 0.0057926, 0.000879262, 3.4631e-05, 3.77013e-05, 0.000345092
0.00795303, 0.00536821, -0.587925, 4.90919e-05, -7.90916e-07, -0.000399971, 0.0109687, 0.00577994, 0.000879077, 3.4603e-05, 3.75984e-05, 0.000344656
0.00796454, 0.00538999, -0.587923, 4.87296e-05, -9.18681e-07, -0.000397454, 0.0109438, 0.00576715, 0.000878877, 3.45749e-05, 3.74944e-05, 0.000344214
0.00795425, 0.00539371, -0.587922, 4.85474e-05, -9.92485e-07, -0.000396044, 0.0109183, 0.00575435, 0.000878671, 3.45471e-05, 3.73903e-05, 0.000343771
0.00788088, 0.00536124, -0.587921, 4.84087e-05, -1.13141e-06, -0.000394026, 0.0108924, 0.00574154, 0.000878457, 3.45195e-05, 3.72859e-05, 0.000343326
