-0.0139203, -0.00744531, -0.589806, -0.000360391, 0.00139733, 0.000819097, 0.0316228, 0.0316228, 0.0316228, 0.0316228, 0.0316228, 0.0316228
-0.0139203, -0.00744531, -0.589806, -0.000360391, 0.00139733, 0.000819097, 0.0316235, 0.0316235, 0.0316235, 0.0316228, 0.0316228, 0.0316228
-0.013923, -0.00728065, -0.589843, -8.18066e-05, 0.00139642, 0.000821073, 0.0316007, 0.0316005, 0.0315968, 0.031555, 0.0315554, 0.0316217
-0.0139465, -0.00724178, -0.589931, -4.91474e-06, 0.00143898, 0.000813461, 0.0315823, 0.0315808, 0.0315677, 0.031481, 0.0314861, 0.0316207
-0.0139697, -0.00717141, -0.590048, 0.000154739, 0.00149338, 0.000814156, 0.0315676, 0.031564, 0.0315365, 0.0313972, 0.0314114, 0.0316197
-0.0139833, -0.0072328, -0.590203, -2.21104e-06, 0.00152981, 0.000806843, 0.0315538, 0.0315498, 0.0314977, 0.0313017, 0.0313177, 0.0316187
-0.0139617, -0.00732206, -0.590203, -0.000274624, 0.00146144, 0.000800559, 0.0315411, 0.0315382, 0.0314486, 0.0311922, 0.0312014, 0.0316177
-0.0139541, -0.00731153, -0.590339, -0.000237667, 0.00143372, 0.000806941, 0.0315305, 0.0315288, 0.0313872, 0.0310642, 0.0310658, 0.0316167
-0.0139443, -0.00722287, -0.590397, 0.000140234, 0.00139518, 0.0008112, 0.031522, 0.0315209, 0.0313103, 0.0309167, 0.0309158, 0.0316157
-0.0139443, -0.00722287, -0.590397, 0.000140234, 0.00139518, 0.0008112, 0.0315221, 0.031521, 0.0313104, 0.0309167, 0.0309158, 0.0316157
-0.0138965, -0.0072496, -0.589935, -3.84023e-05, 0.0011617, 0.000797944, 0.031514, 0.0315135, 0.0311811, 0.0306462, 0.0306447, 0.0316116
-0.0138965, -0.0072496, -0.589935, -3.84023e-05, 0.0011617, 0.000797944, 0.0315141, 0.0315136, 0.0311812, 0.0306463, 0.0306447, 0.0316116
-0.013883, -0.00717146, -0.590058, 0.000607804, 0.00109647, 0.000808328, 0.0315082, 0.0315084, 0.0310006, 0.0302805, 0.0302798, 0.0316074
-0.0138586, -0.00720617, -0.589626, 0.00021151, 0.00095851, 0.000809959, 0.031505, 0.0315057, 0.0308224, 0.0299768, 0.029982, 0.031606
-0.0138586, -0.00720617, -0.589626, 0.00021151, 0.00095851, 0.000809959, 0.031505, 0.0315058, 0.0308225, 0.0299768, 0.029982, 0.031606
-0.0138586, -0.00720617, -0.589626, 0.00021151, 0.00095851, 0.000809959, 0.0315051, 0.0315059, 0.0308225, 0.0299768, 0.029982, 0.031606
-0.0138586, -0.00720617, -0.589626, 0.00021151, 0.00095851, 0.000809959, 0.0315052, 0.031506, 0.0308226, 0.0299768, 0.029982, 0.031606
-0.0138041, -0.00723999, -0.588441, -0.000738323, 0.000607725, 0.000826079, 0.0315027, 0.031504, 0.0304643, 0.0290362, 0.0290895, 0.0315892
-0.0137888, -0.00722828, -0.587992, -0.000482287, 0.000565066, 0.00083391, 0.0315016, 0.0315034, 0.0301272, 0.0284544, 0.0285337, 0.0315882
-0.0137649, -0.00722984, -0.587318, -0.000707192, 0.000429344, 0.000830048, 0.031501, 0.0315032, 0.0298027, 0.0279812, 0.0280763, 0.0315872
-0.0137562, -0.00722559, -0.587012, -0.000573554, 0.000406151, 0.000836134, 0.0315007, 0.0315031, 0.029485, 0.0275312, 0.0276271, 0.0315861
-0.0137473, -0.00722514, -0.586714, -0.000769796, 0.000387565, 0.000831618, 0.0315005, 0.0315032, 0.0291732, 0.0270633, 0.0271473, 0.0315849
-0.0137507, -0.0072274, -0.586857, -0.00112247, 0.000472696, 0.000829098, 0.0315004, 0.0315032, 0.0288858, 0.0265351, 0.0266205, 0.0315837
-0.0137367, -0.00722466, -0.58633, -0.00179036, 0.000251794, 0.000840763, 0.0315003, 0.0315033, 0.028621, 0.0259188, 0.0260225, 0.0315823
-0.013731, -0.00722419, -0.586115, -0.00182953, 0.000248255, 0.000846532, 0.0315003, 0.0315034, 0.0283638, 0.0252229, 0.0253352, 0.0315812
-0.0137339, -0.00722352, -0.586264, -0.00209043, 0.00028402, 0.000844281, 0.0315002, 0.0315035, 0.0281186, 0.0244624, 0.0245735, 0.0315801
-0.0137318, -0.00722244, -0.586178, -0.00239243, 0.000347656, 0.000845999, 0.0315002, 0.0315035, 0.0278852, 0.0236548, 0.0237634, 0.0315788
-0.0137344, -0.00722248, -0.586357, -0.00227961, 0.000436491, 0.000847466, 0.0315002, 0.0315036, 0.0276373, 0.0228245, 0.0229118, 0.0315776
-0.0137367, -0.00722082, -0.586526, -0.00260988, 0.000422955, 0.000852217, 0.0315002, 0.0315037, 0.0273694, 0.0219877, 0.0220394, 0.031576
-0.0137366, -0.0072196, -0.586595, -0.00278713, 0.000517311, 0.000856459, 0.0315002, 0.0315037, 0.0270948, 0.0211794, 0.0211978, 0.0315743
-0.013736, -0.00722383, -0.586547, -0.00228724, 0.000584639, 0.000845779, 0.0315001, 0.0315038, 0.0268157, 0.0204248, 0.0203957, 0.0315726
-0.0137347, -0.00722841, -0.586234, -0.00200774, 0.000474864, 0.000833269, 0.0315, 0.0315038, 0.0265612, 0.0197424, 0.0196432, 0.0315709
-0.0137333, -0.00722642, -0.586123, -0.00217398, 0.000480316, 0.00083644, 0.0314999, 0.0315037, 0.0263418, 0.0191297, 0.0189301, 0.0315689
-0.013732, -0.00724291, -0.585859, -0.00160038, 0.000462316, 0.000817115, 0.0314997, 0.0315036, 0.0261729, 0.0185926, 0.0182628, 0.0315669
-0.0137337, -0.00725788, -0.58571, -0.00121922, 0.000416265, 0.000789537, 0.0314994, 0.0315034, 0.0260693, 0.0181324, 0.0176031, 0.0315634
-0.0137308, -0.00728753, -0.585436, -0.000763268, 0.000542521, 0.000765873, 0.0314988, 0.031503, 0.0260246, 0.0177608, 0.0169435, 0.0315583
-0.013735, -0.00730642, -0.585456, -0.000462619, 0.000505258, 0.000727344, 0.031498, 0.0315025, 0.0260136, 0.0174745, 0.0162475, 0.031543
-0.0137361, -0.00731223, -0.585471, -0.000384847, 0.000507333, 0.000718701, 0.031497, 0.0315019, 0.0260058, 0.0172645, 0.0155525, 0.0315313
-0.0137389, -0.00731975, -0.585517, -0.000314595, 0.000499883, 0.000712254, 0.0314959, 0.0315014, 0.0259867, 0.0171074, 0.0148767, 0.0315239
-0.0137457, -0.00733361, -0.585634, -0.00020015, 0.00047238, 0.000703698, 0.0314947, 0.0315009, 0.025955, 0.0169822, 0.0142166, 0.0315182
-0.0137432, -0.00732667, -0.585574, -0.000256757, 0.00047493, 0.000704, 0.0314934, 0.0315003, 0.0259137, 0.0168682, 0.0135642, 0.0315122
-0.0137463, -0.0073297, -0.585619, -0.000243149, 0.000461006, 0.00070247, 0.0314921, 0.0314996, 0.0258622, 0.016752, 0.012948, 0.0315095
-0.0137341, -0.00731588, -0.585402, -0.000280241, 0.000456679, 0.000719844, 0.0314909, 0.0314989, 0.0258045, 0.0166258, 0.0123527, 0.0315071
-0.013745, -0.00731686, -0.585466, -0.000312542, 0.000391889, 0.000700979, 0.0314897, 0.031498, 0.0257424, 0.0164759, 0.0118277, 0.031505
-0.0137526, -0.00732932, -0.585543, -0.000217723, 0.000330997, 0.000711993, 0.0314886, 0.031497, 0.0256752, 0.0162972, 0.0113161, 0.0315036
-0.0137559, -0.00733747, -0.585587, -0.000185272, 0.00033523, 0.000705301, 0.0314875, 0.0314957, 0.0256105, 0.0160918, 0.0108356, 0.0315015
-0.0137444, -0.00730606, -0.585444, -0.000414965, 0.000378985, 0.000698283, 0.0314864, 0.0314942, 0.0255551, 0.015865, 0.0103789, 0.0314986
-0.013742, -0.00730778, -0.585495, -0.000327781, 0.000394826, 0.000724478, 0.0314855, 0.0314922, 0.0255123, 0.0155939, 0.00996196, 0.031496
-0.0137268, -0.00723984, -0.58538, -0.000713036, 0.000421637, 0.000725719, 0.0314847, 0.0314898, 0.0254829, 0.0152628, 0.00958265, 0.0314917
-0.0137217, -0.00723477, -0.585383, -0.000747065, 0.000476461, 0.000727352, 0.0314839, 0.0314865, 0.0254655, 0.014829, 0.00925141, 0.0314861
-0.0137228, -0.00723494, -0.585371, -0.000782174, 0.000469422, 0.000717482, 0.0314833, 0.0314825, 0.0254553, 0.0142883, 0.00894578, 0.0314782
-0.0137287, -0.00735499, -0.585472, 0.00057229, 0.000463053, 0.000885276, 0.0314827, 0.0314774, 0.0254465, 0.0136396, 0.00866254, 0.0314658
-0.013744, -0.00743062, -0.585302, 0.000449771, 0.000447029, 0.000805505, 0.0314823, 0.0314723, 0.0254342, 0.0129769, 0.00840739, 0.0314399
-0.0137575, -0.0075667, -0.585079, 0.00080839, 0.000454785, 0.000807413, 0.0314818, 0.031466, 0.0254138, 0.0122416, 0.00815466, 0.0313991
-0.0137452, -0.00749921, -0.585235, 0.00105378, 0.000488296, 0.000887055, 0.0314814, 0.031459, 0.025382, 0.0114822, 0.00790923, 0.0313337
-0.0137407, -0.00745303, -0.585329, 0.000761158, 0.000514008, 0.000890969, 0.0314811, 0.0314505, 0.0253362, 0.0107114, 0.00769518, 0.0312566
-0.0137338, -0.00727455, -0.585747, -0.000551067, 0.000518393, 0.000753911, 0.0314806, 0.0314393, 0.025274, 0.00992659, 0.00749665, 0.0311658
-0.0137338, -0.00727455, -0.585747, -0.000551067, 0.000518393, 0.000753911, 0.0314807, 0.0314394, 0.0252741, 0.0099266, 0.00749666, 0.0311658
-0.0136999, -0.00683728, -0.586763, -0.00191836, 0.00053463, 0.000687523, 0.0314797, 0.0314126, 0.0251289, 0.00879999, 0.00724837, 0.0310034
-0.0137092, -0.00704271, -0.586234, -0.00103305, 0.000554877, 0.000808432, 0.0314786, 0.0313785, 0.0249685, 0.00790187, 0.00704463, 0.0308497
-0.0136684, -0.00668075, -0.586904, -0.00124019, 0.000577675, 0.000901423, 0.0314777, 0.0313421, 0.0248027, 0.00724929, 0.00687137, 0.0306604
-0.0136426, -0.00638825, -0.587472, -0.00150093, 0.000550588, 0.000836989, 0.0314767, 0.0312987, 0.0246202, 0.00673895, 0.00672884, 0.0304451
-0.0136439, -0.00631596, -0.58773, -0.00186969, 0.000523729, 0.000705628, 0.0314756, 0.031247, 0.0244088, 0.00632874, 0.00660886, 0.0301985
-0.0135791, -0.00574737, -0.588677, -0.00196868, 0.000561702, 0.000888199, 0.0314745, 0.0311856, 0.0241593, 0.00598245, 0.00650365, 0.0299237
-0.0135893, -0.00589134, -0.58818, -0.00154851, 0.00054327, 0.000856651, 0.0314734, 0.0311147, 0.0238452, 0.00572892, 0.00642328, 0.0295873
-0.013611, -0.00606073, -0.587824, -0.00148996, 0.000503745, 0.000650964, 0.0314722, 0.0310308, 0.0234297, 0.00553317, 0.00635629, 0.0291872
-0.0135915, -0.00588942, -0.588117, -0.00144693, 0.000514271, 0.00070304, 0.0314709, 0.0309336, 0.0229012, 0.00537568, 0.00629899, 0.0287406
-0.0135915, -0.00588942, -0.588117, -0.00144693, 0.000514271, 0.00070304, 0.031471, 0.0309337, 0.0229013, 0.00537569, 0.006299, 0.0287407
-0.0135054, -0.00509568, -0.589554, -0.00125856, 0.000548756, 0.000906864, 0.0314694, 0.0307923, 0.0219306, 0.00524, 0.00623191, 0.0279659
-0.0135054, -0.00509568, -0.589554, -0.00125856, 0.000548756, 0.000906864, 0.0314695, 0.0307924, 0.0219307, 0.00524001, 0.00623192, 0.0279659
-0.0134047, -0.0041883, -0.591794, -0.00121172, 0.000647499, 0.000999539, 0.0314675, 0.030625, 0.0204084, 0.00516814, 0.00615621, 0.0267969
-0.013388, -0.00406761, -0.592047, -0.00118641, 0.000676616, 0.000984296, 0.031466, 0.0304965, 0.0190134, 0.00514985, 0.00612927, 0.025732
-0.0133754, -0.00396597, -0.592364, -0.00118686, 0.000698574, 0.000949522, 0.0314649, 0.0303975, 0.0177624, 0.00514045, 0.00610202, 0.024784
-0.0133507, -0.0037324, -0.593016, -0.00117865, 0.000710816, 0.000932192, 0.0314641, 0.0303249, 0.0166792, 0.00513636, 0.00607299, 0.0239206
-0.0133662, -0.00393322, -0.592519, -0.001178, 0.000752203, 0.000804535, 0.0314637, 0.0302747, 0.015767, 0.0051344, 0.00604022, 0.0230947
-0.0133706, -0.00398679, -0.592375, -0.00117593, 0.000760558, 0.000768611, 0.0314634, 0.0302416, 0.0150265, 0.0051314, 0.00600689, 0.0223512
-0.0133784, -0.00410059, -0.591947, -0.00116041, 0.000767422, 0.000804951, 0.0314633, 0.0302212, 0.0144397, 0.00512809, 0.0059725, 0.0216514
-0.0133726, -0.00404192, -0.592245, -0.00117623, 0.000793027, 0.000746962, 0.0314633, 0.0302091, 0.0139802, 0.00512421, 0.00593802, 0.0209893
-0.0133755, -0.00412243, -0.591927, -0.00117359, 0.00082861, 0.000709694, 0.0314632, 0.0302016, 0.0136254, 0.00512087, 0.0059019, 0.0203407
-0.0133775, -0.00415665, -0.591782, -0.0011763, 0.000834555, 0.000797834, 0.0314632, 0.0301959, 0.0133521, 0.00511424, 0.00586816, 0.0197293
-0.0133745, -0.0041386, -0.591894, -0.00121221, 0.000874662, 0.000827117, 0.0314632, 0.0301917, 0.0131399, 0.00510361, 0.00583562, 0.0191384
-0.0133741, -0.00414574, -0.591859, -0.00124326, 0.000909719, 0.000741459, 0.0314633, 0.0301885, 0.0129762, 0.00508857, 0.00580416, 0.0185641
-0.0133717, -0.0041309, -0.591942, -0.00122767, 0.0009152, 0.000631564, 0.0314633, 0.0301863, 0.0128479, 0.00506464, 0.00577616, 0.0180127
-0.0133726, -0.00416522, -0.591845, -0.00116764, 0.000904783, 0.00053229, 0.0314633, 0.0301845, 0.0127446, 0.00502891, 0.00575118, 0.0174724
-0.0133681, -0.00415623, -0.591943, -0.00111591, 0.000920352, 0.00037864, 0.0314633, 0.0301829, 0.0126588, 0.00497329, 0.0057306, 0.0169506
-0.0133632, -0.00414034, -0.592103, -0.00104029, 0.000925623, 0.000280816, 0.0314634, 0.0301815, 0.0125863, 0.00489893, 0.00571268, 0.016444
-0.0133564, -0.00412086, -0.592297, -0.000940443, 0.000928071, 0.000227171, 0.0314634, 0.0301798, 0.0125246, 0.00480497, 0.00569657, 0.015957
-0.0133523, -0.0040973, -0.592344, -0.000967576, 0.000952649, 0.000148486, 0.0314634, 0.0301776, 0.0124727, 0.00469037, 0.00568142, 0.0154924
-0.013348, -0.00406667, -0.592388, -0.00101529, 0.000973859, 8.65745e-05, 0.0314634, 0.0301754, 0.0124283, 0.00455622, 0.00566717, 0.0150617
-0.0133457, -0.00406067, -0.592425, -0.000985999, 0.000980104, -2.93394e-05, 0.0314634, 0.0301736, 0.0123898, 0.00440726, 0.00565322, 0.0146649
-0.0133404, -0.00409588, -0.592506, -0.000743956, 0.000958295, -0.000136168, 0.0314634, 0.0301719, 0.0123563, 0.00424655, 0.0056404, 0.0143043
-0.0133339, -0.00414306, -0.592553, -0.000498751, 0.000962437, -0.000292095, 0.0314633, 0.0301703, 0.0123269, 0.00407735, 0.00562924, 0.0139774
-0.0133278, -0.00418774, -0.592567, -0.000312671, 0.000984296, -0.000435519, 0.0314632, 0.0301687, 0.0123003, 0.00390371, 0.00561756, 0.0136812
-0.0133269, -0.00419253, -0.592562, -0.000312447, 0.00100815, -0.00051773, 0.0314631, 0.0301671, 0.0122757, 0.00373176, 0.00560445, 0.0134145
-0.0133227, -0.00422634, -0.592567, -0.000192214, 0.0010187, -0.000599331, 0.0314631, 0.0301654, 0.0122528, 0.00356649, 0.00559112, 0.0131786
-0.0133152, -0.00425188, -0.592603, -0.000100073, 0.00103466, -0.000694119, 0.031463, 0.0301635, 0.0122304, 0.00340719, 0.00557801, 0.0129704
-0.0133163, -0.00424476, -0.592616, -0.00011913, 0.00103907, -0.000763777, 0.0314629, 0.0301616, 0.012207, 0.00325279, 0.00556679, 0.0127904
-0.0133029, -0.00430479, -0.592726, 2.61689e-05, 0.00102005, -0.000805068, 0.0314628, 0.0301592, 0.0121816, 0.0030996, 0.00555887, 0.0126459
-0.0132944, -0.00434188, -0.592815, 0.000110629, 0.000998512, -0.000870808, 0.0314627, 0.0301571, 0.0121541, 0.00294985, 0.00555279, 0.0125298
-0.0132876, -0.00435155, -0.592807, 0.000263003, 0.000984468, -0.000905312, 0.0314625, 0.0301552, 0.0121247, 0.00280466, 0.00554672, 0.0124433
-0.0132836, -0.00434795, -0.592791, 0.000384115, 0.000975095, -0.000951483, 0.0314621, 0.0301534, 0.0120928, 0.00266062, 0.00553783, 0.0123824
-0.0132968, -0.00430734, -0.592697, 0.000459868, 0.000969064, -0.00103309, 0.0314617, 0.0301514, 0.0120587, 0.00251979, 0.00552527, 0.012341
-0.0133103, -0.00428967, -0.592691, 0.000388459, 0.000954443, -0.0011011, 0.0314612, 0.0301488, 0.0120217, 0.00238376, 0.00550717, 0.0123153
-0.0133227, -0.00424401, -0.592613, 0.000461756, 0.000935363, -0.0011244, 0.0314606, 0.0301447, 0.0119817, 0.00225509, 0.00548353, 0.0123008
-0.0133286, -0.00421553, -0.592583, 0.000526485, 0.000905102, -0.00112532, 0.0314598, 0.0301392, 0.0119372, 0.00213196, 0.00545445, 0.0122924
-0.0133535, -0.0041291, -0.592465, 0.000564118, 0.000881981, -0.00112929, 0.0314589, 0.0301321, 0.0118878, 0.00201647, 0.0054193, 0.0122861
-0.0133413, -0.0041278, -0.592517, 0.000649682, 0.000823514, -0.00106226, 0.0314577, 0.0301235, 0.0118317, 0.00190712, 0.00537382, 0.0122761
-0.0133513, -0.00407641, -0.592495, 0.00069743, 0.000761699, -0.000995868, 0.031456, 0.0301132, 0.0117672, 0.00180279, 0.00531897, 0.012256
-0.0133547, -0.0041308, -0.59256, 0.000622693, 0.000734527, -0.00100484, 0.0314538, 0.0301011, 0.0116927, 0.00170326, 0.00525135, 0.0122197
-0.0133061, -0.0042372, -0.592771, 0.000625215, 0.000692732, -0.000961994, 0.0314509, 0.0300867, 0.0116062, 0.00160745, 0.00516835, 0.0121622
-0.0133875, -0.00413163, -0.592573, 0.000581959, 0.000628732, -0.000889951, 0.0314472, 0.0300708, 0.0115066, 0.00151853, 0.00507122, 0.0120794
-0.0134243, -0.00417121, -0.592547, 0.000503092, 0.000582584, -0.000844338, 0.0314425, 0.0300542, 0.0113932, 0.00143579, 0.00495759, 0.0119672
-0.0133976, -0.0042128, -0.592684, 0.000495503, 0.000506043, -0.000727666, 0.031437, 0.0300369, 0.0112659, 0.00135868, 0.0048307, 0.0118272
-0.0134913, -0.0041387, -0.592491, 0.000455301, 0.000410894, -0.000571954, 0.0314308, 0.0300194, 0.0111258, 0.00128901, 0.00469652, 0.0116649
-0.0134552, -0.00420952, -0.592655, 0.000430702, 0.000340523, -0.000454438, 0.0314237, 0.0300035, 0.0109759, 0.00122729, 0.00455411, 0.0114787
-0.0135298, -0.00416329, -0.592524, 0.000401431, 0.000236436, -0.000264287, 0.0314162, 0.0299886, 0.0108177, 0.00117204, 0.00440993, 0.0112781
-0.0135814, -0.00412498, -0.592443, 0.000384945, 0.000146249, -8.97351e-05, 0.0314083, 0.0299745, 0.0106543, 0.00112338, 0.00426413, 0.0110634
-0.0136912, -0.00407709, -0.59222, 0.000338616, 7.22767e-05, 5.32025e-05, 0.0314003, 0.0299608, 0.0104878, 0.00108098, 0.00411839, 0.0108374
-0.0137242, -0.00410479, -0.592198, 0.000299043, 1.39466e-05, 0.000166764, 0.0313926, 0.0299452, 0.0103176, 0.00104357, 0.00397252, 0.0106006
-0.0138465, -0.00403121, -0.591933, 0.000246827, -3.15062e-05, 0.000258444, 0.0313851, 0.0299275, 0.0101463, 0.00101088, 0.00382829, 0.0103562
-0.0139369, -0.00389657, -0.591704, 0.00024365, -8.57141e-05, 0.000382985, 0.031378, 0.0299074, 0.00997576, 0.000981874, 0.00368521, 0.0101042
-0.0140062, -0.00380381, -0.591538, 0.000232477, -0.000124122, 0.000471454, 0.0313711, 0.029886, 0.00981008, 0.000956349, 0.00354624, 0.00985062
-0.0140676, -0.00369189, -0.591381, 0.000232877, -0.000173307, 0.000589214, 0.0313646, 0.0298626, 0.00965038, 0.000933661, 0.00341133, 0.00959609
-0.0141474, -0.00362987, -0.591239, 0.000190152, -0.000203131, 0.000652097, 0.0313587, 0.0298346, 0.00949665, 0.000913445, 0.00328112, 0.00934259
-0.0141864, -0.0036205, -0.591195, 0.000163597, -0.000231473, 0.000715341, 0.0313533, 0.0298003, 0.00934847, 0.000895155, 0.00315395, 0.00908772
-0.0142927, -0.00338246, -0.590928, 0.000144684, -0.000271406, 0.000815317, 0.0313485, 0.029759, 0.00920719, 0.000878599, 0.00303, 0.00883224
-0.0142678, -0.00358086, -0.591087, 0.000124295, -0.000283565, 0.000836968, 0.0313443, 0.0297104, 0.00907432, 0.000863359, 0.00290953, 0.0085776
-0.014318, -0.00348885, -0.590993, 0.000107662, -0.000295086, 0.000863835, 0.0313404, 0.0296561, 0.00895039, 0.00084947, 0.00279213, 0.00832312
-0.0143187, -0.00346668, -0.590981, 0.000110318, -0.000328898, 0.000953276, 0.0313367, 0.0295964, 0.00883456, 0.00083631, 0.00267762, 0.00806952
-0.0143922, -0.0033121, -0.590859, 8.63381e-05, -0.000333392, 0.000959701, 0.0313335, 0.0295264, 0.00872733, 0.000823904, 0.00256676, 0.00781893
-0.0144009, -0.00323941, -0.590816, 8.77789e-05, -0.000344166, 0.000990224, 0.0313305, 0.029444, 0.00862658, 0.00081188, 0.00245817, 0.00756916
-0.0144404, -0.00304368, -0.590707, 8.23424e-05, -0.00035332, 0.00101542, 0.0313278, 0.0293497, 0.00853211, 0.000800201, 0.00235256, 0.00732222
-0.014458, -0.00297186, -0.590669, 7.86638e-05, -0.000351126, 0.00100875, 0.0313252, 0.0292426, 0.00844257, 0.000788723, 0.00224942, 0.00707746
-0.014467, -0.0030355, -0.590694, 7.15476e-05, -0.000354632, 0.00101546, 0.0313226, 0.0291255, 0.00835709, 0.000777534, 0.00214904, 0.00683594
-0.0145629, -0.0026026, -0.590491, 5.56574e-05, -0.000345364, 0.00098627, 0.03132, 0.0290026, 0.00827456, 0.000766616, 0.00205162, 0.00659849
-0.0145455, -0.00304159, -0.590668, 4.35485e-05, -0.000342039, 0.000969247, 0.0313174, 0.0288764, 0.00819511, 0.000755815, 0.00195723, 0.00636576
-0.0145606, -0.00306454, -0.590673, 3.83497e-05, -0.000331048, 0.000935191, 0.0313146, 0.0287538, 0.00811832, 0.000745391, 0.00186628, 0.00613861
-0.0146121, -0.00281083, -0.590558, 3.34625e-05, -0.000325454, 0.000918315, 0.0313117, 0.0286401, 0.0080436, 0.000735183, 0.00177955, 0.00591928
-0.0146671, -0.00272816, -0.590512, 2.07183e-05, -0.000310098, 0.000867616, 0.0313088, 0.0285383, 0.00797153, 0.000725141, 0.00169751, 0.00570914
-0.0146939, -0.00266279, -0.590479, 1.63709e-05, -0.000301559, 0.000840429, 0.0313058, 0.0284496, 0.00790253, 0.000715377, 0.00162013, 0.00550843
-0.0147586, -0.00245326, -0.590373, 8.39198e-06, -0.000295434, 0.000819423, 0.0313029, 0.0283756, 0.00783568, 0.000705834, 0.00154746, 0.00531727
-0.0147812, -0.00245992, -0.59038, 2.3324e-07, -0.000285297, 0.000784525, 0.0312999, 0.0283145, 0.00777072, 0.000696466, 0.00147956, 0.0051363
-0.0148438, -0.00215726, -0.590202, 6.3579e-06, -0.000279362, 0.000769694, 0.0312969, 0.0282639, 0.00770758, 0.000687203, 0.00141585, 0.00496428
-0.0148655, -0.0021361, -0.590206, -2.525e-06, -0.000275796, 0.000754425, 0.031294, 0.0282216, 0.0076467, 0.000678047, 0.00135662, 0.00480233
-0.014955, -0.00190363, -0.590114, -2.13702e-05, -0.000263835, 0.000710202, 0.0312912, 0.0281847, 0.0075882, 0.000669057, 0.00130104, 0.00464867
-0.0150828, -0.00148044, -0.589834, -1.82503e-05, -0.000262351, 0.000707407, 0.0312884, 0.0281518, 0.0075307, 0.000660159, 0.00124871, 0.00450288
-0.0151195, -0.00135852, -0.58973, -1.10201e-05, -0.000259841, 0.000701159, 0.0312856, 0.0281223, 0.00747557, 0.000651566, 0.00119986, 0.00436546
-0.0151031, -0.00141817, -0.589809, -1.97669e-05, -0.000252816, 0.000674716, 0.0312829, 0.0280957, 0.00742336, 0.00064342, 0.00115421, 0.00423561
-0.0150898, -0.00141442, -0.58963, 2.22752e-05, -0.000258556, 0.000706319, 0.0312801, 0.028072, 0.0073738, 0.000635734, 0.00111122, 0.00411216
-0.01515, -0.00125128, -0.589455, 3.5006e-05, -0.000259552, 0.000712929, 0.0312773, 0.0280513, 0.00732645, 0.000628603, 0.00107189, 0.00399727
-0.01515, -0.00125128, -0.589455, 3.5006e-05, -0.000259552, 0.000712929, 0.0312774, 0.0280514, 0.0073268, 0.000628703, 0.00107195, 0.00399729
-0.0152291, -0.00107576, -0.589365, 2.75998e-05, -0.00024571, 0.000662249, 0.031274, 0.0280318, 0.00727751, 0.000620929, 0.00102811, 0.00386666
-0.0152807, -0.00095317, -0.589265, 3.04999e-05, -0.00023673, 0.000632929, 0.0312707, 0.0280142, 0.00723059, 0.000613589, 0.000988774, 0.00374917
-0.0152807, -0.00095317, -0.589265, 3.04999e-05, -0.00023673, 0.000632929, 0.0312707, 0.0280143, 0.00723095, 0.000613691, 0.000988838, 0.00374918
-0.0153816, -0.000743017, -0.589123, 2.5522e-05, -0.000226746, 0.00059745, 0.0312672, 0.0279963, 0.00718109, 0.000605079, 0.000946598, 0.00362313
-0.0155835, -0.000337706, -0.588835, 1.55153e-05, -0.000214742, 0.000554085, 0.0312638, 0.0279793, 0.00713316, 0.000596796, 0.000909303, 0.00351308
-0.0155917, -0.000303009, -0.588815, 1.88153e-05, -0.000196954, 0.000494863, 0.0312606, 0.0279623, 0.00708574, 0.000588599, 0.000875535, 0.00341513
-0.0156371, -0.000234125, -0.58877, 1.39209e-05, -0.000189733, 0.000468686, 0.0312574, 0.0279451, 0.00703864, 0.000580449, 0.000844832, 0.00332766
-0.0156326, -0.000254606, -0.588791, 1.28615e-05, -0.000179531, 0.000433743, 0.0312543, 0.0279255, 0.00699143, 0.000572247, 0.000816325, 0.00324851
-0.0156924, -0.000147629, -0.588712, 9.48853e-06, -0.000170722, 0.000403008, 0.0312514, 0.027901, 0.00694439, 0.000563937, 0.000789566, 0.00317651
-0.0156145, -0.000429176, -0.58889, 5.33902e-06, -0.000158707, 0.000360919, 0.0312488, 0.0278683, 0.00689615, 0.000555385, 0.000764175, 0.00311075
-0.0155426, -0.000453175, -0.588932, 2.07307e-05, -0.000153715, 0.000350218, 0.0312464, 0.0278253, 0.00684755, 0.000546724, 0.000740091, 0.00305084
-0.0154762, -0.000760476, -0.58909, 1.84861e-05, -0.000146884, 0.000325863, 0.0312442, 0.0277728, 0.00679707, 0.000538006, 0.000717622, 0.00299691
-0.0153867, -0.00110318, -0.589263, 2.20439e-05, -0.000141138, 0.000307109, 0.0312422, 0.0277095, 0.00674626, 0.000529324, 0.000696412, 0.00294813
-0.015356, -0.00131958, -0.589355, 2.02003e-05, -0.000133485, 0.000280421, 0.0312404, 0.0276367, 0.00669449, 0.000520765, 0.000676547, 0.00290438
-0.0153875, -0.00152019, -0.589407, 6.46548e-06, -0.000121677, 0.000235278, 0.0312386, 0.0275513, 0.00664208, 0.000512303, 0.000657893, 0.00286529
-0.0154153, -0.00135146, -0.589337, 7.78116e-06, -0.000113525, 0.000211694, 0.0312368, 0.0274535, 0.00658618, 0.000503899, 0.00064033, 0.0028307
-0.0153979, -0.00135861, -0.589346, 1.23291e-05, -0.000106852, 0.000194388, 0.0312349, 0.0273449, 0.00652563, 0.000495703, 0.00062406, 0.0028005
-0.0153406, -0.00165315, -0.589461, 1.42125e-05, -0.000101368, 0.00017854, 0.0312327, 0.0272259, 0.00646145, 0.000487837, 0.000609093, 0.00277432
-0.0153471, -0.00130729, -0.589355, 2.79059e-05, -9.6089e-05, 0.000171437, 0.03123, 0.0271021, 0.00639357, 0.000480418, 0.000595427, 0.00275186
-0.0152993, -0.00157726, -0.589453, 2.88205e-05, -8.89931e-05, 0.000151665, 0.0312274, 0.0269721, 0.00632603, 0.000473485, 0.000583057, 0.00273257
-0.0153407, -0.00129542, -0.589352, 3.15825e-05, -8.33728e-05, 0.000138225, 0.0312246, 0.026841, 0.00625838, 0.000467039, 0.000571826, 0.00271612
-0.0153362, -0.00120515, -0.589327, 3.67606e-05, -7.76525e-05, 0.000126745, 0.0312216, 0.026712, 0.00619185, 0.000461088, 0.000561669, 0.00270208
-0.0153208, -0.0011929, -0.589329, 4.11775e-05, -7.27848e-05, 0.000116939, 0.0312187, 0.0265872, 0.00612863, 0.000455625, 0.00055248, 0.00269006
-0.0152328, -0.0013934, -0.589424, 5.37347e-05, -6.92698e-05, 0.000115719, 0.0312163, 0.0264663, 0.00607078, 0.000450599, 0.000544136, 0.00267973
-0.0152436, -0.00113015, -0.589349, 6.0906e-05, -6.67042e-05, 0.00011414, 0.0312142, 0.0263512, 0.00601838, 0.000445958, 0.000536512, 0.00267079
-0.0152504, -0.00106762, -0.589328, 6.18027e-05, -6.159e-05, 0.000102725, 0.0312123, 0.026243, 0.00597055, 0.000441673, 0.000529514, 0.00266302
-0.0152005, -0.00133109, -0.589421, 6.45023e-05, -5.74966e-05, 9.43297e-05, 0.0312106, 0.026142, 0.00592644, 0.000437672, 0.000523056, 0.00265629
-0.0152028, -0.0012496, -0.5894, 6.6509e-05, -5.4318e-05, 8.83563e-05, 0.0312089, 0.0260467, 0.00588581, 0.000433921, 0.000517039, 0.00265045
-0.0152094, -0.000979785, -0.589328, 7.24521e-05, -5.32161e-05, 9.03494e-05, 0.0312075, 0.0259555, 0.00584875, 0.000430416, 0.000511414, 0.00264535
-0.0151716, -0.0010538, -0.589364, 7.8997e-05, -5.12935e-05, 8.99766e-05, 0.0312062, 0.0258696, 0.00581471, 0.000427164, 0.000506122, 0.00264088
-0.0151865, -0.000838933, -0.589304, 8.12334e-05, -4.83612e-05, 8.56124e-05, 0.0312052, 0.025789, 0.00578338, 0.000424157, 0.000501109, 0.00263694
-0.0151879, -0.000798107, -0.589293, 8.19642e-05, -4.60209e-05, 8.1689e-05, 0.0312044, 0.0257129, 0.00575447, 0.000421386, 0.00049635, 0.00263347
-0.0152001, -0.000672043, -0.589257, 8.20041e-05, -4.40542e-05, 7.84655e-05, 0.0312036, 0.0256421, 0.00572744, 0.00041881, 0.000491813, 0.00263037
-0.0152269, -0.000566184, -0.589225, 7.6855e-05, -4.04689e-05, 6.97992e-05, 0.0312029, 0.0255761, 0.0057022, 0.000416419, 0.000487472, 0.00262761
-0.0152272, -0.000200329, -0.589117, 8.88649e-05, -4.18345e-05, 8.01356e-05, 0.0312024, 0.0255126, 0.0056789, 0.000414238, 0.000483319, 0.00262513
-0.0152225, -0.000189936, -0.58911, 9.26974e-05, -4.08765e-05, 7.98392e-05, 0.031202, 0.0254544, 0.00565741, 0.000412222, 0.000479308, 0.00262286
-0.0152339, -5.46748e-05, -0.589077, 9.09391e-05, -3.91367e-05, 7.66689e-05, 0.0312018, 0.0253993, 0.00563765, 0.00041037, 0.000475444, 0.00262083
-0.0152246, -0.000213625, -0.58911, 9.47331e-05, -3.81455e-05, 7.56918e-05, 0.0312016, 0.0253462, 0.00561933, 0.000408663, 0.000471735, 0.00261904
-0.015236, -2.55351e-05, -0.589057, 9.48568e-05, -3.8218e-05, 7.68063e-05, 0.0312016, 0.0252946, 0.00560247, 0.00040706, 0.000468166, 0.00261746
-0.0152403, -1.38415e-05, -0.589043, 9.74753e-05, -3.61049e-05, 7.45816e-05, 0.0312015, 0.0252453, 0.00558696, 0.000405534, 0.000464735, 0.00261607
-0.0152698, 0.00039168, -0.588891, 0.000105822, -3.82276e-05, 8.33688e-05, 0.0312015, 0.0251968, 0.00557282, 0.000404055, 0.000461427, 0.00261484
-0.0152815, 0.000402225, -0.588862, 0.000110869, -3.80199e-05, 8.44542e-05, 0.0312015, 0.0251494, 0.00556005, 0.00040262, 0.000458223, 0.00261373
-0.015282, 0.000498675, -0.588837, 0.000111389, -3.65153e-05, 8.31848e-05, 0.0312015, 0.0251034, 0.00554785, 0.000401207, 0.000455125, 0.00261274
-0.0152847, 0.000375118, -0.588861, 0.000113318, -3.45469e-05, 8.00528e-05, 0.0312015, 0.0250604, 0.00553566, 0.000399799, 0.000452131, 0.00261188
-0.0152952, 0.000521497, -0.588791, 0.000120121, -3.54886e-05, 8.41714e-05, 0.0312015, 0.0250202, 0.00552301, 0.000398373, 0.000449232, 0.00261114
-0.0153028, 0.000778727, -0.5887, 0.000124776, -3.60993e-05, 8.78566e-05, 0.0312016, 0.0249837, 0.00550962, 0.000396914, 0.000446409, 0.00261047
-0.0153102, 0.00101998, -0.588611, 0.000130526, -3.65043e-05, 9.11971e-05, 0.0312016, 0.0249498, 0.00549542, 0.000395418, 0.000443651, 0.00260987
-0.0153166, 0.00124856, -0.588531, 0.000133958, -3.73905e-05, 9.43516e-05, 0.0312017, 0.0249181, 0.00547997, 0.000393863, 0.000440945, 0.00260932
-0.0153181, 0.00126232, -0.588527, 0.000131438, -3.69631e-05, 9.31079e-05, 0.0312017, 0.0248878, 0.00546293, 0.000392246, 0.00043828, 0.00260879
-0.0153245, 0.00152486, -0.588435, 0.000138644, -3.69346e-05, 9.62381e-05, 0.0312016, 0.0248582, 0.00544406, 0.000390545, 0.000435656, 0.00260828
-0.015315, 0.0015623, -0.588436, 0.000142563, -3.69843e-05, 9.7844e-05, 0.0312014, 0.0248291, 0.00542288, 0.000388761, 0.000433053, 0.00260774
-0.015307, 0.00152973, -0.588457, 0.000143657, -3.57362e-05, 9.70048e-05, 0.0312012, 0.0247992, 0.00540054, 0.000386904, 0.000430469, 0.00260717
-0.0153022, 0.00145779, -0.588486, 0.00014263, -3.44432e-05, 9.52587e-05, 0.0312008, 0.0247688, 0.00537638, 0.000384952, 0.000427902, 0.00260654
-0.0153023, 0.00135398, -0.588519, 0.000140094, -3.36625e-05, 9.35879e-05, 0.0312004, 0.0247373, 0.00535143, 0.000382931, 0.000425349, 0.00260582
-0.0153113, 0.00138322, -0.588488, 0.000139227, -3.31003e-05, 9.25412e-05, 0.0312, 0.0247044, 0.00532639, 0.000380859, 0.000422804, 0.00260498
-0.0153221, 0.00122596, -0.588526, 0.000134241, -3.2383e-05, 8.95761e-05, 0.0311995, 0.0246711, 0.00530055, 0.000378759, 0.000420264, 0.00260398
-0.0153081, 0.0013052, -0.588524, 0.000138064, -3.27694e-05, 9.16866e-05, 0.031199, 0.0246368, 0.00527572, 0.000376643, 0.000417734, 0.00260279
-0.0153128, 0.00124353, -0.588541, 0.000136395, -3.2627e-05, 9.0951e-05, 0.0311985, 0.0246025, 0.0052516, 0.000374513, 0.000415202, 0.00260135
-0.0153375, 0.00123624, -0.588481, 0.000132071, -3.32814e-05, 9.09863e-05, 0.0311979, 0.024568, 0.00522845, 0.000372388, 0.000412678, 0.00259964
-0.0153518, 0.00124273, -0.588446, 0.000129928, -3.37047e-05, 9.08582e-05, 0.0311972, 0.0245345, 0.00520573, 0.000370309, 0.000410167, 0.00259762
-0.0153625, 0.00112197, -0.588496, 0.00012754, -3.40445e-05, 9.05679e-05, 0.0311964, 0.024504, 0.00518247, 0.000368304, 0.000407667, 0.00259528
-0.0153736, 0.00116303, -0.588449, 0.000126534, -3.47515e-05, 9.21508e-05, 0.0311955, 0.0244765, 0.00515831, 0.00036638, 0.000405179, 0.00259259
-0.0153977, 0.00122663, -0.58837, 0.000123335, -3.50793e-05, 9.15119e-05, 0.0311947, 0.0244486, 0.00513533, 0.000364568, 0.000402708, 0.00258954
-0.0154071, 0.00122473, -0.588358, 0.000121908, -3.60845e-05, 9.37377e-05, 0.0311938, 0.0244178, 0.00511337, 0.000362878, 0.000400261, 0.00258616
-0.0154068, 0.0012998, -0.588325, 0.000121573, -3.71417e-05, 9.68738e-05, 0.0311929, 0.0243814, 0.00509235, 0.000361288, 0.000397832, 0.00258245
-0.0154525, 0.00118781, -0.588318, 0.000115195, -3.74306e-05, 9.47343e-05, 0.031192, 0.0243388, 0.00507135, 0.000359786, 0.000395419, 0.00257837
-0.0154513, 0.00129942, -0.588279, 0.000114657, -3.84192e-05, 9.79377e-05, 0.0311909, 0.0242887, 0.00505026, 0.000358373, 0.000393026, 0.00257394
-0.0154444, 0.00141602, -0.588245, 0.000114754, -3.98152e-05, 0.000103092, 0.0311896, 0.0242314, 0.00502885, 0.000357029, 0.000390642, 0.00256906
-0.0154743, 0.00150806, -0.588188, 0.000111195, -4.03736e-05, 0.000103709, 0.0311877, 0.0241671, 0.00500724, 0.00035576, 0.000388263, 0.00256365
-0.0154814, 0.00168231, -0.588125, 0.000109602, -4.20814e-05, 0.000110011, 0.031185, 0.0240949, 0.00498551, 0.000354616, 0.000385896, 0.00255769
-0.0154584, 0.00167888, -0.588145, 0.000110823, -4.35221e-05, 0.00011665, 0.0311814, 0.0240156, 0.00496327, 0.000353625, 0.000383538, 0.00255109
-0.0155188, 0.0018255, -0.588045, 0.000106888, -4.55468e-05, 0.000124661, 0.0311768, 0.0239308, 0.00493994, 0.000352794, 0.000381181, 0.00254376
-0.0155406, 0.00204467, -0.587956, 0.000105191, -4.79732e-05, 0.000135379, 0.0311716, 0.0238416, 0.00491498, 0.000352179, 0.000378845, 0.00253582
-0.0156117, 0.00208607, -0.58788, 0.00010265, -4.97533e-05, 0.000143194, 0.031166, 0.0237467, 0.00488937, 0.000351748, 0.000376532, 0.00252722
-0.0156551, 0.00228344, -0.587782, 0.000101094, -5.23817e-05, 0.000155678, 0.0311603, 0.0236459, 0.00486369, 0.000351477, 0.000374251, 0.00251806
-0.0157535, 0.00265566, -0.587601, 9.96552e-05, -5.28108e-05, 0.000156427, 0.031155, 0.0235401, 0.00483851, 0.000351311, 0.000372009, 0.00250835
-0.0157738, 0.00284355, -0.58753, 9.9149e-05, -5.48402e-05, 0.000166597, 0.03115, 0.0234294, 0.00481459, 0.00035123, 0.000369822, 0.00249825
-0.0157305, 0.00294609, -0.587523, 9.89202e-05, -5.77564e-05, 0.000182856, 0.0311453, 0.0233155, 0.00479183, 0.00035119, 0.000367689, 0.00248769
-0.0157528, 0.00287847, -0.587522, 9.84644e-05, -5.88662e-05, 0.000189443, 0.0311407, 0.0232007, 0.00477016, 0.000351165, 0.00036561, 0.00247658
-0.0157089, 0.00270413, -0.587582, 9.78346e-05, -6.08891e-05, 0.000201152, 0.0311362, 0.0230854, 0.00474935, 0.000351151, 0.000363593, 0.00246502
-0.0157108, 0.00232878, -0.587671, 9.67998e-05, -6.16988e-05, 0.000206317, 0.0311316, 0.0229704, 0.0047294, 0.000351133, 0.000361634, 0.0024529
-0.0157088, 0.001938, -0.587763, 9.54286e-05, -6.27141e-05, 0.000212643, 0.0311266, 0.0228553, 0.00471011, 0.000351097, 0.000359733, 0.00244029
-0.0157072, 0.00162093, -0.587835, 9.41911e-05, -6.34901e-05, 0.000217436, 0.0311212, 0.0227399, 0.00469157, 0.000351036, 0.000357889, 0.00242724
-0.0156942, 0.00159622, -0.587841, 9.4033e-05, -6.41695e-05, 0.00022148, 0.031115, 0.0226237, 0.00467401, 0.000350965, 0.000356098, 0.00241383
-0.0155796, 0.00148999, -0.587877, 9.41301e-05, -6.64568e-05, 0.00023274, 0.031108, 0.0225068, 0.00465731, 0.000350882, 0.000354357, 0.00240015
-0.0155322, 0.00171647, -0.587834, 9.49297e-05, -6.74372e-05, 0.000237867, 0.0310995, 0.0223899, 0.00464137, 0.000350748, 0.000352646, 0.002386
-0.0155143, 0.00178373, -0.587822, 9.51697e-05, -6.78038e-05, 0.000239868, 0.0310894, 0.0222725, 0.00462611, 0.000350563, 0.00035096, 0.00237155
-0.015384, 0.00167159, -0.587846, 9.64926e-05, -6.92644e-05, 0.00024694, 0.0310772, 0.0221549, 0.00461137, 0.000350299, 0.000349289, 0.00235675
-0.0152941, 0.00164703, -0.587853, 9.7707e-05, -6.9789e-05, 0.000248508, 0.0310622, 0.0220382, 0.00459714, 0.000349925, 0.000347632, 0.00234151
-0.0151468, 0.00185713, -0.587815, 9.95611e-05, -7.1421e-05, 0.000257082, 0.0310441, 0.0219231, 0.00458329, 0.000349433, 0.000345994, 0.0023259
-0.0149927, 0.00200403, -0.587789, 0.000101724, -7.24623e-05, 0.000261643, 0.0310222, 0.0218102, 0.00456971, 0.000348805, 0.000344381, 0.00230993
-0.0147726, 0.00223864, -0.587745, 0.000104779, -7.40311e-05, 0.000269367, 0.030996, 0.0216997, 0.00455632, 0.000348018, 0.00034279, 0.00229361
-0.0147424, 0.0021522, -0.58776, 0.000105516, -7.3402e-05, 0.000264148, 0.0309648, 0.0215917, 0.00454305, 0.000347042, 0.000341217, 0.00227692
-0.0148178, 0.00216818, -0.587761, 0.000104545, -7.27254e-05, 0.000259753, 0.0309279, 0.0214857, 0.00452978, 0.000345859, 0.000339659, 0.00225989
-0.0145989, 0.00226841, -0.587739, 0.000108353, -7.23296e-05, 0.000253757, 0.0308849, 0.0213815, 0.00451642, 0.000344452, 0.000338111, 0.00224256
-0.0143405, 0.00234597, -0.587718, 0.000113053, -7.14098e-05, 0.000243444, 0.0308353, 0.0212795, 0.00450302, 0.000342794, 0.000336571, 0.00222487
-0.0140597, 0.00221295, -0.587731, 0.000118234, -7.01857e-05, 0.000231363, 0.0307787, 0.0211797, 0.00448952, 0.000340823, 0.000335023, 0.00220678
-0.0136737, 0.00218394, -0.587721, 0.000125527, -6.86184e-05, 0.000215845, 0.030715, 0.0210823, 0.00447582, 0.00033845, 0.000333447, 0.00218818
-0.0134179, 0.00202093, -0.587738, 0.000130996, -6.64048e-05, 0.000196665, 0.0306451, 0.0209875, 0.00446195, 0.00033565, 0.000331841, 0.00216917
-0.0132321, 0.00192226, -0.587746, 0.000135233, -6.46141e-05, 0.000181436, 0.0305707, 0.0208947, 0.00444795, 0.00033244, 0.000330208, 0.00214989
-0.0130664, 0.00196909, -0.58773, 0.000139338, -6.26977e-05, 0.000165281, 0.0304944, 0.0208031, 0.00443386, 0.000328912, 0.000328566, 0.00213057
-0.012786, 0.00234455, -0.587652, 0.00014502, -6.19459e-05, 0.000158845, 0.0304192, 0.0207126, 0.00441972, 0.000325217, 0.000326946, 0.00211151
-0.0128778, 0.00259622, -0.587614, 0.00014368, -6.13079e-05, 0.000153402, 0.0303483, 0.0206234, 0.00440565, 0.000321562, 0.000325383, 0.00209304
-0.0125993, 0.00281943, -0.587559, 0.000149794, -6.02502e-05, 0.000145699, 0.0302839, 0.0205348, 0.00439169, 0.000318065, 0.000323892, 0.00207524
-0.0124762, 0.00312367, -0.587498, 0.000152848, -5.94728e-05, 0.000140186, 0.0302273, 0.0204473, 0.0043781, 0.000314874, 0.000322489, 0.00205835
-0.0123142, 0.00324753, -0.587464, 0.000156985, -5.81584e-05, 0.000130676, 0.0301791, 0.0203604, 0.00436491, 0.000312049, 0.000321178, 0.00204234
-0.0122541, 0.00350174, -0.587414, 0.000159058, -5.70883e-05, 0.000122889, 0.0301388, 0.0202747, 0.00435222, 0.000309625, 0.000319959, 0.0020272
-0.0120993, 0.00418868, -0.587283, 0.000163226, -5.62765e-05, 0.000119767, 0.0301053, 0.0201903, 0.00433998, 0.000307588, 0.000318829, 0.00201281
-0.0117977, 0.00432109, -0.587232, 0.000170678, -5.4633e-05, 0.000110285, 0.0300776, 0.0201081, 0.00432821, 0.00030591, 0.000317785, 0.00199908
-0.011513, 0.00413227, -0.58724, 0.000177291, -5.36263e-05, 0.000105214, 0.0300547, 0.0200287, 0.00431699, 0.000304531, 0.000316813, 0.00198589
-0.0113384, 0.00406903, -0.587234, 0.000181584, -5.27969e-05, 0.000100889, 0.0300358, 0.0199521, 0.00430631, 0.000303392, 0.000315902, 0.00197313
-0.0112807, 0.00390561, -0.587255, 0.000183473, -5.16851e-05, 9.18317e-05, 0.0300205, 0.0198784, 0.00429608, 0.000302444, 0.000315045, 0.00196074
-0.0111435, 0.00367475, -0.58728, 0.000187172, -5.06783e-05, 8.48098e-05, 0.0300082, 0.0198076, 0.00428622, 0.000301647, 0.000314237, 0.00194871
-0.0110154, 0.00361874, -0.587277, 0.000190181, -5.07014e-05, 8.73429e-05, 0.0299981, 0.0197402, 0.00427681, 0.000300972, 0.000313475, 0.001937
-0.0109651, 0.00324606, -0.587336, 0.00019181, -4.95835e-05, 7.66581e-05, 0.0299899, 0.0196766, 0.00426781, 0.000300394, 0.000312756, 0.00192559
-0.010855, 0.00305018, -0.587359, 0.00019454, -4.95839e-05, 7.76209e-05, 0.0299833, 0.0196165, 0.00425916, 0.000299887, 0.000312077, 0.00191449
-0.0108859, 0.00303846, -0.587364, 0.000194027, -4.89357e-05, 7.12238e-05, 0.029978, 0.01956, 0.00425082, 0.000299435, 0.000311433, 0.00190365
-0.0108278, 0.00290207, -0.587383, 0.000195336, -4.9703e-05, 7.81778e-05, 0.0299739, 0.0195065, 0.00424265, 0.000299027, 0.000310826, 0.00189311
-0.0108387, 0.00285234, -0.587393, 0.000195104, -4.93679e-05, 7.46976e-05, 0.0299707, 0.0194559, 0.00423478, 0.000298653, 0.000310251, 0.00188284
-0.0108659, 0.00283633, -0.587401, 0.000194078, -4.93469e-05, 7.40948e-05, 0.0299683, 0.0194074, 0.00422712, 0.000298305, 0.000309707, 0.00187287
-0.0108832, 0.00271065, -0.587429, 0.000193269, -4.92495e-05, 7.22831e-05, 0.0299664, 0.0193604, 0.00421967, 0.000297974, 0.000309189, 0.00186322
-0.0109132, 0.002771, -0.587425, 0.000191615, -4.93522e-05, 7.36518e-05, 0.0299648, 0.0193151, 0.00421243, 0.000297654, 0.000308698, 0.00185385
-0.010922, 0.00272067, -0.587438, 0.000191111, -4.99938e-05, 7.9085e-05, 0.0299632, 0.0192719, 0.00420536, 0.000297337, 0.000308232, 0.00184479
-0.010941, 0.00284281, -0.587419, 0.000189843, -5.04153e-05, 8.42243e-05, 0.0299617, 0.0192314, 0.00419852, 0.00029702, 0.000307789, 0.001836
-0.01095, 0.00284813, -0.587423, 0.000188642, -5.05522e-05, 8.63429e-05, 0.0299599, 0.0191935, 0.00419181, 0.000296696, 0.00030737, 0.00182746
-0.0109542, 0.00279593, -0.587437, 0.000188007, -5.07878e-05, 8.85438e-05, 0.0299581, 0.0191582, 0.00418513, 0.000296358, 0.000306969, 0.00181915
-0.0109553, 0.00280466, -0.58744, 0.000186375, -5.0692e-05, 8.99123e-05, 0.0299562, 0.0191254, 0.00417849, 0.000295999, 0.000306584, 0.00181101
-0.0109477, 0.00286119, -0.587434, 0.000183555, -5.0355e-05, 9.18937e-05, 0.0299542, 0.0190947, 0.00417183, 0.000295617, 0.000306212, 0.00180306
-0.0109532, 0.0029296, -0.587421, 0.000182649, -5.07797e-05, 9.72788e-05, 0.0299521, 0.0190659, 0.00416512, 0.000295206, 0.000305853, 0.00179527
-0.0109662, 0.00291029, -0.587427, 0.000183019, -5.12288e-05, 9.98386e-05, 0.0299499, 0.0190388, 0.00415839, 0.000294767, 0.000305505, 0.0017876
-0.0109761, 0.00287931, -0.587435, 0.000183654, -5.1377e-05, 9.94448e-05, 0.0299475, 0.0190135, 0.00415165, 0.000294289, 0.000305161, 0.00178007
-0.0110056, 0.0028375, -0.587448, 0.000184671, -5.2007e-05, 0.000101641, 0.0299448, 0.0189895, 0.00414495, 0.000293777, 0.000304825, 0.00177267
-0.0110417, 0.00293334, -0.587424, 0.000186567, -5.26974e-05, 0.000103363, 0.0299416, 0.0189666, 0.00413825, 0.000293224, 0.000304492, 0.00176539
-0.0110994, 0.00286065, -0.58745, 0.00018843, -5.34674e-05, 0.000104177, 0.029938, 0.0189444, 0.00413156, 0.00029263, 0.000304162, 0.00175823
-0.0111948, 0.00281053, -0.587475, 0.000191693, -5.45986e-05, 0.000104401, 0.0299339, 0.018923, 0.00412486, 0.000291989, 0.00030383, 0.00175119
-0.0112029, 0.00280493, -0.587476, 0.000192422, -5.44107e-05, 0.00010136, 0.0299293, 0.0189023, 0.00411815, 0.000291298, 0.000303496, 0.00174426
-0.0111654, 0.00269783, -0.587502, 0.000191042, -5.36945e-05, 9.89707e-05, 0.029924, 0.0188822, 0.00411141, 0.000290559, 0.000303157, 0.00173748
-0.0111939, 0.00271418, -0.587499, 0.000192433, -5.36885e-05, 9.57806e-05, 0.0299179, 0.0188622, 0.00410458, 0.00028977, 0.000302813, 0.00173091
-0.011191, 0.00267216, -0.587512, 0.00019229, -5.35715e-05, 9.50981e-05, 0.0299108, 0.0188425, 0.00409769, 0.000288931, 0.000302461, 0.00172453
-0.0113487, 0.00276946, -0.58751, 0.000197033, -5.5239e-05, 9.50958e-05, 0.0299028, 0.0188227, 0.00409065, 0.000288037, 0.0003021, 0.00171835
-0.0113596, 0.00270236, -0.587536, 0.00019719, -5.52604e-05, 9.44841e-05, 0.0298942, 0.0188027, 0.00408348, 0.000287082, 0.000301725, 0.00171237
-0.0112707, 0.00263911, -0.587535, 0.000194613, -5.40964e-05, 9.31624e-05, 0.0298853, 0.0187822, 0.00407608, 0.000286059, 0.000301334, 0.00170659
-0.0112021, 0.0026334, -0.587516, 0.000192601, -5.32031e-05, 9.25951e-05, 0.0298764, 0.0187611, 0.00406842, 0.000284965, 0.000300924, 0.00170104
-0.011355, 0.00277495, -0.587508, 0.000198101, -5.46671e-05, 8.87453e-05, 0.0298677, 0.0187392, 0.00406046, 0.000283799, 0.000300498, 0.00169569
-0.0113637, 0.00276316, -0.587511, 0.000198635, -5.42538e-05, 8.50887e-05, 0.0298593, 0.0187167, 0.00405228, 0.000282566, 0.000300055, 0.00169055
-0.0114464, 0.00286876, -0.587495, 0.000202102, -5.4705e-05, 7.98242e-05, 0.0298511, 0.0186937, 0.00404387, 0.000281277, 0.0002996, 0.00168564
-0.01157, 0.00294929, -0.587511, 0.00020722, -5.54846e-05, 7.24714e-05, 0.0298431, 0.0186705, 0.00403527, 0.000279948, 0.000299139, 0.00168096
-0.0116734, 0.00301916, -0.58752, 0.000211775, -5.56374e-05, 6.30351e-05, 0.0298356, 0.0186473, 0.00402645, 0.000278588, 0.000298673, 0.00167649
-0.0117451, 0.00308722, -0.587518, 0.000215147, -5.56085e-05, 5.53695e-05, 0.0298289, 0.0186245, 0.00401749, 0.000277214, 0.000298208, 0.00167225
-0.0117735, 0.00300706, -0.587558, 0.000216277, -5.43799e-05, 4.67091e-05, 0.029823, 0.0186023, 0.00400841, 0.000275845, 0.000297749, 0.00166821
-0.0118268, 0.00300766, -0.587578, 0.000218942, -5.35163e-05, 3.67584e-05, 0.0298181, 0.0185812, 0.00399934, 0.000274499, 0.0002973, 0.0016644
-0.0119043, 0.00312312, -0.58757, 0.000223555, -5.36935e-05, 2.74236e-05, 0.0298143, 0.0185614, 0.00399031, 0.000273197, 0.000296865, 0.0016608
-0.0119532, 0.00311166, -0.587616, 0.000226993, -5.31578e-05, 1.76262e-05, 0.0298113, 0.0185434, 0.00398142, 0.000271959, 0.000296449, 0.00165739
-0.0119917, 0.00312206, -0.587642, 0.000229824, -5.26595e-05, 9.4388e-06, 0.029809, 0.0185272, 0.00397266, 0.000270797, 0.000296052, 0.00165417
-0.0120382, 0.00317634, -0.587657, 0.000233458, -5.26517e-05, 1.67679e-06, 0.0298071, 0.0185127, 0.00396405, 0.000269722, 0.000295675, 0.00165114
-0.0120264, 0.00313442, -0.58766, 0.000232481, -5.15268e-05, -1.05475e-06, 0.0298056, 0.0184999, 0.00395556, 0.000268739, 0.000295321, 0.00164827
-0.0120469, 0.00315914, -0.587666, 0.000234133, -5.1542e-05, -4.3345e-06, 0.0298042, 0.0184885, 0.00394723, 0.000267847, 0.000294983, 0.0016456
-0.0120144, 0.00308043, -0.587678, 0.000231925, -5.02561e-05, -4.96779e-06, 0.0298028, 0.0184786, 0.00393914, 0.000267045, 0.000294665, 0.00164308
-0.0119906, 0.00309445, -0.587643, 0.000230309, -4.9937e-05, -3.54075e-06, 0.0298014, 0.0184701, 0.00393126, 0.000266327, 0.000294364, 0.00164072
-0.0119325, 0.00301712, -0.587645, 0.000226746, -4.88855e-05, -8.51964e-07, 0.0297998, 0.018463, 0.00392358, 0.000265688, 0.000294078, 0.00163851
-0.0118765, 0.00297156, -0.587631, 0.000223594, -4.79012e-05, 9.53546e-07, 0.0297979, 0.0184571, 0.00391611, 0.000265121, 0.000293807, 0.00163644
-0.0119093, 0.00296705, -0.587667, 0.00022605, -4.79864e-05, -2.35121e-06, 0.0297955, 0.0184523, 0.00390886, 0.000264616, 0.000293547, 0.0016345
-0.0118955, 0.00291786, -0.587712, 0.000226631, -4.71321e-05, -5.58698e-06, 0.0297926, 0.0184484, 0.00390179, 0.000264161, 0.000293297, 0.00163264
-0.01191, 0.00290091, -0.587742, 0.000228061, -4.67291e-05, -8.82214e-06, 0.029789, 0.0184451, 0.00389488, 0.000263747, 0.000293052, 0.00163087
-0.0118888, 0.0028584, -0.587779, 0.000228362, -4.58508e-05, -1.16271e-05, 0.0297845, 0.0184421, 0.00388816, 0.000263368, 0.000292814, 0.00162919
-0.0119313, 0.00282517, -0.587836, 0.000230961, -4.53432e-05, -1.60375e-05, 0.029779, 0.0184393, 0.00388161, 0.000263015, 0.000292579, 0.0016276
-0.011937, 0.00280733, -0.587857, 0.000231692, -4.48841e-05, -1.82267e-05, 0.0297726, 0.0184367, 0.00387517, 0.000262683, 0.000292348, 0.00162608
-0.0119485, 0.00277723, -0.587894, 0.000232633, -4.43348e-05, -2.04855e-05, 0.0297654, 0.0184341, 0.0038688, 0.000262371, 0.000292119, 0.00162464
-0.0119357, 0.0027677, -0.587896, 0.000232708, -4.37898e-05, -2.25112e-05, 0.0297575, 0.0184316, 0.00386249, 0.000262072, 0.000291893, 0.00162328
-0.0119295, 0.00276519, -0.587889, 0.000232901, -4.33506e-05, -2.45598e-05, 0.0297489, 0.0184291, 0.00385625, 0.00026179, 0.000291673, 0.00162201
-0.011901, 0.00276435, -0.587875, 0.000232493, -4.29386e-05, -2.59594e-05, 0.0297396, 0.0184266, 0.00385009, 0.000261503, 0.000291439, 0.00162081
-0.0118762, 0.00276, -0.587872, 0.000232072, -4.26977e-05, -2.64058e-05, 0.0297297, 0.018424, 0.00384403, 0.00026123, 0.000291213, 0.00161971
-0.0117604, 0.00276009, -0.587848, 0.0002296, -4.2446e-05, -2.54237e-05, 0.0297194, 0.0184213, 0.00383803, 0.00026096, 0.000290984, 0.00161868
-0.011676, 0.00278018, -0.587799, 0.000227669, -4.25802e-05, -2.45742e-05, 0.0297087, 0.0184186, 0.00383209, 0.000260693, 0.000290753, 0.00161774
-0.0115195, 0.00278734, -0.587757, 0.000224347, -4.24142e-05, -2.34676e-05, 0.0296979, 0.018416, 0.00382621, 0.000260429, 0.000290517, 0.00161688
-0.0113837, 0.00280522, -0.587697, 0.00022137, -4.23921e-05, -2.28277e-05, 0.0296872, 0.0184133, 0.00382039, 0.000260167, 0.000290276, 0.0016161
-0.0111981, 0.00282427, -0.587637, 0.000217174, -4.25438e-05, -2.10636e-05, 0.0296767, 0.0184108, 0.00381463, 0.000259905, 0.000290029, 0.00161539
-0.0109924, 0.00286099, -0.587525, 0.000212287, -4.26547e-05, -2.03665e-05, 0.0296665, 0.0184084, 0.00380894, 0.000259644, 0.000289775, 0.00161476
-0.0109924, 0.00286099, -0.587525, 0.000212287, -4.26547e-05, -2.03665e-05, 0.0296666, 0.0184085, 0.00380961, 0.000259884, 0.00028999, 0.0016148
-0.0109924, 0.00286099, -0.587525, 0.000212287, -4.26547e-05, -2.03665e-05, 0.0296667, 0.0184086, 0.00381028, 0.000260126, 0.000290207, 0.00161484
-0.0109444, 0.00290639, -0.58744, 0.000209947, -4.36996e-05, -1.84944e-05, 0.0296554, 0.0184059, 0.0038034, 0.000259694, 0.00028977, 0.0016142
-0.0108574, 0.0029208, -0.587408, 0.000207344, -4.40806e-05, -1.74105e-05, 0.0296448, 0.0184032, 0.0037967, 0.00025928, 0.000289344, 0.00161364
-0.0107081, 0.00291215, -0.587389, 0.000203675, -4.35686e-05, -1.80059e-05, 0.0296346, 0.0184005, 0.00379016, 0.000258872, 0.000288923, 0.00161315
-0.0106196, 0.00287657, -0.587437, 0.00020252, -4.25027e-05, -1.9394e-05, 0.0296244, 0.0183977, 0.0037837, 0.000258464, 0.000288503, 0.00161273
-0.0105856, 0.00285092, -0.587491, 0.000202736, -4.18988e-05, -2.0124e-05, 0.0296138, 0.0183947, 0.00377732, 0.000258049, 0.000288078, 0.00161235
-0.0105417, 0.00281774, -0.587577, 0.000203454, -4.11751e-05, -2.09116e-05, 0.0296025, 0.0183914, 0.00377103, 0.000257628, 0.000287651, 0.00161203
-0.0104374, 0.00278174, -0.587656, 0.000202721, -4.05185e-05, -2.19551e-05, 0.0295904, 0.0183879, 0.00376475, 0.000257195, 0.000287218, 0.00161175
-0.0104893, 0.00277796, -0.587724, 0.000205427, -4.03568e-05, -2.18237e-05, 0.0295766, 0.0183839, 0.00375857, 0.000256752, 0.000286777, 0.00161151
-0.0103554, 0.00275429, -0.587739, 0.00020306, -4.01436e-05, -2.2788e-05, 0.029561, 0.0183795, 0.00375244, 0.0002563, 0.000286331, 0.0016113
-0.0101328, 0.0027237, -0.587771, 0.000199556, -4.0109e-05, -2.38847e-05, 0.0295434, 0.0183746, 0.00374634, 0.000255844, 0.000285879, 0.00161112
-0.0100381, 0.00271046, -0.58776, 0.000197501, -4.01582e-05, -2.45571e-05, 0.0295244, 0.0183693, 0.0037402, 0.000255387, 0.000285421, 0.00161096
-0.0100292, 0.00271822, -0.587776, 0.000197798, -4.0438e-05, -2.41725e-05, 0.0295041, 0.0183636, 0.00373406, 0.000254936, 0.00028496, 0.00161082
-0.0101136, 0.00272687, -0.587768, 0.000199086, -4.0401e-05, -2.35145e-05, 0.0294829, 0.0183576, 0.00372794, 0.000254496, 0.000284497, 0.00161071
-0.0100472, 0.00271758, -0.587753, 0.000197492, -4.04517e-05, -2.41505e-05, 0.0294615, 0.0183516, 0.0037218, 0.000254072, 0.000284036, 0.00161061
-0.00995627, 0.0027043, -0.587759, 0.000196022, -4.02983e-05, -2.53183e-05, 0.0294405, 0.0183455, 0.00371569, 0.000253666, 0.000283572, 0.00161053
-0.0100007, 0.002718, -0.587779, 0.000197444, -4.05137e-05, -2.45167e-05, 0.0294204, 0.0183395, 0.0037096, 0.000253284, 0.000283109, 0.00161046
-0.00995976, 0.00271383, -0.587786, 0.000196907, -4.04847e-05, -2.51542e-05, 0.0294016, 0.0183339, 0.00370361, 0.000252928, 0.00028265, 0.0016104
-0.00999199, 0.00271957, -0.58782, 0.000198587, -4.04955e-05, -2.45418e-05, 0.0293852, 0.0183287, 0.00369769, 0.000252602, 0.000282194, 0.00161034
-0.0099128, 0.00271245, -0.587865, 0.000198516, -4.03865e-05, -2.59528e-05, 0.0293714, 0.0183244, 0.00369194, 0.000252305, 0.000281745, 0.00161029
-0.00983727, 0.00270688, -0.587902, 0.000198256, -4.03465e-05, -2.7288e-05, 0.0293604, 0.018321, 0.00368638, 0.000252038, 0.000281303, 0.00161023
-0.00973283, 0.00270568, -0.587947, 0.000197663, -4.05791e-05, -2.91292e-05, 0.0293519, 0.0183185, 0.00368098, 0.000251797, 0.000280868, 0.00161018
-0.009757, 0.00271339, -0.587958, 0.000199235, -4.10241e-05, -2.77449e-05, 0.0293455, 0.0183168, 0.00367574, 0.000251581, 0.000280444, 0.00161014
-0.00962485, 0.00271066, -0.588017, 0.000198212, -4.09538e-05, -3.03902e-05, 0.0293407, 0.0183158, 0.00367064, 0.000251386, 0.000280026, 0.00161009
-0.00953165, 0.00271383, -0.588065, 0.000198188, -4.13582e-05, -3.16607e-05, 0.0293369, 0.0183152, 0.00366567, 0.00025121, 0.000279616, 0.00161004
-0.00949317, 0.00271279, -0.588079, 0.000195664, -4.10957e-05, -3.47048e-05, 0.0293339, 0.018315, 0.00366078, 0.000251049, 0.00027921, 0.00161
-0.00940592, 0.00271511, -0.588127, 0.000194725, -4.11187e-05, -3.69192e-05, 0.0293312, 0.018315, 0.00365595, 0.000250906, 0.000278811, 0.00160994
-0.00932267, 0.00271774, -0.588167, 0.000194996, -4.15693e-05, -3.77096e-05, 0.0293283, 0.0183151, 0.00365122, 0.000250774, 0.000278415, 0.00160989
-0.00923964, 0.00272178, -0.58822, 0.000193912, -4.18584e-05, -4.02492e-05, 0.0293252, 0.0183152, 0.00364654, 0.000250654, 0.000278025, 0.00160984
-0.00919216, 0.00272377, -0.58825, 0.00019344, -4.21803e-05, -4.16003e-05, 0.0293215, 0.0183153, 0.00364188, 0.000250543, 0.000277637, 0.00160978
-0.00917166, 0.00272753, -0.588281, 0.000192332, -4.21544e-05, -4.36405e-05, 0.0293172, 0.0183152, 0.00363721, 0.000250443, 0.000277254, 0.00160971
-0.00918141, 0.00272667, -0.588298, 0.000191201, -4.25992e-05, -4.56657e-05, 0.0293126, 0.0183149, 0.00363245, 0.000250353, 0.000276875, 0.00160963
-0.00918629, 0.00273098, -0.588341, 0.00018981, -4.27101e-05, -4.887e-05, 0.0293078, 0.0183145, 0.00362757, 0.000250274, 0.000276499, 0.00160954
-0.00925704, 0.0027337, -0.588367, 0.000187699, -4.26417e-05, -5.26531e-05, 0.0293025, 0.0183139, 0.00362254, 0.000250203, 0.000276126, 0.00160943
-0.00929483, 0.0027302, -0.588384, 0.000186586, -4.31272e-05, -5.51765e-05, 0.0292966, 0.0183131, 0.00361739, 0.00025014, 0.000275758, 0.0016093
-0.00937569, 0.00272605, -0.588401, 0.000184786, -4.35045e-05, -5.87221e-05, 0.0292898, 0.0183121, 0.00361213, 0.000250086, 0.000275392, 0.00160917
-0.00940903, 0.00272357, -0.588424, 0.000184118, -4.39776e-05, -6.10645e-05, 0.0292819, 0.0183109, 0.0036067, 0.000250039, 0.000275031, 0.00160902
-0.00943075, 0.00271755, -0.588452, 0.000183771, -4.49081e-05, -6.35843e-05, 0.029273, 0.0183093, 0.00360111, 0.000249993, 0.000274671, 0.00160887
-0.00941756, 0.00270477, -0.588458, 0.000183838, -4.59678e-05, -6.43975e-05, 0.029263, 0.0183076, 0.00359534, 0.000249947, 0.000274311, 0.0016087
-0.00962759, 0.00270617, -0.588511, 0.000181332, -4.62024e-05, -7.15428e-05, 0.0292518, 0.0183057, 0.00358934, 0.0002499, 0.000273951, 0.00160852
-0.00979763, 0.00269725, -0.588551, 0.000179441, -4.69349e-05, -7.75567e-05, 0.0292393, 0.0183038, 0.00358312, 0.000249851, 0.000273591, 0.00160831
-0.00987644, 0.00268044, -0.588564, 0.000178344, -4.79478e-05, -8.09266e-05, 0.0292251, 0.0183018, 0.00357667, 0.0002498, 0.00027323, 0.00160809
-0.0100716, 0.00266801, -0.588629, 0.000177965, -4.9575e-05, -8.80344e-05, 0.0292093, 0.0182998, 0.00357005, 0.000249748, 0.000272869, 0.00160784
-0.0101118, 0.00264478, -0.588658, 0.000178719, -5.17404e-05, -9.11824e-05, 0.029192, 0.0182978, 0.00356333, 0.000249694, 0.000272508, 0.00160759
-0.0101967, 0.00262339, -0.588687, 0.000178696, -5.3543e-05, -9.52219e-05, 0.0291741, 0.0182959, 0.00355661, 0.000249639, 0.000272148, 0.00160733
-0.0103425, 0.00260669, -0.588741, 0.000179471, -5.56546e-05, -0.000100669, 0.0291562, 0.0182941, 0.00354993, 0.000249582, 0.000271788, 0.00160708
-0.0104715, 0.00258824, -0.588776, 0.000179159, -5.7354e-05, -0.000105629, 0.0291381, 0.0182923, 0.00354327, 0.000249524, 0.000271429, 0.00160683
-0.0105814, 0.00257204, -0.588817, 0.000179865, -5.95539e-05, -0.000110175, 0.0291202, 0.0182908, 0.00353664, 0.000249467, 0.000271071, 0.00160659
-0.0105025, 0.00254256, -0.588803, 0.000179799, -6.17185e-05, -0.000111235, 0.029102, 0.0182894, 0.00352999, 0.000249408, 0.000270712, 0.00160636
-0.010239, 0.00250843, -0.588758, 0.000181186, -6.46651e-05, -0.00010887, 0.0290832, 0.0182881, 0.00352331, 0.000249347, 0.000270354, 0.00160613
-0.010232, 0.00249653, -0.58877, 0.000182373, -6.69132e-05, -0.000110718, 0.0290643, 0.0182871, 0.00351662, 0.000249284, 0.000269996, 0.00160591
-0.00994346, 0.00247505, -0.588723, 0.000184481, -6.94542e-05, -0.000107512, 0.0290447, 0.0182862, 0.0035099, 0.000249217, 0.000269636, 0.00160569
-0.00976421, 0.00244995, -0.588687, 0.000184398, -7.12092e-05, -0.000107007, 0.0290251, 0.0182854, 0.00350317, 0.000249148, 0.000269276, 0.00160549
-0.009972, 0.00244947, -0.588733, 0.000183561, -7.24288e-05, -0.000112319, 0.0290051, 0.0182846, 0.0034964, 0.00024907, 0.000268912, 0.0016053
-0.0101083, 0.00244508, -0.588763, 0.000182666, -7.36936e-05, -0.000116537, 0.0289846, 0.018284, 0.00348957, 0.00024899, 0.000268548, 0.00160512
-0.0102168, 0.00243658, -0.588786, 0.000181238, -7.48256e-05, -0.000120426, 0.0289639, 0.0182834, 0.00348268, 0.000248902, 0.000268177, 0.00160494
-0.0102437, 0.00243156, -0.588795, 0.000180942, -7.63111e-05, -0.000122978, 0.0289426, 0.0182828, 0.00347571, 0.000248807, 0.000267802, 0.00160477
-0.0101613, 0.00240527, -0.588777, 0.00017866, -7.71573e-05, -0.000124545, 0.0289209, 0.0182824, 0.00346866, 0.000248701, 0.00026742, 0.00160461
-0.0100946, 0.00237676, -0.588763, 0.000175711, -7.77404e-05, -0.000126139, 0.0288983, 0.0182819, 0.0034615, 0.000248587, 0.000267034, 0.00160444
-0.0101968, 0.00236611, -0.588786, 0.000173062, -7.82033e-05, -0.000128777, 0.0288753, 0.0182814, 0.00345423, 0.000248457, 0.000266638, 0.00160429
-0.0101626, 0.00235163, -0.588784, 0.000171151, -7.92395e-05, -0.000130559, 0.0288515, 0.0182809, 0.00344682, 0.000248316, 0.000266235, 0.00160413
-0.0101387, 0.00235066, -0.588783, 0.000170768, -8.03892e-05, -0.000132096, 0.028827, 0.0182804, 0.00343929, 0.00024816, 0.000265825, 0.00160397
-0.0100179, 0.00233322, -0.588763, 0.000169348, -8.11919e-05, -0.000132691, 0.0288026, 0.0182798, 0.00343166, 0.000247989, 0.000265407, 0.00160381
-0.00996199, 0.00231289, -0.588759, 0.00016664, -8.14043e-05, -0.000132579, 0.0287782, 0.018279, 0.00342393, 0.0002478, 0.000264981, 0.00160365
-0.00989825, 0.00230671, -0.588751, 0.000165787, -8.21442e-05, -0.000133204, 0.0287545, 0.018278, 0.00341611, 0.000247593, 0.000264546, 0.00160348
-0.00995736, 0.00230103, -0.588776, 0.000163084, -8.16851e-05, -0.000131457, 0.0287317, 0.0182768, 0.00340823, 0.000247368, 0.000264102, 0.00160329
-0.00993646, 0.00228481, -0.588784, 0.000160076, -8.12098e-05, -0.000128944, 0.0287098, 0.0182754, 0.0034003, 0.000247124, 0.000263649, 0.00160307
-0.00991955, 0.00227314, -0.588794, 0.000157493, -8.07645e-05, -0.0001262, 0.0286888, 0.0182738, 0.00339235, 0.000246863, 0.000263186, 0.00160281
-0.00978827, 0.00222152, -0.588782, 0.000152614, -7.90954e-05, -0.000119746, 0.028669, 0.0182721, 0.00338443, 0.000246585, 0.000262717, 0.00160251
-0.00967653, 0.00218388, -0.588768, 0.000149298, -7.79947e-05, -0.000114964, 0.0286505, 0.0182701, 0.00337656, 0.000246293, 0.00026224, 0.00160215
-0.00962295, 0.00215206, -0.588781, 0.000145, -7.61364e-05, -0.000106473, 0.0286335, 0.0182679, 0.00336879, 0.000245989, 0.00026176, 0.00160173
-0.00941632, 0.00208762, -0.588738, 0.000141203, -7.50591e-05, -0.000101457, 0.0286175, 0.0182655, 0.00336108, 0.000245676, 0.000261277, 0.00160123
-0.00918048, 0.00201113, -0.58869, 0.000137018, -7.37929e-05, -9.55206e-05, 0.0286018, 0.0182627, 0.0033534, 0.000245357, 0.000260794, 0.00160067
-0.00897333, 0.00194024, -0.588646, 0.000133573, -7.25383e-05, -9.00731e-05, 0.0285855, 0.0182597, 0.00334569, 0.000245038, 0.000260315, 0.00160005
-0.008714, 0.00184676, -0.588599, 0.00012857, -7.0325e-05, -8.00719e-05, 0.0285687, 0.0182563, 0.00333799, 0.000244717, 0.000259839, 0.00159937
-0.00857988, 0.00180442, -0.588561, 0.000127736, -7.02843e-05, -8.0381e-05, 0.0285511, 0.0182525, 0.00333032, 0.000244399, 0.00025937, 0.00159864
-0.0084752, 0.00176323, -0.588519, 0.000127974, -7.04485e-05, -8.33353e-05, 0.0285325, 0.0182484, 0.0033227, 0.000244081, 0.000258906, 0.00159784
-0.00835516, 0.00172934, -0.588486, 0.000127423, -7.06218e-05, -8.42586e-05, 0.0285127, 0.018244, 0.00331515, 0.000243765, 0.000258447, 0.00159699
-0.0083846, 0.00175177, -0.588512, 0.000126321, -7.03293e-05, -7.98764e-05, 0.0284919, 0.0182395, 0.00330769, 0.000243452, 0.000257994, 0.00159607
-0.00829502, 0.00172834, -0.588507, 0.000124346, -6.93468e-05, -7.37553e-05, 0.0284704, 0.0182347, 0.00330034, 0.000243135, 0.000257544, 0.00159507
-0.00795916, 0.00166151, -0.588474, 0.000118785, -6.75788e-05, -5.86048e-05, 0.0284481, 0.0182299, 0.00329311, 0.000242819, 0.0002571, 0.00159399
-0.00785313, 0.00163411, -0.588438, 0.000119159, -6.82678e-05, -6.2742e-05, 0.028425, 0.0182248, 0.00328596, 0.0002425, 0.000256659, 0.00159285
-0.00798045, 0.00167449, -0.588467, 0.000120023, -6.87164e-05, -6.43104e-05, 0.0284008, 0.0182197, 0.0032789, 0.000242187, 0.000256226, 0.00159165
-0.00777192, 0.0016478, -0.588453, 0.000116626, -6.78522e-05, -5.39698e-05, 0.0283753, 0.0182143, 0.00327191, 0.000241867, 0.000255795, 0.00159037
-0.00772537, 0.00165149, -0.588457, 0.000115409, -6.76124e-05, -4.97384e-05, 0.0283483, 0.0182088, 0.00326496, 0.000241548, 0.00025537, 0.00158904
-0.00752504, 0.00161401, -0.588427, 0.000113485, -6.72041e-05, -4.47419e-05, 0.0283202, 0.0182031, 0.00325809, 0.000241224, 0.000254948, 0.00158765
-0.00740425, 0.00160535, -0.588419, 0.000111717, -6.69142e-05, -3.9133e-05, 0.0282911, 0.0181972, 0.00325131, 0.000240901, 0.000254531, 0.0015862
-0.00752007, 0.00164392, -0.588435, 0.000113223, -6.81268e-05, -4.53908e-05, 0.028261, 0.0181911, 0.00324461, 0.000240573, 0.000254116, 0.00158469
-0.00744733, 0.001644, -0.588424, 0.000112801, -6.8636e-05, -4.55168e-05, 0.0282304, 0.018185, 0.00323803, 0.000240243, 0.000253704, 0.00158312
-0.00728972, 0.00162745, -0.588402, 0.00011149, -6.8758e-05, -4.24275e-05, 0.0281987, 0.0181788, 0.00323152, 0.00023991, 0.000253293, 0.0015815
-0.00738891, 0.00165684, -0.588414, 0.000112802, -6.97527e-05, -4.81914e-05, 0.0281666, 0.0181725, 0.00322513, 0.000239575, 0.000252885, 0.00157982
-0.00725923, 0.00164335, -0.588393, 0.000112026, -7.007e-05, -4.70777e-05, 0.0281337, 0.0181661, 0.00321882, 0.000239235, 0.000252477, 0.0015781
-0.0070344, 0.00162417, -0.588376, 0.000109117, -6.93359e-05, -3.63278e-05, 0.0280992, 0.0181597, 0.0032125, 0.000238893, 0.00025207, 0.00157636
-0.00683465, 0.00160481, -0.588354, 0.000107071, -6.90177e-05, -2.93967e-05, 0.0280634, 0.0181531, 0.00320617, 0.000238546, 0.000251664, 0.00157459
-0.00681184, 0.00160416, -0.58835, 0.000107072, -6.9223e-05, -2.99451e-05, 0.0280264, 0.0181464, 0.00319986, 0.000238195, 0.000251261, 0.00157281
-0.00673078, 0.00160508, -0.588343, 0.000106256, -6.93519e-05, -2.75435e-05, 0.0279883, 0.0181395, 0.00319357, 0.000237838, 0.000250856, 0.00157102
-0.00654539, 0.00159679, -0.588344, 0.000102686, -6.78689e-05, -1.21204e-05, 0.0279492, 0.0181327, 0.00318731, 0.000237476, 0.000250451, 0.00156921
-0.006398, 0.00159386, -0.588343, 0.000100037, -6.69399e-05, -9.97245e-07, 0.0279092, 0.0181257, 0.00318105, 0.000237108, 0.000250047, 0.00156737
-0.0064991, 0.00161179, -0.588357, 0.000100882, -6.72735e-05, -4.25205e-06, 0.0278682, 0.0181187, 0.00317479, 0.000236731, 0.000249642, 0.00156553
-0.00625735, 0.00158254, -0.588334, 9.82009e-05, -6.63173e-05, 6.48412e-06, 0.0278259, 0.0181116, 0.00316851, 0.000236348, 0.000249234, 0.00156369
-0.00609254, 0.00156159, -0.588308, 9.73315e-05, -6.63611e-05, 9.00386e-06, 0.0277813, 0.0181045, 0.00316209, 0.00023596, 0.000248827, 0.00156187
-0.00594873, 0.00153837, -0.588284, 9.67178e-05, -6.62986e-05, 1.09371e-05, 0.0277337, 0.0180973, 0.00315546, 0.000235564, 0.000248416, 0.00156008
-0.00577125, 0.0015117, -0.588265, 9.49013e-05, -6.54605e-05, 1.85171e-05, 0.027682, 0.01809, 0.00314856, 0.000235162, 0.000248004, 0.00155834
-0.00572732, 0.00149991, -0.588261, 9.4347e-05, -6.50238e-05, 2.11514e-05, 0.0276273, 0.0180828, 0.00314147, 0.000234751, 0.000247589, 0.00155661
-0.00530173, 0.00144749, -0.588211, 9.09953e-05, -6.3882e-05, 3.4445e-05, 0.0275681, 0.0180755, 0.00313408, 0.000234331, 0.000247173, 0.00155492
-0.0051865, 0.00143077, -0.588209, 8.86663e-05, -6.2615e-05, 4.42993e-05, 0.0275049, 0.0180682, 0.0031264, 0.000233904, 0.000246757, 0.00155326
-0.00501992, 0.00139437, -0.588183, 8.79847e-05, -6.2007e-05, 4.78501e-05, 0.0274384, 0.0180609, 0.00311852, 0.00023347, 0.000246341, 0.00155163
-0.00459026, 0.00135486, -0.588135, 8.49816e-05, -6.12935e-05, 5.94169e-05, 0.0273699, 0.0180537, 0.00311053, 0.000233033, 0.000245926, 0.00155004
-0.00448351, 0.00133934, -0.588134, 8.25848e-05, -5.99977e-05, 6.91875e-05, 0.0273004, 0.0180465, 0.00310252, 0.000232602, 0.000245518, 0.00154847
-0.00423195, 0.00132017, -0.58811, 8.0411e-05, -5.9413e-05, 7.74831e-05, 0.0272288, 0.0180394, 0.0030944, 0.000232168, 0.000245112, 0.00154694
-0.00426201, 0.00131938, -0.58813, 7.82754e-05, -5.80983e-05, 8.57335e-05, 0.0271574, 0.0180324, 0.00308632, 0.000231742, 0.000244712, 0.00154545
-0.00403712, 0.0012921, -0.588104, 7.67596e-05, -5.7439e-05, 9.21649e-05, 0.0270856, 0.0180257, 0.00307826, 0.000231321, 0.000244318, 0.001544
-0.00397576, 0.00128109, -0.5881, 7.58317e-05, -5.68692e-05, 9.59947e-05, 0.0270128, 0.018019, 0.00307017, 0.000230909, 0.000243931, 0.00154259
-0.00401279, 0.00129152, -0.588107, 7.577e-05, -5.70371e-05, 9.5642e-05, 0.0269382, 0.0180126, 0.00306205, 0.000230503, 0.00024355, 0.00154123
-0.00396275, 0.00130135, -0.588121, 7.27942e-05, -5.61168e-05, 0.000105171, 0.0268621, 0.0180064, 0.00305392, 0.000230103, 0.000243174, 0.00153989
-0.00422307, 0.00133554, -0.588156, 7.37184e-05, -5.68179e-05, 9.99235e-05, 0.0267838, 0.0180004, 0.00304579, 0.000229707, 0.000242805, 0.00153857
-0.00432204, 0.001365, -0.588168, 7.4508e-05, -5.7895e-05, 9.53758e-05, 0.0267052, 0.0179947, 0.0030378, 0.000229317, 0.000242441, 0.00153727
-0.00448636, 0.00139221, -0.588188, 7.54191e-05, -5.87764e-05, 9.04502e-05, 0.026627, 0.0179893, 0.00302997, 0.000228933, 0.000242079, 0.00153598
-0.00474784, 0.00142914, -0.588225, 7.59405e-05, -5.95982e-05, 8.58772e-05, 0.0265504, 0.0179842, 0.00302237, 0.000228558, 0.000241724, 0.0015347
-0.00495102, 0.00146264, -0.588248, 7.73772e-05, -6.09131e-05, 7.86318e-05, 0.0264759, 0.0179795, 0.003015, 0.000228193, 0.000241373, 0.00153345
-0.00482818, 0.0014857, -0.58825, 7.47561e-05, -6.10252e-05, 8.53623e-05, 0.0264036, 0.0179749, 0.00300785, 0.000227842, 0.00024103, 0.00153222
-0.00482767, 0.00151009, -0.588257, 7.39906e-05, -6.16696e-05, 8.58958e-05, 0.0263334, 0.0179706, 0.00300089, 0.000227502, 0.000240694, 0.00153102
-0.00469615, 0.00153171, -0.588252, 7.22508e-05, -6.21888e-05, 8.98027e-05, 0.026265, 0.0179665, 0.00299413, 0.000227178, 0.000240367, 0.00152984
-0.00481002, 0.00155332, -0.588259, 7.41197e-05, -6.35951e-05, 8.21233e-05, 0.026199, 0.0179625, 0.00298757, 0.000226867, 0.000240046, 0.0015287
-0.00465998, 0.00156992, -0.588238, 7.47485e-05, -6.51718e-05, 7.87825e-05, 0.0261366, 0.0179586, 0.00298126, 0.000226572, 0.000239732, 0.00152759
-0.00480116, 0.00159073, -0.588256, 7.5356e-05, -6.58045e-05, 7.52528e-05, 0.0260781, 0.0179549, 0.0029752, 0.00022629, 0.000239421, 0.00152653
-0.00473825, 0.00160386, -0.588245, 7.59121e-05, -6.69517e-05, 7.22571e-05, 0.0260239, 0.0179513, 0.00296936, 0.00022602, 0.000239113, 0.0015255
-0.00450174, 0.00160964, -0.588218, 7.51914e-05, -6.79664e-05, 7.33908e-05, 0.0259735, 0.0179478, 0.00296373, 0.000225765, 0.000238812, 0.00152451
-0.00455037, 0.00162003, -0.588218, 7.65733e-05, -6.89598e-05, 6.82153e-05, 0.0259267, 0.0179444, 0.00295828, 0.00022552, 0.000238513, 0.00152356
-0.00441269, 0.00163161, -0.588211, 7.46775e-05, -6.91591e-05, 7.26657e-05, 0.0258832, 0.017941, 0.00295297, 0.000225284, 0.000238215, 0.00152265
-0.00442948, 0.0016365, -0.588206, 7.60773e-05, -7.01294e-05, 6.77429e-05, 0.0258422, 0.0179377, 0.00294779, 0.000225057, 0.00023792, 0.00152177
-0.00430011, 0.00164931, -0.588195, 7.49139e-05, -7.08453e-05, 6.94652e-05, 0.0258036, 0.0179345, 0.0029427, 0.000224834, 0.000237623, 0.0015209
-0.00410345, 0.00164571, -0.588166, 7.49101e-05, -7.20708e-05, 6.80093e-05, 0.0257669, 0.0179314, 0.00293769, 0.000224618, 0.000237328, 0.00152006
-0.00400113, 0.00164876, -0.588151, 7.47615e-05, -7.29007e-05, 6.71341e-05, 0.0257323, 0.0179283, 0.00293272, 0.000224403, 0.000237031, 0.00151923
-0.00411399, 0.00167365, -0.588169, 7.53383e-05, -7.35675e-05, 6.41997e-05, 0.0256993, 0.0179253, 0.00292781, 0.000224192, 0.000236733, 0.0015184
-0.00418096, 0.0017004, -0.588188, 7.45586e-05, -7.37248e-05, 6.54274e-05, 0.0256678, 0.0179223, 0.00292292, 0.000223985, 0.000236435, 0.00151759
-0.00426855, 0.00170529, -0.588187, 7.72264e-05, -7.51297e-05, 5.65154e-05, 0.0256386, 0.0179193, 0.00291809, 0.000223779, 0.000236134, 0.00151676
-0.00428746, 0.00171923, -0.588191, 7.75749e-05, -7.59108e-05, 5.41244e-05, 0.0256116, 0.0179165, 0.0029133, 0.000223571, 0.000235826, 0.00151593
-0.00430725, 0.00172876, -0.588192, 7.82924e-05, -7.67444e-05, 5.07975e-05, 0.025587, 0.0179136, 0.00290856, 0.000223365, 0.000235516, 0.00151508
-0.00440449, 0.0017656, -0.588224, 7.69043e-05, -7.62415e-05, 5.53454e-05, 0.0255644, 0.0179108, 0.00290385, 0.000223158, 0.000235203, 0.00151421
-0.00437381, 0.00177213, -0.588222, 7.65175e-05, -7.65988e-05, 5.5632e-05, 0.0255439, 0.017908, 0.00289916, 0.000222951, 0.000234888, 0.00151333
-0.00448549, 0.00180106, -0.588251, 7.62972e-05, -7.62131e-05, 5.74365e-05, 0.0255255, 0.0179052, 0.00289451, 0.000222743, 0.00023457, 0.00151242
-0.00452407, 0.001832, -0.588278, 7.44622e-05, -7.5296e-05, 6.45674e-05, 0.0255092, 0.0179024, 0.00288991, 0.000222537, 0.000234251, 0.00151148
-0.00439527, 0.00180587, -0.588248, 7.37415e-05, -7.54414e-05, 6.54488e-05, 0.0254949, 0.0178997, 0.00288538, 0.00022233, 0.000233932, 0.00151051
-0.00425699, 0.00178661, -0.588224, 7.19108e-05, -7.50961e-05, 7.02656e-05, 0.0254827, 0.017897, 0.00288096, 0.000222125, 0.000233612, 0.00150951
-0.00410633, 0.00178022, -0.588206, 6.88141e-05, -7.42845e-05, 7.97932e-05, 0.0254725, 0.0178945, 0.00287666, 0.000221924, 0.000233296, 0.00150847
-0.00405825, 0.00174917, -0.588182, 6.87935e-05, -7.39187e-05, 7.95864e-05, 0.0254638, 0.0178921, 0.00287248, 0.000221726, 0.000232982, 0.0015074
-0.00402178, 0.00173636, -0.588167, 6.8517e-05, -7.39712e-05, 7.95726e-05, 0.0254568, 0.0178898, 0.00286845, 0.000221535, 0.000232673, 0.00150629
-0.00402765, 0.00170993, -0.588144, 6.97976e-05, -7.46082e-05, 7.32728e-05, 0.0254511, 0.0178876, 0.00286459, 0.00022135, 0.000232371, 0.00150513
-0.00396373, 0.001735, -0.588156, 6.73303e-05, -7.39682e-05, 8.27806e-05, 0.0254466, 0.0178856, 0.0028609, 0.000221171, 0.000232074, 0.00150394
-0.00399179, 0.00174985, -0.588172, 6.7875e-05, -7.41373e-05, 8.17176e-05, 0.0254429, 0.0178837, 0.00285733, 0.000221, 0.000231788, 0.00150271
-0.00393873, 0.00177191, -0.588179, 6.58572e-05, -7.38378e-05, 8.92871e-05, 0.0254396, 0.0178819, 0.00285385, 0.000220833, 0.000231509, 0.00150145
-0.00391484, 0.00179674, -0.58819, 6.47257e-05, -7.38487e-05, 9.38077e-05, 0.0254367, 0.01788, 0.00285044, 0.000220672, 0.000231241, 0.00150016
-0.00388949, 0.00182677, -0.588203, 6.35148e-05, -7.41779e-05, 9.81234e-05, 0.025434, 0.0178781, 0.00284712, 0.000220513, 0.000230981, 0.00149885
-0.00392454, 0.00183629, -0.588213, 6.46618e-05, -7.4832e-05, 9.35452e-05, 0.0254315, 0.0178763, 0.00284392, 0.000220358, 0.000230729, 0.00149752
-0.00388865, 0.00182292, -0.588197, 6.36066e-05, -7.46894e-05, 9.65452e-05, 0.0254291, 0.0178745, 0.0028408, 0.000220206, 0.000230485, 0.00149617
-0.00390378, 0.00186292, -0.588225, 6.33978e-05, -7.48569e-05, 9.86838e-05, 0.0254268, 0.0178728, 0.00283774, 0.00022006, 0.000230251, 0.00149484
-0.00387132, 0.001925, -0.588259, 6.07895e-05, -7.39168e-05, 0.000111901, 0.0254246, 0.0178712, 0.00283473, 0.000219915, 0.000230022, 0.0014935
-0.00388756, 0.00195748, -0.588285, 6.05131e-05, -7.3599e-05, 0.000114869, 0.0254224, 0.0178697, 0.00283177, 0.00021977, 0.000229799, 0.00149216
-0.00385916, 0.00199444, -0.588301, 5.84283e-05, -7.29711e-05, 0.000124593, 0.0254202, 0.0178682, 0.00282884, 0.000219623, 0.000229579, 0.00149083
-0.00387984, 0.00203045, -0.588329, 5.78441e-05, -7.24628e-05, 0.000128958, 0.0254178, 0.0178668, 0.00282592, 0.000219478, 0.000229366, 0.00148951
-0.00391266, 0.00205204, -0.588349, 5.80668e-05, -7.23355e-05, 0.000129255, 0.0254154, 0.0178654, 0.00282301, 0.000219329, 0.000229153, 0.00148821
-0.00392066, 0.00206933, -0.588361, 5.75717e-05, -7.20724e-05, 0.000132032, 0.0254129, 0.0178641, 0.00282012, 0.000219179, 0.000228943, 0.00148692
-0.00394782, 0.00207667, -0.588372, 5.80253e-05, -7.20484e-05, 0.000130802, 0.0254102, 0.0178629, 0.00281723, 0.000219025, 0.000228732, 0.00148566
-0.00394632, 0.00209342, -0.588381, 5.70887e-05, -7.16845e-05, 0.000135123, 0.0254074, 0.0178618, 0.00281434, 0.000218867, 0.000228521, 0.00148442
-0.00395358, 0.00207721, -0.588374, 5.81957e-05, -7.20034e-05, 0.000130394, 0.0254045, 0.0178608, 0.00281143, 0.000218704, 0.00022831, 0.00148321
-0.00398396, 0.00207451, -0.58838, 5.90997e-05, -7.20187e-05, 0.000127286, 0.0254014, 0.0178598, 0.00280851, 0.000218539, 0.000228098, 0.00148202
-0.00402076, 0.00207796, -0.588392, 5.97488e-05, -7.19588e-05, 0.000125322, 0.0253981, 0.0178589, 0.00280557, 0.000218365, 0.000227881, 0.00148087
-0.00402668, 0.00208396, -0.588397, 5.93741e-05, -7.15293e-05, 0.000127356, 0.0253947, 0.017858, 0.00280261, 0.000218189, 0.000227664, 0.00147974
-0.00400569, 0.00209496, -0.588397, 5.80205e-05, -7.09509e-05, 0.000132858, 0.0253911, 0.0178572, 0.00279962, 0.000218005, 0.000227443, 0.00147865
-0.00403505, 0.00210137, -0.588408, 5.80553e-05, -7.05649e-05, 0.000133408, 0.0253873, 0.0178564, 0.00279661, 0.000217823, 0.000227228, 0.0014776
-0.00404026, 0.0021063, -0.588412, 5.76808e-05, -7.02154e-05, 0.000135158, 0.0253831, 0.0178557, 0.00279349, 0.000217627, 0.000227001, 0.00147659
-0.00400002, 0.0020839, -0.588393, 5.86307e-05, -7.02274e-05, 0.000132039, 0.0253784, 0.017855, 0.00279031, 0.000217434, 0.000226779, 0.00147562
-0.00398462, 0.00208798, -0.58839, 5.77232e-05, -6.92749e-05, 0.000136173, 0.0253728, 0.0178543, 0.00278701, 0.000217237, 0.000226555, 0.00147472
-0.00391374, 0.00206508, -0.588365, 5.84383e-05, -6.88726e-05, 0.000134723, 0.0253665, 0.0178537, 0.00278364, 0.000217039, 0.000226332, 0.00147385
-0.00389609, 0.00205808, -0.588358, 5.8612e-05, -6.81457e-05, 0.000135237, 0.0253587, 0.0178532, 0.00278012, 0.000216838, 0.000226108, 0.00147305
-0.00386432, 0.00205176, -0.588348, 5.86356e-05, -6.7352e-05, 0.000136347, 0.0253495, 0.0178528, 0.00277647, 0.000216636, 0.000225884, 0.00147229
-0.00380266, 0.0020639, -0.588338, 5.65823e-05, -6.61526e-05, 0.000143839, 0.025339, 0.0178523, 0.00277273, 0.000216431, 0.00022566, 0.00147157
-0.00379981, 0.00207551, -0.588339, 5.50965e-05, -6.49386e-05, 0.000149313, 0.0253282, 0.0178519, 0.00276897, 0.00021623, 0.000225441, 0.00147089
-0.003827, 0.00207503, -0.588344, 5.52223e-05, -6.43357e-05, 0.000149526, 0.0253171, 0.0178516, 0.00276521, 0.00021603, 0.000225225, 0.00147024
-0.0037638, 0.00208235, -0.588332, 5.39603e-05, -6.35665e-05, 0.000154165, 0.0253066, 0.0178513, 0.0027615, 0.000215834, 0.000225013, 0.00146963
-0.00372528, 0.00208235, -0.588323, 5.36853e-05, -6.29471e-05, 0.000155912, 0.0252957, 0.017851, 0.00275779, 0.000215643, 0.000224805, 0.00146905
-0.00374174, 0.00209326, -0.588328, 5.25476e-05, -6.2273e-05, 0.000159269, 0.0252857, 0.0178507, 0.00275415, 0.00021546, 0.000224605, 0.00146851
-0.00371552, 0.00209303, -0.588322, 5.2394e-05, -6.19014e-05, 0.000160332, 0.0252769, 0.0178504, 0.00275061, 0.000215284, 0.000224409, 0.001468
-0.0037152, 0.0020932, -0.588321, 5.23899e-05, -6.15799e-05, 0.000160724, 0.0252704, 0.0178501, 0.00274725, 0.000215114, 0.000224216, 0.00146751
-0.00371974, 0.00211256, -0.588326, 5.02958e-05, -6.08454e-05, 0.000166148, 0.0252657, 0.0178498, 0.00274406, 0.000214952, 0.000224029, 0.00146706
-0.00369895, 0.0021206, -0.58832, 4.91538e-05, -6.05912e-05, 0.000169244, 0.0252627, 0.0178495, 0.00274104, 0.000214798, 0.000223847, 0.00146663
-0.00371681, 0.00214208, -0.588332, 4.70822e-05, -6.01031e-05, 0.000173821, 0.0252607, 0.0178492, 0.00273815, 0.000214652, 0.00022367, 0.00146623
-0.00371229, 0.00215269, -0.588332, 4.58531e-05, -5.96525e-05, 0.000176931, 0.0252595, 0.0178489, 0.00273538, 0.000214513, 0.000223498, 0.00146587
-0.00354706, 0.00213693, -0.588215, 4.19433e-05, -6.00444e-05, 0.000188784, 0.0252588, 0.0178486, 0.00273269, 0.000214379, 0.000223329, 0.00146555
-0.00356666, 0.00214685, -0.588235, 4.18085e-05, -5.96502e-05, 0.000188713, 0.0252585, 0.0178483, 0.00273011, 0.000214259, 0.000223172, 0.00146526
-0.00356354, 0.0021428, -0.588225, 4.19881e-05, -5.9281e-05, 0.000189104, 0.0252583, 0.017848, 0.0027276, 0.000214136, 0.000223009, 0.00146501
-0.00356421, 0.00215433, -0.588233, 4.09654e-05, -5.88466e-05, 0.000191, 0.0252583, 0.0178478, 0.00272518, 0.000214023, 0.000222855, 0.00146478
-0.00356071, 0.00217151, -0.588246, 3.9398e-05, -5.84468e-05, 0.000193446, 0.0252583, 0.0178475, 0.00272285, 0.000213915, 0.000222703, 0.00146459
-0.003576, 0.00216361, -0.588136, 3.52887e-05, -5.90141e-05, 0.000203102, 0.0252583, 0.0178473, 0.00272057, 0.000213811, 0.000222554, 0.00146442
-0.00358527, 0.00214908, -0.588117, 3.63698e-05, -5.91537e-05, 0.000202204, 0.0252582, 0.0178471, 0.00271832, 0.000213713, 0.000222411, 0.00146429
-0.00358135, 0.00215444, -0.588124, 3.60621e-05, -5.88525e-05, 0.000202613, 0.0252581, 0.0178468, 0.00271615, 0.000213619, 0.000222271, 0.00146417
-0.00357214, 0.00216366, -0.588136, 3.55953e-05, -5.82623e-05, 0.000203274, 0.0252578, 0.0178466, 0.00271402, 0.000213527, 0.000222131, 0.00146407
-0.00355123, 0.00217278, -0.588154, 3.54311e-05, -5.79377e-05, 0.000203123, 0.0252573, 0.0178464, 0.00271194, 0.000213438, 0.000221994, 0.00146399
-0.00369031, 0.00215556, -0.588054, 3.20312e-05, -5.86143e-05, 0.000209331, 0.0252566, 0.0178462, 0.0027099, 0.000213351, 0.000221855, 0.00146391
-0.003788, 0.00214096, -0.587994, 3.04872e-05, -5.90593e-05, 0.000212465, 0.0252558, 0.017846, 0.00270789, 0.000213266, 0.00022172, 0.00146385
-0.00383994, 0.0021484, -0.58797, 2.79618e-05, -5.90071e-05, 0.000215559, 0.0252548, 0.0178457, 0.00270591, 0.000213184, 0.000221584, 0.00146379
-0.00379484, 0.00215628, -0.587993, 2.85436e-05, -5.85866e-05, 0.000214706, 0.0252535, 0.0178454, 0.00270395, 0.000213102, 0.000221448, 0.00146372
-0.00392102, 0.00214725, -0.587941, 2.57059e-05, -5.92756e-05, 0.000218072, 0.025252, 0.017845, 0.002702, 0.000213019, 0.00022131, 0.00146364
-0.00386705, 0.00216142, -0.587967, 2.58296e-05, -5.88779e-05, 0.000217605, 0.0252502, 0.0178445, 0.00270007, 0.000212938, 0.000221174, 0.00146356
-0.0038681, 0.0021576, -0.587963, 2.6385e-05, -5.87295e-05, 0.000217381, 0.025248, 0.0178439, 0.00269816, 0.000212853, 0.000221035, 0.00146347
-0.00409039, 0.00210185, -0.587875, 2.50796e-05, -6.01617e-05, 0.000219228, 0.0252456, 0.0178431, 0.00269626, 0.000212767, 0.000220897, 0.00146337
-0.00400349, 0.00209293, -0.587891, 2.7569e-05, -6.04362e-05, 0.000215946, 0.0252429, 0.0178422, 0.00269436, 0.00021268, 0.000220762, 0.00146326
-0.00395003, 0.00209011, -0.5879, 2.90198e-05, -6.04112e-05, 0.000214131, 0.0252398, 0.0178412, 0.0026925, 0.000212592, 0.000220628, 0.00146314
-0.00391626, 0.00211262, -0.587921, 2.81107e-05, -6.00816e-05, 0.000215456, 0.0252365, 0.0178402, 0.00269068, 0.000212502, 0.000220494, 0.001463
-0.00391626, 0.00211262, -0.587921, 2.81107e-05, -6.00816e-05, 0.000215456, 0.0252366, 0.0178403, 0.00269163, 0.000212795, 0.000220776, 0.00146304
-0.00376588, 0.0021487, -0.587969, 2.88021e-05, -5.95413e-05, 0.000215045, 0.0252327, 0.0178391, 0.00268957, 0.000212644, 0.000220583, 0.00146281
-0.00376971, 0.0021746, -0.587982, 2.6704e-05, -5.9428e-05, 0.000219172, 0.0252289, 0.0178379, 0.00268757, 0.0002125, 0.000220397, 0.00146252
-0.00376971, 0.0021746, -0.587982, 2.6704e-05, -5.9428e-05, 0.000219172, 0.025229, 0.017838, 0.00268852, 0.000212793, 0.000220679, 0.00146257
-0.00372428, 0.00220423, -0.588004, 2.58798e-05, -5.90252e-05, 0.00022185, 0.0252257, 0.0178368, 0.00268627, 0.000212599, 0.000220439, 0.00146214
-0.00366144, 0.00223434, -0.588029, 2.54867e-05, -5.88231e-05, 0.000223604, 0.0252228, 0.0178356, 0.0026841, 0.000212431, 0.000220217, 0.00146167
-0.00361869, 0.00225124, -0.588045, 2.55126e-05, -5.89432e-05, 0.00022385, 0.0252203, 0.0178344, 0.00268202, 0.00021229, 0.00022001, 0.00146116
-0.00355532, 0.00227366, -0.588068, 2.6126e-05, -5.90108e-05, 0.000222757, 0.0252183, 0.0178331, 0.00268, 0.000212174, 0.000219813, 0.0014606
-0.00351371, 0.00230653, -0.588088, 2.55688e-05, -5.8835e-05, 0.000225325, 0.0252166, 0.0178318, 0.00267807, 0.000212087, 0.000219628, 0.00145999
-0.00351287, 0.00229216, -0.588085, 2.65593e-05, -5.90175e-05, 0.000221793, 0.0252154, 0.0178305, 0.00267623, 0.000212028, 0.000219455, 0.00145936
-0.00352007, 0.00229446, -0.588082, 2.58748e-05, -5.91038e-05, 0.00022392, 0.0252145, 0.0178291, 0.00267446, 0.000211992, 0.000219286, 0.0014587
-0.00350952, 0.00230714, -0.588089, 2.56021e-05, -5.91954e-05, 0.000225043, 0.0252138, 0.0178277, 0.0026728, 0.000211983, 0.000219128, 0.00145804
-0.0034673, 0.00235196, -0.588119, 2.5954e-05, -5.90008e-05, 0.00022522, 0.0252133, 0.0178262, 0.00267125, 0.000211998, 0.000218977, 0.00145739
-0.00347634, 0.00233754, -0.58811, 2.5912e-05, -5.93831e-05, 0.000224524, 0.0252127, 0.0178247, 0.00266979, 0.000212031, 0.000218832, 0.00145676
-0.00344699, 0.00235811, -0.588134, 2.79827e-05, -5.93979e-05, 0.000217918, 0.0252122, 0.0178231, 0.00266844, 0.000212084, 0.000218695, 0.00145615
-0.00343131, 0.00238014, -0.588144, 2.75384e-05, -5.94478e-05, 0.000220028, 0.0252116, 0.0178216, 0.00266721, 0.000212151, 0.00021856, 0.00145558
-0.00339767, 0.00241306, -0.588167, 2.80715e-05, -5.91578e-05, 0.000219768, 0.025211, 0.0178203, 0.0026661, 0.000212233, 0.000218432, 0.00145504
-0.00337804, 0.00243464, -0.588179, 2.79049e-05, -5.91218e-05, 0.000221256, 0.0252104, 0.0178192, 0.00266508, 0.000212325, 0.000218307, 0.00145454
-0.00334461, 0.00247762, -0.588202, 2.71777e-05, -5.8709e-05, 0.000226, 0.0252098, 0.0178181, 0.00266417, 0.000212426, 0.000218186, 0.00145407
-0.00332864, 0.00248978, -0.588211, 2.73827e-05, -5.87125e-05, 0.000226035, 0.0252093, 0.0178171, 0.00266333, 0.000212538, 0.00021807, 0.00145363
-0.0033241, 0.002461, -0.588203, 2.90932e-05, -5.92704e-05, 0.000219097, 0.0252088, 0.017816, 0.00266255, 0.000212655, 0.000217955, 0.00145322
-0.00332137, 0.0024778, -0.588209, 2.84483e-05, -5.90821e-05, 0.00022196, 0.0252083, 0.0178148, 0.00266183, 0.00021278, 0.000217844, 0.00145284
-0.00330714, 0.0025204, -0.588227, 2.73629e-05, -5.89135e-05, 0.000227529, 0.0252078, 0.0178135, 0.00266114, 0.000212904, 0.000217733, 0.0014525
-0.00330297, 0.00253932, -0.588235, 2.68508e-05, -5.88582e-05, 0.00023004, 0.0252073, 0.0178122, 0.0026605, 0.000213031, 0.000217628, 0.0014522
-0.00329161, 0.0025409, -0.588238, 2.72234e-05, -5.90557e-05, 0.000229459, 0.0252067, 0.0178109, 0.00265988, 0.000213155, 0.000217525, 0.00145194
-0.00326576, 0.00260471, -0.588268, 2.64554e-05, -5.8817e-05, 0.000235629, 0.0252061, 0.0178097, 0.00265929, 0.000213274, 0.000217425, 0.00145173
-0.00324605, 0.00261607, -0.588277, 2.69464e-05, -5.90274e-05, 0.000236083, 0.0252056, 0.0178085, 0.00265871, 0.000213385, 0.000217329, 0.00145158
-0.00325697, 0.0026164, -0.588275, 2.62797e-05, -5.90229e-05, 0.000236605, 0.0252051, 0.0178074, 0.00265809, 0.000213482, 0.000217235, 0.00145147
-0.00324217, 0.00259362, -0.588268, 2.77819e-05, -5.9339e-05, 0.000234598, 0.0252046, 0.0178062, 0.00265742, 0.000213562, 0.000217145, 0.00145142
-0.00322759, 0.00262513, -0.588285, 2.78663e-05, -5.96667e-05, 0.000237004, 0.0252042, 0.017805, 0.00265664, 0.000213615, 0.000217057, 0.0014514
-0.00318517, 0.00262558, -0.588293, 3.091e-05, -5.99183e-05, 0.000239232, 0.0252036, 0.0178035, 0.00265573, 0.000213636, 0.000216967, 0.00145139
-0.00313364, 0.00255942, -0.588274, 3.53365e-05, -6.08672e-05, 0.000241113, 0.025203, 0.0178017, 0.00265464, 0.00021362, 0.000216879, 0.00145135
-0.00310393, 0.00255766, -0.588277, 3.72361e-05, -6.11291e-05, 0.000244141, 0.0252022, 0.0177996, 0.00265336, 0.00021356, 0.000216789, 0.00145125
-0.0030958, 0.00255237, -0.588276, 3.79001e-05, -6.1157e-05, 0.000245346, 0.0252012, 0.0177973, 0.00265185, 0.00021345, 0.000216696, 0.00145103
-0.0030607, 0.00259821, -0.588295, 3.90034e-05, -6.07161e-05, 0.00024943, 0.0252, 0.0177947, 0.00265008, 0.00021329, 0.000216599, 0.00145063
-0.00304502, 0.00261768, -0.588304, 3.92238e-05, -6.07631e-05, 0.00025029, 0.0251986, 0.017792, 0.00264802, 0.000213079, 0.000216495, 0.00145001
-0.00309141, 0.00258762, -0.588289, 3.7413e-05, -6.08966e-05, 0.000244316, 0.0251969, 0.0177893, 0.00264564, 0.000212825, 0.000216386, 0.00144912
-0.00312355, 0.00260161, -0.588292, 3.44987e-05, -6.10826e-05, 0.000233842, 0.0251952, 0.0177865, 0.00264289, 0.000212534, 0.00021627, 0.00144795
-0.00312346, 0.00263274, -0.588308, 3.26578e-05, -6.15888e-05, 0.000225705, 0.0251936, 0.0177837, 0.00263973, 0.00021222, 0.000216148, 0.0014465
-0.00310741, 0.00266047, -0.588322, 3.25477e-05, -6.17121e-05, 0.000224449, 0.0251922, 0.0177806, 0.0026362, 0.000211901, 0.000216021, 0.00144482
-0.00314318, 0.00262931, -0.588307, 3.04278e-05, -6.22133e-05, 0.00021549, 0.0251908, 0.0177772, 0.00263231, 0.000211596, 0.000215891, 0.00144295
-0.00311092, 0.0026593, -0.588323, 3.16285e-05, -6.23327e-05, 0.000219522, 0.0251895, 0.0177735, 0.00262815, 0.000211315, 0.000215759, 0.00144098
-0.00309884, 0.0026582, -0.588325, 3.22627e-05, -6.27604e-05, 0.000221476, 0.0251881, 0.0177695, 0.00262381, 0.000211069, 0.000215623, 0.00143895
-0.00308614, 0.00264639, -0.588323, 3.33729e-05, -6.33402e-05, 0.000225723, 0.0251869, 0.0177652, 0.00261933, 0.000210864, 0.000215485, 0.00143692
-0.00304038, 0.00268522, -0.588343, 3.60636e-05, -6.34722e-05, 0.000236641, 0.0251857, 0.0177606, 0.00261479, 0.000210705, 0.000215348, 0.00143494
-0.00298736, 0.00276903, -0.588382, 3.73768e-05, -6.39588e-05, 0.00023859, 0.0251848, 0.0177557, 0.00261021, 0.000210586, 0.000215206, 0.00143302
-0.00298372, 0.00273361, -0.58837, 3.89446e-05, -6.43552e-05, 0.000246524, 0.0251841, 0.0177508, 0.00260566, 0.000210508, 0.000215064, 0.00143117
-0.00296294, 0.00275984, -0.588384, 3.95443e-05, -6.51074e-05, 0.000246384, 0.0251835, 0.0177459, 0.00260118, 0.000210465, 0.000214921, 0.00142939
-0.00295871, 0.00271738, -0.58837, 4.08571e-05, -6.57834e-05, 0.000252869, 0.025183, 0.0177413, 0.00259682, 0.000210456, 0.000214778, 0.0014277
-0.00295045, 0.0026939, -0.588363, 4.20016e-05, -6.63476e-05, 0.00025798, 0.0251827, 0.017737, 0.0025926, 0.000210476, 0.000214635, 0.00142609
-0.00293897, 0.00270604, -0.588372, 4.20673e-05, -6.7258e-05, 0.000255023, 0.0251824, 0.017733, 0.00258858, 0.000210522, 0.000214492, 0.00142456
-0.00293204, 0.00266954, -0.588359, 4.23812e-05, -6.82931e-05, 0.000255305, 0.0251821, 0.0177293, 0.00258474, 0.00021059, 0.000214349, 0.00142311
-0.00293204, 0.00266954, -0.588359, 4.23812e-05, -6.82931e-05, 0.000255305, 0.0251822, 0.0177294, 0.00258573, 0.000210887, 0.000214641, 0.00142316
-0.0029301, 0.00265654, -0.588356, 4.13765e-05, -6.9327e-05, 0.000247815, 0.025182, 0.0177257, 0.00258162, 0.000210943, 0.000214432, 0.00142159
-0.00292043, 0.00272177, -0.58839, 4.17968e-05, -7.00397e-05, 0.000243974, 0.0251817, 0.0177222, 0.0025778, 0.000211025, 0.000214235, 0.00142017
-0.0029026, 0.00275029, -0.588408, 4.30626e-05, -7.10411e-05, 0.000245126, 0.0251815, 0.0177188, 0.00257428, 0.000211125, 0.000214043, 0.00141886
-0.00289792, 0.00276511, -0.588419, 4.28363e-05, -7.2125e-05, 0.000239723, 0.0251813, 0.0177153, 0.00257102, 0.000211241, 0.000213858, 0.00141762
-0.00287955, 0.00274909, -0.588419, 4.37566e-05, -7.32376e-05, 0.000240802, 0.025181, 0.0177117, 0.00256799, 0.000211367, 0.000213678, 0.00141648
-0.00286937, 0.00274854, -0.588424, 4.40818e-05, -7.43774e-05, 0.000238344, 0.0251807, 0.0177078, 0.00256515, 0.000211504, 0.000213504, 0.00141541
-0.00288938, 0.00277805, -0.588439, 4.26796e-05, -7.56263e-05, 0.00022744, 0.0251803, 0.0177035, 0.00256248, 0.000211647, 0.000213334, 0.00141442
-0.00288981, 0.00280944, -0.588455, 4.25801e-05, -7.67154e-05, 0.000222269, 0.0251798, 0.0176989, 0.00256, 0.000211794, 0.000213171, 0.00141351
-0.00287592, 0.00279987, -0.588457, 4.30996e-05, -7.78965e-05, 0.000220521, 0.0251795, 0.0176945, 0.00255769, 0.000211941, 0.000213012, 0.00141267
-0.00287371, 0.00279832, -0.58846, 4.30079e-05, -7.87177e-05, 0.000217541, 0.0251791, 0.0176905, 0.00255557, 0.000212088, 0.000212857, 0.00141186
-0.00287512, 0.00280464, -0.588466, 4.26367e-05, -7.97285e-05, 0.0002129, 0.0251788, 0.0176869, 0.00255361, 0.000212228, 0.000212704, 0.0014111
-0.00289004, 0.00286955, -0.588494, 4.21051e-05, -8.08804e-05, 0.000205254, 0.0251785, 0.0176834, 0.00255175, 0.000212361, 0.000212554, 0.00141039
-0.00285972, 0.00284259, -0.588491, 4.37207e-05, -8.20525e-05, 0.000205587, 0.0251781, 0.0176799, 0.00254998, 0.000212485, 0.000212409, 0.00140974
-0.00286141, 0.00287254, -0.588507, 4.37616e-05, -8.34213e-05, 0.000200142, 0.0251777, 0.0176763, 0.00254824, 0.000212594, 0.000212263, 0.0014091
-0.00287704, 0.00289935, -0.58852, 4.29188e-05, -8.43118e-05, 0.000195359, 0.0251772, 0.0176727, 0.00254652, 0.000212688, 0.00021212, 0.00140851
-0.00288115, 0.00294315, -0.588539, 4.36468e-05, -8.50483e-05, 0.000192542, 0.0251767, 0.0176692, 0.00254481, 0.000212765, 0.000211981, 0.00140795
-0.00289317, 0.00297175, -0.588553, 4.31237e-05, -8.63295e-05, 0.00018745, 0.0251762, 0.0176657, 0.0025431, 0.00021282, 0.000211843, 0.00140741
-0.00290213, 0.00297904, -0.588558, 4.24123e-05, -8.71753e-05, 0.000184413, 0.0251755, 0.0176621, 0.00254131, 0.000212852, 0.000211708, 0.0014069
-0.0028927, 0.00295482, -0.588552, 4.21967e-05, -8.81008e-05, 0.000182014, 0.0251747, 0.0176582, 0.00253946, 0.00021286, 0.000211577, 0.00140641
-0.00288395, 0.00298278, -0.588567, 4.44152e-05, -8.91094e-05, 0.00017839, 0.0251737, 0.017654, 0.00253753, 0.000212838, 0.000211447, 0.00140593
-0.00288435, 0.00299333, -0.588574, 4.48617e-05, -9.00117e-05, 0.00017543, 0.0251725, 0.0176493, 0.00253551, 0.000212785, 0.000211317, 0.00140543
-0.00285694, 0.00293996, -0.58856, 4.54345e-05, -9.08899e-05, 0.000172856, 0.0251713, 0.0176441, 0.00253339, 0.000212698, 0.000211187, 0.00140491
-0.00284563, 0.00297373, -0.588575, 4.71752e-05, -9.17802e-05, 0.000168779, 0.02517, 0.0176383, 0.00253116, 0.000212579, 0.000211058, 0.00140437
-0.00284565, 0.00295342, -0.588571, 4.67586e-05, -9.25659e-05, 0.000166911, 0.0251684, 0.0176319, 0.00252879, 0.000212429, 0.000210931, 0.00140379
-0.00283215, 0.00290232, -0.588557, 4.66124e-05, -9.29176e-05, 0.000166074, 0.0251668, 0.017625, 0.00252632, 0.000212245, 0.000210804, 0.00140317
-0.00287691, 0.00295816, -0.588574, 4.49819e-05, -9.34956e-05, 0.000166624, 0.0251651, 0.0176178, 0.00252372, 0.000212033, 0.000210678, 0.0014025
-0.00288158, 0.00291922, -0.588562, 4.38583e-05, -9.35404e-05, 0.000167959, 0.0251633, 0.0176103, 0.00252101, 0.000211794, 0.000210554, 0.0014018
-0.0028749, 0.00287084, -0.58855, 4.33774e-05, -9.39071e-05, 0.00016738, 0.0251617, 0.0176021, 0.00251821, 0.000211534, 0.000210431, 0.00140104
-0.0028679, 0.00283592, -0.588542, 4.31383e-05, -9.4561e-05, 0.00016572, 0.0251599, 0.0175932, 0.00251523, 0.000211256, 0.000210308, 0.00140024
-0.00285764, 0.00278477, -0.588529, 4.24566e-05, -9.49919e-05, 0.000165235, 0.0251576, 0.0175835, 0.00251208, 0.000210969, 0.000210187, 0.00139938
-0.00281303, 0.00273277, -0.588519, 4.42524e-05, -9.57368e-05, 0.000159471, 0.0251553, 0.0175738, 0.0025089, 0.000210675, 0.000210065, 0.00139847
-0.0028585, 0.00285975, -0.588553, 4.40156e-05, -9.57897e-05, 0.00016098, 0.025153, 0.0175644, 0.00250576, 0.000210381, 0.000209942, 0.00139748
-0.00282721, 0.00279609, -0.588536, 4.46696e-05, -9.58048e-05, 0.000159166, 0.0251505, 0.0175556, 0.00250266, 0.000210088, 0.000209819, 0.00139644
-0.0028181, 0.00276031, -0.588527, 4.47499e-05, -9.62597e-05, 0.000157265, 0.025148, 0.0175473, 0.00249961, 0.000209803, 0.000209695, 0.00139535
-0.00273678, 0.00268967, -0.588511, 4.78455e-05, -9.68765e-05, 0.000148084, 0.0251453, 0.0175391, 0.00249657, 0.000209527, 0.000209571, 0.00139422
-0.00276084, 0.00262412, -0.588492, 4.58711e-05, -9.71156e-05, 0.000150664, 0.0251426, 0.017531, 0.00249354, 0.000209267, 0.000209447, 0.00139305
-0.00279628, 0.00268928, -0.58851, 4.50862e-05, -9.7187e-05, 0.000153154, 0.0251401, 0.0175229, 0.00249054, 0.000209022, 0.000209324, 0.00139188
-0.00282293, 0.00274476, -0.588526, 4.46536e-05, -9.7206e-05, 0.000154961, 0.0251377, 0.017515, 0.00248757, 0.000208794, 0.000209202, 0.00139071
-0.00283268, 0.00270751, -0.588516, 4.35435e-05, -9.74112e-05, 0.000156176, 0.0251356, 0.0175069, 0.00248464, 0.000208585, 0.000209081, 0.00138954
-0.00281527, 0.00278951, -0.58854, 4.61641e-05, -9.76211e-05, 0.000151296, 0.0251336, 0.0174985, 0.00248173, 0.000208395, 0.000208961, 0.00138839
-0.0027593, 0.00273688, -0.588528, 4.84599e-05, -9.7733e-05, 0.000144807, 0.0251317, 0.0174898, 0.00247886, 0.000208223, 0.000208841, 0.00138722
-0.00277875, 0.0026987, -0.588517, 4.63734e-05, -9.76349e-05, 0.000149006, 0.0251295, 0.0174808, 0.00247601, 0.00020807, 0.000208723, 0.00138604
-0.00275969, 0.00266608, -0.588508, 4.66247e-05, -9.74682e-05, 0.000148344, 0.0251272, 0.0174715, 0.00247318, 0.000207933, 0.000208604, 0.00138489
-0.00283566, 0.00280315, -0.588541, 4.57824e-05, -9.70989e-05, 0.00015403, 0.0251247, 0.0174619, 0.00247038, 0.000207812, 0.000208486, 0.00138376
-0.0029027, 0.00291568, -0.588567, 4.48261e-05, -9.66168e-05, 0.000159728, 0.0251222, 0.0174522, 0.00246764, 0.000207706, 0.00020837, 0.00138265
-0.00290405, 0.00284321, -0.588545, 4.21371e-05, -9.57518e-05, 0.000166519, 0.0251197, 0.0174426, 0.00246498, 0.000207616, 0.000208258, 0.00138156
-0.00301446, 0.00297945, -0.588573, 3.87544e-05, -9.45272e-05, 0.000179955, 0.0251173, 0.0174331, 0.00246239, 0.000207537, 0.000208146, 0.00138053
-0.00305991, 0.00303014, -0.588582, 3.70209e-05, -9.36966e-05, 0.000186906, 0.0251149, 0.0174237, 0.00245985, 0.000207471, 0.000208039, 0.00137955
-0.00309359, 0.003086, -0.588593, 3.63692e-05, -9.29443e-05, 0.000191469, 0.0251126, 0.0174145, 0.00245738, 0.000207413, 0.000207932, 0.00137862
-0.00320839, 0.00327033, -0.588634, 3.4558e-05, -9.17513e-05, 0.00020211, 0.0251103, 0.0174055, 0.00245497, 0.000207364, 0.000207826, 0.00137771
-0.00326671, 0.00331442, -0.588639, 3.09302e-05, -9.06194e-05, 0.000213005, 0.0251082, 0.0173966, 0.00245264, 0.000207322, 0.000207722, 0.00137685
-0.00336575, 0.0035113, -0.588684, 3.05903e-05, -8.95396e-05, 0.000220483, 0.0251062, 0.0173879, 0.00245038, 0.000207286, 0.000207622, 0.00137605
-0.00342602, 0.00360944, -0.588704, 2.90768e-05, -8.85901e-05, 0.000227586, 0.0251044, 0.0173794, 0.00244817, 0.000207253, 0.000207522, 0.00137528
-0.00347643, 0.00370051, -0.588724, 2.80347e-05, -8.77199e-05, 0.000233387, 0.0251028, 0.0173711, 0.00244602, 0.000207225, 0.000207424, 0.00137454
-0.00352861, 0.00386933, -0.588764, 2.96376e-05, -8.69001e-05, 0.000236172, 0.0251014, 0.0173631, 0.00244394, 0.000207197, 0.000207326, 0.00137384
-0.00356524, 0.00401039, -0.588797, 3.09711e-05, -8.59741e-05, 0.000239267, 0.0251001, 0.0173553, 0.00244191, 0.00020717, 0.000207229, 0.00137313
-0.00356904, 0.00402763, -0.588799, 3.08823e-05, -8.52023e-05, 0.000241895, 0.0250988, 0.0173479, 0.00243991, 0.000207141, 0.000207131, 0.00137244
-0.00359641, 0.0040309, -0.588798, 2.90367e-05, -8.47309e-05, 0.000245482, 0.0250975, 0.0173407, 0.00243795, 0.000207111, 0.000207035, 0.00137176
-0.00361282, 0.00402682, -0.588795, 2.78821e-05, -8.43041e-05, 0.000247875, 0.0250961, 0.0173337, 0.002436, 0.000207077, 0.000206939, 0.00137111
-0.00360881, 0.00409187, -0.588811, 2.89522e-05, -8.39259e-05, 0.000248849, 0.0250947, 0.0173267, 0.00243407, 0.000207043, 0.000206846, 0.00137049
-0.00363255, 0.00419048, -0.588836, 2.86736e-05, -8.36966e-05, 0.000250748, 0.0250935, 0.0173199, 0.00243217, 0.000207001, 0.000206751, 0.00136987
-0.00370023, 0.00424282, -0.588847, 2.53464e-05, -8.29419e-05, 0.000255376, 0.0250925, 0.0173136, 0.00243032, 0.000206956, 0.000206658, 0.00136927
-0.00363953, 0.00427036, -0.588855, 2.84318e-05, -8.28224e-05, 0.000254807, 0.0250914, 0.0173076, 0.00242846, 0.000206907, 0.000206566, 0.00136871
-0.00366507, 0.00426549, -0.588853, 2.7179e-05, -8.258e-05, 0.000255803, 0.0250902, 0.0173017, 0.0024266, 0.000206852, 0.000206474, 0.00136812
-0.00370188, 0.00423022, -0.588842, 2.54861e-05, -8.24324e-05, 0.000256279, 0.0250889, 0.0172958, 0.00242471, 0.000206794, 0.000206383, 0.00136754
-0.0036824, 0.00416154, -0.588823, 2.66071e-05, -8.27084e-05, 0.000255478, 0.0250876, 0.01729, 0.0024228, 0.000206732, 0.000206293, 0.00136698
-0.0036749, 0.00411431, -0.588809, 2.71049e-05, -8.27519e-05, 0.0002555, 0.0250864, 0.017284, 0.00242086, 0.000206669, 0.000206204, 0.00136641
-0.00368149, 0.00416512, -0.588823, 2.64696e-05, -8.24536e-05, 0.000256103, 0.0250851, 0.0172781, 0.00241891, 0.000206605, 0.000206116, 0.00136583
-0.00370203, 0.00415237, -0.588817, 2.55916e-05, -8.19555e-05, 0.00025728, 0.0250838, 0.0172718, 0.00241696, 0.00020654, 0.000206027, 0.00136525
-0.0036861, 0.00419218, -0.588828, 2.59153e-05, -8.20133e-05, 0.000257126, 0.0250823, 0.0172653, 0.00241502, 0.000206478, 0.000205942, 0.00136468
-0.00367188, 0.00413374, -0.588813, 2.72928e-05, -8.21868e-05, 0.00025793, 0.0250808, 0.0172587, 0.00241309, 0.000206418, 0.000205856, 0.00136409
-0.00369327, 0.00410448, -0.588804, 2.67271e-05, -8.18252e-05, 0.000258867, 0.0250792, 0.0172522, 0.00241119, 0.000206364, 0.000205771, 0.00136349
-0.00373962, 0.00407632, -0.588795, 2.50363e-05, -8.15519e-05, 0.000258398, 0.0250776, 0.0172461, 0.00240933, 0.000206316, 0.000205689, 0.00136287
-0.00374104, 0.00400937, -0.588776, 2.62407e-05, -8.17079e-05, 0.000260187, 0.0250762, 0.0172407, 0.00240753, 0.000206275, 0.000205609, 0.00136226
-0.0037596, 0.0039242, -0.588752, 2.74659e-05, -8.2114e-05, 0.000261742, 0.0250747, 0.0172361, 0.00240584, 0.000206242, 0.000205528, 0.00136161
-0.00372791, 0.00396403, -0.588765, 2.77579e-05, -8.22881e-05, 0.000260507, 0.0250729, 0.0172319, 0.00240425, 0.000206217, 0.000205448, 0.00136094
-0.00369647, 0.00398709, -0.588773, 2.85485e-05, -8.24379e-05, 0.000260614, 0.0250711, 0.017228, 0.00240274, 0.000206201, 0.00020537, 0.00136026
-0.00371712, 0.00397963, -0.588771, 2.77381e-05, -8.24618e-05, 0.000259505, 0.0250694, 0.0172242, 0.00240126, 0.000206194, 0.000205293, 0.00135955
-0.00369018, 0.00404999, -0.588795, 2.68559e-05, -8.26111e-05, 0.000256091, 0.0250676, 0.0172203, 0.00239983, 0.000206194, 0.000205217, 0.00135885
-0.00369783, 0.00404086, -0.588793, 2.66884e-05, -8.28634e-05, 0.000255046, 0.0250659, 0.0172162, 0.00239843, 0.000206201, 0.000205142, 0.00135815
-0.0036874, 0.00406324, -0.5888, 2.65076e-05, -8.2965e-05, 0.000253981, 0.0250643, 0.017212, 0.00239709, 0.000206213, 0.00020507, 0.00135747
-0.00369259, 0.00410383, -0.588812, 2.48719e-05, -8.30026e-05, 0.00025062, 0.0250624, 0.0172077, 0.00239583, 0.000206231, 0.000204999, 0.00135681
-0.00372711, 0.00411333, -0.588816, 2.27213e-05, -8.31967e-05, 0.000246684, 0.0250602, 0.0172035, 0.00239465, 0.000206253, 0.000204929, 0.00135618
-0.00369079, 0.00411936, -0.588821, 2.40331e-05, -8.39416e-05, 0.000245793, 0.025058, 0.0171994, 0.00239353, 0.000206278, 0.000204862, 0.00135559
-0.00367011, 0.00413381, -0.588827, 2.42297e-05, -8.46184e-05, 0.00024341, 0.0250559, 0.0171956, 0.00239245, 0.000206303, 0.000204796, 0.001355
-0.00366938, 0.00413761, -0.58883, 2.38957e-05, -8.51164e-05, 0.000241263, 0.0250539, 0.0171921, 0.00239141, 0.000206327, 0.00020473, 0.00135442
-0.00368107, 0.00412992, -0.588829, 2.33948e-05, -8.55927e-05, 0.000239293, 0.0250521, 0.017189, 0.00239039, 0.000206349, 0.000204665, 0.00135387
-0.00365085, 0.00412966, -0.588833, 2.5085e-05, -8.6503e-05, 0.000237863, 0.0250504, 0.017186, 0.00238939, 0.000206367, 0.000204601, 0.00135335
-0.00361601, 0.00416259, -0.588845, 2.51049e-05, -8.70554e-05, 0.000235615, 0.0250485, 0.0171829, 0.00238841, 0.000206381, 0.000204538, 0.00135282
-0.00354413, 0.0042069, -0.588861, 2.67575e-05, -8.78779e-05, 0.000233481, 0.0250463, 0.0171797, 0.00238744, 0.000206389, 0.000204476, 0.00135232
-0.00355416, 0.00418738, -0.588858, 2.71325e-05, -8.85815e-05, 0.000231481, 0.0250438, 0.0171763, 0.00238649, 0.000206388, 0.000204414, 0.00135181
-0.00360367, 0.00414722, -0.588847, 2.64341e-05, -8.89968e-05, 0.000230202, 0.0250411, 0.0171728, 0.00238552, 0.00020638, 0.000204354, 0.00135132
-0.00360253, 0.00412316, -0.588842, 2.80792e-05, -8.96586e-05, 0.000228373, 0.0250379, 0.0171691, 0.00238455, 0.000206361, 0.000204294, 0.00135084
-0.00352925, 0.0041769, -0.58886, 2.85049e-05, -9.06658e-05, 0.000225113, 0.0250347, 0.0171654, 0.00238357, 0.000206334, 0.000204236, 0.00135035
-0.00354745, 0.00414981, -0.588854, 2.90611e-05, -9.13016e-05, 0.000223047, 0.0250316, 0.0171617, 0.00238255, 0.000206294, 0.000204176, 0.00134987
-0.00352521, 0.00414075, -0.588854, 3.09865e-05, -9.20654e-05, 0.000220006, 0.0250282, 0.017158, 0.00238152, 0.000206247, 0.000204119, 0.00134937
-0.00343443, 0.00420058, -0.588874, 3.21147e-05, -9.2965e-05, 0.000217032, 0.0250248, 0.0171542, 0.00238046, 0.000206192, 0.000204062, 0.00134886
-0.00354656, 0.00413501, -0.588854, 2.89645e-05, -9.30405e-05, 0.000217959, 0.0250214, 0.0171502, 0.00237937, 0.000206129, 0.000204006, 0.00134834
